~o
<STREAMINFO> 1 16
<VECSIZE> 16<NULLD><FBANK><DIAGC>
~h "ctyri"
<BEGINHMM>
<NUMSTATES> 10
<STATE> 2
<MEAN> 16
 6.091321e+00 6.520153e+00 7.003566e+00 7.118780e+00 6.948829e+00 7.064188e+00 7.283480e+00 7.637180e+00 8.206825e+00 8.363931e+00 8.573473e+00 8.806532e+00 9.076935e+00 9.032923e+00 8.888309e+00 8.838494e+00
<VARIANCE> 16
 1.282344e+00 2.196980e+00 3.468256e+00 2.863563e+00 1.517414e+00 1.199802e+00 1.341200e+00 1.925777e+00 2.761714e+00 3.506541e+00 3.832748e+00 3.862536e+00 4.033361e+00 3.421674e+00 2.604837e+00 1.885030e+00
<GCONST> 4.346701e+01
<STATE> 3
<MEAN> 16
 6.149239e+00 6.625440e+00 7.152968e+00 7.255763e+00 7.033132e+00 7.127222e+00 7.349364e+00 7.728232e+00 8.335109e+00 8.514562e+00 8.719351e+00 8.956804e+00 9.240641e+00 9.169242e+00 8.971217e+00 8.886421e+00
<VARIANCE> 16
 1.364775e+00 2.347852e+00 3.725242e+00 3.075796e+00 1.622939e+00 1.272692e+00 1.412083e+00 2.025751e+00 2.913041e+00 3.659021e+00 3.966766e+00 3.995833e+00 4.181892e+00 3.534617e+00 2.671156e+00 1.928282e+00
<GCONST> 4.424770e+01
<STATE> 4
<MEAN> 16
 6.201193e+00 6.724814e+00 7.295196e+00 7.385591e+00 7.111346e+00 7.183922e+00 7.407476e+00 7.810064e+00 8.451838e+00 8.650934e+00 8.847205e+00 9.089235e+00 9.386753e+00 9.287689e+00 9.034861e+00 8.917711e+00
<VARIANCE> 16
 1.421902e+00 2.453434e+00 3.914268e+00 3.232702e+00 1.697773e+00 1.319249e+00 1.450960e+00 2.079027e+00 3.002251e+00 3.724816e+00 4.000763e+00 4.029696e+00 4.228774e+00 3.558688e+00 2.661808e+00 1.909935e+00
<GCONST> 4.463590e+01
<STATE> 5
<MEAN> 16
 6.242166e+00 6.811279e+00 7.421547e+00 7.500749e+00 7.178301e+00 7.230470e+00 7.454110e+00 7.877415e+00 8.550189e+00 8.766022e+00 8.950039e+00 9.195909e+00 9.506700e+00 9.381090e+00 9.074733e+00 8.929628e+00
<VARIANCE> 16
 1.445301e+00 2.501570e+00 4.020205e+00 3.323797e+00 1.735189e+00 1.333742e+00 1.452641e+00 2.080331e+00 3.027067e+00 3.710521e+00 3.945196e+00 3.973612e+00 4.184545e+00 3.504520e+00 2.583374e+00 1.832134e+00
<GCONST> 4.463969e+01
<STATE> 6
<MEAN> 16
 6.267674e+00 6.877860e+00 7.523449e+00 7.594312e+00 7.229589e+00 7.263804e+00 7.486344e+00 7.925972e+00 8.624592e+00 8.854351e+00 9.023309e+00 9.271254e+00 9.594256e+00 9.444749e+00 9.089422e+00 8.922428e+00
<VARIANCE> 16
 1.429388e+00 2.486310e+00 4.037347e+00 3.345765e+00 1.732224e+00 1.314246e+00 1.416365e+00 2.030381e+00 2.992339e+00 3.632826e+00 3.821825e+00 3.849909e+00 4.073515e+00 3.393920e+00 2.452385e+00 1.707590e+00
<GCONST> 4.428982e+01
<STATE> 7
<MEAN> 16
 6.274658e+00 6.918846e+00 7.593553e+00 7.660282e+00 7.261837e+00 7.281795e+00 7.502144e+00 7.952456e+00 8.670485e+00 8.911223e+00 9.063747e+00 9.311190e+00 9.644678e+00 9.475491e+00 9.079134e+00 8.897951e+00
<VARIANCE> 16
 1.373666e+00 2.410540e+00 3.972293e+00 3.304688e+00 1.691116e+00 1.263403e+00 1.346290e+00 1.936250e+00 2.909023e+00 3.513212e+00 3.655982e+00 3.685882e+00 3.925698e+00 3.251252e+00 2.287174e+00 1.552847e+00
<GCONST> 4.363457e+01
<STATE> 8
<MEAN> 16
 6.262186e+00 6.930859e+00 7.626881e+00 7.694223e+00 7.273049e+00 7.283445e+00 7.500525e+00 7.954919e+00 8.684554e+00 8.932786e+00 9.069063e+00 9.313031e+00 9.654612e+00 9.471386e+00 9.044942e+00 8.858619e+00
<VARIANCE> 16
 1.283163e+00 2.285335e+00 3.842015e+00 3.214586e+00 1.619133e+00 1.187941e+00 1.250847e+00 1.810281e+00 2.791879e+00 3.373380e+00 3.471157e+00 3.506722e+00 3.768618e+00 3.096980e+00 2.102777e+00 1.382970e+00
<GCONST> 4.273342e+01
<STATE> 9
<MEAN> 16
 6.065741e+00 6.708574e+00 7.389535e+00 7.491596e+00 7.117801e+00 7.142786e+00 7.334473e+00 7.735716e+00 8.416039e+00 8.655081e+00 8.756330e+00 8.961255e+00 9.300988e+00 9.131312e+00 8.725688e+00 8.615039e+00
<VARIANCE> 16
 7.921708e-01 1.600725e+00 3.044978e+00 2.641940e+00 1.221910e+00 8.211951e-01 8.284858e-01 1.263265e+00 2.206143e+00 2.834388e+00 2.791233e+00 2.859928e+00 3.228386e+00 2.508355e+00 1.371024e+00 7.751601e-01
<GCONST> 3.784031e+01
<TRANSP> 10
 0.000000e+00 1.000000e+00 0.000000e+00 0.000000e+00 0.000000e+00 0.000000e+00 0.000000e+00 0.000000e+00 0.000000e+00 0.000000e+00
 0.000000e+00 8.426743e-01 1.573257e-01 0.000000e+00 0.000000e+00 0.000000e+00 0.000000e+00 0.000000e+00 0.000000e+00 0.000000e+00
 0.000000e+00 0.000000e+00 8.426740e-01 1.573260e-01 0.000000e+00 0.000000e+00 0.000000e+00 0.000000e+00 0.000000e+00 0.000000e+00
 0.000000e+00 0.000000e+00 0.000000e+00 8.426738e-01 1.573261e-01 0.000000e+00 0.000000e+00 0.000000e+00 0.000000e+00 0.000000e+00
 0.000000e+00 0.000000e+00 0.000000e+00 0.000000e+00 8.426742e-01 1.573258e-01 0.000000e+00 0.000000e+00 0.000000e+00 0.000000e+00
 0.000000e+00 0.000000e+00 0.000000e+00 0.000000e+00 0.000000e+00 8.426741e-01 1.573258e-01 0.000000e+00 0.000000e+00 0.000000e+00
 0.000000e+00 0.000000e+00 0.000000e+00 0.000000e+00 0.000000e+00 0.000000e+00 8.426745e-01 1.573255e-01 0.000000e+00 0.000000e+00
 0.000000e+00 0.000000e+00 0.000000e+00 0.000000e+00 0.000000e+00 0.000000e+00 0.000000e+00 8.426742e-01 1.573257e-01 0.000000e+00
 0.000000e+00 0.000000e+00 0.000000e+00 0.000000e+00 0.000000e+00 0.000000e+00 0.000000e+00 0.000000e+00 9.765783e-01 2.342174e-02
 0.000000e+00 0.000000e+00 0.000000e+00 0.000000e+00 0.000000e+00 0.000000e+00 0.000000e+00 0.000000e+00 0.000000e+00 0.000000e+00
<ENDHMM>
~h "sedm"
<BEGINHMM>
<NUMSTATES> 10
<STATE> 2
<MEAN> 16
 6.189724e+00 6.639822e+00 7.025864e+00 7.236387e+00 7.171328e+00 7.275279e+00 7.539964e+00 7.851297e+00 8.107813e+00 8.094255e+00 8.267367e+00 8.491570e+00 8.817574e+00 8.863376e+00 8.770588e+00 8.820465e+00
<VARIANCE> 16
 1.451184e+00 2.449873e+00 3.125626e+00 3.149054e+00 2.266674e+00 1.761388e+00 2.125624e+00 2.646943e+00 2.228129e+00 2.420879e+00 2.563717e+00 2.640494e+00 2.932741e+00 2.753790e+00 2.430029e+00 1.972248e+00
<GCONST> 4.332679e+01
<STATE> 3
<MEAN> 16
 6.260583e+00 6.762224e+00 7.165670e+00 7.371535e+00 7.275469e+00 7.364911e+00 7.638613e+00 7.965189e+00 8.214002e+00 8.205372e+00 8.375907e+00 8.603739e+00 8.939643e+00 8.959141e+00 8.823014e+00 8.857542e+00
<VARIANCE> 16
 1.534111e+00 2.603492e+00 3.315025e+00 3.324363e+00 2.395377e+00 1.852744e+00 2.228600e+00 2.768010e+00 2.344444e+00 2.532920e+00 2.689175e+00 2.754822e+00 3.006438e+00 2.766045e+00 2.426333e+00 1.975821e+00
<GCONST> 4.396984e+01
<STATE> 4
<MEAN> 16
 6.323301e+00 6.878691e+00 7.296974e+00 7.496484e+00 7.370465e+00 7.446916e+00 7.727912e+00 8.067360e+00 8.309359e+00 8.305257e+00 8.471882e+00 8.702776e+00 9.044704e+00 9.034771e+00 8.854465e+00 8.876564e+00
<VARIANCE> 16
 1.586788e+00 2.699944e+00 3.434761e+00 3.427613e+00 2.472844e+00 1.902852e+00 2.280243e+00 2.826268e+00 2.413312e+00 2.587947e+00 2.757664e+00 2.809478e+00 3.010558e+00 2.705602e+00 2.347955e+00 1.915704e+00
<GCONST> 4.421907e+01
<STATE> 5
<MEAN> 16
 6.373524e+00 6.981863e+00 7.411680e+00 7.603305e+00 7.450297e+00 7.515865e+00 7.801934e+00 8.150808e+00 8.387038e+00 8.387009e+00 8.548773e+00 8.781585e+00 9.125490e+00 9.084715e+00 8.861986e+00 8.875262e+00
<VARIANCE> 16
 1.603608e+00 2.733064e+00 3.478636e+00 3.453094e+00 2.494701e+00 1.909567e+00 2.278853e+00 2.820492e+00 2.433310e+00 2.586636e+00 2.767808e+00 2.806728e+00 2.955534e+00 2.587594e+00 2.208001e+00 1.801856e+00
<GCONST> 4.409625e+01
<STATE> 6
<MEAN> 16
 6.407419e+00 7.064346e+00 7.501682e+00 7.684147e+00 7.509035e+00 7.566490e+00 7.855224e+00 8.209010e+00 8.440418e+00 8.444292e+00 8.600686e+00 8.834053e+00 9.175972e+00 9.104902e+00 8.844533e+00 8.853260e+00
<VARIANCE> 16
 1.584090e+00 2.706362e+00 3.451472e+00 3.407137e+00 2.464571e+00 1.876574e+00 2.229981e+00 2.758333e+00 2.408731e+00 2.537354e+00 2.725170e+00 2.755363e+00 2.857503e+00 2.429818e+00 2.022229e+00 1.647550e+00
<GCONST> 4.364197e+01
<STATE> 7
<MEAN> 16
 6.421921e+00 7.119507e+00 7.559544e+00 7.732164e+00 7.541531e+00 7.594366e+00 7.883313e+00 8.236818e+00 8.464272e+00 8.472255e+00 8.623159e+00 8.856050e+00 9.192346e+00 9.093699e+00 8.803540e+00 8.812319e+00
<VARIANCE> 16
 1.532235e+00 2.631210e+00 3.366934e+00 3.304961e+00 2.391645e+00 1.811268e+00 2.143957e+00 2.652805e+00 2.346778e+00 2.452181e+00 2.639264e+00 2.667044e+00 2.733119e+00 2.248378e+00 1.805988e+00 1.466136e+00
<GCONST> 4.290479e+01
<STATE> 8
<MEAN> 16
 6.415250e+00 7.142416e+00 7.579694e+00 7.742734e+00 7.544361e+00 7.596730e+00 7.883533e+00 8.231537e+00 8.456020e+00 8.468483e+00 8.614127e+00 8.846352e+00 9.174032e+00 9.052664e+00 8.743200e+00 8.756510e+00
<VARIANCE> 16
 1.454396e+00 2.522583e+00 3.242173e+00 3.164498e+00 2.286633e+00 1.721921e+00 2.032112e+00 2.517503e+00 2.254560e+00 2.342446e+00 2.520076e+00 2.552569e+00 2.595377e+00 2.056249e+00 1.574638e+00 1.271269e+00
<GCONST> 4.193121e+01
<STATE> 9
<MEAN> 16
 6.200294e+00 6.903461e+00 7.277044e+00 7.426674e+00 7.271163e+00 7.367415e+00 7.634197e+00 7.928334e+00 8.155296e+00 8.182332e+00 8.315978e+00 8.567690e+00 8.850883e+00 8.707009e+00 8.439181e+00 8.505555e+00
<VARIANCE> 16
 1.006271e+00 1.956198e+00 2.531589e+00 2.429917e+00 1.676794e+00 1.238079e+00 1.477836e+00 1.850251e+00 1.675178e+00 1.768996e+00 1.858600e+00 1.979546e+00 2.028034e+00 1.375191e+00 8.371424e-01 6.665233e-01
<GCONST> 3.646758e+01
<TRANSP> 10
 0.000000e+00 1.000000e+00 0.000000e+00 0.000000e+00 0.000000e+00 0.000000e+00 0.000000e+00 0.000000e+00 0.000000e+00 0.000000e+00
 0.000000e+00 8.426743e-01 1.573257e-01 0.000000e+00 0.000000e+00 0.000000e+00 0.000000e+00 0.000000e+00 0.000000e+00 0.000000e+00
 0.000000e+00 0.000000e+00 8.426740e-01 1.573260e-01 0.000000e+00 0.000000e+00 0.000000e+00 0.000000e+00 0.000000e+00 0.000000e+00
 0.000000e+00 0.000000e+00 0.000000e+00 8.426738e-01 1.573261e-01 0.000000e+00 0.000000e+00 0.000000e+00 0.000000e+00 0.000000e+00
 0.000000e+00 0.000000e+00 0.000000e+00 0.000000e+00 8.426742e-01 1.573258e-01 0.000000e+00 0.000000e+00 0.000000e+00 0.000000e+00
 0.000000e+00 0.000000e+00 0.000000e+00 0.000000e+00 0.000000e+00 8.426741e-01 1.573258e-01 0.000000e+00 0.000000e+00 0.000000e+00
 0.000000e+00 0.000000e+00 0.000000e+00 0.000000e+00 0.000000e+00 0.000000e+00 8.426745e-01 1.573255e-01 0.000000e+00 0.000000e+00
 0.000000e+00 0.000000e+00 0.000000e+00 0.000000e+00 0.000000e+00 0.000000e+00 0.000000e+00 8.426742e-01 1.573257e-01 0.000000e+00
 0.000000e+00 0.000000e+00 0.000000e+00 0.000000e+00 0.000000e+00 0.000000e+00 0.000000e+00 0.000000e+00 9.765783e-01 2.342174e-02
 0.000000e+00 0.000000e+00 0.000000e+00 0.000000e+00 0.000000e+00 0.000000e+00 0.000000e+00 0.000000e+00 0.000000e+00 0.000000e+00
<ENDHMM>
~h "sest"
<BEGINHMM>
<NUMSTATES> 10
<STATE> 2
<MEAN> 16
 5.932773e+00 6.256680e+00 6.738569e+00 7.133401e+00 7.142616e+00 7.203619e+00 7.424815e+00 7.831697e+00 8.228462e+00 8.299857e+00 8.526414e+00 8.761297e+00 9.031466e+00 9.134439e+00 9.092357e+00 9.026604e+00
<VARIANCE> 16
 8.489858e-01 1.318058e+00 2.208659e+00 3.174985e+00 2.584064e+00 1.842889e+00 1.995220e+00 2.881553e+00 2.996320e+00 3.544151e+00 3.835622e+00 3.928403e+00 3.969961e+00 4.032813e+00 3.584560e+00 2.755114e+00
<GCONST> 4.491451e+01
<STATE> 3
<MEAN> 16
 5.970411e+00 6.318532e+00 6.833817e+00 7.258328e+00 7.251416e+00 7.287679e+00 7.512393e+00 7.951066e+00 8.353138e+00 8.431353e+00 8.666469e+00 8.913650e+00 9.198885e+00 9.300273e+00 9.226717e+00 9.124950e+00
<VARIANCE> 16
 8.941558e-01 1.407505e+00 2.365976e+00 3.402419e+00 2.793414e+00 1.983477e+00 2.131177e+00 3.057188e+00 3.159462e+00 3.692389e+00 3.991810e+00 4.078389e+00 4.123645e+00 4.199929e+00 3.761644e+00 2.920764e+00
<GCONST> 4.580307e+01
<STATE> 4
<MEAN> 16
 6.001992e+00 6.373960e+00 6.921804e+00 7.374444e+00 7.353399e+00 7.366074e+00 7.592159e+00 8.060061e+00 8.464511e+00 8.545794e+00 8.788862e+00 9.048671e+00 9.350195e+00 9.450619e+00 9.346299e+00 9.211456e+00
<VARIANCE> 16
 9.228942e-01 1.471884e+00 2.481734e+00 3.569977e+00 2.956720e+00 2.089049e+00 2.225632e+00 3.168408e+00 3.253943e+00 3.749521e+00 4.048930e+00 4.125812e+00 4.177278e+00 4.267017e+00 3.851713e+00 3.023218e+00
<GCONST> 4.632054e+01
<STATE> 5
<MEAN> 16
 6.023952e+00 6.417367e+00 6.994723e+00 7.472291e+00 7.440517e+00 7.432217e+00 7.657520e+00 8.150016e+00 8.553215e+00 8.632698e+00 8.882575e+00 9.154382e+00 9.472903e+00 9.573381e+00 9.440837e+00 9.278412e+00
<VARIANCE> 16
 9.286777e-01 1.502950e+00 2.545806e+00 3.664476e+00 3.062388e+00 2.150098e+00 2.269023e+00 3.205892e+00 3.275172e+00 3.712819e+00 4.004788e+00 4.069772e+00 4.133743e+00 4.236291e+00 3.850496e+00 3.052645e+00
<GCONST> 4.645797e+01
<STATE> 6
<MEAN> 16
 6.032987e+00 6.443717e+00 7.044770e+00 7.542652e+00 7.504900e+00 7.479622e+00 7.702466e+00 8.212877e+00 8.611010e+00 8.683487e+00 8.938518e+00 9.220807e+00 9.556262e+00 9.658304e+00 9.502233e+00 9.320072e+00
<VARIANCE> 16
 9.073532e-01 1.494935e+00 2.552869e+00 3.679156e+00 3.103691e+00 2.161680e+00 2.257630e+00 3.170312e+00 3.229226e+00 3.594373e+00 3.873638e+00 3.926283e+00 4.011696e+00 4.125017e+00 3.766676e+00 3.008841e+00
<GCONST> 4.622995e+01
<STATE> 7
<MEAN> 16
 6.027006e+00 6.449378e+00 7.065813e+00 7.578085e+00 7.540139e+00 7.503173e+00 7.722539e+00 8.242565e+00 8.632209e+00 8.693069e+00 8.951467e+00 9.241899e+00 9.593203e+00 9.698626e+00 9.525879e+00 9.333590e+00
<VARIANCE> 16
 8.588673e-01 1.446691e+00 2.503322e+00 3.615545e+00 3.080179e+00 2.124500e+00 2.194764e+00 3.071801e+00 3.129711e+00 3.415895e+00 3.679907e+00 3.722289e+00 3.838851e+00 3.958932e+00 3.617445e+00 2.899968e+00
<GCONST> 4.567111e+01
<STATE> 8
<MEAN> 16
 6.005858e+00 6.432932e+00 7.054813e+00 7.574452e+00 7.542496e+00 7.500201e+00 7.715634e+00 8.236063e+00 8.614705e+00 8.660679e+00 8.920894e+00 9.216462e+00 9.581367e+00 9.691889e+00 9.511056e+00 9.319133e+00
<VARIANCE> 16
 7.875342e-01 1.362212e+00 2.402308e+00 3.482342e+00 2.997190e+00 2.044198e+00 2.089467e+00 2.925923e+00 2.991957e+00 3.200583e+00 3.449193e+00 3.485993e+00 3.641996e+00 3.763060e+00 3.421905e+00 2.739325e+00
<GCONST> 4.482545e+01
<STATE> 9
<MEAN> 16
 5.829128e+00 6.197289e+00 6.738463e+00 7.208462e+00 7.247141e+00 7.253355e+00 7.452526e+00 7.891766e+00 8.225369e+00 8.209762e+00 8.467713e+00 8.745837e+00 9.125212e+00 9.262425e+00 9.141186e+00 9.044275e+00
<VARIANCE> 16
 4.534220e-01 8.532350e-01 1.661624e+00 2.495539e+00 2.230392e+00 1.460348e+00 1.464149e+00 2.119197e+00 2.221128e+00 2.246927e+00 2.460952e+00 2.519535e+00 2.821802e+00 2.889091e+00 2.428159e+00 1.855691e+00
<GCONST> 3.922776e+01
<TRANSP> 10
 0.000000e+00 1.000000e+00 0.000000e+00 0.000000e+00 0.000000e+00 0.000000e+00 0.000000e+00 0.000000e+00 0.000000e+00 0.000000e+00
 0.000000e+00 8.426743e-01 1.573257e-01 0.000000e+00 0.000000e+00 0.000000e+00 0.000000e+00 0.000000e+00 0.000000e+00 0.000000e+00
 0.000000e+00 0.000000e+00 8.426740e-01 1.573260e-01 0.000000e+00 0.000000e+00 0.000000e+00 0.000000e+00 0.000000e+00 0.000000e+00
 0.000000e+00 0.000000e+00 0.000000e+00 8.426738e-01 1.573261e-01 0.000000e+00 0.000000e+00 0.000000e+00 0.000000e+00 0.000000e+00
 0.000000e+00 0.000000e+00 0.000000e+00 0.000000e+00 8.426742e-01 1.573258e-01 0.000000e+00 0.000000e+00 0.000000e+00 0.000000e+00
 0.000000e+00 0.000000e+00 0.000000e+00 0.000000e+00 0.000000e+00 8.426741e-01 1.573258e-01 0.000000e+00 0.000000e+00 0.000000e+00
 0.000000e+00 0.000000e+00 0.000000e+00 0.000000e+00 0.000000e+00 0.000000e+00 8.426745e-01 1.573255e-01 0.000000e+00 0.000000e+00
 0.000000e+00 0.000000e+00 0.000000e+00 0.000000e+00 0.000000e+00 0.000000e+00 0.000000e+00 8.426742e-01 1.573257e-01 0.000000e+00
 0.000000e+00 0.000000e+00 0.000000e+00 0.000000e+00 0.000000e+00 0.000000e+00 0.000000e+00 0.000000e+00 9.765783e-01 2.342174e-02
 0.000000e+00 0.000000e+00 0.000000e+00 0.000000e+00 0.000000e+00 0.000000e+00 0.000000e+00 0.000000e+00 0.000000e+00 0.000000e+00
<ENDHMM>
~h "dva"
<BEGINHMM>
<NUMSTATES> 10
<STATE> 2
<MEAN> 16
 6.073271e+00 6.483624e+00 6.849264e+00 7.193289e+00 7.316766e+00 7.485166e+00 7.711755e+00 7.749642e+00 7.827176e+00 7.855520e+00 7.997834e+00 8.237395e+00 8.437933e+00 8.430222e+00 8.357952e+00 8.415602e+00
<VARIANCE> 16
 1.357440e+00 1.912316e+00 2.545921e+00 3.336531e+00 3.630479e+00 3.273218e+00 3.486060e+00 2.898417e+00 1.782927e+00 2.204604e+00 2.308318e+00 2.544547e+00 2.328319e+00 1.743173e+00 1.186829e+00 8.066224e-01
<GCONST> 4.178395e+01
<STATE> 3
<MEAN> 16
 6.126563e+00 6.566137e+00 6.951836e+00 7.319419e+00 7.454797e+00 7.619071e+00 7.849206e+00 7.869814e+00 7.913442e+00 7.951374e+00 8.093361e+00 8.339472e+00 8.541553e+00 8.509747e+00 8.400972e+00 8.441563e+00
<VARIANCE> 16
 1.447137e+00 2.026907e+00 2.710092e+00 3.578845e+00 3.936773e+00 3.559039e+00 3.781545e+00 3.142483e+00 1.921970e+00 2.387224e+00 2.517274e+00 2.775784e+00 2.548605e+00 1.890167e+00 1.279325e+00 8.648641e-01
<GCONST> 4.301011e+01
<STATE> 4
<MEAN> 16
 6.173460e+00 6.638056e+00 7.043971e+00 7.437067e+00 7.587836e+00 7.749123e+00 7.981879e+00 7.985404e+00 7.994353e+00 8.042617e+00 8.185708e+00 8.438656e+00 8.643334e+00 8.585485e+00 8.439399e+00 8.464327e+00
<VARIANCE> 16
 1.513575e+00 2.105926e+00 2.828535e+00 3.765679e+00 4.185632e+00 3.795877e+00 4.024524e+00 3.342078e+00 2.033818e+00 2.535862e+00 2.692356e+00 2.970343e+00 2.738685e+00 2.012085e+00 1.352573e+00 9.102665e-01
<GCONST> 4.392971e+01
<STATE> 5
<MEAN> 16
 6.207648e+00 6.691302e+00 7.115764e+00 7.535022e+00 7.704745e+00 7.865226e+00 8.099009e+00 8.086801e+00 8.062850e+00 8.121448e+00 8.267721e+00 8.527198e+00 8.735318e+00 8.650454e+00 8.468699e+00 8.480758e+00
<VARIANCE> 16
 1.546946e+00 2.138168e+00 2.887161e+00 3.881377e+00 4.361367e+00 3.969497e+00 4.199993e+00 3.483112e+00 2.109040e+00 2.638894e+00 2.819481e+00 3.113806e+00 2.886754e+00 2.098986e+00 1.396531e+00 9.363366e-01
<GCONST> 4.451195e+01
<STATE> 6
<MEAN> 16
 6.222997e+00 6.718336e+00 7.157949e+00 7.602004e+00 7.793749e+00 7.956423e+00 8.189173e+00 8.164185e+00 8.111786e+00 8.179653e+00 8.331499e+00 8.596472e+00 8.808942e+00 8.697735e+00 8.484621e+00 8.488248e+00
<VARIANCE> 16
 1.539919e+00 2.116683e+00 2.877167e+00 3.916346e+00 4.453523e+00 4.070358e+00 4.298704e+00 3.556446e+00 2.139932e+00 2.687341e+00 2.887474e+00 3.194486e+00 2.984674e+00 2.143154e+00 1.402209e+00 9.372045e-01
<GCONST> 4.473418e+01
<STATE> 7
<MEAN> 16
 6.215705e+00 6.714525e+00 7.164294e+00 7.629418e+00 7.844995e+00 8.013290e+00 8.242761e+00 8.209536e+00 8.135464e+00 8.210495e+00 8.370141e+00 8.638776e+00 8.856741e+00 8.721982e+00 8.484438e+00 8.485371e+00
<VARIANCE> 16
 1.489375e+00 2.040479e+00 2.797458e+00 3.868484e+00 4.458407e+00 4.094803e+00 4.318440e+00 3.559846e+00 2.122752e+00 2.677047e+00 2.890885e+00 3.206146e+00 3.029192e+00 2.140911e+00 1.364349e+00 9.094265e-01
<GCONST> 4.458559e+01
<STATE> 8
<MEAN> 16
 6.185627e+00 6.679635e+00 7.133437e+00 7.613645e+00 7.852903e+00 8.030114e+00 8.254204e+00 8.218358e+00 8.131100e+00 8.210365e+00 8.379395e+00 8.649168e+00 8.873885e+00 8.720600e+00 8.467830e+00 8.472271e+00
<VARIANCE> 16
 1.397351e+00 1.914588e+00 2.654359e+00 3.742170e+00 4.378618e+00 4.044829e+00 4.263075e+00 3.497703e+00 2.058822e+00 2.609530e+00 2.831235e+00 3.149334e+00 3.021517e+00 2.093375e+00 1.283644e+00 8.536107e-01
<GCONST> 4.406742e+01
<STATE> 9
<MEAN> 16
 5.944445e+00 6.353118e+00 6.761491e+00 7.213969e+00 7.505604e+00 7.732909e+00 7.925984e+00 7.932953e+00 7.887564e+00 7.946454e+00 8.147384e+00 8.391776e+00 8.646251e+00 8.504078e+00 8.307873e+00 8.367254e+00
<VARIANCE> 16
 8.447564e-01 1.206645e+00 1.782485e+00 2.712293e+00 3.396285e+00 3.253527e+00 3.461388e+00 2.786844e+00 1.499114e+00 1.946124e+00 2.159447e+00 2.404864e+00 2.539523e+00 1.603836e+00 7.725191e-01 5.124453e-01
<GCONST> 3.886575e+01
<TRANSP> 10
 0.000000e+00 1.000000e+00 0.000000e+00 0.000000e+00 0.000000e+00 0.000000e+00 0.000000e+00 0.000000e+00 0.000000e+00 0.000000e+00
 0.000000e+00 8.426743e-01 1.573257e-01 0.000000e+00 0.000000e+00 0.000000e+00 0.000000e+00 0.000000e+00 0.000000e+00 0.000000e+00
 0.000000e+00 0.000000e+00 8.426740e-01 1.573260e-01 0.000000e+00 0.000000e+00 0.000000e+00 0.000000e+00 0.000000e+00 0.000000e+00
 0.000000e+00 0.000000e+00 0.000000e+00 8.426738e-01 1.573261e-01 0.000000e+00 0.000000e+00 0.000000e+00 0.000000e+00 0.000000e+00
 0.000000e+00 0.000000e+00 0.000000e+00 0.000000e+00 8.426742e-01 1.573258e-01 0.000000e+00 0.000000e+00 0.000000e+00 0.000000e+00
 0.000000e+00 0.000000e+00 0.000000e+00 0.000000e+00 0.000000e+00 8.426741e-01 1.573258e-01 0.000000e+00 0.000000e+00 0.000000e+00
 0.000000e+00 0.000000e+00 0.000000e+00 0.000000e+00 0.000000e+00 0.000000e+00 8.426745e-01 1.573255e-01 0.000000e+00 0.000000e+00
 0.000000e+00 0.000000e+00 0.000000e+00 0.000000e+00 0.000000e+00 0.000000e+00 0.000000e+00 8.426742e-01 1.573257e-01 0.000000e+00
 0.000000e+00 0.000000e+00 0.000000e+00 0.000000e+00 0.000000e+00 0.000000e+00 0.000000e+00 0.000000e+00 9.765783e-01 2.342174e-02
 0.000000e+00 0.000000e+00 0.000000e+00 0.000000e+00 0.000000e+00 0.000000e+00 0.000000e+00 0.000000e+00 0.000000e+00 0.000000e+00
<ENDHMM>
~h "osm"
<BEGINHMM>
<NUMSTATES> 10
<STATE> 2
<MEAN> 16
 6.114945e+00 6.581736e+00 7.028216e+00 7.293059e+00 7.297626e+00 7.557352e+00 7.699324e+00 7.729904e+00 7.906879e+00 7.971848e+00 8.230614e+00 8.554813e+00 8.806086e+00 8.800783e+00 8.698671e+00 8.788982e+00
<VARIANCE> 16
 1.426907e+00 2.317494e+00 3.063080e+00 3.384817e+00 2.885091e+00 3.060643e+00 2.911255e+00 2.308994e+00 1.829404e+00 2.346714e+00 2.732539e+00 3.320395e+00 3.373657e+00 3.092771e+00 2.472073e+00 2.155467e+00
<GCONST> 4.470477e+01
<STATE> 3
<MEAN> 16
 6.171471e+00 6.682486e+00 7.150499e+00 7.414541e+00 7.401076e+00 7.669041e+00 7.809068e+00 7.825218e+00 7.987856e+00 8.060366e+00 8.322933e+00 8.668653e+00 8.933146e+00 8.902356e+00 8.761739e+00 8.840218e+00
<VARIANCE> 16
 1.461330e+00 2.412700e+00 3.179023e+00 3.461204e+00 2.943420e+00 3.126650e+00 3.001127e+00 2.378183e+00 1.879994e+00 2.392324e+00 2.776222e+00 3.388371e+00 3.469422e+00 3.165175e+00 2.549504e+00 2.222864e+00
<GCONST> 4.512504e+01
<STATE> 4
<MEAN> 16
 6.220191e+00 6.775977e+00 7.264437e+00 7.525661e+00 7.493385e+00 7.769866e+00 7.908692e+00 7.911876e+00 8.060967e+00 8.141054e+00 8.406256e+00 8.773086e+00 9.050339e+00 8.992436e+00 8.813652e+00 8.881392e+00
<VARIANCE> 16
 1.464930e+00 2.458707e+00 3.228800e+00 3.464636e+00 2.941066e+00 3.124345e+00 3.027442e+00 2.396807e+00 1.889532e+00 2.384983e+00 2.759072e+00 3.376986e+00 3.480397e+00 3.160418e+00 2.568553e+00 2.238250e+00
<GCONST> 4.518634e+01
<STATE> 5
<MEAN> 16
 6.257136e+00 6.855993e+00 7.362404e+00 7.618815e+00 7.567557e+00 7.852462e+00 7.991176e+00 7.984338e+00 8.121441e+00 8.208722e+00 8.475100e+00 8.861446e+00 9.150402e+00 9.065018e+00 8.850628e+00 8.909381e+00
<VARIANCE> 16
 1.437129e+00 2.453150e+00 3.212796e+00 3.399338e+00 2.879658e+00 3.055161e+00 2.988112e+00 2.363139e+00 1.857440e+00 2.324525e+00 2.681666e+00 3.291217e+00 3.412934e+00 3.081500e+00 2.527849e+00 2.200959e+00
<GCONST> 4.489557e+01
<STATE> 6
<MEAN> 16
 6.279601e+00 6.917295e+00 7.437643e+00 7.687530e+00 7.618069e+00 7.910866e+00 8.050439e+00 8.037658e+00 8.165191e+00 8.258818e+00 8.524734e+00 8.927752e+00 9.226455e+00 9.114590e+00 8.869449e+00 8.921589e+00
<VARIANCE> 16
 1.381884e+00 2.401834e+00 3.142362e+00 3.279935e+00 2.769392e+00 2.931238e+00 2.890988e+00 2.282984e+00 1.789260e+00 2.219245e+00 2.554719e+00 3.146773e+00 3.283291e+00 2.939887e+00 2.430588e+00 2.114104e+00
<GCONST> 4.428692e+01
<STATE> 7
<MEAN> 16
 6.286544e+00 6.956387e+00 7.485437e+00 7.727462e+00 7.641564e+00 7.941260e+00 8.082353e+00 8.068152e+00 8.189361e+00 8.288092e+00 8.551806e+00 8.967443e+00 9.272956e+00 9.137070e+00 8.868164e+00 8.916553e+00
<VARIANCE> 16
 1.306513e+00 2.316472e+00 3.035740e+00 3.127782e+00 2.626205e+00 2.771566e+00 2.751535e+00 2.168787e+00 1.695353e+00 2.084359e+00 2.396659e+00 2.966484e+00 3.113952e+00 2.753587e+00 2.285376e+00 1.985242e+00
<GCONST> 4.342037e+01
<STATE> 8
<MEAN> 16
 6.278197e+00 6.971403e+00 7.503074e+00 7.736202e+00 7.636499e+00 7.941712e+00 8.084868e+00 8.073640e+00 8.192395e+00 8.294561e+00 8.554227e+00 8.977511e+00 9.286375e+00 9.130407e+00 8.846505e+00 8.894330e+00
<VARIANCE> 16
 1.218503e+00 2.209628e+00 2.910996e+00 2.963191e+00 2.465151e+00 2.594381e+00 2.586898e+00 2.035249e+00 1.587053e+00 1.936320e+00 2.226525e+00 2.773115e+00 2.928046e+00 2.543001e+00 2.105401e+00 1.825888e+00
<GCONST> 4.236525e+01
<STATE> 9
<MEAN> 16
 6.123048e+00 6.807153e+00 7.279945e+00 7.469496e+00 7.350139e+00 7.662851e+00 7.828676e+00 7.862940e+00 8.009729e+00 8.101636e+00 8.325111e+00 8.729342e+00 9.031942e+00 8.851142e+00 8.598306e+00 8.674810e+00
<VARIANCE> 16
 8.275177e-01 1.706593e+00 2.379704e+00 2.333109e+00 1.756245e+00 1.864653e+00 1.880537e+00 1.499627e+00 1.149941e+00 1.407180e+00 1.623089e+00 2.093334e+00 2.279161e+00 1.755650e+00 1.339861e+00 1.152237e+00
<GCONST> 3.721371e+01
<TRANSP> 10
 0.000000e+00 1.000000e+00 0.000000e+00 0.000000e+00 0.000000e+00 0.000000e+00 0.000000e+00 0.000000e+00 0.000000e+00 0.000000e+00
 0.000000e+00 8.426743e-01 1.573257e-01 0.000000e+00 0.000000e+00 0.000000e+00 0.000000e+00 0.000000e+00 0.000000e+00 0.000000e+00
 0.000000e+00 0.000000e+00 8.426740e-01 1.573260e-01 0.000000e+00 0.000000e+00 0.000000e+00 0.000000e+00 0.000000e+00 0.000000e+00
 0.000000e+00 0.000000e+00 0.000000e+00 8.426738e-01 1.573261e-01 0.000000e+00 0.000000e+00 0.000000e+00 0.000000e+00 0.000000e+00
 0.000000e+00 0.000000e+00 0.000000e+00 0.000000e+00 8.426742e-01 1.573258e-01 0.000000e+00 0.000000e+00 0.000000e+00 0.000000e+00
 0.000000e+00 0.000000e+00 0.000000e+00 0.000000e+00 0.000000e+00 8.426741e-01 1.573258e-01 0.000000e+00 0.000000e+00 0.000000e+00
 0.000000e+00 0.000000e+00 0.000000e+00 0.000000e+00 0.000000e+00 0.000000e+00 8.426745e-01 1.573255e-01 0.000000e+00 0.000000e+00
 0.000000e+00 0.000000e+00 0.000000e+00 0.000000e+00 0.000000e+00 0.000000e+00 0.000000e+00 8.426742e-01 1.573257e-01 0.000000e+00
 0.000000e+00 0.000000e+00 0.000000e+00 0.000000e+00 0.000000e+00 0.000000e+00 0.000000e+00 0.000000e+00 9.765783e-01 2.342174e-02
 0.000000e+00 0.000000e+00 0.000000e+00 0.000000e+00 0.000000e+00 0.000000e+00 0.000000e+00 0.000000e+00 0.000000e+00 0.000000e+00
<ENDHMM>
~h "pet"
<BEGINHMM>
<NUMSTATES> 10
<STATE> 2
<MEAN> 16
 6.020837e+00 6.356385e+00 6.865526e+00 7.199090e+00 7.145108e+00 7.156693e+00 7.338658e+00 7.687040e+00 8.081832e+00 8.069840e+00 8.178279e+00 8.322196e+00 8.514149e+00 8.492776e+00 8.412864e+00 8.483340e+00
<VARIANCE> 16
 9.810031e-01 1.638929e+00 2.903248e+00 3.654093e+00 2.654156e+00 1.730096e+00 1.786956e+00 2.523651e+00 2.942482e+00 3.358504e+00 3.137540e+00 3.058340e+00 2.769187e+00 2.179917e+00 1.502540e+00 1.092258e+00
<GCONST> 4.211840e+01
<STATE> 3
<MEAN> 16
 6.059779e+00 6.426077e+00 6.975197e+00 7.334059e+00 7.258158e+00 7.237027e+00 7.418283e+00 7.793507e+00 8.200666e+00 8.192802e+00 8.295942e+00 8.436995e+00 8.630930e+00 8.585975e+00 8.465589e+00 8.517255e+00
<VARIANCE> 16
 1.038085e+00 1.738998e+00 3.093341e+00 3.908963e+00 2.864729e+00 1.867301e+00 1.924925e+00 2.708544e+00 3.161723e+00 3.609752e+00 3.385123e+00 3.301145e+00 2.987779e+00 2.355171e+00 1.623186e+00 1.181779e+00
<GCONST> 4.326848e+01
<STATE> 4
<MEAN> 16
 6.091937e+00 6.487297e+00 7.074963e+00 7.460501e+00 7.365340e+00 7.311895e+00 7.492189e+00 7.893608e+00 8.312292e+00 8.307597e+00 8.407028e+00 8.545536e+00 8.741516e+00 8.673280e+00 8.512941e+00 8.547189e+00
<VARIANCE> 16
 1.075891e+00 1.803211e+00 3.221038e+00 4.086739e+00 3.023747e+00 1.972898e+00 2.029247e+00 2.842631e+00 3.318818e+00 3.791969e+00 3.569330e+00 3.480949e+00 3.151136e+00 2.489434e+00 1.715587e+00 1.252432e+00
<GCONST> 4.406144e+01
<STATE> 5
<MEAN> 16
 6.112661e+00 6.532989e+00 7.155445e+00 7.567625e+00 7.457984e+00 7.375071e+00 7.554070e+00 7.979022e+00 8.406969e+00 8.404251e+00 8.501941e+00 8.638640e+00 8.836942e+00 8.747160e+00 8.549705e+00 8.569371e+00
<VARIANCE> 16
 1.084966e+00 1.819422e+00 3.270357e+00 4.169800e+00 3.116833e+00 2.034981e+00 2.087448e+00 2.910718e+00 3.398235e+00 3.886468e+00 3.671813e+00 3.578147e+00 3.245016e+00 2.569607e+00 1.765647e+00 1.292733e+00
<GCONST> 4.445295e+01
<STATE> 6
<MEAN> 16
 6.118077e+00 6.557036e+00 7.207653e+00 7.644625e+00 7.527436e+00 7.420465e+00 7.597743e+00 8.041394e+00 8.475363e+00 8.473349e+00 8.571717e+00 8.707879e+00 8.908741e+00 8.800502e+00 8.571366e+00 8.580536e+00
<VARIANCE> 16
 1.058707e+00 1.781011e+00 3.236051e+00 4.152518e+00 3.137262e+00 2.046133e+00 2.091615e+00 2.905295e+00 3.394303e+00 3.885141e+00 3.684139e+00 3.583265e+00 3.263416e+00 2.588418e+00 1.763029e+00 1.293572e+00
<GCONST> 4.441993e+01
<STATE> 7
<MEAN> 16
 6.106400e+00 6.555922e+00 7.225303e+00 7.683208e+00 7.566865e+00 7.443533e+00 7.618544e+00 8.074203e+00 8.510585e+00 8.508008e+00 8.609780e+00 8.747149e+00 8.950512e+00 8.828094e+00 8.575358e+00 8.578896e+00
<VARIANCE> 16
 9.962892e-01 1.689796e+00 3.125217e+00 4.042849e+00 3.088304e+00 2.006290e+00 2.041545e+00 2.829473e+00 3.313318e+00 3.793461e+00 3.610971e+00 3.501018e+00 3.210773e+00 2.546831e+00 1.705150e+00 1.251728e+00
<GCONST> 4.396888e+01
<STATE> 8
<MEAN> 16
 6.078568e+00 6.529599e+00 7.206218e+00 7.679307e+00 7.572628e+00 7.442236e+00 7.614358e+00 8.074162e+00 8.509504e+00 8.505174e+00 8.613080e+00 8.753633e+00 8.958963e+00 8.827616e+00 8.561714e+00 8.564703e+00
<VARIANCE> 16
 9.034953e-01 1.555715e+00 2.953775e+00 3.858691e+00 2.981448e+00 1.922661e+00 1.944802e+00 2.695659e+00 3.170816e+00 3.627909e+00 3.467858e+00 3.348548e+00 3.099922e+00 2.453186e+00 1.598373e+00 1.171413e+00
<GCONST> 4.313349e+01
<STATE> 9
<MEAN> 16
 5.888702e+00 6.254104e+00 6.829146e+00 7.282655e+00 7.282247e+00 7.219287e+00 7.376829e+00 7.777174e+00 8.181658e+00 8.159657e+00 8.309799e+00 8.474175e+00 8.675545e+00 8.572393e+00 8.386779e+00 8.432631e+00
<VARIANCE> 16
 4.896202e-01 9.205274e-01 2.003730e+00 2.747175e+00 2.222653e+00 1.370421e+00 1.340131e+00 1.899856e+00 2.303180e+00 2.588807e+00 2.534973e+00 2.430695e+00 2.327593e+00 1.766451e+00 9.730948e-01 7.008994e-01
<GCONST> 3.699803e+01
<TRANSP> 10
 0.000000e+00 1.000000e+00 0.000000e+00 0.000000e+00 0.000000e+00 0.000000e+00 0.000000e+00 0.000000e+00 0.000000e+00 0.000000e+00
 0.000000e+00 8.426743e-01 1.573257e-01 0.000000e+00 0.000000e+00 0.000000e+00 0.000000e+00 0.000000e+00 0.000000e+00 0.000000e+00
 0.000000e+00 0.000000e+00 8.426740e-01 1.573260e-01 0.000000e+00 0.000000e+00 0.000000e+00 0.000000e+00 0.000000e+00 0.000000e+00
 0.000000e+00 0.000000e+00 0.000000e+00 8.426738e-01 1.573261e-01 0.000000e+00 0.000000e+00 0.000000e+00 0.000000e+00 0.000000e+00
 0.000000e+00 0.000000e+00 0.000000e+00 0.000000e+00 8.426742e-01 1.573258e-01 0.000000e+00 0.000000e+00 0.000000e+00 0.000000e+00
 0.000000e+00 0.000000e+00 0.000000e+00 0.000000e+00 0.000000e+00 8.426741e-01 1.573258e-01 0.000000e+00 0.000000e+00 0.000000e+00
 0.000000e+00 0.000000e+00 0.000000e+00 0.000000e+00 0.000000e+00 0.000000e+00 8.426745e-01 1.573255e-01 0.000000e+00 0.000000e+00
 0.000000e+00 0.000000e+00 0.000000e+00 0.000000e+00 0.000000e+00 0.000000e+00 0.000000e+00 8.426742e-01 1.573257e-01 0.000000e+00
 0.000000e+00 0.000000e+00 0.000000e+00 0.000000e+00 0.000000e+00 0.000000e+00 0.000000e+00 0.000000e+00 9.765783e-01 2.342174e-02
 0.000000e+00 0.000000e+00 0.000000e+00 0.000000e+00 0.000000e+00 0.000000e+00 0.000000e+00 0.000000e+00 0.000000e+00 0.000000e+00
<ENDHMM>
~h "sil"
<BEGINHMM>
<NUMSTATES> 5
<STATE> 2
<MEAN> 16
 5.708139e+00 5.969124e+00 6.282153e+00 6.524503e+00 6.622381e+00 6.812652e+00 6.984129e+00 7.177626e+00 7.471101e+00 7.457678e+00 7.635205e+00 7.874207e+00 8.117886e+00 8.148382e+00 8.184917e+00 8.359104e+00
<VARIANCE> 16
 3.117292e-01 5.219098e-01 8.628778e-01 1.010342e+00 8.192852e-01 6.951962e-01 7.202643e-01 7.691135e-01 7.013502e-01 8.484957e-01 9.029932e-01 9.516162e-01 1.018243e+00 7.566344e-01 4.524717e-01 3.962737e-01
<GCONST> 2.364927e+01
<STATE> 3
<MEAN> 16
 5.681481e+00 5.925766e+00 6.227432e+00 6.465402e+00 6.570574e+00 6.768077e+00 6.941243e+00 7.126285e+00 7.422700e+00 7.408031e+00 7.582323e+00 7.789898e+00 8.011442e+00 8.064586e+00 8.128879e+00 8.295760e+00
<VARIANCE> 16
 2.831543e-01 4.579556e-01 7.421052e-01 8.759508e-01 7.142791e-01 6.128119e-01 6.312240e-01 6.685674e-01 6.051847e-01 7.420139e-01 7.978628e-01 8.394707e-01 9.004493e-01 6.718442e-01 3.947064e-01 3.250338e-01
<GCONST> 2.148625e+01
<STATE> 4
<MEAN> 16
 5.808462e+00 6.088649e+00 6.415559e+00 6.652462e+00 6.717985e+00 6.895270e+00 7.078167e+00 7.281007e+00 7.590202e+00 7.593199e+00 7.769019e+00 7.966482e+00 8.183992e+00 8.233891e+00 8.272364e+00 8.400489e+00
<VARIANCE> 16
 6.771185e-01 1.079537e+00 1.573272e+00 1.737248e+00 1.328718e+00 1.124838e+00 1.195372e+00 1.314255e+00 1.273783e+00 1.552045e+00 1.654575e+00 1.728218e+00 1.733275e+00 1.440156e+00 1.055438e+00 8.206770e-01
<GCONST> 3.345499e+01
<TRANSP> 5
 0.000000e+00 1.000000e+00 0.000000e+00 0.000000e+00 0.000000e+00
 0.000000e+00 8.426853e-01 1.573147e-01 0.000000e+00 0.000000e+00
 0.000000e+00 0.000000e+00 8.426688e-01 1.573312e-01 0.000000e+00
 0.000000e+00 0.000000e+00 0.000000e+00 9.765730e-01 2.342702e-02
 0.000000e+00 0.000000e+00 0.000000e+00 0.000000e+00 0.000000e+00
<ENDHMM>
~h "tri"
<BEGINHMM>
<NUMSTATES> 10
<STATE> 2
<MEAN> 16
 5.946622e+00 6.318408e+00 6.747793e+00 6.916604e+00 6.833180e+00 6.978168e+00 7.196935e+00 7.520819e+00 8.018562e+00 8.123111e+00 8.296041e+00 8.538600e+00 8.802680e+00 8.818349e+00 8.735267e+00 8.729070e+00
<VARIANCE> 16
 8.366890e-01 1.464170e+00 2.478500e+00 2.285041e+00 1.238764e+00 1.059452e+00 1.162019e+00 1.578359e+00 2.266266e+00 3.006495e+00 3.248190e+00 3.570402e+00 3.691163e+00 3.332263e+00 2.597983e+00 1.923502e+00
<GCONST> 4.070963e+01
<STATE> 3
<MEAN> 16
 5.987243e+00 6.390934e+00 6.852105e+00 7.017705e+00 6.897997e+00 7.032609e+00 7.252725e+00 7.594806e+00 8.120934e+00 8.250563e+00 8.425081e+00 8.669089e+00 8.939840e+00 8.935728e+00 8.811176e+00 8.779290e+00
<VARIANCE> 16
 8.932825e-01 1.580080e+00 2.688590e+00 2.486289e+00 1.340152e+00 1.133159e+00 1.239372e+00 1.678640e+00 2.427160e+00 3.227558e+00 3.481984e+00 3.817761e+00 3.939512e+00 3.543595e+00 2.752512e+00 2.039364e+00
<GCONST> 4.180790e+01
<STATE> 4
<MEAN> 16
 6.023276e+00 6.458486e+00 6.950986e+00 7.114302e+00 6.958722e+00 7.082417e+00 7.302516e+00 7.659916e+00 8.214505e+00 8.369348e+00 8.544862e+00 8.788871e+00 9.065598e+00 9.040539e+00 8.874477e+00 8.819766e+00
<VARIANCE> 16
 9.386507e-01 1.674705e+00 2.861407e+00 2.652867e+00 1.420965e+00 1.187080e+00 1.294019e+00 1.748850e+00 2.547769e+00 3.394768e+00 3.654296e+00 3.994507e+00 4.113309e+00 3.684964e+00 2.848516e+00 2.111571e+00
<GCONST> 4.257585e+01
<STATE> 5
<MEAN> 16
 6.050789e+00 6.514974e+00 7.036083e+00 7.198488e+00 7.009871e+00 7.122318e+00 7.340834e+00 7.709418e+00 8.290347e+00 8.469112e+00 8.644662e+00 8.886586e+00 9.168016e+00 9.122049e+00 8.916435e+00 8.843748e+00
<VARIANCE> 16
 9.670421e-01 1.739823e+00 2.984787e+00 2.773225e+00 1.473260e+00 1.213933e+00 1.317841e+00 1.779665e+00 2.617987e+00 3.497235e+00 3.752506e+00 4.085938e+00 4.200126e+00 3.741925e+00 2.865705e+00 2.121040e+00
<GCONST> 4.297739e+01
<STATE> 6
<MEAN> 16
 6.065735e+00 6.554171e+00 7.098856e+00 7.262115e+00 7.045815e+00 7.147540e+00 7.362817e+00 7.737454e+00 8.340118e+00 8.540057e+00 8.714571e+00 8.952181e+00 9.236626e+00 9.171223e+00 8.930374e+00 8.846130e+00
<VARIANCE> 16
 9.726810e-01 1.767625e+00 3.048764e+00 2.838947e+00 1.491559e+00 1.208756e+00 1.305321e+00 1.765009e+00 2.631999e+00 3.530912e+00 3.771860e+00 4.086545e+00 4.198204e+00 3.710390e+00 2.792172e+00 2.054822e+00
<GCONST> 4.298753e+01
<STATE> 7
<MEAN> 16
 6.064986e+00 6.570917e+00 7.132201e+00 7.298388e+00 7.062288e+00 7.155076e+00 7.365470e+00 7.740400e+00 8.357871e+00 8.574882e+00 8.747489e+00 8.978812e+00 9.264378e+00 9.182642e+00 8.913443e+00 8.825006e+00
<VARIANCE> 16
 9.514824e-01 1.752742e+00 3.047546e+00 2.846199e+00 1.474049e+00 1.170444e+00 1.255485e+00 1.704136e+00 2.589350e+00 3.498834e+00 3.715960e+00 4.001153e+00 4.116080e+00 3.597278e+00 2.629266e+00 1.911827e+00
<GCONST> 4.259668e+01
<STATE> 8
<MEAN> 16
 6.047412e+00 6.562447e+00 7.132068e+00 7.303336e+00 7.057453e+00 7.144335e+00 7.348404e+00 7.717739e+00 8.341399e+00 8.570257e+00 8.740454e+00 8.964048e+00 9.248799e+00 9.155384e+00 8.867223e+00 8.782243e+00
<VARIANCE> 16
 9.025287e-01 1.693806e+00 2.980495e+00 2.795927e+00 1.422898e+00 1.102344e+00 1.172570e+00 1.602079e+00 2.494533e+00 3.408921e+00 3.594744e+00 3.842683e+00 3.968512e+00 3.417542e+00 2.392182e+00 1.704755e+00
<GCONST> 4.181042e+01
<STATE> 9
<MEAN> 16
 5.865765e+00 6.317580e+00 6.834661e+00 7.035501e+00 6.867701e+00 6.972648e+00 7.144851e+00 7.444061e+00 8.004748e+00 8.216580e+00 8.375749e+00 8.565314e+00 8.828365e+00 8.751514e+00 8.518339e+00 8.515542e+00
<VARIANCE> 16
 5.495489e-01 1.144170e+00 2.203200e+00 2.140907e+00 1.026565e+00 7.137175e-01 7.264222e-01 1.025900e+00 1.788832e+00 2.658179e+00 2.708143e+00 2.803115e+00 2.987446e+00 2.384889e+00 1.292474e+00 8.077934e-01
<GCONST> 3.548097e+01
<TRANSP> 10
 0.000000e+00 1.000000e+00 0.000000e+00 0.000000e+00 0.000000e+00 0.000000e+00 0.000000e+00 0.000000e+00 0.000000e+00 0.000000e+00
 0.000000e+00 8.426743e-01 1.573257e-01 0.000000e+00 0.000000e+00 0.000000e+00 0.000000e+00 0.000000e+00 0.000000e+00 0.000000e+00
 0.000000e+00 0.000000e+00 8.426740e-01 1.573260e-01 0.000000e+00 0.000000e+00 0.000000e+00 0.000000e+00 0.000000e+00 0.000000e+00
 0.000000e+00 0.000000e+00 0.000000e+00 8.426738e-01 1.573261e-01 0.000000e+00 0.000000e+00 0.000000e+00 0.000000e+00 0.000000e+00
 0.000000e+00 0.000000e+00 0.000000e+00 0.000000e+00 8.426742e-01 1.573258e-01 0.000000e+00 0.000000e+00 0.000000e+00 0.000000e+00
 0.000000e+00 0.000000e+00 0.000000e+00 0.000000e+00 0.000000e+00 8.426741e-01 1.573258e-01 0.000000e+00 0.000000e+00 0.000000e+00
 0.000000e+00 0.000000e+00 0.000000e+00 0.000000e+00 0.000000e+00 0.000000e+00 8.426745e-01 1.573255e-01 0.000000e+00 0.000000e+00
 0.000000e+00 0.000000e+00 0.000000e+00 0.000000e+00 0.000000e+00 0.000000e+00 0.000000e+00 8.426742e-01 1.573257e-01 0.000000e+00
 0.000000e+00 0.000000e+00 0.000000e+00 0.000000e+00 0.000000e+00 0.000000e+00 0.000000e+00 0.000000e+00 9.765783e-01 2.342174e-02
 0.000000e+00 0.000000e+00 0.000000e+00 0.000000e+00 0.000000e+00 0.000000e+00 0.000000e+00 0.000000e+00 0.000000e+00 0.000000e+00
<ENDHMM>
~h "nula"
<BEGINHMM>
<NUMSTATES> 10
<STATE> 2
<MEAN> 16
 6.174306e+00 6.648146e+00 7.044454e+00 7.372835e+00 7.384449e+00 7.568915e+00 7.710543e+00 7.737086e+00 7.874867e+00 7.925309e+00 8.133176e+00 8.292305e+00 8.472661e+00 8.419250e+00 8.327892e+00 8.439547e+00
<VARIANCE> 16
 1.622092e+00 2.704478e+00 3.489279e+00 4.070789e+00 3.567607e+00 3.493294e+00 3.317528e+00 2.511129e+00 1.801674e+00 2.228041e+00 2.590210e+00 2.499163e+00 2.337598e+00 1.552263e+00 9.409597e-01 7.794593e-01
<GCONST> 4.241724e+01
<STATE> 3
<MEAN> 16
 6.243161e+00 6.761236e+00 7.185472e+00 7.543596e+00 7.547182e+00 7.724990e+00 7.858349e+00 7.858901e+00 7.966977e+00 8.029596e+00 8.244919e+00 8.403134e+00 8.584876e+00 8.503270e+00 8.370227e+00 8.465267e+00
<VARIANCE> 16
 1.709310e+00 2.847816e+00 3.709230e+00 4.344079e+00 3.852730e+00 3.776083e+00 3.586658e+00 2.693642e+00 1.914121e+00 2.371253e+00 2.782549e+00 2.692830e+00 2.525256e+00 1.675677e+00 1.012341e+00 8.228773e-01
<GCONST> 4.350041e+01
<STATE> 4
<MEAN> 16
 6.302259e+00 6.862936e+00 7.316950e+00 7.707171e+00 7.705691e+00 7.877682e+00 8.002245e+00 7.975489e+00 8.052464e+00 8.126878e+00 8.349910e+00 8.508561e+00 8.691748e+00 8.583189e+00 8.409896e+00 8.487544e+00
<VARIANCE> 16
 1.760650e+00 2.924899e+00 3.850148e+00 4.526391e+00 4.063854e+00 3.985917e+00 3.786479e+00 2.820455e+00 1.984152e+00 2.461403e+00 2.919578e+00 2.835775e+00 2.665747e+00 1.772444e+00 1.070820e+00 8.527228e-01
<GCONST> 4.421787e+01
<STATE> 5
<MEAN> 16
 6.345976e+00 6.944999e+00 7.428644e+00 7.852675e+00 7.850171e+00 8.017634e+00 8.133421e+00 8.078878e+00 8.124779e+00 8.210132e+00 8.440727e+00 8.601156e+00 8.786211e+00 8.653297e+00 8.443181e+00 8.503550e+00
<VARIANCE> 16
 1.767676e+00 2.926686e+00 3.904233e+00 4.607571e+00 4.189659e+00 4.108788e+00 3.904973e+00 2.884593e+00 2.005139e+00 2.489903e+00 2.990741e+00 2.917645e+00 2.751799e+00 1.836437e+00 1.109825e+00 8.634813e-01
<GCONST> 4.455847e+01
<STATE> 6
<MEAN> 16
 6.370077e+00 7.000332e+00 7.511399e+00 7.969417e+00 7.970925e+00 8.135412e+00 8.243410e+00 8.162459e+00 8.178580e+00 8.273559e+00 8.511167e+00 8.674437e+00 8.862395e+00 8.708653e+00 8.466933e+00 8.511238e+00
<VARIANCE> 16
 1.728543e+00 2.856382e+00 3.876323e+00 4.592044e+00 4.230768e+00 4.143256e+00 3.942615e+00 2.889639e+00 1.978499e+00 2.458534e+00 2.995732e+00 2.937063e+00 2.784933e+00 1.865733e+00 1.124318e+00 8.518022e-01
<GCONST> 4.454008e+01
<STATE> 7
<MEAN> 16
 6.372243e+00 7.023844e+00 7.558023e+00 8.047920e+00 8.059188e+00 8.222473e+00 8.324718e+00 8.221105e+00 8.210173e+00 8.313034e+00 8.556694e+00 8.723429e+00 8.915831e+00 8.745452e+00 8.479009e+00 8.509745e+00
<VARIANCE> 16
 1.648163e+00 2.728107e+00 3.781702e+00 4.498208e+00 4.200109e+00 4.101460e+00 3.911699e+00 2.847993e+00 1.913088e+00 2.378905e+00 2.944156e+00 2.901307e+00 2.773995e+00 1.862614e+00 1.112228e+00 8.177441e-01
<GCONST> 4.420798e+01
<STATE> 8
<MEAN> 16
 6.352219e+00 7.012955e+00 7.563853e+00 8.080948e+00 8.107960e+00 8.271974e+00 8.371230e+00 8.251035e+00 8.217461e+00 8.326037e+00 8.574382e+00 8.744691e+00 8.943167e+00 8.761052e+00 8.478443e+00 8.499376e+00
<VARIANCE> 16
 1.536022e+00 2.561296e+00 3.640072e+00 4.352361e+00 4.118704e+00 4.005184e+00 3.831954e+00 2.776251e+00 1.821908e+00 2.268378e+00 2.851571e+00 2.823198e+00 2.731262e+00 1.832311e+00 1.075006e+00 7.648411e-01
<GCONST> 4.362534e+01
<STATE> 9
<MEAN> 16
 6.097277e+00 6.650828e+00 7.166519e+00 7.705195e+00 7.841897e+00 8.024860e+00 8.138834e+00 8.043697e+00 7.997342e+00 8.097506e+00 8.341421e+00 8.517797e+00 8.745442e+00 8.585393e+00 8.358014e+00 8.395796e+00
<VARIANCE> 16
 9.859866e-01 1.796162e+00 2.799494e+00 3.541903e+00 3.550157e+00 3.389139e+00 3.274484e+00 2.374490e+00 1.399405e+00 1.783091e+00 2.301663e+00 2.289022e+00 2.357245e+00 1.522257e+00 7.769671e-01 4.940278e-01
<GCONST> 3.970651e+01
<TRANSP> 10
 0.000000e+00 1.000000e+00 0.000000e+00 0.000000e+00 0.000000e+00 0.000000e+00 0.000000e+00 0.000000e+00 0.000000e+00 0.000000e+00
 0.000000e+00 8.426743e-01 1.573257e-01 0.000000e+00 0.000000e+00 0.000000e+00 0.000000e+00 0.000000e+00 0.000000e+00 0.000000e+00
 0.000000e+00 0.000000e+00 8.426740e-01 1.573260e-01 0.000000e+00 0.000000e+00 0.000000e+00 0.000000e+00 0.000000e+00 0.000000e+00
 0.000000e+00 0.000000e+00 0.000000e+00 8.426738e-01 1.573261e-01 0.000000e+00 0.000000e+00 0.000000e+00 0.000000e+00 0.000000e+00
 0.000000e+00 0.000000e+00 0.000000e+00 0.000000e+00 8.426742e-01 1.573258e-01 0.000000e+00 0.000000e+00 0.000000e+00 0.000000e+00
 0.000000e+00 0.000000e+00 0.000000e+00 0.000000e+00 0.000000e+00 8.426741e-01 1.573258e-01 0.000000e+00 0.000000e+00 0.000000e+00
 0.000000e+00 0.000000e+00 0.000000e+00 0.000000e+00 0.000000e+00 0.000000e+00 8.426745e-01 1.573255e-01 0.000000e+00 0.000000e+00
 0.000000e+00 0.000000e+00 0.000000e+00 0.000000e+00 0.000000e+00 0.000000e+00 0.000000e+00 8.426742e-01 1.573257e-01 0.000000e+00
 0.000000e+00 0.000000e+00 0.000000e+00 0.000000e+00 0.000000e+00 0.000000e+00 0.000000e+00 0.000000e+00 9.765783e-01 2.342174e-02
 0.000000e+00 0.000000e+00 0.000000e+00 0.000000e+00 0.000000e+00 0.000000e+00 0.000000e+00 0.000000e+00 0.000000e+00 0.000000e+00
<ENDHMM>
~h "devet"
<BEGINHMM>
<NUMSTATES> 10
<STATE> 2
<MEAN> 16
 6.219667e+00 6.656415e+00 7.174144e+00 7.444588e+00 7.276572e+00 7.266765e+00 7.486515e+00 7.874136e+00 8.260771e+00 8.258765e+00 8.378369e+00 8.545946e+00 8.723285e+00 8.668351e+00 8.507867e+00 8.558531e+00
<VARIANCE> 16
 1.573966e+00 2.434492e+00 3.771641e+00 4.125249e+00 2.763602e+00 1.881696e+00 2.159791e+00 3.035223e+00 3.344622e+00 3.756860e+00 3.794586e+00 3.801924e+00 3.346738e+00 2.514771e+00 1.585196e+00 1.154196e+00
<GCONST> 4.495730e+01
<STATE> 3
<MEAN> 16
 6.281053e+00 6.759054e+00 7.326276e+00 7.612419e+00 7.410303e+00 7.363077e+00 7.590895e+00 8.010840e+00 8.410545e+00 8.415318e+00 8.530062e+00 8.697276e+00 8.874183e+00 8.789028e+00 8.568502e+00 8.594773e+00
<VARIANCE> 16
 1.643104e+00 2.533356e+00 3.962415e+00 4.359089e+00 2.961461e+00 2.004380e+00 2.293782e+00 3.220653e+00 3.568541e+00 4.015972e+00 4.069510e+00 4.079817e+00 3.593741e+00 2.693264e+00 1.683568e+00 1.220121e+00
<GCONST> 4.592390e+01
<STATE> 4
<MEAN> 16
 6.330248e+00 6.847533e+00 7.466217e+00 7.769876e+00 7.537763e+00 7.453939e+00 7.688820e+00 8.140183e+00 8.553863e+00 8.564999e+00 8.675274e+00 8.842772e+00 9.020534e+00 8.904300e+00 8.621497e+00 8.624010e+00
<VARIANCE> 16
 1.676552e+00 2.573832e+00 4.062294e+00 4.496480e+00 3.099789e+00 2.084411e+00 2.377094e+00 3.331748e+00 3.712189e+00 4.187463e+00 4.257028e+00 4.270023e+00 3.763214e+00 2.813008e+00 1.741534e+00 1.255979e+00
<GCONST> 4.649452e+01
<STATE> 5
<MEAN> 16
 6.362226e+00 6.914603e+00 7.583001e+00 7.905670e+00 7.650141e+00 7.532204e+00 7.772554e+00 8.252994e+00 8.680351e+00 8.696990e+00 8.803530e+00 8.972205e+00 9.152490e+00 9.005910e+00 8.661659e+00 8.642708e+00
<VARIANCE> 16
 1.666960e+00 2.550410e+00 4.064968e+00 4.528503e+00 3.168270e+00 2.112550e+00 2.399516e+00 3.355322e+00 3.764500e+00 4.257763e+00 4.341979e+00 4.355969e+00 3.843414e+00 2.865077e+00 1.749868e+00 1.253822e+00
<GCONST> 4.665192e+01
<STATE> 6
<MEAN> 16
 6.373092e+00 6.954280e+00 7.666938e+00 8.009569e+00 7.739326e+00 7.591545e+00 7.835293e+00 8.340789e+00 8.780577e+00 8.801308e+00 8.905514e+00 9.076389e+00 9.261007e+00 9.086758e+00 8.685637e+00 8.649135e+00
<VARIANCE> 16
 1.611606e+00 2.465136e+00 3.977720e+00 4.462100e+00 3.167488e+00 2.087138e+00 2.359743e+00 3.292191e+00 3.729619e+00 4.229846e+00 4.325831e+00 4.337822e+00 3.837763e+00 2.852311e+00 1.707623e+00 1.212271e+00
<GCONST> 4.641175e+01
<STATE> 7
<MEAN> 16
 6.361298e+00 6.963041e+00 7.711243e+00 8.073967e+00 7.799201e+00 7.627586e+00 7.872426e+00 8.397251e+00 8.847515e+00 8.870502e+00 8.974589e+00 9.148694e+00 9.339194e+00 9.141898e+00 8.692417e+00 8.643501e+00
<VARIANCE> 16
 1.513275e+00 2.327345e+00 3.819385e+00 4.318119e+00 3.108528e+00 2.014753e+00 2.266111e+00 3.157526e+00 3.625599e+00 4.122089e+00 4.225707e+00 4.231948e+00 3.763061e+00 2.787621e+00 1.622228e+00 1.137040e+00
<GCONST> 4.582132e+01
<STATE> 8
<MEAN> 16
 6.328219e+00 6.940606e+00 7.713075e+00 8.094860e+00 7.826436e+00 7.638529e+00 7.882150e+00 8.419106e+00 8.877324e+00 8.900558e+00 9.007427e+00 9.185645e+00 9.382909e+00 9.168779e+00 8.683037e+00 8.627520e+00
<VARIANCE> 16
 1.379972e+00 2.151292e+00 3.614261e+00 4.124329e+00 3.008433e+00 1.907694e+00 2.133635e+00 2.975561e+00 3.477626e+00 3.961314e+00 4.067615e+00 4.064662e+00 3.642907e+00 2.688837e+00 1.506507e+00 1.038895e+00
<GCONST> 4.494968e+01
<STATE> 9
<MEAN> 16
 6.080660e+00 6.624306e+00 7.354600e+00 7.781106e+00 7.635437e+00 7.470024e+00 7.687328e+00 8.193424e+00 8.648395e+00 8.654726e+00 8.806964e+00 9.001390e+00 9.215084e+00 9.007213e+00 8.536349e+00 8.510517e+00
<VARIANCE> 16
 7.833464e-01 1.389911e+00 2.704757e+00 3.252190e+00 2.484270e+00 1.399669e+00 1.533767e+00 2.207197e+00 2.818815e+00 3.196346e+00 3.279672e+00 3.236198e+00 3.038342e+00 2.200792e+00 9.865042e-01 6.435391e-01
<GCONST> 4.013734e+01
<TRANSP> 10
 0.000000e+00 1.000000e+00 0.000000e+00 0.000000e+00 0.000000e+00 0.000000e+00 0.000000e+00 0.000000e+00 0.000000e+00 0.000000e+00
 0.000000e+00 8.426743e-01 1.573257e-01 0.000000e+00 0.000000e+00 0.000000e+00 0.000000e+00 0.000000e+00 0.000000e+00 0.000000e+00
 0.000000e+00 0.000000e+00 8.426740e-01 1.573260e-01 0.000000e+00 0.000000e+00 0.000000e+00 0.000000e+00 0.000000e+00 0.000000e+00
 0.000000e+00 0.000000e+00 0.000000e+00 8.426738e-01 1.573261e-01 0.000000e+00 0.000000e+00 0.000000e+00 0.000000e+00 0.000000e+00
 0.000000e+00 0.000000e+00 0.000000e+00 0.000000e+00 8.426742e-01 1.573258e-01 0.000000e+00 0.000000e+00 0.000000e+00 0.000000e+00
 0.000000e+00 0.000000e+00 0.000000e+00 0.000000e+00 0.000000e+00 8.426741e-01 1.573258e-01 0.000000e+00 0.000000e+00 0.000000e+00
 0.000000e+00 0.000000e+00 0.000000e+00 0.000000e+00 0.000000e+00 0.000000e+00 8.426745e-01 1.573255e-01 0.000000e+00 0.000000e+00
 0.000000e+00 0.000000e+00 0.000000e+00 0.000000e+00 0.000000e+00 0.000000e+00 0.000000e+00 8.426742e-01 1.573257e-01 0.000000e+00
 0.000000e+00 0.000000e+00 0.000000e+00 0.000000e+00 0.000000e+00 0.000000e+00 0.000000e+00 0.000000e+00 9.765783e-01 2.342174e-02
 0.000000e+00 0.000000e+00 0.000000e+00 0.000000e+00 0.000000e+00 0.000000e+00 0.000000e+00 0.000000e+00 0.000000e+00 0.000000e+00
<ENDHMM>
~h "jedna"
<BEGINHMM>
<NUMSTATES> 10
<STATE> 2
<MEAN> 16
 6.233812e+00 6.725781e+00 7.160129e+00 7.373800e+00 7.307629e+00 7.357412e+00 7.558205e+00 7.830943e+00 8.169018e+00 8.233444e+00 8.358631e+00 8.540530e+00 8.733684e+00 8.585201e+00 8.374152e+00 8.437566e+00
<VARIANCE> 16
 1.444917e+00 2.442612e+00 3.318626e+00 3.445210e+00 2.531661e+00 2.015984e+00 2.338397e+00 2.609312e+00 2.549982e+00 2.985546e+00 3.215113e+00 3.254362e+00 2.838810e+00 1.764677e+00 9.686750e-01 7.409140e-01
<GCONST> 4.219960e+01
<STATE> 3
<MEAN> 16
 6.305706e+00 6.845679e+00 7.303795e+00 7.531007e+00 7.445264e+00 7.472053e+00 7.679764e+00 7.963191e+00 8.289605e+00 8.363032e+00 8.491171e+00 8.674468e+00 8.866785e+00 8.680625e+00 8.414374e+00 8.462571e+00
<VARIANCE> 16
 1.528585e+00 2.563085e+00 3.474623e+00 3.631895e+00 2.716446e+00 2.203120e+00 2.552107e+00 2.828600e+00 2.714096e+00 3.147649e+00 3.415368e+00 3.462523e+00 3.019463e+00 1.876668e+00 1.030970e+00 7.897607e-01
<GCONST> 4.321718e+01
<STATE> 4
<MEAN> 16
 6.368507e+00 6.952989e+00 7.432161e+00 7.676437e+00 7.576670e+00 7.584850e+00 7.798691e+00 8.090138e+00 8.399783e+00 8.479294e+00 8.611962e+00 8.797769e+00 8.988793e+00 8.766805e+00 8.446940e+00 8.482259e+00
<VARIANCE> 16
 1.586595e+00 2.631252e+00 3.555304e+00 3.743012e+00 2.852618e+00 2.357456e+00 2.728715e+00 3.003889e+00 2.825655e+00 3.242897e+00 3.545935e+00 3.598962e+00 3.142065e+00 1.952927e+00 1.073013e+00 8.238586e-01
<GCONST> 4.388555e+01
<STATE> 5
<MEAN> 16
 6.415630e+00 7.038188e+00 7.534280e+00 7.798578e+00 7.692439e+00 7.688211e+00 7.907019e+00 8.203058e+00 8.491029e+00 8.572707e+00 8.711430e+00 8.900710e+00 9.090693e+00 8.836858e+00 8.467971e+00 8.493636e+00
<VARIANCE> 16
 1.613141e+00 2.643395e+00 3.557599e+00 3.775573e+00 2.935411e+00 2.470729e+00 2.857973e+00 3.126054e+00 2.877248e+00 3.263929e+00 3.595669e+00 3.653037e+00 3.200590e+00 1.988216e+00 1.087688e+00 8.362545e-01
<GCONST> 4.419602e+01
<STATE> 6
<MEAN> 16
 6.441791e+00 7.093376e+00 7.601174e+00 7.887337e+00 7.783778e+00 7.774533e+00 7.996690e+00 8.293839e+00 8.556174e+00 8.635586e+00 8.781788e+00 8.975171e+00 9.165196e+00 8.885447e+00 8.475295e+00 8.494995e+00
<VARIANCE> 16
 1.604859e+00 2.602687e+00 3.490057e+00 3.737677e+00 2.967859e+00 2.540632e+00 2.935384e+00 3.192775e+00 2.869872e+00 3.214431e+00 3.565264e+00 3.626350e+00 3.198314e+00 1.983397e+00 1.070886e+00 8.222213e-01
<GCONST> 4.416354e+01
<STATE> 7
<MEAN> 16
 6.444025e+00 7.113587e+00 7.627227e+00 7.935467e+00 7.843790e+00 7.837388e+00 8.060842e+00 8.356051e+00 8.590402e+00 8.663215e+00 8.818178e+00 9.015718e+00 9.207415e+00 8.909373e+00 8.468575e+00 8.486182e+00
<VARIANCE> 16
 1.561493e+00 2.517602e+00 3.369014e+00 3.645275e+00 2.958733e+00 2.570504e+00 2.962768e+00 3.208803e+00 2.812112e+00 3.107612e+00 3.466799e+00 3.532042e+00 3.146921e+00 1.944817e+00 1.023069e+00 7.810952e-01
<GCONST> 4.382416e+01
<STATE> 8
<MEAN> 16
 6.422102e+00 7.097404e+00 7.610728e+00 7.939371e+00 7.868278e+00 7.872361e+00 8.094824e+00 8.385701e+00 8.591599e+00 8.654066e+00 8.818840e+00 9.019931e+00 9.215057e+00 8.907612e+00 8.448971e+00 8.468428e+00
<VARIANCE> 16
 1.485737e+00 2.398498e+00 3.212105e+00 3.516054e+00 2.918683e+00 2.567102e+00 2.946607e+00 3.183645e+00 2.716627e+00 2.961086e+00 3.319057e+00 3.389607e+00 3.061882e+00 1.881534e+00 9.491445e-01 7.167855e-01
<GCONST> 4.322493e+01
<STATE> 9
<MEAN> 16
 6.163336e+00 6.743473e+00 7.195436e+00 7.558198e+00 7.626153e+00 7.733958e+00 7.936953e+00 8.192924e+00 8.303588e+00 8.307232e+00 8.514867e+00 8.715520e+00 8.935067e+00 8.683173e+00 8.292948e+00 8.356447e+00
<VARIANCE> 16
 9.844186e-01 1.729501e+00 2.407438e+00 2.785082e+00 2.544149e+00 2.328116e+00 2.589332e+00 2.838817e+00 2.143384e+00 2.225547e+00 2.547982e+00 2.625861e+00 2.566048e+00 1.512394e+00 5.648611e-01 3.984801e-01
<GCONST> 3.894254e+01
<TRANSP> 10
 0.000000e+00 1.000000e+00 0.000000e+00 0.000000e+00 0.000000e+00 0.000000e+00 0.000000e+00 0.000000e+00 0.000000e+00 0.000000e+00
 0.000000e+00 8.426743e-01 1.573257e-01 0.000000e+00 0.000000e+00 0.000000e+00 0.000000e+00 0.000000e+00 0.000000e+00 0.000000e+00
 0.000000e+00 0.000000e+00 8.426740e-01 1.573260e-01 0.000000e+00 0.000000e+00 0.000000e+00 0.000000e+00 0.000000e+00 0.000000e+00
 0.000000e+00 0.000000e+00 0.000000e+00 8.426738e-01 1.573261e-01 0.000000e+00 0.000000e+00 0.000000e+00 0.000000e+00 0.000000e+00
 0.000000e+00 0.000000e+00 0.000000e+00 0.000000e+00 8.426742e-01 1.573258e-01 0.000000e+00 0.000000e+00 0.000000e+00 0.000000e+00
 0.000000e+00 0.000000e+00 0.000000e+00 0.000000e+00 0.000000e+00 8.426741e-01 1.573258e-01 0.000000e+00 0.000000e+00 0.000000e+00
 0.000000e+00 0.000000e+00 0.000000e+00 0.000000e+00 0.000000e+00 0.000000e+00 8.426745e-01 1.573255e-01 0.000000e+00 0.000000e+00
 0.000000e+00 0.000000e+00 0.000000e+00 0.000000e+00 0.000000e+00 0.000000e+00 0.000000e+00 8.426742e-01 1.573257e-01 0.000000e+00
 0.000000e+00 0.000000e+00 0.000000e+00 0.000000e+00 0.000000e+00 0.000000e+00 0.000000e+00 0.000000e+00 9.765783e-01 2.342174e-02
 0.000000e+00 0.000000e+00 0.000000e+00 0.000000e+00 0.000000e+00 0.000000e+00 0.000000e+00 0.000000e+00 0.000000e+00 0.000000e+00
<ENDHMM>
