~o
<STREAMINFO> 1 32
<VECSIZE> 32<NULLD><FBANK_D><DIAGC>
~h "nula"
<BEGINHMM>
<NUMSTATES> 10
<STATE> 2
<MEAN> 32
 5.812275e+00 6.201571e+00 6.613722e+00 6.876745e+00 6.903144e+00 7.011796e+00 7.179854e+00 7.406693e+00 7.733568e+00 7.746812e+00 7.922665e+00 8.134038e+00 8.397487e+00 8.370876e+00 8.262036e+00 8.328363e+00 -2.701345e-04 -2.580403e-04 -3.277455e-04 -3.525282e-04 -1.368217e-04 -2.768867e-04 -2.210781e-04 -2.835550e-04 -1.692027e-04 -1.990935e-04 -2.599323e-04 -9.458613e-04 -1.313783e-03 -1.071932e-03 -5.194265e-04 -7.359973e-04
<VARIANCE> 32
 4.471016e-01 9.781075e-01 1.769806e+00 2.013378e+00 1.605759e+00 1.266392e+00 1.280827e+00 1.387146e+00 1.398335e+00 1.641472e+00 1.755539e+00 1.822769e+00 2.005455e+00 1.505188e+00 8.074799e-01 5.142136e-01 1.525198e-02 2.115775e-02 3.040326e-02 3.166568e-02 2.473171e-02 1.956654e-02 1.931165e-02 2.118436e-02 2.089082e-02 2.269821e-02 2.271687e-02 2.431213e-02 2.629785e-02 2.231619e-02 1.407042e-02 9.328106e-03
<GCONST> 8.058786e-01
<STATE> 3
<MEAN> 32
 5.812275e+00 6.201571e+00 6.613722e+00 6.876745e+00 6.903144e+00 7.011796e+00 7.179854e+00 7.406693e+00 7.733568e+00 7.746812e+00 7.922665e+00 8.134038e+00 8.397487e+00 8.370876e+00 8.262036e+00 8.328363e+00 -2.701345e-04 -2.580403e-04 -3.277455e-04 -3.525282e-04 -1.368217e-04 -2.768867e-04 -2.210781e-04 -2.835550e-04 -1.692027e-04 -1.990935e-04 -2.599323e-04 -9.458613e-04 -1.313783e-03 -1.071932e-03 -5.194265e-04 -7.359973e-04
<VARIANCE> 32
 4.471016e-01 9.781075e-01 1.769806e+00 2.013378e+00 1.605759e+00 1.266392e+00 1.280827e+00 1.387146e+00 1.398335e+00 1.641472e+00 1.755539e+00 1.822769e+00 2.005455e+00 1.505188e+00 8.074799e-01 5.142136e-01 1.525198e-02 2.115775e-02 3.040326e-02 3.166568e-02 2.473171e-02 1.956654e-02 1.931165e-02 2.118436e-02 2.089082e-02 2.269821e-02 2.271687e-02 2.431213e-02 2.629785e-02 2.231619e-02 1.407042e-02 9.328106e-03
<GCONST> 8.058786e-01
<STATE> 4
<MEAN> 32
 5.812275e+00 6.201571e+00 6.613722e+00 6.876745e+00 6.903144e+00 7.011796e+00 7.179854e+00 7.406693e+00 7.733568e+00 7.746812e+00 7.922665e+00 8.134038e+00 8.397487e+00 8.370876e+00 8.262036e+00 8.328363e+00 -2.701345e-04 -2.580403e-04 -3.277455e-04 -3.525282e-04 -1.368217e-04 -2.768867e-04 -2.210781e-04 -2.835550e-04 -1.692027e-04 -1.990935e-04 -2.599323e-04 -9.458613e-04 -1.313783e-03 -1.071932e-03 -5.194265e-04 -7.359973e-04
<VARIANCE> 32
 4.471016e-01 9.781075e-01 1.769806e+00 2.013378e+00 1.605759e+00 1.266392e+00 1.280827e+00 1.387146e+00 1.398335e+00 1.641472e+00 1.755539e+00 1.822769e+00 2.005455e+00 1.505188e+00 8.074799e-01 5.142136e-01 1.525198e-02 2.115775e-02 3.040326e-02 3.166568e-02 2.473171e-02 1.956654e-02 1.931165e-02 2.118436e-02 2.089082e-02 2.269821e-02 2.271687e-02 2.431213e-02 2.629785e-02 2.231619e-02 1.407042e-02 9.328106e-03
<GCONST> 8.058786e-01
<STATE> 5
<MEAN> 32
 5.812275e+00 6.201571e+00 6.613722e+00 6.876745e+00 6.903144e+00 7.011796e+00 7.179854e+00 7.406693e+00 7.733568e+00 7.746812e+00 7.922665e+00 8.134038e+00 8.397487e+00 8.370876e+00 8.262036e+00 8.328363e+00 -2.701345e-04 -2.580403e-04 -3.277455e-04 -3.525282e-04 -1.368217e-04 -2.768867e-04 -2.210781e-04 -2.835550e-04 -1.692027e-04 -1.990935e-04 -2.599323e-04 -9.458613e-04 -1.313783e-03 -1.071932e-03 -5.194265e-04 -7.359973e-04
<VARIANCE> 32
 4.471016e-01 9.781075e-01 1.769806e+00 2.013378e+00 1.605759e+00 1.266392e+00 1.280827e+00 1.387146e+00 1.398335e+00 1.641472e+00 1.755539e+00 1.822769e+00 2.005455e+00 1.505188e+00 8.074799e-01 5.142136e-01 1.525198e-02 2.115775e-02 3.040326e-02 3.166568e-02 2.473171e-02 1.956654e-02 1.931165e-02 2.118436e-02 2.089082e-02 2.269821e-02 2.271687e-02 2.431213e-02 2.629785e-02 2.231619e-02 1.407042e-02 9.328106e-03
<GCONST> 8.058786e-01
<STATE> 6
<MEAN> 32
 5.812275e+00 6.201571e+00 6.613722e+00 6.876745e+00 6.903144e+00 7.011796e+00 7.179854e+00 7.406693e+00 7.733568e+00 7.746812e+00 7.922665e+00 8.134038e+00 8.397487e+00 8.370876e+00 8.262036e+00 8.328363e+00 -2.701345e-04 -2.580403e-04 -3.277455e-04 -3.525282e-04 -1.368217e-04 -2.768867e-04 -2.210781e-04 -2.835550e-04 -1.692027e-04 -1.990935e-04 -2.599323e-04 -9.458613e-04 -1.313783e-03 -1.071932e-03 -5.194265e-04 -7.359973e-04
<VARIANCE> 32
 4.471016e-01 9.781075e-01 1.769806e+00 2.013378e+00 1.605759e+00 1.266392e+00 1.280827e+00 1.387146e+00 1.398335e+00 1.641472e+00 1.755539e+00 1.822769e+00 2.005455e+00 1.505188e+00 8.074799e-01 5.142136e-01 1.525198e-02 2.115775e-02 3.040326e-02 3.166568e-02 2.473171e-02 1.956654e-02 1.931165e-02 2.118436e-02 2.089082e-02 2.269821e-02 2.271687e-02 2.431213e-02 2.629785e-02 2.231619e-02 1.407042e-02 9.328106e-03
<GCONST> 8.058786e-01
<STATE> 7
<MEAN> 32
 5.812275e+00 6.201571e+00 6.613722e+00 6.876745e+00 6.903144e+00 7.011796e+00 7.179854e+00 7.406693e+00 7.733568e+00 7.746812e+00 7.922665e+00 8.134038e+00 8.397487e+00 8.370876e+00 8.262036e+00 8.328363e+00 -2.701345e-04 -2.580403e-04 -3.277455e-04 -3.525282e-04 -1.368217e-04 -2.768867e-04 -2.210781e-04 -2.835550e-04 -1.692027e-04 -1.990935e-04 -2.599323e-04 -9.458613e-04 -1.313783e-03 -1.071932e-03 -5.194265e-04 -7.359973e-04
<VARIANCE> 32
 4.471016e-01 9.781075e-01 1.769806e+00 2.013378e+00 1.605759e+00 1.266392e+00 1.280827e+00 1.387146e+00 1.398335e+00 1.641472e+00 1.755539e+00 1.822769e+00 2.005455e+00 1.505188e+00 8.074799e-01 5.142136e-01 1.525198e-02 2.115775e-02 3.040326e-02 3.166568e-02 2.473171e-02 1.956654e-02 1.931165e-02 2.118436e-02 2.089082e-02 2.269821e-02 2.271687e-02 2.431213e-02 2.629785e-02 2.231619e-02 1.407042e-02 9.328106e-03
<GCONST> 8.058786e-01
<STATE> 8
<MEAN> 32
 5.812275e+00 6.201571e+00 6.613722e+00 6.876745e+00 6.903144e+00 7.011796e+00 7.179854e+00 7.406693e+00 7.733568e+00 7.746812e+00 7.922665e+00 8.134038e+00 8.397487e+00 8.370876e+00 8.262036e+00 8.328363e+00 -2.701345e-04 -2.580403e-04 -3.277455e-04 -3.525282e-04 -1.368217e-04 -2.768867e-04 -2.210781e-04 -2.835550e-04 -1.692027e-04 -1.990935e-04 -2.599323e-04 -9.458613e-04 -1.313783e-03 -1.071932e-03 -5.194265e-04 -7.359973e-04
<VARIANCE> 32
 4.471016e-01 9.781075e-01 1.769806e+00 2.013378e+00 1.605759e+00 1.266392e+00 1.280827e+00 1.387146e+00 1.398335e+00 1.641472e+00 1.755539e+00 1.822769e+00 2.005455e+00 1.505188e+00 8.074799e-01 5.142136e-01 1.525198e-02 2.115775e-02 3.040326e-02 3.166568e-02 2.473171e-02 1.956654e-02 1.931165e-02 2.118436e-02 2.089082e-02 2.269821e-02 2.271687e-02 2.431213e-02 2.629785e-02 2.231619e-02 1.407042e-02 9.328106e-03
<GCONST> 8.058786e-01
<STATE> 9
<MEAN> 32
 5.812275e+00 6.201571e+00 6.613722e+00 6.876745e+00 6.903144e+00 7.011796e+00 7.179854e+00 7.406693e+00 7.733568e+00 7.746812e+00 7.922665e+00 8.134038e+00 8.397487e+00 8.370876e+00 8.262036e+00 8.328363e+00 -2.701345e-04 -2.580403e-04 -3.277455e-04 -3.525282e-04 -1.368217e-04 -2.768867e-04 -2.210781e-04 -2.835550e-04 -1.692027e-04 -1.990935e-04 -2.599323e-04 -9.458613e-04 -1.313783e-03 -1.071932e-03 -5.194265e-04 -7.359973e-04
<VARIANCE> 32
 4.471016e-01 9.781075e-01 1.769806e+00 2.013378e+00 1.605759e+00 1.266392e+00 1.280827e+00 1.387146e+00 1.398335e+00 1.641472e+00 1.755539e+00 1.822769e+00 2.005455e+00 1.505188e+00 8.074799e-01 5.142136e-01 1.525198e-02 2.115775e-02 3.040326e-02 3.166568e-02 2.473171e-02 1.956654e-02 1.931165e-02 2.118436e-02 2.089082e-02 2.269821e-02 2.271687e-02 2.431213e-02 2.629785e-02 2.231619e-02 1.407042e-02 9.328106e-03
<GCONST> 8.058786e-01
<TRANSP> 10
 0.000000e+00 1.000000e+00 0.000000e+00 0.000000e+00 0.000000e+00 0.000000e+00 0.000000e+00 0.000000e+00 0.000000e+00 0.000000e+00
 0.000000e+00 6.000000e-01 4.000000e-01 0.000000e+00 0.000000e+00 0.000000e+00 0.000000e+00 0.000000e+00 0.000000e+00 0.000000e+00
 0.000000e+00 0.000000e+00 6.000000e-01 4.000000e-01 0.000000e+00 0.000000e+00 0.000000e+00 0.000000e+00 0.000000e+00 0.000000e+00
 0.000000e+00 0.000000e+00 0.000000e+00 6.000000e-01 4.000000e-01 0.000000e+00 0.000000e+00 0.000000e+00 0.000000e+00 0.000000e+00
 0.000000e+00 0.000000e+00 0.000000e+00 0.000000e+00 6.000000e-01 4.000000e-01 0.000000e+00 0.000000e+00 0.000000e+00 0.000000e+00
 0.000000e+00 0.000000e+00 0.000000e+00 0.000000e+00 0.000000e+00 6.000000e-01 4.000000e-01 0.000000e+00 0.000000e+00 0.000000e+00
 0.000000e+00 0.000000e+00 0.000000e+00 0.000000e+00 0.000000e+00 0.000000e+00 6.000000e-01 4.000000e-01 0.000000e+00 0.000000e+00
 0.000000e+00 0.000000e+00 0.000000e+00 0.000000e+00 0.000000e+00 0.000000e+00 0.000000e+00 6.000000e-01 4.000000e-01 0.000000e+00
 0.000000e+00 0.000000e+00 0.000000e+00 0.000000e+00 0.000000e+00 0.000000e+00 0.000000e+00 0.000000e+00 7.000000e-01 3.000000e-01
 0.000000e+00 0.000000e+00 0.000000e+00 0.000000e+00 0.000000e+00 0.000000e+00 0.000000e+00 0.000000e+00 0.000000e+00 0.000000e+00
<ENDHMM>
~o
<STREAMINFO> 1 32
<VECSIZE> 32<NULLD><FBANK_D><DIAGC>
~h "jedna"
<BEGINHMM>
<NUMSTATES> 10
<STATE> 2
<MEAN> 32
 5.812275e+00 6.201571e+00 6.613722e+00 6.876745e+00 6.903144e+00 7.011796e+00 7.179854e+00 7.406693e+00 7.733568e+00 7.746812e+00 7.922665e+00 8.134038e+00 8.397487e+00 8.370876e+00 8.262036e+00 8.328363e+00 -2.701345e-04 -2.580403e-04 -3.277455e-04 -3.525282e-04 -1.368217e-04 -2.768867e-04 -2.210781e-04 -2.835550e-04 -1.692027e-04 -1.990935e-04 -2.599323e-04 -9.458613e-04 -1.313783e-03 -1.071932e-03 -5.194265e-04 -7.359973e-04
<VARIANCE> 32
 4.471016e-01 9.781075e-01 1.769806e+00 2.013378e+00 1.605759e+00 1.266392e+00 1.280827e+00 1.387146e+00 1.398335e+00 1.641472e+00 1.755539e+00 1.822769e+00 2.005455e+00 1.505188e+00 8.074799e-01 5.142136e-01 1.525198e-02 2.115775e-02 3.040326e-02 3.166568e-02 2.473171e-02 1.956654e-02 1.931165e-02 2.118436e-02 2.089082e-02 2.269821e-02 2.271687e-02 2.431213e-02 2.629785e-02 2.231619e-02 1.407042e-02 9.328106e-03
<GCONST> 8.058786e-01
<STATE> 3
<MEAN> 32
 5.812275e+00 6.201571e+00 6.613722e+00 6.876745e+00 6.903144e+00 7.011796e+00 7.179854e+00 7.406693e+00 7.733568e+00 7.746812e+00 7.922665e+00 8.134038e+00 8.397487e+00 8.370876e+00 8.262036e+00 8.328363e+00 -2.701345e-04 -2.580403e-04 -3.277455e-04 -3.525282e-04 -1.368217e-04 -2.768867e-04 -2.210781e-04 -2.835550e-04 -1.692027e-04 -1.990935e-04 -2.599323e-04 -9.458613e-04 -1.313783e-03 -1.071932e-03 -5.194265e-04 -7.359973e-04
<VARIANCE> 32
 4.471016e-01 9.781075e-01 1.769806e+00 2.013378e+00 1.605759e+00 1.266392e+00 1.280827e+00 1.387146e+00 1.398335e+00 1.641472e+00 1.755539e+00 1.822769e+00 2.005455e+00 1.505188e+00 8.074799e-01 5.142136e-01 1.525198e-02 2.115775e-02 3.040326e-02 3.166568e-02 2.473171e-02 1.956654e-02 1.931165e-02 2.118436e-02 2.089082e-02 2.269821e-02 2.271687e-02 2.431213e-02 2.629785e-02 2.231619e-02 1.407042e-02 9.328106e-03
<GCONST> 8.058786e-01
<STATE> 4
<MEAN> 32
 5.812275e+00 6.201571e+00 6.613722e+00 6.876745e+00 6.903144e+00 7.011796e+00 7.179854e+00 7.406693e+00 7.733568e+00 7.746812e+00 7.922665e+00 8.134038e+00 8.397487e+00 8.370876e+00 8.262036e+00 8.328363e+00 -2.701345e-04 -2.580403e-04 -3.277455e-04 -3.525282e-04 -1.368217e-04 -2.768867e-04 -2.210781e-04 -2.835550e-04 -1.692027e-04 -1.990935e-04 -2.599323e-04 -9.458613e-04 -1.313783e-03 -1.071932e-03 -5.194265e-04 -7.359973e-04
<VARIANCE> 32
 4.471016e-01 9.781075e-01 1.769806e+00 2.013378e+00 1.605759e+00 1.266392e+00 1.280827e+00 1.387146e+00 1.398335e+00 1.641472e+00 1.755539e+00 1.822769e+00 2.005455e+00 1.505188e+00 8.074799e-01 5.142136e-01 1.525198e-02 2.115775e-02 3.040326e-02 3.166568e-02 2.473171e-02 1.956654e-02 1.931165e-02 2.118436e-02 2.089082e-02 2.269821e-02 2.271687e-02 2.431213e-02 2.629785e-02 2.231619e-02 1.407042e-02 9.328106e-03
<GCONST> 8.058786e-01
<STATE> 5
<MEAN> 32
 5.812275e+00 6.201571e+00 6.613722e+00 6.876745e+00 6.903144e+00 7.011796e+00 7.179854e+00 7.406693e+00 7.733568e+00 7.746812e+00 7.922665e+00 8.134038e+00 8.397487e+00 8.370876e+00 8.262036e+00 8.328363e+00 -2.701345e-04 -2.580403e-04 -3.277455e-04 -3.525282e-04 -1.368217e-04 -2.768867e-04 -2.210781e-04 -2.835550e-04 -1.692027e-04 -1.990935e-04 -2.599323e-04 -9.458613e-04 -1.313783e-03 -1.071932e-03 -5.194265e-04 -7.359973e-04
<VARIANCE> 32
 4.471016e-01 9.781075e-01 1.769806e+00 2.013378e+00 1.605759e+00 1.266392e+00 1.280827e+00 1.387146e+00 1.398335e+00 1.641472e+00 1.755539e+00 1.822769e+00 2.005455e+00 1.505188e+00 8.074799e-01 5.142136e-01 1.525198e-02 2.115775e-02 3.040326e-02 3.166568e-02 2.473171e-02 1.956654e-02 1.931165e-02 2.118436e-02 2.089082e-02 2.269821e-02 2.271687e-02 2.431213e-02 2.629785e-02 2.231619e-02 1.407042e-02 9.328106e-03
<GCONST> 8.058786e-01
<STATE> 6
<MEAN> 32
 5.812275e+00 6.201571e+00 6.613722e+00 6.876745e+00 6.903144e+00 7.011796e+00 7.179854e+00 7.406693e+00 7.733568e+00 7.746812e+00 7.922665e+00 8.134038e+00 8.397487e+00 8.370876e+00 8.262036e+00 8.328363e+00 -2.701345e-04 -2.580403e-04 -3.277455e-04 -3.525282e-04 -1.368217e-04 -2.768867e-04 -2.210781e-04 -2.835550e-04 -1.692027e-04 -1.990935e-04 -2.599323e-04 -9.458613e-04 -1.313783e-03 -1.071932e-03 -5.194265e-04 -7.359973e-04
<VARIANCE> 32
 4.471016e-01 9.781075e-01 1.769806e+00 2.013378e+00 1.605759e+00 1.266392e+00 1.280827e+00 1.387146e+00 1.398335e+00 1.641472e+00 1.755539e+00 1.822769e+00 2.005455e+00 1.505188e+00 8.074799e-01 5.142136e-01 1.525198e-02 2.115775e-02 3.040326e-02 3.166568e-02 2.473171e-02 1.956654e-02 1.931165e-02 2.118436e-02 2.089082e-02 2.269821e-02 2.271687e-02 2.431213e-02 2.629785e-02 2.231619e-02 1.407042e-02 9.328106e-03
<GCONST> 8.058786e-01
<STATE> 7
<MEAN> 32
 5.812275e+00 6.201571e+00 6.613722e+00 6.876745e+00 6.903144e+00 7.011796e+00 7.179854e+00 7.406693e+00 7.733568e+00 7.746812e+00 7.922665e+00 8.134038e+00 8.397487e+00 8.370876e+00 8.262036e+00 8.328363e+00 -2.701345e-04 -2.580403e-04 -3.277455e-04 -3.525282e-04 -1.368217e-04 -2.768867e-04 -2.210781e-04 -2.835550e-04 -1.692027e-04 -1.990935e-04 -2.599323e-04 -9.458613e-04 -1.313783e-03 -1.071932e-03 -5.194265e-04 -7.359973e-04
<VARIANCE> 32
 4.471016e-01 9.781075e-01 1.769806e+00 2.013378e+00 1.605759e+00 1.266392e+00 1.280827e+00 1.387146e+00 1.398335e+00 1.641472e+00 1.755539e+00 1.822769e+00 2.005455e+00 1.505188e+00 8.074799e-01 5.142136e-01 1.525198e-02 2.115775e-02 3.040326e-02 3.166568e-02 2.473171e-02 1.956654e-02 1.931165e-02 2.118436e-02 2.089082e-02 2.269821e-02 2.271687e-02 2.431213e-02 2.629785e-02 2.231619e-02 1.407042e-02 9.328106e-03
<GCONST> 8.058786e-01
<STATE> 8
<MEAN> 32
 5.812275e+00 6.201571e+00 6.613722e+00 6.876745e+00 6.903144e+00 7.011796e+00 7.179854e+00 7.406693e+00 7.733568e+00 7.746812e+00 7.922665e+00 8.134038e+00 8.397487e+00 8.370876e+00 8.262036e+00 8.328363e+00 -2.701345e-04 -2.580403e-04 -3.277455e-04 -3.525282e-04 -1.368217e-04 -2.768867e-04 -2.210781e-04 -2.835550e-04 -1.692027e-04 -1.990935e-04 -2.599323e-04 -9.458613e-04 -1.313783e-03 -1.071932e-03 -5.194265e-04 -7.359973e-04
<VARIANCE> 32
 4.471016e-01 9.781075e-01 1.769806e+00 2.013378e+00 1.605759e+00 1.266392e+00 1.280827e+00 1.387146e+00 1.398335e+00 1.641472e+00 1.755539e+00 1.822769e+00 2.005455e+00 1.505188e+00 8.074799e-01 5.142136e-01 1.525198e-02 2.115775e-02 3.040326e-02 3.166568e-02 2.473171e-02 1.956654e-02 1.931165e-02 2.118436e-02 2.089082e-02 2.269821e-02 2.271687e-02 2.431213e-02 2.629785e-02 2.231619e-02 1.407042e-02 9.328106e-03
<GCONST> 8.058786e-01
<STATE> 9
<MEAN> 32
 5.812275e+00 6.201571e+00 6.613722e+00 6.876745e+00 6.903144e+00 7.011796e+00 7.179854e+00 7.406693e+00 7.733568e+00 7.746812e+00 7.922665e+00 8.134038e+00 8.397487e+00 8.370876e+00 8.262036e+00 8.328363e+00 -2.701345e-04 -2.580403e-04 -3.277455e-04 -3.525282e-04 -1.368217e-04 -2.768867e-04 -2.210781e-04 -2.835550e-04 -1.692027e-04 -1.990935e-04 -2.599323e-04 -9.458613e-04 -1.313783e-03 -1.071932e-03 -5.194265e-04 -7.359973e-04
<VARIANCE> 32
 4.471016e-01 9.781075e-01 1.769806e+00 2.013378e+00 1.605759e+00 1.266392e+00 1.280827e+00 1.387146e+00 1.398335e+00 1.641472e+00 1.755539e+00 1.822769e+00 2.005455e+00 1.505188e+00 8.074799e-01 5.142136e-01 1.525198e-02 2.115775e-02 3.040326e-02 3.166568e-02 2.473171e-02 1.956654e-02 1.931165e-02 2.118436e-02 2.089082e-02 2.269821e-02 2.271687e-02 2.431213e-02 2.629785e-02 2.231619e-02 1.407042e-02 9.328106e-03
<GCONST> 8.058786e-01
<TRANSP> 10
 0.000000e+00 1.000000e+00 0.000000e+00 0.000000e+00 0.000000e+00 0.000000e+00 0.000000e+00 0.000000e+00 0.000000e+00 0.000000e+00
 0.000000e+00 6.000000e-01 4.000000e-01 0.000000e+00 0.000000e+00 0.000000e+00 0.000000e+00 0.000000e+00 0.000000e+00 0.000000e+00
 0.000000e+00 0.000000e+00 6.000000e-01 4.000000e-01 0.000000e+00 0.000000e+00 0.000000e+00 0.000000e+00 0.000000e+00 0.000000e+00
 0.000000e+00 0.000000e+00 0.000000e+00 6.000000e-01 4.000000e-01 0.000000e+00 0.000000e+00 0.000000e+00 0.000000e+00 0.000000e+00
 0.000000e+00 0.000000e+00 0.000000e+00 0.000000e+00 6.000000e-01 4.000000e-01 0.000000e+00 0.000000e+00 0.000000e+00 0.000000e+00
 0.000000e+00 0.000000e+00 0.000000e+00 0.000000e+00 0.000000e+00 6.000000e-01 4.000000e-01 0.000000e+00 0.000000e+00 0.000000e+00
 0.000000e+00 0.000000e+00 0.000000e+00 0.000000e+00 0.000000e+00 0.000000e+00 6.000000e-01 4.000000e-01 0.000000e+00 0.000000e+00
 0.000000e+00 0.000000e+00 0.000000e+00 0.000000e+00 0.000000e+00 0.000000e+00 0.000000e+00 6.000000e-01 4.000000e-01 0.000000e+00
 0.000000e+00 0.000000e+00 0.000000e+00 0.000000e+00 0.000000e+00 0.000000e+00 0.000000e+00 0.000000e+00 7.000000e-01 3.000000e-01
 0.000000e+00 0.000000e+00 0.000000e+00 0.000000e+00 0.000000e+00 0.000000e+00 0.000000e+00 0.000000e+00 0.000000e+00 0.000000e+00
<ENDHMM>
~o
<STREAMINFO> 1 32
<VECSIZE> 32<NULLD><FBANK_D><DIAGC>
~h "dva"
<BEGINHMM>
<NUMSTATES> 10
<STATE> 2
<MEAN> 32
 5.812275e+00 6.201571e+00 6.613722e+00 6.876745e+00 6.903144e+00 7.011796e+00 7.179854e+00 7.406693e+00 7.733568e+00 7.746812e+00 7.922665e+00 8.134038e+00 8.397487e+00 8.370876e+00 8.262036e+00 8.328363e+00 -2.701345e-04 -2.580403e-04 -3.277455e-04 -3.525282e-04 -1.368217e-04 -2.768867e-04 -2.210781e-04 -2.835550e-04 -1.692027e-04 -1.990935e-04 -2.599323e-04 -9.458613e-04 -1.313783e-03 -1.071932e-03 -5.194265e-04 -7.359973e-04
<VARIANCE> 32
 4.471016e-01 9.781075e-01 1.769806e+00 2.013378e+00 1.605759e+00 1.266392e+00 1.280827e+00 1.387146e+00 1.398335e+00 1.641472e+00 1.755539e+00 1.822769e+00 2.005455e+00 1.505188e+00 8.074799e-01 5.142136e-01 1.525198e-02 2.115775e-02 3.040326e-02 3.166568e-02 2.473171e-02 1.956654e-02 1.931165e-02 2.118436e-02 2.089082e-02 2.269821e-02 2.271687e-02 2.431213e-02 2.629785e-02 2.231619e-02 1.407042e-02 9.328106e-03
<GCONST> 8.058786e-01
<STATE> 3
<MEAN> 32
 5.812275e+00 6.201571e+00 6.613722e+00 6.876745e+00 6.903144e+00 7.011796e+00 7.179854e+00 7.406693e+00 7.733568e+00 7.746812e+00 7.922665e+00 8.134038e+00 8.397487e+00 8.370876e+00 8.262036e+00 8.328363e+00 -2.701345e-04 -2.580403e-04 -3.277455e-04 -3.525282e-04 -1.368217e-04 -2.768867e-04 -2.210781e-04 -2.835550e-04 -1.692027e-04 -1.990935e-04 -2.599323e-04 -9.458613e-04 -1.313783e-03 -1.071932e-03 -5.194265e-04 -7.359973e-04
<VARIANCE> 32
 4.471016e-01 9.781075e-01 1.769806e+00 2.013378e+00 1.605759e+00 1.266392e+00 1.280827e+00 1.387146e+00 1.398335e+00 1.641472e+00 1.755539e+00 1.822769e+00 2.005455e+00 1.505188e+00 8.074799e-01 5.142136e-01 1.525198e-02 2.115775e-02 3.040326e-02 3.166568e-02 2.473171e-02 1.956654e-02 1.931165e-02 2.118436e-02 2.089082e-02 2.269821e-02 2.271687e-02 2.431213e-02 2.629785e-02 2.231619e-02 1.407042e-02 9.328106e-03
<GCONST> 8.058786e-01
<STATE> 4
<MEAN> 32
 5.812275e+00 6.201571e+00 6.613722e+00 6.876745e+00 6.903144e+00 7.011796e+00 7.179854e+00 7.406693e+00 7.733568e+00 7.746812e+00 7.922665e+00 8.134038e+00 8.397487e+00 8.370876e+00 8.262036e+00 8.328363e+00 -2.701345e-04 -2.580403e-04 -3.277455e-04 -3.525282e-04 -1.368217e-04 -2.768867e-04 -2.210781e-04 -2.835550e-04 -1.692027e-04 -1.990935e-04 -2.599323e-04 -9.458613e-04 -1.313783e-03 -1.071932e-03 -5.194265e-04 -7.359973e-04
<VARIANCE> 32
 4.471016e-01 9.781075e-01 1.769806e+00 2.013378e+00 1.605759e+00 1.266392e+00 1.280827e+00 1.387146e+00 1.398335e+00 1.641472e+00 1.755539e+00 1.822769e+00 2.005455e+00 1.505188e+00 8.074799e-01 5.142136e-01 1.525198e-02 2.115775e-02 3.040326e-02 3.166568e-02 2.473171e-02 1.956654e-02 1.931165e-02 2.118436e-02 2.089082e-02 2.269821e-02 2.271687e-02 2.431213e-02 2.629785e-02 2.231619e-02 1.407042e-02 9.328106e-03
<GCONST> 8.058786e-01
<STATE> 5
<MEAN> 32
 5.812275e+00 6.201571e+00 6.613722e+00 6.876745e+00 6.903144e+00 7.011796e+00 7.179854e+00 7.406693e+00 7.733568e+00 7.746812e+00 7.922665e+00 8.134038e+00 8.397487e+00 8.370876e+00 8.262036e+00 8.328363e+00 -2.701345e-04 -2.580403e-04 -3.277455e-04 -3.525282e-04 -1.368217e-04 -2.768867e-04 -2.210781e-04 -2.835550e-04 -1.692027e-04 -1.990935e-04 -2.599323e-04 -9.458613e-04 -1.313783e-03 -1.071932e-03 -5.194265e-04 -7.359973e-04
<VARIANCE> 32
 4.471016e-01 9.781075e-01 1.769806e+00 2.013378e+00 1.605759e+00 1.266392e+00 1.280827e+00 1.387146e+00 1.398335e+00 1.641472e+00 1.755539e+00 1.822769e+00 2.005455e+00 1.505188e+00 8.074799e-01 5.142136e-01 1.525198e-02 2.115775e-02 3.040326e-02 3.166568e-02 2.473171e-02 1.956654e-02 1.931165e-02 2.118436e-02 2.089082e-02 2.269821e-02 2.271687e-02 2.431213e-02 2.629785e-02 2.231619e-02 1.407042e-02 9.328106e-03
<GCONST> 8.058786e-01
<STATE> 6
<MEAN> 32
 5.812275e+00 6.201571e+00 6.613722e+00 6.876745e+00 6.903144e+00 7.011796e+00 7.179854e+00 7.406693e+00 7.733568e+00 7.746812e+00 7.922665e+00 8.134038e+00 8.397487e+00 8.370876e+00 8.262036e+00 8.328363e+00 -2.701345e-04 -2.580403e-04 -3.277455e-04 -3.525282e-04 -1.368217e-04 -2.768867e-04 -2.210781e-04 -2.835550e-04 -1.692027e-04 -1.990935e-04 -2.599323e-04 -9.458613e-04 -1.313783e-03 -1.071932e-03 -5.194265e-04 -7.359973e-04
<VARIANCE> 32
 4.471016e-01 9.781075e-01 1.769806e+00 2.013378e+00 1.605759e+00 1.266392e+00 1.280827e+00 1.387146e+00 1.398335e+00 1.641472e+00 1.755539e+00 1.822769e+00 2.005455e+00 1.505188e+00 8.074799e-01 5.142136e-01 1.525198e-02 2.115775e-02 3.040326e-02 3.166568e-02 2.473171e-02 1.956654e-02 1.931165e-02 2.118436e-02 2.089082e-02 2.269821e-02 2.271687e-02 2.431213e-02 2.629785e-02 2.231619e-02 1.407042e-02 9.328106e-03
<GCONST> 8.058786e-01
<STATE> 7
<MEAN> 32
 5.812275e+00 6.201571e+00 6.613722e+00 6.876745e+00 6.903144e+00 7.011796e+00 7.179854e+00 7.406693e+00 7.733568e+00 7.746812e+00 7.922665e+00 8.134038e+00 8.397487e+00 8.370876e+00 8.262036e+00 8.328363e+00 -2.701345e-04 -2.580403e-04 -3.277455e-04 -3.525282e-04 -1.368217e-04 -2.768867e-04 -2.210781e-04 -2.835550e-04 -1.692027e-04 -1.990935e-04 -2.599323e-04 -9.458613e-04 -1.313783e-03 -1.071932e-03 -5.194265e-04 -7.359973e-04
<VARIANCE> 32
 4.471016e-01 9.781075e-01 1.769806e+00 2.013378e+00 1.605759e+00 1.266392e+00 1.280827e+00 1.387146e+00 1.398335e+00 1.641472e+00 1.755539e+00 1.822769e+00 2.005455e+00 1.505188e+00 8.074799e-01 5.142136e-01 1.525198e-02 2.115775e-02 3.040326e-02 3.166568e-02 2.473171e-02 1.956654e-02 1.931165e-02 2.118436e-02 2.089082e-02 2.269821e-02 2.271687e-02 2.431213e-02 2.629785e-02 2.231619e-02 1.407042e-02 9.328106e-03
<GCONST> 8.058786e-01
<STATE> 8
<MEAN> 32
 5.812275e+00 6.201571e+00 6.613722e+00 6.876745e+00 6.903144e+00 7.011796e+00 7.179854e+00 7.406693e+00 7.733568e+00 7.746812e+00 7.922665e+00 8.134038e+00 8.397487e+00 8.370876e+00 8.262036e+00 8.328363e+00 -2.701345e-04 -2.580403e-04 -3.277455e-04 -3.525282e-04 -1.368217e-04 -2.768867e-04 -2.210781e-04 -2.835550e-04 -1.692027e-04 -1.990935e-04 -2.599323e-04 -9.458613e-04 -1.313783e-03 -1.071932e-03 -5.194265e-04 -7.359973e-04
<VARIANCE> 32
 4.471016e-01 9.781075e-01 1.769806e+00 2.013378e+00 1.605759e+00 1.266392e+00 1.280827e+00 1.387146e+00 1.398335e+00 1.641472e+00 1.755539e+00 1.822769e+00 2.005455e+00 1.505188e+00 8.074799e-01 5.142136e-01 1.525198e-02 2.115775e-02 3.040326e-02 3.166568e-02 2.473171e-02 1.956654e-02 1.931165e-02 2.118436e-02 2.089082e-02 2.269821e-02 2.271687e-02 2.431213e-02 2.629785e-02 2.231619e-02 1.407042e-02 9.328106e-03
<GCONST> 8.058786e-01
<STATE> 9
<MEAN> 32
 5.812275e+00 6.201571e+00 6.613722e+00 6.876745e+00 6.903144e+00 7.011796e+00 7.179854e+00 7.406693e+00 7.733568e+00 7.746812e+00 7.922665e+00 8.134038e+00 8.397487e+00 8.370876e+00 8.262036e+00 8.328363e+00 -2.701345e-04 -2.580403e-04 -3.277455e-04 -3.525282e-04 -1.368217e-04 -2.768867e-04 -2.210781e-04 -2.835550e-04 -1.692027e-04 -1.990935e-04 -2.599323e-04 -9.458613e-04 -1.313783e-03 -1.071932e-03 -5.194265e-04 -7.359973e-04
<VARIANCE> 32
 4.471016e-01 9.781075e-01 1.769806e+00 2.013378e+00 1.605759e+00 1.266392e+00 1.280827e+00 1.387146e+00 1.398335e+00 1.641472e+00 1.755539e+00 1.822769e+00 2.005455e+00 1.505188e+00 8.074799e-01 5.142136e-01 1.525198e-02 2.115775e-02 3.040326e-02 3.166568e-02 2.473171e-02 1.956654e-02 1.931165e-02 2.118436e-02 2.089082e-02 2.269821e-02 2.271687e-02 2.431213e-02 2.629785e-02 2.231619e-02 1.407042e-02 9.328106e-03
<GCONST> 8.058786e-01
<TRANSP> 10
 0.000000e+00 1.000000e+00 0.000000e+00 0.000000e+00 0.000000e+00 0.000000e+00 0.000000e+00 0.000000e+00 0.000000e+00 0.000000e+00
 0.000000e+00 6.000000e-01 4.000000e-01 0.000000e+00 0.000000e+00 0.000000e+00 0.000000e+00 0.000000e+00 0.000000e+00 0.000000e+00
 0.000000e+00 0.000000e+00 6.000000e-01 4.000000e-01 0.000000e+00 0.000000e+00 0.000000e+00 0.000000e+00 0.000000e+00 0.000000e+00
 0.000000e+00 0.000000e+00 0.000000e+00 6.000000e-01 4.000000e-01 0.000000e+00 0.000000e+00 0.000000e+00 0.000000e+00 0.000000e+00
 0.000000e+00 0.000000e+00 0.000000e+00 0.000000e+00 6.000000e-01 4.000000e-01 0.000000e+00 0.000000e+00 0.000000e+00 0.000000e+00
 0.000000e+00 0.000000e+00 0.000000e+00 0.000000e+00 0.000000e+00 6.000000e-01 4.000000e-01 0.000000e+00 0.000000e+00 0.000000e+00
 0.000000e+00 0.000000e+00 0.000000e+00 0.000000e+00 0.000000e+00 0.000000e+00 6.000000e-01 4.000000e-01 0.000000e+00 0.000000e+00
 0.000000e+00 0.000000e+00 0.000000e+00 0.000000e+00 0.000000e+00 0.000000e+00 0.000000e+00 6.000000e-01 4.000000e-01 0.000000e+00
 0.000000e+00 0.000000e+00 0.000000e+00 0.000000e+00 0.000000e+00 0.000000e+00 0.000000e+00 0.000000e+00 7.000000e-01 3.000000e-01
 0.000000e+00 0.000000e+00 0.000000e+00 0.000000e+00 0.000000e+00 0.000000e+00 0.000000e+00 0.000000e+00 0.000000e+00 0.000000e+00
<ENDHMM>
~o
<STREAMINFO> 1 32
<VECSIZE> 32<NULLD><FBANK_D><DIAGC>
~h "tri"
<BEGINHMM>
<NUMSTATES> 10
<STATE> 2
<MEAN> 32
 5.812275e+00 6.201571e+00 6.613722e+00 6.876745e+00 6.903144e+00 7.011796e+00 7.179854e+00 7.406693e+00 7.733568e+00 7.746812e+00 7.922665e+00 8.134038e+00 8.397487e+00 8.370876e+00 8.262036e+00 8.328363e+00 -2.701345e-04 -2.580403e-04 -3.277455e-04 -3.525282e-04 -1.368217e-04 -2.768867e-04 -2.210781e-04 -2.835550e-04 -1.692027e-04 -1.990935e-04 -2.599323e-04 -9.458613e-04 -1.313783e-03 -1.071932e-03 -5.194265e-04 -7.359973e-04
<VARIANCE> 32
 4.471016e-01 9.781075e-01 1.769806e+00 2.013378e+00 1.605759e+00 1.266392e+00 1.280827e+00 1.387146e+00 1.398335e+00 1.641472e+00 1.755539e+00 1.822769e+00 2.005455e+00 1.505188e+00 8.074799e-01 5.142136e-01 1.525198e-02 2.115775e-02 3.040326e-02 3.166568e-02 2.473171e-02 1.956654e-02 1.931165e-02 2.118436e-02 2.089082e-02 2.269821e-02 2.271687e-02 2.431213e-02 2.629785e-02 2.231619e-02 1.407042e-02 9.328106e-03
<GCONST> 8.058786e-01
<STATE> 3
<MEAN> 32
 5.812275e+00 6.201571e+00 6.613722e+00 6.876745e+00 6.903144e+00 7.011796e+00 7.179854e+00 7.406693e+00 7.733568e+00 7.746812e+00 7.922665e+00 8.134038e+00 8.397487e+00 8.370876e+00 8.262036e+00 8.328363e+00 -2.701345e-04 -2.580403e-04 -3.277455e-04 -3.525282e-04 -1.368217e-04 -2.768867e-04 -2.210781e-04 -2.835550e-04 -1.692027e-04 -1.990935e-04 -2.599323e-04 -9.458613e-04 -1.313783e-03 -1.071932e-03 -5.194265e-04 -7.359973e-04
<VARIANCE> 32
 4.471016e-01 9.781075e-01 1.769806e+00 2.013378e+00 1.605759e+00 1.266392e+00 1.280827e+00 1.387146e+00 1.398335e+00 1.641472e+00 1.755539e+00 1.822769e+00 2.005455e+00 1.505188e+00 8.074799e-01 5.142136e-01 1.525198e-02 2.115775e-02 3.040326e-02 3.166568e-02 2.473171e-02 1.956654e-02 1.931165e-02 2.118436e-02 2.089082e-02 2.269821e-02 2.271687e-02 2.431213e-02 2.629785e-02 2.231619e-02 1.407042e-02 9.328106e-03
<GCONST> 8.058786e-01
<STATE> 4
<MEAN> 32
 5.812275e+00 6.201571e+00 6.613722e+00 6.876745e+00 6.903144e+00 7.011796e+00 7.179854e+00 7.406693e+00 7.733568e+00 7.746812e+00 7.922665e+00 8.134038e+00 8.397487e+00 8.370876e+00 8.262036e+00 8.328363e+00 -2.701345e-04 -2.580403e-04 -3.277455e-04 -3.525282e-04 -1.368217e-04 -2.768867e-04 -2.210781e-04 -2.835550e-04 -1.692027e-04 -1.990935e-04 -2.599323e-04 -9.458613e-04 -1.313783e-03 -1.071932e-03 -5.194265e-04 -7.359973e-04
<VARIANCE> 32
 4.471016e-01 9.781075e-01 1.769806e+00 2.013378e+00 1.605759e+00 1.266392e+00 1.280827e+00 1.387146e+00 1.398335e+00 1.641472e+00 1.755539e+00 1.822769e+00 2.005455e+00 1.505188e+00 8.074799e-01 5.142136e-01 1.525198e-02 2.115775e-02 3.040326e-02 3.166568e-02 2.473171e-02 1.956654e-02 1.931165e-02 2.118436e-02 2.089082e-02 2.269821e-02 2.271687e-02 2.431213e-02 2.629785e-02 2.231619e-02 1.407042e-02 9.328106e-03
<GCONST> 8.058786e-01
<STATE> 5
<MEAN> 32
 5.812275e+00 6.201571e+00 6.613722e+00 6.876745e+00 6.903144e+00 7.011796e+00 7.179854e+00 7.406693e+00 7.733568e+00 7.746812e+00 7.922665e+00 8.134038e+00 8.397487e+00 8.370876e+00 8.262036e+00 8.328363e+00 -2.701345e-04 -2.580403e-04 -3.277455e-04 -3.525282e-04 -1.368217e-04 -2.768867e-04 -2.210781e-04 -2.835550e-04 -1.692027e-04 -1.990935e-04 -2.599323e-04 -9.458613e-04 -1.313783e-03 -1.071932e-03 -5.194265e-04 -7.359973e-04
<VARIANCE> 32
 4.471016e-01 9.781075e-01 1.769806e+00 2.013378e+00 1.605759e+00 1.266392e+00 1.280827e+00 1.387146e+00 1.398335e+00 1.641472e+00 1.755539e+00 1.822769e+00 2.005455e+00 1.505188e+00 8.074799e-01 5.142136e-01 1.525198e-02 2.115775e-02 3.040326e-02 3.166568e-02 2.473171e-02 1.956654e-02 1.931165e-02 2.118436e-02 2.089082e-02 2.269821e-02 2.271687e-02 2.431213e-02 2.629785e-02 2.231619e-02 1.407042e-02 9.328106e-03
<GCONST> 8.058786e-01
<STATE> 6
<MEAN> 32
 5.812275e+00 6.201571e+00 6.613722e+00 6.876745e+00 6.903144e+00 7.011796e+00 7.179854e+00 7.406693e+00 7.733568e+00 7.746812e+00 7.922665e+00 8.134038e+00 8.397487e+00 8.370876e+00 8.262036e+00 8.328363e+00 -2.701345e-04 -2.580403e-04 -3.277455e-04 -3.525282e-04 -1.368217e-04 -2.768867e-04 -2.210781e-04 -2.835550e-04 -1.692027e-04 -1.990935e-04 -2.599323e-04 -9.458613e-04 -1.313783e-03 -1.071932e-03 -5.194265e-04 -7.359973e-04
<VARIANCE> 32
 4.471016e-01 9.781075e-01 1.769806e+00 2.013378e+00 1.605759e+00 1.266392e+00 1.280827e+00 1.387146e+00 1.398335e+00 1.641472e+00 1.755539e+00 1.822769e+00 2.005455e+00 1.505188e+00 8.074799e-01 5.142136e-01 1.525198e-02 2.115775e-02 3.040326e-02 3.166568e-02 2.473171e-02 1.956654e-02 1.931165e-02 2.118436e-02 2.089082e-02 2.269821e-02 2.271687e-02 2.431213e-02 2.629785e-02 2.231619e-02 1.407042e-02 9.328106e-03
<GCONST> 8.058786e-01
<STATE> 7
<MEAN> 32
 5.812275e+00 6.201571e+00 6.613722e+00 6.876745e+00 6.903144e+00 7.011796e+00 7.179854e+00 7.406693e+00 7.733568e+00 7.746812e+00 7.922665e+00 8.134038e+00 8.397487e+00 8.370876e+00 8.262036e+00 8.328363e+00 -2.701345e-04 -2.580403e-04 -3.277455e-04 -3.525282e-04 -1.368217e-04 -2.768867e-04 -2.210781e-04 -2.835550e-04 -1.692027e-04 -1.990935e-04 -2.599323e-04 -9.458613e-04 -1.313783e-03 -1.071932e-03 -5.194265e-04 -7.359973e-04
<VARIANCE> 32
 4.471016e-01 9.781075e-01 1.769806e+00 2.013378e+00 1.605759e+00 1.266392e+00 1.280827e+00 1.387146e+00 1.398335e+00 1.641472e+00 1.755539e+00 1.822769e+00 2.005455e+00 1.505188e+00 8.074799e-01 5.142136e-01 1.525198e-02 2.115775e-02 3.040326e-02 3.166568e-02 2.473171e-02 1.956654e-02 1.931165e-02 2.118436e-02 2.089082e-02 2.269821e-02 2.271687e-02 2.431213e-02 2.629785e-02 2.231619e-02 1.407042e-02 9.328106e-03
<GCONST> 8.058786e-01
<STATE> 8
<MEAN> 32
 5.812275e+00 6.201571e+00 6.613722e+00 6.876745e+00 6.903144e+00 7.011796e+00 7.179854e+00 7.406693e+00 7.733568e+00 7.746812e+00 7.922665e+00 8.134038e+00 8.397487e+00 8.370876e+00 8.262036e+00 8.328363e+00 -2.701345e-04 -2.580403e-04 -3.277455e-04 -3.525282e-04 -1.368217e-04 -2.768867e-04 -2.210781e-04 -2.835550e-04 -1.692027e-04 -1.990935e-04 -2.599323e-04 -9.458613e-04 -1.313783e-03 -1.071932e-03 -5.194265e-04 -7.359973e-04
<VARIANCE> 32
 4.471016e-01 9.781075e-01 1.769806e+00 2.013378e+00 1.605759e+00 1.266392e+00 1.280827e+00 1.387146e+00 1.398335e+00 1.641472e+00 1.755539e+00 1.822769e+00 2.005455e+00 1.505188e+00 8.074799e-01 5.142136e-01 1.525198e-02 2.115775e-02 3.040326e-02 3.166568e-02 2.473171e-02 1.956654e-02 1.931165e-02 2.118436e-02 2.089082e-02 2.269821e-02 2.271687e-02 2.431213e-02 2.629785e-02 2.231619e-02 1.407042e-02 9.328106e-03
<GCONST> 8.058786e-01
<STATE> 9
<MEAN> 32
 5.812275e+00 6.201571e+00 6.613722e+00 6.876745e+00 6.903144e+00 7.011796e+00 7.179854e+00 7.406693e+00 7.733568e+00 7.746812e+00 7.922665e+00 8.134038e+00 8.397487e+00 8.370876e+00 8.262036e+00 8.328363e+00 -2.701345e-04 -2.580403e-04 -3.277455e-04 -3.525282e-04 -1.368217e-04 -2.768867e-04 -2.210781e-04 -2.835550e-04 -1.692027e-04 -1.990935e-04 -2.599323e-04 -9.458613e-04 -1.313783e-03 -1.071932e-03 -5.194265e-04 -7.359973e-04
<VARIANCE> 32
 4.471016e-01 9.781075e-01 1.769806e+00 2.013378e+00 1.605759e+00 1.266392e+00 1.280827e+00 1.387146e+00 1.398335e+00 1.641472e+00 1.755539e+00 1.822769e+00 2.005455e+00 1.505188e+00 8.074799e-01 5.142136e-01 1.525198e-02 2.115775e-02 3.040326e-02 3.166568e-02 2.473171e-02 1.956654e-02 1.931165e-02 2.118436e-02 2.089082e-02 2.269821e-02 2.271687e-02 2.431213e-02 2.629785e-02 2.231619e-02 1.407042e-02 9.328106e-03
<GCONST> 8.058786e-01
<TRANSP> 10
 0.000000e+00 1.000000e+00 0.000000e+00 0.000000e+00 0.000000e+00 0.000000e+00 0.000000e+00 0.000000e+00 0.000000e+00 0.000000e+00
 0.000000e+00 6.000000e-01 4.000000e-01 0.000000e+00 0.000000e+00 0.000000e+00 0.000000e+00 0.000000e+00 0.000000e+00 0.000000e+00
 0.000000e+00 0.000000e+00 6.000000e-01 4.000000e-01 0.000000e+00 0.000000e+00 0.000000e+00 0.000000e+00 0.000000e+00 0.000000e+00
 0.000000e+00 0.000000e+00 0.000000e+00 6.000000e-01 4.000000e-01 0.000000e+00 0.000000e+00 0.000000e+00 0.000000e+00 0.000000e+00
 0.000000e+00 0.000000e+00 0.000000e+00 0.000000e+00 6.000000e-01 4.000000e-01 0.000000e+00 0.000000e+00 0.000000e+00 0.000000e+00
 0.000000e+00 0.000000e+00 0.000000e+00 0.000000e+00 0.000000e+00 6.000000e-01 4.000000e-01 0.000000e+00 0.000000e+00 0.000000e+00
 0.000000e+00 0.000000e+00 0.000000e+00 0.000000e+00 0.000000e+00 0.000000e+00 6.000000e-01 4.000000e-01 0.000000e+00 0.000000e+00
 0.000000e+00 0.000000e+00 0.000000e+00 0.000000e+00 0.000000e+00 0.000000e+00 0.000000e+00 6.000000e-01 4.000000e-01 0.000000e+00
 0.000000e+00 0.000000e+00 0.000000e+00 0.000000e+00 0.000000e+00 0.000000e+00 0.000000e+00 0.000000e+00 7.000000e-01 3.000000e-01
 0.000000e+00 0.000000e+00 0.000000e+00 0.000000e+00 0.000000e+00 0.000000e+00 0.000000e+00 0.000000e+00 0.000000e+00 0.000000e+00
<ENDHMM>
~o
<STREAMINFO> 1 32
<VECSIZE> 32<NULLD><FBANK_D><DIAGC>
~h "ctyri"
<BEGINHMM>
<NUMSTATES> 10
<STATE> 2
<MEAN> 32
 5.812275e+00 6.201571e+00 6.613722e+00 6.876745e+00 6.903144e+00 7.011796e+00 7.179854e+00 7.406693e+00 7.733568e+00 7.746812e+00 7.922665e+00 8.134038e+00 8.397487e+00 8.370876e+00 8.262036e+00 8.328363e+00 -2.701345e-04 -2.580403e-04 -3.277455e-04 -3.525282e-04 -1.368217e-04 -2.768867e-04 -2.210781e-04 -2.835550e-04 -1.692027e-04 -1.990935e-04 -2.599323e-04 -9.458613e-04 -1.313783e-03 -1.071932e-03 -5.194265e-04 -7.359973e-04
<VARIANCE> 32
 4.471016e-01 9.781075e-01 1.769806e+00 2.013378e+00 1.605759e+00 1.266392e+00 1.280827e+00 1.387146e+00 1.398335e+00 1.641472e+00 1.755539e+00 1.822769e+00 2.005455e+00 1.505188e+00 8.074799e-01 5.142136e-01 1.525198e-02 2.115775e-02 3.040326e-02 3.166568e-02 2.473171e-02 1.956654e-02 1.931165e-02 2.118436e-02 2.089082e-02 2.269821e-02 2.271687e-02 2.431213e-02 2.629785e-02 2.231619e-02 1.407042e-02 9.328106e-03
<GCONST> 8.058786e-01
<STATE> 3
<MEAN> 32
 5.812275e+00 6.201571e+00 6.613722e+00 6.876745e+00 6.903144e+00 7.011796e+00 7.179854e+00 7.406693e+00 7.733568e+00 7.746812e+00 7.922665e+00 8.134038e+00 8.397487e+00 8.370876e+00 8.262036e+00 8.328363e+00 -2.701345e-04 -2.580403e-04 -3.277455e-04 -3.525282e-04 -1.368217e-04 -2.768867e-04 -2.210781e-04 -2.835550e-04 -1.692027e-04 -1.990935e-04 -2.599323e-04 -9.458613e-04 -1.313783e-03 -1.071932e-03 -5.194265e-04 -7.359973e-04
<VARIANCE> 32
 4.471016e-01 9.781075e-01 1.769806e+00 2.013378e+00 1.605759e+00 1.266392e+00 1.280827e+00 1.387146e+00 1.398335e+00 1.641472e+00 1.755539e+00 1.822769e+00 2.005455e+00 1.505188e+00 8.074799e-01 5.142136e-01 1.525198e-02 2.115775e-02 3.040326e-02 3.166568e-02 2.473171e-02 1.956654e-02 1.931165e-02 2.118436e-02 2.089082e-02 2.269821e-02 2.271687e-02 2.431213e-02 2.629785e-02 2.231619e-02 1.407042e-02 9.328106e-03
<GCONST> 8.058786e-01
<STATE> 4
<MEAN> 32
 5.812275e+00 6.201571e+00 6.613722e+00 6.876745e+00 6.903144e+00 7.011796e+00 7.179854e+00 7.406693e+00 7.733568e+00 7.746812e+00 7.922665e+00 8.134038e+00 8.397487e+00 8.370876e+00 8.262036e+00 8.328363e+00 -2.701345e-04 -2.580403e-04 -3.277455e-04 -3.525282e-04 -1.368217e-04 -2.768867e-04 -2.210781e-04 -2.835550e-04 -1.692027e-04 -1.990935e-04 -2.599323e-04 -9.458613e-04 -1.313783e-03 -1.071932e-03 -5.194265e-04 -7.359973e-04
<VARIANCE> 32
 4.471016e-01 9.781075e-01 1.769806e+00 2.013378e+00 1.605759e+00 1.266392e+00 1.280827e+00 1.387146e+00 1.398335e+00 1.641472e+00 1.755539e+00 1.822769e+00 2.005455e+00 1.505188e+00 8.074799e-01 5.142136e-01 1.525198e-02 2.115775e-02 3.040326e-02 3.166568e-02 2.473171e-02 1.956654e-02 1.931165e-02 2.118436e-02 2.089082e-02 2.269821e-02 2.271687e-02 2.431213e-02 2.629785e-02 2.231619e-02 1.407042e-02 9.328106e-03
<GCONST> 8.058786e-01
<STATE> 5
<MEAN> 32
 5.812275e+00 6.201571e+00 6.613722e+00 6.876745e+00 6.903144e+00 7.011796e+00 7.179854e+00 7.406693e+00 7.733568e+00 7.746812e+00 7.922665e+00 8.134038e+00 8.397487e+00 8.370876e+00 8.262036e+00 8.328363e+00 -2.701345e-04 -2.580403e-04 -3.277455e-04 -3.525282e-04 -1.368217e-04 -2.768867e-04 -2.210781e-04 -2.835550e-04 -1.692027e-04 -1.990935e-04 -2.599323e-04 -9.458613e-04 -1.313783e-03 -1.071932e-03 -5.194265e-04 -7.359973e-04
<VARIANCE> 32
 4.471016e-01 9.781075e-01 1.769806e+00 2.013378e+00 1.605759e+00 1.266392e+00 1.280827e+00 1.387146e+00 1.398335e+00 1.641472e+00 1.755539e+00 1.822769e+00 2.005455e+00 1.505188e+00 8.074799e-01 5.142136e-01 1.525198e-02 2.115775e-02 3.040326e-02 3.166568e-02 2.473171e-02 1.956654e-02 1.931165e-02 2.118436e-02 2.089082e-02 2.269821e-02 2.271687e-02 2.431213e-02 2.629785e-02 2.231619e-02 1.407042e-02 9.328106e-03
<GCONST> 8.058786e-01
<STATE> 6
<MEAN> 32
 5.812275e+00 6.201571e+00 6.613722e+00 6.876745e+00 6.903144e+00 7.011796e+00 7.179854e+00 7.406693e+00 7.733568e+00 7.746812e+00 7.922665e+00 8.134038e+00 8.397487e+00 8.370876e+00 8.262036e+00 8.328363e+00 -2.701345e-04 -2.580403e-04 -3.277455e-04 -3.525282e-04 -1.368217e-04 -2.768867e-04 -2.210781e-04 -2.835550e-04 -1.692027e-04 -1.990935e-04 -2.599323e-04 -9.458613e-04 -1.313783e-03 -1.071932e-03 -5.194265e-04 -7.359973e-04
<VARIANCE> 32
 4.471016e-01 9.781075e-01 1.769806e+00 2.013378e+00 1.605759e+00 1.266392e+00 1.280827e+00 1.387146e+00 1.398335e+00 1.641472e+00 1.755539e+00 1.822769e+00 2.005455e+00 1.505188e+00 8.074799e-01 5.142136e-01 1.525198e-02 2.115775e-02 3.040326e-02 3.166568e-02 2.473171e-02 1.956654e-02 1.931165e-02 2.118436e-02 2.089082e-02 2.269821e-02 2.271687e-02 2.431213e-02 2.629785e-02 2.231619e-02 1.407042e-02 9.328106e-03
<GCONST> 8.058786e-01
<STATE> 7
<MEAN> 32
 5.812275e+00 6.201571e+00 6.613722e+00 6.876745e+00 6.903144e+00 7.011796e+00 7.179854e+00 7.406693e+00 7.733568e+00 7.746812e+00 7.922665e+00 8.134038e+00 8.397487e+00 8.370876e+00 8.262036e+00 8.328363e+00 -2.701345e-04 -2.580403e-04 -3.277455e-04 -3.525282e-04 -1.368217e-04 -2.768867e-04 -2.210781e-04 -2.835550e-04 -1.692027e-04 -1.990935e-04 -2.599323e-04 -9.458613e-04 -1.313783e-03 -1.071932e-03 -5.194265e-04 -7.359973e-04
<VARIANCE> 32
 4.471016e-01 9.781075e-01 1.769806e+00 2.013378e+00 1.605759e+00 1.266392e+00 1.280827e+00 1.387146e+00 1.398335e+00 1.641472e+00 1.755539e+00 1.822769e+00 2.005455e+00 1.505188e+00 8.074799e-01 5.142136e-01 1.525198e-02 2.115775e-02 3.040326e-02 3.166568e-02 2.473171e-02 1.956654e-02 1.931165e-02 2.118436e-02 2.089082e-02 2.269821e-02 2.271687e-02 2.431213e-02 2.629785e-02 2.231619e-02 1.407042e-02 9.328106e-03
<GCONST> 8.058786e-01
<STATE> 8
<MEAN> 32
 5.812275e+00 6.201571e+00 6.613722e+00 6.876745e+00 6.903144e+00 7.011796e+00 7.179854e+00 7.406693e+00 7.733568e+00 7.746812e+00 7.922665e+00 8.134038e+00 8.397487e+00 8.370876e+00 8.262036e+00 8.328363e+00 -2.701345e-04 -2.580403e-04 -3.277455e-04 -3.525282e-04 -1.368217e-04 -2.768867e-04 -2.210781e-04 -2.835550e-04 -1.692027e-04 -1.990935e-04 -2.599323e-04 -9.458613e-04 -1.313783e-03 -1.071932e-03 -5.194265e-04 -7.359973e-04
<VARIANCE> 32
 4.471016e-01 9.781075e-01 1.769806e+00 2.013378e+00 1.605759e+00 1.266392e+00 1.280827e+00 1.387146e+00 1.398335e+00 1.641472e+00 1.755539e+00 1.822769e+00 2.005455e+00 1.505188e+00 8.074799e-01 5.142136e-01 1.525198e-02 2.115775e-02 3.040326e-02 3.166568e-02 2.473171e-02 1.956654e-02 1.931165e-02 2.118436e-02 2.089082e-02 2.269821e-02 2.271687e-02 2.431213e-02 2.629785e-02 2.231619e-02 1.407042e-02 9.328106e-03
<GCONST> 8.058786e-01
<STATE> 9
<MEAN> 32
 5.812275e+00 6.201571e+00 6.613722e+00 6.876745e+00 6.903144e+00 7.011796e+00 7.179854e+00 7.406693e+00 7.733568e+00 7.746812e+00 7.922665e+00 8.134038e+00 8.397487e+00 8.370876e+00 8.262036e+00 8.328363e+00 -2.701345e-04 -2.580403e-04 -3.277455e-04 -3.525282e-04 -1.368217e-04 -2.768867e-04 -2.210781e-04 -2.835550e-04 -1.692027e-04 -1.990935e-04 -2.599323e-04 -9.458613e-04 -1.313783e-03 -1.071932e-03 -5.194265e-04 -7.359973e-04
<VARIANCE> 32
 4.471016e-01 9.781075e-01 1.769806e+00 2.013378e+00 1.605759e+00 1.266392e+00 1.280827e+00 1.387146e+00 1.398335e+00 1.641472e+00 1.755539e+00 1.822769e+00 2.005455e+00 1.505188e+00 8.074799e-01 5.142136e-01 1.525198e-02 2.115775e-02 3.040326e-02 3.166568e-02 2.473171e-02 1.956654e-02 1.931165e-02 2.118436e-02 2.089082e-02 2.269821e-02 2.271687e-02 2.431213e-02 2.629785e-02 2.231619e-02 1.407042e-02 9.328106e-03
<GCONST> 8.058786e-01
<TRANSP> 10
 0.000000e+00 1.000000e+00 0.000000e+00 0.000000e+00 0.000000e+00 0.000000e+00 0.000000e+00 0.000000e+00 0.000000e+00 0.000000e+00
 0.000000e+00 6.000000e-01 4.000000e-01 0.000000e+00 0.000000e+00 0.000000e+00 0.000000e+00 0.000000e+00 0.000000e+00 0.000000e+00
 0.000000e+00 0.000000e+00 6.000000e-01 4.000000e-01 0.000000e+00 0.000000e+00 0.000000e+00 0.000000e+00 0.000000e+00 0.000000e+00
 0.000000e+00 0.000000e+00 0.000000e+00 6.000000e-01 4.000000e-01 0.000000e+00 0.000000e+00 0.000000e+00 0.000000e+00 0.000000e+00
 0.000000e+00 0.000000e+00 0.000000e+00 0.000000e+00 6.000000e-01 4.000000e-01 0.000000e+00 0.000000e+00 0.000000e+00 0.000000e+00
 0.000000e+00 0.000000e+00 0.000000e+00 0.000000e+00 0.000000e+00 6.000000e-01 4.000000e-01 0.000000e+00 0.000000e+00 0.000000e+00
 0.000000e+00 0.000000e+00 0.000000e+00 0.000000e+00 0.000000e+00 0.000000e+00 6.000000e-01 4.000000e-01 0.000000e+00 0.000000e+00
 0.000000e+00 0.000000e+00 0.000000e+00 0.000000e+00 0.000000e+00 0.000000e+00 0.000000e+00 6.000000e-01 4.000000e-01 0.000000e+00
 0.000000e+00 0.000000e+00 0.000000e+00 0.000000e+00 0.000000e+00 0.000000e+00 0.000000e+00 0.000000e+00 7.000000e-01 3.000000e-01
 0.000000e+00 0.000000e+00 0.000000e+00 0.000000e+00 0.000000e+00 0.000000e+00 0.000000e+00 0.000000e+00 0.000000e+00 0.000000e+00
<ENDHMM>
~o
<STREAMINFO> 1 32
<VECSIZE> 32<NULLD><FBANK_D><DIAGC>
~h "pet"
<BEGINHMM>
<NUMSTATES> 10
<STATE> 2
<MEAN> 32
 5.812275e+00 6.201571e+00 6.613722e+00 6.876745e+00 6.903144e+00 7.011796e+00 7.179854e+00 7.406693e+00 7.733568e+00 7.746812e+00 7.922665e+00 8.134038e+00 8.397487e+00 8.370876e+00 8.262036e+00 8.328363e+00 -2.701345e-04 -2.580403e-04 -3.277455e-04 -3.525282e-04 -1.368217e-04 -2.768867e-04 -2.210781e-04 -2.835550e-04 -1.692027e-04 -1.990935e-04 -2.599323e-04 -9.458613e-04 -1.313783e-03 -1.071932e-03 -5.194265e-04 -7.359973e-04
<VARIANCE> 32
 4.471016e-01 9.781075e-01 1.769806e+00 2.013378e+00 1.605759e+00 1.266392e+00 1.280827e+00 1.387146e+00 1.398335e+00 1.641472e+00 1.755539e+00 1.822769e+00 2.005455e+00 1.505188e+00 8.074799e-01 5.142136e-01 1.525198e-02 2.115775e-02 3.040326e-02 3.166568e-02 2.473171e-02 1.956654e-02 1.931165e-02 2.118436e-02 2.089082e-02 2.269821e-02 2.271687e-02 2.431213e-02 2.629785e-02 2.231619e-02 1.407042e-02 9.328106e-03
<GCONST> 8.058786e-01
<STATE> 3
<MEAN> 32
 5.812275e+00 6.201571e+00 6.613722e+00 6.876745e+00 6.903144e+00 7.011796e+00 7.179854e+00 7.406693e+00 7.733568e+00 7.746812e+00 7.922665e+00 8.134038e+00 8.397487e+00 8.370876e+00 8.262036e+00 8.328363e+00 -2.701345e-04 -2.580403e-04 -3.277455e-04 -3.525282e-04 -1.368217e-04 -2.768867e-04 -2.210781e-04 -2.835550e-04 -1.692027e-04 -1.990935e-04 -2.599323e-04 -9.458613e-04 -1.313783e-03 -1.071932e-03 -5.194265e-04 -7.359973e-04
<VARIANCE> 32
 4.471016e-01 9.781075e-01 1.769806e+00 2.013378e+00 1.605759e+00 1.266392e+00 1.280827e+00 1.387146e+00 1.398335e+00 1.641472e+00 1.755539e+00 1.822769e+00 2.005455e+00 1.505188e+00 8.074799e-01 5.142136e-01 1.525198e-02 2.115775e-02 3.040326e-02 3.166568e-02 2.473171e-02 1.956654e-02 1.931165e-02 2.118436e-02 2.089082e-02 2.269821e-02 2.271687e-02 2.431213e-02 2.629785e-02 2.231619e-02 1.407042e-02 9.328106e-03
<GCONST> 8.058786e-01
<STATE> 4
<MEAN> 32
 5.812275e+00 6.201571e+00 6.613722e+00 6.876745e+00 6.903144e+00 7.011796e+00 7.179854e+00 7.406693e+00 7.733568e+00 7.746812e+00 7.922665e+00 8.134038e+00 8.397487e+00 8.370876e+00 8.262036e+00 8.328363e+00 -2.701345e-04 -2.580403e-04 -3.277455e-04 -3.525282e-04 -1.368217e-04 -2.768867e-04 -2.210781e-04 -2.835550e-04 -1.692027e-04 -1.990935e-04 -2.599323e-04 -9.458613e-04 -1.313783e-03 -1.071932e-03 -5.194265e-04 -7.359973e-04
<VARIANCE> 32
 4.471016e-01 9.781075e-01 1.769806e+00 2.013378e+00 1.605759e+00 1.266392e+00 1.280827e+00 1.387146e+00 1.398335e+00 1.641472e+00 1.755539e+00 1.822769e+00 2.005455e+00 1.505188e+00 8.074799e-01 5.142136e-01 1.525198e-02 2.115775e-02 3.040326e-02 3.166568e-02 2.473171e-02 1.956654e-02 1.931165e-02 2.118436e-02 2.089082e-02 2.269821e-02 2.271687e-02 2.431213e-02 2.629785e-02 2.231619e-02 1.407042e-02 9.328106e-03
<GCONST> 8.058786e-01
<STATE> 5
<MEAN> 32
 5.812275e+00 6.201571e+00 6.613722e+00 6.876745e+00 6.903144e+00 7.011796e+00 7.179854e+00 7.406693e+00 7.733568e+00 7.746812e+00 7.922665e+00 8.134038e+00 8.397487e+00 8.370876e+00 8.262036e+00 8.328363e+00 -2.701345e-04 -2.580403e-04 -3.277455e-04 -3.525282e-04 -1.368217e-04 -2.768867e-04 -2.210781e-04 -2.835550e-04 -1.692027e-04 -1.990935e-04 -2.599323e-04 -9.458613e-04 -1.313783e-03 -1.071932e-03 -5.194265e-04 -7.359973e-04
<VARIANCE> 32
 4.471016e-01 9.781075e-01 1.769806e+00 2.013378e+00 1.605759e+00 1.266392e+00 1.280827e+00 1.387146e+00 1.398335e+00 1.641472e+00 1.755539e+00 1.822769e+00 2.005455e+00 1.505188e+00 8.074799e-01 5.142136e-01 1.525198e-02 2.115775e-02 3.040326e-02 3.166568e-02 2.473171e-02 1.956654e-02 1.931165e-02 2.118436e-02 2.089082e-02 2.269821e-02 2.271687e-02 2.431213e-02 2.629785e-02 2.231619e-02 1.407042e-02 9.328106e-03
<GCONST> 8.058786e-01
<STATE> 6
<MEAN> 32
 5.812275e+00 6.201571e+00 6.613722e+00 6.876745e+00 6.903144e+00 7.011796e+00 7.179854e+00 7.406693e+00 7.733568e+00 7.746812e+00 7.922665e+00 8.134038e+00 8.397487e+00 8.370876e+00 8.262036e+00 8.328363e+00 -2.701345e-04 -2.580403e-04 -3.277455e-04 -3.525282e-04 -1.368217e-04 -2.768867e-04 -2.210781e-04 -2.835550e-04 -1.692027e-04 -1.990935e-04 -2.599323e-04 -9.458613e-04 -1.313783e-03 -1.071932e-03 -5.194265e-04 -7.359973e-04
<VARIANCE> 32
 4.471016e-01 9.781075e-01 1.769806e+00 2.013378e+00 1.605759e+00 1.266392e+00 1.280827e+00 1.387146e+00 1.398335e+00 1.641472e+00 1.755539e+00 1.822769e+00 2.005455e+00 1.505188e+00 8.074799e-01 5.142136e-01 1.525198e-02 2.115775e-02 3.040326e-02 3.166568e-02 2.473171e-02 1.956654e-02 1.931165e-02 2.118436e-02 2.089082e-02 2.269821e-02 2.271687e-02 2.431213e-02 2.629785e-02 2.231619e-02 1.407042e-02 9.328106e-03
<GCONST> 8.058786e-01
<STATE> 7
<MEAN> 32
 5.812275e+00 6.201571e+00 6.613722e+00 6.876745e+00 6.903144e+00 7.011796e+00 7.179854e+00 7.406693e+00 7.733568e+00 7.746812e+00 7.922665e+00 8.134038e+00 8.397487e+00 8.370876e+00 8.262036e+00 8.328363e+00 -2.701345e-04 -2.580403e-04 -3.277455e-04 -3.525282e-04 -1.368217e-04 -2.768867e-04 -2.210781e-04 -2.835550e-04 -1.692027e-04 -1.990935e-04 -2.599323e-04 -9.458613e-04 -1.313783e-03 -1.071932e-03 -5.194265e-04 -7.359973e-04
<VARIANCE> 32
 4.471016e-01 9.781075e-01 1.769806e+00 2.013378e+00 1.605759e+00 1.266392e+00 1.280827e+00 1.387146e+00 1.398335e+00 1.641472e+00 1.755539e+00 1.822769e+00 2.005455e+00 1.505188e+00 8.074799e-01 5.142136e-01 1.525198e-02 2.115775e-02 3.040326e-02 3.166568e-02 2.473171e-02 1.956654e-02 1.931165e-02 2.118436e-02 2.089082e-02 2.269821e-02 2.271687e-02 2.431213e-02 2.629785e-02 2.231619e-02 1.407042e-02 9.328106e-03
<GCONST> 8.058786e-01
<STATE> 8
<MEAN> 32
 5.812275e+00 6.201571e+00 6.613722e+00 6.876745e+00 6.903144e+00 7.011796e+00 7.179854e+00 7.406693e+00 7.733568e+00 7.746812e+00 7.922665e+00 8.134038e+00 8.397487e+00 8.370876e+00 8.262036e+00 8.328363e+00 -2.701345e-04 -2.580403e-04 -3.277455e-04 -3.525282e-04 -1.368217e-04 -2.768867e-04 -2.210781e-04 -2.835550e-04 -1.692027e-04 -1.990935e-04 -2.599323e-04 -9.458613e-04 -1.313783e-03 -1.071932e-03 -5.194265e-04 -7.359973e-04
<VARIANCE> 32
 4.471016e-01 9.781075e-01 1.769806e+00 2.013378e+00 1.605759e+00 1.266392e+00 1.280827e+00 1.387146e+00 1.398335e+00 1.641472e+00 1.755539e+00 1.822769e+00 2.005455e+00 1.505188e+00 8.074799e-01 5.142136e-01 1.525198e-02 2.115775e-02 3.040326e-02 3.166568e-02 2.473171e-02 1.956654e-02 1.931165e-02 2.118436e-02 2.089082e-02 2.269821e-02 2.271687e-02 2.431213e-02 2.629785e-02 2.231619e-02 1.407042e-02 9.328106e-03
<GCONST> 8.058786e-01
<STATE> 9
<MEAN> 32
 5.812275e+00 6.201571e+00 6.613722e+00 6.876745e+00 6.903144e+00 7.011796e+00 7.179854e+00 7.406693e+00 7.733568e+00 7.746812e+00 7.922665e+00 8.134038e+00 8.397487e+00 8.370876e+00 8.262036e+00 8.328363e+00 -2.701345e-04 -2.580403e-04 -3.277455e-04 -3.525282e-04 -1.368217e-04 -2.768867e-04 -2.210781e-04 -2.835550e-04 -1.692027e-04 -1.990935e-04 -2.599323e-04 -9.458613e-04 -1.313783e-03 -1.071932e-03 -5.194265e-04 -7.359973e-04
<VARIANCE> 32
 4.471016e-01 9.781075e-01 1.769806e+00 2.013378e+00 1.605759e+00 1.266392e+00 1.280827e+00 1.387146e+00 1.398335e+00 1.641472e+00 1.755539e+00 1.822769e+00 2.005455e+00 1.505188e+00 8.074799e-01 5.142136e-01 1.525198e-02 2.115775e-02 3.040326e-02 3.166568e-02 2.473171e-02 1.956654e-02 1.931165e-02 2.118436e-02 2.089082e-02 2.269821e-02 2.271687e-02 2.431213e-02 2.629785e-02 2.231619e-02 1.407042e-02 9.328106e-03
<GCONST> 8.058786e-01
<TRANSP> 10
 0.000000e+00 1.000000e+00 0.000000e+00 0.000000e+00 0.000000e+00 0.000000e+00 0.000000e+00 0.000000e+00 0.000000e+00 0.000000e+00
 0.000000e+00 6.000000e-01 4.000000e-01 0.000000e+00 0.000000e+00 0.000000e+00 0.000000e+00 0.000000e+00 0.000000e+00 0.000000e+00
 0.000000e+00 0.000000e+00 6.000000e-01 4.000000e-01 0.000000e+00 0.000000e+00 0.000000e+00 0.000000e+00 0.000000e+00 0.000000e+00
 0.000000e+00 0.000000e+00 0.000000e+00 6.000000e-01 4.000000e-01 0.000000e+00 0.000000e+00 0.000000e+00 0.000000e+00 0.000000e+00
 0.000000e+00 0.000000e+00 0.000000e+00 0.000000e+00 6.000000e-01 4.000000e-01 0.000000e+00 0.000000e+00 0.000000e+00 0.000000e+00
 0.000000e+00 0.000000e+00 0.000000e+00 0.000000e+00 0.000000e+00 6.000000e-01 4.000000e-01 0.000000e+00 0.000000e+00 0.000000e+00
 0.000000e+00 0.000000e+00 0.000000e+00 0.000000e+00 0.000000e+00 0.000000e+00 6.000000e-01 4.000000e-01 0.000000e+00 0.000000e+00
 0.000000e+00 0.000000e+00 0.000000e+00 0.000000e+00 0.000000e+00 0.000000e+00 0.000000e+00 6.000000e-01 4.000000e-01 0.000000e+00
 0.000000e+00 0.000000e+00 0.000000e+00 0.000000e+00 0.000000e+00 0.000000e+00 0.000000e+00 0.000000e+00 7.000000e-01 3.000000e-01
 0.000000e+00 0.000000e+00 0.000000e+00 0.000000e+00 0.000000e+00 0.000000e+00 0.000000e+00 0.000000e+00 0.000000e+00 0.000000e+00
<ENDHMM>
~o
<STREAMINFO> 1 32
<VECSIZE> 32<NULLD><FBANK_D><DIAGC>
~h "sest"
<BEGINHMM>
<NUMSTATES> 10
<STATE> 2
<MEAN> 32
 5.812275e+00 6.201571e+00 6.613722e+00 6.876745e+00 6.903144e+00 7.011796e+00 7.179854e+00 7.406693e+00 7.733568e+00 7.746812e+00 7.922665e+00 8.134038e+00 8.397487e+00 8.370876e+00 8.262036e+00 8.328363e+00 -2.701345e-04 -2.580403e-04 -3.277455e-04 -3.525282e-04 -1.368217e-04 -2.768867e-04 -2.210781e-04 -2.835550e-04 -1.692027e-04 -1.990935e-04 -2.599323e-04 -9.458613e-04 -1.313783e-03 -1.071932e-03 -5.194265e-04 -7.359973e-04
<VARIANCE> 32
 4.471016e-01 9.781075e-01 1.769806e+00 2.013378e+00 1.605759e+00 1.266392e+00 1.280827e+00 1.387146e+00 1.398335e+00 1.641472e+00 1.755539e+00 1.822769e+00 2.005455e+00 1.505188e+00 8.074799e-01 5.142136e-01 1.525198e-02 2.115775e-02 3.040326e-02 3.166568e-02 2.473171e-02 1.956654e-02 1.931165e-02 2.118436e-02 2.089082e-02 2.269821e-02 2.271687e-02 2.431213e-02 2.629785e-02 2.231619e-02 1.407042e-02 9.328106e-03
<GCONST> 8.058786e-01
<STATE> 3
<MEAN> 32
 5.812275e+00 6.201571e+00 6.613722e+00 6.876745e+00 6.903144e+00 7.011796e+00 7.179854e+00 7.406693e+00 7.733568e+00 7.746812e+00 7.922665e+00 8.134038e+00 8.397487e+00 8.370876e+00 8.262036e+00 8.328363e+00 -2.701345e-04 -2.580403e-04 -3.277455e-04 -3.525282e-04 -1.368217e-04 -2.768867e-04 -2.210781e-04 -2.835550e-04 -1.692027e-04 -1.990935e-04 -2.599323e-04 -9.458613e-04 -1.313783e-03 -1.071932e-03 -5.194265e-04 -7.359973e-04
<VARIANCE> 32
 4.471016e-01 9.781075e-01 1.769806e+00 2.013378e+00 1.605759e+00 1.266392e+00 1.280827e+00 1.387146e+00 1.398335e+00 1.641472e+00 1.755539e+00 1.822769e+00 2.005455e+00 1.505188e+00 8.074799e-01 5.142136e-01 1.525198e-02 2.115775e-02 3.040326e-02 3.166568e-02 2.473171e-02 1.956654e-02 1.931165e-02 2.118436e-02 2.089082e-02 2.269821e-02 2.271687e-02 2.431213e-02 2.629785e-02 2.231619e-02 1.407042e-02 9.328106e-03
<GCONST> 8.058786e-01
<STATE> 4
<MEAN> 32
 5.812275e+00 6.201571e+00 6.613722e+00 6.876745e+00 6.903144e+00 7.011796e+00 7.179854e+00 7.406693e+00 7.733568e+00 7.746812e+00 7.922665e+00 8.134038e+00 8.397487e+00 8.370876e+00 8.262036e+00 8.328363e+00 -2.701345e-04 -2.580403e-04 -3.277455e-04 -3.525282e-04 -1.368217e-04 -2.768867e-04 -2.210781e-04 -2.835550e-04 -1.692027e-04 -1.990935e-04 -2.599323e-04 -9.458613e-04 -1.313783e-03 -1.071932e-03 -5.194265e-04 -7.359973e-04
<VARIANCE> 32
 4.471016e-01 9.781075e-01 1.769806e+00 2.013378e+00 1.605759e+00 1.266392e+00 1.280827e+00 1.387146e+00 1.398335e+00 1.641472e+00 1.755539e+00 1.822769e+00 2.005455e+00 1.505188e+00 8.074799e-01 5.142136e-01 1.525198e-02 2.115775e-02 3.040326e-02 3.166568e-02 2.473171e-02 1.956654e-02 1.931165e-02 2.118436e-02 2.089082e-02 2.269821e-02 2.271687e-02 2.431213e-02 2.629785e-02 2.231619e-02 1.407042e-02 9.328106e-03
<GCONST> 8.058786e-01
<STATE> 5
<MEAN> 32
 5.812275e+00 6.201571e+00 6.613722e+00 6.876745e+00 6.903144e+00 7.011796e+00 7.179854e+00 7.406693e+00 7.733568e+00 7.746812e+00 7.922665e+00 8.134038e+00 8.397487e+00 8.370876e+00 8.262036e+00 8.328363e+00 -2.701345e-04 -2.580403e-04 -3.277455e-04 -3.525282e-04 -1.368217e-04 -2.768867e-04 -2.210781e-04 -2.835550e-04 -1.692027e-04 -1.990935e-04 -2.599323e-04 -9.458613e-04 -1.313783e-03 -1.071932e-03 -5.194265e-04 -7.359973e-04
<VARIANCE> 32
 4.471016e-01 9.781075e-01 1.769806e+00 2.013378e+00 1.605759e+00 1.266392e+00 1.280827e+00 1.387146e+00 1.398335e+00 1.641472e+00 1.755539e+00 1.822769e+00 2.005455e+00 1.505188e+00 8.074799e-01 5.142136e-01 1.525198e-02 2.115775e-02 3.040326e-02 3.166568e-02 2.473171e-02 1.956654e-02 1.931165e-02 2.118436e-02 2.089082e-02 2.269821e-02 2.271687e-02 2.431213e-02 2.629785e-02 2.231619e-02 1.407042e-02 9.328106e-03
<GCONST> 8.058786e-01
<STATE> 6
<MEAN> 32
 5.812275e+00 6.201571e+00 6.613722e+00 6.876745e+00 6.903144e+00 7.011796e+00 7.179854e+00 7.406693e+00 7.733568e+00 7.746812e+00 7.922665e+00 8.134038e+00 8.397487e+00 8.370876e+00 8.262036e+00 8.328363e+00 -2.701345e-04 -2.580403e-04 -3.277455e-04 -3.525282e-04 -1.368217e-04 -2.768867e-04 -2.210781e-04 -2.835550e-04 -1.692027e-04 -1.990935e-04 -2.599323e-04 -9.458613e-04 -1.313783e-03 -1.071932e-03 -5.194265e-04 -7.359973e-04
<VARIANCE> 32
 4.471016e-01 9.781075e-01 1.769806e+00 2.013378e+00 1.605759e+00 1.266392e+00 1.280827e+00 1.387146e+00 1.398335e+00 1.641472e+00 1.755539e+00 1.822769e+00 2.005455e+00 1.505188e+00 8.074799e-01 5.142136e-01 1.525198e-02 2.115775e-02 3.040326e-02 3.166568e-02 2.473171e-02 1.956654e-02 1.931165e-02 2.118436e-02 2.089082e-02 2.269821e-02 2.271687e-02 2.431213e-02 2.629785e-02 2.231619e-02 1.407042e-02 9.328106e-03
<GCONST> 8.058786e-01
<STATE> 7
<MEAN> 32
 5.812275e+00 6.201571e+00 6.613722e+00 6.876745e+00 6.903144e+00 7.011796e+00 7.179854e+00 7.406693e+00 7.733568e+00 7.746812e+00 7.922665e+00 8.134038e+00 8.397487e+00 8.370876e+00 8.262036e+00 8.328363e+00 -2.701345e-04 -2.580403e-04 -3.277455e-04 -3.525282e-04 -1.368217e-04 -2.768867e-04 -2.210781e-04 -2.835550e-04 -1.692027e-04 -1.990935e-04 -2.599323e-04 -9.458613e-04 -1.313783e-03 -1.071932e-03 -5.194265e-04 -7.359973e-04
<VARIANCE> 32
 4.471016e-01 9.781075e-01 1.769806e+00 2.013378e+00 1.605759e+00 1.266392e+00 1.280827e+00 1.387146e+00 1.398335e+00 1.641472e+00 1.755539e+00 1.822769e+00 2.005455e+00 1.505188e+00 8.074799e-01 5.142136e-01 1.525198e-02 2.115775e-02 3.040326e-02 3.166568e-02 2.473171e-02 1.956654e-02 1.931165e-02 2.118436e-02 2.089082e-02 2.269821e-02 2.271687e-02 2.431213e-02 2.629785e-02 2.231619e-02 1.407042e-02 9.328106e-03
<GCONST> 8.058786e-01
<STATE> 8
<MEAN> 32
 5.812275e+00 6.201571e+00 6.613722e+00 6.876745e+00 6.903144e+00 7.011796e+00 7.179854e+00 7.406693e+00 7.733568e+00 7.746812e+00 7.922665e+00 8.134038e+00 8.397487e+00 8.370876e+00 8.262036e+00 8.328363e+00 -2.701345e-04 -2.580403e-04 -3.277455e-04 -3.525282e-04 -1.368217e-04 -2.768867e-04 -2.210781e-04 -2.835550e-04 -1.692027e-04 -1.990935e-04 -2.599323e-04 -9.458613e-04 -1.313783e-03 -1.071932e-03 -5.194265e-04 -7.359973e-04
<VARIANCE> 32
 4.471016e-01 9.781075e-01 1.769806e+00 2.013378e+00 1.605759e+00 1.266392e+00 1.280827e+00 1.387146e+00 1.398335e+00 1.641472e+00 1.755539e+00 1.822769e+00 2.005455e+00 1.505188e+00 8.074799e-01 5.142136e-01 1.525198e-02 2.115775e-02 3.040326e-02 3.166568e-02 2.473171e-02 1.956654e-02 1.931165e-02 2.118436e-02 2.089082e-02 2.269821e-02 2.271687e-02 2.431213e-02 2.629785e-02 2.231619e-02 1.407042e-02 9.328106e-03
<GCONST> 8.058786e-01
<STATE> 9
<MEAN> 32
 5.812275e+00 6.201571e+00 6.613722e+00 6.876745e+00 6.903144e+00 7.011796e+00 7.179854e+00 7.406693e+00 7.733568e+00 7.746812e+00 7.922665e+00 8.134038e+00 8.397487e+00 8.370876e+00 8.262036e+00 8.328363e+00 -2.701345e-04 -2.580403e-04 -3.277455e-04 -3.525282e-04 -1.368217e-04 -2.768867e-04 -2.210781e-04 -2.835550e-04 -1.692027e-04 -1.990935e-04 -2.599323e-04 -9.458613e-04 -1.313783e-03 -1.071932e-03 -5.194265e-04 -7.359973e-04
<VARIANCE> 32
 4.471016e-01 9.781075e-01 1.769806e+00 2.013378e+00 1.605759e+00 1.266392e+00 1.280827e+00 1.387146e+00 1.398335e+00 1.641472e+00 1.755539e+00 1.822769e+00 2.005455e+00 1.505188e+00 8.074799e-01 5.142136e-01 1.525198e-02 2.115775e-02 3.040326e-02 3.166568e-02 2.473171e-02 1.956654e-02 1.931165e-02 2.118436e-02 2.089082e-02 2.269821e-02 2.271687e-02 2.431213e-02 2.629785e-02 2.231619e-02 1.407042e-02 9.328106e-03
<GCONST> 8.058786e-01
<TRANSP> 10
 0.000000e+00 1.000000e+00 0.000000e+00 0.000000e+00 0.000000e+00 0.000000e+00 0.000000e+00 0.000000e+00 0.000000e+00 0.000000e+00
 0.000000e+00 6.000000e-01 4.000000e-01 0.000000e+00 0.000000e+00 0.000000e+00 0.000000e+00 0.000000e+00 0.000000e+00 0.000000e+00
 0.000000e+00 0.000000e+00 6.000000e-01 4.000000e-01 0.000000e+00 0.000000e+00 0.000000e+00 0.000000e+00 0.000000e+00 0.000000e+00
 0.000000e+00 0.000000e+00 0.000000e+00 6.000000e-01 4.000000e-01 0.000000e+00 0.000000e+00 0.000000e+00 0.000000e+00 0.000000e+00
 0.000000e+00 0.000000e+00 0.000000e+00 0.000000e+00 6.000000e-01 4.000000e-01 0.000000e+00 0.000000e+00 0.000000e+00 0.000000e+00
 0.000000e+00 0.000000e+00 0.000000e+00 0.000000e+00 0.000000e+00 6.000000e-01 4.000000e-01 0.000000e+00 0.000000e+00 0.000000e+00
 0.000000e+00 0.000000e+00 0.000000e+00 0.000000e+00 0.000000e+00 0.000000e+00 6.000000e-01 4.000000e-01 0.000000e+00 0.000000e+00
 0.000000e+00 0.000000e+00 0.000000e+00 0.000000e+00 0.000000e+00 0.000000e+00 0.000000e+00 6.000000e-01 4.000000e-01 0.000000e+00
 0.000000e+00 0.000000e+00 0.000000e+00 0.000000e+00 0.000000e+00 0.000000e+00 0.000000e+00 0.000000e+00 7.000000e-01 3.000000e-01
 0.000000e+00 0.000000e+00 0.000000e+00 0.000000e+00 0.000000e+00 0.000000e+00 0.000000e+00 0.000000e+00 0.000000e+00 0.000000e+00
<ENDHMM>
~o
<STREAMINFO> 1 32
<VECSIZE> 32<NULLD><FBANK_D><DIAGC>
~h "sedm"
<BEGINHMM>
<NUMSTATES> 10
<STATE> 2
<MEAN> 32
 5.812275e+00 6.201571e+00 6.613722e+00 6.876745e+00 6.903144e+00 7.011796e+00 7.179854e+00 7.406693e+00 7.733568e+00 7.746812e+00 7.922665e+00 8.134038e+00 8.397487e+00 8.370876e+00 8.262036e+00 8.328363e+00 -2.701345e-04 -2.580403e-04 -3.277455e-04 -3.525282e-04 -1.368217e-04 -2.768867e-04 -2.210781e-04 -2.835550e-04 -1.692027e-04 -1.990935e-04 -2.599323e-04 -9.458613e-04 -1.313783e-03 -1.071932e-03 -5.194265e-04 -7.359973e-04
<VARIANCE> 32
 4.471016e-01 9.781075e-01 1.769806e+00 2.013378e+00 1.605759e+00 1.266392e+00 1.280827e+00 1.387146e+00 1.398335e+00 1.641472e+00 1.755539e+00 1.822769e+00 2.005455e+00 1.505188e+00 8.074799e-01 5.142136e-01 1.525198e-02 2.115775e-02 3.040326e-02 3.166568e-02 2.473171e-02 1.956654e-02 1.931165e-02 2.118436e-02 2.089082e-02 2.269821e-02 2.271687e-02 2.431213e-02 2.629785e-02 2.231619e-02 1.407042e-02 9.328106e-03
<GCONST> 8.058786e-01
<STATE> 3
<MEAN> 32
 5.812275e+00 6.201571e+00 6.613722e+00 6.876745e+00 6.903144e+00 7.011796e+00 7.179854e+00 7.406693e+00 7.733568e+00 7.746812e+00 7.922665e+00 8.134038e+00 8.397487e+00 8.370876e+00 8.262036e+00 8.328363e+00 -2.701345e-04 -2.580403e-04 -3.277455e-04 -3.525282e-04 -1.368217e-04 -2.768867e-04 -2.210781e-04 -2.835550e-04 -1.692027e-04 -1.990935e-04 -2.599323e-04 -9.458613e-04 -1.313783e-03 -1.071932e-03 -5.194265e-04 -7.359973e-04
<VARIANCE> 32
 4.471016e-01 9.781075e-01 1.769806e+00 2.013378e+00 1.605759e+00 1.266392e+00 1.280827e+00 1.387146e+00 1.398335e+00 1.641472e+00 1.755539e+00 1.822769e+00 2.005455e+00 1.505188e+00 8.074799e-01 5.142136e-01 1.525198e-02 2.115775e-02 3.040326e-02 3.166568e-02 2.473171e-02 1.956654e-02 1.931165e-02 2.118436e-02 2.089082e-02 2.269821e-02 2.271687e-02 2.431213e-02 2.629785e-02 2.231619e-02 1.407042e-02 9.328106e-03
<GCONST> 8.058786e-01
<STATE> 4
<MEAN> 32
 5.812275e+00 6.201571e+00 6.613722e+00 6.876745e+00 6.903144e+00 7.011796e+00 7.179854e+00 7.406693e+00 7.733568e+00 7.746812e+00 7.922665e+00 8.134038e+00 8.397487e+00 8.370876e+00 8.262036e+00 8.328363e+00 -2.701345e-04 -2.580403e-04 -3.277455e-04 -3.525282e-04 -1.368217e-04 -2.768867e-04 -2.210781e-04 -2.835550e-04 -1.692027e-04 -1.990935e-04 -2.599323e-04 -9.458613e-04 -1.313783e-03 -1.071932e-03 -5.194265e-04 -7.359973e-04
<VARIANCE> 32
 4.471016e-01 9.781075e-01 1.769806e+00 2.013378e+00 1.605759e+00 1.266392e+00 1.280827e+00 1.387146e+00 1.398335e+00 1.641472e+00 1.755539e+00 1.822769e+00 2.005455e+00 1.505188e+00 8.074799e-01 5.142136e-01 1.525198e-02 2.115775e-02 3.040326e-02 3.166568e-02 2.473171e-02 1.956654e-02 1.931165e-02 2.118436e-02 2.089082e-02 2.269821e-02 2.271687e-02 2.431213e-02 2.629785e-02 2.231619e-02 1.407042e-02 9.328106e-03
<GCONST> 8.058786e-01
<STATE> 5
<MEAN> 32
 5.812275e+00 6.201571e+00 6.613722e+00 6.876745e+00 6.903144e+00 7.011796e+00 7.179854e+00 7.406693e+00 7.733568e+00 7.746812e+00 7.922665e+00 8.134038e+00 8.397487e+00 8.370876e+00 8.262036e+00 8.328363e+00 -2.701345e-04 -2.580403e-04 -3.277455e-04 -3.525282e-04 -1.368217e-04 -2.768867e-04 -2.210781e-04 -2.835550e-04 -1.692027e-04 -1.990935e-04 -2.599323e-04 -9.458613e-04 -1.313783e-03 -1.071932e-03 -5.194265e-04 -7.359973e-04
<VARIANCE> 32
 4.471016e-01 9.781075e-01 1.769806e+00 2.013378e+00 1.605759e+00 1.266392e+00 1.280827e+00 1.387146e+00 1.398335e+00 1.641472e+00 1.755539e+00 1.822769e+00 2.005455e+00 1.505188e+00 8.074799e-01 5.142136e-01 1.525198e-02 2.115775e-02 3.040326e-02 3.166568e-02 2.473171e-02 1.956654e-02 1.931165e-02 2.118436e-02 2.089082e-02 2.269821e-02 2.271687e-02 2.431213e-02 2.629785e-02 2.231619e-02 1.407042e-02 9.328106e-03
<GCONST> 8.058786e-01
<STATE> 6
<MEAN> 32
 5.812275e+00 6.201571e+00 6.613722e+00 6.876745e+00 6.903144e+00 7.011796e+00 7.179854e+00 7.406693e+00 7.733568e+00 7.746812e+00 7.922665e+00 8.134038e+00 8.397487e+00 8.370876e+00 8.262036e+00 8.328363e+00 -2.701345e-04 -2.580403e-04 -3.277455e-04 -3.525282e-04 -1.368217e-04 -2.768867e-04 -2.210781e-04 -2.835550e-04 -1.692027e-04 -1.990935e-04 -2.599323e-04 -9.458613e-04 -1.313783e-03 -1.071932e-03 -5.194265e-04 -7.359973e-04
<VARIANCE> 32
 4.471016e-01 9.781075e-01 1.769806e+00 2.013378e+00 1.605759e+00 1.266392e+00 1.280827e+00 1.387146e+00 1.398335e+00 1.641472e+00 1.755539e+00 1.822769e+00 2.005455e+00 1.505188e+00 8.074799e-01 5.142136e-01 1.525198e-02 2.115775e-02 3.040326e-02 3.166568e-02 2.473171e-02 1.956654e-02 1.931165e-02 2.118436e-02 2.089082e-02 2.269821e-02 2.271687e-02 2.431213e-02 2.629785e-02 2.231619e-02 1.407042e-02 9.328106e-03
<GCONST> 8.058786e-01
<STATE> 7
<MEAN> 32
 5.812275e+00 6.201571e+00 6.613722e+00 6.876745e+00 6.903144e+00 7.011796e+00 7.179854e+00 7.406693e+00 7.733568e+00 7.746812e+00 7.922665e+00 8.134038e+00 8.397487e+00 8.370876e+00 8.262036e+00 8.328363e+00 -2.701345e-04 -2.580403e-04 -3.277455e-04 -3.525282e-04 -1.368217e-04 -2.768867e-04 -2.210781e-04 -2.835550e-04 -1.692027e-04 -1.990935e-04 -2.599323e-04 -9.458613e-04 -1.313783e-03 -1.071932e-03 -5.194265e-04 -7.359973e-04
<VARIANCE> 32
 4.471016e-01 9.781075e-01 1.769806e+00 2.013378e+00 1.605759e+00 1.266392e+00 1.280827e+00 1.387146e+00 1.398335e+00 1.641472e+00 1.755539e+00 1.822769e+00 2.005455e+00 1.505188e+00 8.074799e-01 5.142136e-01 1.525198e-02 2.115775e-02 3.040326e-02 3.166568e-02 2.473171e-02 1.956654e-02 1.931165e-02 2.118436e-02 2.089082e-02 2.269821e-02 2.271687e-02 2.431213e-02 2.629785e-02 2.231619e-02 1.407042e-02 9.328106e-03
<GCONST> 8.058786e-01
<STATE> 8
<MEAN> 32
 5.812275e+00 6.201571e+00 6.613722e+00 6.876745e+00 6.903144e+00 7.011796e+00 7.179854e+00 7.406693e+00 7.733568e+00 7.746812e+00 7.922665e+00 8.134038e+00 8.397487e+00 8.370876e+00 8.262036e+00 8.328363e+00 -2.701345e-04 -2.580403e-04 -3.277455e-04 -3.525282e-04 -1.368217e-04 -2.768867e-04 -2.210781e-04 -2.835550e-04 -1.692027e-04 -1.990935e-04 -2.599323e-04 -9.458613e-04 -1.313783e-03 -1.071932e-03 -5.194265e-04 -7.359973e-04
<VARIANCE> 32
 4.471016e-01 9.781075e-01 1.769806e+00 2.013378e+00 1.605759e+00 1.266392e+00 1.280827e+00 1.387146e+00 1.398335e+00 1.641472e+00 1.755539e+00 1.822769e+00 2.005455e+00 1.505188e+00 8.074799e-01 5.142136e-01 1.525198e-02 2.115775e-02 3.040326e-02 3.166568e-02 2.473171e-02 1.956654e-02 1.931165e-02 2.118436e-02 2.089082e-02 2.269821e-02 2.271687e-02 2.431213e-02 2.629785e-02 2.231619e-02 1.407042e-02 9.328106e-03
<GCONST> 8.058786e-01
<STATE> 9
<MEAN> 32
 5.812275e+00 6.201571e+00 6.613722e+00 6.876745e+00 6.903144e+00 7.011796e+00 7.179854e+00 7.406693e+00 7.733568e+00 7.746812e+00 7.922665e+00 8.134038e+00 8.397487e+00 8.370876e+00 8.262036e+00 8.328363e+00 -2.701345e-04 -2.580403e-04 -3.277455e-04 -3.525282e-04 -1.368217e-04 -2.768867e-04 -2.210781e-04 -2.835550e-04 -1.692027e-04 -1.990935e-04 -2.599323e-04 -9.458613e-04 -1.313783e-03 -1.071932e-03 -5.194265e-04 -7.359973e-04
<VARIANCE> 32
 4.471016e-01 9.781075e-01 1.769806e+00 2.013378e+00 1.605759e+00 1.266392e+00 1.280827e+00 1.387146e+00 1.398335e+00 1.641472e+00 1.755539e+00 1.822769e+00 2.005455e+00 1.505188e+00 8.074799e-01 5.142136e-01 1.525198e-02 2.115775e-02 3.040326e-02 3.166568e-02 2.473171e-02 1.956654e-02 1.931165e-02 2.118436e-02 2.089082e-02 2.269821e-02 2.271687e-02 2.431213e-02 2.629785e-02 2.231619e-02 1.407042e-02 9.328106e-03
<GCONST> 8.058786e-01
<TRANSP> 10
 0.000000e+00 1.000000e+00 0.000000e+00 0.000000e+00 0.000000e+00 0.000000e+00 0.000000e+00 0.000000e+00 0.000000e+00 0.000000e+00
 0.000000e+00 6.000000e-01 4.000000e-01 0.000000e+00 0.000000e+00 0.000000e+00 0.000000e+00 0.000000e+00 0.000000e+00 0.000000e+00
 0.000000e+00 0.000000e+00 6.000000e-01 4.000000e-01 0.000000e+00 0.000000e+00 0.000000e+00 0.000000e+00 0.000000e+00 0.000000e+00
 0.000000e+00 0.000000e+00 0.000000e+00 6.000000e-01 4.000000e-01 0.000000e+00 0.000000e+00 0.000000e+00 0.000000e+00 0.000000e+00
 0.000000e+00 0.000000e+00 0.000000e+00 0.000000e+00 6.000000e-01 4.000000e-01 0.000000e+00 0.000000e+00 0.000000e+00 0.000000e+00
 0.000000e+00 0.000000e+00 0.000000e+00 0.000000e+00 0.000000e+00 6.000000e-01 4.000000e-01 0.000000e+00 0.000000e+00 0.000000e+00
 0.000000e+00 0.000000e+00 0.000000e+00 0.000000e+00 0.000000e+00 0.000000e+00 6.000000e-01 4.000000e-01 0.000000e+00 0.000000e+00
 0.000000e+00 0.000000e+00 0.000000e+00 0.000000e+00 0.000000e+00 0.000000e+00 0.000000e+00 6.000000e-01 4.000000e-01 0.000000e+00
 0.000000e+00 0.000000e+00 0.000000e+00 0.000000e+00 0.000000e+00 0.000000e+00 0.000000e+00 0.000000e+00 7.000000e-01 3.000000e-01
 0.000000e+00 0.000000e+00 0.000000e+00 0.000000e+00 0.000000e+00 0.000000e+00 0.000000e+00 0.000000e+00 0.000000e+00 0.000000e+00
<ENDHMM>
~o
<STREAMINFO> 1 32
<VECSIZE> 32<NULLD><FBANK_D><DIAGC>
~h "osm"
<BEGINHMM>
<NUMSTATES> 10
<STATE> 2
<MEAN> 32
 5.812275e+00 6.201571e+00 6.613722e+00 6.876745e+00 6.903144e+00 7.011796e+00 7.179854e+00 7.406693e+00 7.733568e+00 7.746812e+00 7.922665e+00 8.134038e+00 8.397487e+00 8.370876e+00 8.262036e+00 8.328363e+00 -2.701345e-04 -2.580403e-04 -3.277455e-04 -3.525282e-04 -1.368217e-04 -2.768867e-04 -2.210781e-04 -2.835550e-04 -1.692027e-04 -1.990935e-04 -2.599323e-04 -9.458613e-04 -1.313783e-03 -1.071932e-03 -5.194265e-04 -7.359973e-04
<VARIANCE> 32
 4.471016e-01 9.781075e-01 1.769806e+00 2.013378e+00 1.605759e+00 1.266392e+00 1.280827e+00 1.387146e+00 1.398335e+00 1.641472e+00 1.755539e+00 1.822769e+00 2.005455e+00 1.505188e+00 8.074799e-01 5.142136e-01 1.525198e-02 2.115775e-02 3.040326e-02 3.166568e-02 2.473171e-02 1.956654e-02 1.931165e-02 2.118436e-02 2.089082e-02 2.269821e-02 2.271687e-02 2.431213e-02 2.629785e-02 2.231619e-02 1.407042e-02 9.328106e-03
<GCONST> 8.058786e-01
<STATE> 3
<MEAN> 32
 5.812275e+00 6.201571e+00 6.613722e+00 6.876745e+00 6.903144e+00 7.011796e+00 7.179854e+00 7.406693e+00 7.733568e+00 7.746812e+00 7.922665e+00 8.134038e+00 8.397487e+00 8.370876e+00 8.262036e+00 8.328363e+00 -2.701345e-04 -2.580403e-04 -3.277455e-04 -3.525282e-04 -1.368217e-04 -2.768867e-04 -2.210781e-04 -2.835550e-04 -1.692027e-04 -1.990935e-04 -2.599323e-04 -9.458613e-04 -1.313783e-03 -1.071932e-03 -5.194265e-04 -7.359973e-04
<VARIANCE> 32
 4.471016e-01 9.781075e-01 1.769806e+00 2.013378e+00 1.605759e+00 1.266392e+00 1.280827e+00 1.387146e+00 1.398335e+00 1.641472e+00 1.755539e+00 1.822769e+00 2.005455e+00 1.505188e+00 8.074799e-01 5.142136e-01 1.525198e-02 2.115775e-02 3.040326e-02 3.166568e-02 2.473171e-02 1.956654e-02 1.931165e-02 2.118436e-02 2.089082e-02 2.269821e-02 2.271687e-02 2.431213e-02 2.629785e-02 2.231619e-02 1.407042e-02 9.328106e-03
<GCONST> 8.058786e-01
<STATE> 4
<MEAN> 32
 5.812275e+00 6.201571e+00 6.613722e+00 6.876745e+00 6.903144e+00 7.011796e+00 7.179854e+00 7.406693e+00 7.733568e+00 7.746812e+00 7.922665e+00 8.134038e+00 8.397487e+00 8.370876e+00 8.262036e+00 8.328363e+00 -2.701345e-04 -2.580403e-04 -3.277455e-04 -3.525282e-04 -1.368217e-04 -2.768867e-04 -2.210781e-04 -2.835550e-04 -1.692027e-04 -1.990935e-04 -2.599323e-04 -9.458613e-04 -1.313783e-03 -1.071932e-03 -5.194265e-04 -7.359973e-04
<VARIANCE> 32
 4.471016e-01 9.781075e-01 1.769806e+00 2.013378e+00 1.605759e+00 1.266392e+00 1.280827e+00 1.387146e+00 1.398335e+00 1.641472e+00 1.755539e+00 1.822769e+00 2.005455e+00 1.505188e+00 8.074799e-01 5.142136e-01 1.525198e-02 2.115775e-02 3.040326e-02 3.166568e-02 2.473171e-02 1.956654e-02 1.931165e-02 2.118436e-02 2.089082e-02 2.269821e-02 2.271687e-02 2.431213e-02 2.629785e-02 2.231619e-02 1.407042e-02 9.328106e-03
<GCONST> 8.058786e-01
<STATE> 5
<MEAN> 32
 5.812275e+00 6.201571e+00 6.613722e+00 6.876745e+00 6.903144e+00 7.011796e+00 7.179854e+00 7.406693e+00 7.733568e+00 7.746812e+00 7.922665e+00 8.134038e+00 8.397487e+00 8.370876e+00 8.262036e+00 8.328363e+00 -2.701345e-04 -2.580403e-04 -3.277455e-04 -3.525282e-04 -1.368217e-04 -2.768867e-04 -2.210781e-04 -2.835550e-04 -1.692027e-04 -1.990935e-04 -2.599323e-04 -9.458613e-04 -1.313783e-03 -1.071932e-03 -5.194265e-04 -7.359973e-04
<VARIANCE> 32
 4.471016e-01 9.781075e-01 1.769806e+00 2.013378e+00 1.605759e+00 1.266392e+00 1.280827e+00 1.387146e+00 1.398335e+00 1.641472e+00 1.755539e+00 1.822769e+00 2.005455e+00 1.505188e+00 8.074799e-01 5.142136e-01 1.525198e-02 2.115775e-02 3.040326e-02 3.166568e-02 2.473171e-02 1.956654e-02 1.931165e-02 2.118436e-02 2.089082e-02 2.269821e-02 2.271687e-02 2.431213e-02 2.629785e-02 2.231619e-02 1.407042e-02 9.328106e-03
<GCONST> 8.058786e-01
<STATE> 6
<MEAN> 32
 5.812275e+00 6.201571e+00 6.613722e+00 6.876745e+00 6.903144e+00 7.011796e+00 7.179854e+00 7.406693e+00 7.733568e+00 7.746812e+00 7.922665e+00 8.134038e+00 8.397487e+00 8.370876e+00 8.262036e+00 8.328363e+00 -2.701345e-04 -2.580403e-04 -3.277455e-04 -3.525282e-04 -1.368217e-04 -2.768867e-04 -2.210781e-04 -2.835550e-04 -1.692027e-04 -1.990935e-04 -2.599323e-04 -9.458613e-04 -1.313783e-03 -1.071932e-03 -5.194265e-04 -7.359973e-04
<VARIANCE> 32
 4.471016e-01 9.781075e-01 1.769806e+00 2.013378e+00 1.605759e+00 1.266392e+00 1.280827e+00 1.387146e+00 1.398335e+00 1.641472e+00 1.755539e+00 1.822769e+00 2.005455e+00 1.505188e+00 8.074799e-01 5.142136e-01 1.525198e-02 2.115775e-02 3.040326e-02 3.166568e-02 2.473171e-02 1.956654e-02 1.931165e-02 2.118436e-02 2.089082e-02 2.269821e-02 2.271687e-02 2.431213e-02 2.629785e-02 2.231619e-02 1.407042e-02 9.328106e-03
<GCONST> 8.058786e-01
<STATE> 7
<MEAN> 32
 5.812275e+00 6.201571e+00 6.613722e+00 6.876745e+00 6.903144e+00 7.011796e+00 7.179854e+00 7.406693e+00 7.733568e+00 7.746812e+00 7.922665e+00 8.134038e+00 8.397487e+00 8.370876e+00 8.262036e+00 8.328363e+00 -2.701345e-04 -2.580403e-04 -3.277455e-04 -3.525282e-04 -1.368217e-04 -2.768867e-04 -2.210781e-04 -2.835550e-04 -1.692027e-04 -1.990935e-04 -2.599323e-04 -9.458613e-04 -1.313783e-03 -1.071932e-03 -5.194265e-04 -7.359973e-04
<VARIANCE> 32
 4.471016e-01 9.781075e-01 1.769806e+00 2.013378e+00 1.605759e+00 1.266392e+00 1.280827e+00 1.387146e+00 1.398335e+00 1.641472e+00 1.755539e+00 1.822769e+00 2.005455e+00 1.505188e+00 8.074799e-01 5.142136e-01 1.525198e-02 2.115775e-02 3.040326e-02 3.166568e-02 2.473171e-02 1.956654e-02 1.931165e-02 2.118436e-02 2.089082e-02 2.269821e-02 2.271687e-02 2.431213e-02 2.629785e-02 2.231619e-02 1.407042e-02 9.328106e-03
<GCONST> 8.058786e-01
<STATE> 8
<MEAN> 32
 5.812275e+00 6.201571e+00 6.613722e+00 6.876745e+00 6.903144e+00 7.011796e+00 7.179854e+00 7.406693e+00 7.733568e+00 7.746812e+00 7.922665e+00 8.134038e+00 8.397487e+00 8.370876e+00 8.262036e+00 8.328363e+00 -2.701345e-04 -2.580403e-04 -3.277455e-04 -3.525282e-04 -1.368217e-04 -2.768867e-04 -2.210781e-04 -2.835550e-04 -1.692027e-04 -1.990935e-04 -2.599323e-04 -9.458613e-04 -1.313783e-03 -1.071932e-03 -5.194265e-04 -7.359973e-04
<VARIANCE> 32
 4.471016e-01 9.781075e-01 1.769806e+00 2.013378e+00 1.605759e+00 1.266392e+00 1.280827e+00 1.387146e+00 1.398335e+00 1.641472e+00 1.755539e+00 1.822769e+00 2.005455e+00 1.505188e+00 8.074799e-01 5.142136e-01 1.525198e-02 2.115775e-02 3.040326e-02 3.166568e-02 2.473171e-02 1.956654e-02 1.931165e-02 2.118436e-02 2.089082e-02 2.269821e-02 2.271687e-02 2.431213e-02 2.629785e-02 2.231619e-02 1.407042e-02 9.328106e-03
<GCONST> 8.058786e-01
<STATE> 9
<MEAN> 32
 5.812275e+00 6.201571e+00 6.613722e+00 6.876745e+00 6.903144e+00 7.011796e+00 7.179854e+00 7.406693e+00 7.733568e+00 7.746812e+00 7.922665e+00 8.134038e+00 8.397487e+00 8.370876e+00 8.262036e+00 8.328363e+00 -2.701345e-04 -2.580403e-04 -3.277455e-04 -3.525282e-04 -1.368217e-04 -2.768867e-04 -2.210781e-04 -2.835550e-04 -1.692027e-04 -1.990935e-04 -2.599323e-04 -9.458613e-04 -1.313783e-03 -1.071932e-03 -5.194265e-04 -7.359973e-04
<VARIANCE> 32
 4.471016e-01 9.781075e-01 1.769806e+00 2.013378e+00 1.605759e+00 1.266392e+00 1.280827e+00 1.387146e+00 1.398335e+00 1.641472e+00 1.755539e+00 1.822769e+00 2.005455e+00 1.505188e+00 8.074799e-01 5.142136e-01 1.525198e-02 2.115775e-02 3.040326e-02 3.166568e-02 2.473171e-02 1.956654e-02 1.931165e-02 2.118436e-02 2.089082e-02 2.269821e-02 2.271687e-02 2.431213e-02 2.629785e-02 2.231619e-02 1.407042e-02 9.328106e-03
<GCONST> 8.058786e-01
<TRANSP> 10
 0.000000e+00 1.000000e+00 0.000000e+00 0.000000e+00 0.000000e+00 0.000000e+00 0.000000e+00 0.000000e+00 0.000000e+00 0.000000e+00
 0.000000e+00 6.000000e-01 4.000000e-01 0.000000e+00 0.000000e+00 0.000000e+00 0.000000e+00 0.000000e+00 0.000000e+00 0.000000e+00
 0.000000e+00 0.000000e+00 6.000000e-01 4.000000e-01 0.000000e+00 0.000000e+00 0.000000e+00 0.000000e+00 0.000000e+00 0.000000e+00
 0.000000e+00 0.000000e+00 0.000000e+00 6.000000e-01 4.000000e-01 0.000000e+00 0.000000e+00 0.000000e+00 0.000000e+00 0.000000e+00
 0.000000e+00 0.000000e+00 0.000000e+00 0.000000e+00 6.000000e-01 4.000000e-01 0.000000e+00 0.000000e+00 0.000000e+00 0.000000e+00
 0.000000e+00 0.000000e+00 0.000000e+00 0.000000e+00 0.000000e+00 6.000000e-01 4.000000e-01 0.000000e+00 0.000000e+00 0.000000e+00
 0.000000e+00 0.000000e+00 0.000000e+00 0.000000e+00 0.000000e+00 0.000000e+00 6.000000e-01 4.000000e-01 0.000000e+00 0.000000e+00
 0.000000e+00 0.000000e+00 0.000000e+00 0.000000e+00 0.000000e+00 0.000000e+00 0.000000e+00 6.000000e-01 4.000000e-01 0.000000e+00
 0.000000e+00 0.000000e+00 0.000000e+00 0.000000e+00 0.000000e+00 0.000000e+00 0.000000e+00 0.000000e+00 7.000000e-01 3.000000e-01
 0.000000e+00 0.000000e+00 0.000000e+00 0.000000e+00 0.000000e+00 0.000000e+00 0.000000e+00 0.000000e+00 0.000000e+00 0.000000e+00
<ENDHMM>
~o
<STREAMINFO> 1 32
<VECSIZE> 32<NULLD><FBANK_D><DIAGC>
~h "devet"
<BEGINHMM>
<NUMSTATES> 10
<STATE> 2
<MEAN> 32
 5.812275e+00 6.201571e+00 6.613722e+00 6.876745e+00 6.903144e+00 7.011796e+00 7.179854e+00 7.406693e+00 7.733568e+00 7.746812e+00 7.922665e+00 8.134038e+00 8.397487e+00 8.370876e+00 8.262036e+00 8.328363e+00 -2.701345e-04 -2.580403e-04 -3.277455e-04 -3.525282e-04 -1.368217e-04 -2.768867e-04 -2.210781e-04 -2.835550e-04 -1.692027e-04 -1.990935e-04 -2.599323e-04 -9.458613e-04 -1.313783e-03 -1.071932e-03 -5.194265e-04 -7.359973e-04
<VARIANCE> 32
 4.471016e-01 9.781075e-01 1.769806e+00 2.013378e+00 1.605759e+00 1.266392e+00 1.280827e+00 1.387146e+00 1.398335e+00 1.641472e+00 1.755539e+00 1.822769e+00 2.005455e+00 1.505188e+00 8.074799e-01 5.142136e-01 1.525198e-02 2.115775e-02 3.040326e-02 3.166568e-02 2.473171e-02 1.956654e-02 1.931165e-02 2.118436e-02 2.089082e-02 2.269821e-02 2.271687e-02 2.431213e-02 2.629785e-02 2.231619e-02 1.407042e-02 9.328106e-03
<GCONST> 8.058786e-01
<STATE> 3
<MEAN> 32
 5.812275e+00 6.201571e+00 6.613722e+00 6.876745e+00 6.903144e+00 7.011796e+00 7.179854e+00 7.406693e+00 7.733568e+00 7.746812e+00 7.922665e+00 8.134038e+00 8.397487e+00 8.370876e+00 8.262036e+00 8.328363e+00 -2.701345e-04 -2.580403e-04 -3.277455e-04 -3.525282e-04 -1.368217e-04 -2.768867e-04 -2.210781e-04 -2.835550e-04 -1.692027e-04 -1.990935e-04 -2.599323e-04 -9.458613e-04 -1.313783e-03 -1.071932e-03 -5.194265e-04 -7.359973e-04
<VARIANCE> 32
 4.471016e-01 9.781075e-01 1.769806e+00 2.013378e+00 1.605759e+00 1.266392e+00 1.280827e+00 1.387146e+00 1.398335e+00 1.641472e+00 1.755539e+00 1.822769e+00 2.005455e+00 1.505188e+00 8.074799e-01 5.142136e-01 1.525198e-02 2.115775e-02 3.040326e-02 3.166568e-02 2.473171e-02 1.956654e-02 1.931165e-02 2.118436e-02 2.089082e-02 2.269821e-02 2.271687e-02 2.431213e-02 2.629785e-02 2.231619e-02 1.407042e-02 9.328106e-03
<GCONST> 8.058786e-01
<STATE> 4
<MEAN> 32
 5.812275e+00 6.201571e+00 6.613722e+00 6.876745e+00 6.903144e+00 7.011796e+00 7.179854e+00 7.406693e+00 7.733568e+00 7.746812e+00 7.922665e+00 8.134038e+00 8.397487e+00 8.370876e+00 8.262036e+00 8.328363e+00 -2.701345e-04 -2.580403e-04 -3.277455e-04 -3.525282e-04 -1.368217e-04 -2.768867e-04 -2.210781e-04 -2.835550e-04 -1.692027e-04 -1.990935e-04 -2.599323e-04 -9.458613e-04 -1.313783e-03 -1.071932e-03 -5.194265e-04 -7.359973e-04
<VARIANCE> 32
 4.471016e-01 9.781075e-01 1.769806e+00 2.013378e+00 1.605759e+00 1.266392e+00 1.280827e+00 1.387146e+00 1.398335e+00 1.641472e+00 1.755539e+00 1.822769e+00 2.005455e+00 1.505188e+00 8.074799e-01 5.142136e-01 1.525198e-02 2.115775e-02 3.040326e-02 3.166568e-02 2.473171e-02 1.956654e-02 1.931165e-02 2.118436e-02 2.089082e-02 2.269821e-02 2.271687e-02 2.431213e-02 2.629785e-02 2.231619e-02 1.407042e-02 9.328106e-03
<GCONST> 8.058786e-01
<STATE> 5
<MEAN> 32
 5.812275e+00 6.201571e+00 6.613722e+00 6.876745e+00 6.903144e+00 7.011796e+00 7.179854e+00 7.406693e+00 7.733568e+00 7.746812e+00 7.922665e+00 8.134038e+00 8.397487e+00 8.370876e+00 8.262036e+00 8.328363e+00 -2.701345e-04 -2.580403e-04 -3.277455e-04 -3.525282e-04 -1.368217e-04 -2.768867e-04 -2.210781e-04 -2.835550e-04 -1.692027e-04 -1.990935e-04 -2.599323e-04 -9.458613e-04 -1.313783e-03 -1.071932e-03 -5.194265e-04 -7.359973e-04
<VARIANCE> 32
 4.471016e-01 9.781075e-01 1.769806e+00 2.013378e+00 1.605759e+00 1.266392e+00 1.280827e+00 1.387146e+00 1.398335e+00 1.641472e+00 1.755539e+00 1.822769e+00 2.005455e+00 1.505188e+00 8.074799e-01 5.142136e-01 1.525198e-02 2.115775e-02 3.040326e-02 3.166568e-02 2.473171e-02 1.956654e-02 1.931165e-02 2.118436e-02 2.089082e-02 2.269821e-02 2.271687e-02 2.431213e-02 2.629785e-02 2.231619e-02 1.407042e-02 9.328106e-03
<GCONST> 8.058786e-01
<STATE> 6
<MEAN> 32
 5.812275e+00 6.201571e+00 6.613722e+00 6.876745e+00 6.903144e+00 7.011796e+00 7.179854e+00 7.406693e+00 7.733568e+00 7.746812e+00 7.922665e+00 8.134038e+00 8.397487e+00 8.370876e+00 8.262036e+00 8.328363e+00 -2.701345e-04 -2.580403e-04 -3.277455e-04 -3.525282e-04 -1.368217e-04 -2.768867e-04 -2.210781e-04 -2.835550e-04 -1.692027e-04 -1.990935e-04 -2.599323e-04 -9.458613e-04 -1.313783e-03 -1.071932e-03 -5.194265e-04 -7.359973e-04
<VARIANCE> 32
 4.471016e-01 9.781075e-01 1.769806e+00 2.013378e+00 1.605759e+00 1.266392e+00 1.280827e+00 1.387146e+00 1.398335e+00 1.641472e+00 1.755539e+00 1.822769e+00 2.005455e+00 1.505188e+00 8.074799e-01 5.142136e-01 1.525198e-02 2.115775e-02 3.040326e-02 3.166568e-02 2.473171e-02 1.956654e-02 1.931165e-02 2.118436e-02 2.089082e-02 2.269821e-02 2.271687e-02 2.431213e-02 2.629785e-02 2.231619e-02 1.407042e-02 9.328106e-03
<GCONST> 8.058786e-01
<STATE> 7
<MEAN> 32
 5.812275e+00 6.201571e+00 6.613722e+00 6.876745e+00 6.903144e+00 7.011796e+00 7.179854e+00 7.406693e+00 7.733568e+00 7.746812e+00 7.922665e+00 8.134038e+00 8.397487e+00 8.370876e+00 8.262036e+00 8.328363e+00 -2.701345e-04 -2.580403e-04 -3.277455e-04 -3.525282e-04 -1.368217e-04 -2.768867e-04 -2.210781e-04 -2.835550e-04 -1.692027e-04 -1.990935e-04 -2.599323e-04 -9.458613e-04 -1.313783e-03 -1.071932e-03 -5.194265e-04 -7.359973e-04
<VARIANCE> 32
 4.471016e-01 9.781075e-01 1.769806e+00 2.013378e+00 1.605759e+00 1.266392e+00 1.280827e+00 1.387146e+00 1.398335e+00 1.641472e+00 1.755539e+00 1.822769e+00 2.005455e+00 1.505188e+00 8.074799e-01 5.142136e-01 1.525198e-02 2.115775e-02 3.040326e-02 3.166568e-02 2.473171e-02 1.956654e-02 1.931165e-02 2.118436e-02 2.089082e-02 2.269821e-02 2.271687e-02 2.431213e-02 2.629785e-02 2.231619e-02 1.407042e-02 9.328106e-03
<GCONST> 8.058786e-01
<STATE> 8
<MEAN> 32
 5.812275e+00 6.201571e+00 6.613722e+00 6.876745e+00 6.903144e+00 7.011796e+00 7.179854e+00 7.406693e+00 7.733568e+00 7.746812e+00 7.922665e+00 8.134038e+00 8.397487e+00 8.370876e+00 8.262036e+00 8.328363e+00 -2.701345e-04 -2.580403e-04 -3.277455e-04 -3.525282e-04 -1.368217e-04 -2.768867e-04 -2.210781e-04 -2.835550e-04 -1.692027e-04 -1.990935e-04 -2.599323e-04 -9.458613e-04 -1.313783e-03 -1.071932e-03 -5.194265e-04 -7.359973e-04
<VARIANCE> 32
 4.471016e-01 9.781075e-01 1.769806e+00 2.013378e+00 1.605759e+00 1.266392e+00 1.280827e+00 1.387146e+00 1.398335e+00 1.641472e+00 1.755539e+00 1.822769e+00 2.005455e+00 1.505188e+00 8.074799e-01 5.142136e-01 1.525198e-02 2.115775e-02 3.040326e-02 3.166568e-02 2.473171e-02 1.956654e-02 1.931165e-02 2.118436e-02 2.089082e-02 2.269821e-02 2.271687e-02 2.431213e-02 2.629785e-02 2.231619e-02 1.407042e-02 9.328106e-03
<GCONST> 8.058786e-01
<STATE> 9
<MEAN> 32
 5.812275e+00 6.201571e+00 6.613722e+00 6.876745e+00 6.903144e+00 7.011796e+00 7.179854e+00 7.406693e+00 7.733568e+00 7.746812e+00 7.922665e+00 8.134038e+00 8.397487e+00 8.370876e+00 8.262036e+00 8.328363e+00 -2.701345e-04 -2.580403e-04 -3.277455e-04 -3.525282e-04 -1.368217e-04 -2.768867e-04 -2.210781e-04 -2.835550e-04 -1.692027e-04 -1.990935e-04 -2.599323e-04 -9.458613e-04 -1.313783e-03 -1.071932e-03 -5.194265e-04 -7.359973e-04
<VARIANCE> 32
 4.471016e-01 9.781075e-01 1.769806e+00 2.013378e+00 1.605759e+00 1.266392e+00 1.280827e+00 1.387146e+00 1.398335e+00 1.641472e+00 1.755539e+00 1.822769e+00 2.005455e+00 1.505188e+00 8.074799e-01 5.142136e-01 1.525198e-02 2.115775e-02 3.040326e-02 3.166568e-02 2.473171e-02 1.956654e-02 1.931165e-02 2.118436e-02 2.089082e-02 2.269821e-02 2.271687e-02 2.431213e-02 2.629785e-02 2.231619e-02 1.407042e-02 9.328106e-03
<GCONST> 8.058786e-01
<TRANSP> 10
 0.000000e+00 1.000000e+00 0.000000e+00 0.000000e+00 0.000000e+00 0.000000e+00 0.000000e+00 0.000000e+00 0.000000e+00 0.000000e+00
 0.000000e+00 6.000000e-01 4.000000e-01 0.000000e+00 0.000000e+00 0.000000e+00 0.000000e+00 0.000000e+00 0.000000e+00 0.000000e+00
 0.000000e+00 0.000000e+00 6.000000e-01 4.000000e-01 0.000000e+00 0.000000e+00 0.000000e+00 0.000000e+00 0.000000e+00 0.000000e+00
 0.000000e+00 0.000000e+00 0.000000e+00 6.000000e-01 4.000000e-01 0.000000e+00 0.000000e+00 0.000000e+00 0.000000e+00 0.000000e+00
 0.000000e+00 0.000000e+00 0.000000e+00 0.000000e+00 6.000000e-01 4.000000e-01 0.000000e+00 0.000000e+00 0.000000e+00 0.000000e+00
 0.000000e+00 0.000000e+00 0.000000e+00 0.000000e+00 0.000000e+00 6.000000e-01 4.000000e-01 0.000000e+00 0.000000e+00 0.000000e+00
 0.000000e+00 0.000000e+00 0.000000e+00 0.000000e+00 0.000000e+00 0.000000e+00 6.000000e-01 4.000000e-01 0.000000e+00 0.000000e+00
 0.000000e+00 0.000000e+00 0.000000e+00 0.000000e+00 0.000000e+00 0.000000e+00 0.000000e+00 6.000000e-01 4.000000e-01 0.000000e+00
 0.000000e+00 0.000000e+00 0.000000e+00 0.000000e+00 0.000000e+00 0.000000e+00 0.000000e+00 0.000000e+00 7.000000e-01 3.000000e-01
 0.000000e+00 0.000000e+00 0.000000e+00 0.000000e+00 0.000000e+00 0.000000e+00 0.000000e+00 0.000000e+00 0.000000e+00 0.000000e+00
<ENDHMM>
~o
<STREAMINFO> 1 32
<VECSIZE> 32<NULLD><FBANK_D><DIAGC>
~h "sil"
<BEGINHMM>
<NUMSTATES> 5
<STATE> 2
<MEAN> 32
 5.812275e+00 6.201571e+00 6.613722e+00 6.876745e+00 6.903144e+00 7.011796e+00 7.179854e+00 7.406693e+00 7.733568e+00 7.746812e+00 7.922665e+00 8.134038e+00 8.397487e+00 8.370876e+00 8.262036e+00 8.328363e+00 -2.701345e-04 -2.580403e-04 -3.277455e-04 -3.525282e-04 -1.368217e-04 -2.768867e-04 -2.210781e-04 -2.835550e-04 -1.692027e-04 -1.990935e-04 -2.599323e-04 -9.458613e-04 -1.313783e-03 -1.071932e-03 -5.194265e-04 -7.359973e-04
<VARIANCE> 32
 4.471016e-01 9.781075e-01 1.769806e+00 2.013378e+00 1.605759e+00 1.266392e+00 1.280827e+00 1.387146e+00 1.398335e+00 1.641472e+00 1.755539e+00 1.822769e+00 2.005455e+00 1.505188e+00 8.074799e-01 5.142136e-01 1.525198e-02 2.115775e-02 3.040326e-02 3.166568e-02 2.473171e-02 1.956654e-02 1.931165e-02 2.118436e-02 2.089082e-02 2.269821e-02 2.271687e-02 2.431213e-02 2.629785e-02 2.231619e-02 1.407042e-02 9.328106e-03
<GCONST> 8.058786e-01
<STATE> 3
<MEAN> 32
 5.812275e+00 6.201571e+00 6.613722e+00 6.876745e+00 6.903144e+00 7.011796e+00 7.179854e+00 7.406693e+00 7.733568e+00 7.746812e+00 7.922665e+00 8.134038e+00 8.397487e+00 8.370876e+00 8.262036e+00 8.328363e+00 -2.701345e-04 -2.580403e-04 -3.277455e-04 -3.525282e-04 -1.368217e-04 -2.768867e-04 -2.210781e-04 -2.835550e-04 -1.692027e-04 -1.990935e-04 -2.599323e-04 -9.458613e-04 -1.313783e-03 -1.071932e-03 -5.194265e-04 -7.359973e-04
<VARIANCE> 32
 4.471016e-01 9.781075e-01 1.769806e+00 2.013378e+00 1.605759e+00 1.266392e+00 1.280827e+00 1.387146e+00 1.398335e+00 1.641472e+00 1.755539e+00 1.822769e+00 2.005455e+00 1.505188e+00 8.074799e-01 5.142136e-01 1.525198e-02 2.115775e-02 3.040326e-02 3.166568e-02 2.473171e-02 1.956654e-02 1.931165e-02 2.118436e-02 2.089082e-02 2.269821e-02 2.271687e-02 2.431213e-02 2.629785e-02 2.231619e-02 1.407042e-02 9.328106e-03
<GCONST> 8.058786e-01
<STATE> 4
<MEAN> 32
 5.812275e+00 6.201571e+00 6.613722e+00 6.876745e+00 6.903144e+00 7.011796e+00 7.179854e+00 7.406693e+00 7.733568e+00 7.746812e+00 7.922665e+00 8.134038e+00 8.397487e+00 8.370876e+00 8.262036e+00 8.328363e+00 -2.701345e-04 -2.580403e-04 -3.277455e-04 -3.525282e-04 -1.368217e-04 -2.768867e-04 -2.210781e-04 -2.835550e-04 -1.692027e-04 -1.990935e-04 -2.599323e-04 -9.458613e-04 -1.313783e-03 -1.071932e-03 -5.194265e-04 -7.359973e-04
<VARIANCE> 32
 4.471016e-01 9.781075e-01 1.769806e+00 2.013378e+00 1.605759e+00 1.266392e+00 1.280827e+00 1.387146e+00 1.398335e+00 1.641472e+00 1.755539e+00 1.822769e+00 2.005455e+00 1.505188e+00 8.074799e-01 5.142136e-01 1.525198e-02 2.115775e-02 3.040326e-02 3.166568e-02 2.473171e-02 1.956654e-02 1.931165e-02 2.118436e-02 2.089082e-02 2.269821e-02 2.271687e-02 2.431213e-02 2.629785e-02 2.231619e-02 1.407042e-02 9.328106e-03
<GCONST> 8.058786e-01
<TRANSP> 5
 0.000000e+00 1.000000e+00 0.000000e+00 0.000000e+00 0.000000e+00
 0.000000e+00 6.000000e-01 4.000000e-01 0.000000e+00 0.000000e+00
 0.000000e+00 0.000000e+00 6.000000e-01 4.000000e-01 0.000000e+00
 0.000000e+00 0.000000e+00 0.000000e+00 7.000000e-01 3.000000e-01
 0.000000e+00 0.000000e+00 0.000000e+00 0.000000e+00 0.000000e+00
<ENDHMM>
