~o
<STREAMINFO> 1 32
<VECSIZE> 32<NULLD><FBANK_D><DIAGC>
~h "proto-3s-32f"
<BEGINHMM>
<NUMSTATES> 5
<STATE> 2
<MEAN> 32
 5.812282e+00 6.201574e+00 6.613734e+00 6.876742e+00 6.903062e+00 7.011737e+00 7.179880e+00 7.406687e+00 7.733519e+00 7.746799e+00 7.922688e+00 8.134033e+00 8.397438e+00 8.370882e+00 8.262050e+00 8.328378e+00 -2.701373e-04 -2.580394e-04 -3.277454e-04 -3.525287e-04 -1.368218e-04 -2.768855e-04 -2.210778e-04 -2.835537e-04 -1.692037e-04 -1.990943e-04 -2.599327e-04 -9.458587e-04 -1.313782e-03 -1.071939e-03 -5.194282e-04 -7.360007e-04
<VARIANCE> 32
 4.472618e-01 9.781723e-01 1.769547e+00 2.013557e+00 1.606644e+00 1.266903e+00 1.280586e+00 1.387547e+00 1.399174e+00 1.641735e+00 1.755276e+00 1.822769e+00 2.005928e+00 1.504929e+00 8.070755e-01 5.134888e-01 1.525207e-02 2.115776e-02 3.040334e-02 3.166582e-02 2.473183e-02 1.956661e-02 1.931167e-02 2.118449e-02 2.089090e-02 2.269825e-02 2.271696e-02 2.431223e-02 2.629810e-02 2.231618e-02 1.407052e-02 9.328094e-03
<GCONST> 8.061357e-01
<STATE> 3
<MEAN> 32
 5.812282e+00 6.201574e+00 6.613734e+00 6.876742e+00 6.903062e+00 7.011737e+00 7.179880e+00 7.406687e+00 7.733519e+00 7.746799e+00 7.922688e+00 8.134033e+00 8.397438e+00 8.370882e+00 8.262050e+00 8.328378e+00 -2.701373e-04 -2.580394e-04 -3.277454e-04 -3.525287e-04 -1.368218e-04 -2.768855e-04 -2.210778e-04 -2.835537e-04 -1.692037e-04 -1.990943e-04 -2.599327e-04 -9.458587e-04 -1.313782e-03 -1.071939e-03 -5.194282e-04 -7.360007e-04
<VARIANCE> 32
 4.472618e-01 9.781723e-01 1.769547e+00 2.013557e+00 1.606644e+00 1.266903e+00 1.280586e+00 1.387547e+00 1.399174e+00 1.641735e+00 1.755276e+00 1.822769e+00 2.005928e+00 1.504929e+00 8.070755e-01 5.134888e-01 1.525207e-02 2.115776e-02 3.040334e-02 3.166582e-02 2.473183e-02 1.956661e-02 1.931167e-02 2.118449e-02 2.089090e-02 2.269825e-02 2.271696e-02 2.431223e-02 2.629810e-02 2.231618e-02 1.407052e-02 9.328094e-03
<GCONST> 8.061357e-01
<STATE> 4
<MEAN> 32
 5.812282e+00 6.201574e+00 6.613734e+00 6.876742e+00 6.903062e+00 7.011737e+00 7.179880e+00 7.406687e+00 7.733519e+00 7.746799e+00 7.922688e+00 8.134033e+00 8.397438e+00 8.370882e+00 8.262050e+00 8.328378e+00 -2.701373e-04 -2.580394e-04 -3.277454e-04 -3.525287e-04 -1.368218e-04 -2.768855e-04 -2.210778e-04 -2.835537e-04 -1.692037e-04 -1.990943e-04 -2.599327e-04 -9.458587e-04 -1.313782e-03 -1.071939e-03 -5.194282e-04 -7.360007e-04
<VARIANCE> 32
 4.472618e-01 9.781723e-01 1.769547e+00 2.013557e+00 1.606644e+00 1.266903e+00 1.280586e+00 1.387547e+00 1.399174e+00 1.641735e+00 1.755276e+00 1.822769e+00 2.005928e+00 1.504929e+00 8.070755e-01 5.134888e-01 1.525207e-02 2.115776e-02 3.040334e-02 3.166582e-02 2.473183e-02 1.956661e-02 1.931167e-02 2.118449e-02 2.089090e-02 2.269825e-02 2.271696e-02 2.431223e-02 2.629810e-02 2.231618e-02 1.407052e-02 9.328094e-03
<GCONST> 8.061357e-01
<TRANSP> 5
 0.000000e+00 1.000000e+00 0.000000e+00 0.000000e+00 0.000000e+00
 0.000000e+00 6.000000e-01 4.000000e-01 0.000000e+00 0.000000e+00
 0.000000e+00 0.000000e+00 6.000000e-01 4.000000e-01 0.000000e+00
 0.000000e+00 0.000000e+00 0.000000e+00 7.000000e-01 3.000000e-01
 0.000000e+00 0.000000e+00 0.000000e+00 0.000000e+00 0.000000e+00
<ENDHMM>
