~o
<STREAMINFO> 1 32
<VECSIZE> 32<NULLD><FBANK_D><DIAGC>
~h "ctyri"
<BEGINHMM>
<NUMSTATES> 10
<STATE> 2
<MEAN> 32
 5.723213e+00 5.775702e+00 5.993649e+00 6.180802e+00 6.332895e+00 6.546278e+00 6.692913e+00 6.879679e+00 7.228858e+00 7.328553e+00 7.564030e+00 8.092921e+00 8.425768e+00 8.622911e+00 8.573352e+00 8.361124e+00 -2.136553e-03 3.819639e-03 2.506455e-02 4.179522e-02 1.371020e-02 2.379047e-02 4.966734e-02 6.069735e-02 6.758428e-02 1.566953e-01 2.777424e-01 3.796927e-01 3.680506e-01 3.377604e-01 2.338947e-01 1.208635e-01
<VARIANCE> 32
 2.019351e-01 1.407786e-01 1.900589e-01 8.386829e-02 5.426750e-02 4.151036e-02 5.437658e-02 4.652068e-02 7.720255e-02 1.281522e-01 2.138652e-01 6.163627e-01 9.255745e-01 9.650331e-01 6.755502e-01 2.169824e-01 1.149851e-02 1.243898e-02 1.806360e-02 1.283332e-02 7.714784e-03 5.861703e-03 7.769041e-03 9.488310e-03 1.434976e-02 3.915840e-02 7.306074e-02 1.023626e-01 1.066462e-01 1.196956e-01 9.297957e-02 2.861999e-02
<GCONST> -2.904904e+01
<STATE> 3
<MEAN> 32
 5.666406e+00 5.827905e+00 6.022288e+00 6.200508e+00 6.318375e+00 6.526187e+00 6.763359e+00 7.036256e+00 7.597628e+00 8.071336e+00 8.898877e+00 9.763842e+00 1.030403e+01 1.015750e+01 9.583649e+00 9.090406e+00 3.690247e-03 -1.817496e-03 4.862849e-03 -2.651513e-04 -1.313908e-03 -4.036092e-03 -6.232708e-03 2.118535e-03 1.149125e-02 5.466461e-03 4.882611e-03 -5.622968e-03 8.675456e-03 -2.539113e-03 -1.968312e-02 -1.650570e-02
<VARIANCE> 32
 1.184990e-01 6.919232e-02 8.858054e-02 9.219717e-02 6.445299e-02 5.946707e-02 7.473313e-02 1.305672e-01 3.474911e-01 9.173207e-01 1.205054e+00 1.388286e+00 1.580816e+00 1.657989e+00 1.344382e+00 7.478892e-01 1.114792e-02 6.931192e-03 1.170707e-02 1.091344e-02 7.816961e-03 5.672928e-03 8.146183e-03 1.547132e-02 3.436990e-02 8.425861e-02 1.369079e-01 1.609462e-01 1.824767e-01 1.860461e-01 1.455563e-01 8.725270e-02
<GCONST> -1.549755e+01
<STATE> 4
<MEAN> 32
 5.847591e+00 5.900478e+00 6.144009e+00 6.268117e+00 6.395104e+00 6.589380e+00 6.780406e+00 7.211602e+00 7.917863e+00 8.504506e+00 9.057521e+00 9.635212e+00 1.000107e+01 9.903109e+00 9.381834e+00 8.846876e+00 8.595213e-04 6.100679e-03 3.022997e-02 3.828796e-02 2.409587e-02 1.254805e-02 1.260290e-02 4.672974e-02 7.709326e-02 8.029212e-02 6.553285e-02 5.102187e-02 6.256709e-02 5.824614e-02 4.776768e-02 3.385386e-02
<VARIANCE> 32
 2.183889e-01 1.348128e-01 1.603661e-01 1.070801e-01 6.523595e-02 1.010878e-01 8.536573e-02 2.454980e-01 6.603974e-01 1.412728e+00 1.669455e+00 1.766414e+00 1.543535e+00 1.562383e+00 1.235522e+00 5.542787e-01 2.415705e-02 1.729074e-02 2.612607e-02 2.103220e-02 9.597037e-03 9.522995e-03 1.059115e-02 3.339540e-02 9.032038e-02 1.500403e-01 1.554014e-01 1.584639e-01 1.575754e-01 1.613881e-01 1.391227e-01 7.474886e-02
<GCONST> -4.928522e+00
<STATE> 5
<MEAN> 32
 5.662477e+00 5.768796e+00 6.080848e+00 6.339067e+00 6.417628e+00 6.556870e+00 6.765946e+00 7.324502e+00 8.113277e+00 8.734919e+00 9.389785e+00 9.876307e+00 1.001705e+01 9.959954e+00 9.542739e+00 8.951523e+00 2.720941e-02 9.996515e-02 1.460964e-01 1.454063e-01 1.015218e-01 6.225593e-02 9.841210e-02 1.224906e-01 1.476967e-01 1.387407e-01 9.900764e-02 9.146345e-02 1.069404e-01 8.659239e-02 2.769619e-02 2.481194e-02
<VARIANCE> 32
 1.344106e-01 1.567521e-01 3.070344e-01 2.540087e-01 9.388257e-02 1.043099e-01 9.312896e-02 3.231283e-01 8.000536e-01 1.552478e+00 1.872600e+00 2.017231e+00 1.450262e+00 1.486958e+00 1.456293e+00 7.860733e-01 1.788083e-02 3.340892e-02 6.661250e-02 5.371489e-02 1.910714e-02 1.480922e-02 2.329268e-02 5.847054e-02 1.092527e-01 1.381992e-01 1.395868e-01 1.276320e-01 1.267847e-01 1.091297e-01 9.840284e-02 7.794394e-02
<GCONST> 1.524171e+00
<STATE> 6
<MEAN> 32
 5.651192e+00 6.001941e+00 6.690903e+00 7.057200e+00 6.816328e+00 6.976984e+00 7.264840e+00 7.653378e+00 8.300389e+00 8.652293e+00 9.336057e+00 9.813772e+00 1.022702e+01 1.015037e+01 9.828320e+00 9.813122e+00 5.597840e-02 2.301115e-01 2.722605e-01 2.406263e-01 1.396035e-01 9.605766e-02 1.363826e-01 1.774081e-01 2.290485e-01 2.158456e-01 1.465435e-01 1.530981e-01 1.557201e-01 1.289014e-01 6.071318e-02 5.121168e-02
<VARIANCE> 32
 1.707118e-01 2.712596e-01 5.587301e-01 6.720700e-01 1.177274e-01 1.367732e-01 2.130780e-01 3.419496e-01 9.154384e-01 1.257397e+00 2.160869e+00 2.137403e+00 1.910081e+00 1.907277e+00 2.131313e+00 2.353188e+00 2.631246e-02 8.675591e-02 1.589978e-01 1.440131e-01 4.202653e-02 3.028318e-02 4.561792e-02 7.658766e-02 1.666424e-01 1.859204e-01 2.064226e-01 2.081317e-01 2.127530e-01 1.827505e-01 1.413669e-01 1.209001e-01
<GCONST> 1.646757e+01
<STATE> 7
<MEAN> 32
 5.946378e+00 7.119494e+00 8.001245e+00 8.264431e+00 7.498827e+00 7.480822e+00 7.847758e+00 8.332135e+00 9.182759e+00 9.556737e+00 9.870705e+00 1.016576e+01 1.072657e+01 1.057052e+01 9.872225e+00 9.614264e+00 1.983029e-01 4.423600e-01 5.700316e-01 5.627867e-01 2.803011e-01 2.485092e-01 2.376324e-01 2.808466e-01 4.501489e-01 4.654054e-01 3.992692e-01 3.468902e-01 3.308103e-01 2.522003e-01 1.295287e-01 5.978974e-02
<VARIANCE> 32
 4.510761e-01 1.240723e+00 1.461719e+00 1.345182e+00 5.165182e-01 4.503572e-01 4.503852e-01 6.092901e-01 1.253718e+00 1.223076e+00 1.499404e+00 1.413701e+00 1.648946e+00 1.748802e+00 2.031279e+00 1.982236e+00 6.948770e-02 1.495203e-01 2.654277e-01 2.772308e-01 8.906875e-02 7.058471e-02 6.514882e-02 8.646500e-02 1.815605e-01 2.259199e-01 2.281382e-01 1.948379e-01 1.926812e-01 1.729717e-01 1.256220e-01 8.136699e-02
<GCONST> 2.807065e+01
<STATE> 8
<MEAN> 32
 6.807404e+00 8.061707e+00 9.466309e+00 9.630556e+00 8.443853e+00 8.191851e+00 8.362721e+00 9.036325e+00 1.029456e+01 1.071124e+01 1.092059e+01 1.113621e+01 1.166280e+01 1.126448e+01 1.013518e+01 9.329502e+00 -7.810160e-04 -1.784450e-02 4.699301e-03 1.511611e-04 9.996295e-03 6.390102e-04 -6.766530e-03 1.422432e-03 -4.782358e-03 2.192304e-03 -4.041809e-03 -1.276013e-02 -1.323500e-02 -1.456459e-02 -1.561566e-02 -1.911071e-02
<VARIANCE> 32
 7.594690e-01 9.566563e-01 1.821991e+00 1.380169e+00 9.918085e-01 7.302615e-01 5.960212e-01 4.719116e-01 6.238612e-01 6.764415e-01 6.067822e-01 6.203097e-01 6.293350e-01 8.398106e-01 1.499467e+00 1.270349e+00 1.779550e-02 4.202548e-02 8.820728e-02 9.023586e-02 5.395697e-02 3.604176e-02 3.251777e-02 4.109738e-02 4.558831e-02 5.168601e-02 4.003706e-02 4.704689e-02 5.447800e-02 6.047000e-02 8.540662e-02 5.561567e-02
<GCONST> 7.708076e+00
<STATE> 9
<MEAN> 32
 6.449416e+00 7.777477e+00 9.137594e+00 8.897381e+00 7.823233e+00 7.492462e+00 7.688132e+00 8.507747e+00 9.692030e+00 1.020954e+01 9.710039e+00 9.727571e+00 1.015425e+01 9.595986e+00 8.565461e+00 8.423758e+00 -2.909909e-02 -5.599600e-02 -1.052579e-01 -1.104602e-01 -6.756402e-02 -5.587038e-02 -6.213576e-02 -9.291660e-02 -1.106031e-01 -1.089460e-01 -1.000526e-01 -9.835168e-02 -8.868975e-02 -8.120135e-02 -4.677761e-02 -1.609992e-02
<VARIANCE> 32
 2.082960e-01 3.168947e-01 5.962391e-01 5.277913e-01 4.305791e-01 2.929720e-01 2.099140e-01 5.468286e-01 8.524555e-01 6.206549e-01 1.382195e+00 1.406625e+00 1.586799e+00 1.170282e+00 2.034854e-01 1.568533e-01 8.957759e-03 1.636924e-02 2.761537e-02 2.867990e-02 1.678088e-02 1.382569e-02 8.846299e-03 1.289847e-02 2.292288e-02 3.224284e-02 2.673091e-02 2.356921e-02 2.668466e-02 2.376288e-02 8.560855e-03 3.548973e-03
<GCONST> -1.785489e+01
<TRANSP> 10
 0.000000e+00 1.000000e+00 0.000000e+00 0.000000e+00 0.000000e+00 0.000000e+00 0.000000e+00 0.000000e+00 0.000000e+00 0.000000e+00
 0.000000e+00 6.241844e-01 3.758156e-01 0.000000e+00 0.000000e+00 0.000000e+00 0.000000e+00 0.000000e+00 0.000000e+00 0.000000e+00
 0.000000e+00 0.000000e+00 8.590996e-01 1.409004e-01 0.000000e+00 0.000000e+00 0.000000e+00 0.000000e+00 0.000000e+00 0.000000e+00
 0.000000e+00 0.000000e+00 0.000000e+00 6.630760e-01 3.369240e-01 0.000000e+00 0.000000e+00 0.000000e+00 0.000000e+00 0.000000e+00
 0.000000e+00 0.000000e+00 0.000000e+00 0.000000e+00 5.306810e-01 4.693190e-01 0.000000e+00 0.000000e+00 0.000000e+00 0.000000e+00
 0.000000e+00 0.000000e+00 0.000000e+00 0.000000e+00 0.000000e+00 6.187491e-01 3.812509e-01 0.000000e+00 0.000000e+00 0.000000e+00
 0.000000e+00 0.000000e+00 0.000000e+00 0.000000e+00 0.000000e+00 0.000000e+00 7.420643e-01 2.579357e-01 0.000000e+00 0.000000e+00
 0.000000e+00 0.000000e+00 0.000000e+00 0.000000e+00 0.000000e+00 0.000000e+00 0.000000e+00 9.534978e-01 4.650215e-02 0.000000e+00
 0.000000e+00 0.000000e+00 0.000000e+00 0.000000e+00 0.000000e+00 0.000000e+00 0.000000e+00 0.000000e+00 9.479889e-01 5.201109e-02
 0.000000e+00 0.000000e+00 0.000000e+00 0.000000e+00 0.000000e+00 0.000000e+00 0.000000e+00 0.000000e+00 0.000000e+00 0.000000e+00
<ENDHMM>
~h "sedm"
<BEGINHMM>
<NUMSTATES> 10
<STATE> 2
<MEAN> 32
 5.630665e+00 5.777424e+00 5.963149e+00 6.152462e+00 6.279587e+00 6.495268e+00 6.655060e+00 6.954238e+00 7.348099e+00 7.390114e+00 7.575533e+00 7.970243e+00 8.790833e+00 9.060934e+00 9.361399e+00 9.248012e+00 -4.471444e-04 1.068280e-03 2.158957e-04 1.250119e-02 8.393735e-03 -2.352715e-03 9.293037e-03 3.767300e-02 3.840956e-02 6.118952e-02 6.480717e-02 1.100907e-01 1.954153e-01 2.282562e-01 2.417414e-01 2.327445e-01
<VARIANCE> 32
 1.133160e-01 7.233342e-02 8.957893e-02 8.168772e-02 6.224329e-02 4.739396e-02 3.961148e-02 6.063925e-02 6.383053e-02 5.800809e-02 1.266019e-01 1.640162e-01 4.084961e-01 4.621192e-01 6.526394e-01 6.638854e-01 1.307543e-02 7.508813e-03 1.152966e-02 1.046823e-02 7.668726e-03 4.208153e-03 4.180764e-03 5.931383e-03 7.420553e-03 6.864284e-03 9.159123e-03 9.367173e-03 2.672920e-02 3.432578e-02 4.365458e-02 2.664742e-02
<GCONST> -4.693953e+01
<STATE> 3
<MEAN> 32
 5.662099e+00 5.726187e+00 5.960790e+00 6.315736e+00 6.457669e+00 6.609328e+00 6.798971e+00 7.259761e+00 7.701132e+00 7.735789e+00 8.047348e+00 8.622067e+00 9.662302e+00 9.980881e+00 1.004931e+01 9.934183e+00 1.271118e-02 -2.368760e-02 2.074729e-02 5.354096e-02 4.226251e-02 4.931734e-02 6.672055e-02 1.096050e-01 1.129450e-01 1.259462e-01 1.396387e-01 1.586625e-01 1.904096e-01 2.113415e-01 1.499038e-01 1.272861e-01
<VARIANCE> 32
 1.816432e-01 1.184750e-01 1.203291e-01 1.331074e-01 7.720710e-02 6.125688e-02 7.404084e-02 5.435425e-02 7.653977e-02 7.869309e-02 1.849370e-01 2.269316e-01 5.506983e-01 5.547749e-01 7.892547e-01 7.661424e-01 1.797042e-02 7.943038e-03 1.249968e-02 1.571721e-02 8.954336e-03 6.160301e-03 7.794279e-03 1.125814e-02 1.264616e-02 1.754317e-02 1.830166e-02 2.313358e-02 6.607361e-02 8.792441e-02 8.229114e-02 6.483581e-02
<GCONST> -3.310013e+01
<STATE> 4
<MEAN> 32
 5.740451e+00 5.832960e+00 6.145813e+00 6.559391e+00 6.619330e+00 6.930159e+00 7.232699e+00 7.751247e+00 8.268579e+00 8.331134e+00 8.584229e+00 9.172788e+00 1.024807e+01 1.071150e+01 1.043604e+01 1.015907e+01 3.880240e-02 6.142499e-02 1.048457e-01 9.492877e-02 5.810969e-02 6.739648e-02 9.375949e-02 1.162845e-01 1.115680e-01 1.244032e-01 1.424804e-01 1.361036e-01 1.270222e-01 1.570071e-01 1.728691e-01 1.345039e-01
<VARIANCE> 32
 2.864048e-01 1.123950e-01 2.054910e-01 3.771203e-01 1.055151e-01 1.011865e-01 1.455568e-01 1.948648e-01 2.612906e-01 1.913966e-01 2.729720e-01 4.009442e-01 7.143962e-01 6.467807e-01 5.626360e-01 4.361824e-01 3.242019e-02 1.736218e-02 2.664465e-02 2.453846e-02 1.067419e-02 7.844268e-03 1.112681e-02 1.759643e-02 1.410109e-02 1.294606e-02 1.600920e-02 2.233995e-02 4.860104e-02 8.054981e-02 1.041539e-01 9.681235e-02
<GCONST> -2.209439e+01
<STATE> 5
<MEAN> 32
 5.621929e+00 5.909304e+00 6.531651e+00 7.092887e+00 6.893894e+00 7.244851e+00 7.595279e+00 8.109143e+00 8.602075e+00 8.688654e+00 9.031374e+00 9.593049e+00 1.041130e+01 1.122301e+01 1.139748e+01 1.125751e+01 1.605629e-02 9.180392e-02 1.287630e-01 1.465477e-01 1.264149e-01 9.367580e-02 1.300624e-01 1.571948e-01 1.460339e-01 1.148172e-01 1.171518e-01 1.062713e-01 6.757966e-02 2.961800e-02 -1.808451e-02 -1.454494e-02
<VARIANCE> 32
 1.918178e-01 9.465790e-02 3.859248e-01 6.000622e-01 1.282036e-01 1.884875e-01 2.692169e-01 2.293427e-01 3.937201e-01 3.373496e-01 4.187436e-01 4.649629e-01 5.526959e-01 8.449026e-01 1.370165e+00 1.401376e+00 2.013562e-02 4.488857e-02 1.063385e-01 1.080799e-01 3.493119e-02 1.836617e-02 2.935676e-02 4.900359e-02 2.629624e-02 2.355189e-02 2.288190e-02 2.628631e-02 3.280017e-02 3.321971e-02 4.956843e-02 6.233116e-02
<GCONST> -9.706429e+00
<STATE> 6
<MEAN> 32
 6.020681e+00 6.639637e+00 7.298261e+00 7.731955e+00 7.466714e+00 7.472006e+00 7.880535e+00 8.547651e+00 8.850733e+00 8.786497e+00 9.086919e+00 9.501780e+00 1.018256e+01 1.047893e+01 1.037600e+01 1.017511e+01 2.640069e-01 5.926331e-01 7.743869e-01 8.272757e-01 6.231612e-01 4.503472e-01 4.606194e-01 5.909364e-01 4.447870e-01 3.341833e-01 3.359625e-01 2.056040e-01 4.292671e-02 -1.122705e-01 -3.032690e-01 -3.346739e-01
<VARIANCE> 32
 3.528126e-01 7.440104e-01 1.060312e+00 1.037339e+00 4.635357e-01 4.623943e-01 5.673247e-01 6.503518e-01 6.278980e-01 5.795251e-01 9.563619e-01 1.079701e+00 1.001977e+00 1.724401e+00 2.548037e+00 2.276764e+00 5.337425e-02 6.717031e-02 9.997101e-02 1.099187e-01 7.552902e-02 6.517269e-02 7.865749e-02 1.150501e-01 9.784152e-02 7.503605e-02 8.089494e-02 7.702889e-02 8.442160e-02 6.801791e-02 3.732050e-02 3.389198e-02
<GCONST> 1.437266e+01
<STATE> 7
<MEAN> 32
 7.161666e+00 8.472438e+00 9.916007e+00 1.079783e+01 1.049142e+01 9.685624e+00 9.979122e+00 1.099920e+01 1.134359e+01 1.071293e+01 1.124412e+01 1.130590e+01 1.149872e+01 1.132784e+01 1.027374e+01 9.531898e+00 1.023933e-01 1.113009e-01 2.085318e-01 3.153525e-01 3.373394e-01 2.305496e-01 2.433660e-01 2.896267e-01 3.100175e-01 2.902512e-01 2.986296e-01 2.823524e-01 2.237874e-01 1.267611e-01 -1.788858e-02 -7.866451e-02
<VARIANCE> 32
 8.889145e-01 1.029418e+00 1.140039e+00 7.077231e-01 1.316414e+00 7.940934e-01 5.182530e-01 4.397793e-01 1.010697e+00 6.287121e-01 9.127311e-01 9.087305e-01 8.668280e-01 1.197260e+00 1.642786e+00 7.729390e-01 2.861054e-02 7.872280e-02 1.714002e-01 1.927436e-01 2.044557e-01 1.272633e-01 1.233651e-01 1.743352e-01 1.525260e-01 1.093474e-01 1.295967e-01 1.162440e-01 1.067197e-01 1.034288e-01 5.349899e-02 2.806337e-02
<GCONST> 2.041866e+01
<STATE> 8
<MEAN> 32
 7.103695e+00 8.285557e+00 9.204360e+00 9.556671e+00 9.038825e+00 8.552270e+00 8.966712e+00 9.740833e+00 9.967570e+00 9.800232e+00 1.007427e+01 9.960712e+00 1.014736e+01 9.768842e+00 8.939870e+00 8.675632e+00 3.710614e-03 1.492335e-02 -4.920714e-02 -1.190720e-01 -1.239551e-01 -8.483864e-02 -9.190804e-02 -1.318297e-01 -1.340967e-01 -1.090717e-01 -1.223927e-01 -1.361431e-01 -1.361771e-01 -1.286509e-01 -8.967871e-02 -6.213839e-02
<VARIANCE> 32
 7.123503e-01 6.944975e-01 8.794807e-01 8.077313e-01 1.121886e+00 7.695654e-01 7.581733e-01 8.537592e-01 1.200890e+00 1.167479e+00 1.768580e+00 1.775910e+00 2.004001e+00 1.553028e+00 5.952088e-01 2.840093e-01 7.926322e-03 1.934956e-02 7.330180e-02 5.803678e-02 5.373703e-02 5.867988e-02 7.070091e-02 7.262196e-02 7.173568e-02 8.411482e-02 6.866629e-02 7.114555e-02 6.761977e-02 6.451938e-02 3.133351e-02 1.755477e-02
<GCONST> 9.379045e+00
<STATE> 9
<MEAN> 32
 6.657454e+00 8.113072e+00 8.701991e+00 8.668014e+00 8.067991e+00 8.059323e+00 8.374865e+00 8.609294e+00 8.738380e+00 8.867928e+00 8.880672e+00 9.301952e+00 9.658537e+00 9.059804e+00 8.156797e+00 8.127177e+00 -1.769108e-02 -2.460981e-02 -4.958964e-02 -6.031117e-02 -4.606773e-02 -3.103950e-02 -3.999052e-02 -5.694998e-02 -5.221917e-02 -4.823972e-02 -5.737085e-02 -3.847849e-02 -2.728133e-02 -2.331844e-02 -1.120210e-02 -2.987229e-03
<VARIANCE> 32
 3.456580e-01 2.494919e-01 4.779723e-01 4.305964e-01 3.486644e-01 3.875571e-01 5.486994e-01 6.592672e-01 6.371069e-01 6.153191e-01 7.982256e-01 1.255410e+00 1.247061e+00 4.802127e-01 1.077649e-01 8.295868e-02 6.451188e-03 1.110172e-02 2.268324e-02 2.093287e-02 1.278974e-02 1.377423e-02 2.131122e-02 1.975111e-02 1.581137e-02 1.736938e-02 1.462502e-02 2.052614e-02 2.096820e-02 1.454282e-02 3.658865e-03 1.819410e-03
<GCONST> -2.434225e+01
<TRANSP> 10
 0.000000e+00 1.000000e+00 0.000000e+00 0.000000e+00 0.000000e+00 0.000000e+00 0.000000e+00 0.000000e+00 0.000000e+00 0.000000e+00
 0.000000e+00 8.340050e-01 1.659950e-01 0.000000e+00 0.000000e+00 0.000000e+00 0.000000e+00 0.000000e+00 0.000000e+00 0.000000e+00
 0.000000e+00 0.000000e+00 5.358822e-01 4.641178e-01 0.000000e+00 0.000000e+00 0.000000e+00 0.000000e+00 0.000000e+00 0.000000e+00
 0.000000e+00 0.000000e+00 0.000000e+00 6.129521e-01 3.870479e-01 0.000000e+00 0.000000e+00 0.000000e+00 0.000000e+00 0.000000e+00
 0.000000e+00 0.000000e+00 0.000000e+00 0.000000e+00 6.710614e-01 3.289386e-01 0.000000e+00 0.000000e+00 0.000000e+00 0.000000e+00
 0.000000e+00 0.000000e+00 0.000000e+00 0.000000e+00 0.000000e+00 5.513465e-01 4.486535e-01 0.000000e+00 0.000000e+00 0.000000e+00
 0.000000e+00 0.000000e+00 0.000000e+00 0.000000e+00 0.000000e+00 0.000000e+00 7.859614e-01 2.140386e-01 0.000000e+00 0.000000e+00
 0.000000e+00 0.000000e+00 0.000000e+00 0.000000e+00 0.000000e+00 0.000000e+00 0.000000e+00 9.219853e-01 7.801469e-02 0.000000e+00
 0.000000e+00 0.000000e+00 0.000000e+00 0.000000e+00 0.000000e+00 0.000000e+00 0.000000e+00 0.000000e+00 9.644029e-01 3.559716e-02
 0.000000e+00 0.000000e+00 0.000000e+00 0.000000e+00 0.000000e+00 0.000000e+00 0.000000e+00 0.000000e+00 0.000000e+00 0.000000e+00
<ENDHMM>
~h "sest"
<BEGINHMM>
<NUMSTATES> 10
<STATE> 2
<MEAN> 32
 5.517677e+00 5.728237e+00 5.938759e+00 6.119800e+00 6.268764e+00 6.537963e+00 6.613137e+00 6.848044e+00 7.233915e+00 7.248060e+00 7.484764e+00 7.840852e+00 8.146404e+00 8.174802e+00 8.075497e+00 8.143620e+00 9.851812e-03 -4.304288e-03 -3.218632e-04 1.200490e-02 1.852970e-02 1.294791e-02 3.228595e-02 6.758329e-02 1.376861e-01 2.511239e-01 3.401436e-01 4.348355e-01 4.491192e-01 4.443698e-01 2.913040e-01 8.147320e-02
<VARIANCE> 32
 1.356336e-01 1.207438e-01 1.085213e-01 9.471168e-02 5.818316e-02 7.858662e-02 7.465845e-02 4.350715e-02 5.419583e-02 8.783866e-02 1.268540e-01 2.229254e-01 3.711905e-01 3.772005e-01 1.756050e-01 8.743516e-02 6.324199e-03 1.470412e-02 1.256302e-02 1.558555e-02 5.805102e-03 5.585320e-03 5.137614e-03 4.180406e-03 1.259643e-02 2.068914e-02 2.754552e-02 2.863485e-02 2.827274e-02 4.284555e-02 3.075772e-02 4.749154e-03
<GCONST> -4.590186e+01
<STATE> 3
<MEAN> 32
 5.571679e+00 5.678128e+00 5.939348e+00 6.182974e+00 6.384303e+00 6.531982e+00 6.688598e+00 7.034147e+00 7.658628e+00 8.027738e+00 8.425718e+00 8.986386e+00 9.202590e+00 9.293099e+00 8.947733e+00 8.391933e+00 4.746346e-02 1.008248e-02 2.661765e-02 5.745909e-02 3.961983e-02 -1.157808e-02 3.056410e-02 1.112635e-01 2.601208e-01 4.391041e-01 5.285003e-01 5.922445e-01 5.801912e-01 5.573386e-01 4.678741e-01 2.351336e-01
<VARIANCE> 32
 1.487313e-01 1.097278e-01 9.881353e-02 1.353399e-01 7.960006e-02 6.589130e-02 5.852563e-02 7.739078e-02 1.779484e-01 2.904292e-01 3.194693e-01 4.962156e-01 5.376897e-01 7.428115e-01 5.674924e-01 1.217446e-01 9.827774e-03 1.085077e-02 9.344084e-03 1.213692e-02 7.322071e-03 7.883617e-03 7.936697e-03 8.857924e-03 2.778494e-02 3.140441e-02 2.763250e-02 3.322235e-02 3.988519e-02 3.666581e-02 2.252024e-02 1.096427e-02
<GCONST> -3.508468e+01
<STATE> 4
<MEAN> 32
 5.695766e+00 5.774623e+00 5.952284e+00 6.207593e+00 6.368453e+00 6.494112e+00 6.734695e+00 7.270982e+00 8.150323e+00 8.877769e+00 9.464429e+00 1.008769e+01 1.032746e+01 1.031272e+01 9.792519e+00 9.035419e+00 2.988709e-02 2.873449e-02 3.648571e-02 4.393695e-02 2.305958e-02 2.439886e-02 4.121877e-02 1.181810e-01 1.886980e-01 3.265947e-01 3.726901e-01 4.112118e-01 4.180644e-01 3.878005e-01 3.475801e-01 2.866044e-01
<VARIANCE> 32
 1.195663e-01 1.045665e-01 9.010698e-02 1.829189e-01 6.843568e-02 7.282459e-02 8.599921e-02 1.058746e-01 3.046736e-01 4.013616e-01 2.593879e-01 4.307007e-01 3.983285e-01 4.362844e-01 3.160946e-01 2.161834e-01 1.319496e-02 1.023357e-02 8.846713e-03 1.303394e-02 8.411423e-03 6.233764e-03 8.697265e-03 1.613406e-02 2.626279e-02 3.847894e-02 4.898933e-02 6.005795e-02 6.048373e-02 5.827698e-02 5.897710e-02 2.438339e-02
<GCONST> -3.002581e+01
<STATE> 5
<MEAN> 32
 5.734799e+00 5.855777e+00 6.091761e+00 6.346277e+00 6.414298e+00 6.631538e+00 6.908514e+00 7.641709e+00 8.615863e+00 9.495984e+00 1.014914e+01 1.091211e+01 1.125202e+01 1.116779e+01 1.066504e+01 9.833138e+00 3.033567e-03 7.969424e-03 3.208540e-02 4.059044e-02 2.140670e-02 3.401646e-02 4.798968e-02 1.013765e-01 1.156685e-01 1.135790e-01 1.410142e-01 1.327430e-01 1.385351e-01 1.250216e-01 1.311816e-01 1.542042e-01
<VARIANCE> 32
 1.167210e-01 8.536051e-02 1.068149e-01 1.893656e-01 1.005979e-01 1.106242e-01 1.204805e-01 1.550228e-01 4.011109e-01 4.988370e-01 2.133744e-01 3.798372e-01 4.155204e-01 3.998931e-01 2.967763e-01 2.639956e-01 1.056162e-02 1.158025e-02 1.311811e-02 1.394997e-02 9.455407e-03 7.335902e-03 7.266941e-03 9.921372e-03 1.486004e-02 2.648442e-02 4.109649e-02 5.094150e-02 5.441944e-02 5.301691e-02 5.947422e-02 4.621752e-02
<GCONST> -2.912192e+01
<STATE> 6
<MEAN> 32
 5.710983e+00 5.900901e+00 6.567349e+00 6.934554e+00 6.776595e+00 6.979241e+00 7.271408e+00 8.066590e+00 9.155497e+00 9.983983e+00 1.075396e+01 1.119049e+01 1.154725e+01 1.138141e+01 1.109507e+01 1.063403e+01 3.579042e-02 1.302532e-01 2.071892e-01 1.997629e-01 1.410544e-01 1.094256e-01 8.984577e-02 9.651943e-02 7.432696e-02 -1.114553e-02 -2.540018e-02 -7.553893e-02 -8.361977e-02 -1.224401e-01 -1.335279e-01 -8.342309e-02
<VARIANCE> 32
 1.131812e-01 9.524086e-02 3.658690e-01 6.729216e-01 2.226008e-01 1.900044e-01 1.887356e-01 2.358268e-01 3.734956e-01 5.097029e-01 7.486305e-01 8.057296e-01 1.126013e+00 1.131740e+00 1.560144e+00 1.974476e+00 1.394322e-02 3.753751e-02 5.911256e-02 6.867751e-02 2.997119e-02 1.539562e-02 1.543002e-02 2.635296e-02 3.221849e-02 3.722356e-02 4.928498e-02 6.954822e-02 7.444841e-02 8.985330e-02 1.085973e-01 9.905048e-02
<GCONST> -4.683560e+00
<STATE> 7
<MEAN> 32
 6.368070e+00 7.495445e+00 8.620258e+00 9.242027e+00 8.703060e+00 8.352704e+00 8.513041e+00 9.386086e+00 1.024231e+01 1.051691e+01 1.094106e+01 1.109343e+01 1.124099e+01 1.085353e+01 1.014770e+01 9.722183e+00 1.697417e-01 3.274304e-01 4.780653e-01 5.713996e-01 5.446442e-01 3.924336e-01 3.895574e-01 4.504417e-01 3.891530e-01 2.746258e-01 1.733286e-01 1.087995e-01 7.862793e-02 -7.434480e-03 -1.366943e-01 -1.528061e-01
<VARIANCE> 32
 6.589167e-01 1.496711e+00 1.737560e+00 2.013918e+00 2.167256e+00 1.107353e+00 9.881536e-01 1.219507e+00 1.194993e+00 1.181141e+00 1.423353e+00 1.229425e+00 1.243419e+00 1.612630e+00 2.586488e+00 2.415976e+00 4.136254e-02 1.219736e-01 1.366771e-01 1.668467e-01 1.231775e-01 6.129397e-02 5.150000e-02 7.597235e-02 8.459592e-02 6.323880e-02 6.594549e-02 6.332356e-02 7.403755e-02 7.331246e-02 6.255624e-02 4.131093e-02
<GCONST> 2.316146e+01
<STATE> 8
<MEAN> 32
 6.597786e+00 7.644785e+00 8.975525e+00 9.902814e+00 9.781035e+00 9.213591e+00 9.336350e+00 1.026306e+01 1.065244e+01 1.043308e+01 1.061584e+01 1.070721e+01 1.104853e+01 1.074943e+01 9.801740e+00 9.280909e+00 -3.937470e-02 -7.933975e-02 -1.047075e-01 -1.084257e-01 -9.603100e-02 -7.348304e-02 -7.664450e-02 -1.022757e-01 -1.125652e-01 -1.094549e-01 -9.662960e-02 -8.320838e-02 -5.878150e-02 -5.668515e-03 5.178930e-02 6.332306e-02
<VARIANCE> 32
 5.651773e-01 8.586689e-01 9.094088e-01 1.027658e+00 1.804833e+00 1.361479e+00 8.635878e-01 9.620050e-01 1.489126e+00 1.252643e+00 1.881786e+00 1.455182e+00 1.386752e+00 1.616472e+00 1.954605e+00 1.606514e+00 1.465013e-02 2.282604e-02 3.459395e-02 3.833749e-02 4.388328e-02 3.171724e-02 2.947993e-02 3.772431e-02 3.135689e-02 2.525680e-02 2.635179e-02 2.402470e-02 2.832827e-02 3.364828e-02 3.331226e-02 3.087558e-02
<GCONST> 5.968959e+00
<STATE> 9
<MEAN> 32
 5.626346e+00 5.862341e+00 6.407838e+00 7.040596e+00 7.089435e+00 6.988415e+00 7.169962e+00 7.736461e+00 8.086970e+00 8.051044e+00 8.439820e+00 8.962256e+00 9.805699e+00 1.038446e+01 1.045799e+01 1.022529e+01 -2.119739e-02 -3.633586e-02 -7.518587e-02 -9.708033e-02 -8.777500e-02 -6.684653e-02 -6.677917e-02 -9.007838e-02 -8.689124e-02 -9.241048e-02 -9.748989e-02 -9.869602e-02 -1.026274e-01 -1.134909e-01 -1.149407e-01 -9.733788e-02
<VARIANCE> 32
 1.389920e-01 1.214760e-01 2.589410e-01 4.733843e-01 4.006735e-01 2.691938e-01 2.227748e-01 3.004625e-01 4.224560e-01 3.567969e-01 3.760894e-01 4.340049e-01 6.773642e-01 8.875549e-01 9.194978e-01 8.063499e-01 1.221424e-02 1.239625e-02 1.584375e-02 2.059867e-02 1.475782e-02 1.192651e-02 9.160917e-03 1.581245e-02 1.269333e-02 1.249164e-02 1.322889e-02 1.524158e-02 2.910288e-02 4.913235e-02 5.187913e-02 4.489820e-02
<GCONST> -2.099073e+01
<TRANSP> 10
 0.000000e+00 1.000000e+00 0.000000e+00 0.000000e+00 0.000000e+00 0.000000e+00 0.000000e+00 0.000000e+00 0.000000e+00 0.000000e+00
 0.000000e+00 4.461171e-01 5.538829e-01 0.000000e+00 0.000000e+00 0.000000e+00 0.000000e+00 0.000000e+00 0.000000e+00 0.000000e+00
 0.000000e+00 0.000000e+00 4.161646e-01 5.838354e-01 0.000000e+00 0.000000e+00 0.000000e+00 0.000000e+00 0.000000e+00 0.000000e+00
 0.000000e+00 0.000000e+00 0.000000e+00 5.706307e-01 4.293692e-01 0.000000e+00 0.000000e+00 0.000000e+00 0.000000e+00 0.000000e+00
 0.000000e+00 0.000000e+00 0.000000e+00 0.000000e+00 7.622160e-01 2.377839e-01 0.000000e+00 0.000000e+00 0.000000e+00 0.000000e+00
 0.000000e+00 0.000000e+00 0.000000e+00 0.000000e+00 0.000000e+00 6.905734e-01 3.094267e-01 0.000000e+00 0.000000e+00 0.000000e+00
 0.000000e+00 0.000000e+00 0.000000e+00 0.000000e+00 0.000000e+00 0.000000e+00 8.169411e-01 1.830588e-01 0.000000e+00 0.000000e+00
 0.000000e+00 0.000000e+00 0.000000e+00 0.000000e+00 0.000000e+00 0.000000e+00 0.000000e+00 9.540764e-01 4.592359e-02 0.000000e+00
 0.000000e+00 0.000000e+00 0.000000e+00 0.000000e+00 0.000000e+00 0.000000e+00 0.000000e+00 0.000000e+00 9.371775e-01 6.282249e-02
 0.000000e+00 0.000000e+00 0.000000e+00 0.000000e+00 0.000000e+00 0.000000e+00 0.000000e+00 0.000000e+00 0.000000e+00 0.000000e+00
<ENDHMM>
~h "dva"
<BEGINHMM>
<NUMSTATES> 10
<STATE> 2
<MEAN> 32
 5.934287e+00 6.684677e+00 6.961785e+00 6.864930e+00 6.554080e+00 6.567981e+00 6.713781e+00 6.850616e+00 7.175074e+00 7.118611e+00 7.205918e+00 7.406020e+00 7.671270e+00 7.810170e+00 7.885900e+00 8.032238e+00 9.334031e-02 1.800925e-01 2.197997e-01 1.928513e-01 1.024704e-01 6.107363e-02 6.659530e-02 6.701608e-02 7.074778e-02 7.451216e-02 7.373379e-02 8.649807e-02 7.994075e-02 6.497449e-02 2.898265e-02 1.104663e-02
<VARIANCE> 32
 1.844877e-01 4.227388e-01 5.936229e-01 3.887395e-01 1.265057e-01 1.256939e-01 9.414692e-02 8.110963e-02 8.029348e-02 8.744936e-02 7.295346e-02 7.001919e-02 8.860290e-02 1.422822e-01 9.458821e-02 9.530211e-02 1.708875e-02 5.218390e-02 4.616195e-02 3.121931e-02 1.591059e-02 1.654218e-02 1.481735e-02 1.751556e-02 1.605460e-02 2.130902e-02 1.810520e-02 2.137888e-02 2.856687e-02 1.796779e-02 5.938855e-03 2.343373e-03
<GCONST> -3.819809e+01
<STATE> 3
<MEAN> 32
 6.014635e+00 6.655368e+00 6.766006e+00 6.774175e+00 6.564473e+00 6.734489e+00 7.035503e+00 7.184803e+00 7.445093e+00 7.397808e+00 7.558164e+00 7.745726e+00 7.996426e+00 7.998951e+00 7.984239e+00 8.119755e+00 1.496211e-01 2.457623e-01 3.275835e-01 3.248924e-01 2.402683e-01 2.322173e-01 2.816363e-01 3.224938e-01 2.827096e-01 3.145814e-01 3.047609e-01 3.056735e-01 3.391914e-01 2.474478e-01 1.096798e-01 5.438518e-02
<VARIANCE> 32
 1.648222e-01 3.144447e-01 4.385038e-01 2.944955e-01 9.305581e-02 1.661442e-01 2.797508e-01 3.161086e-01 1.967801e-01 2.075157e-01 3.196388e-01 3.984528e-01 4.415832e-01 2.764024e-01 1.859105e-01 1.744908e-01 6.411853e-02 1.148226e-01 9.354778e-02 7.428329e-02 2.922176e-02 2.948365e-02 2.195869e-02 4.661750e-02 6.367227e-02 5.379203e-02 7.352001e-02 1.065588e-01 1.125230e-01 6.538206e-02 1.853708e-02 9.056903e-03
<GCONST> -1.153212e+01
<STATE> 4
<MEAN> 32
 6.149898e+00 7.040630e+00 7.494300e+00 7.515764e+00 7.125044e+00 7.244112e+00 7.528799e+00 7.679695e+00 7.932948e+00 8.044173e+00 8.162654e+00 8.518091e+00 8.693048e+00 8.454090e+00 8.152323e+00 8.224373e+00 1.587548e-01 2.557656e-01 4.152929e-01 4.627776e-01 3.447453e-01 3.054173e-01 3.371364e-01 3.458367e-01 2.970154e-01 3.294805e-01 3.139321e-01 3.259343e-01 3.565029e-01 2.714729e-01 1.046328e-01 6.719722e-02
<VARIANCE> 32
 2.565784e-01 6.172181e-01 6.357285e-01 5.353879e-01 2.170423e-01 2.500764e-01 2.438152e-01 2.957103e-01 3.178419e-01 4.125296e-01 4.757782e-01 5.645977e-01 5.455130e-01 4.212145e-01 2.802171e-01 2.379030e-01 7.780959e-02 1.030513e-01 1.143277e-01 1.103259e-01 8.183341e-02 5.050204e-02 6.988912e-02 1.217373e-01 1.170495e-01 1.240979e-01 1.374932e-01 1.459390e-01 1.231111e-01 6.421594e-02 2.857783e-02 1.436995e-02
<GCONST> 2.590203e+00
<STATE> 5
<MEAN> 32
 6.416104e+00 7.425045e+00 8.037972e+00 8.149181e+00 7.513530e+00 7.544105e+00 7.974694e+00 8.175441e+00 8.143672e+00 8.370805e+00 8.467842e+00 8.831472e+00 8.992508e+00 8.642472e+00 8.157286e+00 8.172619e+00 9.018748e-02 1.093290e-01 1.890746e-01 2.702552e-01 2.892566e-01 2.739730e-01 2.845258e-01 2.146933e-01 1.265312e-01 1.887009e-01 1.735754e-01 1.940199e-01 1.826744e-01 1.360958e-01 6.516211e-02 4.945078e-02
<VARIANCE> 32
 3.627008e-01 4.067380e-01 5.903320e-01 5.775852e-01 3.861775e-01 3.799969e-01 3.731380e-01 5.922213e-01 5.503843e-01 4.329630e-01 5.512083e-01 6.877471e-01 7.300454e-01 5.270999e-01 2.377216e-01 1.868213e-01 2.894295e-02 4.662953e-02 1.148193e-01 1.597388e-01 1.459282e-01 9.692241e-02 1.168106e-01 1.659902e-01 1.314439e-01 1.509016e-01 1.644596e-01 1.731430e-01 1.380820e-01 8.593252e-02 3.509307e-02 2.449681e-02
<GCONST> 8.139957e+00
<STATE> 6
<MEAN> 32
 6.872084e+00 7.762319e+00 8.595311e+00 8.791568e+00 8.326435e+00 8.481364e+00 8.925339e+00 8.806856e+00 8.623950e+00 8.725196e+00 8.854712e+00 9.084143e+00 9.402569e+00 8.996832e+00 8.356676e+00 8.288791e+00 4.475989e-02 3.796196e-02 7.894766e-02 2.078079e-01 3.007302e-01 2.884682e-01 3.049027e-01 2.050512e-01 1.177614e-01 1.679328e-01 1.498311e-01 1.568901e-01 1.469940e-01 1.110820e-01 4.556312e-02 2.274476e-02
<VARIANCE> 32
 4.658753e-01 3.940998e-01 4.257542e-01 7.855256e-01 7.989306e-01 6.837304e-01 6.089145e-01 5.459948e-01 5.785549e-01 5.579831e-01 6.401476e-01 8.075218e-01 7.868922e-01 5.751805e-01 4.762792e-01 3.187512e-01 1.190362e-02 1.281130e-02 6.345601e-02 1.400679e-01 1.554278e-01 1.121440e-01 1.014168e-01 1.248374e-01 1.083580e-01 1.093266e-01 1.107941e-01 1.327170e-01 1.255442e-01 9.240504e-02 2.385145e-02 1.667211e-02
<GCONST> 6.975430e+00
<STATE> 7
<MEAN> 32
 7.835803e+00 8.804958e+00 9.950930e+00 1.081602e+01 1.103811e+01 1.086848e+01 1.126769e+01 1.110703e+01 1.024223e+01 1.018552e+01 1.071095e+01 1.087738e+01 1.124335e+01 1.088830e+01 1.014816e+01 9.410517e+00 1.739194e-02 1.453803e-02 4.240618e-02 1.160221e-01 2.708296e-01 2.656474e-01 2.331814e-01 2.320324e-01 1.678383e-01 1.658746e-01 1.895010e-01 1.964683e-01 2.035846e-01 1.520265e-01 9.108597e-02 2.222547e-02
<VARIANCE> 32
 8.434749e-01 9.227881e-01 8.089096e-01 5.960019e-01 1.314484e+00 1.540705e+00 1.357188e+00 1.533152e+00 8.906435e-01 5.697911e-01 9.884558e-01 1.096174e+00 1.150826e+00 9.988444e-01 1.756941e+00 8.866181e-01 7.742939e-03 8.326213e-03 3.454782e-02 7.431732e-02 1.239946e-01 8.927801e-02 8.091126e-02 8.365513e-02 4.402339e-02 5.031816e-02 6.593318e-02 5.587424e-02 6.319717e-02 5.119880e-02 2.638597e-02 1.566478e-02
<GCONST> 8.900719e+00
<STATE> 8
<MEAN> 32
 6.634618e+00 7.568500e+00 8.489019e+00 9.633439e+00 1.052877e+01 1.068930e+01 1.105372e+01 1.065292e+01 9.824346e+00 1.009875e+01 1.018933e+01 1.068740e+01 1.118198e+01 1.034237e+01 8.947396e+00 8.524393e+00 -3.508299e-02 -3.594067e-02 -8.140025e-02 -1.016090e-01 -1.108429e-01 -8.564929e-02 -8.933324e-02 -8.785457e-02 -7.978030e-02 -9.631859e-02 -9.209617e-02 -9.108233e-02 -8.029643e-02 -6.928449e-02 -4.900492e-02 -2.869669e-02
<VARIANCE> 32
 3.658652e-01 3.849013e-01 5.130289e-01 5.090297e-01 6.872368e-01 7.093786e-01 7.486646e-01 1.375520e+00 5.450245e-01 6.050464e-01 1.635981e+00 1.490098e+00 1.762090e+00 1.017403e+00 7.369013e-01 2.962654e-01 1.232406e-02 1.081797e-02 1.782749e-02 2.374762e-02 2.943910e-02 2.839296e-02 3.178728e-02 3.188790e-02 2.042701e-02 2.180059e-02 2.465581e-02 3.078198e-02 3.409863e-02 2.800804e-02 1.293367e-02 7.654575e-03
<GCONST> -8.081988e+00
<STATE> 9
<MEAN> 32
 5.872861e+00 6.416594e+00 6.623744e+00 7.464466e+00 8.375717e+00 8.664064e+00 8.714380e+00 8.396459e+00 7.855253e+00 7.950173e+00 8.224257e+00 8.541280e+00 9.048619e+00 8.484478e+00 7.934236e+00 7.999437e+00 -7.925557e-02 -1.337056e-01 -1.655826e-01 -1.970371e-01 -1.951393e-01 -2.043864e-01 -2.112978e-01 -1.835660e-01 -1.415311e-01 -1.514584e-01 -1.501215e-01 -1.594767e-01 -1.767179e-01 -1.482192e-01 -4.970840e-02 -9.657264e-03
<VARIANCE> 32
 2.973966e-01 5.078332e-01 3.977025e-01 6.348844e-01 6.192678e-01 4.441783e-01 4.174571e-01 5.911307e-01 3.039441e-01 3.751181e-01 4.868037e-01 3.143210e-01 3.874272e-01 2.876820e-01 1.091586e-01 1.046030e-01 1.417867e-02 1.908884e-02 2.182858e-02 2.080683e-02 1.396476e-02 1.224073e-02 1.638494e-02 1.624488e-02 9.248958e-03 7.096720e-03 9.333478e-03 8.538621e-03 8.335952e-03 9.048642e-03 5.097623e-03 1.330131e-03
<GCONST> -3.113965e+01
<TRANSP> 10
 0.000000e+00 1.000000e+00 0.000000e+00 0.000000e+00 0.000000e+00 0.000000e+00 0.000000e+00 0.000000e+00 0.000000e+00 0.000000e+00
 0.000000e+00 6.210281e-01 3.789719e-01 0.000000e+00 0.000000e+00 0.000000e+00 0.000000e+00 0.000000e+00 0.000000e+00 0.000000e+00
 0.000000e+00 0.000000e+00 2.693008e-01 7.306992e-01 0.000000e+00 0.000000e+00 0.000000e+00 0.000000e+00 0.000000e+00 0.000000e+00
 0.000000e+00 0.000000e+00 0.000000e+00 3.602324e-01 6.397676e-01 0.000000e+00 0.000000e+00 0.000000e+00 0.000000e+00 0.000000e+00
 0.000000e+00 0.000000e+00 0.000000e+00 0.000000e+00 6.432987e-01 3.567014e-01 0.000000e+00 0.000000e+00 0.000000e+00 0.000000e+00
 0.000000e+00 0.000000e+00 0.000000e+00 0.000000e+00 0.000000e+00 7.389229e-01 2.610772e-01 0.000000e+00 0.000000e+00 0.000000e+00
 0.000000e+00 0.000000e+00 0.000000e+00 0.000000e+00 0.000000e+00 0.000000e+00 8.295712e-01 1.704288e-01 0.000000e+00 0.000000e+00
 0.000000e+00 0.000000e+00 0.000000e+00 0.000000e+00 0.000000e+00 0.000000e+00 0.000000e+00 9.443704e-01 5.562963e-02 0.000000e+00
 0.000000e+00 0.000000e+00 0.000000e+00 0.000000e+00 0.000000e+00 0.000000e+00 0.000000e+00 0.000000e+00 8.738225e-01 1.261774e-01
 0.000000e+00 0.000000e+00 0.000000e+00 0.000000e+00 0.000000e+00 0.000000e+00 0.000000e+00 0.000000e+00 0.000000e+00 0.000000e+00
<ENDHMM>
~h "osm"
<BEGINHMM>
<NUMSTATES> 10
<STATE> 2
<MEAN> 32
 5.603660e+00 5.794002e+00 6.025405e+00 6.115081e+00 6.236687e+00 6.532256e+00 6.710722e+00 6.791674e+00 7.078734e+00 7.069720e+00 7.218388e+00 7.451889e+00 7.621677e+00 7.794926e+00 7.974825e+00 8.155179e+00 2.377475e-02 3.983339e-02 1.352054e-01 2.500780e-01 2.288778e-01 2.154055e-01 1.164314e-01 5.645716e-02 3.079244e-02 4.928504e-02 4.143014e-02 5.862424e-02 8.668032e-02 5.391227e-02 1.405014e-02 1.274098e-02
<VARIANCE> 32
 1.110254e-01 8.385305e-02 6.927643e-02 6.296901e-02 7.579124e-02 1.190294e-01 6.877358e-02 1.098240e-01 1.517579e-01 8.590976e-02 1.336707e-01 1.508922e-01 1.473856e-01 2.253059e-01 3.133886e-01 2.922810e-01 1.377317e-02 9.467394e-03 3.190525e-02 4.531460e-02 4.025966e-02 3.522405e-02 2.039800e-02 9.496350e-03 7.901091e-03 7.594950e-03 4.019298e-03 7.353238e-03 9.173582e-03 6.054799e-03 3.988995e-03 2.111518e-03
<GCONST> -4.715702e+01
<STATE> 3
<MEAN> 32
 5.275076e+00 5.623458e+00 5.891442e+00 6.133777e+00 6.226085e+00 6.455352e+00 6.616761e+00 6.736011e+00 6.972013e+00 6.909990e+00 7.180133e+00 7.562842e+00 8.022892e+00 8.190816e+00 8.305180e+00 8.358488e+00 2.205201e-02 1.298015e-01 2.719634e-01 4.391907e-01 4.508917e-01 3.911662e-01 2.632608e-01 1.360402e-01 1.010266e-01 1.398152e-01 1.786212e-01 2.629504e-01 3.075821e-01 2.104327e-01 1.161109e-01 1.033566e-01
<VARIANCE> 32
 2.639353e-01 1.880870e-01 1.312058e-01 2.110220e-01 2.198227e-01 2.371064e-01 1.607684e-01 1.579892e-01 2.449381e-01 2.290475e-01 1.252154e-01 1.979886e-01 5.746642e-01 6.155438e-01 6.287207e-01 5.647476e-01 1.316921e-02 2.889497e-02 7.417147e-02 1.318379e-01 1.161624e-01 1.201034e-01 8.203354e-02 2.573615e-02 2.907732e-02 2.361037e-02 2.892102e-02 5.826008e-02 6.547841e-02 5.282730e-02 3.611777e-02 2.811585e-02
<GCONST> -1.222054e+01
<STATE> 4
<MEAN> 32
 5.709605e+00 6.247071e+00 7.098931e+00 7.788257e+00 7.727204e+00 7.820118e+00 7.432040e+00 7.109528e+00 7.409162e+00 7.546658e+00 7.435253e+00 7.715527e+00 8.289907e+00 8.109017e+00 8.123566e+00 8.369702e+00 1.407749e-01 3.686670e-01 6.090717e-01 7.888053e-01 7.548549e-01 7.151428e-01 5.775025e-01 3.486689e-01 2.349610e-01 3.318294e-01 3.600279e-01 4.572023e-01 5.236732e-01 3.073752e-01 1.069909e-01 5.595455e-02
<VARIANCE> 32
 2.213919e-01 4.130108e-01 1.111205e+00 1.259018e+00 7.007415e-01 6.632006e-01 4.296988e-01 1.473180e-01 1.133481e-01 2.153732e-01 6.139284e-02 1.703584e-01 2.516623e-01 1.876477e-01 2.950024e-01 2.870109e-01 1.087202e-02 2.003963e-02 4.433548e-02 1.333574e-01 1.740837e-01 1.411379e-01 1.248273e-01 5.177272e-02 2.060932e-02 4.640833e-02 9.223575e-02 1.634067e-01 1.217197e-01 6.097637e-02 8.759616e-03 5.659420e-03
<GCONST> -8.838034e+00
<STATE> 5
<MEAN> 32
 5.837044e+00 6.714987e+00 7.774918e+00 8.626653e+00 8.810494e+00 8.846114e+00 8.472346e+00 7.725733e+00 7.627651e+00 7.879135e+00 8.222999e+00 8.899345e+00 9.244437e+00 8.737360e+00 8.325003e+00 8.376773e+00 2.722858e-01 4.583973e-01 6.769587e-01 8.791115e-01 8.995439e-01 8.928525e-01 7.981325e-01 5.200303e-01 3.598976e-01 4.466519e-01 5.834289e-01 7.182809e-01 7.354321e-01 5.013610e-01 1.919942e-01 7.902108e-02
<VARIANCE> 32
 2.903801e-01 5.370189e-01 1.143630e+00 1.301481e+00 9.817858e-01 9.421903e-01 1.137926e+00 4.398026e-01 1.803129e-01 3.911233e-01 5.697576e-01 1.135430e+00 6.739410e-01 4.406937e-01 3.364310e-01 3.111778e-01 2.332480e-02 5.308047e-02 9.634669e-02 2.010773e-01 2.221195e-01 1.583661e-01 1.542259e-01 6.062316e-02 3.197394e-02 6.944818e-02 1.126999e-01 1.883832e-01 1.680355e-01 7.602809e-02 2.541734e-02 5.957703e-03
<GCONST> 8.247448e+00
<STATE> 6
<MEAN> 32
 6.421402e+00 7.463282e+00 8.799981e+00 9.959818e+00 1.006970e+01 1.014423e+01 9.740777e+00 8.766788e+00 8.428594e+00 8.758160e+00 9.278508e+00 1.004798e+01 1.047607e+01 9.657728e+00 8.717271e+00 8.504919e+00 2.811440e-01 4.299127e-01 6.110358e-01 7.090492e-01 7.036064e-01 7.060646e-01 6.764532e-01 5.213885e-01 4.117685e-01 4.536101e-01 5.871938e-01 6.490833e-01 6.606146e-01 4.891654e-01 2.148249e-01 1.122695e-01
<VARIANCE> 32
 2.661471e-01 2.864984e-01 3.331763e-01 5.061499e-01 7.665232e-01 5.976043e-01 1.316335e+00 5.964046e-01 2.560440e-01 4.523726e-01 9.827150e-01 1.725012e+00 8.224465e-01 9.393847e-01 9.115473e-01 3.809099e-01 3.808011e-02 8.194456e-02 8.302890e-02 1.622185e-01 1.625420e-01 1.214863e-01 1.284289e-01 4.840065e-02 2.850905e-02 4.230957e-02 6.987686e-02 1.125381e-01 1.235445e-01 6.803963e-02 3.720238e-02 8.863127e-03
<GCONST> 7.047597e+00
<STATE> 7
<MEAN> 32
 6.762350e+00 7.904401e+00 9.411095e+00 1.046484e+01 1.074484e+01 1.077291e+01 1.019893e+01 9.266363e+00 8.977008e+00 9.174277e+00 9.924920e+00 1.067600e+01 1.126053e+01 1.049137e+01 8.981738e+00 8.614816e+00 7.469864e-02 9.192996e-02 1.302539e-01 8.972310e-02 7.180529e-02 8.540002e-02 1.161601e-01 1.320198e-01 1.349514e-01 1.363517e-01 1.794762e-01 1.832900e-01 1.851440e-01 1.814707e-01 1.091441e-01 8.304742e-02
<VARIANCE> 32
 2.392235e-01 5.352330e-01 4.994442e-01 6.481646e-01 9.472557e-01 7.657434e-01 1.152267e+00 5.267985e-01 3.084813e-01 4.244277e-01 1.013168e+00 1.596377e+00 8.953688e-01 8.847275e-01 7.671829e-01 2.705822e-01 2.613680e-02 5.065591e-02 7.683842e-02 8.726937e-02 9.300895e-02 7.259701e-02 5.174429e-02 2.645486e-02 3.256317e-02 3.945293e-02 4.007444e-02 3.489585e-02 3.797644e-02 2.892644e-02 2.373595e-02 2.123253e-02
<GCONST> 5.910249e-01
<STATE> 8
<MEAN> 32
 6.320705e+00 7.173035e+00 8.021880e+00 8.637372e+00 8.514352e+00 8.674132e+00 8.835070e+00 8.750195e+00 8.716409e+00 8.892632e+00 9.519210e+00 1.012538e+01 1.072261e+01 1.074193e+01 1.027447e+01 1.006441e+01 -3.853918e-03 8.652230e-03 -1.238406e-02 -4.983358e-02 -8.549909e-02 -7.475123e-02 -5.053600e-02 -2.480960e-02 -1.715191e-02 -2.064656e-02 -3.530974e-02 -4.666954e-02 -5.419714e-02 -4.612157e-02 -2.307728e-02 -1.627799e-02
<VARIANCE> 32
 7.444712e-01 1.853197e+00 2.336128e+00 2.092153e+00 1.874161e+00 1.721875e+00 1.654136e+00 1.205544e+00 9.180883e-01 9.119110e-01 9.885855e-01 1.000293e+00 9.713829e-01 1.265706e+00 1.952917e+00 2.057175e+00 4.025139e-02 9.234273e-02 1.196092e-01 8.478513e-02 4.795155e-02 5.162865e-02 4.319862e-02 3.285583e-02 2.473385e-02 2.600113e-02 2.917797e-02 3.557658e-02 4.254855e-02 4.770231e-02 6.514886e-02 6.039768e-02
<GCONST> 1.528855e+01
<STATE> 9
<MEAN> 32
 6.650398e+00 8.048450e+00 8.860785e+00 8.642255e+00 7.861113e+00 8.373054e+00 8.643207e+00 8.545372e+00 8.602059e+00 8.759517e+00 8.825852e+00 9.552561e+00 9.802039e+00 9.013386e+00 8.171505e+00 8.180708e+00 -1.700842e-02 -3.416144e-02 -7.583192e-02 -7.649954e-02 -3.971655e-02 -4.565716e-02 -5.705225e-02 -5.062707e-02 -4.268884e-02 -4.834791e-02 -6.214782e-02 -5.978113e-02 -4.912682e-02 -3.602123e-02 -2.311130e-02 -1.465205e-02
<VARIANCE> 32
 4.299590e-01 2.250147e-01 5.559177e-01 5.032462e-01 3.269198e-01 5.815176e-01 7.303908e-01 7.957964e-01 5.563712e-01 5.166025e-01 6.210129e-01 8.619701e-01 1.093316e+00 4.004645e-01 1.625304e-01 9.976666e-02 6.647372e-03 7.037918e-03 1.710320e-02 1.458527e-02 8.906262e-03 1.221201e-02 1.330804e-02 1.045495e-02 1.057159e-02 1.178222e-02 1.005003e-02 1.524268e-02 1.521064e-02 1.165763e-02 3.533429e-03 2.409520e-03
<GCONST> -2.817817e+01
<TRANSP> 10
 0.000000e+00 1.000000e+00 0.000000e+00 0.000000e+00 0.000000e+00 0.000000e+00 0.000000e+00 0.000000e+00 0.000000e+00 0.000000e+00
 0.000000e+00 3.196838e-02 9.680316e-01 0.000000e+00 0.000000e+00 0.000000e+00 0.000000e+00 0.000000e+00 0.000000e+00 0.000000e+00
 0.000000e+00 0.000000e+00 2.952493e-01 7.047507e-01 0.000000e+00 0.000000e+00 0.000000e+00 0.000000e+00 0.000000e+00 0.000000e+00
 0.000000e+00 0.000000e+00 0.000000e+00 2.891836e-01 7.108164e-01 0.000000e+00 0.000000e+00 0.000000e+00 0.000000e+00 0.000000e+00
 0.000000e+00 0.000000e+00 0.000000e+00 0.000000e+00 8.421014e-02 9.157898e-01 0.000000e+00 0.000000e+00 0.000000e+00 0.000000e+00
 0.000000e+00 0.000000e+00 0.000000e+00 0.000000e+00 0.000000e+00 2.120944e-01 7.879056e-01 0.000000e+00 0.000000e+00 0.000000e+00
 0.000000e+00 0.000000e+00 0.000000e+00 0.000000e+00 0.000000e+00 0.000000e+00 7.422139e-01 2.577860e-01 0.000000e+00 0.000000e+00
 0.000000e+00 0.000000e+00 0.000000e+00 0.000000e+00 0.000000e+00 0.000000e+00 0.000000e+00 9.637903e-01 3.620969e-02 0.000000e+00
 0.000000e+00 0.000000e+00 0.000000e+00 0.000000e+00 0.000000e+00 0.000000e+00 0.000000e+00 0.000000e+00 9.567037e-01 4.329630e-02
 0.000000e+00 0.000000e+00 0.000000e+00 0.000000e+00 0.000000e+00 0.000000e+00 0.000000e+00 0.000000e+00 0.000000e+00 0.000000e+00
<ENDHMM>
~h "pet"
<BEGINHMM>
<NUMSTATES> 10
<STATE> 2
<MEAN> 32
 5.731242e+00 5.892681e+00 6.164769e+00 6.233307e+00 6.324617e+00 6.372707e+00 6.635221e+00 6.927415e+00 7.177274e+00 7.103246e+00 7.258609e+00 7.489991e+00 7.704524e+00 7.823245e+00 7.905973e+00 8.108971e+00 1.598424e-02 7.761909e-02 1.085893e-01 6.007994e-02 5.230874e-03 -2.697445e-02 3.309765e-02 8.985759e-02 1.205254e-01 1.215475e-01 1.050877e-01 9.449249e-02 1.157405e-01 1.023177e-01 5.492803e-02 2.172616e-02
<VARIANCE> 32
 3.264067e-01 2.293434e-01 3.939927e-01 1.552419e-01 8.649364e-02 6.769346e-02 6.296965e-02 9.145869e-02 7.635394e-02 4.117247e-02 3.658772e-02 4.960585e-02 8.057341e-02 9.744740e-02 9.161316e-02 1.131107e-01 2.464076e-02 3.413279e-02 2.290132e-02 8.572637e-03 5.642610e-03 6.593347e-03 9.753212e-03 1.797388e-02 2.636781e-02 1.745880e-02 1.672995e-02 1.441036e-02 1.403403e-02 1.558350e-02 4.412446e-03 2.311733e-03
<GCONST> -4.876181e+01
<STATE> 3
<MEAN> 32
 5.864450e+00 6.206856e+00 6.490469e+00 6.473635e+00 6.386372e+00 6.457839e+00 6.713613e+00 7.005224e+00 7.531090e+00 7.345958e+00 7.338447e+00 7.508675e+00 7.838393e+00 7.976281e+00 7.998213e+00 8.162616e+00 7.314285e-02 2.875859e-01 4.436548e-01 3.320041e-01 1.490182e-01 1.072924e-01 1.455562e-01 2.250173e-01 3.632892e-01 4.062809e-01 3.178101e-01 2.906834e-01 3.107084e-01 2.416044e-01 1.199048e-01 4.877829e-02
<VARIANCE> 32
 3.477719e-01 6.269275e-01 8.515474e-01 2.447879e-01 7.669044e-02 5.133521e-02 4.634402e-02 1.130369e-01 4.213203e-01 2.339548e-01 5.458098e-02 5.372997e-02 1.143649e-01 1.330583e-01 9.207895e-02 1.024443e-01 1.180556e-02 4.024714e-02 8.045487e-02 3.774717e-02 9.580483e-03 8.521298e-03 8.930221e-03 3.036038e-02 3.309198e-02 4.991551e-02 5.224327e-02 6.986324e-02 4.243904e-02 2.797160e-02 7.703300e-03 4.767006e-03
<GCONST> -3.210821e+01
<STATE> 4
<MEAN> 32
 5.882164e+00 6.588638e+00 7.253885e+00 6.926369e+00 6.593102e+00 6.543781e+00 6.947527e+00 7.471117e+00 8.048116e+00 7.983561e+00 7.910703e+00 7.947906e+00 8.357178e+00 8.414935e+00 8.248916e+00 8.311094e+00 1.841719e-01 4.113260e-01 6.320527e-01 6.245627e-01 3.711736e-01 2.692226e-01 2.907248e-01 4.515926e-01 6.160206e-01 7.011154e-01 6.006076e-01 5.672801e-01 5.629151e-01 4.158362e-01 1.728835e-01 7.854582e-02
<VARIANCE> 32
 4.245772e-01 1.041210e+00 1.493486e+00 5.436685e-01 1.439173e-01 8.850370e-02 8.210050e-02 3.521217e-01 7.074406e-01 5.103111e-01 3.037929e-01 2.561582e-01 2.179053e-01 2.225053e-01 1.150213e-01 1.147000e-01 1.836836e-02 5.997269e-02 9.975103e-02 5.433351e-02 3.065286e-02 3.087801e-02 2.055763e-02 3.969017e-02 7.387508e-02 1.319263e-01 1.123451e-01 1.320956e-01 1.086876e-01 6.995425e-02 2.863085e-02 1.298263e-02
<GCONST> -8.766623e+00
<STATE> 5
<MEAN> 32
 6.136881e+00 7.129462e+00 7.941353e+00 7.844563e+00 7.187401e+00 7.095343e+00 7.373565e+00 8.167160e+00 9.027241e+00 9.123683e+00 8.823581e+00 8.973227e+00 9.199822e+00 8.961612e+00 8.467943e+00 8.357364e+00 2.560119e-01 4.765927e-01 7.749397e-01 8.207127e-01 5.315780e-01 4.027998e-01 3.797991e-01 5.249464e-01 7.728404e-01 9.443577e-01 8.293222e-01 7.495765e-01 7.430063e-01 5.239307e-01 1.876364e-01 8.497581e-02
<VARIANCE> 32
 3.232988e-01 4.095002e-01 8.162615e-01 5.094010e-01 2.169608e-01 1.215652e-01 9.439985e-02 3.572399e-01 6.451719e-01 7.175779e-01 5.940002e-01 8.197041e-01 4.889445e-01 3.500269e-01 1.900420e-01 1.442836e-01 5.064053e-02 1.116203e-01 1.839825e-01 8.871113e-02 3.801041e-02 2.626235e-02 2.952456e-02 4.607209e-02 7.568116e-02 1.209153e-01 1.146553e-01 1.510299e-01 1.425936e-01 1.151688e-01 6.142977e-02 3.033185e-02
<GCONST> 9.103107e-02
<STATE> 6
<MEAN> 32
 6.650581e+00 7.940367e+00 9.321280e+00 9.402657e+00 8.145644e+00 7.788188e+00 8.035114e+00 8.931137e+00 1.018455e+01 1.067336e+01 1.030990e+01 1.013248e+01 1.045045e+01 9.850926e+00 8.601333e+00 8.420183e+00 1.847906e-01 2.171727e-01 5.043817e-01 5.611974e-01 3.929923e-01 3.113948e-01 2.778851e-01 2.939101e-01 3.882819e-01 5.472975e-01 5.545235e-01 5.015749e-01 4.971206e-01 3.886824e-01 1.518381e-01 8.411203e-02
<VARIANCE> 32
 4.060400e-01 4.264729e-01 4.192103e-01 3.434455e-01 4.142580e-01 3.372048e-01 3.477825e-01 4.539583e-01 3.905869e-01 5.421331e-01 1.069253e+00 1.662209e+00 1.190157e+00 1.041604e+00 6.348454e-01 4.179282e-01 4.912746e-02 1.051212e-01 1.845923e-01 1.385402e-01 6.250492e-02 4.141416e-02 2.921951e-02 5.593544e-02 1.140033e-01 1.601896e-01 1.257205e-01 9.867798e-02 1.080001e-01 9.876585e-02 4.513726e-02 1.754390e-02
<GCONST> 7.837449e+00
<STATE> 7
<MEAN> 32
 6.948348e+00 8.055988e+00 9.873370e+00 1.051373e+01 1.018236e+01 9.373297e+00 9.350513e+00 9.963973e+00 1.115623e+01 1.173315e+01 1.162344e+01 1.143573e+01 1.175265e+01 1.109888e+01 9.422485e+00 8.937708e+00 -2.403877e-02 -2.904373e-02 -4.113750e-02 4.467865e-02 1.366524e-01 1.149869e-01 9.534916e-02 9.714471e-02 7.363818e-02 1.104153e-02 3.801371e-02 5.388976e-02 4.888199e-02 4.446349e-02 3.745299e-02 2.665048e-02
<VARIANCE> 32
 5.973741e-01 8.521056e-01 6.747370e-01 5.390337e-01 1.338575e+00 1.106910e+00 6.658015e-01 5.681579e-01 5.141837e-01 4.253416e-01 8.550737e-01 8.152661e-01 6.193888e-01 9.668502e-01 1.168335e+00 8.565267e-01 9.915030e-03 4.775480e-03 2.184444e-02 1.701413e-02 2.310526e-02 1.368162e-02 1.440174e-02 1.113126e-02 1.535360e-02 1.806880e-02 1.746074e-02 1.723964e-02 1.595455e-02 1.752278e-02 9.517035e-03 7.569434e-03
<GCONST> -1.451859e+01
<STATE> 8
<MEAN> 32
 6.316238e+00 7.275266e+00 8.633423e+00 9.632793e+00 9.349413e+00 8.638212e+00 8.786048e+00 9.746020e+00 1.041530e+01 1.026018e+01 1.038239e+01 1.044439e+01 1.069880e+01 1.006037e+01 8.798745e+00 8.553988e+00 -3.836814e-02 -6.998350e-02 -1.128051e-01 -1.247777e-01 -1.103976e-01 -1.013985e-01 -1.017907e-01 -1.003900e-01 -1.434564e-01 -1.635221e-01 -1.477738e-01 -1.402835e-01 -1.345621e-01 -1.241932e-01 -6.751925e-02 -3.666622e-02
<VARIANCE> 32
 2.604062e-01 4.384234e-01 6.966902e-01 7.150310e-01 1.038137e+00 8.129859e-01 5.431784e-01 6.915907e-01 8.950125e-01 1.006348e+00 1.416830e+00 1.483133e+00 1.146997e+00 1.057832e+00 5.682034e-01 3.968333e-01 1.079037e-02 2.309247e-02 4.600952e-02 5.081112e-02 5.572302e-02 3.951363e-02 4.217341e-02 5.667342e-02 5.415526e-02 3.203738e-02 3.564547e-02 3.850580e-02 3.902303e-02 3.788224e-02 2.052213e-02 1.007766e-02
<GCONST> -3.208899e-01
<STATE> 9
<MEAN> 32
 5.718890e+00 5.958927e+00 6.598311e+00 7.277171e+00 7.190019e+00 6.943273e+00 7.052417e+00 7.629586e+00 8.026613e+00 7.879227e+00 8.114513e+00 8.304416e+00 8.540362e+00 8.239510e+00 8.059164e+00 8.150181e+00 -3.146806e-02 -5.832193e-02 -9.185141e-02 -1.020954e-01 -8.688363e-02 -5.464870e-02 -5.079082e-02 -7.129232e-02 -8.055943e-02 -7.903078e-02 -7.409319e-02 -7.319724e-02 -5.948272e-02 -3.447673e-02 -4.118230e-03 -2.464429e-03
<VARIANCE> 32
 1.109593e-01 1.293041e-01 3.191212e-01 5.066895e-01 4.113670e-01 2.863637e-01 1.992117e-01 3.139884e-01 3.478613e-01 3.473947e-01 4.222797e-01 3.903588e-01 4.266777e-01 3.746813e-01 2.112017e-01 1.151296e-01 1.255445e-02 1.966844e-02 3.150591e-02 3.168539e-02 2.347346e-02 2.153242e-02 2.192344e-02 4.191696e-02 2.751782e-02 2.519476e-02 2.617968e-02 3.450526e-02 4.955203e-02 4.148111e-02 2.069837e-02 1.041045e-02
<GCONST> -2.034236e+01
<TRANSP> 10
 0.000000e+00 1.000000e+00 0.000000e+00 0.000000e+00 0.000000e+00 0.000000e+00 0.000000e+00 0.000000e+00 0.000000e+00 0.000000e+00
 0.000000e+00 1.271563e-01 8.728437e-01 0.000000e+00 0.000000e+00 0.000000e+00 0.000000e+00 0.000000e+00 0.000000e+00 0.000000e+00
 0.000000e+00 0.000000e+00 2.090937e-01 7.909062e-01 0.000000e+00 0.000000e+00 0.000000e+00 0.000000e+00 0.000000e+00 0.000000e+00
 0.000000e+00 0.000000e+00 0.000000e+00 1.984626e-01 8.015375e-01 0.000000e+00 0.000000e+00 0.000000e+00 0.000000e+00 0.000000e+00
 0.000000e+00 0.000000e+00 0.000000e+00 0.000000e+00 9.032708e-02 9.096729e-01 0.000000e+00 0.000000e+00 0.000000e+00 0.000000e+00
 0.000000e+00 0.000000e+00 0.000000e+00 0.000000e+00 0.000000e+00 5.690600e-01 4.309400e-01 0.000000e+00 0.000000e+00 0.000000e+00
 0.000000e+00 0.000000e+00 0.000000e+00 0.000000e+00 0.000000e+00 0.000000e+00 8.794730e-01 1.205270e-01 0.000000e+00 0.000000e+00
 0.000000e+00 0.000000e+00 0.000000e+00 0.000000e+00 0.000000e+00 0.000000e+00 0.000000e+00 9.318632e-01 6.813684e-02 0.000000e+00
 0.000000e+00 0.000000e+00 0.000000e+00 0.000000e+00 0.000000e+00 0.000000e+00 0.000000e+00 0.000000e+00 9.139980e-01 8.600199e-02
 0.000000e+00 0.000000e+00 0.000000e+00 0.000000e+00 0.000000e+00 0.000000e+00 0.000000e+00 0.000000e+00 0.000000e+00 0.000000e+00
<ENDHMM>
~h "sil"
<BEGINHMM>
<NUMSTATES> 5
<STATE> 2
<MEAN> 32
 5.606182e+00 5.992923e+00 6.411462e+00 6.717838e+00 6.760050e+00 6.936876e+00 7.097950e+00 7.346917e+00 7.558113e+00 7.580908e+00 7.763593e+00 7.971818e+00 8.282035e+00 8.290915e+00 8.308035e+00 8.414868e+00 -1.970268e-02 -4.000717e-02 -4.335493e-02 -4.707785e-02 -3.778061e-02 -3.215027e-02 -3.048590e-02 -3.211449e-02 -3.062453e-02 -3.483678e-02 -3.335798e-02 -3.665036e-02 -4.241528e-02 -3.256758e-02 -1.349189e-02 -9.818198e-03
<VARIANCE> 32
 3.134362e-01 4.143325e-01 5.539137e-01 6.445317e-01 5.217693e-01 3.350496e-01 3.233650e-01 3.954300e-01 4.299008e-01 4.607946e-01 4.599890e-01 3.943632e-01 4.415439e-01 3.723396e-01 3.412686e-01 2.433442e-01 1.709271e-02 2.054584e-02 2.303687e-02 2.326287e-02 1.729371e-02 1.299571e-02 1.309011e-02 1.720069e-02 1.455382e-02 1.443902e-02 1.441690e-02 1.576450e-02 2.159050e-02 1.888372e-02 1.087249e-02 6.006315e-03
<GCONST> -2.226325e+01
<STATE> 3
<MEAN> 32
 5.600965e+00 5.737709e+00 5.930250e+00 6.121575e+00 6.283709e+00 6.472632e+00 6.626923e+00 6.792839e+00 7.129814e+00 7.055904e+00 7.214499e+00 7.391014e+00 7.593296e+00 7.699290e+00 7.865789e+00 8.066569e+00 7.967072e-05 -4.663394e-04 -9.839697e-04 -2.124647e-03 -2.409967e-03 -2.256046e-03 -2.033219e-03 -1.969459e-03 -1.089443e-03 -1.670596e-03 -1.859837e-03 -2.865455e-03 -4.219525e-03 -2.170013e-03 -7.655020e-04 -8.245502e-04
<VARIANCE> 32
 1.291413e-01 1.004179e-01 9.285067e-02 7.819509e-02 6.837515e-02 6.755652e-02 5.902083e-02 5.262600e-02 3.448464e-02 4.349300e-02 4.404222e-02 4.179185e-02 4.730271e-02 4.989022e-02 4.681537e-02 5.992696e-02 1.226917e-02 1.097606e-02 9.617177e-03 8.241791e-03 7.021085e-03 6.169340e-03 5.419448e-03 4.614374e-03 3.526030e-03 3.514803e-03 3.084985e-03 2.789034e-03 3.043098e-03 2.462513e-03 1.686830e-03 1.430757e-03
<GCONST> -7.303213e+01
<STATE> 4
<MEAN> 32
 5.364010e+00 5.744094e+00 6.088562e+00 6.302247e+00 6.348780e+00 6.607290e+00 6.791678e+00 6.971672e+00 7.200107e+00 7.302207e+00 7.518584e+00 7.749237e+00 8.014017e+00 8.216929e+00 8.401134e+00 8.564381e+00 9.178929e-04 4.277735e-03 4.395624e-03 5.507188e-03 2.923910e-03 2.673444e-03 1.521961e-03 2.594945e-03 5.696577e-03 6.772048e-03 6.972927e-03 8.569419e-03 1.093764e-02 9.448802e-03 5.510948e-03 3.599302e-03
<VARIANCE> 32
 3.159511e-01 1.673618e-01 1.652148e-01 2.059757e-01 1.768352e-01 2.128454e-01 2.303251e-01 3.003307e-01 3.196456e-01 3.511465e-01 3.912275e-01 4.315059e-01 4.663588e-01 5.618230e-01 6.595051e-01 6.954155e-01 1.863492e-02 1.602432e-02 1.315711e-02 1.326316e-02 8.345355e-03 7.419489e-03 7.939654e-03 8.451305e-03 8.578821e-03 9.983409e-03 1.072104e-02 1.352896e-02 1.645632e-02 1.609197e-02 9.706850e-03 7.166092e-03
<GCONST> -3.162647e+01
<TRANSP> 5
 0.000000e+00 1.000000e+00 0.000000e+00 0.000000e+00 0.000000e+00
 0.000000e+00 8.834416e-01 1.165584e-01 0.000000e+00 0.000000e+00
 0.000000e+00 0.000000e+00 9.828745e-01 1.712557e-02 0.000000e+00
 0.000000e+00 0.000000e+00 0.000000e+00 8.273467e-01 1.726533e-01
 0.000000e+00 0.000000e+00 0.000000e+00 0.000000e+00 0.000000e+00
<ENDHMM>
~h "tri"
<BEGINHMM>
<NUMSTATES> 10
<STATE> 2
<MEAN> 32
 5.658364e+00 5.794809e+00 5.910845e+00 6.187375e+00 6.371762e+00 6.569121e+00 6.722010e+00 6.859536e+00 7.243867e+00 7.157233e+00 7.330475e+00 7.635727e+00 7.940599e+00 8.013098e+00 7.968707e+00 8.118849e+00 -1.426020e-03 3.623141e-02 1.025120e-01 1.276355e-01 8.598232e-02 8.180475e-02 1.209435e-01 2.030623e-01 2.242140e-01 2.718217e-01 2.591514e-01 3.687170e-01 4.178788e-01 3.610902e-01 1.708301e-01 6.690834e-02
<VARIANCE> 32
 1.601039e-01 1.169989e-01 9.901129e-02 6.905887e-02 6.250650e-02 3.874566e-02 6.413402e-02 6.252792e-02 5.132242e-02 8.418392e-02 7.072609e-02 1.625617e-01 2.743761e-01 2.622887e-01 1.211159e-01 1.267241e-01 1.303292e-02 9.060192e-03 1.807836e-02 1.370786e-02 1.364334e-02 1.096123e-02 1.480785e-02 2.167723e-02 2.056096e-02 2.191112e-02 2.779246e-02 4.843577e-02 5.976796e-02 4.489212e-02 1.301416e-02 7.545996e-03
<GCONST> -4.207507e+01
<STATE> 3
<MEAN> 32
 5.756969e+00 5.914852e+00 6.159738e+00 6.329757e+00 6.469464e+00 6.663077e+00 6.881798e+00 7.262028e+00 7.616885e+00 7.705973e+00 7.885236e+00 8.487938e+00 8.927991e+00 8.892431e+00 8.445464e+00 8.305540e+00 1.220770e-02 2.775471e-02 9.072126e-02 9.472342e-02 9.410867e-02 1.040188e-01 1.530353e-01 2.178194e-01 2.273893e-01 2.731735e-01 2.974960e-01 3.814518e-01 4.204137e-01 4.005357e-01 2.689748e-01 1.505862e-01
<VARIANCE> 32
 1.547768e-01 1.488046e-01 2.279371e-01 1.634568e-01 7.695065e-02 8.500732e-02 1.392862e-01 1.724320e-01 2.038566e-01 2.603719e-01 3.067580e-01 6.106095e-01 8.109277e-01 8.304784e-01 3.716905e-01 2.300349e-01 1.611823e-02 1.117127e-02 3.035114e-02 2.687466e-02 1.960335e-02 2.462196e-02 3.557948e-02 4.814069e-02 5.881301e-02 6.680109e-02 8.714018e-02 1.152040e-01 1.432696e-01 1.373493e-01 7.549121e-02 2.752021e-02
<GCONST> -1.445787e+01
<STATE> 4
<MEAN> 32
 5.576840e+00 5.872677e+00 6.368550e+00 6.515844e+00 6.653545e+00 6.898057e+00 7.270497e+00 7.805853e+00 8.208811e+00 8.350224e+00 8.654339e+00 9.430687e+00 9.888059e+00 9.867629e+00 9.198902e+00 8.874270e+00 2.072458e-02 2.027010e-02 1.166132e-01 1.340669e-01 1.058970e-01 1.216163e-01 1.551396e-01 2.004302e-01 2.533430e-01 2.965091e-01 3.695822e-01 4.621492e-01 5.287998e-01 5.654798e-01 4.380018e-01 3.075670e-01
<VARIANCE> 32
 1.561387e-01 1.260378e-01 1.593125e-01 1.881840e-01 1.526643e-01 1.366775e-01 2.159795e-01 2.931310e-01 2.544596e-01 2.434110e-01 3.409939e-01 5.443025e-01 8.682853e-01 9.891930e-01 4.866864e-01 2.557676e-01 1.575296e-02 1.946868e-02 3.841376e-02 5.568557e-02 4.284007e-02 5.207718e-02 6.627098e-02 7.593770e-02 8.227480e-02 8.014315e-02 7.076611e-02 8.184172e-02 1.002462e-01 8.467662e-02 5.479481e-02 3.086441e-02
<GCONST> -8.912706e+00
<STATE> 5
<MEAN> 32
 5.736514e+00 5.832117e+00 6.196328e+00 6.513641e+00 6.650864e+00 6.847771e+00 7.156890e+00 7.871318e+00 8.490923e+00 8.818675e+00 9.655854e+00 1.077083e+01 1.146992e+01 1.161342e+01 1.081119e+01 9.994050e+00 1.461227e-02 3.572604e-02 1.574928e-02 2.973756e-02 2.181590e-02 7.907432e-03 -3.740035e-03 4.735862e-02 8.411162e-02 8.826088e-02 1.192412e-01 1.389236e-01 1.645599e-01 1.733564e-01 2.077813e-01 1.603900e-01
<VARIANCE> 32
 1.224980e-01 9.453060e-02 1.315179e-01 1.911481e-01 1.497698e-01 2.185934e-01 2.175159e-01 3.288063e-01 2.688445e-01 2.280829e-01 4.980252e-01 7.069880e-01 6.968658e-01 5.914589e-01 6.478964e-01 5.429734e-01 1.278846e-02 1.900442e-02 4.456925e-02 5.142898e-02 3.449156e-02 3.097330e-02 4.190359e-02 4.387511e-02 5.311215e-02 5.401911e-02 6.232028e-02 8.792812e-02 9.371455e-02 1.086921e-01 8.003472e-02 5.182748e-02
<GCONST> -9.826636e+00
<STATE> 6
<MEAN> 32
 6.084340e+00 6.257009e+00 6.809489e+00 7.262314e+00 7.208544e+00 7.454183e+00 7.749903e+00 8.553621e+00 9.604039e+00 9.728330e+00 1.053229e+01 1.136662e+01 1.205296e+01 1.209522e+01 1.149715e+01 1.051053e+01 2.704206e-02 1.354436e-01 1.416138e-01 1.144368e-01 4.995970e-02 2.577745e-02 3.369438e-02 7.966135e-02 1.387971e-01 1.148503e-01 1.325105e-01 1.244413e-01 1.036864e-01 6.761585e-02 7.652906e-02 5.833681e-02
<VARIANCE> 32
 2.521056e-01 2.103601e-01 9.235473e-01 1.365522e+00 7.883634e-01 7.848238e-01 8.988500e-01 6.182126e-01 7.004740e-01 6.208029e-01 7.974818e-01 1.031851e+00 9.344556e-01 8.039954e-01 1.382816e+00 1.740930e+00 3.112312e-02 4.905067e-02 1.180567e-01 1.563601e-01 7.992408e-02 6.315858e-02 7.010660e-02 6.392779e-02 7.169794e-02 7.229424e-02 9.607387e-02 1.393013e-01 1.670123e-01 1.811978e-01 2.058529e-01 1.736405e-01
<GCONST> 1.702580e+01
<STATE> 7
<MEAN> 32
 6.552466e+00 7.773116e+00 8.718462e+00 9.062036e+00 8.291110e+00 8.250907e+00 8.522160e+00 9.289892e+00 1.047184e+01 1.067109e+01 1.107481e+01 1.156803e+01 1.196062e+01 1.175440e+01 1.134775e+01 1.080300e+01 1.592158e-01 3.197646e-01 5.207503e-01 4.942777e-01 3.097164e-01 2.342268e-01 2.104492e-01 2.100001e-01 2.598432e-01 3.133814e-01 1.805298e-01 2.534992e-02 -5.615218e-02 -1.523754e-01 -2.641900e-01 -2.370168e-01
<VARIANCE> 32
 6.928527e-01 1.391304e+00 2.133599e+00 1.970101e+00 1.091615e+00 9.087552e-01 6.578714e-01 4.121236e-01 5.979299e-01 8.475115e-01 1.216449e+00 1.462273e+00 1.721741e+00 1.990363e+00 3.611979e+00 4.703213e+00 3.837818e-02 1.353511e-01 1.575296e-01 1.556247e-01 8.713055e-02 5.731776e-02 5.542110e-02 5.899343e-02 7.987764e-02 7.659569e-02 7.464152e-02 6.715025e-02 6.739495e-02 5.987941e-02 6.498931e-02 5.810400e-02
<GCONST> 2.138318e+01
<STATE> 8
<MEAN> 32
 6.603491e+00 7.975564e+00 9.506584e+00 9.820101e+00 8.542426e+00 8.150310e+00 8.294642e+00 8.843615e+00 1.003449e+01 1.116907e+01 1.127612e+01 1.110780e+01 1.148489e+01 1.089065e+01 9.155246e+00 8.615754e+00 -2.073321e-02 -3.456591e-02 -7.745603e-02 -9.065049e-02 -6.535095e-02 -6.083852e-02 -7.093474e-02 -1.054290e-01 -1.248294e-01 -1.024746e-01 -1.031598e-01 -1.107532e-01 -8.944997e-02 -8.053976e-02 -7.926331e-02 -4.642284e-02
<VARIANCE> 32
 5.569063e-01 5.754157e-01 1.190853e+00 5.235482e-01 7.468402e-01 6.189691e-01 4.190393e-01 4.158638e-01 8.020181e-01 6.171592e-01 7.346773e-01 9.076065e-01 7.662610e-01 7.703946e-01 6.413760e-01 3.696264e-01 8.762768e-03 9.812675e-03 1.724356e-02 1.651932e-02 1.335456e-02 1.452884e-02 1.178800e-02 1.183070e-02 1.947239e-02 3.581329e-02 3.487331e-02 2.774246e-02 3.215682e-02 2.883064e-02 8.664591e-03 5.437884e-03
<GCONST> -1.449765e+01
<STATE> 9
<MEAN> 32
 6.370863e+00 7.547754e+00 8.454411e+00 7.891553e+00 7.234323e+00 7.050511e+00 7.231081e+00 7.845008e+00 9.082794e+00 9.449603e+00 8.867897e+00 8.836148e+00 9.281322e+00 8.809892e+00 8.441075e+00 8.441155e+00 -5.273034e-02 -1.392745e-01 -1.701949e-01 -1.628104e-01 -1.131894e-01 -7.233997e-02 -7.173544e-02 -9.955552e-02 -1.188761e-01 -1.411461e-01 -1.325334e-01 -1.203720e-01 -1.332491e-01 -1.305470e-01 -4.620686e-02 -1.505053e-02
<VARIANCE> 32
 2.689583e-01 8.676462e-01 1.095209e+00 4.364201e-01 2.336620e-01 1.899613e-01 1.882988e-01 6.088704e-01 1.410653e+00 6.901243e-01 3.445648e-01 3.533174e-01 3.863417e-01 2.488724e-01 2.314850e-01 1.859542e-01 1.393167e-02 3.251190e-02 3.209727e-02 2.918080e-02 2.063664e-02 1.735854e-02 9.474273e-03 1.238104e-02 2.112067e-02 2.278246e-02 2.075797e-02 1.845367e-02 2.168848e-02 1.634048e-02 7.978117e-03 3.841311e-03
<GCONST> -2.178479e+01
<TRANSP> 10
 0.000000e+00 1.000000e+00 0.000000e+00 0.000000e+00 0.000000e+00 0.000000e+00 0.000000e+00 0.000000e+00 0.000000e+00 0.000000e+00
 0.000000e+00 2.288516e-01 7.711484e-01 0.000000e+00 0.000000e+00 0.000000e+00 0.000000e+00 0.000000e+00 0.000000e+00 0.000000e+00
 0.000000e+00 0.000000e+00 4.741980e-01 5.258020e-01 0.000000e+00 0.000000e+00 0.000000e+00 0.000000e+00 0.000000e+00 0.000000e+00
 0.000000e+00 0.000000e+00 0.000000e+00 4.783860e-01 5.216140e-01 0.000000e+00 0.000000e+00 0.000000e+00 0.000000e+00 0.000000e+00
 0.000000e+00 0.000000e+00 0.000000e+00 0.000000e+00 8.293833e-01 1.706167e-01 0.000000e+00 0.000000e+00 0.000000e+00 0.000000e+00
 0.000000e+00 0.000000e+00 0.000000e+00 0.000000e+00 0.000000e+00 7.466002e-01 2.533998e-01 0.000000e+00 0.000000e+00 0.000000e+00
 0.000000e+00 0.000000e+00 0.000000e+00 0.000000e+00 0.000000e+00 0.000000e+00 8.054490e-01 1.945510e-01 0.000000e+00 0.000000e+00
 0.000000e+00 0.000000e+00 0.000000e+00 0.000000e+00 0.000000e+00 0.000000e+00 0.000000e+00 9.356493e-01 6.435068e-02 0.000000e+00
 0.000000e+00 0.000000e+00 0.000000e+00 0.000000e+00 0.000000e+00 0.000000e+00 0.000000e+00 0.000000e+00 8.873826e-01 1.126174e-01
 0.000000e+00 0.000000e+00 0.000000e+00 0.000000e+00 0.000000e+00 0.000000e+00 0.000000e+00 0.000000e+00 0.000000e+00 0.000000e+00
<ENDHMM>
~h "nula"
<BEGINHMM>
<NUMSTATES> 10
<STATE> 2
<MEAN> 32
 6.039074e+00 6.817669e+00 6.920614e+00 7.095720e+00 6.952683e+00 7.069121e+00 6.953445e+00 6.994566e+00 7.366307e+00 7.235601e+00 7.229390e+00 7.400101e+00 7.911511e+00 8.135997e+00 7.995699e+00 8.240755e+00 1.038646e-01 3.069821e-01 3.127656e-01 2.763380e-01 1.880186e-01 1.528517e-01 4.626223e-02 4.353305e-02 6.637524e-02 8.766136e-02 5.500220e-02 3.983504e-02 4.822395e-02 4.197282e-02 4.765646e-03 -4.985183e-03
<VARIANCE> 32
 2.615790e-01 8.490940e-01 1.006696e+00 1.021304e+00 7.028219e-01 6.292879e-01 1.717555e-01 1.434043e-01 1.393882e-01 1.246488e-01 7.342979e-02 5.653028e-02 1.217302e-01 1.559558e-01 6.823758e-02 1.148580e-01 1.391207e-02 3.245467e-02 3.320030e-02 3.287422e-02 2.120315e-02 2.520966e-02 1.522356e-02 1.724818e-02 1.166035e-02 1.850727e-02 1.025489e-02 6.514698e-03 2.095471e-02 1.219025e-02 3.158430e-03 2.315847e-03
<GCONST> -3.398977e+01
<STATE> 3
<MEAN> 32
 5.914960e+00 6.990731e+00 7.203893e+00 7.081401e+00 6.762794e+00 6.894933e+00 6.821903e+00 7.024107e+00 7.359610e+00 7.432457e+00 7.492453e+00 7.543559e+00 7.892962e+00 7.954855e+00 7.924976e+00 8.092903e+00 2.210670e-01 5.276299e-01 5.387316e-01 4.664319e-01 2.566796e-01 2.036987e-01 1.443092e-01 2.205970e-01 1.986828e-01 2.605603e-01 2.405141e-01 1.487515e-01 1.759524e-01 9.945293e-02 2.123147e-02 -7.934352e-03
<VARIANCE> 32
 4.605248e-01 6.662990e-01 9.148826e-01 7.874232e-01 5.306854e-01 4.531001e-01 1.122779e-01 1.106330e-01 1.479279e-01 2.091831e-01 1.496882e-01 8.619697e-02 1.655877e-01 1.330666e-01 1.185386e-01 8.982226e-02 4.504434e-02 8.404596e-02 6.442542e-02 5.667544e-02 2.878214e-02 2.440037e-02 1.337467e-02 1.446614e-02 1.277320e-02 3.903765e-02 2.359072e-02 1.725208e-02 6.505527e-02 3.099335e-02 5.416248e-03 4.816015e-03
<GCONST> -2.386601e+01
<STATE> 4
<MEAN> 32
 6.401241e+00 7.768417e+00 7.977839e+00 7.859672e+00 7.260411e+00 7.209496e+00 7.059863e+00 7.469576e+00 7.755303e+00 7.865924e+00 7.957221e+00 7.934625e+00 8.491282e+00 8.302688e+00 7.985714e+00 8.092428e+00 2.443162e-01 3.904937e-01 4.423981e-01 4.462319e-01 2.683364e-01 2.016209e-01 1.911803e-01 2.660868e-01 2.204110e-01 2.822801e-01 2.958871e-01 2.214811e-01 2.331840e-01 1.371467e-01 3.494742e-02 -1.035597e-02
<VARIANCE> 32
 4.151471e-01 4.002564e-01 6.557040e-01 5.592625e-01 4.091792e-01 5.598218e-01 1.786341e-01 1.824739e-01 2.192048e-01 4.341196e-01 2.444237e-01 1.946700e-01 5.490837e-01 1.906891e-01 8.551722e-02 8.684205e-02 6.576317e-02 1.254514e-01 1.085551e-01 8.122344e-02 3.666310e-02 3.785994e-02 1.842272e-02 1.666047e-02 2.246345e-02 3.593750e-02 2.846899e-02 2.270244e-02 5.166863e-02 2.787186e-02 5.102321e-03 3.655534e-03
<GCONST> -1.753599e+01
<STATE> 5
<MEAN> 32
 6.702036e+00 8.187131e+00 8.639408e+00 8.568564e+00 7.758812e+00 7.675939e+00 7.522327e+00 7.807413e+00 8.094787e+00 8.401270e+00 8.226897e+00 8.151159e+00 8.534356e+00 8.348961e+00 8.075947e+00 8.119327e+00 1.255126e-01 1.640622e-01 2.310076e-01 2.654825e-01 2.061489e-01 1.794965e-01 2.220831e-01 2.124125e-01 1.735360e-01 1.866995e-01 1.819605e-01 1.547841e-01 8.159509e-02 4.710040e-02 3.750592e-02 1.907074e-02
<VARIANCE> 32
 4.171106e-01 4.331442e-01 4.423530e-01 3.492892e-01 3.803976e-01 7.012903e-01 2.668891e-01 2.120003e-01 2.780837e-01 4.743818e-01 5.177845e-01 3.442400e-01 5.578683e-01 2.190101e-01 8.658113e-02 7.184805e-02 4.587821e-02 8.027518e-02 8.413666e-02 6.744233e-02 4.167140e-02 3.146658e-02 3.262940e-02 3.594833e-02 2.709362e-02 3.904313e-02 3.394023e-02 2.786192e-02 1.845589e-02 1.455795e-02 5.564812e-03 3.661025e-03
<GCONST> -1.689165e+01
<STATE> 6
<MEAN> 32
 6.659516e+00 8.223183e+00 9.088801e+00 9.427875e+00 8.769018e+00 8.781221e+00 8.351087e+00 8.307538e+00 8.456977e+00 8.777747e+00 8.676554e+00 8.613349e+00 8.624474e+00 8.284964e+00 8.078750e+00 8.129514e+00 1.245205e-02 1.889261e-02 8.036752e-02 1.491154e-01 1.710927e-01 1.666640e-01 1.724451e-01 1.211570e-01 8.400759e-02 8.594637e-02 1.081424e-01 1.427166e-01 9.050848e-02 4.929969e-02 2.776642e-02 2.300345e-02
<VARIANCE> 32
 3.970102e-01 3.685883e-01 4.229339e-01 3.731380e-01 5.140811e-01 7.786981e-01 4.937648e-01 2.228440e-01 2.151398e-01 3.104745e-01 4.938648e-01 4.877512e-01 4.242962e-01 1.594023e-01 1.108201e-01 4.675374e-02 1.477285e-02 1.939171e-02 3.023997e-02 3.128667e-02 2.708309e-02 3.499801e-02 5.983355e-02 5.238866e-02 3.125700e-02 3.166792e-02 3.543507e-02 4.451659e-02 2.466903e-02 1.590487e-02 8.839521e-03 8.642404e-03
<GCONST> -1.870499e+01
<STATE> 7
<MEAN> 32
 6.624336e+00 8.134998e+00 8.888950e+00 9.709964e+00 8.931551e+00 8.931574e+00 9.090984e+00 8.829966e+00 8.707926e+00 9.034330e+00 9.631018e+00 9.794810e+00 9.616259e+00 8.885110e+00 8.385911e+00 8.427775e+00 3.257909e-02 2.165468e-02 1.045402e-01 1.952855e-01 2.303095e-01 2.388001e-01 2.806100e-01 1.573784e-01 1.215799e-01 1.412266e-01 1.556074e-01 2.152126e-01 2.067031e-01 1.440346e-01 8.598226e-02 6.409264e-02
<VARIANCE> 32
 9.608251e-01 9.614403e-01 1.632092e+00 8.934886e-01 7.663322e-01 9.668488e-01 8.068468e-01 7.570535e-01 5.461094e-01 4.467237e-01 7.076794e-01 8.507791e-01 7.782592e-01 3.915053e-01 6.140121e-01 6.029881e-01 4.088832e-02 4.048182e-02 6.720288e-02 5.923949e-02 4.588342e-02 6.388549e-02 9.596208e-02 6.869472e-02 3.693469e-02 4.233236e-02 3.872377e-02 5.957690e-02 5.787665e-02 5.423973e-02 3.124102e-02 3.611750e-02
<GCONST> 6.349455e+00
<STATE> 8
<MEAN> 32
 7.173574e+00 8.345417e+00 9.690921e+00 1.051133e+01 1.064554e+01 1.079662e+01 1.097544e+01 1.038081e+01 9.716011e+00 9.990143e+00 1.069210e+01 1.092637e+01 1.117026e+01 1.046695e+01 9.382824e+00 8.925692e+00 -1.980143e-02 -3.814183e-02 -5.417283e-02 -2.862367e-02 2.374395e-02 3.624343e-02 3.733960e-02 3.557991e-02 1.180808e-02 2.722350e-03 5.781149e-03 7.062019e-03 2.905226e-02 2.966472e-02 3.168325e-03 -6.950341e-03
<VARIANCE> 32
 8.435132e-01 1.156344e+00 1.589129e+00 6.453691e-01 7.367440e-01 6.460766e-01 8.728925e-01 1.100646e+00 4.893919e-01 5.849118e-01 7.852021e-01 7.102584e-01 1.385147e+00 1.217189e+00 1.458934e+00 8.220680e-01 1.116211e-02 8.154826e-03 1.616489e-02 1.618843e-02 3.280877e-02 3.011586e-02 3.604768e-02 3.380957e-02 1.851483e-02 2.584962e-02 3.156372e-02 3.389638e-02 5.797879e-02 5.662110e-02 3.064472e-02 1.744531e-02
<GCONST> -2.021001e+00
<STATE> 9
<MEAN> 32
 6.257699e+00 7.129515e+00 7.683125e+00 8.823708e+00 9.370872e+00 9.506533e+00 9.564760e+00 9.037323e+00 8.610869e+00 8.775664e+00 8.697861e+00 8.983481e+00 9.406955e+00 9.024652e+00 8.255980e+00 8.173936e+00 -6.613099e-02 -1.045851e-01 -1.559087e-01 -1.838390e-01 -1.796597e-01 -1.851945e-01 -1.928198e-01 -1.799319e-01 -1.562962e-01 -1.556419e-01 -1.645180e-01 -1.719120e-01 -1.747179e-01 -1.387469e-01 -5.609094e-02 -2.267576e-02
<VARIANCE> 32
 2.855644e-01 6.093782e-01 8.106598e-01 9.789248e-01 8.488830e-01 6.052117e-01 7.757806e-01 9.785625e-01 6.854078e-01 7.280911e-01 9.654328e-01 8.114623e-01 7.372266e-01 4.442514e-01 2.238646e-01 1.120259e-01 1.408543e-02 2.037534e-02 2.440294e-02 2.640437e-02 2.271101e-02 2.171050e-02 2.811892e-02 2.893979e-02 1.948574e-02 1.600146e-02 2.169862e-02 1.875712e-02 2.086945e-02 2.109896e-02 1.232113e-02 4.780478e-03
<GCONST> -1.342997e+01
<TRANSP> 10
 0.000000e+00 1.000000e+00 0.000000e+00 0.000000e+00 0.000000e+00 0.000000e+00 0.000000e+00 0.000000e+00 0.000000e+00 0.000000e+00
 0.000000e+00 5.622011e-01 4.377989e-01 0.000000e+00 0.000000e+00 0.000000e+00 0.000000e+00 0.000000e+00 0.000000e+00 0.000000e+00
 0.000000e+00 0.000000e+00 1.430763e-01 8.569237e-01 0.000000e+00 0.000000e+00 0.000000e+00 0.000000e+00 0.000000e+00 0.000000e+00
 0.000000e+00 0.000000e+00 0.000000e+00 3.119242e-01 6.880758e-01 0.000000e+00 0.000000e+00 0.000000e+00 0.000000e+00 0.000000e+00
 0.000000e+00 0.000000e+00 0.000000e+00 0.000000e+00 5.411715e-01 4.588285e-01 0.000000e+00 0.000000e+00 0.000000e+00 0.000000e+00
 0.000000e+00 0.000000e+00 0.000000e+00 0.000000e+00 0.000000e+00 7.732494e-01 2.267505e-01 0.000000e+00 0.000000e+00 0.000000e+00
 0.000000e+00 0.000000e+00 0.000000e+00 0.000000e+00 0.000000e+00 0.000000e+00 7.755135e-01 2.244865e-01 0.000000e+00 0.000000e+00
 0.000000e+00 0.000000e+00 0.000000e+00 0.000000e+00 0.000000e+00 0.000000e+00 0.000000e+00 9.515507e-01 4.844925e-02 0.000000e+00
 0.000000e+00 0.000000e+00 0.000000e+00 0.000000e+00 0.000000e+00 0.000000e+00 0.000000e+00 0.000000e+00 9.161234e-01 8.387661e-02
 0.000000e+00 0.000000e+00 0.000000e+00 0.000000e+00 0.000000e+00 0.000000e+00 0.000000e+00 0.000000e+00 0.000000e+00 0.000000e+00
<ENDHMM>
~h "devet"
<BEGINHMM>
<NUMSTATES> 10
<STATE> 2
<MEAN> 32
 5.997140e+00 6.584560e+00 6.858181e+00 6.871481e+00 6.500237e+00 6.594235e+00 6.646095e+00 6.798719e+00 7.162330e+00 7.143430e+00 7.268690e+00 7.442194e+00 7.628249e+00 7.736309e+00 7.880139e+00 8.065016e+00 6.766295e-02 1.406710e-01 1.835997e-01 1.623211e-01 7.646008e-02 2.252930e-02 1.950139e-02 4.226445e-02 5.681483e-02 6.467570e-02 8.841902e-02 9.866748e-02 1.005521e-01 7.198536e-02 2.872596e-02 1.673538e-02
<VARIANCE> 32
 2.151885e-01 2.880152e-01 4.717533e-01 3.208399e-01 9.018852e-02 8.142311e-02 5.096756e-02 4.818565e-02 3.484163e-02 6.080185e-02 5.656973e-02 6.016251e-02 8.922088e-02 9.484464e-02 8.663253e-02 1.230182e-01 1.964933e-02 4.341675e-02 4.291679e-02 3.564459e-02 9.381178e-03 9.836912e-03 8.995810e-03 1.616402e-02 1.755759e-02 1.478563e-02 1.260872e-02 2.084585e-02 2.383268e-02 1.459827e-02 5.540660e-03 7.463867e-03
<GCONST> -4.416707e+01
<STATE> 3
<MEAN> 32
 6.110720e+00 6.698582e+00 6.745165e+00 6.800705e+00 6.535980e+00 6.587549e+00 6.749895e+00 6.979383e+00 7.441593e+00 7.425231e+00 7.666632e+00 7.837548e+00 8.192341e+00 8.185791e+00 7.962953e+00 8.134102e+00 9.302943e-02 1.886515e-01 2.309699e-01 2.129658e-01 1.258007e-01 5.382901e-02 9.587102e-02 1.996539e-01 2.403711e-01 2.131443e-01 2.257409e-01 2.334159e-01 2.441621e-01 2.010750e-01 9.408278e-02 5.074784e-02
<VARIANCE> 32
 3.694314e-01 8.173898e-01 4.969788e-01 4.084652e-01 1.254077e-01 1.090949e-01 8.762756e-02 1.167789e-01 2.056842e-01 2.036238e-01 3.566183e-01 5.073687e-01 7.680141e-01 5.312435e-01 1.334830e-01 1.742117e-01 1.590667e-02 5.838175e-02 6.270792e-02 5.029035e-02 1.539811e-02 1.300732e-02 2.322150e-02 3.638522e-02 3.920093e-02 4.079346e-02 4.860423e-02 8.924298e-02 1.399777e-01 1.098262e-01 3.044012e-02 1.830162e-02
<GCONST> -1.427363e+01
<STATE> 4
<MEAN> 32
 6.292773e+00 7.058899e+00 7.391167e+00 7.316278e+00 6.888326e+00 6.699608e+00 6.844229e+00 7.295785e+00 7.776549e+00 7.675561e+00 7.832367e+00 7.911027e+00 8.179500e+00 8.220860e+00 8.238809e+00 8.342214e+00 1.456898e-01 2.715268e-01 4.906363e-01 4.937334e-01 3.407206e-01 2.611983e-01 3.228267e-01 4.976117e-01 5.436502e-01 5.410317e-01 5.098143e-01 5.267242e-01 5.476325e-01 4.554234e-01 2.293568e-01 1.108155e-01
<VARIANCE> 32
 4.503830e-01 9.039149e-01 1.021589e+00 8.488877e-01 3.437557e-01 1.102708e-01 1.206305e-01 2.746952e-01 3.534758e-01 2.054057e-01 2.088436e-01 1.811190e-01 2.370749e-01 3.469388e-01 5.370421e-01 6.002468e-01 2.763876e-02 5.602067e-02 9.576599e-02 8.489148e-02 4.887870e-02 3.821922e-02 4.238227e-02 6.040338e-02 7.929355e-02 8.416059e-02 1.123182e-01 1.146771e-01 1.250828e-01 8.418009e-02 4.223615e-02 2.019280e-02
<GCONST> -2.951926e+00
<STATE> 5
<MEAN> 32
 6.468410e+00 7.463541e+00 7.952569e+00 7.976271e+00 7.286744e+00 7.072204e+00 7.321283e+00 8.011097e+00 8.454127e+00 8.340537e+00 8.482193e+00 8.746325e+00 9.116983e+00 9.131044e+00 8.721915e+00 8.655837e+00 1.736222e-01 3.019594e-01 6.141526e-01 6.901601e-01 5.166380e-01 4.255823e-01 4.824047e-01 6.272504e-01 7.172669e-01 7.218650e-01 6.943295e-01 6.837065e-01 6.679844e-01 5.093780e-01 2.242695e-01 8.664884e-02
<VARIANCE> 32
 5.510817e-01 8.169259e-01 6.431246e-01 3.420379e-01 1.133706e-01 1.190998e-01 2.072931e-01 4.010043e-01 4.518543e-01 3.668301e-01 4.781875e-01 5.978156e-01 7.578223e-01 5.367411e-01 7.023354e-01 7.013169e-01 3.704649e-02 6.575488e-02 7.304084e-02 7.231777e-02 5.547806e-02 6.356162e-02 5.323938e-02 8.306406e-02 1.342728e-01 1.346115e-01 1.987387e-01 2.309557e-01 2.138754e-01 1.943229e-01 9.888509e-02 5.234201e-02
<GCONST> 7.181965e+00
<STATE> 6
<MEAN> 32
 6.597197e+00 7.851791e+00 9.169042e+00 9.337856e+00 8.362393e+00 8.092432e+00 8.532651e+00 9.457796e+00 1.016104e+01 1.010860e+01 1.011726e+01 1.025336e+01 1.046652e+01 1.000925e+01 9.200877e+00 8.846571e+00 2.002741e-01 3.127518e-01 6.460686e-01 7.681869e-01 6.636509e-01 5.153681e-01 5.180061e-01 6.529668e-01 7.941159e-01 8.000224e-01 7.818760e-01 7.490288e-01 7.095733e-01 5.031528e-01 2.610759e-01 1.520004e-01
<VARIANCE> 32
 3.762893e-01 5.165154e-01 5.799794e-01 4.976418e-01 4.001763e-01 6.616151e-01 5.563252e-01 3.148733e-01 2.963465e-01 5.025193e-01 1.552073e+00 1.599420e+00 1.326191e+00 1.624663e+00 1.199836e+00 7.772035e-01 5.502200e-02 1.180173e-01 1.121015e-01 6.828514e-02 6.021648e-02 5.002252e-02 4.864991e-02 5.812064e-02 8.919504e-02 8.230055e-02 1.368454e-01 1.477005e-01 9.994726e-02 1.223336e-01 3.944545e-02 1.298579e-02
<GCONST> 1.018368e+01
<STATE> 7
<MEAN> 32
 6.862230e+00 7.985311e+00 9.789588e+00 1.036305e+01 9.615009e+00 8.783378e+00 9.008071e+00 9.928852e+00 1.097998e+01 1.094712e+01 1.094967e+01 1.111258e+01 1.128074e+01 1.047713e+01 9.269168e+00 8.733323e+00 8.020838e-02 5.297867e-02 1.525820e-01 3.621911e-01 4.453914e-01 3.092517e-01 2.844600e-01 3.269755e-01 3.759288e-01 3.848628e-01 3.670694e-01 3.417201e-01 2.955221e-01 2.040711e-01 9.013771e-02 6.844613e-02
<VARIANCE> 32
 3.969004e-01 7.095776e-01 9.406050e-01 6.924928e-01 8.291325e-01 5.274993e-01 3.669717e-01 4.300845e-01 3.308204e-01 5.098922e-01 1.239538e+00 1.202280e+00 9.100308e-01 1.388124e+00 7.344641e-01 5.607147e-01 1.519818e-02 2.190886e-02 8.556077e-02 4.971439e-02 5.577345e-02 2.276431e-02 2.657414e-02 3.220206e-02 4.924783e-02 5.111874e-02 5.318557e-02 6.690518e-02 5.616005e-02 4.799474e-02 3.504921e-02 2.141186e-02
<GCONST> 4.747694e-01
<STATE> 8
<MEAN> 32
 6.887787e+00 7.938042e+00 9.299234e+00 9.965841e+00 9.685696e+00 8.930970e+00 9.161242e+00 9.867734e+00 1.088355e+01 1.108184e+01 1.138086e+01 1.133154e+01 1.158160e+01 1.102184e+01 9.223478e+00 8.709995e+00 -1.357169e-02 -1.549989e-02 -2.937140e-02 -3.074926e-02 -2.203466e-02 -2.098686e-02 -2.070890e-02 -1.590130e-02 -3.281633e-02 -4.763148e-02 -3.986364e-02 -3.733689e-02 -3.908816e-02 -3.328065e-02 -1.830000e-02 -1.012216e-02
<VARIANCE> 32
 6.593333e-01 7.733288e-01 1.100960e+00 8.552734e-01 1.064689e+00 7.030460e-01 4.317798e-01 4.094817e-01 4.629532e-01 5.821539e-01 5.903054e-01 6.513429e-01 6.028105e-01 7.523639e-01 1.015302e+00 4.916273e-01 6.751030e-03 7.991086e-03 3.169891e-02 3.544266e-02 4.860732e-02 2.788704e-02 2.219480e-02 2.117984e-02 3.571958e-02 4.639509e-02 4.198617e-02 3.959957e-02 4.339798e-02 4.680724e-02 1.761718e-02 7.236624e-03
<GCONST> -6.550024e+00
<STATE> 9
<MEAN> 32
 6.201581e+00 7.343853e+00 8.747803e+00 9.057415e+00 8.214133e+00 7.700845e+00 8.026423e+00 9.246273e+00 9.680973e+00 9.583321e+00 9.199150e+00 9.542738e+00 9.753811e+00 9.053183e+00 8.364166e+00 8.399732e+00 -4.854129e-02 -9.104960e-02 -1.203518e-01 -1.233212e-01 -1.129663e-01 -9.403833e-02 -1.032954e-01 -1.338336e-01 -1.395599e-01 -1.168584e-01 -1.140117e-01 -1.182523e-01 -1.064528e-01 -7.949932e-02 -4.459190e-02 -2.380346e-02
<VARIANCE> 32
 1.486444e-01 4.262794e-01 7.140459e-01 7.501776e-01 6.903065e-01 3.385674e-01 2.959409e-01 7.029312e-01 6.455214e-01 7.734174e-01 1.166331e+00 1.812914e+00 7.476963e-01 4.342518e-01 1.749007e-01 1.532681e-01 1.223029e-02 2.276600e-02 4.206856e-02 5.022299e-02 4.498817e-02 2.595204e-02 2.882508e-02 5.690955e-02 5.495112e-02 3.859007e-02 4.296701e-02 3.912583e-02 4.120298e-02 3.518740e-02 1.175202e-02 6.214566e-03
<GCONST> -8.401609e+00
<TRANSP> 10
 0.000000e+00 1.000000e+00 0.000000e+00 0.000000e+00 0.000000e+00 0.000000e+00 0.000000e+00 0.000000e+00 0.000000e+00 0.000000e+00
 0.000000e+00 4.629630e-01 5.370370e-01 0.000000e+00 0.000000e+00 0.000000e+00 0.000000e+00 0.000000e+00 0.000000e+00 0.000000e+00
 0.000000e+00 0.000000e+00 3.578428e-01 6.421573e-01 0.000000e+00 0.000000e+00 0.000000e+00 0.000000e+00 0.000000e+00 0.000000e+00
 0.000000e+00 0.000000e+00 0.000000e+00 1.502284e-01 8.497716e-01 0.000000e+00 0.000000e+00 0.000000e+00 0.000000e+00 0.000000e+00
 0.000000e+00 0.000000e+00 0.000000e+00 0.000000e+00 2.319089e-01 7.680911e-01 0.000000e+00 0.000000e+00 0.000000e+00 0.000000e+00
 0.000000e+00 0.000000e+00 0.000000e+00 0.000000e+00 0.000000e+00 2.024010e-01 7.975990e-01 0.000000e+00 0.000000e+00 0.000000e+00
 0.000000e+00 0.000000e+00 0.000000e+00 0.000000e+00 0.000000e+00 0.000000e+00 4.654376e-01 5.345624e-01 0.000000e+00 0.000000e+00
 0.000000e+00 0.000000e+00 0.000000e+00 0.000000e+00 0.000000e+00 0.000000e+00 0.000000e+00 9.622846e-01 3.771536e-02 0.000000e+00
 0.000000e+00 0.000000e+00 0.000000e+00 0.000000e+00 0.000000e+00 0.000000e+00 0.000000e+00 0.000000e+00 9.254889e-01 7.451110e-02
 0.000000e+00 0.000000e+00 0.000000e+00 0.000000e+00 0.000000e+00 0.000000e+00 0.000000e+00 0.000000e+00 0.000000e+00 0.000000e+00
<ENDHMM>
~h "jedna"
<BEGINHMM>
<NUMSTATES> 10
<STATE> 2
<MEAN> 32
 6.094398e+00 6.708788e+00 7.067295e+00 6.921885e+00 6.630700e+00 6.601226e+00 6.763701e+00 7.342440e+00 7.958153e+00 7.885119e+00 7.615008e+00 7.599825e+00 8.166297e+00 8.110607e+00 8.283340e+00 8.445425e+00 4.139285e-02 1.615557e-01 1.620241e-01 1.216263e-01 3.920838e-02 2.763917e-02 1.393110e-02 2.784338e-02 5.542026e-02 1.163227e-01 1.304139e-01 1.346610e-01 1.328980e-01 8.532148e-02 2.486281e-02 5.027453e-03
<VARIANCE> 32
 1.762927e-01 5.705020e-01 9.941829e-01 7.997362e-01 3.190421e-01 9.570003e-02 9.490167e-02 5.835778e-01 8.672829e-01 6.593691e-01 1.870535e-01 1.089850e-01 2.887655e-01 1.453915e-01 2.383579e-01 1.739151e-01 1.077376e-02 4.808138e-02 9.762327e-02 6.612620e-02 2.532761e-02 1.379263e-02 9.556631e-03 3.880958e-02 6.009694e-02 5.773095e-02 4.232891e-02 4.240727e-02 5.185598e-02 2.347230e-02 1.299606e-02 6.301743e-03
<GCONST> -1.747712e+01
<STATE> 3
<MEAN> 32
 6.051293e+00 6.955243e+00 7.193609e+00 7.003088e+00 6.610767e+00 6.612600e+00 6.716315e+00 6.962164e+00 7.596070e+00 7.908051e+00 8.072350e+00 8.384330e+00 8.501942e+00 8.382874e+00 8.075040e+00 8.144823e+00 1.550074e-01 3.483360e-01 4.566756e-01 3.915088e-01 1.954162e-01 7.354822e-02 9.250710e-02 1.333963e-01 1.950009e-01 3.843920e-01 4.271112e-01 4.449207e-01 4.134094e-01 2.264411e-01 8.230090e-02 2.282949e-02
<VARIANCE> 32
 2.462876e-01 4.944409e-01 7.187184e-01 5.243564e-01 1.361406e-01 1.068694e-01 5.380237e-02 9.105758e-02 4.283625e-01 7.090486e-01 6.443936e-01 8.842229e-01 4.864924e-01 3.895198e-01 1.468860e-01 9.168372e-02 1.793900e-02 5.865017e-02 6.735246e-02 3.418981e-02 2.137291e-02 1.883296e-02 1.163911e-02 2.091603e-02 2.239214e-02 4.615091e-02 5.101676e-02 6.792249e-02 1.112533e-01 5.811500e-02 1.216721e-02 3.195314e-03
<GCONST> -1.834852e+01
<STATE> 4
<MEAN> 32
 6.280029e+00 7.437024e+00 7.845000e+00 7.616723e+00 6.993824e+00 6.857224e+00 6.863131e+00 7.128192e+00 7.798680e+00 8.623142e+00 8.933457e+00 9.153721e+00 9.441634e+00 8.878024e+00 8.156175e+00 8.174526e+00 1.836520e-01 3.363961e-01 4.965260e-01 4.473385e-01 2.789442e-01 1.257256e-01 1.665588e-01 2.124915e-01 2.608714e-01 5.042704e-01 5.446562e-01 5.473855e-01 5.553163e-01 3.667337e-01 1.458235e-01 3.199638e-02
<VARIANCE> 32
 2.907304e-01 3.963176e-01 5.929061e-01 3.115115e-01 2.344828e-01 1.983091e-01 6.927140e-02 2.465247e-01 6.299340e-01 5.323472e-01 5.064515e-01 7.579709e-01 6.184790e-01 4.128598e-01 2.188544e-01 1.500902e-01 4.466584e-02 1.111354e-01 1.088500e-01 9.569839e-02 3.311013e-02 3.603565e-02 3.066234e-02 3.594501e-02 3.031205e-02 8.695966e-02 9.187678e-02 1.295454e-01 1.427142e-01 7.263017e-02 2.642742e-02 1.889619e-03
<GCONST> -7.262349e+00
<STATE> 5
<MEAN> 32
 6.393953e+00 7.553887e+00 8.338427e+00 8.050952e+00 7.271206e+00 7.003445e+00 7.272146e+00 7.904270e+00 8.521040e+00 9.074138e+00 9.235093e+00 9.346241e+00 9.662616e+00 9.075382e+00 8.327355e+00 8.286577e+00 6.485303e-02 1.081163e-01 1.777672e-01 1.681304e-01 1.267077e-01 9.808666e-02 1.175792e-01 1.193724e-01 1.170018e-01 1.817807e-01 1.853122e-01 1.826416e-01 1.813139e-01 1.479370e-01 6.709110e-02 1.794671e-02
<VARIANCE> 32
 1.206973e-01 4.037640e-01 8.035411e-01 6.176280e-01 3.121567e-01 1.717253e-01 2.723644e-01 7.505039e-01 9.369583e-01 9.250961e-01 1.259264e+00 1.807904e+00 1.439037e+00 6.878970e-01 2.231505e-01 1.363617e-01 3.103027e-02 7.466312e-02 1.565078e-01 1.440555e-01 7.320383e-02 4.058097e-02 6.087222e-02 8.214349e-02 1.115602e-01 1.582775e-01 1.502958e-01 1.416103e-01 1.285836e-01 8.887951e-02 3.271039e-02 6.624935e-03
<GCONST> 5.981519e+00
<STATE> 6
<MEAN> 32
 6.821872e+00 8.158221e+00 9.393736e+00 9.122250e+00 8.077847e+00 7.651944e+00 7.861794e+00 8.237012e+00 9.033177e+00 1.046611e+01 1.089473e+01 1.109198e+01 1.130149e+01 1.042021e+01 8.850510e+00 8.447268e+00 5.872324e-02 6.099743e-02 2.928741e-01 4.130017e-01 3.713677e-01 3.275765e-01 3.378897e-01 3.802900e-01 4.284202e-01 4.090876e-01 3.455284e-01 3.210934e-01 3.124371e-01 2.654725e-01 1.579986e-01 1.145895e-01
<VARIANCE> 32
 3.669172e-01 6.713942e-01 6.555411e-01 7.585297e-01 3.755878e-01 2.724296e-01 3.556807e-01 4.088002e-01 6.935986e-01 6.615846e-01 8.370546e-01 8.879765e-01 8.782099e-01 9.674684e-01 7.949274e-01 2.001998e-01 3.445015e-02 5.030600e-02 9.818303e-02 8.360803e-02 6.789811e-02 3.674532e-02 3.997183e-02 3.222866e-02 2.971820e-02 6.835422e-02 6.508581e-02 4.869423e-02 4.788059e-02 4.819405e-02 2.723792e-02 8.284285e-03
<GCONST> -8.018289e-01
<STATE> 7
<MEAN> 32
 7.950643e+00 9.110979e+00 1.039366e+01 1.062452e+01 9.790276e+00 9.211655e+00 9.300975e+00 9.967257e+00 1.075917e+01 1.081865e+01 1.090079e+01 1.099283e+01 1.100388e+01 1.053664e+01 9.798496e+00 9.217778e+00 3.909367e-03 -1.918302e-02 -5.211506e-02 2.679649e-02 8.847822e-02 7.542621e-02 8.945307e-02 1.063225e-01 7.615613e-02 -3.028367e-02 -5.058077e-02 -2.087292e-02 -2.483060e-02 -2.451245e-02 -5.618977e-03 -8.566814e-03
<VARIANCE> 32
 7.029710e-01 7.555561e-01 9.571031e-01 7.839444e-01 8.486320e-01 1.142278e+00 1.130283e+00 1.545529e+00 1.153713e+00 1.452622e+00 1.565693e+00 1.850396e+00 2.192862e+00 1.699883e+00 1.165444e+00 4.626676e-01 5.517265e-03 1.400391e-02 5.990430e-02 7.205841e-02 1.088866e-01 9.069948e-02 7.874008e-02 9.664780e-02 1.299819e-01 8.875576e-02 7.526615e-02 1.040978e-01 1.145840e-01 7.858092e-02 4.539132e-02 2.999137e-02
<GCONST> 1.566676e+01
<STATE> 8
<MEAN> 32
 6.607448e+00 7.721403e+00 8.617873e+00 9.061213e+00 9.025303e+00 8.971071e+00 9.153676e+00 9.818273e+00 9.823043e+00 9.802105e+00 1.009144e+01 1.029090e+01 1.072186e+01 9.893096e+00 8.451694e+00 8.221777e+00 -7.606631e-03 -1.030588e-02 -4.639307e-02 -3.988529e-02 -2.432112e-03 2.290743e-02 2.551396e-02 8.312478e-03 -4.415266e-02 -6.057471e-02 -5.198138e-02 -5.268298e-02 -4.790230e-02 -4.042956e-02 -2.908495e-02 -1.318180e-02
<VARIANCE> 32
 2.339198e-01 3.522878e-01 5.739455e-01 7.643586e-01 1.338387e+00 2.081302e+00 2.520170e+00 2.387402e+00 1.096245e+00 9.302077e-01 1.207000e+00 1.241206e+00 1.298891e+00 1.356417e+00 4.189635e-01 1.161735e-01 9.872881e-03 1.861468e-02 3.845715e-02 4.638455e-02 6.070644e-02 6.358834e-02 7.694989e-02 9.117275e-02 6.636314e-02 5.065167e-02 5.434348e-02 7.065301e-02 6.751399e-02 5.949162e-02 1.947079e-02 7.288700e-03
<GCONST> 5.195701e+00
<STATE> 9
<MEAN> 32
 6.348579e+00 7.306640e+00 7.831460e+00 8.713132e+00 9.341303e+00 9.190022e+00 9.534595e+00 9.358821e+00 8.907442e+00 8.909580e+00 8.760974e+00 9.141652e+00 9.451392e+00 8.954288e+00 8.103286e+00 8.177515e+00 -4.461400e-02 -8.952913e-02 -1.176220e-01 -1.373429e-01 -1.306808e-01 -1.139810e-01 -1.311141e-01 -1.441021e-01 -1.196431e-01 -1.112099e-01 -1.074463e-01 -1.250410e-01 -1.196920e-01 -8.569136e-02 -3.126037e-02 -1.173441e-02
<VARIANCE> 32
 1.687009e-01 3.995313e-01 6.432104e-01 1.025639e+00 1.200418e+00 6.999685e-01 8.081018e-01 8.140272e-01 5.702537e-01 6.113289e-01 8.575462e-01 8.595417e-01 5.975905e-01 3.012695e-01 7.728738e-02 5.385987e-02 1.137555e-02 1.617074e-02 2.033195e-02 3.143594e-02 3.661651e-02 3.092621e-02 3.038792e-02 2.724078e-02 1.865129e-02 1.740114e-02 1.481085e-02 1.810905e-02 1.679632e-02 1.932908e-02 4.686883e-03 1.797614e-03
<GCONST> -1.925908e+01
<TRANSP> 10
 0.000000e+00 1.000000e+00 0.000000e+00 0.000000e+00 0.000000e+00 0.000000e+00 0.000000e+00 0.000000e+00 0.000000e+00 0.000000e+00
 0.000000e+00 6.656442e-01 3.343559e-01 0.000000e+00 0.000000e+00 0.000000e+00 0.000000e+00 0.000000e+00 0.000000e+00 0.000000e+00
 0.000000e+00 0.000000e+00 3.646913e-01 6.353087e-01 0.000000e+00 0.000000e+00 0.000000e+00 0.000000e+00 0.000000e+00 0.000000e+00
 0.000000e+00 0.000000e+00 0.000000e+00 3.224705e-01 6.775296e-01 0.000000e+00 0.000000e+00 0.000000e+00 0.000000e+00 0.000000e+00
 0.000000e+00 0.000000e+00 0.000000e+00 0.000000e+00 7.376567e-01 2.623433e-01 0.000000e+00 0.000000e+00 0.000000e+00 0.000000e+00
 0.000000e+00 0.000000e+00 0.000000e+00 0.000000e+00 0.000000e+00 6.445859e-01 3.554141e-01 0.000000e+00 0.000000e+00 0.000000e+00
 0.000000e+00 0.000000e+00 0.000000e+00 0.000000e+00 0.000000e+00 0.000000e+00 8.701493e-01 1.298507e-01 0.000000e+00 0.000000e+00
 0.000000e+00 0.000000e+00 0.000000e+00 0.000000e+00 0.000000e+00 0.000000e+00 0.000000e+00 9.573439e-01 4.265609e-02 0.000000e+00
 0.000000e+00 0.000000e+00 0.000000e+00 0.000000e+00 0.000000e+00 0.000000e+00 0.000000e+00 0.000000e+00 9.191328e-01 8.086723e-02
 0.000000e+00 0.000000e+00 0.000000e+00 0.000000e+00 0.000000e+00 0.000000e+00 0.000000e+00 0.000000e+00 0.000000e+00 0.000000e+00
<ENDHMM>
