~o
<STREAMINFO> 1 16
<VECSIZE> 16<NULLD><FBANK><DIAGC>
~h "ctyri"
<BEGINHMM>
<NUMSTATES> 10
<STATE> 2
<MEAN> 16
 5.785771e+00 5.969872e+00 6.251688e+00 6.406940e+00 6.446891e+00 6.629308e+00 6.875074e+00 7.283382e+00 8.016740e+00 8.598653e+00 9.279545e+00 1.001285e+01 1.050090e+01 1.038374e+01 9.837791e+00 9.204465e+00
<VARIANCE> 16
 1.483260e-01 2.388581e-01 4.475048e-01 4.154064e-01 1.750035e-01 1.950449e-01 2.536417e-01 4.394069e-01 8.133982e-01 1.485399e+00 1.593373e+00 1.440462e+00 1.423195e+00 1.560937e+00 1.343039e+00 7.766322e-01
<GCONST> 2.067191e+01
<STATE> 3
<MEAN> 16
 5.828534e+00 6.260360e+00 6.849462e+00 7.108325e+00 6.879946e+00 7.012375e+00 7.342573e+00 7.782242e+00 8.513138e+00 9.013097e+00 9.570025e+00 9.970551e+00 1.040652e+01 1.030016e+01 9.877102e+00 9.521234e+00
<VARIANCE> 16
 2.320430e-01 7.089309e-01 1.406739e+00 1.411991e+00 5.730641e-01 6.740571e-01 8.778672e-01 1.134499e+00 1.697755e+00 2.426301e+00 2.772566e+00 2.145584e+00 1.847927e+00 1.959392e+00 2.197964e+00 1.988140e+00
<GCONST> 3.329250e+01
<STATE> 4
<MEAN> 16
 5.905452e+00 6.471770e+00 7.225513e+00 7.530781e+00 7.145952e+00 7.334829e+00 7.731926e+00 8.221397e+00 9.007586e+00 9.619007e+00 1.023014e+01 1.055348e+01 1.100970e+01 1.095949e+01 1.055169e+01 1.026189e+01
<VARIANCE> 16
 4.037940e-01 8.133314e-01 1.589120e+00 1.495674e+00 5.894851e-01 7.171711e-01 9.414617e-01 1.344837e+00 2.174051e+00 3.220697e+00 3.887294e+00 3.234308e+00 2.798580e+00 3.147187e+00 3.822412e+00 3.525589e+00
<GCONST> 3.778760e+01
<STATE> 5
<MEAN> 16
 6.247258e+00 6.923912e+00 7.660633e+00 7.938868e+00 7.605199e+00 7.856513e+00 8.221414e+00 8.748518e+00 9.657495e+00 1.034369e+01 1.096158e+01 1.134928e+01 1.169753e+01 1.165256e+01 1.137843e+01 1.106736e+01
<VARIANCE> 16
 8.200796e-01 1.373718e+00 2.235200e+00 1.943580e+00 1.086958e+00 1.072836e+00 1.253141e+00 1.668274e+00 2.409317e+00 3.311358e+00 3.842347e+00 3.585728e+00 3.231382e+00 3.540846e+00 4.860243e+00 4.741034e+00
<GCONST> 4.215956e+01
<STATE> 6
<MEAN> 16
 8.499537e+00 9.677145e+00 1.077239e+01 1.050101e+01 9.431306e+00 9.318754e+00 9.693759e+00 1.042836e+01 1.141189e+01 1.175213e+01 1.218383e+01 1.239411e+01 1.260870e+01 1.223979e+01 1.168460e+01 1.117691e+01
<VARIANCE> 16
 2.919714e+00 3.450176e+00 4.009626e+00 2.842890e+00 2.132528e+00 1.788291e+00 1.989062e+00 2.672835e+00 2.345668e+00 2.364091e+00 2.413411e+00 2.390168e+00 2.226328e+00 2.105290e+00 2.934859e+00 2.614722e+00
<GCONST> 4.420683e+01
<STATE> 7
<MEAN> 16
 7.220438e+00 8.436129e+00 9.805731e+00 9.917638e+00 8.787298e+00 8.492492e+00 8.686549e+00 9.211870e+00 1.052790e+01 1.103200e+01 1.113252e+01 1.115345e+01 1.157774e+01 1.106735e+01 9.936467e+00 9.287953e+00
<VARIANCE> 16
 1.185544e+00 1.147346e+00 1.665167e+00 1.209683e+00 9.820185e-01 7.540684e-01 6.345304e-01 4.686930e-01 7.098787e-01 7.791686e-01 8.850212e-01 8.824739e-01 1.015676e+00 9.971313e-01 1.163427e+00 9.500391e-01
<GCONST> 2.817432e+01
<STATE> 8
<MEAN> 16
 6.482811e+00 7.695209e+00 9.134618e+00 9.248936e+00 8.227995e+00 7.907626e+00 8.057148e+00 8.796714e+00 9.986712e+00 1.053443e+01 1.058207e+01 1.079564e+01 1.131069e+01 1.079088e+01 9.436539e+00 8.773957e+00
<VARIANCE> 16
 3.866052e-01 5.033089e-01 1.116710e+00 8.614864e-01 7.902117e-01 5.079347e-01 3.447579e-01 4.197513e-01 5.456982e-01 5.428762e-01 5.605168e-01 6.347802e-01 7.136276e-01 9.175965e-01 9.349982e-01 4.633016e-01
<GCONST> 2.137464e+01
<STATE> 9
<MEAN> 16
 6.417868e+00 7.730727e+00 8.825570e+00 8.599156e+00 7.581275e+00 7.312552e+00 7.516953e+00 8.355215e+00 9.474325e+00 9.880764e+00 9.368418e+00 9.421607e+00 9.844072e+00 9.335089e+00 8.574483e+00 8.510367e+00
<VARIANCE> 16
 2.634163e-01 3.874241e-01 6.657975e-01 4.111269e-01 2.500834e-01 1.930164e-01 1.515441e-01 5.399296e-01 8.680164e-01 5.420601e-01 1.058556e+00 1.102382e+00 1.288924e+00 8.887872e-01 3.112585e-01 2.145361e-01
<GCONST> 1.712397e+01
<TRANSP> 10
 0.000000e+00 1.000000e+00 0.000000e+00 0.000000e+00 0.000000e+00 0.000000e+00 0.000000e+00 0.000000e+00 0.000000e+00 0.000000e+00
 0.000000e+00 8.341367e-01 1.658633e-01 0.000000e+00 0.000000e+00 0.000000e+00 0.000000e+00 0.000000e+00 0.000000e+00 0.000000e+00
 0.000000e+00 0.000000e+00 5.466391e-01 4.533609e-01 0.000000e+00 0.000000e+00 0.000000e+00 0.000000e+00 0.000000e+00 0.000000e+00
 0.000000e+00 0.000000e+00 0.000000e+00 5.709732e-01 4.290269e-01 0.000000e+00 0.000000e+00 0.000000e+00 0.000000e+00 0.000000e+00
 0.000000e+00 0.000000e+00 0.000000e+00 0.000000e+00 7.090947e-01 2.909053e-01 0.000000e+00 0.000000e+00 0.000000e+00 0.000000e+00
 0.000000e+00 0.000000e+00 0.000000e+00 0.000000e+00 0.000000e+00 8.944247e-01 1.055753e-01 0.000000e+00 0.000000e+00 0.000000e+00
 0.000000e+00 0.000000e+00 0.000000e+00 0.000000e+00 0.000000e+00 0.000000e+00 8.391342e-01 1.608659e-01 0.000000e+00 0.000000e+00
 0.000000e+00 0.000000e+00 0.000000e+00 0.000000e+00 0.000000e+00 0.000000e+00 0.000000e+00 9.339179e-01 6.608216e-02 0.000000e+00
 0.000000e+00 0.000000e+00 0.000000e+00 0.000000e+00 0.000000e+00 0.000000e+00 0.000000e+00 0.000000e+00 9.099549e-01 9.004509e-02
 0.000000e+00 0.000000e+00 0.000000e+00 0.000000e+00 0.000000e+00 0.000000e+00 0.000000e+00 0.000000e+00 0.000000e+00 0.000000e+00
<ENDHMM>
~h "sedm"
<BEGINHMM>
<NUMSTATES> 10
<STATE> 2
<MEAN> 16
 5.743996e+00 6.032601e+00 6.549315e+00 6.990730e+00 6.878850e+00 7.102813e+00 7.495471e+00 8.011804e+00 8.312332e+00 8.347103e+00 8.562149e+00 9.119967e+00 1.012893e+01 1.073576e+01 1.078078e+01 1.045880e+01
<VARIANCE> 16
 1.861493e-01 3.234999e-01 7.559916e-01 8.385736e-01 2.589098e-01 2.641830e-01 4.486821e-01 5.956565e-01 2.819532e-01 2.110860e-01 2.909507e-01 3.506919e-01 5.615528e-01 8.361614e-01 1.228399e+00 9.855511e-01
<GCONST> 1.646979e+01
<STATE> 3
<MEAN> 16
 5.825992e+00 6.251367e+00 6.919215e+00 7.403183e+00 7.226595e+00 7.498715e+00 7.956187e+00 8.566777e+00 8.813648e+00 8.846587e+00 9.161036e+00 9.765622e+00 1.076237e+01 1.153359e+01 1.161946e+01 1.134932e+01
<VARIANCE> 16
 1.964756e-01 4.492459e-01 9.494109e-01 1.178357e+00 5.719416e-01 4.404806e-01 6.167258e-01 8.275669e-01 4.762912e-01 3.738974e-01 4.873619e-01 6.041805e-01 8.695090e-01 1.641659e+00 2.835443e+00 2.446996e+00
<GCONST> 2.438445e+01
<STATE> 4
<MEAN> 16
 6.108256e+00 6.538707e+00 7.284848e+00 7.861575e+00 7.795111e+00 8.057954e+00 8.542667e+00 9.189857e+00 9.475194e+00 9.540954e+00 9.928304e+00 1.044777e+01 1.144895e+01 1.227471e+01 1.238178e+01 1.214106e+01
<VARIANCE> 16
 4.369735e-01 6.618392e-01 1.240776e+00 1.478635e+00 1.069786e+00 7.285887e-01 8.615443e-01 9.907680e-01 7.010185e-01 6.432976e-01 8.224287e-01 6.544435e-01 9.947248e-01 2.126894e+00 4.298142e+00 4.143277e+00
<GCONST> 3.057799e+01
<STATE> 5
<MEAN> 16
 7.856124e+00 8.703861e+00 9.725070e+00 1.045088e+01 1.008030e+01 9.751503e+00 1.030004e+01 1.116718e+01 1.106273e+01 1.117358e+01 1.150602e+01 1.175911e+01 1.222712e+01 1.211734e+01 1.173115e+01 1.139923e+01
<VARIANCE> 16
 3.991918e+00 4.846554e+00 5.551964e+00 5.781176e+00 4.900172e+00 3.513690e+00 4.538688e+00 4.835399e+00 2.680478e+00 3.787204e+00 3.511690e+00 3.194384e+00 2.658812e+00 2.044806e+00 3.485428e+00 3.777283e+00
<GCONST> 5.077777e+01
<STATE> 6
<MEAN> 16
 8.523268e+00 9.689396e+00 1.048188e+01 1.084574e+01 1.035874e+01 1.001640e+01 1.044600e+01 1.109720e+01 1.117590e+01 1.125633e+01 1.153317e+01 1.176113e+01 1.184766e+01 1.128598e+01 1.022965e+01 1.000183e+01
<VARIANCE> 16
 2.663924e+00 3.053198e+00 2.280767e+00 1.436288e+00 1.438454e+00 1.209933e+00 1.434775e+00 1.193623e+00 1.023261e+00 1.200065e+00 1.159079e+00 1.180861e+00 1.065395e+00 1.043909e+00 1.449077e+00 1.041332e+00
<GCONST> 3.481771e+01
<STATE> 7
<MEAN> 16
 7.631983e+00 8.790711e+00 9.563078e+00 9.929863e+00 9.513568e+00 9.164397e+00 9.547748e+00 1.028232e+01 1.067395e+01 1.058011e+01 1.087749e+01 1.089567e+01 1.098688e+01 1.038903e+01 9.179848e+00 9.002467e+00
<VARIANCE> 16
 1.633552e+00 1.656198e+00 8.439798e-01 6.759810e-01 1.049737e+00 8.678622e-01 1.011525e+00 8.771663e-01 8.967071e-01 1.135406e+00 1.148537e+00 1.235955e+00 1.375652e+00 1.092290e+00 5.225339e-01 3.732084e-01
<GCONST> 2.876813e+01
<STATE> 8
<MEAN> 16
 7.173173e+00 8.427884e+00 9.122512e+00 9.096638e+00 8.507874e+00 8.374544e+00 8.898434e+00 9.371555e+00 9.544006e+00 9.494768e+00 9.632507e+00 9.620560e+00 1.003327e+01 9.494016e+00 8.410809e+00 8.298641e+00
<VARIANCE> 16
 7.390235e-01 5.524527e-01 5.666130e-01 4.330666e-01 4.216567e-01 5.005360e-01 5.085189e-01 3.712795e-01 3.068495e-01 4.686785e-01 5.174787e-01 7.839514e-01 9.299186e-01 4.492853e-01 3.100027e-01 2.261465e-01
<GCONST> 1.751065e+01
<STATE> 9
<MEAN> 16
 6.471542e+00 7.873964e+00 8.343357e+00 8.331917e+00 7.751545e+00 7.813997e+00 8.068112e+00 8.293669e+00 8.359236e+00 8.552793e+00 8.524166e+00 9.010281e+00 9.246788e+00 8.815645e+00 8.315697e+00 8.339493e+00
<VARIANCE> 16
 3.796780e-01 5.012800e-01 8.116734e-01 6.787910e-01 3.789392e-01 3.594756e-01 4.349785e-01 5.329065e-01 4.393154e-01 4.917731e-01 6.407991e-01 1.281805e+00 1.058441e+00 3.592676e-01 3.957642e-01 3.997157e-01
<GCONST> 1.915568e+01
<TRANSP> 10
 0.000000e+00 1.000000e+00 0.000000e+00 0.000000e+00 0.000000e+00 0.000000e+00 0.000000e+00 0.000000e+00 0.000000e+00 0.000000e+00
 0.000000e+00 5.732033e-01 4.267968e-01 0.000000e+00 0.000000e+00 0.000000e+00 0.000000e+00 0.000000e+00 0.000000e+00 0.000000e+00
 0.000000e+00 0.000000e+00 6.090209e-01 3.909792e-01 0.000000e+00 0.000000e+00 0.000000e+00 0.000000e+00 0.000000e+00 0.000000e+00
 0.000000e+00 0.000000e+00 0.000000e+00 6.800001e-01 3.199999e-01 0.000000e+00 0.000000e+00 0.000000e+00 0.000000e+00 0.000000e+00
 0.000000e+00 0.000000e+00 0.000000e+00 0.000000e+00 7.137027e-01 2.862972e-01 0.000000e+00 0.000000e+00 0.000000e+00 0.000000e+00
 0.000000e+00 0.000000e+00 0.000000e+00 0.000000e+00 0.000000e+00 8.600845e-01 1.399155e-01 0.000000e+00 0.000000e+00 0.000000e+00
 0.000000e+00 0.000000e+00 0.000000e+00 0.000000e+00 0.000000e+00 0.000000e+00 8.110145e-01 1.889854e-01 0.000000e+00 0.000000e+00
 0.000000e+00 0.000000e+00 0.000000e+00 0.000000e+00 0.000000e+00 0.000000e+00 0.000000e+00 9.250456e-01 7.495435e-02 0.000000e+00
 0.000000e+00 0.000000e+00 0.000000e+00 0.000000e+00 0.000000e+00 0.000000e+00 0.000000e+00 0.000000e+00 9.478307e-01 5.216934e-02
 0.000000e+00 0.000000e+00 0.000000e+00 0.000000e+00 0.000000e+00 0.000000e+00 0.000000e+00 0.000000e+00 0.000000e+00 0.000000e+00
<ENDHMM>
~h "sest"
<BEGINHMM>
<NUMSTATES> 10
<STATE> 2
<MEAN> 16
 5.721339e+00 5.872457e+00 6.177097e+00 6.429399e+00 6.498701e+00 6.641438e+00 6.942861e+00 7.595561e+00 8.485928e+00 9.269976e+00 9.835093e+00 1.044910e+01 1.065825e+01 1.060326e+01 1.016765e+01 9.403201e+00
<VARIANCE> 16
 1.559917e-01 1.766600e-01 3.308015e-01 4.439718e-01 1.753535e-01 1.299295e-01 2.502896e-01 4.232650e-01 5.580198e-01 6.072295e-01 3.736660e-01 4.489546e-01 5.036747e-01 4.681168e-01 3.623736e-01 3.721207e-01
<GCONST> 1.155380e+01
<STATE> 3
<MEAN> 16
 5.771763e+00 5.975081e+00 6.333735e+00 6.601638e+00 6.580801e+00 6.780417e+00 7.140977e+00 7.926715e+00 8.838927e+00 9.607036e+00 1.022663e+01 1.082191e+01 1.107067e+01 1.098210e+01 1.057867e+01 9.843248e+00
<VARIANCE> 16
 1.174865e-01 2.347258e-01 5.298654e-01 6.299890e-01 2.574487e-01 1.946270e-01 3.792026e-01 6.805363e-01 8.381357e-01 8.299429e-01 5.890524e-01 5.641544e-01 6.476541e-01 7.286241e-01 7.359979e-01 6.855120e-01
<GCONST> 1.747016e+01
<STATE> 4
<MEAN> 16
 5.835970e+00 6.127705e+00 6.624939e+00 6.943377e+00 6.809826e+00 6.982031e+00 7.380118e+00 8.246851e+00 9.174451e+00 9.903393e+00 1.050646e+01 1.102826e+01 1.130551e+01 1.118453e+01 1.080154e+01 1.013929e+01
<VARIANCE> 16
 1.389076e-01 3.699423e-01 8.543961e-01 1.096210e+00 4.975818e-01 3.806988e-01 5.884154e-01 9.718403e-01 1.062072e+00 1.206974e+00 1.022229e+00 8.514822e-01 9.447784e-01 1.258551e+00 1.612455e+00 1.356327e+00
<GCONST> 2.521479e+01
<STATE> 5
<MEAN> 16
 6.055523e+00 6.559575e+00 7.334850e+00 7.815334e+00 7.544655e+00 7.612017e+00 8.015648e+00 8.929791e+00 9.896923e+00 1.056196e+01 1.107852e+01 1.140397e+01 1.167434e+01 1.152184e+01 1.110726e+01 1.058520e+01
<VARIANCE> 16
 3.698135e-01 7.342538e-01 1.360180e+00 1.864775e+00 1.272567e+00 9.504993e-01 1.220928e+00 1.646382e+00 1.681139e+00 2.204889e+00 2.196787e+00 1.664401e+00 1.602411e+00 2.391292e+00 3.521301e+00 3.149023e+00
<GCONST> 3.627747e+01
<STATE> 6
<MEAN> 16
 7.453021e+00 8.275412e+00 9.462834e+00 1.045230e+01 1.011867e+01 9.751633e+00 1.004287e+01 1.092064e+01 1.142644e+01 1.171766e+01 1.205367e+01 1.228247e+01 1.249675e+01 1.248116e+01 1.201246e+01 1.144763e+01
<VARIANCE> 16
 2.108797e+00 2.588183e+00 2.543408e+00 3.216480e+00 3.255509e+00 2.276792e+00 2.406563e+00 2.804970e+00 1.989919e+00 2.254105e+00 2.093030e+00 2.069496e+00 1.621107e+00 2.587448e+00 4.404419e+00 4.940857e+00
<GCONST> 4.459830e+01
<STATE> 7
<MEAN> 16
 6.491598e+00 7.460180e+00 8.762189e+00 9.816942e+00 9.760173e+00 9.238564e+00 9.399281e+00 1.028542e+01 1.078126e+01 1.058916e+01 1.086049e+01 1.101999e+01 1.144897e+01 1.125071e+01 1.019425e+01 9.649570e+00
<VARIANCE> 16
 4.104722e-01 6.802666e-01 8.934114e-01 1.044511e+00 1.805725e+00 1.191210e+00 7.874773e-01 9.644089e-01 1.310861e+00 9.508963e-01 1.319805e+00 1.022213e+00 1.217000e+00 1.833936e+00 3.406959e+00 3.439605e+00
<GCONST> 3.233574e+01
<STATE> 8
<MEAN> 16
 6.126597e+00 6.954971e+00 8.140592e+00 8.913725e+00 8.477550e+00 8.252459e+00 8.653972e+00 9.412777e+00 9.475100e+00 9.425548e+00 9.548703e+00 9.855395e+00 1.038200e+01 1.063548e+01 1.040980e+01 1.014685e+01
<VARIANCE> 16
 3.198805e-01 6.825696e-01 1.084555e+00 1.075146e+00 1.123602e+00 5.207931e-01 5.025804e-01 1.055674e+00 8.892503e-01 6.926989e-01 1.060251e+00 8.310035e-01 9.093922e-01 1.853874e+00 3.477031e+00 3.250176e+00
<GCONST> 2.920431e+01
<STATE> 9
<MEAN> 16
 5.749852e+00 6.045595e+00 6.657267e+00 7.318233e+00 7.354186e+00 7.172063e+00 7.376864e+00 8.001592e+00 8.275026e+00 8.244862e+00 8.624887e+00 9.128910e+00 9.926969e+00 1.044113e+01 1.042126e+01 1.014098e+01
<VARIANCE> 16
 1.618166e-01 2.709960e-01 4.470167e-01 5.973255e-01 5.347277e-01 3.801360e-01 4.096575e-01 4.210596e-01 4.245502e-01 3.428649e-01 3.877781e-01 3.449463e-01 5.823914e-01 6.536714e-01 4.777815e-01 4.361230e-01
<GCONST> 1.513497e+01
<TRANSP> 10
 0.000000e+00 1.000000e+00 0.000000e+00 0.000000e+00 0.000000e+00 0.000000e+00 0.000000e+00 0.000000e+00 0.000000e+00 0.000000e+00
 0.000000e+00 5.339594e-01 4.660406e-01 0.000000e+00 0.000000e+00 0.000000e+00 0.000000e+00 0.000000e+00 0.000000e+00 0.000000e+00
 0.000000e+00 0.000000e+00 4.902872e-01 5.097128e-01 0.000000e+00 0.000000e+00 0.000000e+00 0.000000e+00 0.000000e+00 0.000000e+00
 0.000000e+00 0.000000e+00 0.000000e+00 5.136330e-01 4.863670e-01 0.000000e+00 0.000000e+00 0.000000e+00 0.000000e+00 0.000000e+00
 0.000000e+00 0.000000e+00 0.000000e+00 0.000000e+00 6.475115e-01 3.524884e-01 0.000000e+00 0.000000e+00 0.000000e+00 0.000000e+00
 0.000000e+00 0.000000e+00 0.000000e+00 0.000000e+00 0.000000e+00 9.219124e-01 7.808764e-02 0.000000e+00 0.000000e+00 0.000000e+00
 0.000000e+00 0.000000e+00 0.000000e+00 0.000000e+00 0.000000e+00 0.000000e+00 8.968434e-01 1.031566e-01 0.000000e+00 0.000000e+00
 0.000000e+00 0.000000e+00 0.000000e+00 0.000000e+00 0.000000e+00 0.000000e+00 0.000000e+00 8.714994e-01 1.285006e-01 0.000000e+00
 0.000000e+00 0.000000e+00 0.000000e+00 0.000000e+00 0.000000e+00 0.000000e+00 0.000000e+00 0.000000e+00 9.205387e-01 7.946132e-02
 0.000000e+00 0.000000e+00 0.000000e+00 0.000000e+00 0.000000e+00 0.000000e+00 0.000000e+00 0.000000e+00 0.000000e+00 0.000000e+00
<ENDHMM>
~h "dva"
<BEGINHMM>
<NUMSTATES> 10
<STATE> 2
<MEAN> 16
 6.795621e+00 7.706454e+00 8.428386e+00 8.446228e+00 7.802913e+00 7.872246e+00 8.237297e+00 8.397650e+00 8.387318e+00 8.540638e+00 8.643052e+00 8.826983e+00 9.097846e+00 8.857144e+00 8.343241e+00 8.342987e+00
<VARIANCE> 16
 5.982296e-01 5.785474e-01 5.178044e-01 6.501809e-01 5.329002e-01 5.333957e-01 5.231190e-01 6.565185e-01 6.824641e-01 5.419191e-01 7.225118e-01 8.696370e-01 9.442673e-01 6.027130e-01 3.006796e-01 2.781047e-01
<GCONST> 2.042518e+01
<STATE> 3
<MEAN> 16
 7.021123e+00 7.973920e+00 8.615009e+00 8.765321e+00 8.240736e+00 8.185477e+00 8.580846e+00 8.575961e+00 8.499360e+00 8.732651e+00 8.744948e+00 8.918814e+00 9.246342e+00 8.937726e+00 8.412528e+00 8.429390e+00
<VARIANCE> 16
 9.402825e-01 9.833691e-01 6.561852e-01 8.502734e-01 1.009022e+00 8.845904e-01 8.287223e-01 7.038909e-01 6.546052e-01 7.338566e-01 7.406647e-01 9.692492e-01 9.477346e-01 6.709245e-01 5.240655e-01 3.933002e-01
<GCONST> 2.499482e+01
<STATE> 4
<MEAN> 16
 7.188263e+00 8.133738e+00 8.759164e+00 9.096593e+00 8.725091e+00 8.621143e+00 9.054235e+00 8.944910e+00 8.735641e+00 9.030716e+00 8.989552e+00 9.264601e+00 9.529876e+00 9.200953e+00 8.636998e+00 8.578596e+00
<VARIANCE> 16
 1.013489e+00 1.076395e+00 6.983950e-01 9.365013e-01 1.398949e+00 1.168820e+00 1.071722e+00 8.765426e-01 6.157870e-01 8.490206e-01 1.000336e+00 1.235697e+00 1.049674e+00 9.502945e-01 8.321974e-01 6.285740e-01
<GCONST> 2.841064e+01
<STATE> 5
<MEAN> 16
 7.310442e+00 8.229606e+00 8.982228e+00 9.523100e+00 9.326085e+00 9.210515e+00 9.676420e+00 9.505484e+00 9.124176e+00 9.448551e+00 9.407616e+00 9.742572e+00 9.978918e+00 9.626844e+00 8.968044e+00 8.840026e+00
<VARIANCE> 16
 1.137131e+00 1.126074e+00 7.835588e-01 7.613211e-01 1.410327e+00 1.136528e+00 1.001122e+00 9.355683e-01 5.835723e-01 8.076273e-01 1.250244e+00 1.372524e+00 1.297552e+00 1.249525e+00 1.219455e+00 1.059883e+00
<GCONST> 3.007054e+01
<STATE> 6
<MEAN> 16
 8.744390e+00 9.615890e+00 1.054050e+01 1.132146e+01 1.135680e+01 1.131910e+01 1.175319e+01 1.133339e+01 1.074818e+01 1.132271e+01 1.149580e+01 1.184775e+01 1.166310e+01 1.131162e+01 1.066474e+01 1.033442e+01
<VARIANCE> 16
 2.595001e+00 2.460336e+00 2.228402e+00 2.266577e+00 2.801683e+00 2.802421e+00 2.358044e+00 1.980145e+00 1.840203e+00 2.848846e+00 3.221533e+00 3.517337e+00 2.128654e+00 2.224512e+00 3.093384e+00 3.034017e+00
<GCONST> 4.435971e+01
<STATE> 7
<MEAN> 16
 7.497548e+00 8.325173e+00 9.354818e+00 1.045130e+01 1.120286e+01 1.128856e+01 1.163151e+01 1.129176e+01 1.038331e+01 1.058779e+01 1.090105e+01 1.129968e+01 1.159646e+01 1.098313e+01 9.871410e+00 9.156491e+00
<VARIANCE> 16
 1.317171e+00 1.311447e+00 1.215409e+00 1.142322e+00 1.062181e+00 1.023298e+00 9.532232e-01 1.264879e+00 7.408981e-01 8.879404e-01 1.521991e+00 1.424952e+00 1.535422e+00 1.085532e+00 1.695967e+00 1.093022e+00
<GCONST> 3.203471e+01
<STATE> 8
<MEAN> 16
 6.531055e+00 7.428253e+00 8.214562e+00 9.444049e+00 1.023461e+01 1.039809e+01 1.070850e+01 1.024607e+01 9.479999e+00 9.728950e+00 9.831282e+00 1.030916e+01 1.075912e+01 9.983494e+00 8.717228e+00 8.461203e+00
<VARIANCE> 16
 3.252506e-01 2.692413e-01 3.993266e-01 5.711758e-01 6.722741e-01 6.385407e-01 6.557355e-01 1.177304e+00 4.842453e-01 5.856540e-01 1.382790e+00 1.333198e+00 1.688078e+00 8.410419e-01 4.360038e-01 2.597345e-01
<GCONST> 2.191203e+01
<STATE> 9
<MEAN> 16
 6.007403e+00 6.628690e+00 6.952707e+00 7.964957e+00 8.772275e+00 9.027215e+00 9.077317e+00 8.694300e+00 8.110023e+00 8.252009e+00 8.521498e+00 8.816187e+00 9.272756e+00 8.745985e+00 8.103383e+00 8.128765e+00
<VARIANCE> 16
 2.990300e-01 5.160674e-01 3.965845e-01 6.860247e-01 5.009906e-01 3.649144e-01 3.691993e-01 5.435808e-01 2.674283e-01 3.003795e-01 4.606640e-01 3.465303e-01 4.364187e-01 2.506244e-01 1.768515e-01 1.959956e-01
<GCONST> 1.299879e+01
<TRANSP> 10
 0.000000e+00 1.000000e+00 0.000000e+00 0.000000e+00 0.000000e+00 0.000000e+00 0.000000e+00 0.000000e+00 0.000000e+00 0.000000e+00
 0.000000e+00 3.803338e-01 6.196662e-01 0.000000e+00 0.000000e+00 0.000000e+00 0.000000e+00 0.000000e+00 0.000000e+00 0.000000e+00
 0.000000e+00 0.000000e+00 3.350528e-01 6.649472e-01 0.000000e+00 0.000000e+00 0.000000e+00 0.000000e+00 0.000000e+00 0.000000e+00
 0.000000e+00 0.000000e+00 0.000000e+00 3.400888e-01 6.599112e-01 0.000000e+00 0.000000e+00 0.000000e+00 0.000000e+00 0.000000e+00
 0.000000e+00 0.000000e+00 0.000000e+00 0.000000e+00 4.631838e-01 5.368162e-01 0.000000e+00 0.000000e+00 0.000000e+00 0.000000e+00
 0.000000e+00 0.000000e+00 0.000000e+00 0.000000e+00 0.000000e+00 8.380108e-01 1.619891e-01 0.000000e+00 0.000000e+00 0.000000e+00
 0.000000e+00 0.000000e+00 0.000000e+00 0.000000e+00 0.000000e+00 0.000000e+00 9.085813e-01 9.141872e-02 0.000000e+00 0.000000e+00
 0.000000e+00 0.000000e+00 0.000000e+00 0.000000e+00 0.000000e+00 0.000000e+00 0.000000e+00 8.666003e-01 1.333996e-01 0.000000e+00
 0.000000e+00 0.000000e+00 0.000000e+00 0.000000e+00 0.000000e+00 0.000000e+00 0.000000e+00 0.000000e+00 7.950258e-01 2.049742e-01
 0.000000e+00 0.000000e+00 0.000000e+00 0.000000e+00 0.000000e+00 0.000000e+00 0.000000e+00 0.000000e+00 0.000000e+00 0.000000e+00
<ENDHMM>
~h "osm"
<BEGINHMM>
<NUMSTATES> 10
<STATE> 2
<MEAN> 16
 6.061007e+00 7.051274e+00 8.225173e+00 9.240259e+00 9.446984e+00 9.439210e+00 8.991218e+00 8.214792e+00 8.020362e+00 8.410513e+00 8.852664e+00 9.450000e+00 9.738527e+00 9.245253e+00 8.588153e+00 8.499867e+00
<VARIANCE> 16
 3.038332e-01 3.385440e-01 5.163682e-01 7.163584e-01 8.552437e-01 6.907063e-01 1.017397e+00 5.181598e-01 1.988731e-01 4.341097e-01 9.043535e-01 1.303744e+00 7.762454e-01 6.901590e-01 6.494464e-01 3.504949e-01
<GCONST> 2.058151e+01
<STATE> 3
<MEAN> 16
 6.635848e+00 7.688744e+00 8.968554e+00 1.010640e+01 1.030913e+01 1.035351e+01 9.844370e+00 8.931405e+00 8.680965e+00 9.127599e+00 9.706709e+00 1.030198e+01 1.054299e+01 9.968931e+00 8.914318e+00 8.608197e+00
<VARIANCE> 16
 6.860202e-01 7.027245e-01 5.924788e-01 9.744020e-01 1.115588e+00 9.373722e-01 1.469528e+00 8.652354e-01 6.003547e-01 1.014723e+00 1.934373e+00 2.314402e+00 1.102959e+00 1.410826e+00 1.021548e+00 3.759581e-01
<GCONST> 2.890045e+01
<STATE> 4
<MEAN> 16
 7.087968e+00 8.242279e+00 9.509515e+00 1.068478e+01 1.085143e+01 1.089017e+01 1.030562e+01 9.422562e+00 9.226238e+00 9.660535e+00 1.034802e+01 1.093093e+01 1.097606e+01 1.042604e+01 9.296371e+00 8.972659e+00
<VARIANCE> 16
 1.256691e+00 1.464032e+00 1.053110e+00 1.344890e+00 1.485196e+00 1.499658e+00 1.681158e+00 1.432839e+00 1.389239e+00 2.092016e+00 2.959987e+00 3.133131e+00 1.367746e+00 1.763027e+00 1.769082e+00 1.164671e+00
<GCONST> 3.694090e+01
<STATE> 5
<MEAN> 16
 8.387766e+00 9.254507e+00 1.025430e+01 1.098989e+01 1.078348e+01 1.115309e+01 1.126273e+01 1.089670e+01 1.077809e+01 1.137883e+01 1.194923e+01 1.259107e+01 1.271694e+01 1.244534e+01 1.182140e+01 1.173906e+01
<VARIANCE> 16
 2.342559e+00 3.058261e+00 2.160257e+00 1.532588e+00 1.586017e+00 1.671468e+00 1.314691e+00 1.244536e+00 1.394432e+00 2.072087e+00 1.934418e+00 1.747950e+00 1.615501e+00 2.870309e+00 4.652588e+00 4.448443e+00
<GCONST> 4.088293e+01
<STATE> 6
<MEAN> 16
 7.521954e+00 8.699590e+00 9.556265e+00 9.912264e+00 9.668182e+00 1.005645e+01 1.028856e+01 1.015035e+01 1.003253e+01 1.024690e+01 1.067456e+01 1.110673e+01 1.147011e+01 1.129729e+01 1.060440e+01 1.052427e+01
<VARIANCE> 16
 2.209016e+00 2.927372e+00 2.001043e+00 1.388241e+00 1.745337e+00 1.521333e+00 1.237307e+00 9.931388e-01 1.092265e+00 1.457763e+00 9.764404e-01 7.750621e-01 5.865259e-01 1.555484e+00 3.340054e+00 3.274211e+00
<GCONST> 3.596379e+01
<STATE> 7
<MEAN> 16
 6.929767e+00 7.911257e+00 8.907165e+00 9.380782e+00 9.082213e+00 9.401468e+00 9.626558e+00 9.407025e+00 9.218788e+00 9.368992e+00 9.858272e+00 1.034805e+01 1.084758e+01 1.060247e+01 9.829393e+00 9.626195e+00
<VARIANCE> 16
 1.343721e+00 2.255038e+00 1.853257e+00 1.259040e+00 1.497914e+00 1.255819e+00 1.079326e+00 8.243405e-01 7.832034e-01 8.085294e-01 6.212401e-01 6.921165e-01 9.568279e-01 1.090869e+00 1.645295e+00 1.689355e+00
<GCONST> 3.164113e+01
<STATE> 8
<MEAN> 16
 6.748394e+00 7.684554e+00 8.558595e+00 8.699043e+00 8.367134e+00 8.798190e+00 9.069695e+00 9.026877e+00 9.003081e+00 9.064052e+00 9.260275e+00 9.838086e+00 1.020618e+01 9.919905e+00 9.300868e+00 9.177292e+00
<VARIANCE> 16
 8.443273e-01 1.570040e+00 1.886018e+00 9.121307e-01 7.444048e-01 9.635394e-01 8.628449e-01 7.006463e-01 6.095374e-01 4.705247e-01 3.774849e-01 4.770319e-01 8.456668e-01 8.185143e-01 1.285936e+00 1.145569e+00
<GCONST> 2.645097e+01
<STATE> 9
<MEAN> 16
 6.277481e+00 7.426461e+00 8.070377e+00 8.152805e+00 7.609197e+00 7.972239e+00 8.151873e+00 8.106163e+00 8.213527e+00 8.431814e+00 8.733794e+00 9.452351e+00 9.862079e+00 9.322127e+00 8.640190e+00 8.622652e+00
<VARIANCE> 16
 3.552779e-01 8.425859e-01 1.123214e+00 7.926489e-01 2.926176e-01 3.971171e-01 4.975015e-01 5.030282e-01 3.358516e-01 4.009743e-01 5.364674e-01 8.726093e-01 9.352190e-01 7.178055e-01 8.677846e-01 7.310106e-01
<GCONST> 2.092841e+01
<TRANSP> 10
 0.000000e+00 1.000000e+00 0.000000e+00 0.000000e+00 0.000000e+00 0.000000e+00 0.000000e+00 0.000000e+00 0.000000e+00 0.000000e+00
 0.000000e+00 5.254861e-02 9.474514e-01 0.000000e+00 0.000000e+00 0.000000e+00 0.000000e+00 0.000000e+00 0.000000e+00 0.000000e+00
 0.000000e+00 0.000000e+00 1.026189e-01 8.973810e-01 0.000000e+00 0.000000e+00 0.000000e+00 0.000000e+00 0.000000e+00 0.000000e+00
 0.000000e+00 0.000000e+00 0.000000e+00 2.677973e-01 7.322027e-01 0.000000e+00 0.000000e+00 0.000000e+00 0.000000e+00 0.000000e+00
 0.000000e+00 0.000000e+00 0.000000e+00 0.000000e+00 8.600129e-01 1.399871e-01 0.000000e+00 0.000000e+00 0.000000e+00 0.000000e+00
 0.000000e+00 0.000000e+00 0.000000e+00 0.000000e+00 0.000000e+00 8.798095e-01 1.201905e-01 0.000000e+00 0.000000e+00 0.000000e+00
 0.000000e+00 0.000000e+00 0.000000e+00 0.000000e+00 0.000000e+00 0.000000e+00 8.076835e-01 1.923165e-01 0.000000e+00 0.000000e+00
 0.000000e+00 0.000000e+00 0.000000e+00 0.000000e+00 0.000000e+00 0.000000e+00 0.000000e+00 9.041991e-01 9.580086e-02 0.000000e+00
 0.000000e+00 0.000000e+00 0.000000e+00 0.000000e+00 0.000000e+00 0.000000e+00 0.000000e+00 0.000000e+00 9.570112e-01 4.298885e-02
 0.000000e+00 0.000000e+00 0.000000e+00 0.000000e+00 0.000000e+00 0.000000e+00 0.000000e+00 0.000000e+00 0.000000e+00 0.000000e+00
<ENDHMM>
~h "pet"
<BEGINHMM>
<NUMSTATES> 10
<STATE> 2
<MEAN> 16
 6.431169e+00 7.543026e+00 8.432069e+00 8.359241e+00 7.505540e+00 7.309637e+00 7.642671e+00 8.501244e+00 9.464177e+00 9.664390e+00 9.400097e+00 9.469065e+00 9.669156e+00 9.280325e+00 8.598910e+00 8.492799e+00
<VARIANCE> 16
 2.758714e-01 5.528976e-01 1.173056e+00 8.459115e-01 4.983118e-01 3.258625e-01 2.910182e-01 7.271651e-01 8.864073e-01 1.363385e+00 1.380124e+00 1.644772e+00 1.177792e+00 8.210133e-01 6.219351e-01 4.960820e-01
<GCONST> 2.394678e+01
<STATE> 3
<MEAN> 16
 6.884224e+00 8.136618e+00 9.454663e+00 9.427652e+00 8.351988e+00 7.945190e+00 8.284536e+00 9.217338e+00 1.037695e+01 1.075307e+01 1.046788e+01 1.036175e+01 1.060222e+01 1.001384e+01 8.961304e+00 8.719357e+00
<VARIANCE> 16
 6.908257e-01 8.334153e-01 7.930717e-01 7.493296e-01 6.538237e-01 6.857790e-01 7.862148e-01 1.191637e+00 6.959548e-01 9.258084e-01 1.560523e+00 2.031636e+00 1.303921e+00 1.243536e+00 1.201261e+00 1.048473e+00
<GCONST> 2.889456e+01
<STATE> 4
<MEAN> 16
 7.204244e+00 8.384895e+00 1.000636e+01 9.975345e+00 8.715263e+00 8.331642e+00 8.573571e+00 9.452852e+00 1.065355e+01 1.127232e+01 1.101600e+01 1.090593e+01 1.103209e+01 1.037181e+01 9.131059e+00 8.881251e+00
<VARIANCE> 16
 1.287514e+00 1.473570e+00 1.214212e+00 1.097191e+00 1.113114e+00 1.198959e+00 1.376186e+00 1.868322e+00 1.250287e+00 1.234826e+00 1.918535e+00 2.892804e+00 1.604272e+00 1.520908e+00 1.519570e+00 1.309638e+00
<GCONST> 3.529450e+01
<STATE> 5
<MEAN> 16
 7.374307e+00 8.488584e+00 1.034586e+01 1.038455e+01 9.240917e+00 8.738292e+00 8.913074e+00 9.742733e+00 1.089182e+01 1.163428e+01 1.142058e+01 1.132957e+01 1.138238e+01 1.069427e+01 9.397964e+00 9.059223e+00
<VARIANCE> 16
 1.738983e+00 2.004489e+00 1.652093e+00 1.345938e+00 1.317004e+00 1.431053e+00 1.575670e+00 1.935062e+00 1.585217e+00 1.424948e+00 1.939287e+00 2.740756e+00 1.563308e+00 1.582911e+00 1.656108e+00 1.549063e+00
<GCONST> 3.753605e+01
<STATE> 6
<MEAN> 16
 8.041195e+00 9.053028e+00 1.054300e+01 1.139030e+01 1.074513e+01 1.002377e+01 1.020436e+01 1.097536e+01 1.168906e+01 1.209624e+01 1.207564e+01 1.214274e+01 1.204938e+01 1.156339e+01 1.086968e+01 1.039250e+01
<VARIANCE> 16
 2.353810e+00 2.526227e+00 2.006539e+00 2.022203e+00 2.093836e+00 2.205373e+00 2.539761e+00 2.730195e+00 2.368968e+00 2.563931e+00 2.816731e+00 3.368227e+00 2.403188e+00 2.851962e+00 4.116561e+00 3.893514e+00
<GCONST> 4.480882e+01
<STATE> 7
<MEAN> 16
 6.585943e+00 7.507329e+00 8.959817e+00 1.010545e+01 9.922707e+00 9.191613e+00 9.356606e+00 1.017199e+01 1.082055e+01 1.079920e+01 1.084906e+01 1.092350e+01 1.119081e+01 1.073241e+01 9.557844e+00 9.177118e+00
<VARIANCE> 16
 2.872629e-01 4.393847e-01 5.373969e-01 5.668836e-01 9.676051e-01 9.000635e-01 6.208618e-01 4.757171e-01 7.943177e-01 9.779043e-01 1.246246e+00 1.183994e+00 1.301459e+00 1.702403e+00 2.152306e+00 1.898101e+00
<GCONST> 2.712921e+01
<STATE> 8
<MEAN> 16
 6.301378e+00 7.278487e+00 8.517939e+00 9.504685e+00 9.222898e+00 8.594859e+00 8.834173e+00 9.803135e+00 1.020374e+01 9.931964e+00 1.009354e+01 1.022451e+01 1.047372e+01 1.000967e+01 8.950916e+00 8.757160e+00
<VARIANCE> 16
 2.894132e-01 4.506518e-01 7.797754e-01 7.890666e-01 8.155541e-01 5.166739e-01 4.355930e-01 6.876438e-01 8.875043e-01 7.875259e-01 1.165751e+00 1.168399e+00 9.299929e-01 7.823199e-01 7.699209e-01 6.396744e-01
<GCONST> 2.373812e+01
<STATE> 9
<MEAN> 16
 5.732699e+00 6.305582e+00 7.182393e+00 8.076452e+00 7.926295e+00 7.619906e+00 7.703789e+00 8.203152e+00 8.626457e+00 8.525101e+00 8.750669e+00 8.909530e+00 9.075641e+00 8.839372e+00 8.620688e+00 8.605997e+00
<VARIANCE> 16
 2.771638e-01 4.051000e-01 6.520917e-01 6.119049e-01 5.275075e-01 4.102030e-01 4.046598e-01 5.875216e-01 6.519619e-01 5.804746e-01 6.576995e-01 5.965591e-01 6.060268e-01 6.222309e-01 9.228637e-01 6.333089e-01
<GCONST> 1.991366e+01
<TRANSP> 10
 0.000000e+00 1.000000e+00 0.000000e+00 0.000000e+00 0.000000e+00 0.000000e+00 0.000000e+00 0.000000e+00 0.000000e+00 0.000000e+00
 0.000000e+00 9.726987e-02 9.027302e-01 0.000000e+00 0.000000e+00 0.000000e+00 0.000000e+00 0.000000e+00 0.000000e+00 0.000000e+00
 0.000000e+00 0.000000e+00 1.259014e-01 8.740986e-01 0.000000e+00 0.000000e+00 0.000000e+00 0.000000e+00 0.000000e+00 0.000000e+00
 0.000000e+00 0.000000e+00 0.000000e+00 2.150719e-01 7.849281e-01 0.000000e+00 0.000000e+00 0.000000e+00 0.000000e+00 0.000000e+00
 0.000000e+00 0.000000e+00 0.000000e+00 0.000000e+00 4.504774e-01 5.495227e-01 0.000000e+00 0.000000e+00 0.000000e+00 0.000000e+00
 0.000000e+00 0.000000e+00 0.000000e+00 0.000000e+00 0.000000e+00 8.848261e-01 1.151740e-01 0.000000e+00 0.000000e+00 0.000000e+00
 0.000000e+00 0.000000e+00 0.000000e+00 0.000000e+00 0.000000e+00 0.000000e+00 9.014614e-01 9.853864e-02 0.000000e+00 0.000000e+00
 0.000000e+00 0.000000e+00 0.000000e+00 0.000000e+00 0.000000e+00 0.000000e+00 0.000000e+00 8.327364e-01 1.672636e-01 0.000000e+00
 0.000000e+00 0.000000e+00 0.000000e+00 0.000000e+00 0.000000e+00 0.000000e+00 0.000000e+00 0.000000e+00 7.989874e-01 2.010126e-01
 0.000000e+00 0.000000e+00 0.000000e+00 0.000000e+00 0.000000e+00 0.000000e+00 0.000000e+00 0.000000e+00 0.000000e+00 0.000000e+00
<ENDHMM>
~h "sil"
<BEGINHMM>
<NUMSTATES> 5
<STATE> 2
<MEAN> 16
 5.676671e+00 6.105758e+00 6.490808e+00 6.821949e+00 6.852286e+00 7.085494e+00 7.281715e+00 7.505147e+00 7.676177e+00 7.724951e+00 7.907853e+00 8.174152e+00 8.464659e+00 8.505937e+00 8.597205e+00 8.799352e+00
<VARIANCE> 16
 2.301476e-01 3.425612e-01 3.015151e-01 3.789595e-01 3.291006e-01 2.770445e-01 2.936601e-01 3.117521e-01 2.037114e-01 2.262034e-01 2.315129e-01 2.218807e-01 2.403161e-01 2.648132e-01 4.249177e-01 4.661439e-01
<GCONST> 9.490829e+00
<STATE> 3
<MEAN> 16
 5.616841e+00 5.784323e+00 6.014524e+00 6.221201e+00 6.361939e+00 6.580024e+00 6.745279e+00 6.921021e+00 7.226845e+00 7.181273e+00 7.344681e+00 7.530568e+00 7.741679e+00 7.844752e+00 7.996253e+00 8.190420e+00
<VARIANCE> 16
 1.438701e-01 1.202307e-01 1.311162e-01 1.290242e-01 1.012162e-01 1.151882e-01 1.171309e-01 1.218465e-01 8.247031e-02 1.057316e-01 1.119684e-01 1.213361e-01 1.381527e-01 1.346228e-01 1.223657e-01 1.297058e-01
<GCONST> -4.600525e+00
<STATE> 4
<MEAN> 16
 5.483763e+00 5.987319e+00 6.290561e+00 6.456824e+00 6.398450e+00 6.552798e+00 6.750174e+00 6.967447e+00 7.260846e+00 7.420368e+00 7.626626e+00 7.918808e+00 8.271880e+00 8.344695e+00 8.349775e+00 8.404707e+00
<VARIANCE> 16
 4.951046e-01 6.286737e-01 7.269837e-01 6.497182e-01 4.283898e-01 3.949243e-01 4.102038e-01 6.107887e-01 7.632185e-01 8.621532e-01 9.447715e-01 1.153154e+00 1.313325e+00 1.264442e+00 1.123147e+00 1.027992e+00
<GCONST> 2.464603e+01
<TRANSP> 5
 0.000000e+00 1.000000e+00 0.000000e+00 0.000000e+00 0.000000e+00
 0.000000e+00 7.539952e-01 2.460048e-01 0.000000e+00 0.000000e+00
 0.000000e+00 0.000000e+00 9.854828e-01 1.451728e-02 0.000000e+00
 0.000000e+00 0.000000e+00 0.000000e+00 5.575849e-01 4.424151e-01
 0.000000e+00 0.000000e+00 0.000000e+00 0.000000e+00 0.000000e+00
<ENDHMM>
~h "tri"
<BEGINHMM>
<NUMSTATES> 10
<STATE> 2
<MEAN> 16
 5.733540e+00 5.918264e+00 6.526766e+00 6.845884e+00 6.934284e+00 7.214511e+00 7.637858e+00 8.142510e+00 8.665813e+00 8.850988e+00 9.205297e+00 1.004109e+01 1.069039e+01 1.077367e+01 9.978869e+00 9.340612e+00
<VARIANCE> 16
 1.536579e-01 2.179550e-01 3.884655e-01 5.076598e-01 4.014217e-01 4.922045e-01 5.850819e-01 5.692717e-01 5.436731e-01 5.277311e-01 6.338239e-01 6.797850e-01 7.569411e-01 7.842929e-01 5.731748e-01 3.839862e-01
<GCONST> 1.753935e+01
<STATE> 3
<MEAN> 16
 5.907613e+00 6.108980e+00 6.636226e+00 7.008687e+00 7.096322e+00 7.357723e+00 7.690993e+00 8.270347e+00 8.879519e+00 9.150420e+00 9.766724e+00 1.071764e+01 1.137854e+01 1.151856e+01 1.068689e+01 9.889540e+00
<VARIANCE> 16
 1.734415e-01 4.610920e-01 9.828821e-01 1.226338e+00 9.433142e-01 1.029781e+00 1.250473e+00 1.103593e+00 1.007207e+00 9.723142e-01 9.651828e-01 8.511124e-01 7.646708e-01 7.143483e-01 8.883989e-01 6.727867e-01
<GCONST> 2.602291e+01
<STATE> 4
<MEAN> 16
 5.970606e+00 6.195070e+00 6.750949e+00 7.113996e+00 7.138614e+00 7.361224e+00 7.661591e+00 8.313479e+00 9.056759e+00 9.329747e+00 1.005470e+01 1.104098e+01 1.174651e+01 1.187651e+01 1.120033e+01 1.037929e+01
<VARIANCE> 16
 2.451473e-01 5.885066e-01 1.562081e+00 1.628121e+00 1.234236e+00 1.440145e+00 1.631587e+00 1.244603e+00 1.267900e+00 1.097189e+00 1.065583e+00 8.698850e-01 8.096652e-01 6.753702e-01 1.009987e+00 1.090656e+00
<GCONST> 2.943431e+01
<STATE> 5
<MEAN> 16
 6.194775e+00 6.557402e+00 7.143414e+00 7.496221e+00 7.410940e+00 7.623038e+00 7.940607e+00 8.710480e+00 9.591430e+00 9.837715e+00 1.066656e+01 1.163453e+01 1.231565e+01 1.238781e+01 1.195885e+01 1.115879e+01
<VARIANCE> 16
 4.791942e-01 8.176323e-01 1.581266e+00 1.715555e+00 1.233051e+00 1.441145e+00 1.490020e+00 1.189217e+00 1.174961e+00 1.154590e+00 1.512424e+00 1.643376e+00 1.494204e+00 1.563370e+00 2.397585e+00 2.962710e+00
<GCONST> 3.463847e+01
<STATE> 6
<MEAN> 16
 7.609118e+00 8.494654e+00 9.489427e+00 9.704294e+00 9.015600e+00 9.022463e+00 9.343489e+00 1.011868e+01 1.113772e+01 1.163056e+01 1.210779e+01 1.258519e+01 1.272227e+01 1.247682e+01 1.204156e+01 1.149849e+01
<VARIANCE> 16
 2.761366e+00 3.549864e+00 4.825380e+00 4.187251e+00 2.680982e+00 2.464563e+00 2.681184e+00 2.665789e+00 2.476143e+00 2.772617e+00 2.477781e+00 2.554136e+00 1.844799e+00 2.443198e+00 4.113731e+00 4.564456e+00
<GCONST> 4.675943e+01
<STATE> 7
<MEAN> 16
 6.778115e+00 8.039797e+00 9.538101e+00 9.740407e+00 8.593063e+00 8.240512e+00 8.437824e+00 9.097133e+00 1.032119e+01 1.113617e+01 1.120825e+01 1.115700e+01 1.149276e+01 1.095663e+01 9.507735e+00 8.908734e+00
<VARIANCE> 16
 8.258293e-01 8.883562e-01 1.567450e+00 1.183635e+00 9.861169e-01 7.235328e-01 4.851804e-01 3.597065e-01 5.980213e-01 6.953120e-01 9.301696e-01 9.064217e-01 8.842983e-01 8.673947e-01 7.610266e-01 5.830002e-01
<GCONST> 2.550499e+01
<STATE> 8
<MEAN> 16
 6.536408e+00 7.985055e+00 9.107758e+00 9.125661e+00 7.955669e+00 7.592901e+00 7.843429e+00 8.518643e+00 9.789330e+00 1.060465e+01 1.036909e+01 1.026478e+01 1.059660e+01 9.994617e+00 8.796583e+00 8.548621e+00
<VARIANCE> 16
 2.933010e-01 3.437521e-01 5.910842e-01 4.901419e-01 4.163593e-01 3.583266e-01 1.940307e-01 2.670001e-01 7.298658e-01 6.515694e-01 1.302086e+00 1.378081e+00 1.338981e+00 1.238083e+00 2.289060e-01 1.595066e-01
<GCONST> 1.804677e+01
<STATE> 9
<MEAN> 16
 6.194996e+00 7.281610e+00 8.221371e+00 8.042885e+00 7.384717e+00 7.175427e+00 7.208146e+00 7.631556e+00 8.673679e+00 9.310800e+00 9.099605e+00 9.023474e+00 9.511766e+00 9.048382e+00 8.338004e+00 8.317465e+00
<VARIANCE> 16
 2.406467e-01 5.886482e-01 6.050243e-01 4.246716e-01 2.919177e-01 2.796427e-01 1.900451e-01 3.046961e-01 7.627494e-01 4.685580e-01 5.753157e-01 5.947317e-01 6.064984e-01 3.760987e-01 1.772511e-01 1.550204e-01
<GCONST> 1.356455e+01
<TRANSP> 10
 0.000000e+00 1.000000e+00 0.000000e+00 0.000000e+00 0.000000e+00 0.000000e+00 0.000000e+00 0.000000e+00 0.000000e+00 0.000000e+00
 0.000000e+00 4.213714e-01 5.786286e-01 0.000000e+00 0.000000e+00 0.000000e+00 0.000000e+00 0.000000e+00 0.000000e+00 0.000000e+00
 0.000000e+00 0.000000e+00 4.445790e-01 5.554209e-01 0.000000e+00 0.000000e+00 0.000000e+00 0.000000e+00 0.000000e+00 0.000000e+00
 0.000000e+00 0.000000e+00 0.000000e+00 5.197355e-01 4.802646e-01 0.000000e+00 0.000000e+00 0.000000e+00 0.000000e+00 0.000000e+00
 0.000000e+00 0.000000e+00 0.000000e+00 0.000000e+00 6.794575e-01 3.205426e-01 0.000000e+00 0.000000e+00 0.000000e+00 0.000000e+00
 0.000000e+00 0.000000e+00 0.000000e+00 0.000000e+00 0.000000e+00 8.888034e-01 1.111965e-01 0.000000e+00 0.000000e+00 0.000000e+00
 0.000000e+00 0.000000e+00 0.000000e+00 0.000000e+00 0.000000e+00 0.000000e+00 8.879418e-01 1.120582e-01 0.000000e+00 0.000000e+00
 0.000000e+00 0.000000e+00 0.000000e+00 0.000000e+00 0.000000e+00 0.000000e+00 0.000000e+00 8.710365e-01 1.289635e-01 0.000000e+00
 0.000000e+00 0.000000e+00 0.000000e+00 0.000000e+00 0.000000e+00 0.000000e+00 0.000000e+00 0.000000e+00 7.429036e-01 2.570964e-01
 0.000000e+00 0.000000e+00 0.000000e+00 0.000000e+00 0.000000e+00 0.000000e+00 0.000000e+00 0.000000e+00 0.000000e+00 0.000000e+00
<ENDHMM>
~h "nula"
<BEGINHMM>
<NUMSTATES> 10
<STATE> 2
<MEAN> 16
 6.796335e+00 8.199742e+00 8.468639e+00 8.423127e+00 7.770779e+00 7.638114e+00 7.443983e+00 7.761089e+00 7.996141e+00 8.213485e+00 8.262618e+00 8.131984e+00 8.588845e+00 8.531412e+00 8.203999e+00 8.350397e+00
<VARIANCE> 16
 3.913933e-01 4.591491e-01 5.056555e-01 5.166482e-01 3.759330e-01 5.424544e-01 2.467808e-01 3.729207e-01 2.704107e-01 5.022689e-01 6.197905e-01 4.488590e-01 5.363176e-01 2.699008e-01 3.940275e-01 4.886493e-01
<GCONST> 1.551565e+01
<STATE> 3
<MEAN> 16
 7.103045e+00 8.456539e+00 8.875474e+00 8.838282e+00 8.102536e+00 7.964612e+00 7.890043e+00 8.261465e+00 8.469097e+00 8.717454e+00 8.787744e+00 8.580716e+00 8.818695e+00 8.588089e+00 8.287934e+00 8.364657e+00
<VARIANCE> 16
 8.218347e-01 6.727650e-01 6.743779e-01 4.883577e-01 4.006518e-01 5.917757e-01 5.616283e-01 8.377852e-01 7.330890e-01 9.244243e-01 1.211795e+00 8.950850e-01 7.704377e-01 3.220225e-01 4.150739e-01 4.372144e-01
<GCONST> 2.210122e+01
<STATE> 4
<MEAN> 16
 7.272974e+00 8.699481e+00 9.240435e+00 9.299363e+00 8.486506e+00 8.389382e+00 8.473602e+00 8.788120e+00 8.901469e+00 9.138291e+00 9.208381e+00 9.027590e+00 9.124862e+00 8.726282e+00 8.348328e+00 8.439116e+00
<VARIANCE> 16
 1.263384e+00 9.968650e-01 8.884487e-01 3.986614e-01 3.553407e-01 5.254652e-01 7.955155e-01 1.308275e+00 9.965466e-01 1.113295e+00 1.611185e+00 1.278316e+00 1.175369e+00 4.468276e-01 4.209049e-01 4.201217e-01
<GCONST> 2.541038e+01
<STATE> 5
<MEAN> 16
 7.415449e+00 8.920350e+00 9.602118e+00 9.758869e+00 8.915867e+00 8.861753e+00 9.111025e+00 9.272592e+00 9.243795e+00 9.459458e+00 9.587931e+00 9.497140e+00 9.514734e+00 8.944705e+00 8.497083e+00 8.596925e+00
<VARIANCE> 16
 1.695668e+00 1.574666e+00 1.362764e+00 5.344892e-01 4.289411e-01 4.642122e-01 9.359847e-01 1.619022e+00 1.194657e+00 1.369675e+00 1.747715e+00 1.475503e+00 1.632046e+00 5.941487e-01 4.498945e-01 5.408826e-01
<GCONST> 2.886869e+01
<STATE> 6
<MEAN> 16
 9.164918e+00 1.050398e+01 1.118060e+01 1.154996e+01 1.100081e+01 1.115418e+01 1.121901e+01 1.093988e+01 1.089655e+01 1.132085e+01 1.153862e+01 1.153531e+01 1.141002e+01 1.064327e+01 1.011539e+01 1.037573e+01
<VARIANCE> 16
 3.196139e+00 2.613981e+00 2.136086e+00 2.368116e+00 3.238273e+00 3.846987e+00 2.725563e+00 2.480327e+00 2.650136e+00 3.529775e+00 3.711765e+00 3.518141e+00 3.412627e+00 2.697617e+00 2.627940e+00 2.891900e+00
<GCONST> 4.663657e+01
<STATE> 7
<MEAN> 16
 8.040997e+00 9.280153e+00 1.044496e+01 1.113739e+01 1.092332e+01 1.108877e+01 1.106279e+01 1.034210e+01 9.965707e+00 1.009946e+01 1.076274e+01 1.099737e+01 1.086548e+01 1.063744e+01 1.006252e+01 9.513618e+00
<VARIANCE> 16
 1.565013e+00 1.318013e+00 1.620554e+00 1.217562e+00 1.650754e+00 1.758165e+00 1.784028e+00 1.432934e+00 9.992099e-01 1.214760e+00 1.875819e+00 1.867609e+00 2.373225e+00 2.222235e+00 1.994935e+00 1.077103e+00
<GCONST> 3.668888e+01
<STATE> 8
<MEAN> 16
 6.670652e+00 7.731714e+00 8.853558e+00 1.002615e+01 1.036269e+01 1.049857e+01 1.063474e+01 1.006020e+01 9.437529e+00 9.777623e+00 1.020133e+01 1.042003e+01 1.077244e+01 9.990978e+00 8.716562e+00 8.444971e+00
<VARIANCE> 16
 3.707769e-01 4.151370e-01 6.856912e-01 3.235195e-01 6.088476e-01 4.237790e-01 8.596778e-01 1.212534e+00 4.059509e-01 5.919259e-01 1.327088e+00 1.169384e+00 1.578659e+00 9.823598e-01 5.410019e-01 2.536202e-01
<GCONST> 2.218179e+01
<STATE> 9
<MEAN> 16
 6.175334e+00 7.010561e+00 7.552544e+00 8.660641e+00 9.068631e+00 9.209744e+00 9.064766e+00 8.630233e+00 8.238330e+00 8.424824e+00 8.529302e+00 8.814206e+00 9.104657e+00 8.739880e+00 8.200442e+00 8.191774e+00
<VARIANCE> 16
 2.464895e-01 5.818567e-01 7.726034e-01 8.173660e-01 5.273492e-01 3.503273e-01 4.866536e-01 5.502102e-01 3.018109e-01 4.170134e-01 5.164415e-01 5.778317e-01 4.502276e-01 2.858639e-01 2.162737e-01 1.545154e-01
<GCONST> 1.526720e+01
<TRANSP> 10
 0.000000e+00 1.000000e+00 0.000000e+00 0.000000e+00 0.000000e+00 0.000000e+00 0.000000e+00 0.000000e+00 0.000000e+00 0.000000e+00
 0.000000e+00 3.779869e-01 6.220131e-01 0.000000e+00 0.000000e+00 0.000000e+00 0.000000e+00 0.000000e+00 0.000000e+00 0.000000e+00
 0.000000e+00 0.000000e+00 2.989173e-01 7.010827e-01 0.000000e+00 0.000000e+00 0.000000e+00 0.000000e+00 0.000000e+00 0.000000e+00
 0.000000e+00 0.000000e+00 0.000000e+00 3.113372e-01 6.886629e-01 0.000000e+00 0.000000e+00 0.000000e+00 0.000000e+00 0.000000e+00
 0.000000e+00 0.000000e+00 0.000000e+00 0.000000e+00 4.235384e-01 5.764616e-01 0.000000e+00 0.000000e+00 0.000000e+00 0.000000e+00
 0.000000e+00 0.000000e+00 0.000000e+00 0.000000e+00 0.000000e+00 8.181298e-01 1.818701e-01 0.000000e+00 0.000000e+00 0.000000e+00
 0.000000e+00 0.000000e+00 0.000000e+00 0.000000e+00 0.000000e+00 0.000000e+00 8.924714e-01 1.075287e-01 0.000000e+00 0.000000e+00
 0.000000e+00 0.000000e+00 0.000000e+00 0.000000e+00 0.000000e+00 0.000000e+00 0.000000e+00 9.385699e-01 6.143007e-02 0.000000e+00
 0.000000e+00 0.000000e+00 0.000000e+00 0.000000e+00 0.000000e+00 0.000000e+00 0.000000e+00 0.000000e+00 8.549184e-01 1.450816e-01
 0.000000e+00 0.000000e+00 0.000000e+00 0.000000e+00 0.000000e+00 0.000000e+00 0.000000e+00 0.000000e+00 0.000000e+00 0.000000e+00
<ENDHMM>
~h "devet"
<BEGINHMM>
<NUMSTATES> 10
<STATE> 2
<MEAN> 16
 6.774276e+00 7.827991e+00 8.494765e+00 8.451744e+00 7.606232e+00 7.343803e+00 7.702195e+00 8.421236e+00 8.963482e+00 8.937377e+00 9.081523e+00 9.260997e+00 9.551622e+00 9.340721e+00 8.929099e+00 8.794867e+00
<VARIANCE> 16
 1.067817e+00 1.199742e+00 9.375527e-01 6.987928e-01 3.468637e-01 3.342691e-01 4.341165e-01 7.853482e-01 9.019890e-01 9.356250e-01 1.220588e+00 1.497943e+00 1.444526e+00 1.320966e+00 1.410414e+00 1.272326e+00
<GCONST> 2.766478e+01
<STATE> 3
<MEAN> 16
 7.108638e+00 8.179026e+00 9.089668e+00 9.203596e+00 8.216715e+00 7.761944e+00 8.095658e+00 8.885498e+00 9.515495e+00 9.504931e+00 9.632602e+00 9.762379e+00 9.948263e+00 9.496807e+00 8.999225e+00 8.836043e+00
<VARIANCE> 16
 1.033256e+00 1.099839e+00 7.122617e-01 6.547568e-01 5.252751e-01 5.154376e-01 6.342964e-01 1.133810e+00 1.563303e+00 1.559068e+00 1.819560e+00 2.089222e+00 1.901293e+00 1.597423e+00 1.179983e+00 1.083624e+00
<GCONST> 3.071790e+01
<STATE> 4
<MEAN> 16
 7.323133e+00 8.371077e+00 9.340589e+00 9.597357e+00 8.669403e+00 8.139651e+00 8.400541e+00 9.193754e+00 9.922154e+00 9.928554e+00 1.006079e+01 1.021733e+01 1.033645e+01 9.762106e+00 9.045414e+00 8.854525e+00
<VARIANCE> 16
 1.061512e+00 1.069504e+00 7.613595e-01 7.113836e-01 7.596531e-01 6.553062e-01 6.686782e-01 1.347292e+00 1.953337e+00 1.916325e+00 2.345820e+00 2.292449e+00 1.991459e+00 1.666472e+00 9.044132e-01 8.135467e-01
<GCONST> 3.201279e+01
<STATE> 5
<MEAN> 16
 7.515899e+00 8.607393e+00 9.712678e+00 1.010804e+01 9.294283e+00 8.678268e+00 8.952579e+00 9.776611e+00 1.049519e+01 1.056063e+01 1.068647e+01 1.084493e+01 1.089432e+01 1.029999e+01 9.415463e+00 9.145525e+00
<VARIANCE> 16
 1.511455e+00 1.665116e+00 1.420674e+00 1.030107e+00 1.094014e+00 1.021060e+00 1.006219e+00 1.701080e+00 1.998594e+00 2.127210e+00 2.784720e+00 2.423363e+00 1.981260e+00 1.920873e+00 1.676623e+00 1.399210e+00
<GCONST> 3.690371e+01
<STATE> 6
<MEAN> 16
 9.211457e+00 1.019574e+01 1.140925e+01 1.196165e+01 1.100793e+01 1.052586e+01 1.103455e+01 1.196434e+01 1.232052e+01 1.256588e+01 1.267130e+01 1.297230e+01 1.258400e+01 1.185565e+01 1.120022e+01 1.082717e+01
<VARIANCE> 16
 2.545099e+00 2.444387e+00 2.129000e+00 1.936655e+00 1.515535e+00 1.658113e+00 2.070084e+00 2.473575e+00 2.053593e+00 2.403017e+00 2.734595e+00 3.195363e+00 2.186288e+00 1.966532e+00 2.982388e+00 3.169549e+00
<GCONST> 4.267410e+01
<STATE> 7
<MEAN> 16
 7.333107e+00 8.225607e+00 9.595491e+00 1.029532e+01 9.633200e+00 9.097313e+00 9.399076e+00 1.007295e+01 1.058610e+01 1.070852e+01 1.089247e+01 1.095622e+01 1.111062e+01 1.095546e+01 1.018214e+01 9.607366e+00
<VARIANCE> 16
 8.964795e-01 1.314090e+00 1.367004e+00 1.046535e+00 1.262125e+00 8.569553e-01 7.385147e-01 5.876527e-01 9.573102e-01 1.406271e+00 1.636042e+00 1.339261e+00 1.467773e+00 1.960669e+00 2.126966e+00 1.491148e+00
<GCONST> 3.246469e+01
<STATE> 8
<MEAN> 16
 6.576238e+00 7.589344e+00 8.935464e+00 9.619474e+00 9.464476e+00 8.696856e+00 8.986618e+00 9.677044e+00 1.068235e+01 1.088275e+01 1.114677e+01 1.114389e+01 1.148417e+01 1.086885e+01 8.899664e+00 8.480509e+00
<VARIANCE> 16
 2.341745e-01 3.013996e-01 6.681038e-01 6.692982e-01 1.077051e+00 5.619818e-01 3.215153e-01 3.673382e-01 5.510798e-01 6.522880e-01 7.919097e-01 8.302021e-01 8.111711e-01 8.088226e-01 6.385984e-01 3.848025e-01
<GCONST> 2.004445e+01
<STATE> 9
<MEAN> 16
 6.209295e+00 7.374449e+00 8.727906e+00 9.044784e+00 8.271508e+00 7.777730e+00 8.104256e+00 9.284444e+00 9.719438e+00 9.627510e+00 9.274157e+00 9.648128e+00 9.841079e+00 9.155086e+00 8.442080e+00 8.461244e+00
<VARIANCE> 16
 1.366439e-01 3.624305e-01 6.890466e-01 7.806938e-01 6.778386e-01 3.129900e-01 2.483660e-01 5.586207e-01 5.969386e-01 7.120278e-01 1.217299e+00 1.833850e+00 7.723747e-01 4.745082e-01 2.243605e-01 2.064558e-01
<GCONST> 1.812669e+01
<TRANSP> 10
 0.000000e+00 1.000000e+00 0.000000e+00 0.000000e+00 0.000000e+00 0.000000e+00 0.000000e+00 0.000000e+00 0.000000e+00 0.000000e+00
 0.000000e+00 1.650085e-01 8.349915e-01 0.000000e+00 0.000000e+00 0.000000e+00 0.000000e+00 0.000000e+00 0.000000e+00 0.000000e+00
 0.000000e+00 0.000000e+00 1.929305e-01 8.070695e-01 0.000000e+00 0.000000e+00 0.000000e+00 0.000000e+00 0.000000e+00 0.000000e+00
 0.000000e+00 0.000000e+00 0.000000e+00 2.342455e-01 7.657544e-01 0.000000e+00 0.000000e+00 0.000000e+00 0.000000e+00 0.000000e+00
 0.000000e+00 0.000000e+00 0.000000e+00 0.000000e+00 3.620166e-01 6.379834e-01 0.000000e+00 0.000000e+00 0.000000e+00 0.000000e+00
 0.000000e+00 0.000000e+00 0.000000e+00 0.000000e+00 0.000000e+00 8.668588e-01 1.331412e-01 0.000000e+00 0.000000e+00 0.000000e+00
 0.000000e+00 0.000000e+00 0.000000e+00 0.000000e+00 0.000000e+00 0.000000e+00 8.891586e-01 1.108414e-01 0.000000e+00 0.000000e+00
 0.000000e+00 0.000000e+00 0.000000e+00 0.000000e+00 0.000000e+00 0.000000e+00 0.000000e+00 9.391692e-01 6.083088e-02 0.000000e+00
 0.000000e+00 0.000000e+00 0.000000e+00 0.000000e+00 0.000000e+00 0.000000e+00 0.000000e+00 0.000000e+00 9.045353e-01 9.546467e-02
 0.000000e+00 0.000000e+00 0.000000e+00 0.000000e+00 0.000000e+00 0.000000e+00 0.000000e+00 0.000000e+00 0.000000e+00 0.000000e+00
<ENDHMM>
~h "jedna"
<BEGINHMM>
<NUMSTATES> 10
<STATE> 2
<MEAN> 16
 6.443028e+00 7.646514e+00 8.202183e+00 7.944129e+00 7.206076e+00 6.967710e+00 7.137074e+00 7.437311e+00 8.140855e+00 9.109594e+00 9.428878e+00 9.637211e+00 9.844440e+00 9.251355e+00 8.431543e+00 8.331784e+00
<VARIANCE> 16
 2.465860e-01 4.087381e-01 5.273147e-01 3.158506e-01 2.270970e-01 2.401861e-01 2.550259e-01 4.044824e-01 5.229584e-01 5.008662e-01 5.208043e-01 8.530902e-01 1.012408e+00 5.337059e-01 3.136074e-01 2.347585e-01
<GCONST> 1.476328e+01
<STATE> 3
<MEAN> 16
 6.803052e+00 8.065549e+00 8.848323e+00 8.587606e+00 7.706221e+00 7.262907e+00 7.452144e+00 7.821929e+00 8.600643e+00 9.762576e+00 1.007057e+01 1.030385e+01 1.045130e+01 9.709794e+00 8.670677e+00 8.420344e+00
<VARIANCE> 16
 6.240992e-01 8.601437e-01 9.491031e-01 7.530974e-01 4.163608e-01 3.584320e-01 4.633375e-01 6.075397e-01 6.965298e-01 7.541624e-01 9.796450e-01 1.303565e+00 1.391018e+00 9.127024e-01 6.241325e-01 2.653749e-01
<GCONST> 2.331971e+01
<STATE> 4
<MEAN> 16
 7.000061e+00 8.306080e+00 9.422532e+00 9.131981e+00 8.158321e+00 7.689277e+00 7.904074e+00 8.283399e+00 9.182431e+00 1.047507e+01 1.077355e+01 1.097029e+01 1.105779e+01 1.018169e+01 8.916433e+00 8.592804e+00
<VARIANCE> 16
 1.029473e+00 1.202436e+00 1.133407e+00 9.682169e-01 7.227114e-01 6.542714e-01 7.901850e-01 8.893399e-01 1.121842e+00 1.093616e+00 1.669600e+00 1.891621e+00 1.540938e+00 1.232452e+00 8.925028e-01 4.445820e-01
<GCONST> 2.968215e+01
<STATE> 5
<MEAN> 16
 7.206415e+00 8.528078e+00 9.924325e+00 9.713072e+00 8.720805e+00 8.237326e+00 8.440721e+00 8.889256e+00 9.892395e+00 1.114608e+01 1.136294e+01 1.150837e+01 1.154346e+01 1.062031e+01 9.239862e+00 8.870429e+00
<VARIANCE> 16
 1.431876e+00 1.754001e+00 1.489487e+00 1.208367e+00 1.025652e+00 8.986543e-01 9.387070e-01 9.847459e-01 1.388824e+00 1.437867e+00 2.099542e+00 2.247723e+00 1.659926e+00 1.466643e+00 1.185017e+00 7.603865e-01
<GCONST> 3.378330e+01
<STATE> 6
<MEAN> 16
 8.889526e+00 1.005638e+01 1.102439e+01 1.112858e+01 1.013450e+01 9.782351e+00 1.029647e+01 1.086840e+01 1.154025e+01 1.207490e+01 1.231813e+01 1.240409e+01 1.219842e+01 1.119449e+01 1.047725e+01 1.038585e+01
<VARIANCE> 16
 2.347518e+00 2.375946e+00 1.697433e+00 1.655958e+00 1.767292e+00 2.276261e+00 3.053379e+00 2.804403e+00 2.159054e+00 2.197586e+00 2.871638e+00 3.255079e+00 2.228957e+00 1.980755e+00 2.659830e+00 2.738177e+00
<GCONST> 4.296040e+01
<STATE> 7
<MEAN> 16
 7.972292e+00 9.044639e+00 9.959651e+00 1.045137e+01 9.917388e+00 9.521275e+00 9.719202e+00 1.020923e+01 1.068233e+01 1.054937e+01 1.078688e+01 1.095872e+01 1.087078e+01 1.030576e+01 9.480972e+00 9.112216e+00
<VARIANCE> 16
 1.491763e+00 1.536296e+00 1.101161e+00 1.348411e+00 1.744520e+00 2.427230e+00 2.805930e+00 2.186266e+00 1.160583e+00 1.108583e+00 1.580581e+00 2.007833e+00 1.734643e+00 1.334358e+00 1.098396e+00 7.104000e-01
<GCONST> 3.588585e+01
<STATE> 8
<MEAN> 16
 6.756422e+00 7.822828e+00 8.688812e+00 9.270453e+00 9.420963e+00 9.498846e+00 9.638735e+00 1.021147e+01 1.003897e+01 9.819803e+00 1.015933e+01 1.027435e+01 1.078715e+01 1.009855e+01 8.523407e+00 8.262590e+00
<VARIANCE> 16
 3.436169e-01 3.945845e-01 4.477010e-01 6.661609e-01 1.189519e+00 1.977470e+00 2.404418e+00 2.206752e+00 7.868748e-01 6.551560e-01 1.059620e+00 1.178698e+00 1.182500e+00 1.038625e+00 4.173685e-01 1.671034e-01
<GCONST> 2.582458e+01
<STATE> 9
<MEAN> 16
 6.334793e+00 7.361563e+00 7.891633e+00 8.491306e+00 8.665477e+00 8.569005e+00 8.932605e+00 9.103785e+00 8.814440e+00 8.912240e+00 8.929272e+00 9.306228e+00 9.529094e+00 8.921219e+00 8.140021e+00 8.224247e+00
<VARIANCE> 16
 1.514342e-01 3.608665e-01 5.620140e-01 7.273284e-01 1.382662e+00 1.241023e+00 1.576217e+00 1.194663e+00 5.921415e-01 5.980651e-01 9.749749e-01 1.061301e+00 9.228443e-01 5.213026e-01 1.095557e-01 9.009955e-02
<GCONST> 2.042362e+01
<TRANSP> 10
 0.000000e+00 1.000000e+00 0.000000e+00 0.000000e+00 0.000000e+00 0.000000e+00 0.000000e+00 0.000000e+00 0.000000e+00 0.000000e+00
 0.000000e+00 1.880468e-01 8.119532e-01 0.000000e+00 0.000000e+00 0.000000e+00 0.000000e+00 0.000000e+00 0.000000e+00 0.000000e+00
 0.000000e+00 0.000000e+00 1.793141e-01 8.206859e-01 0.000000e+00 0.000000e+00 0.000000e+00 0.000000e+00 0.000000e+00 0.000000e+00
 0.000000e+00 0.000000e+00 0.000000e+00 2.307054e-01 7.692946e-01 0.000000e+00 0.000000e+00 0.000000e+00 0.000000e+00 0.000000e+00
 0.000000e+00 0.000000e+00 0.000000e+00 0.000000e+00 3.980476e-01 6.019524e-01 0.000000e+00 0.000000e+00 0.000000e+00 0.000000e+00
 0.000000e+00 0.000000e+00 0.000000e+00 0.000000e+00 0.000000e+00 8.600449e-01 1.399552e-01 0.000000e+00 0.000000e+00 0.000000e+00
 0.000000e+00 0.000000e+00 0.000000e+00 0.000000e+00 0.000000e+00 0.000000e+00 8.876017e-01 1.123982e-01 0.000000e+00 0.000000e+00
 0.000000e+00 0.000000e+00 0.000000e+00 0.000000e+00 0.000000e+00 0.000000e+00 0.000000e+00 9.303707e-01 6.962926e-02 0.000000e+00
 0.000000e+00 0.000000e+00 0.000000e+00 0.000000e+00 0.000000e+00 0.000000e+00 0.000000e+00 0.000000e+00 9.355299e-01 6.447009e-02
 0.000000e+00 0.000000e+00 0.000000e+00 0.000000e+00 0.000000e+00 0.000000e+00 0.000000e+00 0.000000e+00 0.000000e+00 0.000000e+00
<ENDHMM>
