~o
<STREAMINFO> 1 32
<VECSIZE> 32<NULLD><FBANK_D><DIAGC>
~h "ctyri"
<BEGINHMM>
<NUMSTATES> 10
<STATE> 2
<MEAN> 32
 5.863779e+00 6.261048e+00 6.730519e+00 6.863758e+00 6.712789e+00 6.814274e+00 7.004865e+00 7.328473e+00 7.899908e+00 8.012366e+00 8.182981e+00 8.422835e+00 8.723411e+00 8.705611e+00 8.553526e+00 8.516006e+00 6.115722e-03 1.329326e-02 2.045880e-02 1.889070e-02 1.103494e-02 8.142391e-03 8.472358e-03 1.211644e-02 1.827121e-02 2.228444e-02 2.174095e-02 2.274761e-02 2.508460e-02 2.093517e-02 1.248192e-02 6.925465e-03
<VARIANCE> 32
 4.822865e-01 1.156153e+00 2.348485e+00 2.043878e+00 8.292872e-01 5.459861e-01 5.509620e-01 9.079200e-01 1.718983e+00 2.221369e+00 2.277585e+00 2.385761e+00 2.733320e+00 2.266177e+00 1.362427e+00 8.195555e-01 1.784599e-02 2.916125e-02 4.597604e-02 4.279356e-02 1.955864e-02 1.437304e-02 1.428472e-02 2.014341e-02 3.538936e-02 4.567704e-02 4.773413e-02 5.027091e-02 5.329910e-02 5.038709e-02 3.993049e-02 2.473802e-02
<GCONST> 7.856004e+00
<STATE> 3
<MEAN> 32
 5.906414e+00 6.352910e+00 6.870968e+00 6.993584e+00 6.789227e+00 6.870230e+00 7.062783e+00 7.412063e+00 8.024946e+00 8.164655e+00 8.330684e+00 8.577187e+00 8.893540e+00 8.847614e+00 8.637149e+00 8.561498e+00 6.306779e-03 1.375782e-02 2.111201e-02 1.952522e-02 1.149846e-02 8.377552e-03 8.617949e-03 1.244063e-02 1.864059e-02 2.280708e-02 2.206105e-02 2.297544e-02 2.535137e-02 2.106186e-02 1.220700e-02 6.571510e-03
<VARIANCE> 32
 5.172566e-01 1.269684e+00 2.599516e+00 2.265306e+00 9.212731e-01 6.042008e-01 6.050453e-01 9.963678e-01 1.885868e+00 2.421802e+00 2.460980e+00 2.566648e+00 2.940149e+00 2.430510e+00 1.451239e+00 8.650529e-01 1.832801e-02 3.161220e-02 5.094568e-02 4.777544e-02 2.153298e-02 1.577308e-02 1.558073e-02 2.216888e-02 3.920373e-02 5.055674e-02 5.252973e-02 5.530294e-02 5.862594e-02 5.546288e-02 4.414724e-02 2.714747e-02
<GCONST> 1.067834e+01
<STATE> 4
<MEAN> 32
 5.948949e+00 6.446364e+00 7.013462e+00 7.125068e+00 6.867051e+00 6.926840e+00 7.120961e+00 7.496165e+00 8.149856e+00 8.317199e+00 8.476506e+00 8.729016e+00 9.061203e+00 8.986440e+00 8.715484e+00 8.602327e+00 6.177352e-03 1.373935e-02 2.101786e-02 1.938922e-02 1.148012e-02 8.312915e-03 8.496394e-03 1.228046e-02 1.826984e-02 2.240267e-02 2.134885e-02 2.215925e-02 2.449971e-02 2.018532e-02 1.119400e-02 5.757330e-03
<VARIANCE> 32
 5.465019e-01 1.364751e+00 2.812788e+00 2.453927e+00 1.001711e+00 6.555972e-01 6.511596e-01 1.069321e+00 2.021634e+00 2.575872e+00 2.594007e+00 2.694002e+00 3.085020e+00 2.545409e+00 1.512695e+00 8.927188e-01 1.862185e-02 3.391195e-02 5.566536e-02 5.253622e-02 2.344169e-02 1.715437e-02 1.681666e-02 2.406160e-02 4.265107e-02 5.486413e-02 5.656572e-02 5.953441e-02 6.311952e-02 5.975725e-02 4.775092e-02 2.912568e-02
<GCONST> 1.288124e+01
<STATE> 5
<MEAN> 32
 5.988757e+00 6.537010e+00 7.151838e+00 7.252622e+00 6.942639e+00 6.981642e+00 7.176770e+00 7.576645e+00 8.268919e+00 8.463003e+00 8.613194e+00 8.870635e+00 9.218278e+00 9.114617e+00 8.783516e+00 8.635674e+00 5.665135e-03 1.307378e-02 2.002501e-02 1.844846e-02 1.093757e-02 7.893858e-03 7.997189e-03 1.152553e-02 1.708000e-02 2.098668e-02 1.959176e-02 2.023348e-02 2.247454e-02 1.823231e-02 9.471678e-03 4.548949e-03
<VARIANCE> 32
 5.684998e-01 1.435521e+00 2.976981e+00 2.600474e+00 1.066690e+00 6.973283e-01 6.869426e-01 1.123886e+00 2.121611e+00 2.679828e+00 2.674910e+00 2.766661e+00 3.167010e+00 2.609800e+00 1.544772e+00 9.006377e-01 1.872380e-02 3.586426e-02 5.979474e-02 5.678332e-02 2.518895e-02 1.843309e-02 1.792960e-02 2.571581e-02 4.549147e-02 5.831443e-02 5.951438e-02 6.259854e-02 6.642441e-02 6.289678e-02 5.043440e-02 3.051917e-02
<GCONST> 1.445521e+01
<STATE> 6
<MEAN> 32
 6.022877e+00 6.619411e+00 7.278759e+00 7.369983e+00 7.012006e+00 7.031734e+00 7.227077e+00 7.648798e+00 8.375695e+00 8.594322e+00 8.733327e+00 8.993811e+00 9.355922e+00 9.224328e+00 8.836534e+00 8.659204e+00 4.723172e-03 1.162060e-02 1.797515e-02 1.661585e-02 9.827568e-03 7.061478e-03 7.053440e-03 1.009926e-02 1.497106e-02 1.846458e-02 1.678437e-02 1.713453e-02 1.918538e-02 1.516723e-02 7.087398e-03 3.017446e-03
<VARIANCE> 32
 5.821682e-01 1.478661e+00 3.085963e+00 2.700060e+00 1.113758e+00 7.276695e-01 7.112430e-01 1.159264e+00 2.185444e+00 2.737643e+00 2.710406e+00 2.793132e+00 3.196427e+00 2.631199e+00 1.549690e+00 8.903674e-01 1.864825e-02 3.728552e-02 6.299249e-02 6.023132e-02 2.668158e-02 1.953370e-02 1.885864e-02 2.702453e-02 4.750326e-02 6.066339e-02 6.112522e-02 6.419988e-02 6.823833e-02 6.456422e-02 5.196057e-02 3.124049e-02
<GCONST> 1.541905e+01
<STATE> 7
<MEAN> 32
 6.048348e+00 6.687686e+00 7.386153e+00 7.470155e+00 7.070896e+00 7.073909e+00 7.268484e+00 7.707559e+00 8.463136e+00 8.702783e+00 8.829368e+00 9.090093e+00 9.464810e+00 9.307774e+00 8.870232e+00 8.670964e+00 3.357145e-03 9.328958e-03 1.478090e-02 1.379544e-02 8.117270e-03 5.776948e-03 5.627502e-03 7.955081e-03 1.186357e-02 1.475984e-02 1.292516e-02 1.285070e-02 1.458581e-02 1.100980e-02 4.104745e-03 1.219612e-03
<VARIANCE> 32
 5.871368e-01 1.494415e+00 3.140542e+00 2.753720e+00 1.142570e+00 7.462722e-01 7.242721e-01 1.176889e+00 2.217274e+00 2.760273e+00 2.713526e+00 2.789205e+00 3.192377e+00 2.623314e+00 1.532269e+00 8.653878e-01 1.842500e-02 3.804166e-02 6.496131e-02 6.261858e-02 2.782640e-02 2.038880e-02 1.954323e-02 2.788387e-02 4.849923e-02 6.169727e-02 6.122220e-02 6.412952e-02 6.832169e-02 6.453110e-02 5.217147e-02 3.124140e-02
<GCONST> 1.581020e+01
<STATE> 8
<MEAN> 32
 6.062693e+00 6.736317e+00 7.466112e+00 7.545974e+00 7.115135e+00 7.104986e+00 7.297646e+00 7.748010e+00 8.524246e+00 8.780110e+00 8.894194e+00 9.151702e+00 9.536156e+00 9.357977e+00 8.881169e+00 8.669489e+00 1.647067e-03 6.262787e-03 1.047717e-02 9.971345e-03 5.821702e-03 4.043615e-03 3.729206e-03 5.117971e-03 7.771990e-03 9.901988e-03 8.086590e-03 7.492761e-03 8.770430e-03 5.891827e-03 6.543808e-04 -7.725638e-04
<VARIANCE> 32
 5.838166e-01 1.486522e+00 3.148215e+00 2.768173e+00 1.154943e+00 7.540069e-01 7.273670e-01 1.179964e+00 2.224612e+00 2.762903e+00 2.699907e+00 2.772990e+00 3.177059e+00 2.601476e+00 1.497692e+00 8.291777e-01 1.808945e-02 3.806753e-02 6.549045e-02 6.372371e-02 2.853213e-02 2.093588e-02 1.992342e-02 2.820218e-02 4.834570e-02 6.125093e-02 5.972150e-02 6.230229e-02 6.654792e-02 6.270908e-02 5.100782e-02 3.050165e-02
<GCONST> 1.567394e+01
<STATE> 9
<MEAN> 32
 5.987192e+00 6.664926e+00 7.402164e+00 7.497108e+00 7.083825e+00 7.069329e+00 7.239147e+00 7.655891e+00 8.404911e+00 8.669770e+00 8.758457e+00 8.970307e+00 9.350019e+00 9.157574e+00 8.678070e+00 8.528928e+00 -5.773683e-03 -1.035698e-02 -1.448296e-02 -1.333007e-02 -7.779152e-03 -6.226291e-03 -6.970013e-03 -1.027578e-02 -1.469430e-02 -1.694360e-02 -1.680942e-02 -1.861092e-02 -2.028552e-02 -1.807748e-02 -1.247872e-02 -7.484787e-03
<VARIANCE> 32
 5.011229e-01 1.299047e+00 2.865808e+00 2.564163e+00 1.083321e+00 6.897504e-01 6.555803e-01 1.079227e+00 2.073902e+00 2.711122e+00 2.601554e+00 2.690078e+00 3.126496e+00 2.445573e+00 1.215557e+00 6.045761e-01 1.617981e-02 3.144672e-02 5.268336e-02 5.296476e-02 2.546326e-02 1.885715e-02 1.732345e-02 2.325156e-02 3.634747e-02 4.524948e-02 4.102555e-02 4.176272e-02 4.512005e-02 4.253570e-02 3.534864e-02 2.119474e-02
<GCONST> 9.983194e+00
<TRANSP> 10
 0.000000e+00 1.000000e+00 0.000000e+00 0.000000e+00 0.000000e+00 0.000000e+00 0.000000e+00 0.000000e+00 0.000000e+00 0.000000e+00
 0.000000e+00 8.426741e-01 1.573259e-01 0.000000e+00 0.000000e+00 0.000000e+00 0.000000e+00 0.000000e+00 0.000000e+00 0.000000e+00
 0.000000e+00 0.000000e+00 8.426743e-01 1.573257e-01 0.000000e+00 0.000000e+00 0.000000e+00 0.000000e+00 0.000000e+00 0.000000e+00
 0.000000e+00 0.000000e+00 0.000000e+00 8.426740e-01 1.573260e-01 0.000000e+00 0.000000e+00 0.000000e+00 0.000000e+00 0.000000e+00
 0.000000e+00 0.000000e+00 0.000000e+00 0.000000e+00 8.426741e-01 1.573258e-01 0.000000e+00 0.000000e+00 0.000000e+00 0.000000e+00
 0.000000e+00 0.000000e+00 0.000000e+00 0.000000e+00 0.000000e+00 8.426742e-01 1.573258e-01 0.000000e+00 0.000000e+00 0.000000e+00
 0.000000e+00 0.000000e+00 0.000000e+00 0.000000e+00 0.000000e+00 0.000000e+00 8.426742e-01 1.573258e-01 0.000000e+00 0.000000e+00
 0.000000e+00 0.000000e+00 0.000000e+00 0.000000e+00 0.000000e+00 0.000000e+00 0.000000e+00 8.426745e-01 1.573255e-01 0.000000e+00
 0.000000e+00 0.000000e+00 0.000000e+00 0.000000e+00 0.000000e+00 0.000000e+00 0.000000e+00 0.000000e+00 9.765783e-01 2.342172e-02
 0.000000e+00 0.000000e+00 0.000000e+00 0.000000e+00 0.000000e+00 0.000000e+00 0.000000e+00 0.000000e+00 0.000000e+00 0.000000e+00
<ENDHMM>
~h "sedm"
<BEGINHMM>
<NUMSTATES> 10
<STATE> 2
<MEAN> 32
 5.941867e+00 6.363933e+00 6.754508e+00 6.974072e+00 6.942839e+00 7.014863e+00 7.237569e+00 7.535357e+00 7.850841e+00 7.780969e+00 7.963115e+00 8.173597e+00 8.497324e+00 8.553028e+00 8.474608e+00 8.518443e+00 8.332415e-03 1.558804e-02 1.939764e-02 1.932421e-02 1.494696e-02 1.237904e-02 1.343843e-02 1.599516e-02 1.527688e-02 1.559110e-02 1.550552e-02 1.632454e-02 1.881611e-02 1.603097e-02 9.927307e-03 6.741562e-03
<VARIANCE> 32
 5.863682e-01 1.351576e+00 2.137295e+00 2.225936e+00 1.569283e+00 1.040505e+00 1.159855e+00 1.600184e+00 1.588118e+00 1.399240e+00 1.613512e+00 1.598224e+00 1.899570e+00 1.742489e+00 1.281574e+00 9.119656e-01 1.580474e-02 2.474084e-02 4.202829e-02 4.488780e-02 3.496404e-02 2.407364e-02 2.692644e-02 3.491905e-02 2.965923e-02 2.589871e-02 2.602520e-02 2.577429e-02 2.993065e-02 2.941933e-02 2.408507e-02 1.901343e-02
<GCONST> 6.975111e+00
<STATE> 3
<MEAN> 32
 5.998156e+00 6.472392e+00 6.888510e+00 7.107027e+00 7.045969e+00 7.100677e+00 7.330591e+00 7.645014e+00 7.955113e+00 7.887744e+00 8.068605e+00 8.284894e+00 8.624438e+00 8.659517e+00 8.539017e+00 8.561940e+00 8.309076e-03 1.627487e-02 1.999171e-02 1.979012e-02 1.529210e-02 1.276940e-02 1.386637e-02 1.629512e-02 1.543797e-02 1.588826e-02 1.564970e-02 1.662216e-02 1.891430e-02 1.564956e-02 9.275287e-03 6.235607e-03
<VARIANCE> 32
 6.300114e-01 1.481209e+00 2.331865e+00 2.418574e+00 1.710566e+00 1.130795e+00 1.262369e+00 1.735409e+00 1.722872e+00 1.516459e+00 1.754559e+00 1.735945e+00 2.029861e+00 1.836057e+00 1.354672e+00 9.685208e-01 1.630213e-02 2.656297e-02 4.627663e-02 4.958261e-02 3.846751e-02 2.651975e-02 2.988236e-02 3.883966e-02 3.310730e-02 2.891583e-02 2.904358e-02 2.882469e-02 3.295492e-02 3.223027e-02 2.610444e-02 2.063225e-02
<GCONST> 9.698633e+00
<STATE> 4
<MEAN> 32
 6.053075e+00 6.583658e+00 7.023579e+00 7.239832e+00 7.148952e+00 7.186791e+00 7.423558e+00 7.753265e+00 8.057019e+00 7.993104e+00 8.171701e+00 8.393764e+00 8.746496e+00 8.757635e+00 8.593889e+00 8.597879e+00 7.965175e-03 1.640878e-02 1.980542e-02 1.943130e-02 1.501322e-02 1.259248e-02 1.361068e-02 1.579973e-02 1.481588e-02 1.538863e-02 1.501235e-02 1.594580e-02 1.780944e-02 1.411194e-02 7.685740e-03 4.994015e-03
<VARIANCE> 32
 6.683190e-01 1.587312e+00 2.488966e+00 2.572094e+00 1.826315e+00 1.203010e+00 1.345387e+00 1.843176e+00 1.830993e+00 1.608618e+00 1.870239e+00 1.847547e+00 2.123264e+00 1.891517e+00 1.399229e+00 1.005557e+00 1.669770e-02 2.825290e-02 5.024818e-02 5.392161e-02 4.177098e-02 2.884664e-02 3.271035e-02 4.252788e-02 3.636807e-02 3.180119e-02 3.191553e-02 3.169065e-02 3.556517e-02 3.451489e-02 2.757460e-02 2.182828e-02
<GCONST> 1.182907e+01
<STATE> 5
<MEAN> 32
 6.104116e+00 6.692323e+00 7.152830e+00 7.365218e+00 7.245989e+00 7.268006e+00 7.510815e+00 7.853175e+00 8.149494e+00 8.090103e+00 8.265774e+00 8.492680e+00 8.854605e+00 8.838838e+00 8.632628e+00 8.621147e+00 7.257942e-03 1.573262e-02 1.859923e-02 1.799368e-02 1.387543e-02 1.164218e-02 1.251655e-02 1.427344e-02 1.313966e-02 1.385590e-02 1.339172e-02 1.414441e-02 1.537888e-02 1.131116e-02 5.130355e-03 3.001938e-03
<VARIANCE> 32
 6.991000e-01 1.664186e+00 2.600326e+00 2.677770e+00 1.909562e+00 1.253442e+00 1.405121e+00 1.918119e+00 1.906667e+00 1.672269e+00 1.954490e+00 1.928761e+00 2.177438e+00 1.904940e+00 1.407168e+00 1.015475e+00 1.688892e-02 2.959886e-02 5.353789e-02 5.748331e-02 4.457964e-02 3.088137e-02 3.518104e-02 4.566624e-02 3.915597e-02 3.433795e-02 3.440793e-02 3.415437e-02 3.752147e-02 3.601811e-02 2.823818e-02 2.239153e-02
<GCONST> 1.329713e+01
<STATE> 6
<MEAN> 32
 6.148002e+00 6.791398e+00 7.267727e+00 7.474350e+00 7.329900e+00 7.338261e+00 7.586010e+00 7.936921e+00 8.224649e+00 8.171208e+00 8.343545e+00 8.573937e+00 8.940072e+00 8.895494e+00 8.650052e+00 8.627891e+00 6.070155e-03 1.402593e-02 1.613489e-02 1.525414e-02 1.168047e-02 9.803229e-03 1.049129e-02 1.160137e-02 1.031024e-02 1.122705e-02 1.071114e-02 1.122471e-02 1.168954e-02 7.422188e-03 1.847835e-03 4.705514e-04
<VARIANCE> 32
 7.206891e-01 1.709697e+00 2.662141e+00 2.731579e+00 1.955599e+00 1.280224e+00 1.439773e+00 1.958032e+00 1.946875e+00 1.707407e+00 2.003799e+00 1.978631e+00 2.195506e+00 1.878228e+00 1.375124e+00 9.940788e-01 1.681699e-02 3.038916e-02 5.570165e-02 5.981939e-02 4.652960e-02 3.240528e-02 3.703173e-02 4.789833e-02 4.114375e-02 3.627042e-02 3.624950e-02 3.598567e-02 3.862927e-02 3.658116e-02 2.796155e-02 2.220054e-02
<GCONST> 1.405611e+01
<STATE> 7
<MEAN> 32
 6.180882e+00 6.873060e+00 7.358832e+00 7.557909e+00 7.393087e+00 7.391491e+00 7.642795e+00 7.996995e+00 8.275305e+00 8.229547e+00 8.398257e+00 8.631030e+00 8.996025e+00 8.922628e+00 8.643975e+00 8.616814e+00 4.325781e-03 1.118878e-02 1.230792e-02 1.116968e-02 8.391523e-03 7.096388e-03 7.557727e-03 7.859471e-03 6.467311e-03 7.632321e-03 7.079483e-03 7.404596e-03 7.059348e-03 2.878390e-03 -1.690157e-03 -2.199038e-03
<VARIANCE> 32
 7.323604e-01 1.726276e+00 2.677152e+00 2.736172e+00 1.963652e+00 1.283883e+00 1.450362e+00 1.964623e+00 1.951873e+00 1.717295e+00 2.018168e+00 1.999577e+00 2.185045e+00 1.818452e+00 1.306053e+00 9.426051e-01 1.647531e-02 3.047455e-02 5.637876e-02 6.056710e-02 4.728119e-02 3.319865e-02 3.800918e-02 4.889914e-02 4.203118e-02 3.735248e-02 3.718370e-02 3.697338e-02 3.876431e-02 3.616087e-02 2.677706e-02 2.126676e-02
<GCONST> 1.409363e+01
<STATE> 8
<MEAN> 32
 6.199142e+00 6.929952e+00 7.417484e+00 7.607859e+00 7.429070e+00 7.422719e+00 7.675968e+00 8.027727e+00 8.296557e+00 8.260203e+00 8.425030e+00 8.659868e+00 9.018723e+00 8.918834e+00 8.615712e+00 8.589564e+00 2.075856e-03 7.316135e-03 7.263896e-03 5.964790e-03 4.196062e-03 3.701344e-03 3.908665e-03 3.347750e-03 1.974790e-03 3.383608e-03 2.797634e-03 3.067809e-03 1.980385e-03 -1.775930e-03 -4.960114e-03 -4.567044e-03
<VARIANCE> 32
 7.343097e-01 1.720391e+00 2.654037e+00 2.700155e+00 1.937035e+00 1.267179e+00 1.440297e+00 1.942732e+00 1.924581e+00 1.706944e+00 2.000706e+00 1.996090e+00 2.154917e+00 1.735171e+00 1.208299e+00 8.675923e-01 1.591127e-02 2.982505e-02 5.540514e-02 5.955825e-02 4.662703e-02 3.310503e-02 3.793750e-02 4.846806e-02 4.163617e-02 3.741091e-02 3.703593e-02 3.697477e-02 3.789766e-02 3.481730e-02 2.485610e-02 1.972324e-02
<GCONST> 1.343382e+01
<STATE> 9
<MEAN> 32
 6.096400e+00 6.834970e+00 7.248940e+00 7.416214e+00 7.254892e+00 7.294277e+00 7.544476e+00 7.846561e+00 8.094950e+00 8.098063e+00 8.246819e+00 8.511158e+00 8.818377e+00 8.666357e+00 8.376443e+00 8.408367e+00 -7.599719e-03 -1.202926e-02 -1.608580e-02 -1.631296e-02 -1.338621e-02 -1.062237e-02 -1.127869e-02 -1.368493e-02 -1.360770e-02 -1.301104e-02 -1.336284e-02 -1.283974e-02 -1.504441e-02 -1.434796e-02 -1.012035e-02 -6.980535e-03
<VARIANCE> 32
 6.453745e-01 1.573317e+00 2.304510e+00 2.291565e+00 1.561544e+00 1.045074e+00 1.241432e+00 1.641634e+00 1.555116e+00 1.501646e+00 1.679149e+00 1.804512e+00 1.920124e+00 1.319693e+00 7.656468e-01 5.466025e-01 1.357926e-02 2.351171e-02 3.952778e-02 4.235733e-02 3.248050e-02 2.456298e-02 2.815473e-02 3.463735e-02 2.942622e-02 2.812091e-02 2.676101e-02 2.808427e-02 2.755377e-02 2.390459e-02 1.469127e-02 1.157011e-02
<GCONST> 4.904635e+00
<TRANSP> 10
 0.000000e+00 1.000000e+00 0.000000e+00 0.000000e+00 0.000000e+00 0.000000e+00 0.000000e+00 0.000000e+00 0.000000e+00 0.000000e+00
 0.000000e+00 8.426741e-01 1.573259e-01 0.000000e+00 0.000000e+00 0.000000e+00 0.000000e+00 0.000000e+00 0.000000e+00 0.000000e+00
 0.000000e+00 0.000000e+00 8.426743e-01 1.573257e-01 0.000000e+00 0.000000e+00 0.000000e+00 0.000000e+00 0.000000e+00 0.000000e+00
 0.000000e+00 0.000000e+00 0.000000e+00 8.426740e-01 1.573260e-01 0.000000e+00 0.000000e+00 0.000000e+00 0.000000e+00 0.000000e+00
 0.000000e+00 0.000000e+00 0.000000e+00 0.000000e+00 8.426741e-01 1.573258e-01 0.000000e+00 0.000000e+00 0.000000e+00 0.000000e+00
 0.000000e+00 0.000000e+00 0.000000e+00 0.000000e+00 0.000000e+00 8.426742e-01 1.573258e-01 0.000000e+00 0.000000e+00 0.000000e+00
 0.000000e+00 0.000000e+00 0.000000e+00 0.000000e+00 0.000000e+00 0.000000e+00 8.426742e-01 1.573258e-01 0.000000e+00 0.000000e+00
 0.000000e+00 0.000000e+00 0.000000e+00 0.000000e+00 0.000000e+00 0.000000e+00 0.000000e+00 8.426745e-01 1.573255e-01 0.000000e+00
 0.000000e+00 0.000000e+00 0.000000e+00 0.000000e+00 0.000000e+00 0.000000e+00 0.000000e+00 0.000000e+00 9.765783e-01 2.342172e-02
 0.000000e+00 0.000000e+00 0.000000e+00 0.000000e+00 0.000000e+00 0.000000e+00 0.000000e+00 0.000000e+00 0.000000e+00 0.000000e+00
<ENDHMM>
~h "sest"
<BEGINHMM>
<NUMSTATES> 10
<STATE> 2
<MEAN> 32
 5.779821e+00 6.102876e+00 6.542611e+00 6.881475e+00 6.926310e+00 6.979019e+00 7.148249e+00 7.526054e+00 7.951083e+00 7.972782e+00 8.200107e+00 8.431433e+00 8.706272e+00 8.762468e+00 8.689143e+00 8.642905e+00 4.440503e-03 7.806479e-03 1.277438e-02 1.641722e-02 1.444424e-02 1.090044e-02 1.105958e-02 1.578788e-02 1.737740e-02 1.837365e-02 1.985279e-02 2.119172e-02 2.326473e-02 2.215988e-02 1.678997e-02 1.141762e-02
<VARIANCE> 32
 4.031723e-01 8.450555e-01 1.634397e+00 2.277174e+00 1.950781e+00 1.268479e+00 1.149943e+00 1.775011e+00 2.056778e+00 2.221788e+00 2.568354e+00 2.616540e+00 2.771865e+00 2.530103e+00 1.864023e+00 1.227824e+00 1.645237e-02 2.403956e-02 3.191192e-02 3.758438e-02 3.124467e-02 1.963739e-02 1.864336e-02 2.430205e-02 2.397376e-02 2.487849e-02 2.814908e-02 3.099367e-02 3.464491e-02 3.529304e-02 3.049130e-02 2.134883e-02
<GCONST> 8.699965e+00
<STATE> 3
<MEAN> 32
 5.809436e+00 6.157301e+00 6.631118e+00 6.995064e+00 7.026989e+00 7.055548e+00 7.225131e+00 7.635251e+00 8.070602e+00 8.098502e+00 8.335337e+00 8.576160e+00 8.865133e+00 8.913727e+00 8.803637e+00 8.720381e+00 4.275154e-03 7.932549e-03 1.296143e-02 1.671244e-02 1.486463e-02 1.128579e-02 1.132333e-02 1.610754e-02 1.756505e-02 1.840815e-02 1.984299e-02 2.125441e-02 2.344323e-02 2.239213e-02 1.696108e-02 1.150253e-02
<VARIANCE> 32
 4.256136e-01 9.214864e-01 1.790064e+00 2.501438e+00 2.166250e+00 1.404938e+00 1.269964e+00 1.947794e+00 2.243558e+00 2.392393e+00 2.756228e+00 2.789525e+00 2.948835e+00 2.696650e+00 2.005588e+00 1.336441e+00 1.665259e-02 2.571733e-02 3.515826e-02 4.182640e-02 3.485534e-02 2.169224e-02 2.057983e-02 2.736885e-02 2.688904e-02 2.758781e-02 3.095108e-02 3.410037e-02 3.799376e-02 3.897043e-02 3.406209e-02 2.401591e-02
<GCONST> 1.154218e+01
<STATE> 4
<MEAN> 32
 5.837376e+00 6.210524e+00 6.718384e+00 7.107265e+00 7.127847e+00 7.132599e+00 7.301833e+00 7.744062e+00 8.187886e+00 8.219959e+00 8.465651e+00 8.715841e+00 9.019360e+00 9.061162e+00 8.914955e+00 8.795712e+00 3.978948e-03 7.636732e-03 1.257258e-02 1.622860e-02 1.464566e-02 1.117961e-02 1.111356e-02 1.579672e-02 1.694813e-02 1.747513e-02 1.877938e-02 2.014108e-02 2.233901e-02 2.141754e-02 1.617737e-02 1.096410e-02
<VARIANCE> 32
 4.454723e-01 9.889513e-01 1.924063e+00 2.694450e+00 2.357855e+00 1.525911e+00 1.375630e+00 2.093919e+00 2.397457e+00 2.522028e+00 2.892346e+00 2.904512e+00 3.061490e+00 2.805605e+00 2.108551e+00 1.423211e+00 1.686732e-02 2.729770e-02 3.825819e-02 4.595156e-02 3.839776e-02 2.372833e-02 2.246482e-02 3.037510e-02 2.966573e-02 3.006600e-02 3.334169e-02 3.676195e-02 4.088721e-02 4.225148e-02 3.729110e-02 2.646685e-02
<GCONST> 1.382757e+01
<STATE> 5
<MEAN> 32
 5.861977e+00 6.258849e+00 6.798632e+00 7.211247e+00 7.222982e+00 7.205427e+00 7.373917e+00 7.846203e+00 8.295313e+00 8.328431e+00 8.581533e+00 8.840406e+00 9.158395e+00 9.194897e+00 9.015265e+00 8.863850e+00 3.431232e-03 6.797471e-03 1.133143e-02 1.475064e-02 1.356465e-02 1.037480e-02 1.025452e-02 1.455598e-02 1.520678e-02 1.525602e-02 1.631073e-02 1.754824e-02 1.968348e-02 1.898943e-02 1.423796e-02 9.684271e-03
<VARIANCE> 32
 4.613105e-01 1.043281e+00 2.029174e+00 2.846474e+00 2.516506e+00 1.624966e+00 1.461678e+00 2.207104e+00 2.512560e+00 2.605475e+00 2.969748e+00 2.956676e+00 3.106548e+00 2.853094e+00 2.166673e+00 1.481063e+00 1.704782e-02 2.861888e-02 4.098893e-02 4.964484e-02 4.165122e-02 2.560171e-02 2.417104e-02 3.314644e-02 3.210426e-02 3.208036e-02 3.506390e-02 3.868560e-02 4.304897e-02 4.483661e-02 3.987163e-02 2.847999e-02
<GCONST> 1.550580e+01
<STATE> 6
<MEAN> 32
 5.880758e+00 6.297849e+00 6.864737e+00 7.298934e+00 7.305270e+00 7.268140e+00 7.435883e+00 7.933760e+00 8.383755e+00 8.414062e+00 8.672560e+00 8.939067e+00 9.271062e+00 9.304568e+00 9.096657e+00 8.919813e+00 2.509562e-03 5.302417e-03 9.041925e-03 1.209326e-02 1.144129e-02 8.704649e-03 8.587930e-03 1.214808e-02 1.212640e-02 1.159603e-02 1.232609e-02 1.338933e-02 1.541196e-02 1.506688e-02 1.116332e-02 7.696725e-03
<VARIANCE> 32
 4.712889e-01 1.079508e+00 2.098993e+00 2.949419e+00 2.633838e+00 1.696381e+00 1.523589e+00 2.283854e+00 2.586787e+00 2.643184e+00 2.989903e+00 2.951248e+00 3.092360e+00 2.845554e+00 2.180790e+00 1.507348e+00 1.711684e-02 2.949129e-02 4.309463e-02 5.257706e-02 4.433546e-02 2.715294e-02 2.556241e-02 3.548269e-02 3.399026e-02 3.341398e-02 3.593214e-02 3.965903e-02 4.425563e-02 4.646844e-02 4.156167e-02 2.988873e-02
<GCONST> 1.654743e+01
<STATE> 7
<MEAN> 32
 5.890944e+00 6.322779e+00 6.909389e+00 7.361908e+00 7.367086e+00 7.314505e+00 7.481772e+00 7.998273e+00 8.444114e+00 8.467740e+00 8.729618e+00 9.002396e+00 9.347603e+00 9.381185e+00 9.152694e+00 8.959688e+00 1.176660e-03 3.111440e-03 5.696334e-03 8.224737e-03 8.215714e-03 6.131904e-03 6.054616e-03 8.512042e-03 7.739333e-03 6.639049e-03 7.058638e-03 7.905116e-03 9.775460e-03 9.892799e-03 7.204862e-03 5.180546e-03
<VARIANCE> 32
 4.735902e-01 1.093081e+00 2.128783e+00 2.998415e+00 2.703506e+00 1.736022e+00 1.558449e+00 2.323849e+00 2.621713e+00 2.640651e+00 2.961799e+00 2.902116e+00 3.037006e+00 2.798532e+00 2.158488e+00 1.504735e+00 1.701275e-02 2.975674e-02 4.432897e-02 5.444525e-02 4.615834e-02 2.822717e-02 2.650713e-02 3.718128e-02 3.513344e-02 3.391888e-02 3.587843e-02 3.960121e-02 4.440392e-02 4.701314e-02 4.225274e-02 3.062236e-02
<GCONST> 1.695306e+01
<STATE> 8
<MEAN> 32
 5.890292e+00 6.329605e+00 6.926722e+00 7.393049e+00 7.401677e+00 7.339184e+00 7.506324e+00 8.032431e+00 8.469312e+00 8.483111e+00 8.746854e+00 9.024206e+00 9.381447e+00 9.418644e+00 9.179402e+00 8.981138e+00 -4.749536e-04 3.465888e-04 1.528242e-03 3.354578e-03 4.033208e-03 2.803918e-03 2.773998e-03 3.842643e-03 2.372340e-03 8.208147e-04 1.014683e-03 1.595723e-03 3.266833e-03 3.913578e-03 2.739655e-03 2.373824e-03
<VARIANCE> 32
 4.669375e-01 1.081194e+00 2.116008e+00 2.992239e+00 2.722159e+00 1.741915e+00 1.565294e+00 2.329079e+00 2.620551e+00 2.605071e+00 2.897419e+00 2.825810e+00 2.961402e+00 2.730809e+00 2.110757e+00 1.479669e+00 1.671954e-02 2.933996e-02 4.451444e-02 5.502162e-02 4.687579e-02 2.869997e-02 2.689644e-02 3.807139e-02 3.540672e-02 3.354629e-02 3.495360e-02 3.855963e-02 4.352350e-02 4.648272e-02 4.197379e-02 3.069921e-02
<GCONST> 1.674724e+01
<STATE> 9
<MEAN> 32
 5.780026e+00 6.160308e+00 6.694556e+00 7.147693e+00 7.207652e+00 7.179457e+00 7.346120e+00 7.810670e+00 8.190427e+00 8.156601e+00 8.421855e+00 8.689980e+00 9.074347e+00 9.159551e+00 8.987490e+00 8.873190e+00 -5.065158e-03 -8.756572e-03 -1.338986e-02 -1.589575e-02 -1.359989e-02 -1.068449e-02 -1.084236e-02 -1.502854e-02 -1.702430e-02 -1.849050e-02 -1.918612e-02 -2.035747e-02 -2.102386e-02 -1.923329e-02 -1.425104e-02 -9.257688e-03
<VARIANCE> 32
 3.551743e-01 7.894157e-01 1.629179e+00 2.405067e+00 2.241231e+00 1.411624e+00 1.290979e+00 1.966673e+00 2.204680e+00 2.131268e+00 2.358760e+00 2.338168e+00 2.576559e+00 2.391938e+00 1.769595e+00 1.242422e+00 1.465268e-02 2.243948e-02 3.486937e-02 4.339988e-02 3.695418e-02 2.369373e-02 2.203156e-02 3.229949e-02 2.805668e-02 2.532177e-02 2.586526e-02 2.826403e-02 3.372401e-02 3.739233e-02 3.412168e-02 2.579565e-02
<GCONST> 9.866827e+00
<TRANSP> 10
 0.000000e+00 1.000000e+00 0.000000e+00 0.000000e+00 0.000000e+00 0.000000e+00 0.000000e+00 0.000000e+00 0.000000e+00 0.000000e+00
 0.000000e+00 8.426741e-01 1.573259e-01 0.000000e+00 0.000000e+00 0.000000e+00 0.000000e+00 0.000000e+00 0.000000e+00 0.000000e+00
 0.000000e+00 0.000000e+00 8.426743e-01 1.573257e-01 0.000000e+00 0.000000e+00 0.000000e+00 0.000000e+00 0.000000e+00 0.000000e+00
 0.000000e+00 0.000000e+00 0.000000e+00 8.426740e-01 1.573260e-01 0.000000e+00 0.000000e+00 0.000000e+00 0.000000e+00 0.000000e+00
 0.000000e+00 0.000000e+00 0.000000e+00 0.000000e+00 8.426741e-01 1.573258e-01 0.000000e+00 0.000000e+00 0.000000e+00 0.000000e+00
 0.000000e+00 0.000000e+00 0.000000e+00 0.000000e+00 0.000000e+00 8.426742e-01 1.573258e-01 0.000000e+00 0.000000e+00 0.000000e+00
 0.000000e+00 0.000000e+00 0.000000e+00 0.000000e+00 0.000000e+00 0.000000e+00 8.426742e-01 1.573258e-01 0.000000e+00 0.000000e+00
 0.000000e+00 0.000000e+00 0.000000e+00 0.000000e+00 0.000000e+00 0.000000e+00 0.000000e+00 8.426745e-01 1.573255e-01 0.000000e+00
 0.000000e+00 0.000000e+00 0.000000e+00 0.000000e+00 0.000000e+00 0.000000e+00 0.000000e+00 0.000000e+00 9.765783e-01 2.342172e-02
 0.000000e+00 0.000000e+00 0.000000e+00 0.000000e+00 0.000000e+00 0.000000e+00 0.000000e+00 0.000000e+00 0.000000e+00 0.000000e+00
<ENDHMM>
~h "dva"
<BEGINHMM>
<NUMSTATES> 10
<STATE> 2
<MEAN> 32
 5.868098e+00 6.276006e+00 6.632941e+00 6.959180e+00 7.106410e+00 7.272253e+00 7.489703e+00 7.547698e+00 7.649990e+00 7.622305e+00 7.763167e+00 7.999746e+00 8.257010e+00 8.241898e+00 8.156027e+00 8.216868e+00 5.422893e-03 1.015151e-02 1.278453e-02 1.601141e-02 1.819869e-02 1.804025e-02 1.852659e-02 1.632472e-02 1.148216e-02 1.239706e-02 1.225797e-02 1.315930e-02 1.415871e-02 1.029413e-02 4.763016e-03 2.374287e-03
<VARIANCE> 32
 6.425955e-01 1.088460e+00 1.661211e+00 2.326686e+00 2.771077e+00 2.470138e+00 2.677186e+00 2.315107e+00 1.284385e+00 1.357897e+00 1.467991e+00 1.645485e+00 1.823342e+00 1.203627e+00 6.494003e-01 3.256297e-01 1.691569e-02 2.140185e-02 2.832354e-02 3.576376e-02 3.629729e-02 2.903412e-02 3.011505e-02 3.085904e-02 2.209170e-02 2.364553e-02 2.390470e-02 2.674312e-02 2.689955e-02 1.970149e-02 8.297228e-03 4.690463e-03
<GCONST> 2.960679e+00
<STATE> 3
<MEAN> 32
 5.905008e+00 6.342911e+00 6.719779e+00 7.068882e+00 7.232198e+00 7.396458e+00 7.617548e+00 7.660531e+00 7.728569e+00 7.708175e+00 7.848792e+00 8.092305e+00 8.356595e+00 8.313840e+00 8.188353e+00 8.233371e+00 5.379898e-03 9.728257e-03 1.269633e-02 1.613845e-02 1.868602e-02 1.851880e-02 1.901205e-02 1.677871e-02 1.162067e-02 1.274790e-02 1.278132e-02 1.379768e-02 1.486579e-02 1.069278e-02 4.784685e-03 2.457852e-03
<VARIANCE> 32
 6.815183e-01 1.160045e+00 1.785539e+00 2.518164e+00 3.038978e+00 2.724510e+00 2.947366e+00 2.550276e+00 1.401263e+00 1.497677e+00 1.637682e+00 1.834749e+00 2.036416e+00 1.326423e+00 7.040773e-01 3.470043e-01 1.712480e-02 2.192548e-02 3.007431e-02 3.866709e-02 4.012981e-02 3.226725e-02 3.332045e-02 3.409197e-02 2.413487e-02 2.607011e-02 2.674924e-02 2.993508e-02 2.979629e-02 2.166069e-02 8.979927e-03 5.002249e-03
<GCONST> 5.706040e+00
<STATE> 4
<MEAN> 32
 5.939668e+00 6.404068e+00 6.801340e+00 7.174366e+00 7.356338e+00 7.519962e+00 7.744263e+00 7.772233e+00 7.804477e+00 7.793445e+00 7.935637e+00 8.186351e+00 8.457915e+00 8.385446e+00 8.219177e+00 8.249185e+00 4.945454e-03 8.705615e-03 1.167919e-02 1.522012e-02 1.811389e-02 1.809769e-02 1.851544e-02 1.631868e-02 1.102005e-02 1.243790e-02 1.274468e-02 1.378509e-02 1.486075e-02 1.044540e-02 4.476260e-03 2.309908e-03
<VARIANCE> 32
 7.117161e-01 1.213871e+00 1.882385e+00 2.672596e+00 3.264885e+00 2.945507e+00 3.181879e+00 2.755622e+00 1.500777e+00 1.620190e+00 1.791180e+00 2.005409e+00 2.231593e+00 1.435935e+00 7.495465e-01 3.638802e-01 1.725491e-02 2.217383e-02 3.146943e-02 4.120329e-02 4.369503e-02 3.534782e-02 3.633005e-02 3.704740e-02 2.598393e-02 2.836794e-02 2.947115e-02 3.302311e-02 3.270465e-02 2.350262e-02 9.531832e-03 5.247432e-03
<GCONST> 7.926721e+00
<STATE> 5
<MEAN> 32
 5.968212e+00 6.454110e+00 6.870299e+00 7.267097e+00 7.469922e+00 7.634738e+00 7.861184e+00 7.875254e+00 7.872262e+00 7.872407e+00 8.018565e+00 8.276146e+00 8.554750e+00 8.451385e+00 8.245646e+00 8.262736e+00 3.922473e-03 6.884586e-03 9.580894e-03 1.303890e-02 1.621594e-02 1.647761e-02 1.672611e-02 1.473786e-02 9.615984e-03 1.127771e-02 1.193939e-02 1.291621e-02 1.392798e-02 9.403714e-03 3.735058e-03 1.926668e-03
<VARIANCE> 32
 7.292666e-01 1.244365e+00 1.942512e+00 2.777671e+00 3.435400e+00 3.122436e+00 3.369123e+00 2.919632e+00 1.576960e+00 1.720133e+00 1.920808e+00 2.149658e+00 2.400167e+00 1.525791e+00 7.802367e-01 3.745060e-01 1.725188e-02 2.206445e-02 3.231045e-02 4.311883e-02 4.670882e-02 3.804266e-02 3.891456e-02 3.950104e-02 2.751192e-02 3.039778e-02 3.188882e-02 3.581122e-02 3.540250e-02 2.506347e-02 9.885953e-03 5.405806e-03
<GCONST> 9.556923e+00
<STATE> 6
<MEAN> 32
 5.986547e+00 6.487576e+00 6.919470e+00 7.338329e+00 7.563555e+00 7.732053e+00 7.959018e+00 7.961686e+00 7.926497e+00 7.938869e+00 8.091606e+00 8.355103e+00 8.640086e+00 8.506151e+00 8.264843e+00 8.272698e+00 2.298739e-03 4.275001e-03 6.444944e-03 9.589303e-03 1.294631e-02 1.357866e-02 1.357776e-02 1.200236e-02 7.424024e-03 9.214440e-03 1.025731e-02 1.107868e-02 1.196908e-02 7.561939e-03 2.568133e-03 1.353509e-03
<VARIANCE> 32
 7.317161e-01 1.248743e+00 1.961091e+00 2.827328e+00 3.542815e+00 3.249316e+00 3.503079e+00 3.034697e+00 1.625291e+00 1.794365e+00 2.021098e+00 2.262125e+00 2.536402e+00 1.591454e+00 7.912808e-01 3.775856e-01 1.710332e-02 2.159434e-02 3.248983e-02 4.421900e-02 4.889499e-02 4.011546e-02 4.085084e-02 4.124926e-02 2.859382e-02 3.198917e-02 3.379142e-02 3.805454e-02 3.762268e-02 2.618627e-02 1.000699e-02 5.473039e-03
<GCONST> 1.056189e+01
<STATE> 7
<MEAN> 32
 5.991699e+00 6.500417e+00 6.943308e+00 7.380927e+00 7.629105e+00 7.804074e+00 8.029504e+00 8.024405e+00 7.962495e+00 7.987148e+00 8.148853e+00 8.416696e+00 8.707088e+00 8.545021e+00 8.274632e+00 8.278259e+00 2.671502e-04 1.114101e-03 2.546575e-03 5.148369e-03 8.529499e-03 9.569663e-03 9.259768e-03 8.254850e-03 4.572541e-03 6.345991e-03 7.730272e-03 8.302529e-03 9.032070e-03 5.057430e-03 1.111894e-03 6.722513e-04
<VARIANCE> 32
 7.187783e-01 1.227630e+00 1.939120e+00 2.823179e+00 3.586758e+00 3.325377e+00 3.583756e+00 3.098372e+00 1.643932e+00 1.842171e+00 2.089343e+00 2.340159e+00 2.637649e+00 1.631039e+00 7.801999e-01 3.728126e-01 1.685117e-02 2.084297e-02 3.201246e-02 4.440264e-02 5.003120e-02 4.135649e-02 4.194846e-02 4.211812e-02 2.911091e-02 3.295985e-02 3.495986e-02 3.949129e-02 3.910673e-02 2.675914e-02 9.900812e-03 5.460492e-03
<GCONST> 1.094107e+01
<STATE> 8
<MEAN> 32
 5.982687e+00 6.491045e+00 6.939198e+00 7.390885e+00 7.661167e+00 7.845179e+00 8.066800e+00 8.058138e+00 7.977113e+00 8.012982e+00 8.185363e+00 8.455406e+00 8.750033e+00 8.564756e+00 8.274261e+00 8.279214e+00 -1.858872e-03 -2.219170e-03 -1.667416e-03 1.978374e-04 3.393968e-03 4.802304e-03 4.153552e-03 3.789787e-03 1.306796e-03 2.899944e-03 4.516784e-03 4.758620e-03 5.302753e-03 2.128192e-03 -4.162260e-04 -2.290151e-05
<VARIANCE> 32
 6.922785e-01 1.184490e+00 1.882388e+00 2.772646e+00 3.573093e+00 3.353836e+00 3.615435e+00 3.113128e+00 1.634002e+00 1.864551e+00 2.125437e+00 2.383295e+00 2.703321e+00 1.645161e+00 7.480857e-01 3.611404e-01 1.656505e-02 1.993209e-02 3.096448e-02 4.365237e-02 4.997759e-02 4.161323e-02 4.207357e-02 4.197915e-02 2.896562e-02 3.314500e-02 3.521116e-02 3.989300e-02 3.964570e-02 2.672923e-02 9.607942e-03 5.388378e-03
<GCONST> 1.071881e+01
<STATE> 9
<MEAN> 32
 5.851789e+00 6.280435e+00 6.690111e+00 7.131442e+00 7.451626e+00 7.678450e+00 7.866914e+00 7.882039e+00 7.823780e+00 7.869551e+00 8.078407e+00 8.328908e+00 8.625855e+00 8.443788e+00 8.200813e+00 8.249625e+00 -6.281351e-03 -1.044239e-02 -1.314723e-02 -1.547472e-02 -1.548795e-02 -1.432186e-02 -1.560341e-02 -1.379389e-02 -1.012168e-02 -1.082389e-02 -1.011217e-02 -1.124384e-02 -1.201449e-02 -9.152774e-03 -4.042678e-03 -1.781606e-03
<VARIANCE> 32
 5.339105e-01 9.083840e-01 1.479545e+00 2.283315e+00 3.081824e+00 3.047251e+00 3.310249e+00 2.759299e+00 1.369007e+00 1.695110e+00 1.949857e+00 2.170323e+00 2.553716e+00 1.484887e+00 5.435039e-01 2.956702e-01 1.584863e-02 1.649155e-02 2.362959e-02 3.289599e-02 3.816324e-02 3.257390e-02 3.285702e-02 3.157040e-02 2.169866e-02 2.526369e-02 2.663789e-02 2.999256e-02 3.109979e-02 2.093328e-02 7.570053e-03 4.794204e-03
<GCONST> 4.374223e+00
<TRANSP> 10
 0.000000e+00 1.000000e+00 0.000000e+00 0.000000e+00 0.000000e+00 0.000000e+00 0.000000e+00 0.000000e+00 0.000000e+00 0.000000e+00
 0.000000e+00 8.426741e-01 1.573259e-01 0.000000e+00 0.000000e+00 0.000000e+00 0.000000e+00 0.000000e+00 0.000000e+00 0.000000e+00
 0.000000e+00 0.000000e+00 8.426743e-01 1.573257e-01 0.000000e+00 0.000000e+00 0.000000e+00 0.000000e+00 0.000000e+00 0.000000e+00
 0.000000e+00 0.000000e+00 0.000000e+00 8.426740e-01 1.573260e-01 0.000000e+00 0.000000e+00 0.000000e+00 0.000000e+00 0.000000e+00
 0.000000e+00 0.000000e+00 0.000000e+00 0.000000e+00 8.426741e-01 1.573258e-01 0.000000e+00 0.000000e+00 0.000000e+00 0.000000e+00
 0.000000e+00 0.000000e+00 0.000000e+00 0.000000e+00 0.000000e+00 8.426742e-01 1.573258e-01 0.000000e+00 0.000000e+00 0.000000e+00
 0.000000e+00 0.000000e+00 0.000000e+00 0.000000e+00 0.000000e+00 0.000000e+00 8.426742e-01 1.573258e-01 0.000000e+00 0.000000e+00
 0.000000e+00 0.000000e+00 0.000000e+00 0.000000e+00 0.000000e+00 0.000000e+00 0.000000e+00 8.426745e-01 1.573255e-01 0.000000e+00
 0.000000e+00 0.000000e+00 0.000000e+00 0.000000e+00 0.000000e+00 0.000000e+00 0.000000e+00 0.000000e+00 9.765783e-01 2.342172e-02
 0.000000e+00 0.000000e+00 0.000000e+00 0.000000e+00 0.000000e+00 0.000000e+00 0.000000e+00 0.000000e+00 0.000000e+00 0.000000e+00
<ENDHMM>
~h "osm"
<BEGINHMM>
<NUMSTATES> 10
<STATE> 2
<MEAN> 32
 5.827949e+00 6.264400e+00 6.707199e+00 6.963849e+00 7.002893e+00 7.213707e+00 7.338357e+00 7.374044e+00 7.575222e+00 7.580751e+00 7.836323e+00 8.160866e+00 8.454572e+00 8.469632e+00 8.407937e+00 8.490347e+00 7.463769e-03 1.406678e-02 1.862730e-02 1.969326e-02 1.685421e-02 1.752369e-02 1.661500e-02 1.390824e-02 1.151941e-02 1.303101e-02 1.467216e-02 1.813894e-02 2.001393e-02 1.670628e-02 1.079293e-02 8.309114e-03
<VARIANCE> 32
 5.241610e-01 1.190338e+00 2.021644e+00 2.303874e+00 1.952733e+00 1.929081e+00 1.767176e+00 1.227558e+00 8.315719e-01 9.311734e-01 1.293182e+00 1.843295e+00 2.172865e+00 1.937603e+00 1.424724e+00 1.146191e+00 2.124725e-02 3.473581e-02 5.031447e-02 5.737118e-02 4.988319e-02 4.688148e-02 3.803249e-02 2.199109e-02 1.524745e-02 1.644652e-02 2.183384e-02 2.982459e-02 3.203681e-02 2.340102e-02 1.674681e-02 1.385621e-02
<GCONST> 7.124424e+00
<STATE> 3
<MEAN> 32
 5.879873e+00 6.362020e+00 6.836394e+00 7.100250e+00 7.119397e+00 7.334665e+00 7.452454e+00 7.469544e+00 7.654861e+00 7.671158e+00 7.937579e+00 8.286879e+00 8.594011e+00 8.585485e+00 8.482642e+00 8.548628e+00 7.805736e-03 1.480507e-02 1.946108e-02 2.043759e-02 1.732391e-02 1.805017e-02 1.708852e-02 1.435918e-02 1.197782e-02 1.364697e-02 1.520024e-02 1.895309e-02 2.099498e-02 1.727987e-02 1.098006e-02 8.553821e-03
<VARIANCE> 32
 5.576278e-01 1.308533e+00 2.212790e+00 2.499046e+00 2.110072e+00 2.083818e+00 1.916338e+00 1.334411e+00 9.048233e-01 1.020506e+00 1.411855e+00 2.009807e+00 2.361356e+00 2.096396e+00 1.557295e+00 1.256094e+00 2.203483e-02 3.795216e-02 5.549585e-02 6.301247e-02 5.479117e-02 5.156149e-02 4.155077e-02 2.374717e-02 1.648901e-02 1.823059e-02 2.424700e-02 3.325022e-02 3.576002e-02 2.606106e-02 1.881214e-02 1.560986e-02
<GCONST> 9.983562e+00
<STATE> 4
<MEAN> 32
 5.932306e+00 6.462325e+00 6.968338e+00 7.238293e+00 7.235522e+00 7.455769e+00 7.567139e+00 7.566396e+00 7.736002e+00 7.764523e+00 8.040885e+00 8.415910e+00 8.736744e+00 8.702371e+00 8.556448e+00 8.606690e+00 7.738241e-03 1.492918e-02 1.950531e-02 2.031231e-02 1.696484e-02 1.775524e-02 1.687938e-02 1.431419e-02 1.199145e-02 1.384838e-02 1.525254e-02 1.907927e-02 2.112933e-02 1.714695e-02 1.067440e-02 8.389449e-03
<VARIANCE> 32
 5.851477e-01 1.406462e+00 2.364941e+00 2.646130e+00 2.228710e+00 2.199323e+00 2.031260e+00 1.419716e+00 9.647363e-01 1.094376e+00 1.508458e+00 2.140262e+00 2.506424e+00 2.219800e+00 1.672090e+00 1.353786e+00 2.275375e-02 4.096588e-02 6.035608e-02 6.812288e-02 5.919200e-02 5.573058e-02 4.467230e-02 2.528454e-02 1.760326e-02 1.997937e-02 2.652601e-02 3.646090e-02 3.929388e-02 2.854249e-02 2.080904e-02 1.733154e-02
<GCONST> 1.227268e+01
<STATE> 5
<MEAN> 32
 5.981968e+00 6.559896e+00 7.095600e+00 7.369915e+00 7.344009e+00 7.569784e+00 7.676015e+00 7.659940e+00 7.814683e+00 7.856609e+00 8.141382e+00 8.541511e+00 8.875108e+00 8.813452e+00 8.624748e+00 8.660781e+00 7.180774e-03 1.423110e-02 1.843185e-02 1.898294e-02 1.552984e-02 1.638446e-02 1.570785e-02 1.356321e-02 1.141199e-02 1.340987e-02 1.457385e-02 1.823170e-02 2.009909e-02 1.598201e-02 9.688427e-03 7.671203e-03
<VARIANCE> 32
 6.052300e-01 1.478020e+00 2.468868e+00 2.736028e+00 2.300668e+00 2.267990e+00 2.103400e+00 1.477381e+00 1.007761e+00 1.148361e+00 1.576996e+00 2.227168e+00 2.599730e+00 2.299352e+00 1.761213e+00 1.432918e+00 2.332975e-02 4.351785e-02 6.448266e-02 7.220399e-02 6.258962e-02 5.893011e-02 4.704851e-02 2.649244e-02 1.852451e-02 2.156218e-02 2.848717e-02 3.923305e-02 4.236450e-02 3.062014e-02 2.258951e-02 1.890080e-02
<GCONST> 1.393224e+01
<STATE> 6
<MEAN> 32
 6.025424e+00 6.648551e+00 7.209653e+00 7.485950e+00 7.436820e+00 7.668566e+00 7.771515e+00 7.744203e+00 7.885939e+00 7.941806e+00 8.232756e+00 8.655614e+00 8.999638e+00 8.910213e+00 8.681890e+00 8.706260e+00 6.124291e-03 1.262879e-02 1.611655e-02 1.631632e-02 1.292411e-02 1.382327e-02 1.342417e-02 1.192635e-02 1.010119e-02 1.214118e-02 1.295868e-02 1.618897e-02 1.766108e-02 1.355513e-02 7.869614e-03 6.268560e-03
<VARIANCE> 32
 6.173338e-01 1.521351e+00 2.523171e+00 2.767771e+00 2.322983e+00 2.287991e+00 2.130290e+00 1.505010e+00 1.032566e+00 1.181008e+00 1.615269e+00 2.269061e+00 2.639775e+00 2.330721e+00 1.817056e+00 1.486781e+00 2.365856e-02 4.535214e-02 6.745242e-02 7.474770e-02 6.447816e-02 6.071996e-02 4.836591e-02 2.725937e-02 1.917451e-02 2.282425e-02 2.993058e-02 4.132044e-02 4.464956e-02 3.204819e-02 2.398548e-02 2.017662e-02
<GCONST> 1.492258e+01
<STATE> 7
<MEAN> 32
 6.059546e+00 6.722317e+00 7.302304e+00 7.577546e+00 7.506274e+00 7.744229e+00 7.846156e+00 7.812701e+00 7.944387e+00 8.013788e+00 8.307956e+00 8.749419e+00 9.100274e+00 8.983772e+00 8.722002e+00 8.738291e+00 4.627405e-03 1.018225e-02 1.264424e-02 1.239426e-02 9.226524e-03 1.014089e-02 1.007420e-02 9.354465e-03 8.016081e-03 9.959708e-03 1.032105e-02 1.287256e-02 1.376735e-02 9.846406e-03 5.201514e-03 4.163375e-03
<VARIANCE> 32
 6.220198e-01 1.539402e+00 2.534613e+00 2.749177e+00 2.298780e+00 2.264060e+00 2.116575e+00 1.505221e+00 1.040669e+00 1.194630e+00 1.625796e+00 2.271440e+00 2.633167e+00 2.315389e+00 1.834093e+00 1.509720e+00 2.365085e-02 4.627433e-02 6.893062e-02 7.536741e-02 6.447545e-02 6.077839e-02 4.841078e-02 2.748550e-02 1.947074e-02 2.360830e-02 3.066879e-02 4.246975e-02 4.582681e-02 3.261249e-02 2.483517e-02 2.101520e-02
<GCONST> 1.523454e+01
<STATE> 8
<MEAN> 32
 6.081968e+00 6.776311e+00 7.366824e+00 7.637441e+00 7.546184e+00 7.790359e+00 7.893811e+00 7.859602e+00 7.985146e+00 8.066561e+00 8.360345e+00 8.814753e+00 9.168102e+00 9.026663e+00 8.740230e+00 8.752851e+00 2.815400e-03 7.073647e-03 8.249418e-03 7.467505e-03 4.676669e-03 5.573188e-03 5.878551e-03 5.965988e-03 5.245403e-03 6.928863e-03 6.740478e-03 8.404274e-03 8.626591e-03 5.098880e-03 1.852280e-03 1.490823e-03
<VARIANCE> 32
 6.205599e-01 1.538516e+00 2.515329e+00 2.694350e+00 2.236167e+00 2.205888e+00 2.072085e+00 1.484833e+00 1.035874e+00 1.194564e+00 1.614931e+00 2.245081e+00 2.592807e+00 2.260246e+00 1.810420e+00 1.498626e+00 2.326776e-02 4.619856e-02 6.873704e-02 7.389563e-02 6.243315e-02 5.898803e-02 4.711769e-02 2.711056e-02 1.935226e-02 2.379171e-02 3.056676e-02 4.246334e-02 4.565028e-02 3.218859e-02 2.501638e-02 2.129881e-02
<GCONST> 1.489082e+01
<STATE> 9
<MEAN> 32
 6.039906e+00 6.757396e+00 7.285104e+00 7.500082e+00 7.365865e+00 7.632742e+00 7.772838e+00 7.783558e+00 7.926649e+00 8.022692e+00 8.273476e+00 8.712929e+00 9.047690e+00 8.851587e+00 8.564836e+00 8.609438e+00 -5.278135e-03 -8.678549e-03 -1.344684e-02 -1.526495e-02 -1.435563e-02 -1.416257e-02 -1.271988e-02 -1.019477e-02 -8.297303e-03 -9.034060e-03 -1.095048e-02 -1.342404e-02 -1.468752e-02 -1.410772e-02 -1.072921e-02 -8.577450e-03
<VARIANCE> 32
 5.602790e-01 1.433332e+00 2.292041e+00 2.317112e+00 1.735417e+00 1.776575e+00 1.731332e+00 1.310914e+00 9.449129e-01 1.139099e+00 1.451183e+00 1.998096e+00 2.289229e+00 1.793650e+00 1.368742e+00 1.141252e+00 1.894016e-02 3.759093e-02 5.287797e-02 5.177012e-02 3.984904e-02 3.872936e-02 3.236237e-02 2.073462e-02 1.535213e-02 1.881953e-02 2.260551e-02 3.096196e-02 3.255742e-02 2.278703e-02 1.882124e-02 1.626242e-02
<GCONST> 7.564095e+00
<TRANSP> 10
 0.000000e+00 1.000000e+00 0.000000e+00 0.000000e+00 0.000000e+00 0.000000e+00 0.000000e+00 0.000000e+00 0.000000e+00 0.000000e+00
 0.000000e+00 8.426741e-01 1.573259e-01 0.000000e+00 0.000000e+00 0.000000e+00 0.000000e+00 0.000000e+00 0.000000e+00 0.000000e+00
 0.000000e+00 0.000000e+00 8.426743e-01 1.573257e-01 0.000000e+00 0.000000e+00 0.000000e+00 0.000000e+00 0.000000e+00 0.000000e+00
 0.000000e+00 0.000000e+00 0.000000e+00 8.426740e-01 1.573260e-01 0.000000e+00 0.000000e+00 0.000000e+00 0.000000e+00 0.000000e+00
 0.000000e+00 0.000000e+00 0.000000e+00 0.000000e+00 8.426741e-01 1.573258e-01 0.000000e+00 0.000000e+00 0.000000e+00 0.000000e+00
 0.000000e+00 0.000000e+00 0.000000e+00 0.000000e+00 0.000000e+00 8.426742e-01 1.573258e-01 0.000000e+00 0.000000e+00 0.000000e+00
 0.000000e+00 0.000000e+00 0.000000e+00 0.000000e+00 0.000000e+00 0.000000e+00 8.426742e-01 1.573258e-01 0.000000e+00 0.000000e+00
 0.000000e+00 0.000000e+00 0.000000e+00 0.000000e+00 0.000000e+00 0.000000e+00 0.000000e+00 8.426745e-01 1.573255e-01 0.000000e+00
 0.000000e+00 0.000000e+00 0.000000e+00 0.000000e+00 0.000000e+00 0.000000e+00 0.000000e+00 0.000000e+00 9.765783e-01 2.342172e-02
 0.000000e+00 0.000000e+00 0.000000e+00 0.000000e+00 0.000000e+00 0.000000e+00 0.000000e+00 0.000000e+00 0.000000e+00 0.000000e+00
<ENDHMM>
~h "pet"
<BEGINHMM>
<NUMSTATES> 10
<STATE> 2
<MEAN> 32
 5.870245e+00 6.186919e+00 6.660833e+00 6.953524e+00 6.937679e+00 6.947011e+00 7.092447e+00 7.421186e+00 7.860175e+00 7.833475e+00 7.946229e+00 8.066080e+00 8.302483e+00 8.284937e+00 8.178090e+00 8.254367e+00 4.125725e-03 8.416460e-03 1.447554e-02 1.747278e-02 1.450067e-02 9.985448e-03 9.559191e-03 1.327135e-02 1.565767e-02 1.640292e-02 1.566990e-02 1.480441e-02 1.546987e-02 1.194335e-02 5.359530e-03 2.714121e-03
<VARIANCE> 32
 4.636206e-01 9.788795e-01 2.112470e+00 2.609305e+00 1.947532e+00 1.106436e+00 9.758231e-01 1.502752e+00 2.086114e+00 2.444113e+00 2.269141e+00 1.970245e+00 2.029362e+00 1.460149e+00 6.346434e-01 3.243797e-01 1.878399e-02 2.674886e-02 4.517711e-02 4.279820e-02 2.660582e-02 1.886156e-02 1.711022e-02 2.399079e-02 3.278955e-02 4.006463e-02 3.450092e-02 3.036600e-02 3.130159e-02 2.310243e-02 9.913402e-03 5.075287e-03
<GCONST> 3.646651e+00
<STATE> 3
<MEAN> 32
 5.896877e+00 6.243632e+00 6.759059e+00 7.073317e+00 7.037718e+00 7.015388e+00 7.158156e+00 7.512215e+00 7.968116e+00 7.946084e+00 8.054373e+00 8.168376e+00 8.409214e+00 8.366908e+00 8.214361e+00 8.272718e+00 3.781447e-03 8.192583e-03 1.430389e-02 1.759032e-02 1.476499e-02 1.005347e-02 9.646401e-03 1.340370e-02 1.588333e-02 1.654281e-02 1.595822e-02 1.512569e-02 1.575810e-02 1.205716e-02 5.323754e-03 2.684314e-03
<VARIANCE> 32
 4.882329e-01 1.048692e+00 2.282853e+00 2.836825e+00 2.145019e+00 1.220424e+00 1.074692e+00 1.646257e+00 2.288658e+00 2.677443e+00 2.498144e+00 2.179337e+00 2.231699e+00 1.599477e+00 6.853375e-01 3.477103e-01 1.906951e-02 2.816594e-02 4.923623e-02 4.683092e-02 2.922334e-02 2.062692e-02 1.885248e-02 2.662539e-02 3.649961e-02 4.458284e-02 3.852841e-02 3.427302e-02 3.534164e-02 2.610101e-02 1.104388e-02 5.544004e-03
<GCONST> 6.536653e+00
<STATE> 4
<MEAN> 32
 5.919784e+00 6.296041e+00 6.852289e+00 7.190107e+00 7.136413e+00 7.082233e+00 7.222555e+00 7.601709e+00 8.073986e+00 8.055573e+00 8.160522e+00 8.269501e+00 8.514216e+00 8.446611e+00 8.248511e+00 8.289878e+00 3.160298e-03 7.409791e-03 1.331548e-02 1.683400e-02 1.429759e-02 9.644436e-03 9.279679e-03 1.293836e-02 1.529057e-02 1.578610e-02 1.536704e-02 1.467164e-02 1.521462e-02 1.151104e-02 4.914091e-03 2.462084e-03
<VARIANCE> 32
 5.073531e-01 1.101023e+00 2.413480e+00 3.014717e+00 2.311304e+00 1.319797e+00 1.160381e+00 1.766148e+00 2.455576e+00 2.869555e+00 2.690051e+00 2.357746e+00 2.400503e+00 1.715372e+00 7.245958e-01 3.667570e-01 1.928155e-02 2.928006e-02 5.278512e-02 5.033640e-02 3.168264e-02 2.236331e-02 2.053193e-02 2.914491e-02 3.987529e-02 4.872910e-02 4.227808e-02 3.803136e-02 3.922378e-02 2.898774e-02 1.212217e-02 5.982845e-03
<GCONST> 8.866242e+00
<STATE> 5
<MEAN> 32
 5.936657e+00 6.339529e+00 6.933587e+00 7.296104e+00 7.227635e+00 7.143464e+00 7.281678e+00 7.684288e+00 8.170808e+00 8.154783e+00 8.257959e+00 8.363525e+00 8.611094e+00 8.518844e+00 8.277760e+00 8.304404e+00 2.203435e-03 5.957767e-03 1.132067e-02 1.494511e-02 1.294434e-02 8.647252e-03 8.339545e-03 1.168950e-02 1.368518e-02 1.399746e-02 1.381042e-02 1.337028e-02 1.375159e-02 1.021127e-02 4.099218e-03 2.028170e-03
<VARIANCE> 32
 5.180962e-01 1.130709e+00 2.495302e+00 3.132422e+00 2.436859e+00 1.398456e+00 1.227946e+00 1.855493e+00 2.578297e+00 3.009581e+00 2.833975e+00 2.496176e+00 2.527140e+00 1.800519e+00 7.472499e-01 3.790110e-01 1.931722e-02 2.991528e-02 5.549377e-02 5.304968e-02 3.383079e-02 2.394769e-02 2.204106e-02 3.138318e-02 4.268701e-02 5.217268e-02 4.545972e-02 4.141004e-02 4.270671e-02 3.157904e-02 1.307538e-02 6.363863e-03
<GCONST> 1.057830e+01
<STATE> 6
<MEAN> 32
 5.945421e+00 6.369763e+00 6.995931e+00 7.383041e+00 7.304850e+00 7.194690e+00 7.331127e+00 7.753835e+00 8.251151e+00 8.236335e+00 8.339901e+00 8.444412e+00 8.693271e+00 8.578206e+00 8.299577e+00 8.314900e+00 9.544438e-04 3.890868e-03 8.321565e-03 1.187143e-02 1.065470e-02 7.023179e-03 6.769730e-03 9.560184e-03 1.101342e-02 1.115313e-02 1.128683e-02 1.121409e-02 1.135251e-02 8.137247e-03 2.925029e-03 1.394017e-03
<VARIANCE> 32
 5.184627e-01 1.135166e+00 2.525721e+00 3.187315e+00 2.516807e+00 1.452103e+00 1.274025e+00 1.910772e+00 2.653304e+00 3.092277e+00 2.924265e+00 2.589669e+00 2.607530e+00 1.850740e+00 7.501949e-01 3.826316e-01 1.910913e-02 2.998857e-02 5.712521e-02 5.478094e-02 3.551459e-02 2.523669e-02 2.327219e-02 3.320039e-02 4.474093e-02 5.460257e-02 4.780344e-02 4.417221e-02 4.553566e-02 3.368724e-02 1.384619e-02 6.666558e-03
<GCONST> 1.164897e+01
<STATE> 7
<MEAN> 32
 5.944705e+00 6.383466e+00 7.033394e+00 7.443466e+00 7.361917e+00 7.231770e+00 7.366633e+00 7.804378e+00 8.308169e+00 8.293466e+00 8.400042e+00 8.506418e+00 8.754564e+00 8.619775e+00 8.312164e+00 8.320304e+00 -4.773208e-04 1.375161e-03 4.494964e-03 7.750943e-03 7.498278e-03 4.818200e-03 4.596380e-03 6.584713e-03 7.376588e-03 7.357318e-03 7.878019e-03 8.252930e-03 8.087894e-03 5.372045e-03 1.510450e-03 6.165055e-04
<VARIANCE> 32
 5.078704e-01 1.114909e+00 2.508240e+00 3.184259e+00 2.551594e+00 1.479114e+00 1.297337e+00 1.932281e+00 2.682093e+00 3.118590e+00 2.961429e+00 2.638224e+00 2.642630e+00 1.865790e+00 7.334982e-01 3.770742e-01 1.864774e-02 2.950793e-02 5.754972e-02 5.540039e-02 3.658854e-02 2.609632e-02 2.412565e-02 3.446902e-02 4.587027e-02 5.575354e-02 4.907689e-02 4.608110e-02 4.745913e-02 3.513357e-02 1.438737e-02 6.873954e-03
<GCONST> 1.208033e+01
<STATE> 8
<MEAN> 32
 5.934122e+00 6.378901e+00 7.042012e+00 7.471714e+00 7.393871e+00 7.251349e+00 7.384691e+00 7.831039e+00 8.336562e+00 8.320893e+00 8.433261e+00 8.544572e+00 8.789840e+00 8.639784e+00 8.314746e+00 8.320141e+00 -1.943838e-03 -1.359971e-03 1.388084e-04 2.854121e-03 3.652204e-03 2.152355e-03 1.939583e-03 2.937847e-03 3.012093e-03 2.835046e-03 3.766116e-03 4.602920e-03 4.113751e-03 2.093571e-03 1.073978e-05 -2.120400e-04
<VARIANCE> 32
 4.871025e-01 1.072872e+00 2.449650e+00 3.132468e+00 2.545432e+00 1.480227e+00 1.298334e+00 1.923044e+00 2.669194e+00 3.093613e+00 2.950430e+00 2.645451e+00 2.636851e+00 1.848561e+00 7.002274e-01 3.632896e-01 1.796820e-02 2.853417e-02 5.672701e-02 5.482436e-02 3.692686e-02 2.642443e-02 2.451594e-02 3.507211e-02 4.593718e-02 5.543427e-02 4.910626e-02 4.691904e-02 4.826028e-02 3.576948e-02 1.465878e-02 6.970403e-03
<GCONST> 1.188663e+01
<STATE> 9
<MEAN> 32
 5.814311e+00 6.188544e+00 6.772982e+00 7.214807e+00 7.218184e+00 7.117852e+00 7.246747e+00 7.653968e+00 8.118207e+00 8.085077e+00 8.241516e+00 8.388789e+00 8.609106e+00 8.472490e+00 8.232792e+00 8.271180e+00 -5.270958e-03 -9.378832e-03 -1.509291e-02 -1.699514e-02 -1.339727e-02 -9.518472e-03 -9.443525e-03 -1.265520e-02 -1.503879e-02 -1.569383e-02 -1.437542e-02 -1.305192e-02 -1.389604e-02 -1.105518e-02 -4.682731e-03 -2.423212e-03
<VARIANCE> 32
 3.464993e-01 7.610425e-01 1.869873e+00 2.516408e+00 2.130976e+00 1.229295e+00 1.074140e+00 1.599933e+00 2.211349e+00 2.502069e+00 2.449774e+00 2.258195e+00 2.220541e+00 1.489910e+00 4.936484e-01 2.702367e-01 1.469013e-02 2.137373e-02 4.217700e-02 4.075458e-02 2.979207e-02 2.181400e-02 2.048121e-02 2.951937e-02 3.461165e-02 3.921994e-02 3.616797e-02 3.693898e-02 3.859343e-02 2.917124e-02 1.262970e-02 6.082024e-03
<GCONST> 4.470201e+00
<TRANSP> 10
 0.000000e+00 1.000000e+00 0.000000e+00 0.000000e+00 0.000000e+00 0.000000e+00 0.000000e+00 0.000000e+00 0.000000e+00 0.000000e+00
 0.000000e+00 8.426741e-01 1.573259e-01 0.000000e+00 0.000000e+00 0.000000e+00 0.000000e+00 0.000000e+00 0.000000e+00 0.000000e+00
 0.000000e+00 0.000000e+00 8.426743e-01 1.573257e-01 0.000000e+00 0.000000e+00 0.000000e+00 0.000000e+00 0.000000e+00 0.000000e+00
 0.000000e+00 0.000000e+00 0.000000e+00 8.426740e-01 1.573260e-01 0.000000e+00 0.000000e+00 0.000000e+00 0.000000e+00 0.000000e+00
 0.000000e+00 0.000000e+00 0.000000e+00 0.000000e+00 8.426741e-01 1.573258e-01 0.000000e+00 0.000000e+00 0.000000e+00 0.000000e+00
 0.000000e+00 0.000000e+00 0.000000e+00 0.000000e+00 0.000000e+00 8.426742e-01 1.573258e-01 0.000000e+00 0.000000e+00 0.000000e+00
 0.000000e+00 0.000000e+00 0.000000e+00 0.000000e+00 0.000000e+00 0.000000e+00 8.426742e-01 1.573258e-01 0.000000e+00 0.000000e+00
 0.000000e+00 0.000000e+00 0.000000e+00 0.000000e+00 0.000000e+00 0.000000e+00 0.000000e+00 8.426745e-01 1.573255e-01 0.000000e+00
 0.000000e+00 0.000000e+00 0.000000e+00 0.000000e+00 0.000000e+00 0.000000e+00 0.000000e+00 0.000000e+00 9.765783e-01 2.342172e-02
 0.000000e+00 0.000000e+00 0.000000e+00 0.000000e+00 0.000000e+00 0.000000e+00 0.000000e+00 0.000000e+00 0.000000e+00 0.000000e+00
<ENDHMM>
~h "sil"
<BEGINHMM>
<NUMSTATES> 5
<STATE> 2
<MEAN> 32
 5.666911e+00 5.943771e+00 6.254858e+00 6.495294e+00 6.590806e+00 6.750282e+00 6.911275e+00 7.107287e+00 7.419908e+00 7.397686e+00 7.575047e+00 7.797925e+00 8.053147e+00 8.069431e+00 8.079644e+00 8.229041e+00 -5.116181e-03 -7.808601e-03 -1.018725e-02 -1.166386e-02 -8.219054e-03 -8.880576e-03 -6.968540e-03 -8.642775e-03 -9.029790e-03 -9.359134e-03 -1.028715e-02 -1.686988e-02 -2.103372e-02 -1.726148e-02 -8.483760e-03 -1.081614e-02
<VARIANCE> 32
 2.674778e-01 4.886413e-01 8.664097e-01 1.014109e+00 8.268381e-01 6.794701e-01 6.933846e-01 7.501527e-01 7.024404e-01 8.487240e-01 9.056600e-01 9.356938e-01 1.038504e+00 7.277503e-01 3.469145e-01 2.401141e-01 1.357518e-02 1.457063e-02 1.703282e-02 1.697061e-02 1.362467e-02 1.166862e-02 1.110181e-02 1.178901e-02 1.010148e-02 1.059209e-02 1.014091e-02 1.053803e-02 1.173009e-02 1.004191e-02 6.198830e-03 4.754051e-03
<GCONST> -2.016101e+01
<STATE> 3
<MEAN> 32
 5.646272e+00 5.902563e+00 6.199071e+00 6.432247e+00 6.538366e+00 6.704600e+00 6.868748e+00 7.057644e+00 7.369786e+00 7.344148e+00 7.518167e+00 7.719625e+00 7.952441e+00 7.995227e+00 8.042151e+00 8.193277e+00 -2.773736e-03 -5.760429e-03 -7.832765e-03 -8.871377e-03 -7.481828e-03 -6.373398e-03 -6.070191e-03 -7.043760e-03 -7.013237e-03 -7.527427e-03 -7.958715e-03 -1.086640e-02 -1.414696e-02 -1.023072e-02 -5.235461e-03 -4.773093e-03
<VARIANCE> 32
 2.468390e-01 4.254024e-01 7.360012e-01 8.643957e-01 7.073846e-01 5.854664e-01 5.977761e-01 6.445103e-01 5.977817e-01 7.246430e-01 7.773798e-01 8.142677e-01 9.132403e-01 6.412116e-01 3.104713e-01 2.239549e-01 1.332683e-02 1.389774e-02 1.539885e-02 1.515983e-02 1.218808e-02 1.034093e-02 1.005637e-02 1.041862e-02 8.993536e-03 9.267913e-03 8.941441e-03 9.245097e-03 1.034125e-02 8.801167e-03 5.511917e-03 3.953264e-03
<GCONST> -2.415521e+01
<STATE> 4
<MEAN> 32
 5.702660e+00 5.981088e+00 6.295900e+00 6.523338e+00 6.604899e+00 6.757765e+00 6.923266e+00 7.123887e+00 7.450967e+00 7.430716e+00 7.603392e+00 7.797500e+00 8.033678e+00 8.084938e+00 8.117123e+00 8.241684e+00 1.554351e-03 2.189614e-03 2.757936e-03 2.569107e-03 1.788079e-03 1.269504e-03 1.217387e-03 1.611428e-03 2.444845e-03 2.340939e-03 2.152632e-03 1.948787e-03 2.179843e-03 2.319015e-03 2.038730e-03 1.492740e-03
<VARIANCE> 32
 3.359629e-01 6.372963e-01 1.104152e+00 1.236159e+00 9.549005e-01 7.543696e-01 7.657124e-01 8.411002e-01 8.468198e-01 9.970108e-01 1.068875e+00 1.112034e+00 1.237778e+00 9.725462e-01 5.713698e-01 3.895092e-01 1.462616e-02 1.762888e-02 2.239453e-02 2.240074e-02 1.723411e-02 1.377844e-02 1.350687e-02 1.430920e-02 1.400373e-02 1.507435e-02 1.508761e-02 1.584848e-02 1.749200e-02 1.512268e-02 9.831127e-03 6.570459e-03
<GCONST> -1.194409e+01
<TRANSP> 5
 0.000000e+00 1.000000e+00 0.000000e+00 0.000000e+00 0.000000e+00
 0.000000e+00 8.426817e-01 1.573183e-01 0.000000e+00 0.000000e+00
 0.000000e+00 0.000000e+00 8.426717e-01 1.573284e-01 0.000000e+00
 0.000000e+00 0.000000e+00 0.000000e+00 9.765732e-01 2.342689e-02
 0.000000e+00 0.000000e+00 0.000000e+00 0.000000e+00 0.000000e+00
<ENDHMM>
~h "tri"
<BEGINHMM>
<NUMSTATES> 10
<STATE> 2
<MEAN> 32
 5.803199e+00 6.170869e+00 6.578623e+00 6.724033e+00 6.658921e+00 6.783698e+00 6.987212e+00 7.302529e+00 7.818090e+00 7.904065e+00 8.065210e+00 8.299480e+00 8.595449e+00 8.609692e+00 8.504008e+00 8.494257e+00 4.373725e-03 9.090479e-03 1.374131e-02 1.306194e-02 8.039351e-03 6.702241e-03 6.751991e-03 9.496132e-03 1.365791e-02 1.764319e-02 1.781692e-02 1.784539e-02 1.956194e-02 1.686255e-02 1.022475e-02 6.192727e-03
<VARIANCE> 32
 3.868901e-01 9.346676e-01 1.861914e+00 1.638283e+00 7.213951e-01 5.331802e-01 5.409725e-01 8.387213e-01 1.522221e+00 2.153672e+00 2.279973e+00 2.494957e+00 2.884815e+00 2.537030e+00 1.659677e+00 1.106680e+00 1.516336e-02 2.357725e-02 3.711078e-02 3.500991e-02 2.059263e-02 1.660932e-02 1.767044e-02 1.980625e-02 2.489365e-02 2.767722e-02 2.790140e-02 3.302503e-02 3.909739e-02 3.944318e-02 3.110327e-02 2.111620e-02
<GCONST> 4.095470e+00
<STATE> 3
<MEAN> 32
 5.833071e+00 6.233957e+00 6.674064e+00 6.815375e+00 6.714525e+00 6.830291e+00 7.033586e+00 7.366487e+00 7.911761e+00 8.025522e+00 8.187565e+00 8.422346e+00 8.729929e+00 8.724884e+00 8.573399e+00 8.536388e+00 4.325809e-03 9.250307e-03 1.407596e-02 1.351799e-02 8.232853e-03 6.885448e-03 6.780847e-03 9.298757e-03 1.370948e-02 1.790324e-02 1.802329e-02 1.802782e-02 1.971455e-02 1.680495e-02 1.000286e-02 6.044766e-03
<VARIANCE> 32
 4.099337e-01 1.022612e+00 2.055038e+00 1.821599e+00 8.002568e-01 5.814649e-01 5.860872e-01 9.040985e-01 1.656992e+00 2.357176e+00 2.494396e+00 2.719795e+00 3.134015e+00 2.743340e+00 1.781039e+00 1.184797e+00 1.559705e-02 2.539699e-02 4.053290e-02 3.851257e-02 2.239000e-02 1.788328e-02 1.897089e-02 2.139773e-02 2.728129e-02 3.055759e-02 3.077384e-02 3.633660e-02 4.294646e-02 4.320850e-02 3.397858e-02 2.299698e-02
<GCONST> 6.779665e+00
<STATE> 4
<MEAN> 32
 5.861102e+00 6.295623e+00 6.768405e+00 6.906978e+00 6.770225e+00 6.876109e+00 7.078069e+00 7.426141e+00 8.001718e+00 8.144195e+00 8.306918e+00 8.541345e+00 8.859648e+00 8.834345e+00 8.636710e+00 8.574228e+00 3.980154e-03 8.874875e-03 1.365686e-02 1.330802e-02 8.096676e-03 6.641231e-03 6.372286e-03 8.491961e-03 1.290772e-02 1.715477e-02 1.724782e-02 1.711982e-02 1.864321e-02 1.564941e-02 8.925320e-03 5.304174e-03
<VARIANCE> 32
 4.304719e-01 1.100354e+00 2.225994e+00 1.986437e+00 8.715729e-01 6.229749e-01 6.233958e-01 9.565632e-01 1.768510e+00 2.528084e+00 2.673719e+00 2.904152e+00 3.334338e+00 2.905627e+00 1.872766e+00 1.243149e+00 1.605122e-02 2.718073e-02 4.367628e-02 4.177254e-02 2.401968e-02 1.899183e-02 2.003244e-02 2.274386e-02 2.934886e-02 3.309964e-02 3.330918e-02 3.917235e-02 4.619890e-02 4.626599e-02 3.625230e-02 2.447922e-02
<GCONST> 8.902958e+00
<STATE> 5
<MEAN> 32
 5.884987e+00 6.351607e+00 6.855447e+00 6.993013e+00 6.822458e+00 6.917588e+00 7.117233e+00 7.477016e+00 8.081249e+00 8.252189e+00 8.415401e+00 8.648160e+00 8.975468e+00 8.929762e+00 8.687675e+00 8.603377e+00 3.296658e-03 7.882162e-03 1.233400e-02 1.224962e-02 7.432399e-03 5.873655e-03 5.466357e-03 7.043974e-03 1.113343e-02 1.526396e-02 1.533323e-02 1.501188e-02 1.625142e-02 1.329127e-02 6.937061e-03 3.918145e-03
<VARIANCE> 32
 4.474041e-01 1.163914e+00 2.366029e+00 2.124835e+00 9.314401e-01 6.550261e-01 6.504174e-01 9.931154e-01 1.851174e+00 2.660043e+00 2.811056e+00 3.039887e+00 3.476964e+00 3.015115e+00 1.923790e+00 1.271190e+00 1.644277e-02 2.875371e-02 4.625832e-02 4.451432e-02 2.534179e-02 1.982407e-02 2.071797e-02 2.366661e-02 3.086896e-02 3.508443e-02 3.526497e-02 4.121320e-02 4.844987e-02 4.824723e-02 3.760849e-02 2.534209e-02
<GCONST> 1.039166e+01
<STATE> 6
<MEAN> 32
 5.902224e+00 6.397284e+00 6.928359e+00 7.066965e+00 6.866984e+00 6.951218e+00 7.147607e+00 7.514835e+00 8.143553e+00 8.341328e+00 8.504919e+00 8.734470e+00 9.068184e+00 9.003001e+00 8.720655e+00 8.619879e+00 2.247136e-03 6.219803e-03 1.002362e-02 1.025292e-02 6.154449e-03 4.604052e-03 4.064145e-03 4.990330e-03 8.383623e-03 1.220419e-02 1.226148e-02 1.171823e-02 1.254354e-02 9.770703e-03 4.142111e-03 1.962919e-03
<VARIANCE> 32
 4.594034e-01 1.209227e+00 2.467447e+00 2.230675e+00 9.770448e-01 6.758230e-01 6.655855e-01 1.012384e+00 1.902598e+00 2.751676e+00 2.903940e+00 3.123939e+00 3.559348e+00 3.068503e+00 1.926164e+00 1.260254e+00 1.670492e-02 2.994179e-02 4.800499e-02 4.647544e-02 2.623604e-02 2.030575e-02 2.093393e-02 2.404618e-02 3.167563e-02 3.635610e-02 3.645393e-02 4.220532e-02 4.939330e-02 4.889463e-02 3.782716e-02 2.542261e-02
<GCONST> 1.120423e+01
<STATE> 7
<MEAN> 32
 5.910435e+00 6.428120e+00 6.980477e+00 7.122439e+00 6.899750e+00 6.974133e+00 7.166259e+00 7.536091e+00 8.182732e+00 8.404121e+00 8.568064e+00 8.792843e+00 9.129559e+00 9.047157e+00 8.731536e+00 8.621038e+00 8.574397e-04 3.910452e-03 6.765733e-03 7.346653e-03 4.304198e-03 2.937406e-03 2.255909e-03 2.453154e-03 4.809496e-03 8.094014e-03 8.149992e-03 7.382691e-03 7.682131e-03 5.286912e-03 7.811839e-04 -3.607429e-04
<VARIANCE> 32
 4.650734e-01 1.232851e+00 2.524780e+00 2.300200e+00 1.006858e+00 6.846918e-01 6.686840e-01 1.014843e+00 1.923630e+00 2.805945e+00 2.954013e+00 3.158380e+00 3.585248e+00 3.067872e+00 1.877497e+00 1.206907e+00 1.679911e-02 3.060412e-02 4.872341e-02 4.746106e-02 2.662652e-02 2.041525e-02 2.066342e-02 2.385274e-02 3.170083e-02 3.683702e-02 3.677766e-02 4.201441e-02 4.888599e-02 4.811163e-02 3.684204e-02 2.466623e-02
<GCONST> 1.133405e+01
<STATE> 8
<MEAN> 32
 5.907968e+00 6.440475e+00 7.006430e+00 7.154161e+00 6.917639e+00 6.984454e+00 7.171315e+00 7.538592e+00 8.194794e+00 8.434855e+00 8.599074e+00 8.817668e+00 9.153477e+00 9.057514e+00 8.718441e+00 8.606030e+00 -7.581132e-04 1.094204e-03 2.764199e-03 3.704328e-03 2.027544e-03 1.022730e-03 2.028778e-04 -3.706198e-04 7.012557e-04 3.204481e-03 3.249448e-03 2.281423e-03 1.989965e-03 1.740401e-04 -2.804458e-03 -2.767795e-03
<VARIANCE> 32
 4.631383e-01 1.232539e+00 2.535455e+00 2.331804e+00 1.020474e+00 6.820361e-01 6.607031e-01 1.002199e+00 1.917086e+00 2.827739e+00 2.965263e+00 3.148615e+00 3.562223e+00 3.018870e+00 1.781779e+00 1.114821e+00 1.671431e-02 3.065796e-02 4.833667e-02 4.737644e-02 2.649223e-02 2.017667e-02 1.996157e-02 2.313273e-02 3.096844e-02 3.651369e-02 3.621723e-02 4.063880e-02 4.696031e-02 4.596463e-02 3.474664e-02 2.314098e-02
<GCONST> 1.079916e+01
<STATE> 9
<MEAN> 32
 5.799531e+00 6.284823e+00 6.813274e+00 6.997023e+00 6.820834e+00 6.894912e+00 7.053768e+00 7.360788e+00 7.962973e+00 8.199723e+00 8.358159e+00 8.542771e+00 8.839614e+00 8.747436e+00 8.459906e+00 8.425487e+00 -5.179184e-03 -9.419266e-03 -1.331329e-02 -1.214309e-02 -7.439880e-03 -6.121199e-03 -7.003609e-03 -9.829181e-03 -1.388082e-02 -1.662272e-02 -1.673795e-02 -1.778568e-02 -1.978452e-02 -1.773941e-02 -1.180391e-02 -7.473566e-03
<VARIANCE> 32
 3.716052e-01 9.818824e-01 2.109844e+00 2.040469e+00 9.103199e-01 5.738840e-01 5.424286e-01 8.197467e-01 1.625628e+00 2.566453e+00 2.608790e+00 2.684043e+00 3.013417e+00 2.401784e+00 1.143177e+00 6.166562e-01 1.514056e-02 2.515951e-02 3.703639e-02 3.683132e-02 2.131583e-02 1.651891e-02 1.467688e-02 1.675869e-02 2.231045e-02 2.783536e-02 2.634680e-02 2.681035e-02 3.007488e-02 2.887040e-02 2.039453e-02 1.327629e-02
<GCONST> 2.173370e+00
<TRANSP> 10
 0.000000e+00 1.000000e+00 0.000000e+00 0.000000e+00 0.000000e+00 0.000000e+00 0.000000e+00 0.000000e+00 0.000000e+00 0.000000e+00
 0.000000e+00 8.426741e-01 1.573259e-01 0.000000e+00 0.000000e+00 0.000000e+00 0.000000e+00 0.000000e+00 0.000000e+00 0.000000e+00
 0.000000e+00 0.000000e+00 8.426743e-01 1.573257e-01 0.000000e+00 0.000000e+00 0.000000e+00 0.000000e+00 0.000000e+00 0.000000e+00
 0.000000e+00 0.000000e+00 0.000000e+00 8.426740e-01 1.573260e-01 0.000000e+00 0.000000e+00 0.000000e+00 0.000000e+00 0.000000e+00
 0.000000e+00 0.000000e+00 0.000000e+00 0.000000e+00 8.426741e-01 1.573258e-01 0.000000e+00 0.000000e+00 0.000000e+00 0.000000e+00
 0.000000e+00 0.000000e+00 0.000000e+00 0.000000e+00 0.000000e+00 8.426742e-01 1.573258e-01 0.000000e+00 0.000000e+00 0.000000e+00
 0.000000e+00 0.000000e+00 0.000000e+00 0.000000e+00 0.000000e+00 0.000000e+00 8.426742e-01 1.573258e-01 0.000000e+00 0.000000e+00
 0.000000e+00 0.000000e+00 0.000000e+00 0.000000e+00 0.000000e+00 0.000000e+00 0.000000e+00 8.426745e-01 1.573255e-01 0.000000e+00
 0.000000e+00 0.000000e+00 0.000000e+00 0.000000e+00 0.000000e+00 0.000000e+00 0.000000e+00 0.000000e+00 9.765783e-01 2.342172e-02
 0.000000e+00 0.000000e+00 0.000000e+00 0.000000e+00 0.000000e+00 0.000000e+00 0.000000e+00 0.000000e+00 0.000000e+00 0.000000e+00
<ENDHMM>
~h "nula"
<BEGINHMM>
<NUMSTATES> 10
<STATE> 2
<MEAN> 32
 5.928784e+00 6.378841e+00 6.789710e+00 7.095907e+00 7.129253e+00 7.301905e+00 7.436443e+00 7.468529e+00 7.621557e+00 7.638432e+00 7.839316e+00 8.018828e+00 8.227114e+00 8.205681e+00 8.141948e+00 8.235312e+00 8.139181e-03 1.475665e-02 1.918227e-02 2.316113e-02 2.223280e-02 2.150909e-02 2.038734e-02 1.651191e-02 1.220278e-02 1.402761e-02 1.498080e-02 1.498070e-02 1.576612e-02 1.149174e-02 5.209303e-03 2.769384e-03
<VARIANCE> 32
 6.889530e-01 1.533353e+00 2.471818e+00 2.915588e+00 2.513751e+00 2.411127e+00 2.381910e+00 1.697930e+00 9.960883e-01 1.184243e+00 1.515858e+00 1.553225e+00 1.579831e+00 1.027799e+00 5.537150e-01 3.381461e-01 1.699153e-02 2.636483e-02 2.923269e-02 2.801477e-02 2.187225e-02 2.038638e-02 2.324894e-02 2.026239e-02 1.293596e-02 1.530638e-02 1.670128e-02 1.779236e-02 2.086833e-02 1.647016e-02 8.291901e-03 5.714846e-03
<GCONST> -9.035363e-01
<STATE> 3
<MEAN> 32
 5.983871e+00 6.480620e+00 6.923944e+00 7.257876e+00 7.284665e+00 7.451573e+00 7.579507e+00 7.585396e+00 7.707306e+00 7.736483e+00 7.944066e+00 8.123988e+00 8.337429e+00 8.285753e+00 8.178412e+00 8.254783e+00 8.026354e-03 1.492011e-02 1.974864e-02 2.403405e-02 2.326519e-02 2.240179e-02 2.142042e-02 1.748956e-02 1.271997e-02 1.458141e-02 1.559010e-02 1.564718e-02 1.645626e-02 1.189377e-02 5.388849e-03 2.856956e-03
<VARIANCE> 32
 7.371742e-01 1.658484e+00 2.696770e+00 3.191658e+00 2.799391e+00 2.690283e+00 2.666060e+00 1.894665e+00 1.097670e+00 1.315176e+00 1.699669e+00 1.740892e+00 1.779490e+00 1.145746e+00 6.080573e-01 3.592892e-01 1.766447e-02 2.801077e-02 3.145605e-02 3.041515e-02 2.399682e-02 2.261957e-02 2.597443e-02 2.240972e-02 1.427990e-02 1.709495e-02 1.869660e-02 1.991796e-02 2.348024e-02 1.857013e-02 9.232667e-03 6.272391e-03
<GCONST> 2.208734e+00
<STATE> 4
<MEAN> 32
 6.036727e+00 6.581230e+00 7.058381e+00 7.422488e+00 7.444675e+00 7.605697e+00 7.727530e+00 7.705907e+00 7.794376e+00 7.836646e+00 8.051098e+00 8.231695e+00 8.450349e+00 8.366907e+00 8.215144e+00 8.274242e+00 7.557447e-03 1.450465e-02 1.944863e-02 2.400934e-02 2.352090e-02 2.265278e-02 2.175604e-02 1.769333e-02 1.267728e-02 1.462548e-02 1.564047e-02 1.573003e-02 1.652749e-02 1.182741e-02 5.323824e-03 2.800277e-03
<VARIANCE> 32
 7.781746e-01 1.756452e+00 2.877217e+00 3.410478e+00 3.041641e+00 2.929558e+00 2.912918e+00 2.066464e+00 1.184122e+00 1.428460e+00 1.864273e+00 1.908784e+00 1.959665e+00 1.252421e+00 6.591033e-01 3.782908e-01 1.825872e-02 2.946017e-02 3.347121e-02 3.265234e-02 2.614200e-02 2.485620e-02 2.868058e-02 2.452418e-02 1.561683e-02 1.883303e-02 2.063287e-02 2.197072e-02 2.595474e-02 2.057732e-02 1.014165e-02 6.815398e-03
<GCONST> 4.803961e+00
<STATE> 5
<MEAN> 32
 6.084365e+00 6.675200e+00 7.185517e+00 7.581833e+00 7.602519e+00 7.758167e+00 7.874282e+00 7.824271e+00 7.878287e+00 7.934329e+00 8.155673e+00 8.337066e+00 8.561118e+00 8.445391e+00 8.250189e+00 8.292482e+00 6.662739e-03 1.329745e-02 1.807094e-02 2.284785e-02 2.280650e-02 2.202822e-02 2.119857e-02 1.707011e-02 1.199911e-02 1.401742e-02 1.502194e-02 1.512396e-02 1.593368e-02 1.123573e-02 4.984424e-03 2.571938e-03
<VARIANCE> 32
 8.089668e-01 1.821113e+00 3.005412e+00 3.561776e+00 3.229913e+00 3.117971e+00 3.110994e+00 2.206017e+00 1.251734e+00 1.519958e+00 2.003738e+00 2.050821e+00 2.115088e+00 1.344465e+00 7.044346e-01 3.943486e-01 1.870007e-02 3.054007e-02 3.510784e-02 3.454094e-02 2.818727e-02 2.696980e-02 3.120513e-02 2.644802e-02 1.684395e-02 2.042758e-02 2.238466e-02 2.382337e-02 2.815512e-02 2.240265e-02 1.097092e-02 7.306065e-03
<GCONST> 6.850841e+00
<STATE> 6
<MEAN> 32
 6.123345e+00 6.755659e+00 7.296474e+00 7.726132e+00 7.749754e+00 7.901115e+00 8.012011e+00 7.934005e+00 7.953997e+00 8.024030e+00 8.252189e+00 8.434433e+00 8.664309e+00 8.517056e+00 8.281438e+00 8.308161e+00 5.271209e-03 1.108892e-02 1.540246e-02 2.026719e-02 2.087287e-02 2.027042e-02 1.952417e-02 1.551888e-02 1.060239e-02 1.262311e-02 1.360504e-02 1.371485e-02 1.457505e-02 1.006275e-02 4.348787e-03 2.153601e-03
<VARIANCE> 32
 8.275955e-01 1.850488e+00 3.079530e+00 3.644181e+00 3.360733e+00 3.250973e+00 3.255138e+00 2.310611e+00 1.299340e+00 1.588589e+00 2.115171e+00 2.163824e+00 2.243416e+00 1.420202e+00 7.413837e-01 4.063214e-01 1.892819e-02 3.107725e-02 3.617234e-02 3.589927e-02 2.997484e-02 2.880918e-02 3.337353e-02 2.804533e-02 1.785966e-02 2.177363e-02 2.382918e-02 2.535227e-02 2.996774e-02 2.396575e-02 1.167386e-02 7.697340e-03
<GCONST> 8.336395e+00
<STATE> 7
<MEAN> 32
 6.150025e+00 6.815044e+00 7.381586e+00 7.844131e+00 7.876370e+00 8.025009e+00 8.131534e+00 8.027857e+00 8.016010e+00 8.099471e+00 8.334199e+00 8.517333e+00 8.753548e+00 8.577307e+00 8.306651e+00 8.319935e+00 3.358739e-03 7.787556e-03 1.133528e-02 1.605746e-02 1.749720e-02 1.713922e-02 1.652796e-02 1.293031e-02 8.420248e-03 1.032863e-02 1.126487e-02 1.138025e-02 1.230533e-02 8.238256e-03 3.396897e-03 1.545926e-03
<VARIANCE> 32
 8.335733e-01 1.847795e+00 3.104249e+00 3.666913e+00 3.439314e+00 3.332139e+00 3.347667e+00 2.382461e+00 1.328539e+00 1.636528e+00 2.198772e+00 2.247337e+00 2.344816e+00 1.479312e+00 7.674638e-01 4.130648e-01 1.890727e-02 3.094325e-02 3.648170e-02 3.656783e-02 3.132884e-02 3.020362e-02 3.499354e-02 2.919227e-02 1.857188e-02 2.275429e-02 2.484858e-02 2.643449e-02 3.128115e-02 2.517751e-02 1.220184e-02 7.942006e-03
<GCONST> 9.262465e+00
<STATE> 8
<MEAN> 32
 6.161160e+00 6.846407e+00 7.431661e+00 7.924459e+00 7.971760e+00 8.119525e+00 8.222939e+00 8.098245e+00 8.058822e+00 8.154080e+00 8.394802e+00 8.578781e+00 8.821682e+00 8.621255e+00 8.323604e+00 8.326623e+00 9.916310e-04 3.497302e-03 5.947670e-03 1.021228e-02 1.259795e-02 1.252140e-02 1.210304e-02 9.256129e-03 5.451007e-03 7.087800e-03 7.926427e-03 8.034414e-03 8.997061e-03 5.707216e-03 2.126350e-03 7.711175e-04
<VARIANCE> 32
 8.276623e-01 1.820150e+00 3.088983e+00 3.647530e+00 3.478422e+00 3.372501e+00 3.397549e+00 2.427691e+00 1.343014e+00 1.668396e+00 2.256996e+00 2.303108e+00 2.421062e+00 1.522222e+00 7.807701e-01 4.137704e-01 1.862940e-02 3.009342e-02 3.591108e-02 3.642974e-02 3.208353e-02 3.098199e-02 3.587433e-02 2.977554e-02 1.890743e-02 2.325373e-02 2.533806e-02 2.695041e-02 3.197255e-02 2.593047e-02 1.250449e-02 8.004279e-03
<GCONST> 9.641019e+00
<STATE> 9
<MEAN> 32
 6.018235e+00 6.615105e+00 7.159904e+00 7.700816e+00 7.863779e+00 8.023641e+00 8.131523e+00 8.012885e+00 7.947176e+00 8.048489e+00 8.293548e+00 8.475710e+00 8.738997e+00 8.538202e+00 8.270339e+00 8.286284e+00 -8.720255e-03 -1.504293e-02 -1.914074e-02 -2.075953e-02 -1.755593e-02 -1.696522e-02 -1.648571e-02 -1.351740e-02 -1.105036e-02 -1.222708e-02 -1.278843e-02 -1.306667e-02 -1.310034e-02 -9.932235e-03 -4.919004e-03 -2.913114e-03
<VARIANCE> 32
 6.936804e-01 1.533345e+00 2.670339e+00 3.320584e+00 3.381943e+00 3.258980e+00 3.267789e+00 2.383807e+00 1.277186e+00 1.653468e+00 2.201161e+00 2.216342e+00 2.405937e+00 1.481729e+00 6.831751e-01 3.510395e-01 1.590425e-02 2.235045e-02 2.650745e-02 2.869606e-02 2.772754e-02 2.623820e-02 3.005665e-02 2.525357e-02 1.614185e-02 1.928923e-02 2.109426e-02 2.207001e-02 2.647641e-02 2.213544e-02 1.072088e-02 6.425806e-03
<GCONST> 5.379825e+00
<TRANSP> 10
 0.000000e+00 1.000000e+00 0.000000e+00 0.000000e+00 0.000000e+00 0.000000e+00 0.000000e+00 0.000000e+00 0.000000e+00 0.000000e+00
 0.000000e+00 8.426741e-01 1.573259e-01 0.000000e+00 0.000000e+00 0.000000e+00 0.000000e+00 0.000000e+00 0.000000e+00 0.000000e+00
 0.000000e+00 0.000000e+00 8.426743e-01 1.573257e-01 0.000000e+00 0.000000e+00 0.000000e+00 0.000000e+00 0.000000e+00 0.000000e+00
 0.000000e+00 0.000000e+00 0.000000e+00 8.426740e-01 1.573260e-01 0.000000e+00 0.000000e+00 0.000000e+00 0.000000e+00 0.000000e+00
 0.000000e+00 0.000000e+00 0.000000e+00 0.000000e+00 8.426741e-01 1.573258e-01 0.000000e+00 0.000000e+00 0.000000e+00 0.000000e+00
 0.000000e+00 0.000000e+00 0.000000e+00 0.000000e+00 0.000000e+00 8.426742e-01 1.573258e-01 0.000000e+00 0.000000e+00 0.000000e+00
 0.000000e+00 0.000000e+00 0.000000e+00 0.000000e+00 0.000000e+00 0.000000e+00 8.426742e-01 1.573258e-01 0.000000e+00 0.000000e+00
 0.000000e+00 0.000000e+00 0.000000e+00 0.000000e+00 0.000000e+00 0.000000e+00 0.000000e+00 8.426745e-01 1.573255e-01 0.000000e+00
 0.000000e+00 0.000000e+00 0.000000e+00 0.000000e+00 0.000000e+00 0.000000e+00 0.000000e+00 0.000000e+00 9.765783e-01 2.342172e-02
 0.000000e+00 0.000000e+00 0.000000e+00 0.000000e+00 0.000000e+00 0.000000e+00 0.000000e+00 0.000000e+00 0.000000e+00 0.000000e+00
<ENDHMM>
~h "devet"
<BEGINHMM>
<NUMSTATES> 10
<STATE> 2
<MEAN> 32
 5.948226e+00 6.366588e+00 6.864811e+00 7.111607e+00 7.013880e+00 7.008457e+00 7.194706e+00 7.555721e+00 7.988308e+00 7.959192e+00 8.074202e+00 8.214568e+00 8.447129e+00 8.422422e+00 8.235856e+00 8.295485e+00 7.291292e-03 1.338545e-02 2.025737e-02 2.212430e-02 1.745475e-02 1.210646e-02 1.282245e-02 1.735693e-02 1.997095e-02 2.096723e-02 2.027874e-02 1.967388e-02 2.026327e-02 1.602644e-02 6.582156e-03 3.341011e-03
<VARIANCE> 32
 6.106617e-01 1.281359e+00 2.520675e+00 2.722128e+00 1.874127e+00 1.077158e+00 1.122178e+00 1.721595e+00 2.282471e+00 2.542288e+00 2.558648e+00 2.346966e+00 2.353014e+00 1.744502e+00 6.652910e-01 3.317708e-01 1.619764e-02 2.268284e-02 3.734212e-02 3.949015e-02 3.156038e-02 2.027065e-02 2.046053e-02 2.824992e-02 3.704713e-02 3.790015e-02 3.698790e-02 3.622911e-02 3.585792e-02 2.870390e-02 1.208920e-02 6.098993e-03
<GCONST> 6.489818e+00
<STATE> 3
<MEAN> 32
 5.995322e+00 6.455436e+00 7.002892e+00 7.262968e+00 7.133516e+00 7.091588e+00 7.282664e+00 7.674130e+00 8.125645e+00 8.103467e+00 8.213951e+00 8.350395e+00 8.587222e+00 8.532473e+00 8.280141e+00 8.317436e+00 6.856280e-03 1.307257e-02 2.053339e-02 2.269570e-02 1.806935e-02 1.251308e-02 1.320627e-02 1.782365e-02 2.067814e-02 2.170327e-02 2.114331e-02 2.059137e-02 2.121934e-02 1.659974e-02 6.615410e-03 3.255812e-03
<VARIANCE> 32
 6.422688e-01 1.359058e+00 2.707123e+00 2.950025e+00 2.071117e+00 1.176364e+00 1.220152e+00 1.875790e+00 2.503729e+00 2.796582e+00 2.828366e+00 2.606495e+00 2.604895e+00 1.913872e+00 7.108174e-01 3.459916e-01 1.618735e-02 2.347590e-02 4.040620e-02 4.325727e-02 3.492501e-02 2.208600e-02 2.232416e-02 3.137784e-02 4.111014e-02 4.213137e-02 4.111087e-02 4.035356e-02 4.008430e-02 3.196426e-02 1.305198e-02 6.366275e-03
<GCONST> 9.148799e+00
<STATE> 4
<MEAN> 32
 6.037802e+00 6.539057e+00 7.138247e+00 7.413688e+00 7.254256e+00 7.174782e+00 7.370425e+00 7.792967e+00 8.264090e+00 8.249051e+00 8.355726e+00 8.489322e+00 8.730498e+00 8.643462e+00 8.322576e+00 8.337653e+00 6.052200e-03 1.205788e-02 1.973841e-02 2.216450e-02 1.788476e-02 1.228068e-02 1.291948e-02 1.755525e-02 2.044909e-02 2.147928e-02 2.103256e-02 2.065060e-02 2.129224e-02 1.642857e-02 6.212814e-03 2.935398e-03
<VARIANCE> 32
 6.639885e-01 1.408955e+00 2.835922e+00 3.121119e+00 2.236681e+00 1.256436e+00 1.297140e+00 1.995063e+00 2.679301e+00 3.001379e+00 3.050577e+00 2.824885e+00 2.812809e+00 2.050007e+00 7.422739e-01 3.534692e-01 1.600510e-02 2.392170e-02 4.290630e-02 4.657229e-02 3.808156e-02 2.370128e-02 2.398148e-02 3.428589e-02 4.478914e-02 4.591860e-02 4.481165e-02 4.408827e-02 4.398547e-02 3.494881e-02 1.380726e-02 6.503814e-03
<GCONST> 1.115630e+01
<STATE> 5
<MEAN> 32
 6.072599e+00 6.612315e+00 7.262515e+00 7.555428e+00 7.369975e+00 7.253401e+00 7.453013e+00 7.906288e+00 8.396314e+00 8.388196e+00 8.492073e+00 8.624660e+00 8.870081e+00 8.749570e+00 8.360342e+00 8.354821e+00 4.800026e-03 1.030168e-02 1.772026e-02 2.040611e-02 1.678993e-02 1.136445e-02 1.190263e-02 1.640097e-02 1.913568e-02 2.011116e-02 1.981347e-02 1.971438e-02 2.034044e-02 1.539266e-02 5.399995e-03 2.427349e-03
<VARIANCE> 32
 6.734514e-01 1.427626e+00 2.900418e+00 3.226759e+00 2.361891e+00 1.312385e+00 1.348539e+00 2.071504e+00 2.799978e+00 3.146066e+00 3.213342e+00 2.990762e+00 2.965770e+00 2.145188e+00 7.568343e-01 3.536353e-01 1.564936e-02 2.394405e-02 4.463041e-02 4.916649e-02 4.080068e-02 2.499477e-02 2.530175e-02 3.678012e-02 4.783862e-02 4.899069e-02 4.784226e-02 4.722126e-02 4.734230e-02 3.749495e-02 1.434436e-02 6.539180e-03
<GCONST> 1.250244e+01
<STATE> 6
<MEAN> 32
 6.096671e+00 6.670117e+00 7.367300e+00 7.679564e+00 7.474117e+00 7.322727e+00 7.525428e+00 8.007517e+00 8.514626e+00 8.512705e+00 8.615395e+00 8.749278e+00 8.998511e+00 8.844816e+00 8.391174e+00 8.368102e+00 3.118642e-03 7.821934e-03 1.450187e-02 1.740545e-02 1.474518e-02 9.768878e-03 1.016928e-02 1.428888e-02 1.671161e-02 1.756327e-02 1.749828e-02 1.774783e-02 1.830628e-02 1.349455e-02 4.268866e-03 1.806309e-03
<VARIANCE> 32
 6.700454e-01 1.416552e+00 2.904463e+00 3.268855e+00 2.444292e+00 1.342871e+00 1.373579e+00 2.104177e+00 2.865707e+00 3.230064e+00 3.314399e+00 3.101455e+00 3.061955e+00 2.198303e+00 7.541890e-01 3.472187e-01 1.515662e-02 2.353928e-02 4.547477e-02 5.085446e-02 4.288834e-02 2.589210e-02 2.620735e-02 3.871392e-02 5.007819e-02 5.114302e-02 5.002856e-02 4.959158e-02 4.997646e-02 3.948542e-02 1.468812e-02 6.519723e-03
<GCONST> 1.323069e+01
<STATE> 7
<MEAN> 32
 6.107798e+00 6.708046e+00 7.445116e+00 7.777939e+00 7.560287e+00 7.378378e+00 7.583065e+00 8.090100e+00 8.611603e+00 8.614699e+00 8.718552e+00 8.856132e+00 9.108309e+00 8.923549e+00 8.413445e+00 8.377006e+00 1.143378e-03 4.737208e-03 1.024593e-02 1.326541e-02 1.180467e-02 7.561782e-03 7.798729e-03 1.125233e-02 1.324444e-02 1.391105e-02 1.418576e-02 1.479337e-02 1.521499e-02 1.080419e-02 2.922319e-03 1.126044e-03
<VARIANCE> 32
 6.547329e-01 1.381578e+00 2.861164e+00 3.259310e+00 2.487944e+00 1.350361e+00 1.375446e+00 2.099486e+00 2.885335e+00 3.262483e+00 3.360882e+00 3.162583e+00 3.108303e+00 2.214421e+00 7.362161e-01 3.357057e-01 1.458153e-02 2.276263e-02 4.542904e-02 5.152939e-02 4.419974e-02 2.636015e-02 2.666548e-02 3.998253e-02 5.137969e-02 5.223201e-02 5.125002e-02 5.105916e-02 5.172819e-02 4.082919e-02 1.486458e-02 6.480320e-03
<GCONST> 1.341313e+01
<STATE> 8
<MEAN> 32
 6.105091e+00 6.723036e+00 7.490189e+00 7.843677e+00 7.622896e+00 7.416761e+00 7.622146e+00 8.148258e+00 8.680727e+00 8.687303e+00 8.795297e+00 8.938684e+00 9.192496e+00 8.980789e+00 8.426137e+00 8.381230e+00 -9.239798e-04 1.252219e-03 5.218213e-03 8.192065e-03 8.103573e-03 4.868594e-03 4.919988e-03 7.425285e-03 8.885461e-03 9.320103e-03 1.002595e-02 1.094268e-02 1.115901e-02 7.432439e-03 1.454975e-03 4.153160e-04
<VARIANCE> 32
 6.294872e-01 1.330628e+00 2.788246e+00 3.215757e+00 2.501130e+00 1.339807e+00 1.359866e+00 2.068796e+00 2.873093e+00 3.258253e+00 3.365703e+00 3.184913e+00 3.117278e+00 2.202525e+00 7.061876e-01 3.207559e-01 1.398257e-02 2.170639e-02 4.455033e-02 5.115144e-02 4.464380e-02 2.639230e-02 2.667413e-02 4.051150e-02 5.164239e-02 5.216123e-02 5.141276e-02 5.148771e-02 5.245111e-02 4.144886e-02 1.488481e-02 6.430905e-03
<GCONST> 1.312775e+01
<STATE> 9
<MEAN> 32
 5.978594e+00 6.548772e+00 7.303047e+00 7.719662e+00 7.583073e+00 7.367795e+00 7.558900e+00 8.082033e+00 8.609359e+00 8.608280e+00 8.768721e+00 8.939921e+00 9.182901e+00 8.939530e+00 8.380884e+00 8.351386e+00 -6.657339e-03 -1.176805e-02 -1.667638e-02 -1.641318e-02 -1.150232e-02 -8.336726e-03 -9.146307e-03 -1.209446e-02 -1.388140e-02 -1.487997e-02 -1.297398e-02 -1.221748e-02 -1.261983e-02 -1.047638e-02 -4.547421e-03 -2.387753e-03
<VARIANCE> 32
 4.784376e-01 1.068532e+00 2.402729e+00 2.918712e+00 2.373581e+00 1.202209e+00 1.216529e+00 1.859202e+00 2.682776e+00 3.046657e+00 3.140312e+00 3.016717e+00 2.937822e+00 2.008028e+00 5.343953e-01 2.522787e-01 1.229773e-02 1.710357e-02 3.537475e-02 4.059804e-02 3.813669e-02 2.278326e-02 2.301668e-02 3.532745e-02 4.176539e-02 4.050278e-02 4.118139e-02 4.167493e-02 4.436395e-02 3.678814e-02 1.373182e-02 6.099019e-03
<GCONST> 8.343149e+00
<TRANSP> 10
 0.000000e+00 1.000000e+00 0.000000e+00 0.000000e+00 0.000000e+00 0.000000e+00 0.000000e+00 0.000000e+00 0.000000e+00 0.000000e+00
 0.000000e+00 8.426741e-01 1.573259e-01 0.000000e+00 0.000000e+00 0.000000e+00 0.000000e+00 0.000000e+00 0.000000e+00 0.000000e+00
 0.000000e+00 0.000000e+00 8.426743e-01 1.573257e-01 0.000000e+00 0.000000e+00 0.000000e+00 0.000000e+00 0.000000e+00 0.000000e+00
 0.000000e+00 0.000000e+00 0.000000e+00 8.426740e-01 1.573260e-01 0.000000e+00 0.000000e+00 0.000000e+00 0.000000e+00 0.000000e+00
 0.000000e+00 0.000000e+00 0.000000e+00 0.000000e+00 8.426741e-01 1.573258e-01 0.000000e+00 0.000000e+00 0.000000e+00 0.000000e+00
 0.000000e+00 0.000000e+00 0.000000e+00 0.000000e+00 0.000000e+00 8.426742e-01 1.573258e-01 0.000000e+00 0.000000e+00 0.000000e+00
 0.000000e+00 0.000000e+00 0.000000e+00 0.000000e+00 0.000000e+00 0.000000e+00 8.426742e-01 1.573258e-01 0.000000e+00 0.000000e+00
 0.000000e+00 0.000000e+00 0.000000e+00 0.000000e+00 0.000000e+00 0.000000e+00 0.000000e+00 8.426745e-01 1.573255e-01 0.000000e+00
 0.000000e+00 0.000000e+00 0.000000e+00 0.000000e+00 0.000000e+00 0.000000e+00 0.000000e+00 0.000000e+00 9.765783e-01 2.342172e-02
 0.000000e+00 0.000000e+00 0.000000e+00 0.000000e+00 0.000000e+00 0.000000e+00 0.000000e+00 0.000000e+00 0.000000e+00 0.000000e+00
<ENDHMM>
~h "jedna"
<BEGINHMM>
<NUMSTATES> 10
<STATE> 2
<MEAN> 32
 6.010531e+00 6.480226e+00 6.931616e+00 7.127141e+00 7.110161e+00 7.142752e+00 7.304804e+00 7.576597e+00 7.924990e+00 7.968561e+00 8.058053e+00 8.243473e+00 8.499545e+00 8.395062e+00 8.180242e+00 8.225355e+00 7.998005e-03 1.505518e-02 1.926842e-02 2.085172e-02 1.858952e-02 1.487302e-02 1.552355e-02 1.746205e-02 1.626546e-02 1.790023e-02 1.784808e-02 1.790243e-02 1.868636e-02 1.336595e-02 4.693744e-03 2.168875e-03
<VARIANCE> 32
 6.475300e-01 1.406440e+00 2.367177e+00 2.530226e+00 1.962264e+00 1.398977e+00 1.522137e+00 1.791492e+00 1.735011e+00 2.037586e+00 2.032252e+00 2.065899e+00 2.083201e+00 1.323711e+00 4.911925e-01 2.114746e-01 1.586597e-02 2.523589e-02 4.229576e-02 4.110882e-02 3.352578e-02 2.609476e-02 2.740291e-02 3.388844e-02 3.541601e-02 3.912963e-02 3.654637e-02 4.062984e-02 4.310047e-02 2.968835e-02 1.263961e-02 5.668037e-03
<GCONST> 6.468952e+00
<STATE> 3
<MEAN> 32
 6.063600e+00 6.580382e+00 7.058919e+00 7.267480e+00 7.236693e+00 7.245530e+00 7.411850e+00 7.695574e+00 8.033738e+00 8.087527e+00 8.177610e+00 8.364697e+00 8.625051e+00 8.484012e+00 8.210410e+00 8.239259e+00 7.742309e-03 1.471083e-02 1.866560e-02 2.075783e-02 1.894513e-02 1.559338e-02 1.624086e-02 1.793739e-02 1.610741e-02 1.753907e-02 1.778499e-02 1.804590e-02 1.867677e-02 1.318343e-02 4.378895e-03 2.020199e-03
<VARIANCE> 32
 6.803820e-01 1.486274e+00 2.505729e+00 2.699021e+00 2.138785e+00 1.565417e+00 1.705346e+00 1.994174e+00 1.882609e+00 2.182807e+00 2.204696e+00 2.247598e+00 2.262033e+00 1.432229e+00 5.241081e-01 2.227276e-01 1.591619e-02 2.651248e-02 4.521359e-02 4.455335e-02 3.690071e-02 2.896391e-02 3.062284e-02 3.759844e-02 3.899617e-02 4.291427e-02 4.034625e-02 4.505486e-02 4.733010e-02 3.279987e-02 1.364241e-02 6.105530e-03
<GCONST> 9.058371e+00
<STATE> 4
<MEAN> 32
 6.111940e+00 6.673761e+00 7.176953e+00 7.401587e+00 7.361475e+00 7.350528e+00 7.521017e+00 7.814306e+00 8.137745e+00 8.199685e+00 8.292830e+00 8.482864e+00 8.745879e+00 8.568347e+00 8.236131e+00 8.250944e+00 6.889504e-03 1.342601e-02 1.692849e-02 1.942544e-02 1.830657e-02 1.559342e-02 1.621807e-02 1.752557e-02 1.508097e-02 1.618668e-02 1.679352e-02 1.723401e-02 1.759839e-02 1.222800e-02 3.622997e-03 1.645264e-03
<VARIANCE> 32
 7.049094e-01 1.538250e+00 2.593455e+00 2.814238e+00 2.280360e+00 1.714429e+00 1.870982e+00 2.174648e+00 2.000102e+00 2.287412e+00 2.340302e+00 2.391468e+00 2.404394e+00 1.517739e+00 5.475792e-01 2.308663e-01 1.589156e-02 2.742924e-02 4.736894e-02 4.741096e-02 3.996680e-02 3.168566e-02 3.374581e-02 4.106361e-02 4.212156e-02 4.609464e-02 4.367581e-02 4.902124e-02 5.099803e-02 3.553944e-02 1.441107e-02 6.467211e-03
<GCONST> 1.104212e+01
<STATE> 5
<MEAN> 32
 6.151618e+00 6.753974e+00 7.277896e+00 7.520798e+00 7.477149e+00 7.452032e+00 7.626414e+00 7.926496e+00 8.231021e+00 8.298232e+00 8.397130e+00 8.591092e+00 8.855317e+00 8.643023e+00 8.255232e+00 8.259319e+00 5.473644e-03 1.122273e-02 1.407006e-02 1.683910e-02 1.658535e-02 1.473650e-02 1.530937e-02 1.618828e-02 1.319532e-02 1.385765e-02 1.484659e-02 1.542085e-02 1.555682e-02 1.054607e-02 2.566910e-03 1.118915e-03
<VARIANCE> 32
 7.203146e-01 1.562047e+00 2.629234e+00 2.873088e+00 2.380900e+00 1.838450e+00 2.010615e+00 2.325872e+00 2.083932e+00 2.348795e+00 2.433526e+00 2.492607e+00 2.507370e+00 1.576770e+00 5.594205e-01 2.349274e-01 1.576906e-02 2.785328e-02 4.854977e-02 4.939803e-02 4.247523e-02 3.405850e-02 3.654596e-02 4.404750e-02 4.454098e-02 4.839927e-02 4.627825e-02 5.226243e-02 5.387316e-02 3.770703e-02 1.486431e-02 6.714647e-03
<GCONST> 1.239795e+01
<STATE> 6
<MEAN> 32
 6.179476e+00 6.815295e+00 7.354796e+00 7.617067e+00 7.576295e+00 7.543848e+00 7.721633e+00 8.025875e+00 8.308020e+00 8.376989e+00 8.484350e+00 8.682743e+00 8.947372e+00 8.703536e+00 8.266673e+00 8.263900e+00 3.620040e-03 8.213322e-03 1.023767e-02 1.311524e-02 1.380585e-02 1.298482e-02 1.347513e-02 1.396155e-02 1.053563e-02 1.066516e-02 1.203096e-02 1.266791e-02 1.267976e-02 8.237178e-03 1.382699e-03 5.339448e-04
<VARIANCE> 32
 7.260139e-01 1.560905e+00 2.619576e+00 2.880829e+00 2.440625e+00 1.933984e+00 2.119415e+00 2.444914e+00 2.134895e+00 2.370442e+00 2.484781e+00 2.552149e+00 2.573519e+00 1.609904e+00 5.590392e-01 2.343323e-01 1.554564e-02 2.774126e-02 4.866593e-02 5.033332e-02 4.423545e-02 3.591380e-02 3.881676e-02 4.635984e-02 4.608212e-02 4.964798e-02 4.794519e-02 5.454467e-02 5.576350e-02 3.915264e-02 1.498028e-02 6.826932e-03
<GCONST> 1.314559e+01
<STATE> 7
<MEAN> 32
 6.193285e+00 6.853113e+00 7.402052e+00 7.683499e+00 7.652198e+00 7.619953e+00 7.800422e+00 8.106504e+00 8.363796e+00 8.430651e+00 8.549018e+00 8.751694e+00 9.016587e+00 8.746071e+00 8.270207e+00 8.264691e+00 1.468284e-03 4.573413e-03 5.650185e-03 8.445811e-03 1.009975e-02 1.039793e-02 1.077066e-02 1.091794e-02 7.200768e-03 6.750682e-03 8.468311e-03 9.070669e-03 9.061527e-03 5.416116e-03 1.838729e-04 -3.788003e-05
<VARIANCE> 32
 7.216472e-01 1.540341e+00 2.575554e+00 2.848765e+00 2.465561e+00 2.002083e+00 2.197122e+00 2.533105e+00 2.156920e+00 2.360013e+00 2.499514e+00 2.575945e+00 2.609435e+00 1.620917e+00 5.472354e-01 2.290403e-01 1.523009e-02 2.712461e-02 4.772462e-02 5.013969e-02 4.512790e-02 3.712953e-02 4.039778e-02 4.785688e-02 4.663996e-02 4.973528e-02 4.851785e-02 5.565870e-02 5.648506e-02 3.976599e-02 1.477809e-02 6.800378e-03
<GCONST> 1.332732e+01
<STATE> 8
<MEAN> 32
 6.191842e+00 6.864359e+00 7.415801e+00 7.714887e+00 7.699542e+00 7.675174e+00 7.857397e+00 8.163208e+00 8.394230e+00 8.455014e+00 8.586596e+00 8.792692e+00 9.058141e+00 8.767657e+00 8.265956e+00 8.261977e+00 -8.288512e-04 5.380019e-04 5.685173e-04 3.094050e-03 5.690118e-03 7.116951e-03 7.343633e-03 7.182350e-03 3.316596e-03 2.280193e-03 4.300009e-03 4.765712e-03 4.799744e-03 2.211320e-03 -9.799397e-04 -5.580764e-04
<VARIANCE> 32
 7.073333e-01 1.506272e+00 2.508725e+00 2.790354e+00 2.465023e+00 2.047358e+00 2.247592e+00 2.594992e+00 2.155267e+00 2.326241e+00 2.485849e+00 2.571896e+00 2.623053e+00 1.614720e+00 5.255677e-01 2.195932e-01 1.484067e-02 2.608440e-02 4.580245e-02 4.883333e-02 4.509868e-02 3.763497e-02 4.118667e-02 4.843638e-02 4.616344e-02 4.862033e-02 4.789839e-02 5.543876e-02 5.588059e-02 3.947323e-02 1.429084e-02 6.644365e-03
<GCONST> 1.299061e+01
<STATE> 9
<MEAN> 32
 6.048428e+00 6.647581e+00 7.133322e+00 7.470476e+00 7.574610e+00 7.652028e+00 7.832319e+00 8.108048e+00 8.230289e+00 8.235334e+00 8.431764e+00 8.633661e+00 8.903906e+00 8.631423e+00 8.182070e+00 8.224998e+00 -7.855693e-03 -1.379404e-02 -1.811423e-02 -1.828953e-02 -1.411960e-02 -9.977302e-03 -1.025354e-02 -1.214210e-02 -1.389692e-02 -1.597169e-02 -1.427229e-02 -1.478812e-02 -1.523729e-02 -1.131230e-02 -4.525533e-03 -1.983345e-03
<VARIANCE> 32
 5.681304e-01 1.272507e+00 2.089875e+00 2.406971e+00 2.331063e+00 2.104669e+00 2.288264e+00 2.659033e+00 1.949169e+00 2.013604e+00 2.241528e+00 2.337289e+00 2.489046e+00 1.458680e+00 3.763598e-01 1.648946e-01 1.336462e-02 2.027870e-02 3.205765e-02 3.595968e-02 3.676084e-02 3.278868e-02 3.653106e-02 4.106342e-02 3.473153e-02 3.412533e-02 3.479971e-02 4.144096e-02 4.058176e-02 2.975011e-02 1.017996e-02 5.151058e-03
<GCONST> 6.975791e+00
<TRANSP> 10
 0.000000e+00 1.000000e+00 0.000000e+00 0.000000e+00 0.000000e+00 0.000000e+00 0.000000e+00 0.000000e+00 0.000000e+00 0.000000e+00
 0.000000e+00 8.426741e-01 1.573259e-01 0.000000e+00 0.000000e+00 0.000000e+00 0.000000e+00 0.000000e+00 0.000000e+00 0.000000e+00
 0.000000e+00 0.000000e+00 8.426743e-01 1.573257e-01 0.000000e+00 0.000000e+00 0.000000e+00 0.000000e+00 0.000000e+00 0.000000e+00
 0.000000e+00 0.000000e+00 0.000000e+00 8.426740e-01 1.573260e-01 0.000000e+00 0.000000e+00 0.000000e+00 0.000000e+00 0.000000e+00
 0.000000e+00 0.000000e+00 0.000000e+00 0.000000e+00 8.426741e-01 1.573258e-01 0.000000e+00 0.000000e+00 0.000000e+00 0.000000e+00
 0.000000e+00 0.000000e+00 0.000000e+00 0.000000e+00 0.000000e+00 8.426742e-01 1.573258e-01 0.000000e+00 0.000000e+00 0.000000e+00
 0.000000e+00 0.000000e+00 0.000000e+00 0.000000e+00 0.000000e+00 0.000000e+00 8.426742e-01 1.573258e-01 0.000000e+00 0.000000e+00
 0.000000e+00 0.000000e+00 0.000000e+00 0.000000e+00 0.000000e+00 0.000000e+00 0.000000e+00 8.426745e-01 1.573255e-01 0.000000e+00
 0.000000e+00 0.000000e+00 0.000000e+00 0.000000e+00 0.000000e+00 0.000000e+00 0.000000e+00 0.000000e+00 9.765783e-01 2.342172e-02
 0.000000e+00 0.000000e+00 0.000000e+00 0.000000e+00 0.000000e+00 0.000000e+00 0.000000e+00 0.000000e+00 0.000000e+00 0.000000e+00
<ENDHMM>
