~o
<STREAMINFO> 1 16
<VECSIZE> 16<NULLD><FBANK><DIAGC>
~h "ctyri"
<BEGINHMM>
<NUMSTATES> 10
<STATE> 2
<MEAN> 16
 5.719482e+00 5.834224e+00 6.035466e+00 6.216371e+00 6.352800e+00 6.536554e+00 6.772478e+00 7.120330e+00 7.740422e+00 8.268446e+00 9.009833e+00 9.781923e+00 1.024104e+01 1.012333e+01 9.561809e+00 9.013937e+00
<VARIANCE> 16
 1.424848e-01 9.711556e-02 1.193766e-01 9.635766e-02 6.774306e-02 7.430786e-02 8.310984e-02 1.975067e-01 5.279597e-01 1.190104e+00 1.402562e+00 1.459236e+00 1.386771e+00 1.474343e+00 1.298292e+00 7.233831e-01
<GCONST> 1.216329e+01
<STATE> 3
<MEAN> 16
 5.556573e+00 6.003126e+00 6.807640e+00 7.240979e+00 6.921816e+00 7.091544e+00 7.372071e+00 7.690499e+00 8.296707e+00 8.769607e+00 9.460906e+00 9.819009e+00 1.028619e+01 1.023567e+01 9.982841e+00 9.967114e+00
<VARIANCE> 16
 2.530138e-01 1.985152e-01 4.208212e-01 7.221754e-01 2.249765e-01 2.002279e-01 2.824272e-01 3.892636e-01 8.814849e-01 1.294775e+00 1.990768e+00 1.905527e+00 1.797281e+00 1.786749e+00 1.942373e+00 2.054762e+00
<GCONST> 2.393212e+01
<STATE> 4
<MEAN> 16
 5.920993e+00 7.037752e+00 7.897219e+00 8.128864e+00 7.472945e+00 7.416033e+00 7.870893e+00 8.491749e+00 9.287051e+00 9.645762e+00 9.926640e+00 1.015494e+01 1.060591e+01 1.052760e+01 9.983922e+00 9.702326e+00
<VARIANCE> 16
 2.005567e-01 7.892033e-01 1.078446e+00 8.242429e-01 3.334866e-01 3.425434e-01 4.466215e-01 5.100795e-01 7.352263e-01 8.794059e-01 1.599738e+00 1.430695e+00 1.715411e+00 2.099553e+00 2.228862e+00 1.922092e+00
<GCONST> 2.692432e+01
<STATE> 5
<MEAN> 16
 6.407736e+00 7.153240e+00 7.799926e+00 8.121237e+00 7.853414e+00 8.211583e+00 8.641059e+00 9.210364e+00 1.018389e+01 1.101156e+01 1.163551e+01 1.190439e+01 1.209663e+01 1.210553e+01 1.199448e+01 1.163679e+01
<VARIANCE> 16
 4.235054e-01 9.992085e-01 1.489876e+00 1.303876e+00 8.317811e-01 8.895775e-01 1.164700e+00 1.378283e+00 1.557557e+00 2.413836e+00 2.952132e+00 2.498568e+00 2.608238e+00 3.074000e+00 4.271172e+00 4.097656e+00
<GCONST> 3.764874e+01
<STATE> 6
<MEAN> 16
 9.382644e+00 1.066530e+01 1.171993e+01 1.125548e+01 1.017845e+01 9.963350e+00 1.038475e+01 1.124707e+01 1.220985e+01 1.254310e+01 1.293564e+01 1.306174e+01 1.317305e+01 1.260314e+01 1.195976e+01 1.151021e+01
<VARIANCE> 16
 1.603914e+00 1.359459e+00 1.341101e+00 9.749446e-01 1.107135e+00 1.129665e+00 1.234317e+00 1.601280e+00 1.000331e+00 1.127174e+00 1.463645e+00 1.674039e+00 1.686052e+00 2.082805e+00 3.014475e+00 2.389771e+00
<GCONST> 3.560564e+01
<STATE> 7
<MEAN> 16
 7.463521e+00 8.694632e+00 1.027253e+01 1.027678e+01 9.030545e+00 8.707179e+00 8.865559e+00 9.299116e+00 1.067909e+01 1.120314e+01 1.131656e+01 1.128606e+01 1.173891e+01 1.131174e+01 1.025830e+01 9.562757e+00
<VARIANCE> 16
 7.752262e-01 6.116532e-01 7.537625e-01 5.528491e-01 4.961999e-01 3.729070e-01 2.867711e-01 1.722845e-01 2.778758e-01 3.576600e-01 3.937248e-01 6.973201e-01 8.158215e-01 9.172944e-01 1.690147e+00 1.547853e+00
<GCONST> 2.016004e+01
<STATE> 8
<MEAN> 16
 6.278079e+00 7.548711e+00 8.903637e+00 9.181625e+00 8.008882e+00 7.756476e+00 7.917530e+00 8.690074e+00 9.826103e+00 1.048785e+01 1.063629e+01 1.087979e+01 1.144332e+01 1.085680e+01 9.326757e+00 8.678257e+00
<VARIANCE> 16
 2.333668e-01 3.562270e-01 9.884127e-01 7.231806e-01 7.266816e-01 4.263549e-01 2.788094e-01 3.851790e-01 4.778441e-01 4.422465e-01 4.101854e-01 4.806338e-01 4.216399e-01 7.140075e-01 1.066118e+00 4.969082e-01
<GCONST> 1.816598e+01
<STATE> 9
<MEAN> 16
 6.601348e+00 7.815228e+00 8.969458e+00 8.418671e+00 7.597780e+00 7.289220e+00 7.507867e+00 8.388455e+00 9.543400e+00 9.640688e+00 8.851061e+00 8.862902e+00 9.204440e+00 8.833762e+00 8.544484e+00 8.586563e+00
<VARIANCE> 16
 2.548021e-01 4.695173e-01 6.479769e-01 2.887240e-01 1.745050e-01 2.074575e-01 1.993294e-01 7.540386e-01 1.165093e+00 4.609773e-01 3.867771e-01 3.447512e-01 4.639820e-01 3.177188e-01 2.222356e-01 1.800722e-01
<GCONST> 1.262343e+01
<TRANSP> 10
 0.000000e+00 1.000000e+00 0.000000e+00 0.000000e+00 0.000000e+00 0.000000e+00 0.000000e+00 0.000000e+00 0.000000e+00 0.000000e+00
 0.000000e+00 9.057315e-01 9.426853e-02 0.000000e+00 0.000000e+00 0.000000e+00 0.000000e+00 0.000000e+00 0.000000e+00 0.000000e+00
 0.000000e+00 0.000000e+00 6.796407e-01 3.203593e-01 0.000000e+00 0.000000e+00 0.000000e+00 0.000000e+00 0.000000e+00 0.000000e+00
 0.000000e+00 0.000000e+00 0.000000e+00 4.027218e-01 5.972782e-01 0.000000e+00 0.000000e+00 0.000000e+00 0.000000e+00 0.000000e+00
 0.000000e+00 0.000000e+00 0.000000e+00 0.000000e+00 7.152449e-01 2.847551e-01 0.000000e+00 0.000000e+00 0.000000e+00 0.000000e+00
 0.000000e+00 0.000000e+00 0.000000e+00 0.000000e+00 0.000000e+00 8.445985e-01 1.554015e-01 0.000000e+00 0.000000e+00 0.000000e+00
 0.000000e+00 0.000000e+00 0.000000e+00 0.000000e+00 0.000000e+00 0.000000e+00 8.734796e-01 1.265204e-01 0.000000e+00 0.000000e+00
 0.000000e+00 0.000000e+00 0.000000e+00 0.000000e+00 0.000000e+00 0.000000e+00 0.000000e+00 9.408909e-01 5.910908e-02 0.000000e+00
 0.000000e+00 0.000000e+00 0.000000e+00 0.000000e+00 0.000000e+00 0.000000e+00 0.000000e+00 0.000000e+00 8.991632e-01 1.008368e-01
 0.000000e+00 0.000000e+00 0.000000e+00 0.000000e+00 0.000000e+00 0.000000e+00 0.000000e+00 0.000000e+00 0.000000e+00 0.000000e+00
<ENDHMM>
~h "sedm"
<BEGINHMM>
<NUMSTATES> 10
<STATE> 2
<MEAN> 16
 5.708192e+00 5.837210e+00 6.060837e+00 6.397755e+00 6.529099e+00 6.721437e+00 6.964802e+00 7.477841e+00 7.902639e+00 7.969061e+00 8.272304e+00 8.834186e+00 9.865256e+00 1.026061e+01 1.030663e+01 1.011746e+01
<VARIANCE> 16
 1.672116e-01 1.040369e-01 2.025209e-01 2.570321e-01 1.572215e-01 1.403146e-01 1.561360e-01 1.903671e-01 2.145218e-01 1.763214e-01 3.147608e-01 3.181094e-01 5.061707e-01 5.065888e-01 5.005671e-01 4.439783e-01
<GCONST> 6.628237e+00
<STATE> 3
<MEAN> 16
 5.810842e+00 6.155247e+00 6.780364e+00 7.266562e+00 7.065810e+00 7.387487e+00 7.805102e+00 8.371439e+00 8.750634e+00 8.787051e+00 9.070977e+00 9.646539e+00 1.055371e+01 1.130746e+01 1.129925e+01 1.102116e+01
<VARIANCE> 16
 2.554779e-01 2.475465e-01 4.734630e-01 4.868987e-01 1.455584e-01 1.367698e-01 2.273446e-01 2.127252e-01 1.668325e-01 1.670655e-01 2.762087e-01 4.614373e-01 6.993088e-01 1.131938e+00 1.873718e+00 1.809259e+00
<GCONST> 1.357917e+01
<STATE> 4
<MEAN> 16
 6.285529e+00 6.886944e+00 7.733410e+00 8.288225e+00 8.145919e+00 8.363657e+00 8.913340e+00 9.555016e+00 9.669672e+00 9.769547e+00 1.015606e+01 1.061047e+01 1.158230e+01 1.247807e+01 1.275795e+01 1.248004e+01
<VARIANCE> 16
 2.403373e-01 5.497529e-01 7.793537e-01 7.559800e-01 3.463439e-01 1.980973e-01 1.710510e-01 2.629014e-01 2.487178e-01 3.067508e-01 5.312678e-01 5.699539e-01 1.100114e+00 2.811823e+00 4.971745e+00 4.796840e+00
<GCONST> 2.160504e+01
<STATE> 5
<MEAN> 16
 8.823509e+00 1.001280e+01 1.110895e+01 1.182079e+01 1.118920e+01 1.072649e+01 1.146963e+01 1.243422e+01 1.180926e+01 1.213295e+01 1.233940e+01 1.250508e+01 1.277567e+01 1.223832e+01 1.185408e+01 1.168915e+01
<VARIANCE> 16
 3.416470e+00 2.843009e+00 2.728981e+00 2.671539e+00 2.755399e+00 2.496178e+00 3.145317e+00 2.987090e+00 1.891435e+00 3.421750e+00 3.250835e+00 3.390665e+00 3.285009e+00 2.692110e+00 4.471246e+00 4.465691e+00
<GCONST> 4.727584e+01
<STATE> 6
<MEAN> 16
 8.805292e+00 1.000616e+01 1.077934e+01 1.103633e+01 1.058882e+01 1.030261e+01 1.072536e+01 1.131200e+01 1.140633e+01 1.150085e+01 1.168550e+01 1.191636e+01 1.194953e+01 1.131569e+01 1.015837e+01 9.977832e+00
<VARIANCE> 16
 2.172780e+00 2.344146e+00 1.077458e+00 5.717185e-01 8.772893e-01 5.099019e-01 6.115286e-01 4.350357e-01 6.081004e-01 5.523450e-01 6.087514e-01 6.340750e-01 6.431047e-01 9.398608e-01 1.522751e+00 8.511762e-01
<GCONST> 2.613386e+01
<STATE> 7
<MEAN> 16
 7.111801e+00 8.281667e+00 9.365565e+00 1.009980e+01 9.590110e+00 9.091902e+00 9.528905e+00 1.044994e+01 1.083506e+01 1.067267e+01 1.111967e+01 1.112381e+01 1.121506e+01 1.065488e+01 9.315855e+00 8.971764e+00
<VARIANCE> 16
 1.141013e+00 1.018763e+00 6.516218e-01 2.641898e-01 6.554184e-01 3.049072e-01 3.273971e-01 4.418378e-01 4.890645e-01 4.402751e-01 8.181676e-01 7.515078e-01 1.177602e+00 1.167767e+00 4.451142e-01 2.301633e-01
<GCONST> 2.027174e+01
<STATE> 8
<MEAN> 16
 7.040567e+00 8.338999e+00 8.971222e+00 9.025686e+00 8.372211e+00 8.251623e+00 8.757582e+00 9.207883e+00 9.383319e+00 9.373096e+00 9.514435e+00 9.648495e+00 9.966128e+00 9.368514e+00 8.346566e+00 8.234267e+00
<VARIANCE> 16
 7.055335e-01 4.770845e-01 5.517572e-01 3.942745e-01 3.695814e-01 4.188933e-01 4.631884e-01 2.977643e-01 2.382405e-01 3.800516e-01 3.678698e-01 6.895860e-01 8.431566e-01 3.852396e-01 2.446148e-01 1.839471e-01
<GCONST> 1.494593e+01
<STATE> 9
<MEAN> 16
 6.557054e+00 7.990686e+00 8.379950e+00 8.233221e+00 7.738403e+00 7.808074e+00 7.966064e+00 8.136156e+00 8.190084e+00 8.371667e+00 8.268491e+00 8.702068e+00 9.023438e+00 8.635159e+00 8.164255e+00 8.228838e+00
<VARIANCE> 16
 2.435569e-01 2.075121e-01 7.054915e-01 5.426262e-01 3.526236e-01 3.363789e-01 4.158849e-01 5.445584e-01 4.083054e-01 4.068258e-01 5.985447e-01 1.187038e+00 1.024130e+00 3.019456e-01 1.332188e-01 1.173574e-01
<GCONST> 1.437501e+01
<TRANSP> 10
 0.000000e+00 1.000000e+00 0.000000e+00 0.000000e+00 0.000000e+00 0.000000e+00 0.000000e+00 0.000000e+00 0.000000e+00 0.000000e+00
 0.000000e+00 8.020987e-01 1.979013e-01 0.000000e+00 0.000000e+00 0.000000e+00 0.000000e+00 0.000000e+00 0.000000e+00 0.000000e+00
 0.000000e+00 0.000000e+00 7.453997e-01 2.546003e-01 0.000000e+00 0.000000e+00 0.000000e+00 0.000000e+00 0.000000e+00 0.000000e+00
 0.000000e+00 0.000000e+00 0.000000e+00 6.662005e-01 3.337995e-01 0.000000e+00 0.000000e+00 0.000000e+00 0.000000e+00 0.000000e+00
 0.000000e+00 0.000000e+00 0.000000e+00 0.000000e+00 5.597491e-01 4.402509e-01 0.000000e+00 0.000000e+00 0.000000e+00 0.000000e+00
 0.000000e+00 0.000000e+00 0.000000e+00 0.000000e+00 0.000000e+00 8.679123e-01 1.320877e-01 0.000000e+00 0.000000e+00 0.000000e+00
 0.000000e+00 0.000000e+00 0.000000e+00 0.000000e+00 0.000000e+00 0.000000e+00 7.705151e-01 2.294848e-01 0.000000e+00 0.000000e+00
 0.000000e+00 0.000000e+00 0.000000e+00 0.000000e+00 0.000000e+00 0.000000e+00 0.000000e+00 9.432756e-01 5.672439e-02 0.000000e+00
 0.000000e+00 0.000000e+00 0.000000e+00 0.000000e+00 0.000000e+00 0.000000e+00 0.000000e+00 0.000000e+00 9.333972e-01 6.660278e-02
 0.000000e+00 0.000000e+00 0.000000e+00 0.000000e+00 0.000000e+00 0.000000e+00 0.000000e+00 0.000000e+00 0.000000e+00 0.000000e+00
<ENDHMM>
~h "sest"
<BEGINHMM>
<NUMSTATES> 10
<STATE> 2
<MEAN> 16
 5.717700e+00 5.764036e+00 5.996497e+00 6.199031e+00 6.344238e+00 6.524830e+00 6.756230e+00 7.357605e+00 8.225803e+00 8.964035e+00 9.588387e+00 1.028389e+01 1.048814e+01 1.043550e+01 9.925671e+00 9.201175e+00
<VARIANCE> 16
 9.891346e-02 9.083418e-02 1.006721e-01 1.298573e-01 6.987707e-02 7.532568e-02 9.605814e-02 1.537633e-01 3.541773e-01 5.467796e-01 3.955123e-01 6.861981e-01 6.508932e-01 5.887226e-01 4.202175e-01 3.356372e-01
<GCONST> 5.030754e+00
<STATE> 3
<MEAN> 16
 5.745045e+00 5.911685e+00 6.187661e+00 6.500338e+00 6.557201e+00 6.746051e+00 7.090576e+00 7.951444e+00 8.952054e+00 9.742190e+00 1.027674e+01 1.084762e+01 1.124491e+01 1.115843e+01 1.068796e+01 9.895993e+00
<VARIANCE> 16
 1.218732e-01 9.567669e-02 1.223636e-01 2.100369e-01 1.044424e-01 1.101767e-01 1.247521e-01 2.642989e-01 4.708818e-01 4.801797e-01 1.965924e-01 4.034767e-01 6.416071e-01 6.764807e-01 5.261450e-01 2.902234e-01
<GCONST> 6.681440e+00
<STATE> 4
<MEAN> 16
 5.763869e+00 6.130129e+00 6.727717e+00 7.076260e+00 6.939775e+00 7.063975e+00 7.369442e+00 8.155704e+00 9.105541e+00 9.729967e+00 1.036328e+01 1.061422e+01 1.089144e+01 1.070179e+01 1.039212e+01 9.886580e+00
<VARIANCE> 16
 8.405109e-02 1.708024e-01 1.749770e-01 3.167245e-01 1.637990e-01 1.404253e-01 3.175948e-01 5.224198e-01 6.933091e-01 9.684681e-01 9.164814e-01 8.234929e-01 1.116888e+00 1.208924e+00 1.676456e+00 1.534206e+00
<GCONST> 1.726641e+01
<STATE> 5
<MEAN> 16
 5.980869e+00 6.770579e+00 7.916330e+00 8.575269e+00 7.887368e+00 7.891857e+00 8.247633e+00 8.950095e+00 1.005459e+01 1.077330e+01 1.151151e+01 1.159810e+01 1.179155e+01 1.164146e+01 1.146366e+01 1.121183e+01
<VARIANCE> 16
 3.093560e-01 7.160461e-01 3.932306e-01 5.121301e-01 3.908376e-01 2.318896e-01 3.167353e-01 5.914717e-01 5.993072e-01 9.065723e-01 1.367086e+00 1.331809e+00 1.420358e+00 1.946683e+00 3.511602e+00 3.306482e+00
<GCONST> 2.567858e+01
<STATE> 6
<MEAN> 16
 8.043510e+00 8.858973e+00 9.971199e+00 1.102021e+01 1.059274e+01 1.023911e+01 1.062556e+01 1.151768e+01 1.188255e+01 1.225591e+01 1.254972e+01 1.276849e+01 1.293228e+01 1.313452e+01 1.293915e+01 1.238998e+01
<VARIANCE> 16
 1.772499e+00 2.300207e+00 2.174112e+00 2.587428e+00 2.457134e+00 1.558440e+00 1.607627e+00 2.000270e+00 1.520579e+00 2.073992e+00 1.805019e+00 1.776590e+00 1.280366e+00 2.056889e+00 3.190616e+00 3.754896e+00
<GCONST> 4.081488e+01
<STATE> 7
<MEAN> 16
 6.476907e+00 7.552103e+00 9.052221e+00 1.021143e+01 1.043973e+01 9.721620e+00 9.782383e+00 1.078592e+01 1.139240e+01 1.108158e+01 1.145641e+01 1.150275e+01 1.181639e+01 1.118507e+01 9.483611e+00 8.749649e+00
<VARIANCE> 16
 2.890701e-01 3.388296e-01 3.354461e-01 2.997367e-01 7.246975e-01 6.544047e-01 3.720542e-01 2.602991e-01 4.144571e-01 3.632677e-01 3.039865e-01 3.152914e-01 6.178681e-01 1.074158e+00 9.982378e-01 6.087278e-01
<GCONST> 1.655835e+01
<STATE> 8
<MEAN> 16
 6.163487e+00 6.930017e+00 8.015252e+00 8.737676e+00 8.238213e+00 8.062208e+00 8.477586e+00 9.179776e+00 9.211647e+00 9.179331e+00 9.198930e+00 9.546858e+00 1.009964e+01 1.052912e+01 1.062817e+01 1.043236e+01
<VARIANCE> 16
 3.334387e-01 7.219438e-01 1.086461e+00 8.964821e-01 5.663658e-01 3.187365e-01 4.372604e-01 8.316693e-01 5.274963e-01 4.591779e-01 6.471602e-01 6.221730e-01 8.998824e-01 2.295210e+00 3.863913e+00 3.360645e+00
<GCONST> 2.619364e+01
<STATE> 9
<MEAN> 16
 5.685363e+00 5.915101e+00 6.469821e+00 7.122576e+00 7.158837e+00 7.008000e+00 7.193463e+00 7.827034e+00 8.142198e+00 8.121740e+00 8.514345e+00 9.079733e+00 9.948839e+00 1.050971e+01 1.048552e+01 1.021678e+01
<VARIANCE> 16
 1.449464e-01 1.441652e-01 2.632950e-01 4.532235e-01 3.659268e-01 2.296222e-01 1.865716e-01 2.295729e-01 3.303127e-01 2.724941e-01 2.689699e-01 2.892984e-01 5.379570e-01 5.671884e-01 3.809004e-01 3.452859e-01
<GCONST> 9.607932e+00
<TRANSP> 10
 0.000000e+00 1.000000e+00 0.000000e+00 0.000000e+00 0.000000e+00 0.000000e+00 0.000000e+00 0.000000e+00 0.000000e+00 0.000000e+00
 0.000000e+00 7.918589e-01 2.081411e-01 0.000000e+00 0.000000e+00 0.000000e+00 0.000000e+00 0.000000e+00 0.000000e+00 0.000000e+00
 0.000000e+00 0.000000e+00 7.154906e-01 2.845094e-01 0.000000e+00 0.000000e+00 0.000000e+00 0.000000e+00 0.000000e+00 0.000000e+00
 0.000000e+00 0.000000e+00 0.000000e+00 2.151612e-01 7.848388e-01 0.000000e+00 0.000000e+00 0.000000e+00 0.000000e+00 0.000000e+00
 0.000000e+00 0.000000e+00 0.000000e+00 0.000000e+00 6.509643e-01 3.490357e-01 0.000000e+00 0.000000e+00 0.000000e+00 0.000000e+00
 0.000000e+00 0.000000e+00 0.000000e+00 0.000000e+00 0.000000e+00 8.898911e-01 1.101088e-01 0.000000e+00 0.000000e+00 0.000000e+00
 0.000000e+00 0.000000e+00 0.000000e+00 0.000000e+00 0.000000e+00 0.000000e+00 8.990787e-01 1.009212e-01 0.000000e+00 0.000000e+00
 0.000000e+00 0.000000e+00 0.000000e+00 0.000000e+00 0.000000e+00 0.000000e+00 0.000000e+00 9.145984e-01 8.540162e-02 0.000000e+00
 0.000000e+00 0.000000e+00 0.000000e+00 0.000000e+00 0.000000e+00 0.000000e+00 0.000000e+00 0.000000e+00 9.096631e-01 9.033693e-02
 0.000000e+00 0.000000e+00 0.000000e+00 0.000000e+00 0.000000e+00 0.000000e+00 0.000000e+00 0.000000e+00 0.000000e+00 0.000000e+00
<ENDHMM>
~h "dva"
<BEGINHMM>
<NUMSTATES> 10
<STATE> 2
<MEAN> 16
 6.405988e+00 7.361778e+00 7.941159e+00 7.909896e+00 7.356194e+00 7.493637e+00 7.905889e+00 8.078137e+00 8.094537e+00 8.232433e+00 8.403683e+00 8.694897e+00 8.838326e+00 8.499311e+00 8.081426e+00 8.120110e+00
<VARIANCE> 16
 3.355980e-01 2.399757e-01 5.339376e-01 4.941788e-01 2.543221e-01 3.341213e-01 3.630096e-01 5.739769e-01 5.019789e-01 4.344383e-01 5.575750e-01 6.388378e-01 6.540669e-01 4.322568e-01 1.596342e-01 1.328120e-01
<GCONST> 1.384861e+01
<STATE> 3
<MEAN> 16
 7.466149e+00 8.426311e+00 8.759024e+00 8.759069e+00 8.079938e+00 7.975048e+00 8.330276e+00 8.368257e+00 8.233297e+00 8.623013e+00 8.557482e+00 8.722870e+00 8.972557e+00 8.732197e+00 8.448473e+00 8.582123e+00
<VARIANCE> 16
 1.284961e+00 1.297444e+00 6.691256e-01 7.093565e-01 5.765926e-01 7.396616e-01 6.115842e-01 3.670740e-01 3.017701e-01 4.348057e-01 4.082431e-01 6.695524e-01 6.129869e-01 3.791648e-01 2.646031e-01 3.033108e-01
<GCONST> 1.951620e+01
<STATE> 4
<MEAN> 16
 7.288077e+00 8.206444e+00 8.945189e+00 9.284520e+00 8.774225e+00 8.732924e+00 9.212490e+00 9.117537e+00 8.854864e+00 9.091694e+00 9.156496e+00 9.441943e+00 9.730296e+00 9.321813e+00 8.734486e+00 8.583235e+00
<VARIANCE> 16
 1.030110e+00 1.079934e+00 5.244683e-01 3.918224e-01 6.795307e-01 7.860727e-01 6.216880e-01 3.855582e-01 3.558772e-01 3.941976e-01 5.979867e-01 6.974907e-01 6.485916e-01 4.627441e-01 7.532267e-01 5.710329e-01
<GCONST> 2.098909e+01
<STATE> 5
<MEAN> 16
 7.758225e+00 8.721952e+00 9.600286e+00 1.011752e+01 9.639484e+00 9.465072e+00 1.003404e+01 9.865716e+00 9.430091e+00 9.603559e+00 9.813054e+00 9.940253e+00 1.034671e+01 1.014688e+01 9.563920e+00 9.385169e+00
<VARIANCE> 16
 9.428702e-01 8.776783e-01 6.586286e-01 2.624452e-01 4.649751e-01 6.151534e-01 7.030846e-01 3.966130e-01 1.583921e-01 2.887502e-01 7.673311e-01 7.599945e-01 7.613196e-01 7.180167e-01 1.049982e+00 9.416155e-01
<GCONST> 2.069319e+01
<STATE> 6
<MEAN> 16
 9.291582e+00 1.017526e+01 1.116402e+01 1.202188e+01 1.221845e+01 1.222611e+01 1.260070e+01 1.210400e+01 1.143618e+01 1.202182e+01 1.231600e+01 1.268227e+01 1.235449e+01 1.204160e+01 1.144849e+01 1.087289e+01
<VARIANCE> 16
 1.726178e+00 1.471333e+00 1.112906e+00 1.288031e+00 1.742901e+00 1.605426e+00 1.170349e+00 8.599460e-01 9.931732e-01 1.687570e+00 1.584571e+00 1.850365e+00 1.177626e+00 1.250889e+00 1.929212e+00 2.257793e+00
<GCONST> 3.518455e+01
<STATE> 7
<MEAN> 16
 7.144897e+00 7.938459e+00 9.022231e+00 1.008209e+01 1.100317e+01 1.134255e+01 1.170698e+01 1.159453e+01 1.041147e+01 1.057854e+01 1.110869e+01 1.141802e+01 1.195751e+01 1.116074e+01 9.633739e+00 8.854621e+00
<VARIANCE> 16
 7.136679e-01 7.741414e-01 6.072937e-01 5.370991e-01 4.922914e-01 3.240620e-01 3.437155e-01 4.603868e-01 2.066282e-01 2.877412e-01 4.599436e-01 4.658562e-01 8.402925e-01 3.755894e-01 1.085572e+00 5.612794e-01
<GCONST> 1.800150e+01
<STATE> 8
<MEAN> 16
 6.511912e+00 7.434951e+00 8.238908e+00 9.593248e+00 1.036175e+01 1.024278e+01 1.053221e+01 9.891114e+00 9.354630e+00 9.676888e+00 9.467862e+00 1.006009e+01 1.034415e+01 9.682519e+00 8.625784e+00 8.445852e+00
<VARIANCE> 16
 2.818699e-01 1.713901e-01 3.318072e-01 5.531493e-01 4.847308e-01 2.389758e-01 2.192624e-01 7.055513e-01 2.630326e-01 3.403957e-01 1.107019e+00 1.268445e+00 1.196600e+00 4.364376e-01 3.856475e-01 2.292364e-01
<GCONST> 1.550965e+01
<STATE> 9
<MEAN> 16
 5.973792e+00 6.549992e+00 6.797908e+00 7.695996e+00 8.493591e+00 8.737712e+00 8.777671e+00 8.459818e+00 7.955201e+00 8.045438e+00 8.299715e+00 8.624596e+00 9.054720e+00 8.545955e+00 8.079096e+00 8.144223e+00
<VARIANCE> 16
 3.413010e-01 5.822079e-01 4.361579e-01 7.400548e-01 5.479344e-01 3.581525e-01 3.740342e-01 5.080800e-01 2.530233e-01 2.622511e-01 3.737506e-01 3.159078e-01 4.177116e-01 2.446789e-01 1.882061e-01 1.914921e-01
<GCONST> 1.291731e+01
<TRANSP> 10
 0.000000e+00 1.000000e+00 0.000000e+00 0.000000e+00 0.000000e+00 0.000000e+00 0.000000e+00 0.000000e+00 0.000000e+00 0.000000e+00
 0.000000e+00 7.863926e-01 2.136074e-01 0.000000e+00 0.000000e+00 0.000000e+00 0.000000e+00 0.000000e+00 0.000000e+00 0.000000e+00
 0.000000e+00 0.000000e+00 3.288087e-01 6.711913e-01 0.000000e+00 0.000000e+00 0.000000e+00 0.000000e+00 0.000000e+00 0.000000e+00
 0.000000e+00 0.000000e+00 0.000000e+00 4.252823e-01 5.747177e-01 0.000000e+00 0.000000e+00 0.000000e+00 0.000000e+00 0.000000e+00
 0.000000e+00 0.000000e+00 0.000000e+00 0.000000e+00 5.233241e-01 4.766759e-01 0.000000e+00 0.000000e+00 0.000000e+00 0.000000e+00
 0.000000e+00 0.000000e+00 0.000000e+00 0.000000e+00 0.000000e+00 8.383642e-01 1.616358e-01 0.000000e+00 0.000000e+00 0.000000e+00
 0.000000e+00 0.000000e+00 0.000000e+00 0.000000e+00 0.000000e+00 0.000000e+00 8.785186e-01 1.214814e-01 0.000000e+00 0.000000e+00
 0.000000e+00 0.000000e+00 0.000000e+00 0.000000e+00 0.000000e+00 0.000000e+00 0.000000e+00 8.894818e-01 1.105183e-01 0.000000e+00
 0.000000e+00 0.000000e+00 0.000000e+00 0.000000e+00 0.000000e+00 0.000000e+00 0.000000e+00 0.000000e+00 8.661124e-01 1.338876e-01
 0.000000e+00 0.000000e+00 0.000000e+00 0.000000e+00 0.000000e+00 0.000000e+00 0.000000e+00 0.000000e+00 0.000000e+00 0.000000e+00
<ENDHMM>
~h "osm"
<BEGINHMM>
<NUMSTATES> 10
<STATE> 2
<MEAN> 16
 6.127896e+00 7.049926e+00 8.316216e+00 9.139791e+00 8.985927e+00 9.126990e+00 8.628833e+00 7.873063e+00 7.867414e+00 8.238205e+00 8.270940e+00 8.764548e+00 9.281094e+00 8.747196e+00 8.391197e+00 8.484301e+00
<VARIANCE> 16
 2.416703e-01 4.023442e-01 6.964077e-01 6.855687e-01 7.104807e-01 5.011606e-01 7.849492e-01 3.895302e-01 1.600149e-01 3.215023e-01 6.515278e-01 1.325375e+00 6.162697e-01 5.540605e-01 3.903494e-01 2.322726e-01
<GCONST> 1.752940e+01
<STATE> 3
<MEAN> 16
 6.617259e+00 7.756706e+00 9.034392e+00 1.012883e+01 1.058266e+01 1.051355e+01 9.930034e+00 9.048973e+00 8.748812e+00 9.133147e+00 9.833850e+00 1.046622e+01 1.088641e+01 1.005168e+01 8.632624e+00 8.572605e+00
<VARIANCE> 16
 3.394351e-01 4.894945e-01 4.980237e-01 4.673153e-01 5.395823e-01 3.962607e-01 7.805595e-01 3.694193e-01 2.479550e-01 6.706573e-01 1.244280e+00 1.527897e+00 6.374079e-01 5.514447e-01 6.745731e-01 2.526975e-01
<GCONST> 1.940076e+01
<STATE> 4
<MEAN> 16
 6.958474e+00 8.021354e+00 9.762571e+00 1.093485e+01 1.114787e+01 1.117003e+01 1.088019e+01 9.757828e+00 9.289310e+00 9.463819e+00 1.055914e+01 1.129509e+01 1.163322e+01 1.108754e+01 9.506883e+00 8.659184e+00
<VARIANCE> 16
 4.258598e-01 7.574188e-01 4.070844e-01 3.640459e-01 5.828907e-01 5.562783e-01 7.855539e-01 4.110482e-01 2.649785e-01 3.750295e-01 6.302121e-01 1.018716e+00 9.161183e-01 6.457078e-01 6.665717e-01 2.888623e-01
<GCONST> 1.918424e+01
<STATE> 5
<MEAN> 16
 8.670490e+00 9.527036e+00 1.046009e+01 1.110152e+01 1.082290e+01 1.126151e+01 1.143497e+01 1.113631e+01 1.104272e+01 1.171753e+01 1.226150e+01 1.286525e+01 1.289263e+01 1.262024e+01 1.200014e+01 1.199425e+01
<VARIANCE> 16
 2.160086e+00 3.094704e+00 2.243768e+00 1.682539e+00 1.793716e+00 1.788508e+00 1.195704e+00 1.030428e+00 1.219906e+00 1.743185e+00 1.575936e+00 1.298670e+00 1.300113e+00 2.562705e+00 4.254076e+00 3.706858e+00
<GCONST> 3.944096e+01
<STATE> 6
<MEAN> 16
 8.176009e+00 9.400072e+00 1.007535e+01 1.006204e+01 9.717981e+00 1.028253e+01 1.051802e+01 1.053798e+01 1.043592e+01 1.073003e+01 1.092862e+01 1.111414e+01 1.132910e+01 1.084578e+01 1.000642e+01 1.009679e+01
<VARIANCE> 16
 1.765345e+00 2.202032e+00 1.137575e+00 5.498150e-01 6.204174e-01 5.003679e-01 6.643993e-01 8.233214e-01 9.959442e-01 1.315208e+00 6.737971e-01 4.791602e-01 4.729485e-01 1.170199e+00 2.501115e+00 2.673373e+00
<GCONST> 2.896930e+01
<STATE> 7
<MEAN> 16
 6.413739e+00 7.263097e+00 8.051309e+00 8.651450e+00 8.388372e+00 8.803076e+00 9.159967e+00 9.234245e+00 9.247972e+00 9.297473e+00 9.729122e+00 1.040336e+01 1.116095e+01 1.140081e+01 1.105490e+01 1.084274e+01
<VARIANCE> 16
 8.052153e-01 1.887095e+00 1.437545e+00 1.263989e+00 9.362709e-01 8.677536e-01 6.558094e-01 4.034783e-01 4.326940e-01 2.782201e-01 1.772524e-01 2.349685e-01 4.616623e-01 1.405777e+00 2.752662e+00 2.561791e+00
<GCONST> 2.510981e+01
<STATE> 8
<MEAN> 16
 6.989773e+00 8.056191e+00 8.912849e+00 8.822984e+00 8.257895e+00 8.715797e+00 9.114448e+00 9.091098e+00 9.050934e+00 9.104405e+00 9.191255e+00 9.691590e+00 9.818973e+00 9.509794e+00 8.975042e+00 8.898206e+00
<VARIANCE> 16
 9.410143e-01 1.327671e+00 1.474494e+00 5.567780e-01 5.352277e-01 7.544214e-01 7.163834e-01 6.608370e-01 5.106156e-01 3.882978e-01 3.196486e-01 4.025475e-01 6.859859e-01 5.514183e-01 9.094042e-01 8.699964e-01
<GCONST> 2.290175e+01
<STATE> 9
<MEAN> 16
 6.168600e+00 7.222946e+00 7.820628e+00 7.969214e+00 7.531164e+00 7.854283e+00 8.017725e+00 8.013612e+00 8.129755e+00 8.356213e+00 8.668722e+00 9.346004e+00 9.778983e+00 9.338335e+00 8.778926e+00 8.777651e+00
<VARIANCE> 16
 3.308871e-01 9.752837e-01 1.224255e+00 8.602173e-01 3.150460e-01 3.868267e-01 4.956045e-01 4.541601e-01 3.002042e-01 3.667648e-01 5.341145e-01 9.000998e-01 9.531229e-01 7.568498e-01 1.011070e+00 8.772470e-01
<GCONST> 2.134541e+01
<TRANSP> 10
 0.000000e+00 1.000000e+00 0.000000e+00 0.000000e+00 0.000000e+00 0.000000e+00 0.000000e+00 0.000000e+00 0.000000e+00 0.000000e+00
 0.000000e+00 5.341529e-01 4.658471e-01 0.000000e+00 0.000000e+00 0.000000e+00 0.000000e+00 0.000000e+00 0.000000e+00 0.000000e+00
 0.000000e+00 0.000000e+00 5.729319e-01 4.270680e-01 0.000000e+00 0.000000e+00 0.000000e+00 0.000000e+00 0.000000e+00 0.000000e+00
 0.000000e+00 0.000000e+00 0.000000e+00 6.868097e-01 3.131903e-01 0.000000e+00 0.000000e+00 0.000000e+00 0.000000e+00 0.000000e+00
 0.000000e+00 0.000000e+00 0.000000e+00 0.000000e+00 8.503330e-01 1.496671e-01 0.000000e+00 0.000000e+00 0.000000e+00 0.000000e+00
 0.000000e+00 0.000000e+00 0.000000e+00 0.000000e+00 0.000000e+00 8.156965e-01 1.843036e-01 0.000000e+00 0.000000e+00 0.000000e+00
 0.000000e+00 0.000000e+00 0.000000e+00 0.000000e+00 0.000000e+00 0.000000e+00 8.475533e-01 1.524468e-01 0.000000e+00 0.000000e+00
 0.000000e+00 0.000000e+00 0.000000e+00 0.000000e+00 0.000000e+00 0.000000e+00 0.000000e+00 8.899561e-01 1.100439e-01 0.000000e+00
 0.000000e+00 0.000000e+00 0.000000e+00 0.000000e+00 0.000000e+00 0.000000e+00 0.000000e+00 0.000000e+00 9.618250e-01 3.817502e-02
 0.000000e+00 0.000000e+00 0.000000e+00 0.000000e+00 0.000000e+00 0.000000e+00 0.000000e+00 0.000000e+00 0.000000e+00 0.000000e+00
<ENDHMM>
~h "pet"
<BEGINHMM>
<NUMSTATES> 10
<STATE> 2
<MEAN> 16
 6.287813e+00 7.449671e+00 8.288039e+00 8.088230e+00 7.224140e+00 7.048633e+00 7.342765e+00 8.199222e+00 9.198378e+00 9.240337e+00 8.807741e+00 8.759605e+00 9.158946e+00 8.972694e+00 8.383852e+00 8.405800e+00
<VARIANCE> 16
 2.544842e-01 4.595790e-01 9.457074e-01 7.869700e-01 2.837541e-01 1.569009e-01 1.131039e-01 4.837900e-01 6.510824e-01 8.566103e-01 1.055279e+00 1.176295e+00 8.084560e-01 5.497708e-01 1.354716e-01 1.197153e-01
<GCONST> 1.564711e+01
<STATE> 3
<MEAN> 16
 6.557101e+00 7.673070e+00 9.417790e+00 9.531086e+00 8.484879e+00 7.953258e+00 8.280790e+00 9.153528e+00 1.042678e+01 1.114019e+01 1.106245e+01 1.113889e+01 1.106763e+01 1.019142e+01 8.829348e+00 8.472747e+00
<VARIANCE> 16
 3.363871e-01 3.990527e-01 4.084509e-01 3.423647e-01 3.543000e-01 2.431682e-01 1.805108e-01 4.545878e-01 2.856568e-01 2.600579e-01 6.109478e-01 1.062737e+00 7.739823e-01 1.374276e+00 5.780640e-01 4.861098e-01
<GCONST> 1.623929e+01
<STATE> 4
<MEAN> 16
 7.278794e+00 8.390229e+00 1.004593e+01 1.038893e+01 9.411884e+00 8.833735e+00 9.021748e+00 1.001755e+01 1.103834e+01 1.158039e+01 1.137497e+01 1.133478e+01 1.140815e+01 1.071984e+01 9.420195e+00 9.075123e+00
<VARIANCE> 16
 1.490889e+00 1.828676e+00 1.405521e+00 6.750804e-01 5.100743e-01 7.668746e-01 1.019759e+00 1.450927e+00 8.967896e-01 8.725347e-01 1.291683e+00 2.150238e+00 1.138545e+00 1.374190e+00 1.598015e+00 1.482247e+00
<GCONST> 3.189579e+01
<STATE> 5
<MEAN> 16
 7.653933e+00 8.736880e+00 1.058773e+01 1.077892e+01 9.911487e+00 9.181677e+00 9.184683e+00 9.974019e+00 1.099741e+01 1.177520e+01 1.171170e+01 1.156459e+01 1.164641e+01 1.100025e+01 9.946920e+00 9.325000e+00
<VARIANCE> 16
 1.393786e+00 1.797283e+00 1.651524e+00 7.524568e-01 5.747007e-01 7.614159e-01 9.770140e-01 1.320620e+00 1.007746e+00 9.035202e-01 1.188148e+00 1.550339e+00 7.783510e-01 9.420061e-01 1.511710e+00 1.105580e+00
<GCONST> 3.069040e+01
<STATE> 6
<MEAN> 16
 8.900029e+00 9.997865e+00 1.132682e+01 1.220835e+01 1.160478e+01 1.092976e+01 1.108875e+01 1.182940e+01 1.258870e+01 1.296061e+01 1.300136e+01 1.306681e+01 1.280603e+01 1.237358e+01 1.185939e+01 1.125758e+01
<VARIANCE> 16
 1.853545e+00 1.748068e+00 1.434924e+00 1.380224e+00 1.105750e+00 1.276697e+00 1.889104e+00 2.312583e+00 1.651928e+00 1.678513e+00 1.656607e+00 2.544758e+00 1.432003e+00 1.574301e+00 3.004787e+00 3.401103e+00
<GCONST> 3.868012e+01
<STATE> 7
<MEAN> 16
 6.593091e+00 7.476245e+00 8.939149e+00 1.017192e+01 1.005125e+01 9.297853e+00 9.481227e+00 1.023125e+01 1.081994e+01 1.080212e+01 1.088359e+01 1.097030e+01 1.125919e+01 1.080182e+01 9.594009e+00 9.226713e+00
<VARIANCE> 16
 2.384897e-01 3.745802e-01 4.834082e-01 4.789818e-01 7.939730e-01 7.188152e-01 5.156254e-01 4.448821e-01 8.100479e-01 9.877988e-01 1.049317e+00 9.189456e-01 1.317202e+00 1.769347e+00 2.328776e+00 2.159697e+00
<GCONST> 2.569659e+01
<STATE> 8
<MEAN> 16
 6.470355e+00 7.484523e+00 8.757800e+00 9.640957e+00 9.149131e+00 8.481561e+00 8.733112e+00 9.936497e+00 1.018701e+01 9.801308e+00 9.823978e+00 9.905205e+00 1.023784e+01 9.686825e+00 8.674900e+00 8.600004e+00
<VARIANCE> 16
 2.140130e-01 3.177448e-01 5.821523e-01 5.468322e-01 3.463843e-01 2.210173e-01 1.449677e-01 2.982567e-01 3.930692e-01 4.047190e-01 9.263937e-01 1.011804e+00 5.399107e-01 4.647812e-01 3.501993e-01 3.221979e-01
<GCONST> 1.439497e+01
<STATE> 9
<MEAN> 16
 5.705266e+00 6.237471e+00 7.086685e+00 7.944018e+00 7.791415e+00 7.522491e+00 7.586021e+00 8.081846e+00 8.467063e+00 8.387834e+00 8.592760e+00 8.780879e+00 8.931786e+00 8.754323e+00 8.624855e+00 8.643388e+00
<VARIANCE> 16
 2.303987e-01 3.078424e-01 4.539224e-01 5.134501e-01 3.756517e-01 3.699150e-01 4.015669e-01 4.028693e-01 4.763032e-01 4.408322e-01 4.637298e-01 4.614491e-01 4.386495e-01 7.023022e-01 9.694562e-01 6.489556e-01
<GCONST> 1.676490e+01
<TRANSP> 10
 0.000000e+00 1.000000e+00 0.000000e+00 0.000000e+00 0.000000e+00 0.000000e+00 0.000000e+00 0.000000e+00 0.000000e+00 0.000000e+00
 0.000000e+00 5.504484e-01 4.495516e-01 0.000000e+00 0.000000e+00 0.000000e+00 0.000000e+00 0.000000e+00 0.000000e+00 0.000000e+00
 0.000000e+00 0.000000e+00 7.194156e-01 2.805844e-01 0.000000e+00 0.000000e+00 0.000000e+00 0.000000e+00 0.000000e+00 0.000000e+00
 0.000000e+00 0.000000e+00 0.000000e+00 3.688913e-02 9.631109e-01 0.000000e+00 0.000000e+00 0.000000e+00 0.000000e+00 0.000000e+00
 0.000000e+00 0.000000e+00 0.000000e+00 0.000000e+00 3.823530e-01 6.176471e-01 0.000000e+00 0.000000e+00 0.000000e+00 0.000000e+00
 0.000000e+00 0.000000e+00 0.000000e+00 0.000000e+00 0.000000e+00 8.149169e-01 1.850831e-01 0.000000e+00 0.000000e+00 0.000000e+00
 0.000000e+00 0.000000e+00 0.000000e+00 0.000000e+00 0.000000e+00 0.000000e+00 9.118714e-01 8.812859e-02 0.000000e+00 0.000000e+00
 0.000000e+00 0.000000e+00 0.000000e+00 0.000000e+00 0.000000e+00 0.000000e+00 0.000000e+00 8.026281e-01 1.973719e-01 0.000000e+00
 0.000000e+00 0.000000e+00 0.000000e+00 0.000000e+00 0.000000e+00 0.000000e+00 0.000000e+00 0.000000e+00 8.794231e-01 1.205769e-01
 0.000000e+00 0.000000e+00 0.000000e+00 0.000000e+00 0.000000e+00 0.000000e+00 0.000000e+00 0.000000e+00 0.000000e+00 0.000000e+00
<ENDHMM>
~h "sil"
<BEGINHMM>
<NUMSTATES> 5
<STATE> 2
<MEAN> 16
 5.565711e+00 5.874331e+00 6.254408e+00 6.527153e+00 6.611251e+00 6.927283e+00 7.121779e+00 7.321692e+00 7.513875e+00 7.566869e+00 7.756401e+00 7.965100e+00 8.185797e+00 8.319073e+00 8.471485e+00 8.665383e+00
<VARIANCE> 16
 1.907693e-01 1.400422e-01 1.389648e-01 1.657492e-01 1.217620e-01 1.086406e-01 1.180103e-01 1.285666e-01 9.843099e-02 8.880193e-02 9.371140e-02 1.092470e-01 1.283415e-01 1.252459e-01 1.623695e-01 1.744363e-01
<GCONST> -3.517013e+00
<STATE> 3
<MEAN> 16
 5.638549e+00 5.747581e+00 5.918553e+00 6.106284e+00 6.269485e+00 6.447381e+00 6.603364e+00 6.770114e+00 7.119727e+00 7.030501e+00 7.183883e+00 7.363453e+00 7.570800e+00 7.663126e+00 7.822180e+00 8.022500e+00
<VARIANCE> 16
 1.180667e-01 1.054765e-01 9.342756e-02 7.540476e-02 6.641729e-02 5.988703e-02 5.253715e-02 4.682641e-02 3.439780e-02 3.570220e-02 3.217347e-02 3.255087e-02 4.426328e-02 3.392087e-02 2.365636e-02 3.847334e-02
<GCONST> -1.853694e+01
<STATE> 4
<MEAN> 16
 5.450236e+00 5.885520e+00 6.110668e+00 6.214776e+00 6.218129e+00 6.399680e+00 6.575571e+00 6.732223e+00 7.007658e+00 7.081032e+00 7.265680e+00 7.514908e+00 7.841236e+00 7.950120e+00 8.012846e+00 8.105803e+00
<VARIANCE> 16
 4.840503e-01 3.921650e-01 3.744010e-01 2.829595e-01 2.383466e-01 2.367091e-01 2.431356e-01 3.590220e-01 4.703912e-01 4.423617e-01 4.712304e-01 5.388935e-01 6.819614e-01 6.938142e-01 6.547895e-01 6.232541e-01
<GCONST> 1.560102e+01
<TRANSP> 5
 0.000000e+00 1.000000e+00 0.000000e+00 0.000000e+00 0.000000e+00
 0.000000e+00 9.559351e-01 4.406482e-02 0.000000e+00 0.000000e+00
 0.000000e+00 0.000000e+00 9.792282e-01 2.077178e-02 0.000000e+00
 0.000000e+00 0.000000e+00 0.000000e+00 6.315950e-01 3.684050e-01
 0.000000e+00 0.000000e+00 0.000000e+00 0.000000e+00 0.000000e+00
<ENDHMM>
~h "tri"
<BEGINHMM>
<NUMSTATES> 10
<STATE> 2
<MEAN> 16
 5.717295e+00 5.851799e+00 6.288893e+00 6.579720e+00 6.745841e+00 7.000774e+00 7.341130e+00 7.923751e+00 8.424594e+00 8.571750e+00 8.862869e+00 9.723982e+00 1.034121e+01 1.043491e+01 9.706130e+00 9.186934e+00
<VARIANCE> 16
 1.494626e-01 1.050407e-01 1.430299e-01 2.252955e-01 1.907961e-01 2.409147e-01 2.536919e-01 2.888478e-01 2.919745e-01 3.037076e-01 4.209359e-01 6.265122e-01 9.177979e-01 1.165716e+00 8.056359e-01 4.289481e-01
<GCONST> 1.137289e+01
<STATE> 3
<MEAN> 16
 5.768104e+00 5.871031e+00 6.267296e+00 6.632112e+00 6.722387e+00 6.915066e+00 7.232162e+00 7.962351e+00 8.592973e+00 8.991787e+00 9.945760e+00 1.104053e+01 1.165507e+01 1.171522e+01 1.088398e+01 1.002177e+01
<VARIANCE> 16
 2.058765e-01 1.205193e-01 2.028713e-01 3.789092e-01 2.875344e-01 3.535682e-01 3.826765e-01 4.030118e-01 4.709178e-01 3.451766e-01 5.693073e-01 7.640381e-01 7.014854e-01 5.783581e-01 5.559471e-01 3.471698e-01
<GCONST> 1.379214e+01
<STATE> 4
<MEAN> 16
 5.944212e+00 6.157122e+00 6.464263e+00 6.783806e+00 6.873662e+00 7.131243e+00 7.422850e+00 8.307331e+00 9.323157e+00 9.498067e+00 1.042736e+01 1.131520e+01 1.203816e+01 1.210415e+01 1.144514e+01 1.033783e+01
<VARIANCE> 16
 2.041190e-01 2.228576e-01 5.475985e-01 7.150751e-01 5.477487e-01 6.529471e-01 8.389468e-01 7.998388e-01 8.557117e-01 7.809094e-01 8.464873e-01 6.410913e-01 5.252172e-01 4.978990e-01 4.454710e-01 5.316203e-01
<GCONST> 2.015492e+01
<STATE> 5
<MEAN> 16
 6.296823e+00 6.999636e+00 7.957330e+00 8.453094e+00 8.001767e+00 8.242855e+00 8.590863e+00 9.141147e+00 1.027623e+01 1.039784e+01 1.113198e+01 1.201834e+01 1.264921e+01 1.264878e+01 1.266334e+01 1.222922e+01
<VARIANCE> 16
 2.595887e-01 3.763629e-01 5.420904e-01 7.172246e-01 6.242205e-01 9.808571e-01 9.760095e-01 5.233476e-01 5.824635e-01 6.614144e-01 1.263766e+00 1.919948e+00 2.091549e+00 2.010640e+00 3.236557e+00 4.151845e+00
<GCONST> 2.894007e+01
<STATE> 6
<MEAN> 16
 8.507631e+00 9.599051e+00 1.065425e+01 1.077207e+01 9.942860e+00 9.908443e+00 1.028367e+01 1.104187e+01 1.185447e+01 1.249723e+01 1.290835e+01 1.321212e+01 1.309747e+01 1.286253e+01 1.258644e+01 1.217728e+01
<VARIANCE> 16
 2.067898e+00 2.157353e+00 2.987813e+00 2.486452e+00 1.495979e+00 1.552490e+00 1.792044e+00 1.921984e+00 2.018881e+00 1.860158e+00 1.728636e+00 2.326069e+00 1.812917e+00 2.620944e+00 4.023617e+00 3.769713e+00
<GCONST> 4.197858e+01
<STATE> 7
<MEAN> 16
 6.724029e+00 7.974125e+00 9.620170e+00 1.012225e+01 8.812798e+00 8.423678e+00 8.610362e+00 9.195555e+00 1.045906e+01 1.142821e+01 1.154832e+01 1.144893e+01 1.177027e+01 1.117611e+01 9.432215e+00 8.773767e+00
<VARIANCE> 16
 8.296535e-01 6.707577e-01 1.132698e+00 2.533939e-01 7.452315e-01 5.866854e-01 3.158473e-01 2.436948e-01 4.281057e-01 2.383907e-01 3.323383e-01 4.537275e-01 4.516520e-01 4.355481e-01 4.473451e-01 3.838654e-01
<GCONST> 1.661810e+01
<STATE> 8
<MEAN> 16
 6.605624e+00 8.110034e+00 9.254380e+00 8.971485e+00 7.897322e+00 7.515993e+00 7.790050e+00 8.555163e+00 9.861104e+00 1.054508e+01 1.013021e+01 1.004889e+01 1.034231e+01 9.693798e+00 8.731100e+00 8.565521e+00
<VARIANCE> 16
 2.381531e-01 2.306014e-01 3.619130e-01 3.142309e-01 3.133040e-01 2.565718e-01 1.515950e-01 2.569013e-01 6.729677e-01 4.107520e-01 1.041646e+00 1.042336e+00 1.042981e+00 8.748147e-01 1.741731e-01 1.461163e-01
<GCONST> 1.359734e+01
<STATE> 9
<MEAN> 16
 6.169585e+00 7.150374e+00 7.992893e+00 7.803003e+00 7.236461e+00 7.121245e+00 7.143599e+00 7.513888e+00 8.484774e+00 9.034548e+00 8.840986e+00 8.808746e+00 9.251873e+00 8.834575e+00 8.261889e+00 8.291780e+00
<VARIANCE> 16
 2.703817e-01 6.906176e-01 7.752734e-01 5.110388e-01 3.236474e-01 3.430758e-01 2.301987e-01 3.487892e-01 7.403815e-01 4.018625e-01 4.495628e-01 4.297195e-01 4.924286e-01 3.319653e-01 1.713923e-01 1.453065e-01
<GCONST> 1.372191e+01
<TRANSP> 10
 0.000000e+00 1.000000e+00 0.000000e+00 0.000000e+00 0.000000e+00 0.000000e+00 0.000000e+00 0.000000e+00 0.000000e+00 0.000000e+00
 0.000000e+00 7.671403e-01 2.328597e-01 0.000000e+00 0.000000e+00 0.000000e+00 0.000000e+00 0.000000e+00 0.000000e+00 0.000000e+00
 0.000000e+00 0.000000e+00 6.919646e-01 3.080354e-01 0.000000e+00 0.000000e+00 0.000000e+00 0.000000e+00 0.000000e+00 0.000000e+00
 0.000000e+00 0.000000e+00 0.000000e+00 6.653780e-01 3.346221e-01 0.000000e+00 0.000000e+00 0.000000e+00 0.000000e+00 0.000000e+00
 0.000000e+00 0.000000e+00 0.000000e+00 0.000000e+00 6.326929e-01 3.673071e-01 0.000000e+00 0.000000e+00 0.000000e+00 0.000000e+00
 0.000000e+00 0.000000e+00 0.000000e+00 0.000000e+00 0.000000e+00 8.257195e-01 1.742805e-01 0.000000e+00 0.000000e+00 0.000000e+00
 0.000000e+00 0.000000e+00 0.000000e+00 0.000000e+00 0.000000e+00 0.000000e+00 8.904570e-01 1.095429e-01 0.000000e+00 0.000000e+00
 0.000000e+00 0.000000e+00 0.000000e+00 0.000000e+00 0.000000e+00 0.000000e+00 0.000000e+00 8.701404e-01 1.298596e-01 0.000000e+00
 0.000000e+00 0.000000e+00 0.000000e+00 0.000000e+00 0.000000e+00 0.000000e+00 0.000000e+00 0.000000e+00 8.335276e-01 1.664724e-01
 0.000000e+00 0.000000e+00 0.000000e+00 0.000000e+00 0.000000e+00 0.000000e+00 0.000000e+00 0.000000e+00 0.000000e+00 0.000000e+00
<ENDHMM>
~h "nula"
<BEGINHMM>
<NUMSTATES> 10
<STATE> 2
<MEAN> 16
 6.553166e+00 7.945930e+00 8.224286e+00 8.208428e+00 7.573413e+00 7.471688e+00 7.274850e+00 7.580809e+00 7.852512e+00 8.044797e+00 8.009572e+00 8.001974e+00 8.536770e+00 8.426450e+00 8.071685e+00 8.184236e+00
<VARIANCE> 16
 2.501269e-01 2.245170e-01 4.425247e-01 3.623306e-01 3.379422e-01 4.629015e-01 1.448744e-01 2.333807e-01 1.534981e-01 4.453688e-01 4.628524e-01 3.278589e-01 4.859343e-01 1.855108e-01 1.308869e-01 1.507801e-01
<GCONST> 8.553774e+00
<STATE> 3
<MEAN> 16
 6.879887e+00 8.352419e+00 9.122529e+00 9.097922e+00 8.413890e+00 8.448411e+00 8.086605e+00 8.277587e+00 8.508673e+00 8.795727e+00 8.671321e+00 8.392267e+00 8.451879e+00 8.299253e+00 8.165086e+00 8.270741e+00
<VARIANCE> 16
 3.977480e-01 4.170319e-01 3.417310e-01 3.437486e-01 2.823040e-01 5.158495e-01 2.067644e-01 2.382241e-01 1.586683e-01 3.204048e-01 5.672770e-01 4.768389e-01 4.667768e-01 3.103298e-01 3.823239e-01 3.498994e-01
<GCONST> 1.230029e+01
<STATE> 4
<MEAN> 16
 6.658144e+00 8.282410e+00 8.932483e+00 9.670739e+00 8.870909e+00 8.888037e+00 8.860107e+00 8.747496e+00 8.696161e+00 8.990443e+00 9.451303e+00 9.593438e+00 9.454494e+00 8.586805e+00 8.218855e+00 8.273066e+00
<VARIANCE> 16
 1.015749e+00 5.841078e-01 8.416989e-01 1.711101e-01 2.179202e-01 3.673013e-01 2.230682e-01 4.976183e-01 4.351322e-01 5.014351e-01 7.924445e-01 9.023536e-01 8.820071e-01 2.378776e-01 2.459675e-01 1.874216e-01
<GCONST> 1.572654e+01
<STATE> 5
<MEAN> 16
 6.957633e+00 8.418567e+00 9.625971e+00 1.010440e+01 9.667301e+00 9.715158e+00 9.643732e+00 9.166181e+00 9.061444e+00 9.363102e+00 9.658664e+00 9.805012e+00 9.841288e+00 9.133972e+00 8.431324e+00 8.362635e+00
<VARIANCE> 16
 8.247495e-01 8.432097e-01 8.659813e-01 6.660051e-02 2.958779e-01 3.344844e-01 2.352795e-01 4.979820e-01 4.925144e-01 6.827239e-01 1.029062e+00 7.904323e-01 8.206680e-01 3.762467e-01 2.696473e-01 2.314318e-01
<GCONST> 1.648705e+01
<STATE> 6
<MEAN> 16
 9.593924e+00 1.079500e+01 1.159649e+01 1.216196e+01 1.192897e+01 1.214641e+01 1.213424e+01 1.150846e+01 1.138522e+01 1.196197e+01 1.244536e+01 1.245367e+01 1.244968e+01 1.163577e+01 1.076419e+01 1.078109e+01
<VARIANCE> 16
 1.979395e+00 1.868484e+00 1.074776e+00 1.342354e+00 1.817656e+00 2.271211e+00 1.249773e+00 1.109667e+00 1.288350e+00 1.531343e+00 1.440766e+00 1.381916e+00 1.434110e+00 1.804304e+00 2.003305e+00 1.817371e+00
<GCONST> 3.643643e+01
<STATE> 7
<MEAN> 16
 8.226733e+00 9.349541e+00 1.041011e+01 1.117724e+01 1.095754e+01 1.107640e+01 1.113107e+01 1.053287e+01 1.007217e+01 9.946919e+00 1.063820e+01 1.099891e+01 1.057871e+01 1.061117e+01 1.041124e+01 9.732107e+00
<VARIANCE> 16
 6.961440e-01 8.019117e-01 1.423864e+00 6.586291e-01 7.088047e-01 6.050659e-01 5.388309e-01 6.709083e-01 3.074313e-01 3.916447e-01 5.780313e-01 6.969029e-01 1.231428e+00 9.306185e-01 1.098905e+00 4.032814e-01
<GCONST> 2.319111e+01
<STATE> 8
<MEAN> 16
 6.566029e+00 7.515765e+00 8.666369e+00 9.974370e+00 1.050427e+01 1.064579e+01 1.094497e+01 1.040815e+01 9.590680e+00 9.945632e+00 1.033769e+01 1.052048e+01 1.105435e+01 1.025410e+01 8.679871e+00 8.391816e+00
<VARIANCE> 16
 2.343599e-01 2.441276e-01 5.547209e-01 2.385809e-01 5.011364e-01 2.824197e-01 6.034114e-01 1.075434e+00 3.177311e-01 4.775948e-01 1.363518e+00 1.133821e+00 1.488731e+00 7.574435e-01 2.578155e-01 1.493491e-01
<GCONST> 1.754832e+01
<STATE> 9
<MEAN> 16
 6.088105e+00 6.810040e+00 7.178980e+00 8.301202e+00 8.833539e+00 8.979095e+00 8.965328e+00 8.548916e+00 8.066655e+00 8.203305e+00 8.390848e+00 8.645146e+00 8.990660e+00 8.680059e+00 8.207974e+00 8.202035e+00
<VARIANCE> 16
 3.045242e-01 6.497064e-01 4.873617e-01 6.861702e-01 4.684146e-01 3.748367e-01 4.093413e-01 5.692211e-01 3.089399e-01 3.530029e-01 4.774339e-01 4.562562e-01 3.967926e-01 2.766681e-01 2.584909e-01 1.714095e-01
<GCONST> 1.442827e+01
<TRANSP> 10
 0.000000e+00 1.000000e+00 0.000000e+00 0.000000e+00 0.000000e+00 0.000000e+00 0.000000e+00 0.000000e+00 0.000000e+00 0.000000e+00
 0.000000e+00 7.554160e-01 2.445841e-01 0.000000e+00 0.000000e+00 0.000000e+00 0.000000e+00 0.000000e+00 0.000000e+00 0.000000e+00
 0.000000e+00 0.000000e+00 6.385741e-01 3.614258e-01 0.000000e+00 0.000000e+00 0.000000e+00 0.000000e+00 0.000000e+00 0.000000e+00
 0.000000e+00 0.000000e+00 0.000000e+00 6.275017e-01 3.724984e-01 0.000000e+00 0.000000e+00 0.000000e+00 0.000000e+00 0.000000e+00
 0.000000e+00 0.000000e+00 0.000000e+00 0.000000e+00 8.297052e-01 1.702948e-01 0.000000e+00 0.000000e+00 0.000000e+00 0.000000e+00
 0.000000e+00 0.000000e+00 0.000000e+00 0.000000e+00 0.000000e+00 8.410555e-01 1.589446e-01 0.000000e+00 0.000000e+00 0.000000e+00
 0.000000e+00 0.000000e+00 0.000000e+00 0.000000e+00 0.000000e+00 0.000000e+00 8.385953e-01 1.614047e-01 0.000000e+00 0.000000e+00
 0.000000e+00 0.000000e+00 0.000000e+00 0.000000e+00 0.000000e+00 0.000000e+00 0.000000e+00 9.152555e-01 8.474442e-02 0.000000e+00
 0.000000e+00 0.000000e+00 0.000000e+00 0.000000e+00 0.000000e+00 0.000000e+00 0.000000e+00 0.000000e+00 8.720740e-01 1.279260e-01
 0.000000e+00 0.000000e+00 0.000000e+00 0.000000e+00 0.000000e+00 0.000000e+00 0.000000e+00 0.000000e+00 0.000000e+00 0.000000e+00
<ENDHMM>
~h "devet"
<BEGINHMM>
<NUMSTATES> 10
<STATE> 2
<MEAN> 16
 7.231710e+00 8.203513e+00 8.326006e+00 8.202748e+00 7.404647e+00 7.128034e+00 7.330491e+00 7.807542e+00 8.249123e+00 8.202981e+00 8.453631e+00 8.546930e+00 8.860450e+00 8.871009e+00 8.706375e+00 8.777408e+00
<VARIANCE> 16
 1.246688e+00 1.405535e+00 8.560355e-01 5.459373e-01 1.977681e-01 9.753457e-02 2.252327e-01 3.745460e-01 3.821650e-01 3.265077e-01 4.414353e-01 6.387510e-01 7.368877e-01 8.083416e-01 1.203310e+00 1.250113e+00
<GCONST> 1.932842e+01
<STATE> 3
<MEAN> 16
 6.968531e+00 8.139062e+00 9.004532e+00 9.225233e+00 8.180851e+00 7.798564e+00 8.171030e+00 8.969039e+00 9.559408e+00 9.549321e+00 9.564164e+00 9.806260e+00 1.008066e+01 9.525195e+00 8.790221e+00 8.656177e+00
<VARIANCE> 16
 1.312950e+00 1.212646e+00 4.199812e-01 2.111998e-01 2.620148e-01 3.806382e-01 3.382805e-01 6.612749e-01 9.352259e-01 8.287321e-01 1.356837e+00 1.306536e+00 1.381527e+00 1.184713e+00 5.460389e-01 3.641352e-01
<GCONST> 2.284100e+01
<STATE> 4
<MEAN> 16
 7.029020e+00 8.110027e+00 9.348807e+00 9.722458e+00 9.074273e+00 8.445047e+00 8.730705e+00 9.367472e+00 1.017196e+01 1.024040e+01 1.020699e+01 1.022409e+01 1.055328e+01 9.899844e+00 8.881921e+00 8.527224e+00
<VARIANCE> 16
 5.195185e-01 6.426675e-01 4.779546e-01 5.580320e-01 7.541435e-01 4.788561e-01 2.926075e-01 4.925809e-01 8.075801e-01 8.580974e-01 1.364918e+00 1.405556e+00 1.038621e+00 1.177190e+00 7.148662e-01 5.166531e-01
<GCONST> 2.352168e+01
<STATE> 5
<MEAN> 16
 7.164959e+00 8.330798e+00 9.809674e+00 1.048059e+01 9.996540e+00 9.087193e+00 9.312065e+00 1.006185e+01 1.109792e+01 1.120268e+01 1.136432e+01 1.143180e+01 1.167664e+01 1.101746e+01 9.476346e+00 9.050280e+00
<VARIANCE> 16
 6.746505e-01 9.677168e-01 7.184231e-01 4.832408e-01 6.790195e-01 3.642757e-01 2.960794e-01 3.276388e-01 2.418894e-01 3.707598e-01 1.001079e+00 9.356042e-01 7.279628e-01 1.097658e+00 1.343669e+00 9.923711e-01
<GCONST> 2.177826e+01
<STATE> 6
<MEAN> 16
 9.621120e+00 1.064019e+01 1.187543e+01 1.235593e+01 1.137638e+01 1.093799e+01 1.147281e+01 1.244702e+01 1.276899e+01 1.306714e+01 1.317635e+01 1.346399e+01 1.300078e+01 1.220874e+01 1.156444e+01 1.113683e+01
<VARIANCE> 16
 1.761326e+00 1.450295e+00 1.144258e+00 1.195042e+00 8.250474e-01 8.652323e-01 1.192828e+00 1.407746e+00 9.919847e-01 1.080664e+00 1.436516e+00 1.951177e+00 1.213960e+00 1.210452e+00 2.360842e+00 2.775002e+00
<GCONST> 3.420278e+01
<STATE> 7
<MEAN> 16
 7.380178e+00 8.177952e+00 9.469985e+00 1.018882e+01 9.468093e+00 9.009604e+00 9.337869e+00 9.979140e+00 1.036428e+01 1.043817e+01 1.065220e+01 1.076459e+01 1.086948e+01 1.088465e+01 1.041905e+01 9.856721e+00
<VARIANCE> 16
 8.043671e-01 1.296744e+00 1.361438e+00 1.062377e+00 1.142945e+00 7.742165e-01 6.594179e-01 4.640040e-01 8.909622e-01 1.396548e+00 1.615578e+00 1.224918e+00 1.440383e+00 2.110479e+00 2.058296e+00 1.467269e+00
<GCONST> 3.162891e+01
<STATE> 8
<MEAN> 16
 6.496816e+00 7.526340e+00 8.928228e+00 9.643654e+00 9.510633e+00 8.699917e+00 8.983540e+00 9.719727e+00 1.079187e+01 1.099909e+01 1.129328e+01 1.128874e+01 1.160802e+01 1.091167e+01 8.787598e+00 8.363258e+00
<VARIANCE> 16
 1.695628e-01 2.372515e-01 6.512449e-01 6.190312e-01 1.017015e+00 5.583953e-01 3.002464e-01 3.648598e-01 4.696003e-01 4.925709e-01 5.248137e-01 6.097718e-01 5.976268e-01 7.081005e-01 3.438234e-01 1.296897e-01
<GCONST> 1.593362e+01
<STATE> 9
<MEAN> 16
 6.196834e+00 7.335835e+00 8.676193e+00 8.978863e+00 8.200119e+00 7.730828e+00 8.058556e+00 9.224482e+00 9.632439e+00 9.547797e+00 9.186802e+00 9.544830e+00 9.739202e+00 9.064204e+00 8.407608e+00 8.436935e+00
<VARIANCE> 16
 1.524500e-01 4.316449e-01 7.648032e-01 8.227372e-01 6.348903e-01 3.151116e-01 2.631575e-01 6.107246e-01 6.104371e-01 7.495503e-01 1.114152e+00 1.759920e+00 7.416592e-01 4.191814e-01 2.209995e-01 2.018138e-01
<GCONST> 1.839764e+01
<TRANSP> 10
 0.000000e+00 1.000000e+00 0.000000e+00 0.000000e+00 0.000000e+00 0.000000e+00 0.000000e+00 0.000000e+00 0.000000e+00 0.000000e+00
 0.000000e+00 5.874925e-01 4.125074e-01 0.000000e+00 0.000000e+00 0.000000e+00 0.000000e+00 0.000000e+00 0.000000e+00 0.000000e+00
 0.000000e+00 0.000000e+00 2.924883e-01 7.075117e-01 0.000000e+00 0.000000e+00 0.000000e+00 0.000000e+00 0.000000e+00 0.000000e+00
 0.000000e+00 0.000000e+00 0.000000e+00 4.356624e-01 5.643377e-01 0.000000e+00 0.000000e+00 0.000000e+00 0.000000e+00 0.000000e+00
 0.000000e+00 0.000000e+00 0.000000e+00 0.000000e+00 4.307042e-01 5.692958e-01 0.000000e+00 0.000000e+00 0.000000e+00 0.000000e+00
 0.000000e+00 0.000000e+00 0.000000e+00 0.000000e+00 0.000000e+00 8.484614e-01 1.515386e-01 0.000000e+00 0.000000e+00 0.000000e+00
 0.000000e+00 0.000000e+00 0.000000e+00 0.000000e+00 0.000000e+00 0.000000e+00 8.861800e-01 1.138200e-01 0.000000e+00 0.000000e+00
 0.000000e+00 0.000000e+00 0.000000e+00 0.000000e+00 0.000000e+00 0.000000e+00 0.000000e+00 9.379176e-01 6.208234e-02 0.000000e+00
 0.000000e+00 0.000000e+00 0.000000e+00 0.000000e+00 0.000000e+00 0.000000e+00 0.000000e+00 0.000000e+00 9.122870e-01 8.771302e-02
 0.000000e+00 0.000000e+00 0.000000e+00 0.000000e+00 0.000000e+00 0.000000e+00 0.000000e+00 0.000000e+00 0.000000e+00 0.000000e+00
<ENDHMM>
~h "jedna"
<BEGINHMM>
<NUMSTATES> 10
<STATE> 2
<MEAN> 16
 6.298986e+00 7.370251e+00 7.836384e+00 7.593686e+00 6.992477e+00 6.775752e+00 6.880684e+00 7.323853e+00 8.091770e+00 8.619400e+00 8.686265e+00 8.835938e+00 9.110430e+00 8.679708e+00 8.286216e+00 8.331962e+00
<VARIANCE> 16
 2.021180e-01 3.548338e-01 6.385365e-01 4.657153e-01 2.403875e-01 1.434088e-01 1.096800e-01 3.788593e-01 7.177587e-01 7.314816e-01 8.481331e-01 1.334412e+00 1.002028e+00 5.061458e-01 2.301271e-01 1.842119e-01
<GCONST> 1.464970e+01
<STATE> 3
<MEAN> 16
 6.435475e+00 7.597501e+00 8.284161e+00 8.326591e+00 7.666009e+00 7.387690e+00 7.420845e+00 8.109311e+00 8.852788e+00 9.511136e+00 9.979235e+00 1.007311e+01 1.030763e+01 9.551378e+00 8.253658e+00 8.128689e+00
<VARIANCE> 16
 2.215229e-01 4.262544e-01 7.051316e-01 6.385768e-01 3.078750e-01 3.153409e-01 4.213466e-01 6.388434e-01 1.051485e+00 1.215698e+00 1.239138e+00 1.670455e+00 1.590763e+00 1.221305e+00 2.643594e-01 9.834136e-02
<GCONST> 2.059106e+01
<STATE> 4
<MEAN> 16
 6.820314e+00 8.136094e+00 9.497616e+00 9.322999e+00 8.244913e+00 7.808044e+00 7.989404e+00 8.657941e+00 9.431054e+00 1.032040e+01 1.060720e+01 1.081911e+01 1.088866e+01 9.969237e+00 8.886462e+00 8.588697e+00
<VARIANCE> 16
 5.681972e-01 7.352328e-01 7.406867e-01 5.746719e-01 1.598011e-01 1.062826e-01 2.346251e-01 5.037481e-01 7.098321e-01 7.897326e-01 1.030672e+00 1.323997e+00 1.034762e+00 1.015172e+00 5.804861e-01 1.794122e-01
<GCONST> 1.898747e+01
<STATE> 5
<MEAN> 16
 6.891223e+00 8.092009e+00 9.899039e+00 1.020930e+01 9.698159e+00 8.877367e+00 8.949771e+00 9.482238e+00 1.045248e+01 1.146450e+01 1.157988e+01 1.162387e+01 1.194338e+01 1.115435e+01 9.416788e+00 8.854752e+00
<VARIANCE> 16
 6.830627e-01 8.442943e-01 5.829499e-01 3.226054e-01 7.543365e-01 2.945166e-01 2.645941e-01 3.471896e-01 4.254189e-01 6.792350e-01 8.625506e-01 8.287191e-01 7.627932e-01 8.807031e-01 8.574722e-01 2.428452e-01
<GCONST> 1.974875e+01
<STATE> 6
<MEAN> 16
 9.416353e+00 1.060343e+01 1.134085e+01 1.156974e+01 1.065801e+01 1.047939e+01 1.106608e+01 1.154163e+01 1.191191e+01 1.223340e+01 1.265852e+01 1.277514e+01 1.240884e+01 1.135898e+01 1.069807e+01 1.069761e+01
<VARIANCE> 16
 1.317177e+00 1.354393e+00 1.106201e+00 1.094633e+00 1.586685e+00 2.117006e+00 2.355101e+00 1.511417e+00 1.226069e+00 1.706592e+00 2.011103e+00 2.340691e+00 1.473585e+00 1.510183e+00 2.044104e+00 1.909512e+00
<GCONST> 3.710669e+01
<STATE> 7
<MEAN> 16
 8.179074e+00 9.110058e+00 9.934588e+00 1.042418e+01 9.705444e+00 9.408913e+00 9.623911e+00 1.025005e+01 1.056938e+01 1.003730e+01 1.020842e+01 1.046798e+01 1.031455e+01 1.001324e+01 9.664993e+00 9.113054e+00
<VARIANCE> 16
 5.700349e-01 5.765786e-01 7.352175e-01 5.451854e-01 7.464698e-01 1.282957e+00 1.413788e+00 1.610135e+00 1.024857e+00 7.327299e-01 8.668908e-01 1.464806e+00 1.545746e+00 1.065515e+00 8.778948e-01 3.301361e-01
<GCONST> 2.737142e+01
<STATE> 8
<MEAN> 16
 6.646796e+00 7.682069e+00 8.553025e+00 9.105395e+00 9.412977e+00 9.564830e+00 9.755396e+00 1.032277e+01 1.008232e+01 9.901006e+00 1.032101e+01 1.039241e+01 1.098581e+01 1.020850e+01 8.447563e+00 8.214478e+00
<VARIANCE> 16
 1.796336e-01 3.698075e-01 4.893617e-01 6.054296e-01 1.097776e+00 1.961047e+00 2.441371e+00 2.427587e+00 6.846895e-01 5.044272e-01 8.733386e-01 1.050277e+00 9.510664e-01 8.942840e-01 2.851182e-01 1.130226e-01
<GCONST> 2.327775e+01
<STATE> 9
<MEAN> 16
 6.347307e+00 7.379575e+00 7.916043e+00 8.561967e+00 8.755866e+00 8.591336e+00 8.950185e+00 8.971024e+00 8.691374e+00 8.799276e+00 8.627599e+00 9.035510e+00 9.261949e+00 8.751711e+00 8.140659e+00 8.231032e+00
<VARIANCE> 16
 1.763195e-01 4.309829e-01 6.453019e-01 8.593524e-01 1.482352e+00 1.097828e+00 1.151984e+00 6.476782e-01 4.560906e-01 6.039893e-01 6.135791e-01 8.064419e-01 5.336076e-01 2.747504e-01 1.043516e-01 8.437923e-02
<GCONST> 1.778812e+01
<TRANSP> 10
 0.000000e+00 1.000000e+00 0.000000e+00 0.000000e+00 0.000000e+00 0.000000e+00 0.000000e+00 0.000000e+00 0.000000e+00 0.000000e+00
 0.000000e+00 7.483557e-01 2.516443e-01 0.000000e+00 0.000000e+00 0.000000e+00 0.000000e+00 0.000000e+00 0.000000e+00 0.000000e+00
 0.000000e+00 0.000000e+00 8.000465e-01 1.999535e-01 0.000000e+00 0.000000e+00 0.000000e+00 0.000000e+00 0.000000e+00 0.000000e+00
 0.000000e+00 0.000000e+00 0.000000e+00 2.790345e-01 7.209656e-01 0.000000e+00 0.000000e+00 0.000000e+00 0.000000e+00 0.000000e+00
 0.000000e+00 0.000000e+00 0.000000e+00 0.000000e+00 6.436853e-01 3.563146e-01 0.000000e+00 0.000000e+00 0.000000e+00 0.000000e+00
 0.000000e+00 0.000000e+00 0.000000e+00 0.000000e+00 0.000000e+00 8.688045e-01 1.311955e-01 0.000000e+00 0.000000e+00 0.000000e+00
 0.000000e+00 0.000000e+00 0.000000e+00 0.000000e+00 0.000000e+00 0.000000e+00 8.310188e-01 1.689812e-01 0.000000e+00 0.000000e+00
 0.000000e+00 0.000000e+00 0.000000e+00 0.000000e+00 0.000000e+00 0.000000e+00 0.000000e+00 9.245854e-01 7.541456e-02 0.000000e+00
 0.000000e+00 0.000000e+00 0.000000e+00 0.000000e+00 0.000000e+00 0.000000e+00 0.000000e+00 0.000000e+00 9.340224e-01 6.597760e-02
 0.000000e+00 0.000000e+00 0.000000e+00 0.000000e+00 0.000000e+00 0.000000e+00 0.000000e+00 0.000000e+00 0.000000e+00 0.000000e+00
<ENDHMM>
