~o
<STREAMINFO> 1 32
<VECSIZE> 32<NULLD><FBANK_D><DIAGC>
~h "ctyri"
<BEGINHMM>
<NUMSTATES> 10
<STATE> 2
<MEAN> 32
 5.706582e+00 5.759281e+00 5.957336e+00 6.131092e+00 6.300418e+00 6.497777e+00 6.628599e+00 6.826542e+00 7.209723e+00 7.267900e+00 7.417676e+00 7.703714e+00 7.984354e+00 8.142997e+00 8.096619e+00 8.136745e+00 -7.066531e-04 1.149199e-03 8.799870e-03 1.728622e-02 8.535370e-03 1.835763e-02 2.908505e-02 3.559054e-02 3.275752e-02 8.219632e-02 1.345143e-01 1.860013e-01 1.789646e-01 1.664588e-01 1.123008e-01 5.816254e-02
<VARIANCE> 32
 1.647004e-01 1.400497e-01 1.224413e-01 7.544342e-02 5.644966e-02 4.576028e-02 5.003126e-02 5.098050e-02 8.919956e-02 1.883065e-01 1.647262e-01 2.316859e-01 3.148747e-01 3.631077e-01 2.308050e-01 7.680684e-02 1.066514e-02 1.361779e-02 8.842211e-03 9.288568e-03 6.749941e-03 6.817957e-03 6.263516e-03 7.966452e-03 1.441710e-02 4.000865e-02 6.809963e-02 1.006032e-01 1.127429e-01 1.100407e-01 5.726934e-02 1.311777e-02
<GCONST> -3.728664e+01
<STATE> 3
<MEAN> 32
 5.612025e+00 5.775643e+00 5.990846e+00 6.209596e+00 6.321884e+00 6.514464e+00 6.778476e+00 6.974948e+00 7.412530e+00 7.855289e+00 8.874013e+00 9.854129e+00 1.043172e+01 1.034381e+01 9.705461e+00 9.190842e+00 1.242263e-03 -1.209860e-03 -8.170455e-03 -9.066565e-03 -6.131641e-03 -1.202041e-02 -1.378499e-02 4.835999e-03 2.351057e-02 3.958387e-02 6.806722e-02 5.779966e-02 7.259423e-02 6.335974e-02 4.368514e-02 2.708928e-02
<VARIANCE> 32
 1.189848e-01 7.148150e-02 1.116819e-01 7.985768e-02 6.314676e-02 5.775943e-02 8.483925e-02 7.868794e-02 1.046086e-01 3.612562e-01 8.649700e-01 1.035163e+00 1.353146e+00 1.363406e+00 1.053541e+00 5.824018e-01 1.311942e-02 6.280405e-03 1.011816e-02 8.500892e-03 7.160990e-03 4.862516e-03 8.167068e-03 1.165586e-02 1.983155e-02 6.362226e-02 1.450190e-01 1.876260e-01 2.151328e-01 2.244312e-01 1.775573e-01 1.022268e-01
<GCONST> -2.016893e+01
<STATE> 4
<MEAN> 32
 5.819115e+00 5.914000e+00 6.102155e+00 6.242187e+00 6.356604e+00 6.561055e+00 6.768683e+00 7.249232e+00 8.034772e+00 8.698976e+00 9.231327e+00 9.877952e+00 1.023624e+01 1.012494e+01 9.663609e+00 9.036266e+00 -2.375310e-03 -7.599321e-03 -3.854492e-03 -8.995172e-04 2.672689e-03 -2.017716e-03 -6.035855e-03 -1.293856e-02 -1.947564e-02 -5.144344e-02 -7.185525e-02 -6.784923e-02 -5.295816e-02 -5.524103e-02 -5.916511e-02 -4.447538e-02
<VARIANCE> 32
 1.848432e-01 1.021726e-01 1.361793e-01 9.949450e-02 6.446193e-02 8.102139e-02 7.563566e-02 2.593446e-01 7.661223e-01 1.659140e+00 1.947358e+00 2.037926e+00 1.652616e+00 1.660454e+00 1.446240e+00 7.591540e-01 1.511405e-02 1.040620e-02 1.580085e-02 1.186186e-02 7.759840e-03 7.066998e-03 7.005854e-03 2.630002e-02 7.084601e-02 1.130694e-01 1.016197e-01 1.073231e-01 1.086643e-01 1.108509e-01 1.062682e-01 7.012741e-02
<GCONST> -1.033733e+01
<STATE> 5
<MEAN> 32
 5.699195e+00 5.746299e+00 6.057558e+00 6.237012e+00 6.421496e+00 6.587821e+00 6.777980e+00 7.062234e+00 7.498724e+00 7.612990e+00 8.006789e+00 8.456676e+00 8.876250e+00 8.775700e+00 8.347094e+00 8.238392e+00 4.173137e-02 1.845615e-01 3.060276e-01 3.111011e-01 1.989415e-01 1.592988e-01 2.040884e-01 2.948153e-01 3.892885e-01 4.248026e-01 3.601542e-01 3.219744e-01 3.199359e-01 2.677193e-01 1.359352e-01 1.025525e-01
<VARIANCE> 32
 1.171150e-01 1.456086e-01 1.982870e-01 1.729938e-01 8.324110e-02 9.476779e-02 9.885343e-02 1.412982e-01 1.893275e-01 3.675065e-01 3.998883e-01 3.591661e-01 3.713190e-01 3.503626e-01 1.396162e-01 1.029579e-01 1.716336e-02 4.784851e-02 5.980932e-02 4.752726e-02 1.577221e-02 1.312638e-02 1.964908e-02 2.099941e-02 3.754266e-02 4.752154e-02 7.130407e-02 5.399867e-02 5.962093e-02 5.555505e-02 3.158896e-02 1.953746e-02
<GCONST> -2.286516e+01
<STATE> 6
<MEAN> 32
 5.570431e+00 6.049333e+00 6.897893e+00 7.335414e+00 6.934537e+00 7.094325e+00 7.396663e+00 7.745014e+00 8.365412e+00 8.878796e+00 9.622931e+00 9.973987e+00 1.053277e+01 1.051353e+01 1.026604e+01 1.024515e+01 5.037370e-02 1.795545e-01 1.981131e-01 1.767907e-01 1.082032e-01 8.247070e-02 1.101880e-01 1.361834e-01 1.722052e-01 1.532686e-01 1.059878e-01 1.231238e-01 1.384426e-01 1.231581e-01 6.773826e-02 4.445382e-02
<VARIANCE> 32
 2.540332e-01 2.326043e-01 5.417247e-01 8.348023e-01 2.357338e-01 1.675680e-01 2.617665e-01 4.304038e-01 9.147221e-01 1.343718e+00 2.153996e+00 2.053779e+00 1.946098e+00 2.051474e+00 2.187631e+00 2.218612e+00 3.768546e-02 9.731609e-02 1.864744e-01 1.966985e-01 6.721669e-02 4.420302e-02 6.065495e-02 9.512540e-02 1.931191e-01 2.343539e-01 2.596844e-01 2.581683e-01 2.607337e-01 2.312956e-01 1.909764e-01 1.477403e-01
<GCONST> 2.237070e+01
<STATE> 7
<MEAN> 32
 6.360319e+00 7.962227e+00 8.896972e+00 9.021091e+00 7.932384e+00 7.820013e+00 8.160279e+00 8.772435e+00 9.949967e+00 1.015530e+01 1.020107e+01 1.052138e+01 1.083090e+01 1.050216e+01 9.535882e+00 9.095470e+00 3.009663e-01 5.896403e-01 8.118561e-01 7.904102e-01 3.727461e-01 3.228323e-01 2.962655e-01 3.541182e-01 5.976398e-01 6.427829e-01 5.730952e-01 4.718931e-01 4.237662e-01 2.957459e-01 1.645511e-01 7.318638e-02
<VARIANCE> 32
 4.396895e-01 1.080234e+00 1.219776e+00 1.178597e+00 4.361332e-01 5.908262e-01 5.231835e-01 3.254704e-01 6.030337e-01 6.532736e-01 9.944037e-01 9.854717e-01 1.498443e+00 1.541067e+00 1.307357e+00 9.893572e-01 5.392166e-02 9.642983e-02 1.064136e-01 9.711473e-02 4.016040e-02 4.570783e-02 3.274085e-02 3.318580e-02 5.645452e-02 5.384764e-02 6.333820e-02 6.474006e-02 8.242249e-02 9.319564e-02 5.912985e-02 3.560629e-02
<GCONST> 1.016529e+01
<STATE> 8
<MEAN> 32
 6.788571e+00 8.020734e+00 9.463157e+00 9.622558e+00 8.461604e+00 8.200373e+00 8.363256e+00 9.030689e+00 1.028695e+01 1.071897e+01 1.092142e+01 1.113361e+01 1.167898e+01 1.126777e+01 1.009629e+01 9.296514e+00 -7.413488e-03 -2.415041e-02 -6.963258e-03 -1.159643e-02 3.253328e-03 -7.012520e-03 -1.258680e-02 -5.232473e-03 -1.507598e-02 -5.356230e-03 -1.277898e-02 -2.084835e-02 -1.872781e-02 -1.573458e-02 -1.862516e-02 -1.908639e-02
<VARIANCE> 32
 7.471662e-01 9.302906e-01 1.800860e+00 1.350363e+00 1.004601e+00 7.247387e-01 5.832538e-01 4.672440e-01 6.131663e-01 6.741440e-01 5.951393e-01 6.058770e-01 6.006603e-01 7.977601e-01 1.530432e+00 1.279261e+00 1.495222e-02 3.705855e-02 7.843114e-02 8.183875e-02 5.202880e-02 3.437680e-02 3.095762e-02 3.997062e-02 4.257830e-02 4.679339e-02 3.532997e-02 4.366277e-02 5.164971e-02 5.872441e-02 8.411412e-02 5.491300e-02
<GCONST> 6.316032e+00
<STATE> 9
<MEAN> 32
 6.474459e+00 7.846708e+00 9.187083e+00 8.940580e+00 7.815285e+00 7.479892e+00 7.696745e+00 8.564228e+00 9.748940e+00 1.025616e+01 9.720678e+00 9.736641e+00 1.014116e+01 9.589182e+00 8.586221e+00 8.448037e+00 -2.272466e-02 -4.732018e-02 -9.693856e-02 -1.032679e-01 -6.192979e-02 -5.027806e-02 -5.865822e-02 -9.025341e-02 -1.069770e-01 -1.065798e-01 -9.503533e-02 -9.304073e-02 -8.302769e-02 -7.765964e-02 -4.501136e-02 -1.483620e-02
<VARIANCE> 32
 2.096562e-01 2.606630e-01 4.929228e-01 4.163767e-01 3.594113e-01 2.339888e-01 1.576167e-01 4.835482e-01 7.708232e-01 4.963002e-01 1.369980e+00 1.387943e+00 1.547929e+00 1.151949e+00 2.043142e-01 1.583231e-01 7.960625e-03 1.392073e-02 2.562739e-02 2.828676e-02 1.695960e-02 1.376024e-02 9.146687e-03 1.318492e-02 2.366556e-02 3.349992e-02 2.697306e-02 2.466358e-02 2.733834e-02 2.391229e-02 8.651142e-03 3.587832e-03
<GCONST> -1.979077e+01
<TRANSP> 10
 0.000000e+00 1.000000e+00 0.000000e+00 0.000000e+00 0.000000e+00 0.000000e+00 0.000000e+00 0.000000e+00 0.000000e+00 0.000000e+00
 0.000000e+00 8.173575e-01 1.826425e-01 0.000000e+00 0.000000e+00 0.000000e+00 0.000000e+00 0.000000e+00 0.000000e+00 0.000000e+00
 0.000000e+00 0.000000e+00 8.012524e-01 1.987477e-01 0.000000e+00 0.000000e+00 0.000000e+00 0.000000e+00 0.000000e+00 0.000000e+00
 0.000000e+00 0.000000e+00 0.000000e+00 8.367664e-01 1.632337e-01 0.000000e+00 0.000000e+00 0.000000e+00 0.000000e+00 0.000000e+00
 0.000000e+00 0.000000e+00 0.000000e+00 0.000000e+00 5.225831e-01 4.774169e-01 0.000000e+00 0.000000e+00 0.000000e+00 0.000000e+00
 0.000000e+00 0.000000e+00 0.000000e+00 0.000000e+00 0.000000e+00 7.411909e-01 2.588091e-01 0.000000e+00 0.000000e+00 0.000000e+00
 0.000000e+00 0.000000e+00 0.000000e+00 0.000000e+00 0.000000e+00 0.000000e+00 6.423038e-01 3.576963e-01 0.000000e+00 0.000000e+00
 0.000000e+00 0.000000e+00 0.000000e+00 0.000000e+00 0.000000e+00 0.000000e+00 0.000000e+00 9.536735e-01 4.632645e-02 0.000000e+00
 0.000000e+00 0.000000e+00 0.000000e+00 0.000000e+00 0.000000e+00 0.000000e+00 0.000000e+00 0.000000e+00 9.437771e-01 5.622295e-02
 0.000000e+00 0.000000e+00 0.000000e+00 0.000000e+00 0.000000e+00 0.000000e+00 0.000000e+00 0.000000e+00 0.000000e+00 0.000000e+00
<ENDHMM>
~h "sedm"
<BEGINHMM>
<NUMSTATES> 10
<STATE> 2
<MEAN> 32
 5.621899e+00 5.777427e+00 5.980515e+00 6.149768e+00 6.272472e+00 6.514879e+00 6.651094e+00 6.901828e+00 7.273429e+00 7.296040e+00 7.458144e+00 7.792109e+00 8.539710e+00 8.807386e+00 9.060547e+00 8.990169e+00 4.230732e-03 5.404679e-03 6.060327e-03 1.554816e-02 4.998657e-03 3.428724e-03 1.046914e-02 4.134827e-02 4.169306e-02 6.278673e-02 6.947084e-02 1.091704e-01 2.045676e-01 2.375508e-01 2.516881e-01 2.316454e-01
<VARIANCE> 32
 1.184737e-01 7.239753e-02 8.983607e-02 8.345449e-02 6.072070e-02 4.487809e-02 4.181985e-02 5.344886e-02 4.987110e-02 4.210624e-02 6.716091e-02 8.680445e-02 3.441525e-01 4.642408e-01 6.255474e-01 5.913376e-01 1.331526e-02 7.764101e-03 1.227668e-02 9.866320e-03 7.694859e-03 4.432824e-03 4.726820e-03 6.539739e-03 7.028361e-03 6.818042e-03 7.691197e-03 8.476947e-03 2.325210e-02 2.840961e-02 3.329350e-02 2.059937e-02
<GCONST> -5.004505e+01
<STATE> 3
<MEAN> 32
 5.643250e+00 5.758202e+00 5.988869e+00 6.273720e+00 6.385238e+00 6.550234e+00 6.779627e+00 7.224014e+00 7.602154e+00 7.662666e+00 7.963239e+00 8.503301e+00 9.393095e+00 9.680270e+00 9.939271e+00 9.852698e+00 5.697650e-03 -1.449200e-02 4.425879e-03 3.812841e-02 3.130849e-02 2.639953e-02 4.392082e-02 7.867166e-02 7.798429e-02 9.277016e-02 9.906739e-02 1.351064e-01 1.848863e-01 2.130235e-01 1.709875e-01 1.548336e-01
<VARIANCE> 32
 1.712296e-01 9.936696e-02 1.045726e-01 1.333706e-01 7.189325e-02 6.495112e-02 7.842889e-02 6.122716e-02 5.990323e-02 5.010890e-02 1.746593e-01 1.411962e-01 4.587009e-01 4.579312e-01 6.914663e-01 6.922551e-01 1.422284e-02 6.088425e-03 9.543734e-03 1.526421e-02 1.045746e-02 6.806729e-03 7.681062e-03 1.600624e-02 1.481495e-02 1.570383e-02 2.005796e-02 2.133461e-02 5.795407e-02 7.431236e-02 7.667697e-02 5.914285e-02
<GCONST> -3.575628e+01
<STATE> 4
<MEAN> 32
 5.804875e+00 5.849183e+00 6.102088e+00 6.506160e+00 6.594368e+00 6.940466e+00 7.218425e+00 7.760617e+00 8.306534e+00 8.340680e+00 8.609346e+00 9.259505e+00 1.038612e+01 1.081204e+01 1.044353e+01 1.015511e+01 3.058073e-02 3.937982e-02 6.788740e-02 6.554136e-02 3.921477e-02 6.394386e-02 7.719257e-02 9.588746e-02 1.013062e-01 1.160771e-01 1.321879e-01 1.303910e-01 1.198651e-01 1.479362e-01 1.594376e-01 1.329528e-01
<VARIANCE> 32
 2.673640e-01 1.152484e-01 1.957637e-01 3.233670e-01 1.141788e-01 1.122790e-01 1.378870e-01 1.923636e-01 2.748299e-01 2.236226e-01 2.762456e-01 3.797958e-01 6.346428e-01 5.618771e-01 4.443215e-01 3.556474e-01 3.567823e-02 1.956176e-02 1.993890e-02 1.966219e-02 8.032041e-03 7.427597e-03 1.031792e-02 1.497936e-02 1.234691e-02 1.223078e-02 1.519944e-02 1.918088e-02 3.993090e-02 6.797137e-02 8.903892e-02 7.867019e-02
<GCONST> -2.475648e+01
<STATE> 5
<MEAN> 32
 5.615410e+00 5.926367e+00 6.575253e+00 7.185752e+00 6.980720e+00 7.324686e+00 7.706269e+00 8.192549e+00 8.688849e+00 8.784275e+00 9.124950e+00 9.682483e+00 1.048852e+01 1.132972e+01 1.156368e+01 1.140009e+01 3.230185e-02 1.074866e-01 1.471257e-01 1.596687e-01 1.351285e-01 9.294616e-02 1.136267e-01 1.374092e-01 1.308273e-01 9.606069e-02 1.053973e-01 8.776936e-02 4.568574e-02 -1.426957e-03 -4.739562e-02 -4.899047e-02
<VARIANCE> 32
 1.921239e-01 1.005986e-01 3.786557e-01 5.648163e-01 1.609516e-01 2.333764e-01 3.156314e-01 3.161486e-01 4.797990e-01 4.098485e-01 4.846132e-01 5.858467e-01 6.348401e-01 8.829557e-01 1.533116e+00 1.488919e+00 2.299718e-02 4.244731e-02 9.090070e-02 9.152070e-02 2.833982e-02 1.761538e-02 2.399316e-02 3.676788e-02 2.234988e-02 2.306066e-02 2.532339e-02 3.212082e-02 4.140669e-02 4.568368e-02 6.236481e-02 7.452301e-02
<GCONST> -7.585203e+00
<STATE> 6
<MEAN> 32
 6.172632e+00 7.134483e+00 7.931184e+00 8.404218e+00 7.977210e+00 7.773436e+00 8.180320e+00 9.012655e+00 9.108101e+00 8.943887e+00 9.286221e+00 9.530531e+00 1.004810e+01 1.007701e+01 9.695494e+00 9.532372e+00 2.617742e-01 6.005906e-01 8.434396e-01 9.566729e-01 7.615839e-01 5.648631e-01 5.981927e-01 7.613825e-01 5.979561e-01 4.786270e-01 4.870895e-01 3.706519e-01 1.975043e-01 1.625979e-02 -2.418234e-01 -2.903966e-01
<VARIANCE> 32
 3.956508e-01 1.168175e+00 1.640955e+00 2.043316e+00 1.261456e+00 9.300458e-01 1.005731e+00 1.410494e+00 1.040962e+00 7.604375e-01 1.259140e+00 9.930466e-01 6.741920e-01 9.383494e-01 1.413554e+00 1.275849e+00 5.331359e-02 5.983547e-02 7.194820e-02 4.073380e-02 5.375741e-02 4.556767e-02 4.108376e-02 5.751521e-02 8.031785e-02 5.299087e-02 7.449787e-02 8.337642e-02 1.089401e-01 9.845951e-02 4.162241e-02 3.347128e-02
<GCONST> 1.458918e+01
<STATE> 7
<MEAN> 32
 7.024261e+00 8.256614e+00 9.741616e+00 1.075921e+01 1.059655e+01 9.728603e+00 1.000904e+01 1.102161e+01 1.154436e+01 1.103963e+01 1.158358e+01 1.159720e+01 1.188352e+01 1.153468e+01 1.008232e+01 9.363873e+00 2.509783e-02 1.219893e-02 4.987711e-02 3.927842e-02 3.872916e-02 1.887908e-02 1.944553e-02 2.448098e-02 7.063655e-02 8.481236e-02 8.556088e-02 8.081581e-02 4.977780e-02 -1.613751e-03 -3.951150e-02 -6.382830e-02
<VARIANCE> 32
 7.385497e-01 9.838201e-01 1.094096e+00 4.720640e-01 9.047400e-01 5.078878e-01 3.141866e-01 2.773016e-01 5.460171e-01 3.450629e-01 5.152364e-01 5.009611e-01 6.458029e-01 8.490034e-01 1.322107e+00 5.733142e-01 1.451564e-02 2.442661e-02 6.089871e-02 7.818656e-02 1.362457e-01 7.569520e-02 7.419550e-02 8.480581e-02 1.009229e-01 9.283350e-02 9.142905e-02 9.326167e-02 9.238318e-02 9.170038e-02 5.025485e-02 2.375221e-02
<GCONST> 6.841182e+00
<STATE> 8
<MEAN> 32
 7.358469e+00 8.479928e+00 9.308871e+00 9.350424e+00 8.651982e+00 8.237520e+00 8.788838e+00 9.443448e+00 9.476269e+00 9.352988e+00 9.614141e+00 9.492318e+00 9.499002e+00 9.213447e+00 8.854535e+00 8.648145e+00 2.464263e-03 1.048509e-03 -1.059281e-01 -1.543157e-01 -1.389750e-01 -1.053341e-01 -1.185300e-01 -1.559748e-01 -1.655647e-01 -1.463579e-01 -1.571250e-01 -1.695141e-01 -1.632339e-01 -1.447426e-01 -9.619302e-02 -5.833289e-02
<VARIANCE> 32
 8.579265e-01 7.456010e-01 8.218809e-01 5.756011e-01 5.463503e-01 4.713823e-01 6.032533e-01 5.067090e-01 6.101551e-01 6.308675e-01 1.067769e+00 1.053173e+00 9.634099e-01 6.727609e-01 4.379890e-01 2.718263e-01 8.329418e-03 2.129553e-02 7.354361e-02 6.063035e-02 5.279551e-02 6.411928e-02 7.460107e-02 8.171228e-02 7.593402e-02 8.587522e-02 7.191413e-02 7.697912e-02 6.813377e-02 6.353655e-02 2.890215e-02 1.739752e-02
<GCONST> 3.570342e+00
<STATE> 9
<MEAN> 32
 6.624659e+00 8.108665e+00 8.717125e+00 8.727180e+00 8.114254e+00 8.107982e+00 8.403863e+00 8.663888e+00 8.817247e+00 8.935554e+00 8.936896e+00 9.351668e+00 9.736036e+00 9.109233e+00 8.130614e+00 8.100490e+00 -9.385945e-03 -7.973881e-03 -2.603516e-02 -3.853631e-02 -3.004200e-02 -1.491126e-02 -2.144187e-02 -4.411276e-02 -4.372647e-02 -3.604101e-02 -4.939359e-02 -2.925714e-02 -1.797432e-02 -1.437464e-02 -9.046749e-03 -3.167294e-03
<VARIANCE> 32
 2.749022e-01 2.082117e-01 4.327405e-01 3.564337e-01 3.396525e-01 4.124311e-01 5.183650e-01 6.258814e-01 6.377336e-01 6.352022e-01 7.806483e-01 1.227719e+00 1.214910e+00 4.844338e-01 8.165029e-02 5.810456e-02 5.692092e-03 9.101184e-03 2.336531e-02 1.819699e-02 1.159348e-02 1.344920e-02 2.296488e-02 2.081362e-02 1.711252e-02 1.928967e-02 1.638637e-02 1.982889e-02 2.129605e-02 1.519750e-02 3.786255e-03 1.760534e-03
<GCONST> -2.588147e+01
<TRANSP> 10
 0.000000e+00 1.000000e+00 0.000000e+00 0.000000e+00 0.000000e+00 0.000000e+00 0.000000e+00 0.000000e+00 0.000000e+00 0.000000e+00
 0.000000e+00 8.078887e-01 1.921113e-01 0.000000e+00 0.000000e+00 0.000000e+00 0.000000e+00 0.000000e+00 0.000000e+00 0.000000e+00
 0.000000e+00 0.000000e+00 7.013639e-01 2.986361e-01 0.000000e+00 0.000000e+00 0.000000e+00 0.000000e+00 0.000000e+00 0.000000e+00
 0.000000e+00 0.000000e+00 0.000000e+00 6.596898e-01 3.403102e-01 0.000000e+00 0.000000e+00 0.000000e+00 0.000000e+00 0.000000e+00
 0.000000e+00 0.000000e+00 0.000000e+00 0.000000e+00 7.004663e-01 2.995337e-01 0.000000e+00 0.000000e+00 0.000000e+00 0.000000e+00
 0.000000e+00 0.000000e+00 0.000000e+00 0.000000e+00 0.000000e+00 6.498541e-01 3.501458e-01 0.000000e+00 0.000000e+00 0.000000e+00
 0.000000e+00 0.000000e+00 0.000000e+00 0.000000e+00 0.000000e+00 0.000000e+00 8.522290e-01 1.477710e-01 0.000000e+00 0.000000e+00
 0.000000e+00 0.000000e+00 0.000000e+00 0.000000e+00 0.000000e+00 0.000000e+00 0.000000e+00 8.946257e-01 1.053744e-01 0.000000e+00
 0.000000e+00 0.000000e+00 0.000000e+00 0.000000e+00 0.000000e+00 0.000000e+00 0.000000e+00 0.000000e+00 9.628581e-01 3.714186e-02
 0.000000e+00 0.000000e+00 0.000000e+00 0.000000e+00 0.000000e+00 0.000000e+00 0.000000e+00 0.000000e+00 0.000000e+00 0.000000e+00
<ENDHMM>
~h "sest"
<BEGINHMM>
<NUMSTATES> 10
<STATE> 2
<MEAN> 32
 5.534082e+00 5.736698e+00 5.929742e+00 6.105115e+00 6.286788e+00 6.521865e+00 6.592047e+00 6.824079e+00 7.208678e+00 7.188749e+00 7.378576e+00 7.750507e+00 8.055123e+00 8.067589e+00 8.005238e+00 8.132750e+00 4.545879e-03 -8.370366e-03 -6.176971e-03 5.351122e-03 1.334297e-02 1.012302e-02 2.300255e-02 6.167986e-02 1.314148e-01 2.316513e-01 3.102541e-01 4.011782e-01 4.118409e-01 4.090764e-01 2.545074e-01 7.332021e-02
<VARIANCE> 32
 1.526092e-01 1.527015e-01 7.785206e-02 7.528639e-02 6.519601e-02 7.456231e-02 7.785556e-02 3.453210e-02 4.331163e-02 6.236605e-02 1.207607e-01 2.289239e-01 3.837748e-01 3.327414e-01 1.158770e-01 8.593060e-02 6.181147e-03 1.422784e-02 1.096435e-02 9.703847e-03 6.024898e-03 5.582219e-03 6.070854e-03 4.859015e-03 1.182748e-02 1.857833e-02 2.586043e-02 3.157768e-02 3.414417e-02 4.622628e-02 3.219002e-02 4.755733e-03
<GCONST> -4.748929e+01
<STATE> 3
<MEAN> 32
 5.556365e+00 5.683456e+00 5.955088e+00 6.222832e+00 6.410193e+00 6.564724e+00 6.701773e+00 7.061746e+00 7.703610e+00 8.066215e+00 8.407726e+00 8.819899e+00 9.012837e+00 9.082074e+00 8.766930e+00 8.319089e+00 5.212300e-02 1.181749e-02 3.454246e-02 8.214773e-02 4.644267e-02 -1.812717e-02 2.041766e-02 1.260349e-01 3.029379e-01 4.861611e-01 5.681506e-01 6.353537e-01 6.315252e-01 6.039352e-01 5.016579e-01 2.328706e-01
<VARIANCE> 32
 1.536231e-01 1.117310e-01 1.263499e-01 1.501236e-01 8.466310e-02 7.529203e-02 4.910054e-02 6.546664e-02 1.397328e-01 2.529059e-01 3.109491e-01 4.251887e-01 4.379314e-01 5.133878e-01 3.684645e-01 1.008543e-01 1.223712e-02 1.242277e-02 9.575631e-03 1.813577e-02 7.592997e-03 6.695809e-03 5.427518e-03 9.541611e-03 2.206301e-02 2.443348e-02 2.420440e-02 3.374260e-02 4.315671e-02 3.677990e-02 2.247332e-02 1.305334e-02
<GCONST> -3.658522e+01
<STATE> 4
<MEAN> 32
 5.638117e+00 5.742683e+00 6.002570e+00 6.295008e+00 6.408235e+00 6.516906e+00 6.734336e+00 7.305138e+00 8.199227e+00 8.922195e+00 9.447166e+00 1.002320e+01 1.024667e+01 1.025560e+01 9.795098e+00 9.059676e+00 3.018726e-02 3.178954e-02 4.578830e-02 5.127275e-02 3.061910e-02 3.520600e-02 5.329551e-02 1.226504e-01 1.903472e-01 3.382519e-01 3.963524e-01 4.260164e-01 4.311145e-01 3.950260e-01 3.686728e-01 3.121895e-01
<VARIANCE> 32
 1.841094e-01 1.084642e-01 1.276266e-01 3.409496e-01 1.064637e-01 9.055682e-02 8.934348e-02 1.433801e-01 3.901181e-01 5.760053e-01 4.184783e-01 3.732072e-01 3.302715e-01 3.191169e-01 2.682822e-01 2.348123e-01 1.124312e-02 1.018398e-02 1.021969e-02 1.377777e-02 8.070591e-03 7.386174e-03 9.897469e-03 1.511526e-02 2.341617e-02 3.081346e-02 4.363601e-02 5.069887e-02 5.619272e-02 5.611620e-02 6.455354e-02 3.326309e-02
<GCONST> -2.732884e+01
<STATE> 5
<MEAN> 32
 5.763494e+00 5.877684e+00 6.080149e+00 6.314575e+00 6.412011e+00 6.636065e+00 6.937255e+00 7.663626e+00 8.622971e+00 9.478552e+00 1.016196e+01 1.097767e+01 1.134114e+01 1.126292e+01 1.074041e+01 9.872458e+00 7.754686e-03 1.094480e-02 3.239915e-02 3.649338e-02 2.614344e-02 3.711014e-02 4.716860e-02 9.813474e-02 1.042504e-01 8.711888e-02 1.110071e-01 1.011635e-01 1.102792e-01 9.589501e-02 9.521309e-02 1.259564e-01
<VARIANCE> 32
 7.847819e-02 8.193778e-02 1.070143e-01 1.196576e-01 8.356901e-02 1.061130e-01 1.252470e-01 2.078180e-01 5.028681e-01 5.654672e-01 2.398412e-01 3.499548e-01 3.765688e-01 3.712547e-01 2.720819e-01 2.748230e-01 1.036058e-02 1.040058e-02 1.209561e-02 1.424737e-02 9.740788e-03 7.147531e-03 7.287177e-03 8.798853e-03 1.156154e-02 1.865762e-02 2.648644e-02 3.703002e-02 3.430500e-02 3.896803e-02 4.400847e-02 3.636077e-02
<GCONST> -3.271531e+01
<STATE> 6
<MEAN> 32
 5.716638e+00 5.997376e+00 7.009601e+00 7.499759e+00 7.082266e+00 7.292199e+00 7.565835e+00 8.259762e+00 9.414332e+00 1.029656e+01 1.116841e+01 1.145675e+01 1.175833e+01 1.161930e+01 1.146916e+01 1.112456e+01 7.340308e-02 1.878247e-01 2.349559e-01 2.271229e-01 1.462085e-01 1.132447e-01 9.382576e-02 9.676804e-02 6.507455e-02 -1.268077e-02 -4.941435e-02 -9.180339e-02 -1.154679e-01 -1.504024e-01 -1.697787e-01 -1.252820e-01
<VARIANCE> 32
 1.611604e-01 1.541832e-01 7.170489e-01 1.305984e+00 4.256538e-01 4.023235e-01 4.053094e-01 3.315053e-01 5.402701e-01 8.105947e-01 1.229729e+00 1.111056e+00 1.317355e+00 1.445121e+00 2.129691e+00 2.446242e+00 2.955372e-02 6.332935e-02 6.653912e-02 7.397953e-02 3.461491e-02 1.886002e-02 1.643267e-02 2.614876e-02 3.588053e-02 3.804700e-02 5.701782e-02 7.533562e-02 8.534019e-02 9.798037e-02 1.131875e-01 1.041704e-01
<GCONST> 5.107662e+00
<STATE> 7
<MEAN> 32
 6.544484e+00 7.833044e+00 8.813675e+00 9.390681e+00 8.968826e+00 8.461185e+00 8.591242e+00 9.534348e+00 1.028852e+01 1.039046e+01 1.066781e+01 1.083953e+01 1.096545e+01 1.050609e+01 9.622675e+00 9.143629e+00 1.708643e-01 3.456028e-01 5.460505e-01 6.663405e-01 6.571775e-01 4.688917e-01 4.699008e-01 5.405612e-01 4.751288e-01 3.461431e-01 2.374480e-01 1.587629e-01 1.294238e-01 3.005609e-02 -1.239003e-01 -1.586648e-01
<VARIANCE> 32
 6.616151e-01 1.415241e+00 2.013838e+00 2.331238e+00 2.461862e+00 1.318649e+00 1.187738e+00 1.374898e+00 1.437060e+00 1.291097e+00 1.193105e+00 1.001201e+00 9.566276e-01 1.082613e+00 1.294749e+00 8.926381e-01 3.914673e-02 1.258851e-01 1.346786e-01 1.508582e-01 8.897467e-02 4.504844e-02 3.163544e-02 5.520881e-02 6.523232e-02 4.941985e-02 4.981020e-02 4.973419e-02 5.590458e-02 6.113350e-02 5.226757e-02 2.464942e-02
<GCONST> 1.778671e+01
<STATE> 8
<MEAN> 32
 6.668411e+00 7.757493e+00 9.122732e+00 1.007056e+01 9.952751e+00 9.337834e+00 9.454914e+00 1.043130e+01 1.082825e+01 1.057574e+01 1.074640e+01 1.080008e+01 1.110219e+01 1.069125e+01 9.593961e+00 9.048171e+00 -3.342513e-02 -6.852677e-02 -9.463066e-02 -9.960526e-02 -8.976766e-02 -6.844285e-02 -7.227458e-02 -9.796503e-02 -1.122952e-01 -1.110199e-01 -9.836008e-02 -8.613446e-02 -6.364918e-02 -1.519353e-02 3.987679e-02 5.058217e-02
<VARIANCE> 32
 5.356666e-01 7.599677e-01 7.117160e-01 7.679688e-01 1.586009e+00 1.283996e+00 7.569715e-01 7.197686e-01 1.248631e+00 1.112237e+00 1.834132e+00 1.467142e+00 1.446281e+00 1.610183e+00 1.422865e+00 8.547394e-01 1.445944e-02 2.069487e-02 3.267126e-02 3.678576e-02 4.559520e-02 3.347196e-02 2.999416e-02 3.847952e-02 3.260452e-02 2.654867e-02 2.738013e-02 2.475706e-02 2.865169e-02 3.178671e-02 2.937635e-02 2.712446e-02
<GCONST> 3.200202e+00
<STATE> 9
<MEAN> 32
 5.649101e+00 5.929953e+00 6.528899e+00 7.178070e+00 7.194853e+00 7.097060e+00 7.282304e+00 7.843030e+00 8.187626e+00 8.168984e+00 8.549903e+00 9.070365e+00 9.908528e+00 1.051929e+01 1.064263e+01 1.040348e+01 -2.994416e-02 -5.371239e-02 -9.036463e-02 -1.086292e-01 -9.583350e-02 -7.329530e-02 -7.304765e-02 -9.591457e-02 -8.962058e-02 -9.208377e-02 -9.453990e-02 -9.114818e-02 -8.853894e-02 -8.667608e-02 -7.881468e-02 -6.069107e-02
<VARIANCE> 32
 1.466247e-01 1.536846e-01 3.507929e-01 5.649499e-01 4.569295e-01 3.420575e-01 2.971709e-01 3.304100e-01 4.431207e-01 4.016094e-01 4.068263e-01 4.492501e-01 6.627288e-01 9.716973e-01 1.264830e+00 1.242682e+00 1.305476e-02 1.684484e-02 2.067101e-02 2.483783e-02 1.603294e-02 1.228998e-02 1.093889e-02 1.777590e-02 1.362109e-02 1.264657e-02 1.370406e-02 1.545379e-02 2.886970e-02 5.222043e-02 6.053386e-02 5.367011e-02
<GCONST> -1.661704e+01
<TRANSP> 10
 0.000000e+00 1.000000e+00 0.000000e+00 0.000000e+00 0.000000e+00 0.000000e+00 0.000000e+00 0.000000e+00 0.000000e+00 0.000000e+00
 0.000000e+00 4.957924e-01 5.042076e-01 0.000000e+00 0.000000e+00 0.000000e+00 0.000000e+00 0.000000e+00 0.000000e+00 0.000000e+00
 0.000000e+00 0.000000e+00 3.854220e-01 6.145779e-01 0.000000e+00 0.000000e+00 0.000000e+00 0.000000e+00 0.000000e+00 0.000000e+00
 0.000000e+00 0.000000e+00 0.000000e+00 6.010502e-01 3.989498e-01 0.000000e+00 0.000000e+00 0.000000e+00 0.000000e+00 0.000000e+00
 0.000000e+00 0.000000e+00 0.000000e+00 0.000000e+00 7.917526e-01 2.082474e-01 0.000000e+00 0.000000e+00 0.000000e+00 0.000000e+00
 0.000000e+00 0.000000e+00 0.000000e+00 0.000000e+00 0.000000e+00 7.336163e-01 2.663837e-01 0.000000e+00 0.000000e+00 0.000000e+00
 0.000000e+00 0.000000e+00 0.000000e+00 0.000000e+00 0.000000e+00 0.000000e+00 7.670199e-01 2.329802e-01 0.000000e+00 0.000000e+00
 0.000000e+00 0.000000e+00 0.000000e+00 0.000000e+00 0.000000e+00 0.000000e+00 0.000000e+00 9.497505e-01 5.024949e-02 0.000000e+00
 0.000000e+00 0.000000e+00 0.000000e+00 0.000000e+00 0.000000e+00 0.000000e+00 0.000000e+00 0.000000e+00 9.428757e-01 5.712430e-02
 0.000000e+00 0.000000e+00 0.000000e+00 0.000000e+00 0.000000e+00 0.000000e+00 0.000000e+00 0.000000e+00 0.000000e+00 0.000000e+00
<ENDHMM>
~h "dva"
<BEGINHMM>
<NUMSTATES> 10
<STATE> 2
<MEAN> 32
 5.878057e+00 6.371699e+00 6.528611e+00 6.456198e+00 6.367080e+00 6.512292e+00 6.723210e+00 6.904240e+00 7.221906e+00 7.115931e+00 7.257844e+00 7.484461e+00 7.738613e+00 7.820568e+00 7.872106e+00 8.041853e+00 5.437073e-02 1.152309e-01 1.305142e-01 1.023091e-01 4.997706e-02 2.258419e-02 1.478303e-02 3.580909e-03 1.450672e-02 1.346904e-02 5.571487e-04 8.478170e-03 1.143274e-02 9.486907e-03 3.045304e-03 -1.287814e-03
<VARIANCE> 32
 1.601355e-01 4.054083e-01 5.530407e-01 3.624567e-01 1.305167e-01 9.637846e-02 8.682246e-02 1.455480e-01 1.105525e-01 1.038551e-01 9.118169e-02 1.493750e-01 1.382817e-01 1.135683e-01 5.817451e-02 7.142414e-02 1.626071e-02 3.526367e-02 4.324155e-02 2.852823e-02 1.290096e-02 9.428423e-03 1.102401e-02 1.921125e-02 1.435507e-02 1.891700e-02 1.740766e-02 2.852300e-02 2.464548e-02 1.405827e-02 5.477117e-03 2.420465e-03
<GCONST> -3.933108e+01
<STATE> 3
<MEAN> 32
 6.031927e+00 6.582809e+00 6.763173e+00 6.737422e+00 6.499442e+00 6.549661e+00 6.786118e+00 6.899801e+00 7.183615e+00 7.138250e+00 7.232172e+00 7.421963e+00 7.661005e+00 7.810166e+00 7.900938e+00 8.052544e+00 1.641115e-01 2.268711e-01 3.516380e-01 3.547557e-01 2.442909e-01 2.610000e-01 2.748049e-01 3.511095e-01 3.553863e-01 3.727260e-01 3.748390e-01 4.062325e-01 4.265597e-01 3.142588e-01 1.425985e-01 7.156386e-02
<VARIANCE> 32
 2.752492e-01 3.999671e-01 6.051112e-01 3.761148e-01 1.288030e-01 2.019757e-01 1.318787e-01 1.177456e-01 1.311970e-01 1.211971e-01 1.382262e-01 1.455641e-01 1.643380e-01 2.147739e-01 1.692314e-01 1.608319e-01 6.826221e-02 1.023275e-01 6.369262e-02 3.937769e-02 1.815310e-02 1.657457e-02 1.750297e-02 2.903629e-02 3.918104e-02 3.228647e-02 4.463608e-02 6.122409e-02 7.849879e-02 4.315673e-02 1.245611e-02 9.325425e-03
<GCONST> -2.165290e+01
<STATE> 4
<MEAN> 32
 6.384951e+00 7.225387e+00 7.690110e+00 7.665120e+00 7.201663e+00 7.262824e+00 7.565568e+00 7.931415e+00 8.318641e+00 8.258710e+00 8.457749e+00 8.803201e+00 9.126206e+00 8.936657e+00 8.506704e+00 8.470735e+00 2.231840e-01 3.767826e-01 5.833504e-01 6.144041e-01 4.455729e-01 3.518476e-01 4.211945e-01 5.344605e-01 4.677429e-01 4.847818e-01 5.013018e-01 4.959311e-01 4.776550e-01 3.358755e-01 1.469160e-01 9.476039e-02
<VARIANCE> 32
 4.526755e-01 9.105641e-01 8.184047e-01 5.832084e-01 2.339862e-01 2.229755e-01 1.956554e-01 3.850504e-01 4.090094e-01 3.909317e-01 4.921020e-01 6.123196e-01 9.396276e-01 6.016575e-01 4.605265e-01 4.063628e-01 8.633872e-02 1.101127e-01 8.054088e-02 5.655736e-02 3.681780e-02 2.860050e-02 3.060579e-02 4.738626e-02 4.481687e-02 4.260054e-02 6.186160e-02 8.289559e-02 6.706981e-02 3.681716e-02 3.054305e-02 2.095350e-02
<GCONST> -1.963104e+00
<STATE> 5
<MEAN> 32
 6.450918e+00 7.393461e+00 8.019705e+00 8.017286e+00 7.462299e+00 7.599428e+00 8.074966e+00 8.215717e+00 8.118497e+00 8.287852e+00 8.505239e+00 8.784931e+00 8.962802e+00 8.516074e+00 8.037361e+00 8.071452e+00 5.143311e-02 5.856062e-02 5.301099e-02 1.031558e-01 1.388444e-01 1.648842e-01 1.803294e-01 7.096640e-02 -1.838992e-02 3.841522e-02 2.862117e-02 2.862736e-02 3.430368e-02 2.713847e-02 1.023907e-02 1.067414e-02
<VARIANCE> 32
 3.505978e-01 3.518800e-01 7.238475e-01 6.722860e-01 3.468703e-01 3.335453e-01 3.514941e-01 6.404032e-01 5.930828e-01 4.639213e-01 6.174814e-01 7.059746e-01 7.346964e-01 4.394576e-01 1.175679e-01 8.728933e-02 1.615063e-02 3.010522e-02 7.970349e-02 1.274104e-01 1.085795e-01 8.079332e-02 9.384080e-02 1.212587e-01 9.677530e-02 1.098325e-01 1.120182e-01 1.264495e-01 1.015052e-01 6.903356e-02 2.369561e-02 1.392954e-02
<GCONST> 1.311786e+00
<STATE> 6
<MEAN> 32
 7.160853e+00 8.103759e+00 9.072186e+00 9.691399e+00 9.355108e+00 9.263078e+00 9.721242e+00 9.485980e+00 9.131059e+00 9.312143e+00 9.373887e+00 9.614090e+00 9.931744e+00 9.643820e+00 8.993235e+00 8.808561e+00 5.429965e-02 5.607576e-02 2.049847e-01 4.067771e-01 5.652612e-01 4.874994e-01 4.850774e-01 4.172941e-01 2.961287e-01 3.396047e-01 3.465375e-01 3.481660e-01 3.512276e-01 2.664931e-01 1.147755e-01 4.983416e-02
<VARIANCE> 32
 7.508992e-01 7.410216e-01 6.324892e-01 4.732332e-01 7.131894e-01 5.957825e-01 7.005509e-01 6.498066e-01 3.323184e-01 4.355293e-01 8.435345e-01 8.965410e-01 7.185143e-01 6.636439e-01 9.962425e-01 7.789114e-01 1.026593e-02 9.963006e-03 4.399952e-02 8.101244e-02 1.117399e-01 8.777112e-02 7.377495e-02 8.453102e-02 5.102418e-02 6.647325e-02 7.737155e-02 7.934847e-02 9.158975e-02 8.709536e-02 3.406618e-02 2.427169e-02
<GCONST> 4.935278e+00
<STATE> 7
<MEAN> 32
 7.827691e+00 8.778174e+00 9.916578e+00 1.086198e+01 1.150668e+01 1.150574e+01 1.185311e+01 1.169669e+01 1.062990e+01 1.054291e+01 1.116446e+01 1.138536e+01 1.186940e+01 1.131056e+01 1.031181e+01 9.333331e+00 -1.416093e-02 -1.366077e-02 -4.808512e-02 -4.240763e-02 4.585980e-02 7.934631e-02 7.086280e-02 9.216145e-02 7.406157e-02 5.921143e-02 4.117340e-02 8.681804e-02 9.372638e-02 5.833378e-02 3.977543e-02 8.002757e-04
<VARIANCE> 32
 6.666989e-01 8.111404e-01 7.114488e-01 4.696292e-01 5.541498e-01 6.478521e-01 6.341175e-01 8.786465e-01 6.091073e-01 4.363038e-01 7.586728e-01 8.225950e-01 9.834684e-01 6.689183e-01 1.612946e+00 7.773912e-01 7.257530e-03 4.899778e-03 1.102106e-02 3.105349e-02 7.918348e-02 6.553041e-02 4.290203e-02 5.037731e-02 3.476213e-02 3.796998e-02 4.944144e-02 4.168114e-02 4.216684e-02 3.083919e-02 1.944149e-02 1.251209e-02
<GCONST> -3.901310e+00
<STATE> 8
<MEAN> 32
 6.501490e+00 7.434685e+00 8.365294e+00 9.576654e+00 1.048266e+01 1.062569e+01 1.099356e+01 1.052994e+01 9.742702e+00 1.007876e+01 1.006434e+01 1.059501e+01 1.107804e+01 1.023129e+01 8.796277e+00 8.459908e+00 -2.917567e-02 -2.901997e-02 -7.087351e-02 -8.654710e-02 -9.740052e-02 -7.328314e-02 -8.318302e-02 -8.700360e-02 -7.935218e-02 -9.800243e-02 -8.387116e-02 -9.261106e-02 -8.080322e-02 -6.430744e-02 -4.549083e-02 -2.730159e-02
<VARIANCE> 32
 2.222237e-01 2.116496e-01 3.244469e-01 3.871239e-01 5.013144e-01 5.315432e-01 5.618695e-01 1.278402e+00 4.222120e-01 4.851634e-01 1.575648e+00 1.482963e+00 1.690416e+00 8.839943e-01 4.393702e-01 2.100630e-01 1.256614e-02 1.036549e-02 1.643457e-02 2.072395e-02 2.491528e-02 2.363435e-02 2.720886e-02 2.660597e-02 1.748502e-02 1.943978e-02 2.141259e-02 2.642745e-02 3.014120e-02 2.619257e-02 1.145069e-02 6.715611e-03
<GCONST> -1.437090e+01
<STATE> 9
<MEAN> 32
 5.936178e+00 6.517729e+00 6.723226e+00 7.549921e+00 8.433705e+00 8.735265e+00 8.801659e+00 8.488867e+00 7.934935e+00 8.013423e+00 8.308048e+00 8.634180e+00 9.127599e+00 8.554170e+00 7.977076e+00 8.019396e+00 -8.434683e-02 -1.406907e-01 -1.789725e-01 -2.116610e-01 -2.075322e-01 -2.164348e-01 -2.286411e-01 -2.019869e-01 -1.552739e-01 -1.629496e-01 -1.650508e-01 -1.779890e-01 -1.939419e-01 -1.633417e-01 -6.093948e-02 -1.433836e-02
<VARIANCE> 32
 3.321287e-01 6.033731e-01 4.659145e-01 6.293128e-01 6.026684e-01 4.671549e-01 4.488131e-01 6.249027e-01 3.310915e-01 3.698279e-01 5.048688e-01 3.637859e-01 4.177229e-01 3.019356e-01 1.406535e-01 1.115659e-01 1.459069e-02 1.924421e-02 2.352652e-02 2.501375e-02 1.814039e-02 1.519264e-02 2.022972e-02 1.986463e-02 1.194203e-02 8.703558e-03 1.157089e-02 1.225193e-02 1.159180e-02 1.080647e-02 7.065739e-03 1.704784e-03
<GCONST> -2.655763e+01
<TRANSP> 10
 0.000000e+00 1.000000e+00 0.000000e+00 0.000000e+00 0.000000e+00 0.000000e+00 0.000000e+00 0.000000e+00 0.000000e+00 0.000000e+00
 0.000000e+00 8.116217e-01 1.883783e-01 0.000000e+00 0.000000e+00 0.000000e+00 0.000000e+00 0.000000e+00 0.000000e+00 0.000000e+00
 0.000000e+00 0.000000e+00 3.185036e-01 6.814963e-01 0.000000e+00 0.000000e+00 0.000000e+00 0.000000e+00 0.000000e+00 0.000000e+00
 0.000000e+00 0.000000e+00 0.000000e+00 2.695134e-01 7.304866e-01 0.000000e+00 0.000000e+00 0.000000e+00 0.000000e+00 0.000000e+00
 0.000000e+00 0.000000e+00 0.000000e+00 0.000000e+00 8.049255e-01 1.950745e-01 0.000000e+00 0.000000e+00 0.000000e+00 0.000000e+00
 0.000000e+00 0.000000e+00 0.000000e+00 0.000000e+00 0.000000e+00 7.459657e-01 2.540342e-01 0.000000e+00 0.000000e+00 0.000000e+00
 0.000000e+00 0.000000e+00 0.000000e+00 0.000000e+00 0.000000e+00 0.000000e+00 8.443009e-01 1.556991e-01 0.000000e+00 0.000000e+00
 0.000000e+00 0.000000e+00 0.000000e+00 0.000000e+00 0.000000e+00 0.000000e+00 0.000000e+00 9.324318e-01 6.756818e-02 0.000000e+00
 0.000000e+00 0.000000e+00 0.000000e+00 0.000000e+00 0.000000e+00 0.000000e+00 0.000000e+00 0.000000e+00 8.821713e-01 1.178287e-01
 0.000000e+00 0.000000e+00 0.000000e+00 0.000000e+00 0.000000e+00 0.000000e+00 0.000000e+00 0.000000e+00 0.000000e+00 0.000000e+00
<ENDHMM>
~h "osm"
<BEGINHMM>
<NUMSTATES> 10
<STATE> 2
<MEAN> 32
 5.620616e+00 5.820585e+00 6.013186e+00 6.093001e+00 6.210900e+00 6.491883e+00 6.664058e+00 6.757002e+00 7.053611e+00 7.058480e+00 7.211625e+00 7.430327e+00 7.593627e+00 7.771581e+00 7.942804e+00 8.131761e+00 2.433788e-02 4.187729e-02 1.429801e-01 2.559640e-01 2.414452e-01 2.241956e-01 1.115888e-01 5.231363e-02 2.836105e-02 4.442864e-02 3.777536e-02 5.942184e-02 8.500049e-02 5.728194e-02 1.756524e-02 8.888580e-03
<VARIANCE> 32
 1.019723e-01 8.318773e-02 7.379143e-02 5.927247e-02 5.868072e-02 9.667430e-02 6.889845e-02 7.846168e-02 1.414875e-01 8.306690e-02 1.275014e-01 1.477192e-01 1.482677e-01 2.253531e-01 3.160338e-01 2.885204e-01 1.395305e-02 9.094371e-03 2.734487e-02 3.641074e-02 3.623652e-02 2.596844e-02 1.646238e-02 7.357288e-03 5.668961e-03 6.234438e-03 4.706040e-03 7.310701e-03 8.014612e-03 5.462400e-03 3.200195e-03 2.118309e-03
<GCONST> -5.032888e+01
<STATE> 3
<MEAN> 32
 5.277205e+00 5.605409e+00 5.867175e+00 6.105022e+00 6.221111e+00 6.427626e+00 6.595375e+00 6.722262e+00 6.943407e+00 6.893450e+00 7.188543e+00 7.575366e+00 8.043653e+00 8.229077e+00 8.349792e+00 8.408689e+00 2.504352e-02 1.591987e-01 2.970612e-01 4.691170e-01 4.928029e-01 4.416980e-01 3.134964e-01 1.692916e-01 1.202799e-01 1.692459e-01 2.059455e-01 2.973442e-01 3.500489e-01 2.476252e-01 1.375290e-01 1.017724e-01
<VARIANCE> 32
 2.967423e-01 1.742425e-01 1.174217e-01 1.745165e-01 2.134088e-01 2.001213e-01 1.427234e-01 1.624016e-01 2.343943e-01 2.104215e-01 1.253575e-01 2.036978e-01 5.917114e-01 6.386590e-01 6.867434e-01 6.203603e-01 1.436608e-02 3.279564e-02 7.354923e-02 1.315684e-01 1.248201e-01 1.204599e-01 8.895961e-02 2.931495e-02 2.848771e-02 2.552571e-02 2.975076e-02 6.059327e-02 6.574987e-02 5.401165e-02 3.606942e-02 2.738040e-02
<GCONST> -1.200967e+01
<STATE> 4
<MEAN> 32
 5.677918e+00 6.282158e+00 7.161415e+00 7.886464e+00 7.813504e+00 7.915103e+00 7.497128e+00 7.119563e+00 7.431312e+00 7.577261e+00 7.447983e+00 7.738952e+00 8.321424e+00 8.110812e+00 8.138082e+00 8.378694e+00 1.529223e-01 3.804079e-01 6.335765e-01 8.128659e-01 7.633495e-01 7.406552e-01 6.126339e-01 3.688101e-01 2.504286e-01 3.485523e-01 3.786697e-01 4.755734e-01 5.428612e-01 3.260834e-01 1.232903e-01 6.220962e-02
<VARIANCE> 32
 2.312164e-01 4.652744e-01 1.133186e+00 1.153656e+00 5.735780e-01 5.644729e-01 4.347422e-01 1.698438e-01 1.078247e-01 2.482451e-01 6.873615e-02 1.629692e-01 2.470673e-01 1.732941e-01 2.601302e-01 2.619716e-01 1.046599e-02 2.539200e-02 4.487715e-02 1.402112e-01 1.977897e-01 1.571487e-01 1.539548e-01 6.234346e-02 2.504520e-02 5.190226e-02 9.834810e-02 1.834346e-01 1.516201e-01 8.180399e-02 1.760541e-02 5.827913e-03
<GCONST> -6.486049e+00
<STATE> 5
<MEAN> 32
 5.919104e+00 6.889062e+00 8.021885e+00 8.909904e+00 9.132523e+00 9.186723e+00 8.853536e+00 8.011135e+00 7.778063e+00 8.088416e+00 8.460617e+00 9.206274e+00 9.596164e+00 9.037514e+00 8.490331e+00 8.404157e+00 2.879578e-01 4.730705e-01 6.964401e-01 9.060712e-01 9.148691e-01 9.001780e-01 7.997313e-01 5.349314e-01 3.857306e-01 4.560858e-01 5.953174e-01 7.329805e-01 7.496522e-01 5.159380e-01 1.931827e-01 7.943681e-02
<VARIANCE> 32
 2.453196e-01 3.505530e-01 6.858625e-01 9.142709e-01 8.475682e-01 6.618580e-01 9.615303e-01 3.216437e-01 1.530823e-01 2.956160e-01 5.023633e-01 1.066151e+00 7.251953e-01 7.103116e-01 6.931663e-01 3.454709e-01 2.489376e-02 6.390436e-02 9.928694e-02 1.836817e-01 1.904288e-01 1.542572e-01 1.579565e-01 6.417381e-02 3.305250e-02 7.367656e-02 1.218551e-01 1.919011e-01 1.745690e-01 7.918974e-02 2.794759e-02 6.539191e-03
<GCONST> 7.098602e+00
<STATE> 6
<MEAN> 32
 6.634090e+00 7.883020e+00 9.105678e+00 1.019502e+01 1.040526e+01 1.039140e+01 9.949037e+00 9.033093e+00 8.715452e+00 8.978223e+00 9.508194e+00 1.024871e+01 1.063918e+01 9.915796e+00 8.931673e+00 8.639447e+00 2.815284e-01 3.916245e-01 5.438114e-01 5.989794e-01 6.030180e-01 5.795712e-01 5.517380e-01 4.466499e-01 3.896722e-01 4.117794e-01 5.095647e-01 5.395278e-01 5.268815e-01 3.960949e-01 1.405793e-01 8.153051e-02
<VARIANCE> 32
 3.217758e-01 7.072980e-01 4.403150e-01 4.549614e-01 7.440063e-01 7.204433e-01 1.528237e+00 8.018061e-01 3.721336e-01 4.536101e-01 9.616665e-01 1.540446e+00 7.117719e-01 1.058620e+00 1.107389e+00 4.631915e-01 4.189282e-02 7.237640e-02 6.432836e-02 1.214886e-01 1.193857e-01 9.176473e-02 9.074765e-02 3.672525e-02 2.060589e-02 2.653138e-02 5.628796e-02 7.489484e-02 8.022945e-02 4.486048e-02 4.535841e-02 2.621390e-02
<GCONST> 6.756666e+00
<STATE> 7
<MEAN> 32
 6.831380e+00 8.025884e+00 9.648498e+00 1.070321e+01 1.088976e+01 1.087052e+01 1.054844e+01 9.577502e+00 9.134597e+00 9.359245e+00 1.030465e+01 1.104997e+01 1.148792e+01 1.071027e+01 9.182718e+00 8.770493e+00 3.028691e-02 5.375555e-02 3.677680e-02 -2.849413e-02 -8.096673e-02 -6.176914e-02 -8.237086e-03 1.820900e-02 -1.528475e-02 -2.842470e-02 -1.212921e-02 -1.145309e-02 2.014156e-02 6.034516e-02 4.954024e-02 6.461194e-02
<VARIANCE> 32
 4.171563e-01 8.570275e-01 7.012495e-01 4.491651e-01 6.330570e-01 5.194646e-01 9.691777e-01 5.141644e-01 2.799298e-01 2.902924e-01 7.212386e-01 1.163735e+00 8.169354e-01 9.651682e-01 1.003258e+00 4.768734e-01 9.314219e-03 8.144563e-03 2.919089e-02 2.768213e-02 3.478368e-02 3.026808e-02 2.399471e-02 2.064371e-02 2.061334e-02 2.563555e-02 4.201284e-02 3.714515e-02 3.698032e-02 2.135056e-02 1.172588e-02 1.249820e-02
<GCONST> -9.895061e+00
<STATE> 8
<MEAN> 32
 6.235480e+00 7.014381e+00 7.762129e+00 8.320048e+00 8.167075e+00 8.349513e+00 8.540566e+00 8.571678e+00 8.607652e+00 8.781613e+00 9.360535e+00 9.950987e+00 1.058801e+01 1.071796e+01 1.039079e+01 1.021880e+01 -7.380561e-03 1.498146e-03 -1.364959e-02 -4.620704e-02 -7.698892e-02 -6.753173e-02 -5.062275e-02 -2.195314e-02 -4.563294e-03 -5.386279e-03 -2.088928e-02 -3.298207e-02 -4.920005e-02 -4.945840e-02 -2.328165e-02 -2.341444e-02
<VARIANCE> 32
 7.093291e-01 1.751178e+00 2.005102e+00 1.567001e+00 1.155704e+00 1.111855e+00 1.129096e+00 1.105394e+00 9.411196e-01 9.526331e-01 9.331753e-01 8.674691e-01 9.210762e-01 1.320788e+00 1.930011e+00 2.041419e+00 4.508908e-02 1.060589e-01 1.353481e-01 9.643303e-02 5.336621e-02 5.730481e-02 4.675677e-02 3.458655e-02 2.645959e-02 2.801486e-02 2.931877e-02 3.795213e-02 4.686614e-02 5.408635e-02 7.419529e-02 6.729450e-02
<GCONST> 1.470857e+01
<STATE> 9
<MEAN> 32
 6.670676e+00 8.087320e+00 8.975173e+00 8.764572e+00 7.935841e+00 8.474369e+00 8.764087e+00 8.658817e+00 8.717753e+00 8.873001e+00 8.944682e+00 9.684155e+00 9.927857e+00 9.076886e+00 8.187591e+00 8.182569e+00 -1.077859e-02 -2.043380e-02 -4.854002e-02 -5.251326e-02 -2.783486e-02 -2.770641e-02 -3.610025e-02 -3.503387e-02 -3.109260e-02 -3.477637e-02 -5.314556e-02 -4.329756e-02 -3.404101e-02 -2.443971e-02 -2.419946e-02 -1.564547e-02
<VARIANCE> 32
 4.428681e-01 2.174423e-01 4.598094e-01 4.286209e-01 3.382482e-01 6.225813e-01 7.203894e-01 7.937682e-01 5.482979e-01 4.726402e-01 5.510397e-01 7.463399e-01 1.022290e+00 3.795911e-01 1.620295e-01 9.524363e-02 4.580158e-03 2.463090e-03 6.198830e-03 5.547690e-03 5.773960e-03 7.740738e-03 9.537557e-03 7.352808e-03 8.541320e-03 9.138166e-03 8.782320e-03 1.200577e-02 1.197419e-02 9.920388e-03 3.474099e-03 2.183156e-03
<GCONST> -3.532001e+01
<TRANSP> 10
 0.000000e+00 1.000000e+00 0.000000e+00 0.000000e+00 0.000000e+00 0.000000e+00 0.000000e+00 0.000000e+00 0.000000e+00 0.000000e+00
 0.000000e+00 1.231374e-02 9.876863e-01 0.000000e+00 0.000000e+00 0.000000e+00 0.000000e+00 0.000000e+00 0.000000e+00 0.000000e+00
 0.000000e+00 0.000000e+00 3.143121e-01 6.856879e-01 0.000000e+00 0.000000e+00 0.000000e+00 0.000000e+00 0.000000e+00 0.000000e+00
 0.000000e+00 0.000000e+00 0.000000e+00 3.234590e-01 6.765410e-01 0.000000e+00 0.000000e+00 0.000000e+00 0.000000e+00 0.000000e+00
 0.000000e+00 0.000000e+00 0.000000e+00 0.000000e+00 8.683915e-02 9.131609e-01 0.000000e+00 0.000000e+00 0.000000e+00 0.000000e+00
 0.000000e+00 0.000000e+00 0.000000e+00 0.000000e+00 0.000000e+00 4.371550e-01 5.628451e-01 0.000000e+00 0.000000e+00 0.000000e+00
 0.000000e+00 0.000000e+00 0.000000e+00 0.000000e+00 0.000000e+00 0.000000e+00 8.419816e-01 1.580184e-01 0.000000e+00 0.000000e+00
 0.000000e+00 0.000000e+00 0.000000e+00 0.000000e+00 0.000000e+00 0.000000e+00 0.000000e+00 9.588719e-01 4.112810e-02 0.000000e+00
 0.000000e+00 0.000000e+00 0.000000e+00 0.000000e+00 0.000000e+00 0.000000e+00 0.000000e+00 0.000000e+00 9.527376e-01 4.726237e-02
 0.000000e+00 0.000000e+00 0.000000e+00 0.000000e+00 0.000000e+00 0.000000e+00 0.000000e+00 0.000000e+00 0.000000e+00 0.000000e+00
<ENDHMM>
~h "pet"
<BEGINHMM>
<NUMSTATES> 10
<STATE> 2
<MEAN> 32
 5.854309e+00 6.020626e+00 6.467174e+00 6.374419e+00 6.304081e+00 6.437033e+00 6.669851e+00 6.906395e+00 7.162974e+00 7.078547e+00 7.282804e+00 7.495788e+00 7.761558e+00 7.863796e+00 7.925520e+00 8.082706e+00 1.622458e-02 7.195670e-02 9.332488e-02 5.563988e-02 1.595473e-02 -2.174210e-02 9.500514e-03 5.422326e-02 7.990754e-02 8.713380e-02 7.514944e-02 6.955232e-02 8.882388e-02 8.233564e-02 3.526147e-02 1.199414e-02
<VARIANCE> 32
 3.756737e-01 2.712963e-01 4.920967e-01 1.760866e-01 6.416757e-02 8.289048e-02 5.128781e-02 3.426941e-02 3.627310e-02 5.010313e-02 4.819716e-02 5.510620e-02 9.547670e-02 1.061215e-01 8.081540e-02 8.685540e-02 2.241591e-02 1.862141e-02 1.401296e-02 7.869001e-03 5.047326e-03 1.104135e-02 9.977172e-03 1.374673e-02 1.373927e-02 1.003402e-02 1.031725e-02 7.937874e-03 6.288254e-03 1.140513e-02 2.652401e-03 1.578924e-03
<GCONST> -5.509893e+01
<STATE> 3
<MEAN> 32
 5.775802e+00 6.119147e+00 6.388859e+00 6.410146e+00 6.387631e+00 6.478762e+00 6.680873e+00 7.024381e+00 7.537870e+00 7.343057e+00 7.304262e+00 7.484933e+00 7.803681e+00 7.930154e+00 7.975062e+00 8.191412e+00 1.118426e-01 3.438041e-01 5.016918e-01 3.743972e-01 1.751671e-01 1.203332e-01 1.618741e-01 2.673069e-01 4.299858e-01 4.572347e-01 3.615954e-01 3.208933e-01 3.544146e-01 2.805077e-01 1.552814e-01 6.797693e-02
<VARIANCE> 32
 2.935490e-01 5.962720e-01 8.057405e-01 2.271034e-01 8.517697e-02 5.550709e-02 5.160135e-02 1.439914e-01 4.276862e-01 2.148391e-01 5.913749e-02 5.825862e-02 1.057144e-01 1.224944e-01 9.746820e-02 1.131860e-01 9.994774e-03 3.715091e-02 5.860669e-02 2.946153e-02 1.065656e-02 1.317086e-02 8.965372e-03 2.597554e-02 1.433988e-02 3.066158e-02 4.396951e-02 6.522203e-02 3.224158e-02 2.201776e-02 1.573996e-02 9.000605e-03
<GCONST> -3.298960e+01
<STATE> 4
<MEAN> 32
 5.874149e+00 6.641401e+00 7.245051e+00 6.932998e+00 6.585588e+00 6.571381e+00 6.957386e+00 7.474110e+00 8.075424e+00 8.019390e+00 7.968779e+00 7.993583e+00 8.379029e+00 8.428400e+00 8.249106e+00 8.292432e+00 2.177861e-01 4.625659e-01 6.833420e-01 6.870455e-01 4.105103e-01 2.934652e-01 3.190730e-01 4.827371e-01 6.535047e-01 7.528590e-01 6.530748e-01 6.125796e-01 6.104852e-01 4.602113e-01 1.911602e-01 9.285511e-02
<VARIANCE> 32
 4.032660e-01 9.242259e-01 1.434979e+00 5.333766e-01 1.525156e-01 1.050752e-01 8.290546e-02 3.473359e-01 6.743252e-01 5.212411e-01 3.040588e-01 2.552783e-01 2.297078e-01 2.238823e-01 1.137934e-01 1.027101e-01 4.454898e-02 9.645292e-02 1.195325e-01 7.262922e-02 3.942513e-02 3.819684e-02 2.927339e-02 5.116440e-02 8.364774e-02 1.331796e-01 1.181550e-01 1.275236e-01 1.066815e-01 7.743917e-02 4.900622e-02 2.423455e-02
<GCONST> -4.564608e+00
<STATE> 5
<MEAN> 32
 6.313770e+00 7.425886e+00 8.319253e+00 8.273741e+00 7.470028e+00 7.254932e+00 7.567483e+00 8.436888e+00 9.395001e+00 9.609936e+00 9.309239e+00 9.480596e+00 9.606142e+00 9.234579e+00 8.616504e+00 8.429767e+00 2.820767e-01 5.042225e-01 8.668181e-01 8.829868e-01 5.675680e-01 4.200425e-01 3.972003e-01 5.425258e-01 8.112031e-01 1.000438e+00 8.925581e-01 8.214161e-01 7.926835e-01 5.501927e-01 1.998059e-01 8.602685e-02
<VARIANCE> 32
 2.417589e-01 3.783777e-01 5.677626e-01 5.097225e-01 2.480168e-01 2.189121e-01 1.481446e-01 2.563176e-01 3.572943e-01 6.159119e-01 7.653121e-01 9.769689e-01 5.183886e-01 5.277188e-01 6.173975e-01 3.974251e-01 5.080384e-02 1.061630e-01 1.764624e-01 9.668843e-02 3.766888e-02 2.661706e-02 3.238997e-02 5.727753e-02 8.543511e-02 1.117899e-01 1.068996e-01 1.282579e-01 1.268968e-01 1.266703e-01 6.505966e-02 3.118849e-02
<GCONST> 2.730610e+00
<STATE> 6
<MEAN> 32
 6.776799e+00 7.983023e+00 9.557319e+00 9.637131e+00 8.332112e+00 7.954906e+00 8.190010e+00 9.060303e+00 1.031414e+01 1.087702e+01 1.051041e+01 1.027603e+01 1.066890e+01 1.007957e+01 8.728834e+00 8.505578e+00 1.121425e-01 9.428509e-02 3.411443e-01 3.978453e-01 3.246175e-01 2.596893e-01 2.218628e-01 2.135765e-01 2.545151e-01 3.933850e-01 4.118200e-01 3.810868e-01 3.875483e-01 3.180835e-01 1.296720e-01 7.945068e-02
<VARIANCE> 32
 5.120678e-01 5.661687e-01 5.953402e-01 6.241701e-01 5.845954e-01 4.823350e-01 4.163668e-01 5.104064e-01 4.630656e-01 7.534488e-01 1.499344e+00 1.912181e+00 1.452680e+00 1.281278e+00 7.310964e-01 4.611561e-01 2.859235e-02 4.887482e-02 1.137394e-01 9.610662e-02 4.391751e-02 3.200955e-02 1.781569e-02 2.687874e-02 6.391893e-02 1.099520e-01 9.031892e-02 6.800355e-02 7.602306e-02 6.411296e-02 2.361841e-02 9.228191e-03
<GCONST> 4.197580e+00
<STATE> 7
<MEAN> 32
 6.645356e+00 7.676319e+00 9.320477e+00 1.024723e+01 1.008534e+01 9.234068e+00 9.283814e+00 1.003992e+01 1.114923e+01 1.146152e+01 1.146411e+01 1.140290e+01 1.160797e+01 1.085391e+01 9.137513e+00 8.678097e+00 -2.053684e-02 -2.295173e-02 -5.687822e-02 2.078085e-02 9.046775e-02 6.686209e-02 6.055376e-02 7.877514e-02 4.138484e-02 -4.089094e-02 -1.446604e-02 -3.364474e-03 -1.146083e-04 -4.722510e-03 4.779436e-03 8.534459e-03
<VARIANCE> 32
 4.444760e-01 6.616752e-01 8.411674e-01 5.301948e-01 1.051332e+00 1.026260e+00 5.623912e-01 4.314310e-01 3.503459e-01 4.061261e-01 7.108342e-01 7.524346e-01 6.894516e-01 1.112000e+00 8.367320e-01 5.906952e-01 6.744824e-03 3.450043e-03 1.099085e-02 8.680186e-03 2.041076e-02 1.531019e-02 1.114230e-02 1.007290e-02 1.330228e-02 8.879906e-03 7.622376e-03 9.269066e-03 7.934298e-03 9.841054e-03 5.396950e-03 4.440083e-03
<GCONST> -2.389545e+01
<STATE> 8
<MEAN> 32
 6.294062e+00 7.202662e+00 8.460513e+00 9.314095e+00 8.944905e+00 8.348808e+00 8.450255e+00 9.387360e+00 9.825838e+00 9.545124e+00 9.689301e+00 9.731220e+00 1.009706e+01 9.605608e+00 8.734345e+00 8.639178e+00 -6.310643e-02 -1.218351e-01 -1.837599e-01 -2.341939e-01 -2.337547e-01 -1.964925e-01 -2.024200e-01 -2.313818e-01 -2.588423e-01 -2.325502e-01 -2.274611e-01 -2.206302e-01 -2.241569e-01 -1.954547e-01 -1.045137e-01 -6.227389e-02
<VARIANCE> 32
 3.953482e-01 7.559460e-01 1.056815e+00 9.947428e-01 9.981136e-01 6.658719e-01 5.545776e-01 9.553898e-01 9.163219e-01 7.096632e-01 1.129372e+00 1.022629e+00 8.225779e-01 7.986134e-01 8.410491e-01 5.826025e-01 1.414749e-02 3.534682e-02 6.724615e-02 5.515819e-02 4.485707e-02 3.494174e-02 4.417883e-02 5.568884e-02 5.246944e-02 3.743093e-02 4.118958e-02 4.611064e-02 4.479663e-02 4.724350e-02 2.797348e-02 1.332614e-02
<GCONST> 2.975496e+00
<STATE> 9
<MEAN> 32
 5.699999e+00 5.890877e+00 6.377714e+00 6.938995e+00 6.949302e+00 6.783349e+00 6.911779e+00 7.438712e+00 7.809428e+00 7.676380e+00 7.891584e+00 8.072939e+00 8.381938e+00 8.148852e+00 8.010706e+00 8.103275e+00 -1.483133e-02 -3.013970e-02 -6.045334e-02 -8.166312e-02 -6.575172e-02 -3.612568e-02 -3.226297e-02 -5.164317e-02 -6.153021e-02 -5.862321e-02 -5.922149e-02 -5.267617e-02 -4.942845e-02 -2.433051e-02 -1.187782e-03 3.494652e-04
<VARIANCE> 32
 1.057841e-01 1.137636e-01 2.617871e-01 4.436111e-01 3.053949e-01 1.899230e-01 1.379003e-01 2.543140e-01 2.327027e-01 2.199898e-01 2.867520e-01 2.876887e-01 3.543833e-01 3.120166e-01 1.568818e-01 8.404408e-02 1.197475e-02 1.436688e-02 2.145258e-02 2.513587e-02 2.061352e-02 1.748715e-02 1.674716e-02 3.105769e-02 2.103442e-02 1.984421e-02 2.240777e-02 2.967644e-02 4.605465e-02 3.888790e-02 1.835792e-02 8.778607e-03
<GCONST> -2.779460e+01
<TRANSP> 10
 0.000000e+00 1.000000e+00 0.000000e+00 0.000000e+00 0.000000e+00 0.000000e+00 0.000000e+00 0.000000e+00 0.000000e+00 0.000000e+00
 0.000000e+00 3.559738e-01 6.440262e-01 0.000000e+00 0.000000e+00 0.000000e+00 0.000000e+00 0.000000e+00 0.000000e+00 0.000000e+00
 0.000000e+00 0.000000e+00 2.510395e-01 7.489606e-01 0.000000e+00 0.000000e+00 0.000000e+00 0.000000e+00 0.000000e+00 0.000000e+00
 0.000000e+00 0.000000e+00 0.000000e+00 2.181205e-01 7.818795e-01 0.000000e+00 0.000000e+00 0.000000e+00 0.000000e+00 0.000000e+00
 0.000000e+00 0.000000e+00 0.000000e+00 0.000000e+00 1.544432e-01 8.455567e-01 0.000000e+00 0.000000e+00 0.000000e+00 0.000000e+00
 0.000000e+00 0.000000e+00 0.000000e+00 0.000000e+00 0.000000e+00 6.632423e-01 3.367577e-01 0.000000e+00 0.000000e+00 0.000000e+00
 0.000000e+00 0.000000e+00 0.000000e+00 0.000000e+00 0.000000e+00 0.000000e+00 9.274867e-01 7.251330e-02 0.000000e+00 0.000000e+00
 0.000000e+00 0.000000e+00 0.000000e+00 0.000000e+00 0.000000e+00 0.000000e+00 0.000000e+00 8.908429e-01 1.091572e-01 0.000000e+00
 0.000000e+00 0.000000e+00 0.000000e+00 0.000000e+00 0.000000e+00 0.000000e+00 0.000000e+00 0.000000e+00 9.433106e-01 5.668936e-02
 0.000000e+00 0.000000e+00 0.000000e+00 0.000000e+00 0.000000e+00 0.000000e+00 0.000000e+00 0.000000e+00 0.000000e+00 0.000000e+00
<ENDHMM>
~h "sil"
<BEGINHMM>
<NUMSTATES> 5
<STATE> 2
<MEAN> 32
 5.614018e+00 6.012208e+00 6.368361e+00 6.645269e+00 6.667880e+00 6.833267e+00 6.991222e+00 7.204880e+00 7.434589e+00 7.480342e+00 7.647895e+00 7.871122e+00 8.193894e+00 8.177047e+00 8.184195e+00 8.297501e+00 -2.157333e-02 -4.659228e-02 -5.319880e-02 -5.651061e-02 -4.485580e-02 -3.926581e-02 -3.795074e-02 -3.725117e-02 -3.495593e-02 -4.221949e-02 -3.936882e-02 -4.582162e-02 -5.235488e-02 -4.013176e-02 -1.509284e-02 -1.146708e-02
<VARIANCE> 32
 3.871143e-01 4.952413e-01 5.961111e-01 6.757305e-01 5.767484e-01 4.464530e-01 4.304999e-01 5.490454e-01 5.740787e-01 5.944926e-01 5.983828e-01 5.643721e-01 5.980931e-01 5.486496e-01 5.551093e-01 4.650546e-01 2.051242e-02 2.446530e-02 2.630182e-02 2.462843e-02 1.718641e-02 1.374492e-02 1.430011e-02 1.747774e-02 1.486936e-02 1.526180e-02 1.459999e-02 1.683642e-02 2.318636e-02 2.043705e-02 1.184160e-02 7.302530e-03
<GCONST> -1.647352e+01
<STATE> 3
<MEAN> 32
 5.632870e+00 5.738305e+00 5.907295e+00 6.098216e+00 6.263410e+00 6.439171e+00 6.595039e+00 6.760046e+00 7.112335e+00 7.019691e+00 7.173299e+00 7.349448e+00 7.548667e+00 7.645363e+00 7.813957e+00 8.017432e+00 -4.974802e-04 -1.115281e-03 -1.236639e-03 -1.887282e-03 -2.392848e-03 -2.249497e-03 -1.828720e-03 -1.850714e-03 -1.059306e-03 -1.566410e-03 -1.821132e-03 -2.817592e-03 -4.149087e-03 -2.241189e-03 -9.151422e-04 -9.248318e-04
<VARIANCE> 32
 1.153809e-01 1.006660e-01 8.767856e-02 7.234347e-02 6.441659e-02 5.692656e-02 4.962520e-02 4.185314e-02 3.104252e-02 3.065046e-02 2.739600e-02 2.512675e-02 2.868588e-02 2.160903e-02 1.919152e-02 3.587532e-02 1.234659e-02 1.104026e-02 9.536908e-03 8.068660e-03 6.995481e-03 6.143745e-03 5.391728e-03 4.541114e-03 3.447389e-03 3.406996e-03 2.989649e-03 2.643602e-03 2.807402e-03 2.291981e-03 1.638047e-03 1.398177e-03
<GCONST> -7.848087e+01
<STATE> 4
<MEAN> 32
 5.322037e+00 5.732134e+00 6.148097e+00 6.372654e+00 6.478132e+00 6.778907e+00 6.938675e+00 7.130697e+00 7.323091e+00 7.410985e+00 7.626964e+00 7.825031e+00 8.054249e+00 8.272804e+00 8.461412e+00 8.632438e+00 3.825980e-04 4.830711e-04 -4.780053e-04 -1.360493e-03 -2.937951e-04 -3.211718e-04 -7.183907e-04 -6.754663e-04 9.826275e-04 1.714387e-03 1.910518e-03 2.977159e-03 3.689259e-03 3.347731e-03 2.015548e-03 1.933199e-03
<VARIANCE> 32
 1.709898e-01 9.629187e-02 1.007691e-01 1.147198e-01 7.397996e-02 8.013044e-02 7.750095e-02 8.259320e-02 5.691783e-02 7.168564e-02 8.331800e-02 9.352370e-02 1.062015e-01 1.344753e-01 1.692545e-01 1.732453e-01 1.268703e-02 1.043920e-02 9.942779e-03 1.068741e-02 7.212939e-03 6.593750e-03 6.256912e-03 6.279139e-03 5.317639e-03 5.299857e-03 5.565342e-03 5.898591e-03 6.503623e-03 6.326723e-03 4.491951e-03 3.385936e-03
<GCONST> -5.823849e+01
<TRANSP> 5
 0.000000e+00 1.000000e+00 0.000000e+00 0.000000e+00 0.000000e+00
 0.000000e+00 8.825916e-01 1.174084e-01 0.000000e+00 0.000000e+00
 0.000000e+00 0.000000e+00 9.807826e-01 1.921747e-02 0.000000e+00
 0.000000e+00 0.000000e+00 0.000000e+00 9.123656e-01 8.763440e-02
 0.000000e+00 0.000000e+00 0.000000e+00 0.000000e+00 0.000000e+00
<ENDHMM>
~h "tri"
<BEGINHMM>
<NUMSTATES> 10
<STATE> 2
<MEAN> 32
 5.700842e+00 5.804936e+00 5.903259e+00 6.094926e+00 6.290946e+00 6.537428e+00 6.711994e+00 6.832099e+00 7.175179e+00 7.059983e+00 7.255360e+00 7.516778e+00 7.772831e+00 7.863874e+00 7.888183e+00 8.055327e+00 5.501143e-04 3.197378e-02 6.396680e-02 1.069869e-01 7.738943e-02 8.393505e-02 1.242509e-01 1.969091e-01 2.121071e-01 2.330839e-01 2.475046e-01 3.482787e-01 3.875878e-01 3.320637e-01 1.494209e-01 5.006834e-02
<VARIANCE> 32
 1.410861e-01 1.222721e-01 1.015480e-01 9.326380e-02 5.533661e-02 3.888499e-02 4.983809e-02 4.502752e-02 2.738302e-02 5.154317e-02 4.819739e-02 7.060769e-02 1.470644e-01 1.288127e-01 4.426913e-02 6.701251e-02 1.194243e-02 1.018628e-02 2.374628e-02 1.137227e-02 1.157023e-02 1.414684e-02 1.684524e-02 1.885383e-02 1.793168e-02 2.269428e-02 2.774851e-02 4.185519e-02 4.607103e-02 3.679224e-02 1.207206e-02 7.488199e-03
<GCONST> -4.844102e+01
<STATE> 3
<MEAN> 32
 5.613129e+00 5.825630e+00 6.164505e+00 6.377440e+00 6.464515e+00 6.681426e+00 6.901072e+00 7.253176e+00 7.605764e+00 7.724696e+00 7.961904e+00 8.489174e+00 8.837571e+00 8.804446e+00 8.485377e+00 8.413751e+00 6.323384e-03 2.282239e-02 9.296166e-02 1.023029e-01 1.004929e-01 9.735762e-02 1.396509e-01 1.846185e-01 2.023048e-01 2.441295e-01 2.483113e-01 3.172988e-01 3.489431e-01 3.286456e-01 2.146202e-01 1.269034e-01
<VARIANCE> 32
 2.535248e-01 1.598219e-01 1.994573e-01 1.298546e-01 8.343930e-02 6.984390e-02 1.192511e-01 1.394862e-01 1.624416e-01 1.985268e-01 3.125531e-01 4.526533e-01 5.717958e-01 5.651220e-01 3.382995e-01 2.961492e-01 1.602771e-02 1.240511e-02 3.010365e-02 3.163243e-02 2.411451e-02 2.557549e-02 3.837658e-02 5.342403e-02 6.723958e-02 8.227408e-02 1.075441e-01 1.437457e-01 1.810922e-01 1.679233e-01 8.497208e-02 3.342351e-02
<GCONST> -1.389345e+01
<STATE> 4
<MEAN> 32
 5.701483e+00 5.945835e+00 6.490677e+00 6.807127e+00 6.920789e+00 7.183718e+00 7.515236e+00 7.972812e+00 8.528260e+00 8.645131e+00 8.947333e+00 9.633809e+00 1.008079e+01 9.985086e+00 9.203170e+00 8.904570e+00 4.296421e-02 1.315359e-02 9.223935e-02 1.304576e-01 1.010592e-01 1.160967e-01 1.216603e-01 1.682672e-01 2.503670e-01 3.003624e-01 3.765551e-01 4.961269e-01 5.857852e-01 6.309190e-01 4.872155e-01 3.257854e-01
<VARIANCE> 32
 2.429064e-01 1.240597e-01 1.540342e-01 2.612636e-01 2.517416e-01 3.215531e-01 3.153860e-01 2.891706e-01 3.926207e-01 3.491718e-01 4.163776e-01 5.724155e-01 8.007841e-01 6.962159e-01 3.212238e-01 2.708274e-01 1.822835e-02 1.508039e-02 3.771669e-02 5.879459e-02 4.764807e-02 5.370748e-02 7.007386e-02 7.430775e-02 7.852814e-02 7.277072e-02 6.023203e-02 5.795736e-02 6.098506e-02 5.310443e-02 4.359040e-02 2.269477e-02
<GCONST> -8.268616e+00
<STATE> 5
<MEAN> 32
 5.726484e+00 5.828531e+00 6.161304e+00 6.456303e+00 6.587835e+00 6.772007e+00 7.077739e+00 7.838670e+00 8.457324e+00 8.797427e+00 9.642533e+00 1.078588e+01 1.155152e+01 1.172093e+01 1.094912e+01 1.009372e+01 1.349807e-02 6.973147e-02 5.415590e-02 5.187265e-02 2.708547e-02 2.368060e-03 4.492775e-03 5.769915e-02 8.232220e-02 7.067581e-02 8.159477e-02 6.845805e-02 7.112153e-02 6.950887e-02 1.163721e-01 8.465298e-02
<VARIANCE> 32
 1.230017e-01 9.289340e-02 1.210235e-01 2.016380e-01 1.307636e-01 1.618951e-01 1.802848e-01 3.283609e-01 2.789953e-01 2.567553e-01 5.498016e-01 6.731662e-01 5.965756e-01 4.175430e-01 4.764825e-01 5.037996e-01 1.419831e-02 2.845792e-02 5.333354e-02 5.541412e-02 3.275957e-02 2.514727e-02 3.630088e-02 3.944972e-02 4.317957e-02 4.118574e-02 4.952892e-02 7.164775e-02 7.942997e-02 9.646815e-02 9.959475e-02 7.529507e-02
<GCONST> -1.152778e+01
<STATE> 6
<MEAN> 32
 6.195276e+00 6.493129e+00 7.188722e+00 7.677193e+00 7.519006e+00 7.851155e+00 8.171382e+00 8.887504e+00 1.009619e+01 1.020063e+01 1.108588e+01 1.199701e+01 1.261536e+01 1.266002e+01 1.237195e+01 1.154015e+01 3.392493e-02 1.377631e-01 1.446269e-01 1.284223e-01 5.217029e-02 3.255737e-02 2.700326e-02 5.217648e-02 1.104150e-01 1.001463e-01 1.037801e-01 7.456481e-02 6.285621e-02 2.655443e-02 2.698909e-02 4.411329e-02
<VARIANCE> 32
 3.039445e-01 2.688867e-01 9.494997e-01 1.367912e+00 8.214150e-01 9.339560e-01 9.880206e-01 5.002316e-01 5.242568e-01 6.009644e-01 9.205300e-01 1.266248e+00 1.318914e+00 1.250643e+00 2.322536e+00 3.755509e+00 3.516636e-02 7.361490e-02 1.330149e-01 1.695205e-01 8.163309e-02 6.356239e-02 6.858102e-02 6.248493e-02 7.812212e-02 7.276010e-02 9.040581e-02 1.343906e-01 1.543721e-01 1.576415e-01 1.890851e-01 1.648473e-01
<GCONST> 2.003687e+01
<STATE> 7
<MEAN> 32
 6.684659e+00 8.285895e+00 9.322889e+00 9.529704e+00 8.520181e+00 8.255459e+00 8.505562e+00 9.404687e+00 1.052232e+01 1.071682e+01 1.081127e+01 1.103228e+01 1.129614e+01 1.096436e+01 1.031161e+01 9.697862e+00 2.065902e-01 3.781099e-01 6.689277e-01 6.221191e-01 4.152941e-01 3.187702e-01 2.912363e-01 2.946542e-01 3.474137e-01 4.281891e-01 2.643292e-01 8.823302e-02 -2.677052e-02 -1.547657e-01 -3.035176e-01 -2.906588e-01
<VARIANCE> 32
 7.172402e-01 1.026043e+00 1.684867e+00 1.800096e+00 1.164687e+00 9.107180e-01 5.685118e-01 3.929604e-01 6.446120e-01 9.675226e-01 1.278193e+00 9.516010e-01 8.916495e-01 7.429265e-01 1.330595e+00 1.985091e+00 3.153466e-02 1.382768e-01 1.096819e-01 1.178828e-01 6.538529e-02 4.290058e-02 3.937239e-02 4.540608e-02 6.673802e-02 5.169703e-02 7.237154e-02 6.081760e-02 5.735391e-02 4.439196e-02 3.516145e-02 2.128122e-02
<GCONST> 1.220565e+01
<STATE> 8
<MEAN> 32
 6.598345e+00 7.961430e+00 9.590732e+00 9.970387e+00 8.634033e+00 8.238218e+00 8.400933e+00 8.972736e+00 1.020917e+01 1.140899e+01 1.152639e+01 1.138122e+01 1.172736e+01 1.109006e+01 9.242820e+00 8.651631e+00 -1.347457e-02 -2.228226e-02 -5.313380e-02 -6.359164e-02 -5.607153e-02 -6.906574e-02 -7.941181e-02 -9.790614e-02 -1.045969e-01 -5.289763e-02 -4.971821e-02 -7.207737e-02 -4.335906e-02 -3.967779e-02 -7.195282e-02 -4.798065e-02
<VARIANCE> 32
 5.966498e-01 6.242384e-01 1.244093e+00 4.297421e-01 7.697220e-01 6.077223e-01 3.691669e-01 3.057083e-01 5.784580e-01 2.455110e-01 3.798229e-01 5.191288e-01 4.301155e-01 6.087717e-01 6.680667e-01 4.095308e-01 6.121807e-03 4.892158e-03 8.460796e-03 7.807998e-03 8.343857e-03 7.396203e-03 6.362110e-03 6.957352e-03 1.012155e-02 1.519520e-02 1.478111e-02 1.866095e-02 1.803667e-02 1.863211e-02 7.183742e-03 5.502291e-03
<GCONST> -2.682636e+01
<STATE> 9
<MEAN> 32
 6.478508e+00 7.769540e+00 8.704673e+00 8.230894e+00 7.459461e+00 7.213863e+00 7.379539e+00 7.975846e+00 9.154871e+00 9.604365e+00 9.144805e+00 9.043999e+00 9.526757e+00 9.092514e+00 8.548585e+00 8.476667e+00 -5.746255e-02 -1.318036e-01 -1.808472e-01 -1.855348e-01 -1.197142e-01 -6.208060e-02 -6.578235e-02 -1.156367e-01 -1.482788e-01 -1.934068e-01 -1.916864e-01 -1.655605e-01 -1.783998e-01 -1.703190e-01 -6.382712e-02 -2.250442e-02
<VARIANCE> 32
 2.949904e-01 7.031054e-01 9.572744e-01 5.320106e-01 3.432061e-01 3.053841e-01 2.383914e-01 5.569345e-01 1.319995e+00 7.046753e-01 5.855423e-01 4.971430e-01 5.732000e-01 4.209990e-01 2.437386e-01 1.900076e-01 1.510735e-02 3.268633e-02 3.635864e-02 3.413989e-02 2.582112e-02 2.697372e-02 1.772691e-02 1.863975e-02 3.093436e-02 4.156565e-02 3.951814e-02 2.839284e-02 3.413923e-02 2.523898e-02 1.074976e-02 4.722257e-03
<GCONST> -1.349456e+01
<TRANSP> 10
 0.000000e+00 1.000000e+00 0.000000e+00 0.000000e+00 0.000000e+00 0.000000e+00 0.000000e+00 0.000000e+00 0.000000e+00 0.000000e+00
 0.000000e+00 4.424489e-01 5.575511e-01 0.000000e+00 0.000000e+00 0.000000e+00 0.000000e+00 0.000000e+00 0.000000e+00 0.000000e+00
 0.000000e+00 0.000000e+00 5.457454e-01 4.542547e-01 0.000000e+00 0.000000e+00 0.000000e+00 0.000000e+00 0.000000e+00 0.000000e+00
 0.000000e+00 0.000000e+00 0.000000e+00 5.897073e-01 4.102928e-01 0.000000e+00 0.000000e+00 0.000000e+00 0.000000e+00 0.000000e+00
 0.000000e+00 0.000000e+00 0.000000e+00 0.000000e+00 8.481670e-01 1.518330e-01 0.000000e+00 0.000000e+00 0.000000e+00 0.000000e+00
 0.000000e+00 0.000000e+00 0.000000e+00 0.000000e+00 0.000000e+00 7.761918e-01 2.238081e-01 0.000000e+00 0.000000e+00 0.000000e+00
 0.000000e+00 0.000000e+00 0.000000e+00 0.000000e+00 0.000000e+00 0.000000e+00 7.121775e-01 2.878226e-01 0.000000e+00 0.000000e+00
 0.000000e+00 0.000000e+00 0.000000e+00 0.000000e+00 0.000000e+00 0.000000e+00 0.000000e+00 9.239114e-01 7.608855e-02 0.000000e+00
 0.000000e+00 0.000000e+00 0.000000e+00 0.000000e+00 0.000000e+00 0.000000e+00 0.000000e+00 0.000000e+00 9.035451e-01 9.645490e-02
 0.000000e+00 0.000000e+00 0.000000e+00 0.000000e+00 0.000000e+00 0.000000e+00 0.000000e+00 0.000000e+00 0.000000e+00 0.000000e+00
<ENDHMM>
~h "nula"
<BEGINHMM>
<NUMSTATES> 10
<STATE> 2
<MEAN> 32
 6.037148e+00 6.678015e+00 6.791234e+00 6.965757e+00 6.843949e+00 7.009294e+00 6.925815e+00 6.977874e+00 7.308195e+00 7.199164e+00 7.216833e+00 7.380388e+00 7.911441e+00 8.103900e+00 7.974373e+00 8.238256e+00 1.007729e-01 2.900189e-01 2.772268e-01 2.395252e-01 1.554271e-01 1.240040e-01 4.341115e-02 2.642063e-02 4.350364e-02 6.035312e-02 3.448874e-02 2.427529e-02 4.966539e-02 4.785589e-02 5.794602e-03 -5.616441e-03
<VARIANCE> 32
 2.250135e-01 8.257706e-01 9.560112e-01 9.822574e-01 6.955999e-01 5.952845e-01 1.673748e-01 1.408911e-01 1.487330e-01 1.172856e-01 6.802499e-02 5.313740e-02 1.221841e-01 1.497944e-01 6.392784e-02 9.274692e-02 1.231349e-02 2.853513e-02 2.237937e-02 2.294744e-02 2.015504e-02 2.756056e-02 1.454085e-02 1.433118e-02 1.089871e-02 1.200462e-02 5.980922e-03 3.133253e-03 1.415126e-02 7.501387e-03 2.554244e-03 2.129854e-03
<GCONST> -3.896132e+01
<STATE> 3
<MEAN> 32
 5.843989e+00 6.801178e+00 6.920028e+00 6.805748e+00 6.596038e+00 6.747048e+00 6.754561e+00 6.947746e+00 7.269697e+00 7.260840e+00 7.388356e+00 7.506103e+00 7.814194e+00 7.903238e+00 7.910968e+00 8.059814e+00 2.293957e-01 5.464277e-01 5.525287e-01 4.867996e-01 2.708139e-01 2.015312e-01 1.331773e-01 2.092216e-01 1.866797e-01 2.408926e-01 2.323529e-01 1.589092e-01 1.878589e-01 1.084380e-01 1.697745e-02 -1.367503e-02
<VARIANCE> 32
 4.522486e-01 6.352585e-01 7.403692e-01 6.831362e-01 4.537105e-01 3.714505e-01 1.041058e-01 9.685697e-02 1.049318e-01 1.445086e-01 1.334179e-01 7.940958e-02 1.359209e-01 1.148872e-01 1.151312e-01 8.129744e-02 4.475603e-02 8.355302e-02 6.713851e-02 5.822330e-02 2.764663e-02 2.290983e-02 1.265325e-02 1.228197e-02 1.304736e-02 3.751072e-02 1.843029e-02 1.262498e-02 4.943743e-02 2.008907e-02 3.076827e-03 6.945981e-03
<GCONST> -2.798481e+01
<STATE> 4
<MEAN> 32
 6.570633e+00 7.751185e+00 7.885267e+00 7.739541e+00 7.103374e+00 7.129871e+00 7.039523e+00 7.354031e+00 7.671277e+00 7.761510e+00 7.963238e+00 7.983560e+00 8.483283e+00 8.343033e+00 8.058784e+00 8.134535e+00 2.540507e-01 4.080969e-01 4.608980e-01 4.472914e-01 2.906821e-01 1.998015e-01 1.834485e-01 2.503654e-01 2.229534e-01 2.873993e-01 2.886163e-01 1.943777e-01 1.913612e-01 1.223828e-01 3.100610e-02 3.037877e-03
<VARIANCE> 32
 5.397696e-01 8.701510e-01 8.355104e-01 7.095993e-01 5.419913e-01 4.548506e-01 1.497603e-01 1.948935e-01 2.160245e-01 3.300444e-01 2.477818e-01 1.968202e-01 4.623530e-01 2.453528e-01 1.115525e-01 9.580881e-02 9.272218e-02 1.521419e-01 1.677994e-01 1.288500e-01 5.115014e-02 4.098025e-02 3.277435e-02 3.681522e-02 3.162231e-02 4.247256e-02 4.721824e-02 3.726838e-02 6.512297e-02 3.732225e-02 8.484711e-03 2.249098e-03
<GCONST> -1.060196e+01
<STATE> 5
<MEAN> 32
 6.722258e+00 8.190828e+00 8.594715e+00 8.498541e+00 7.649552e+00 7.373577e+00 7.430241e+00 7.912419e+00 8.093164e+00 8.477036e+00 8.552640e+00 8.403344e+00 8.788582e+00 8.471803e+00 8.049915e+00 8.044234e+00 9.471583e-02 1.351328e-01 2.116630e-01 2.692854e-01 2.277839e-01 1.995564e-01 2.922598e-01 2.944367e-01 1.942266e-01 1.913117e-01 2.271100e-01 2.145437e-01 1.108294e-01 6.781042e-02 5.479334e-02 2.781553e-02
<VARIANCE> 32
 5.709720e-01 5.024207e-01 5.285438e-01 3.658808e-01 3.358993e-01 4.033738e-01 2.724271e-01 2.469568e-01 2.775996e-01 5.784398e-01 4.572308e-01 3.205813e-01 5.640662e-01 2.240645e-01 1.112501e-01 5.970215e-02 2.332892e-02 2.725498e-02 4.139686e-02 3.890862e-02 3.150917e-02 3.407555e-02 4.481535e-02 4.595111e-02 3.062736e-02 3.816085e-02 3.311079e-02 3.957076e-02 1.816788e-02 1.514741e-02 6.918136e-03 4.360516e-03
<GCONST> -1.841932e+01
<STATE> 6
<MEAN> 32
 6.644799e+00 8.021032e+00 9.114420e+00 9.738898e+00 9.427179e+00 9.418219e+00 9.021511e+00 8.578296e+00 8.771795e+00 9.026267e+00 8.474919e+00 8.660691e+00 8.760665e+00 8.534317e+00 8.174943e+00 8.211764e+00 -6.325676e-03 -1.627885e-02 2.111233e-02 7.584565e-02 1.017524e-01 1.031218e-01 1.166956e-01 7.379897e-02 5.427615e-02 5.922739e-02 5.968732e-02 8.708666e-02 6.597874e-02 3.805211e-02 2.217818e-02 1.273536e-02
<VARIANCE> 32
 2.292696e-01 2.831497e-01 3.575951e-01 3.062668e-01 7.745503e-01 6.895128e-01 8.440894e-01 3.539338e-01 3.511305e-01 3.508241e-01 5.555332e-01 6.203856e-01 4.370282e-01 2.597693e-01 1.086268e-01 5.639385e-02 5.214138e-03 5.833195e-03 1.445139e-02 2.012435e-02 2.595025e-02 2.995043e-02 4.352456e-02 3.145920e-02 1.965546e-02 2.309621e-02 2.441595e-02 3.573554e-02 2.632640e-02 1.803886e-02 7.346762e-03 6.302085e-03
<GCONST> -2.307091e+01
<STATE> 7
<MEAN> 32
 6.780895e+00 8.275837e+00 9.400178e+00 1.000382e+01 9.472319e+00 9.552895e+00 9.645808e+00 9.133365e+00 8.909555e+00 9.286547e+00 1.001095e+01 1.028234e+01 1.016834e+01 9.267707e+00 8.579004e+00 8.464931e+00 8.313999e-03 -8.047393e-03 5.400187e-02 1.124156e-01 1.573955e-01 1.789940e-01 1.735415e-01 7.953191e-02 6.447436e-02 8.639225e-02 1.108111e-01 1.444660e-01 1.453276e-01 1.188107e-01 6.026711e-02 4.732521e-02
<VARIANCE> 32
 8.088783e-01 8.828571e-01 1.529077e+00 6.254219e-01 7.650100e-01 9.113637e-01 7.541907e-01 6.465663e-01 4.440628e-01 4.859546e-01 5.469410e-01 6.108593e-01 6.015075e-01 4.611006e-01 5.516123e-01 5.300550e-01 2.472149e-02 2.480645e-02 3.670838e-02 3.574293e-02 3.430342e-02 5.017074e-02 7.000287e-02 4.606349e-02 2.321634e-02 3.282000e-02 3.315972e-02 5.054469e-02 7.714768e-02 7.620557e-02 4.027096e-02 2.956344e-02
<GCONST> 6.346583e-01
<STATE> 8
<MEAN> 32
 7.219665e+00 8.286077e+00 9.590195e+00 1.061035e+01 1.093832e+01 1.108505e+01 1.136914e+01 1.079963e+01 9.971489e+00 1.023712e+01 1.095240e+01 1.115170e+01 1.152006e+01 1.084416e+01 9.591479e+00 9.063197e+00 -1.300244e-02 -3.311720e-02 -7.186002e-02 -5.917213e-02 -1.433275e-02 -7.861760e-06 8.112707e-03 3.263321e-02 6.948644e-03 -1.556118e-02 -2.411715e-02 -3.074207e-02 4.194937e-03 1.304999e-02 2.545885e-03 -1.389623e-02
<VARIANCE> 32
 9.640070e-01 1.367407e+00 1.945079e+00 7.663366e-01 5.822198e-01 4.735286e-01 4.995814e-01 7.658585e-01 3.351931e-01 4.122408e-01 6.308721e-01 5.553166e-01 1.231009e+00 9.857295e-01 1.605618e+00 8.899539e-01 9.582838e-03 7.288367e-03 1.282130e-02 1.195453e-02 3.166393e-02 2.375714e-02 2.881947e-02 3.026706e-02 1.653366e-02 2.333311e-02 2.575335e-02 2.354897e-02 4.448654e-02 4.302648e-02 2.383015e-02 1.430534e-02
<GCONST> -7.339313e+00
<STATE> 9
<MEAN> 32
 6.239834e+00 7.067134e+00 7.420206e+00 8.504122e+00 9.073536e+00 9.351343e+00 9.470590e+00 9.072184e+00 8.440690e+00 8.528652e+00 8.857695e+00 9.092135e+00 9.526859e+00 9.105667e+00 8.358224e+00 8.207578e+00 -1.000480e-01 -1.410240e-01 -2.061648e-01 -2.395397e-01 -2.289735e-01 -2.425417e-01 -2.687095e-01 -2.608317e-01 -2.251595e-01 -2.132471e-01 -2.209377e-01 -2.295901e-01 -2.378748e-01 -2.012732e-01 -1.012352e-01 -4.197576e-02
<VARIANCE> 32
 3.735779e-01 7.485183e-01 5.378735e-01 5.879727e-01 5.923063e-01 5.162491e-01 7.417813e-01 1.041977e+00 5.824122e-01 5.772544e-01 9.191562e-01 7.690439e-01 6.895871e-01 4.630417e-01 4.689002e-01 2.068090e-01 1.960720e-02 2.371288e-02 2.755331e-02 2.571892e-02 1.916603e-02 1.470465e-02 1.654322e-02 1.874250e-02 1.330551e-02 1.047748e-02 1.989774e-02 1.430341e-02 1.699473e-02 1.589500e-02 1.574189e-02 9.666976e-03
<GCONST> -1.519609e+01
<TRANSP> 10
 0.000000e+00 1.000000e+00 0.000000e+00 0.000000e+00 0.000000e+00 0.000000e+00 0.000000e+00 0.000000e+00 0.000000e+00 0.000000e+00
 0.000000e+00 5.894411e-01 4.105588e-01 0.000000e+00 0.000000e+00 0.000000e+00 0.000000e+00 0.000000e+00 0.000000e+00 0.000000e+00
 0.000000e+00 0.000000e+00 2.196371e-01 7.803629e-01 0.000000e+00 0.000000e+00 0.000000e+00 0.000000e+00 0.000000e+00 0.000000e+00
 0.000000e+00 0.000000e+00 0.000000e+00 4.489334e-01 5.510666e-01 0.000000e+00 0.000000e+00 0.000000e+00 0.000000e+00 0.000000e+00
 0.000000e+00 0.000000e+00 0.000000e+00 0.000000e+00 5.896329e-01 4.103671e-01 0.000000e+00 0.000000e+00 0.000000e+00 0.000000e+00
 0.000000e+00 0.000000e+00 0.000000e+00 0.000000e+00 0.000000e+00 8.851074e-01 1.148926e-01 0.000000e+00 0.000000e+00 0.000000e+00
 0.000000e+00 0.000000e+00 0.000000e+00 0.000000e+00 0.000000e+00 0.000000e+00 8.802770e-01 1.197231e-01 0.000000e+00 0.000000e+00
 0.000000e+00 0.000000e+00 0.000000e+00 0.000000e+00 0.000000e+00 0.000000e+00 0.000000e+00 9.343047e-01 6.569529e-02 0.000000e+00
 0.000000e+00 0.000000e+00 0.000000e+00 0.000000e+00 0.000000e+00 0.000000e+00 0.000000e+00 0.000000e+00 8.827118e-01 1.172883e-01
 0.000000e+00 0.000000e+00 0.000000e+00 0.000000e+00 0.000000e+00 0.000000e+00 0.000000e+00 0.000000e+00 0.000000e+00 0.000000e+00
<ENDHMM>
~h "devet"
<BEGINHMM>
<NUMSTATES> 10
<STATE> 2
<MEAN> 32
 5.995828e+00 6.364388e+00 6.588510e+00 6.522696e+00 6.357044e+00 6.532006e+00 6.652633e+00 6.756624e+00 7.113945e+00 7.100440e+00 7.204288e+00 7.380322e+00 7.620247e+00 7.721463e+00 7.835877e+00 8.019072e+00 5.802545e-02 1.129191e-01 1.275398e-01 1.040070e-01 4.658609e-02 1.155572e-02 -3.264278e-03 9.140737e-03 2.414162e-02 2.012881e-02 1.770813e-02 1.196853e-02 1.135271e-02 1.705370e-02 1.032532e-02 3.478170e-03
<VARIANCE> 32
 2.961980e-01 2.976937e-01 4.310553e-01 2.827510e-01 7.924888e-02 7.404608e-02 7.832832e-02 4.854058e-02 3.832880e-02 5.041823e-02 5.000144e-02 3.894179e-02 7.014286e-02 7.277292e-02 4.870379e-02 6.309236e-02 2.092265e-02 3.904504e-02 4.025172e-02 3.028427e-02 1.039288e-02 8.958105e-03 7.461197e-03 8.294423e-03 1.010625e-02 8.862280e-03 8.006832e-03 8.023308e-03 1.050592e-02 5.883921e-03 1.917838e-03 1.773266e-03
<GCONST> -5.403262e+01
<STATE> 3
<MEAN> 32
 6.107619e+00 6.651349e+00 6.714802e+00 6.772079e+00 6.523649e+00 6.591767e+00 6.718363e+00 6.952979e+00 7.410128e+00 7.373840e+00 7.603059e+00 7.787547e+00 8.076992e+00 8.108902e+00 7.926487e+00 8.069161e+00 8.502559e-02 1.713843e-01 1.814787e-01 1.696144e-01 1.108641e-01 4.378757e-02 7.534062e-02 1.607074e-01 2.029746e-01 1.876482e-01 2.093984e-01 2.171378e-01 2.202497e-01 1.681229e-01 6.912693e-02 3.835294e-02
<VARIANCE> 32
 3.538181e-01 7.784412e-01 5.291840e-01 4.329014e-01 1.297260e-01 8.992786e-02 8.305594e-02 9.923442e-02 2.124744e-01 2.239355e-01 3.364017e-01 4.328823e-01 6.984054e-01 4.739960e-01 1.001283e-01 1.136281e-01 1.358839e-02 5.549904e-02 5.274647e-02 4.426051e-02 1.825616e-02 9.784890e-03 1.945568e-02 3.769409e-02 4.462921e-02 3.945853e-02 4.519715e-02 8.042337e-02 1.185420e-01 8.931825e-02 1.374590e-02 6.890046e-03
<GCONST> -1.862399e+01
<STATE> 4
<MEAN> 32
 6.379955e+00 7.189862e+00 7.526028e+00 7.436632e+00 6.999986e+00 6.798948e+00 6.890390e+00 7.376151e+00 7.824247e+00 7.695785e+00 7.848549e+00 7.879240e+00 8.166891e+00 8.224446e+00 8.165072e+00 8.297122e+00 1.207575e-01 2.423111e-01 4.275610e-01 4.287998e-01 2.938658e-01 2.350703e-01 2.980393e-01 4.493901e-01 4.906652e-01 4.890749e-01 4.701389e-01 4.785271e-01 4.993802e-01 4.223745e-01 2.283829e-01 1.237255e-01
<VARIANCE> 32
 4.922099e-01 9.440444e-01 9.324749e-01 8.219162e-01 4.205503e-01 1.590098e-01 1.279337e-01 3.072738e-01 3.285652e-01 1.805875e-01 1.710736e-01 1.342251e-01 1.571699e-01 1.928499e-01 2.974758e-01 3.972090e-01 2.365761e-02 5.202860e-02 1.072236e-01 1.071472e-01 5.701909e-02 3.916791e-02 4.444041e-02 6.740135e-02 8.224370e-02 8.323966e-02 1.061423e-01 1.150823e-01 1.277146e-01 9.518593e-02 5.764890e-02 3.321355e-02
<GCONST> -3.530720e+00
<STATE> 5
<MEAN> 32
 6.448516e+00 7.436137e+00 7.894598e+00 7.918143e+00 7.259474e+00 7.060780e+00 7.306614e+00 7.948289e+00 8.415038e+00 8.349551e+00 8.541162e+00 8.808420e+00 9.175285e+00 9.186613e+00 8.809715e+00 8.715601e+00 1.825901e-01 3.180152e-01 6.583136e-01 7.263660e-01 5.399022e-01 4.187769e-01 4.821868e-01 6.323851e-01 7.385116e-01 7.513492e-01 7.205330e-01 6.983685e-01 6.781457e-01 5.079715e-01 2.205090e-01 7.119974e-02
<VARIANCE> 32
 5.070566e-01 7.678803e-01 5.917329e-01 3.430928e-01 1.010441e-01 8.724351e-02 1.623253e-01 3.712867e-01 4.646035e-01 3.857118e-01 4.928848e-01 5.856342e-01 7.330192e-01 5.633863e-01 8.713520e-01 8.909355e-01 4.067499e-02 7.532611e-02 5.540929e-02 6.082673e-02 4.918790e-02 6.703362e-02 5.497961e-02 8.984387e-02 1.399657e-01 1.379742e-01 1.985313e-01 2.346893e-01 2.207597e-01 1.997220e-01 1.000212e-01 5.307584e-02
<GCONST> 6.755612e+00
<STATE> 6
<MEAN> 32
 6.725324e+00 7.995490e+00 9.436374e+00 9.590199e+00 8.602635e+00 8.263751e+00 8.640656e+00 9.551031e+00 1.037955e+01 1.034912e+01 1.055573e+01 1.065238e+01 1.071949e+01 1.017814e+01 9.182538e+00 8.772930e+00 1.762104e-01 2.748492e-01 6.337494e-01 7.646409e-01 6.972277e-01 5.303394e-01 5.341094e-01 6.573041e-01 8.100636e-01 8.208894e-01 8.093848e-01 7.836100e-01 7.077304e-01 4.997631e-01 2.560325e-01 1.477312e-01
<VARIANCE> 32
 4.213708e-01 5.314142e-01 5.611065e-01 5.935165e-01 5.206444e-01 6.674827e-01 5.376457e-01 3.860801e-01 3.514841e-01 4.593315e-01 1.290641e+00 1.286111e+00 1.078800e+00 1.566112e+00 1.127881e+00 7.599092e-01 4.737860e-02 9.980113e-02 8.330864e-02 4.586808e-02 4.059471e-02 3.648343e-02 3.327698e-02 4.553017e-02 6.091867e-02 5.534506e-02 8.918419e-02 1.050167e-01 8.362753e-02 1.172027e-01 4.020943e-02 1.430570e-02
<GCONST> 6.262609e+00
<STATE> 7
<MEAN> 32
 6.811106e+00 7.882470e+00 9.648670e+00 1.041511e+01 9.788665e+00 8.871961e+00 9.084968e+00 9.948080e+00 1.103163e+01 1.101848e+01 1.089003e+01 1.104421e+01 1.133480e+01 1.053452e+01 9.287887e+00 8.684516e+00 7.640833e-02 3.017038e-02 5.069733e-02 2.616331e-01 3.628289e-01 2.679516e-01 2.349605e-01 2.461418e-01 2.766477e-01 2.853025e-01 2.597583e-01 2.335590e-01 2.062443e-01 1.600711e-01 5.920283e-02 4.178700e-02
<VARIANCE> 32
 3.616643e-01 5.812451e-01 6.567644e-01 4.995903e-01 9.429564e-01 6.117031e-01 3.869006e-01 4.082262e-01 3.111297e-01 4.620886e-01 1.353402e+00 1.483648e+00 1.063499e+00 1.348746e+00 6.069693e-01 4.590744e-01 1.362307e-02 1.825198e-02 5.989965e-02 3.889995e-02 4.213627e-02 7.598432e-03 7.205013e-03 7.479333e-03 1.112718e-02 1.352729e-02 1.263249e-02 1.720646e-02 2.086245e-02 1.705420e-02 2.085151e-02 1.378162e-02
<GCONST> -1.398507e+01
<STATE> 8
<MEAN> 32
 6.904187e+00 7.948657e+00 9.315915e+00 9.961582e+00 9.704769e+00 8.940399e+00 9.174548e+00 9.848518e+00 1.087949e+01 1.111664e+01 1.139409e+01 1.132030e+01 1.161522e+01 1.104740e+01 9.201380e+00 8.686030e+00 -1.019447e-02 -1.023582e-02 -1.856375e-02 -1.685957e-02 -7.766619e-03 -1.192309e-02 -9.965488e-03 -3.819490e-03 -1.885881e-02 -3.722392e-02 -2.736463e-02 -2.417006e-02 -2.325832e-02 -2.009721e-02 -1.073630e-02 -6.196485e-03
<VARIANCE> 32
 6.456509e-01 7.639022e-01 1.097161e+00 8.575443e-01 1.073261e+00 7.027708e-01 4.310808e-01 4.153261e-01 4.831128e-01 5.322074e-01 5.743187e-01 6.775773e-01 5.664145e-01 7.284372e-01 1.009097e+00 4.849937e-01 5.984445e-03 6.828073e-03 3.077383e-02 3.300134e-02 4.330984e-02 2.366046e-02 1.737015e-02 1.614187e-02 3.030494e-02 4.387033e-02 3.761013e-02 3.500555e-02 3.877433e-02 4.197678e-02 1.542729e-02 6.802893e-03
<GCONST> -8.758367e+00
<STATE> 9
<MEAN> 32
 6.270518e+00 7.453265e+00 8.870004e+00 9.190650e+00 8.340168e+00 7.810676e+00 8.137182e+00 9.371134e+00 9.813808e+00 9.663196e+00 9.321044e+00 9.668768e+00 9.870872e+00 9.174358e+00 8.440564e+00 8.442992e+00 -5.482785e-02 -9.147947e-02 -1.263599e-01 -1.430652e-01 -1.375589e-01 -1.115215e-01 -1.191150e-01 -1.492510e-01 -1.619434e-01 -1.361283e-01 -1.349260e-01 -1.388650e-01 -1.279148e-01 -1.026397e-01 -6.061632e-02 -2.978433e-02
<VARIANCE> 32
 1.796647e-01 3.631835e-01 5.339304e-01 6.629313e-01 7.093312e-01 3.546865e-01 2.826312e-01 6.159927e-01 5.621085e-01 6.781071e-01 1.206954e+00 1.799559e+00 7.613814e-01 5.004255e-01 2.457144e-01 1.827643e-01 1.326585e-02 2.342849e-02 4.536814e-02 5.644444e-02 5.476666e-02 3.201108e-02 3.557337e-02 6.277530e-02 6.332507e-02 4.544438e-02 5.103473e-02 4.702532e-02 4.956207e-02 4.453999e-02 1.530137e-02 6.463475e-03
<GCONST> -6.055903e+00
<TRANSP> 10
 0.000000e+00 1.000000e+00 0.000000e+00 0.000000e+00 0.000000e+00 0.000000e+00 0.000000e+00 0.000000e+00 0.000000e+00 0.000000e+00
 0.000000e+00 7.713639e-01 2.286362e-01 0.000000e+00 0.000000e+00 0.000000e+00 0.000000e+00 0.000000e+00 0.000000e+00 0.000000e+00
 0.000000e+00 0.000000e+00 4.909628e-01 5.090373e-01 0.000000e+00 0.000000e+00 0.000000e+00 0.000000e+00 0.000000e+00 0.000000e+00
 0.000000e+00 0.000000e+00 0.000000e+00 3.108453e-01 6.891547e-01 0.000000e+00 0.000000e+00 0.000000e+00 0.000000e+00 0.000000e+00
 0.000000e+00 0.000000e+00 0.000000e+00 0.000000e+00 1.839662e-01 8.160338e-01 0.000000e+00 0.000000e+00 0.000000e+00 0.000000e+00
 0.000000e+00 0.000000e+00 0.000000e+00 0.000000e+00 0.000000e+00 3.688748e-01 6.311253e-01 0.000000e+00 0.000000e+00 0.000000e+00
 0.000000e+00 0.000000e+00 0.000000e+00 0.000000e+00 0.000000e+00 0.000000e+00 5.182974e-01 4.817025e-01 0.000000e+00 0.000000e+00
 0.000000e+00 0.000000e+00 0.000000e+00 0.000000e+00 0.000000e+00 0.000000e+00 0.000000e+00 9.618935e-01 3.810653e-02 0.000000e+00
 0.000000e+00 0.000000e+00 0.000000e+00 0.000000e+00 0.000000e+00 0.000000e+00 0.000000e+00 0.000000e+00 9.280363e-01 7.196377e-02
 0.000000e+00 0.000000e+00 0.000000e+00 0.000000e+00 0.000000e+00 0.000000e+00 0.000000e+00 0.000000e+00 0.000000e+00 0.000000e+00
<ENDHMM>
~h "jedna"
<BEGINHMM>
<NUMSTATES> 10
<STATE> 2
<MEAN> 32
 5.905421e+00 6.379986e+00 6.712412e+00 6.665851e+00 6.532479e+00 6.608826e+00 6.767082e+00 7.213301e+00 7.692330e+00 7.685615e+00 7.600110e+00 7.716995e+00 8.228042e+00 8.208409e+00 8.280819e+00 8.434005e+00 1.890558e-02 9.306975e-02 7.117213e-02 4.684177e-02 1.378687e-02 1.714891e-02 8.719726e-03 8.237041e-03 1.882447e-02 4.725112e-02 5.808891e-02 5.738987e-02 6.134102e-02 3.486632e-02 -2.834646e-03 8.578761e-05
<VARIANCE> 32
 2.911837e-01 4.864367e-01 8.332245e-01 6.465249e-01 2.478757e-01 1.092470e-01 9.966195e-02 4.408227e-01 6.970910e-01 5.525434e-01 2.442898e-01 2.840084e-01 4.261888e-01 2.980369e-01 3.203214e-01 2.563814e-01 1.646209e-02 3.136045e-02 5.494132e-02 3.820702e-02 1.644707e-02 1.021104e-02 7.258712e-03 2.543315e-02 3.788991e-02 4.156400e-02 3.288564e-02 3.998519e-02 6.353649e-02 4.436329e-02 1.943282e-02 7.966026e-03
<GCONST> -1.743686e+01
<STATE> 3
<MEAN> 32
 5.976019e+00 6.767952e+00 6.997312e+00 6.862818e+00 6.530338e+00 6.598733e+00 6.675037e+00 6.882342e+00 7.464333e+00 7.746032e+00 7.931508e+00 8.229584e+00 8.358324e+00 8.296432e+00 8.024594e+00 8.126505e+00 1.398067e-01 3.521515e-01 4.519108e-01 3.840699e-01 1.808759e-01 6.976629e-02 6.875540e-02 9.785782e-02 1.779715e-01 3.711565e-01 4.190364e-01 4.392036e-01 3.911834e-01 2.293328e-01 9.524439e-02 2.474836e-02
<VARIANCE> 32
 2.072759e-01 5.727314e-01 6.850120e-01 4.999847e-01 1.378642e-01 8.907419e-02 4.803865e-02 4.670698e-02 2.104681e-01 4.705438e-01 4.786969e-01 7.478205e-01 4.510238e-01 3.567558e-01 1.399212e-01 9.061381e-02 1.870937e-02 5.088473e-02 5.393080e-02 2.953756e-02 2.018041e-02 1.741538e-02 1.199882e-02 1.466104e-02 1.809385e-02 3.796937e-02 4.621148e-02 6.140855e-02 9.139067e-02 4.545030e-02 1.011850e-02 2.888674e-03
<GCONST> -2.349420e+01
<STATE> 4
<MEAN> 32
 6.210746e+00 7.440395e+00 7.886758e+00 7.668413e+00 6.954590e+00 6.789583e+00 6.888817e+00 7.158737e+00 7.803166e+00 8.776566e+00 9.173481e+00 9.570456e+00 9.824634e+00 9.052756e+00 8.264185e+00 8.186229e+00 2.089022e-01 3.967273e-01 6.127703e-01 5.389251e-01 3.210551e-01 1.863935e-01 2.061043e-01 2.643145e-01 3.522698e-01 6.527409e-01 6.835732e-01 6.878616e-01 6.932420e-01 4.760691e-01 1.899820e-01 3.765385e-02
<VARIANCE> 32
 2.105088e-01 4.471091e-01 5.534712e-01 3.476093e-01 1.738249e-01 1.058521e-01 9.234232e-02 1.342409e-01 3.600351e-01 6.065077e-01 7.927870e-01 1.198191e+00 1.214009e+00 4.975077e-01 2.412131e-01 1.648750e-01 4.696366e-02 9.532478e-02 8.126018e-02 6.843410e-02 3.248841e-02 2.441128e-02 3.198082e-02 2.774150e-02 2.832383e-02 5.903175e-02 6.315792e-02 9.232908e-02 1.079906e-01 6.361460e-02 2.826122e-02 2.334655e-03
<GCONST> -9.799841e+00
<STATE> 5
<MEAN> 32
 6.412085e+00 7.676866e+00 8.484727e+00 8.467881e+00 7.645802e+00 7.324399e+00 7.493795e+00 8.292788e+00 8.859136e+00 9.340412e+00 9.460179e+00 9.742066e+00 9.860660e+00 9.019738e+00 8.223774e+00 8.175179e+00 2.032101e-02 2.464136e-02 4.122997e-02 5.486011e-02 6.147395e-02 5.848864e-02 7.015076e-02 7.700522e-02 3.647080e-02 2.790088e-02 2.945442e-02 2.199606e-02 4.188346e-02 4.215565e-02 1.730911e-02 9.304781e-03
<VARIANCE> 32
 1.465898e-01 2.983311e-01 6.880158e-01 7.547328e-01 3.827004e-01 3.169563e-01 3.706597e-01 8.585472e-01 1.116179e+00 1.090406e+00 1.328418e+00 1.757104e+00 1.318351e+00 1.005739e+00 2.231420e-01 9.754097e-02 1.520858e-02 2.972562e-02 8.055373e-02 8.818457e-02 5.664460e-02 4.443772e-02 5.760492e-02 9.958684e-02 9.319559e-02 8.882964e-02 8.569561e-02 9.380645e-02 8.821145e-02 6.972190e-02 2.460512e-02 7.956712e-03
<GCONST> 2.229725e+00
<STATE> 6
<MEAN> 32
 6.846630e+00 8.161228e+00 9.677979e+00 9.598204e+00 8.707423e+00 8.257424e+00 8.457138e+00 8.882042e+00 9.412996e+00 1.065966e+01 1.103751e+01 1.110058e+01 1.154006e+01 1.081620e+01 9.160501e+00 8.650907e+00 6.160788e-02 5.843798e-02 2.409588e-01 3.979444e-01 4.814178e-01 4.147574e-01 4.317509e-01 4.554694e-01 4.949068e-01 4.331387e-01 3.530605e-01 3.336362e-01 3.037454e-01 2.609929e-01 1.338097e-01 1.320368e-01
<VARIANCE> 32
 4.457467e-01 7.627743e-01 9.162451e-01 7.388403e-01 3.661956e-01 2.701022e-01 3.879873e-01 7.158524e-01 4.498347e-01 9.679064e-01 1.153209e+00 8.908589e-01 9.044948e-01 8.567898e-01 1.141864e+00 2.977875e-01 2.660278e-02 3.931403e-02 1.099463e-01 7.750108e-02 2.934850e-02 1.729693e-02 2.983327e-02 2.220448e-02 2.393060e-02 6.902558e-02 6.259922e-02 5.395378e-02 6.609339e-02 5.463368e-02 3.036170e-02 1.042975e-02
<GCONST> -7.011008e-01
<STATE> 7
<MEAN> 32
 7.826865e+00 8.942674e+00 1.020395e+01 1.055628e+01 9.913321e+00 9.334497e+00 9.468560e+00 1.011503e+01 1.080501e+01 1.073169e+01 1.079266e+01 1.094124e+01 1.100840e+01 1.054211e+01 9.722723e+00 9.105899e+00 -1.315548e-02 -3.686420e-02 -8.849682e-02 -5.792671e-02 -8.804888e-03 5.445568e-03 1.919568e-02 2.320357e-02 -7.035725e-03 -9.121887e-02 -9.389853e-02 -7.394709e-02 -8.545263e-02 -8.668739e-02 -5.166645e-02 -3.482243e-02
<VARIANCE> 32
 7.633526e-01 8.344194e-01 9.586635e-01 7.489383e-01 7.303461e-01 8.965427e-01 9.470863e-01 1.319155e+00 1.014032e+00 1.533549e+00 1.502744e+00 1.590791e+00 1.937722e+00 1.455857e+00 1.108311e+00 4.517442e-01 7.201922e-03 1.687239e-02 5.581862e-02 7.207868e-02 1.087877e-01 8.869528e-02 8.397068e-02 9.844760e-02 1.147282e-01 7.842617e-02 6.812326e-02 1.028770e-01 1.125232e-01 7.867056e-02 4.332616e-02 2.592568e-02
<GCONST> 1.432964e+01
<STATE> 8
<MEAN> 32
 6.626507e+00 7.670753e+00 8.541560e+00 9.083135e+00 9.422461e+00 9.554152e+00 9.764793e+00 1.031082e+01 1.004856e+01 9.915589e+00 1.030340e+01 1.041814e+01 1.099939e+01 1.017513e+01 8.430594e+00 8.216923e+00 -3.955004e-03 -2.911124e-03 -3.154962e-02 -8.288065e-03 2.350910e-02 4.659394e-02 4.888788e-02 1.853830e-02 -3.376825e-02 -4.363225e-02 -3.510705e-02 -2.846060e-02 -3.090080e-02 -2.788967e-02 -1.445330e-02 -1.197495e-02
<VARIANCE> 32
 1.707357e-01 3.696846e-01 4.699456e-01 5.893197e-01 1.083947e+00 1.914382e+00 2.407218e+00 2.454443e+00 7.218012e-01 4.771190e-01 8.919236e-01 1.046471e+00 9.181675e-01 9.396334e-01 2.712002e-01 1.004176e-01 9.865697e-03 2.059161e-02 3.055720e-02 3.303201e-02 5.117553e-02 5.778887e-02 6.114109e-02 6.522226e-02 4.742689e-02 3.540633e-02 4.042106e-02 4.895687e-02 4.341561e-02 4.333902e-02 1.533819e-02 5.218262e-03
<GCONST> -2.685398e+00
<STATE> 9
<MEAN> 32
 6.369248e+00 7.292587e+00 7.783441e+00 8.681062e+00 9.332557e+00 9.181225e+00 9.515238e+00 9.259706e+00 8.835268e+00 8.803736e+00 8.627144e+00 9.000755e+00 9.322935e+00 8.900329e+00 8.105659e+00 8.171926e+00 -4.969099e-02 -9.700027e-02 -1.312229e-01 -1.632112e-01 -1.634726e-01 -1.492471e-01 -1.708700e-01 -1.729903e-01 -1.397433e-01 -1.263928e-01 -1.271033e-01 -1.481640e-01 -1.368485e-01 -9.603386e-02 -3.315761e-02 -8.692207e-03
<VARIANCE> 32
 2.078344e-01 4.511891e-01 6.438212e-01 1.065700e+00 1.148340e+00 5.039051e-01 6.229255e-01 5.266773e-01 4.862266e-01 5.800657e-01 6.760693e-01 6.806572e-01 4.350887e-01 2.248348e-01 8.871239e-02 5.392955e-02 1.167437e-02 1.649988e-02 2.212898e-02 3.335549e-02 3.267119e-02 2.929132e-02 3.463655e-02 2.935190e-02 2.125915e-02 1.909505e-02 1.720949e-02 2.124907e-02 1.999107e-02 2.238295e-02 5.833844e-03 1.616483e-03
<GCONST> -1.991761e+01
<TRANSP> 10
 0.000000e+00 1.000000e+00 0.000000e+00 0.000000e+00 0.000000e+00 0.000000e+00 0.000000e+00 0.000000e+00 0.000000e+00 0.000000e+00
 0.000000e+00 7.833671e-01 2.166329e-01 0.000000e+00 0.000000e+00 0.000000e+00 0.000000e+00 0.000000e+00 0.000000e+00 0.000000e+00
 0.000000e+00 0.000000e+00 5.139173e-01 4.860827e-01 0.000000e+00 0.000000e+00 0.000000e+00 0.000000e+00 0.000000e+00 0.000000e+00
 0.000000e+00 0.000000e+00 0.000000e+00 3.766003e-01 6.233997e-01 0.000000e+00 0.000000e+00 0.000000e+00 0.000000e+00 0.000000e+00
 0.000000e+00 0.000000e+00 0.000000e+00 0.000000e+00 9.140927e-01 8.590730e-02 0.000000e+00 0.000000e+00 0.000000e+00 0.000000e+00
 0.000000e+00 0.000000e+00 0.000000e+00 0.000000e+00 0.000000e+00 6.230057e-01 3.769943e-01 0.000000e+00 0.000000e+00 0.000000e+00
 0.000000e+00 0.000000e+00 0.000000e+00 0.000000e+00 0.000000e+00 0.000000e+00 8.896593e-01 1.103406e-01 0.000000e+00 0.000000e+00
 0.000000e+00 0.000000e+00 0.000000e+00 0.000000e+00 0.000000e+00 0.000000e+00 0.000000e+00 9.360232e-01 6.397671e-02 0.000000e+00
 0.000000e+00 0.000000e+00 0.000000e+00 0.000000e+00 0.000000e+00 0.000000e+00 0.000000e+00 0.000000e+00 9.086640e-01 9.133603e-02
 0.000000e+00 0.000000e+00 0.000000e+00 0.000000e+00 0.000000e+00 0.000000e+00 0.000000e+00 0.000000e+00 0.000000e+00 0.000000e+00
<ENDHMM>
