~o
<STREAMINFO> 1 32
<VECSIZE> 32<NULLD><FBANK_D><DIAGC>
~h "ctyri"
<BEGINHMM>
<NUMSTATES> 10
<STATE> 2
<MEAN> 32
 5.729783e+00 5.792961e+00 6.015365e+00 6.164109e+00 6.338316e+00 6.534328e+00 6.666160e+00 6.840606e+00 7.191644e+00 7.236747e+00 7.459033e+00 7.803457e+00 8.095821e+00 8.232323e+00 8.164804e+00 8.103251e+00 4.287282e-03 8.338423e-03 2.144588e-02 1.876590e-02 6.037147e-03 2.393948e-02 4.817289e-02 5.255866e-02 5.328432e-02 1.245313e-01 2.110281e-01 2.830800e-01 2.739321e-01 2.575741e-01 1.784340e-01 8.890525e-02
<VARIANCE> 32
 2.012730e-01 1.580923e-01 1.464786e-01 8.476061e-02 5.976516e-02 4.302721e-02 5.720358e-02 5.214464e-02 6.713695e-02 1.084252e-01 2.248501e-01 4.001099e-01 4.922750e-01 4.967034e-01 3.317243e-01 8.340591e-02 1.200564e-02 1.369744e-02 9.866100e-03 1.180671e-02 8.323429e-03 6.294703e-03 6.526830e-03 8.684757e-03 1.305961e-02 3.825034e-02 8.499440e-02 1.261255e-01 1.414439e-01 1.379322e-01 7.949568e-02 1.912796e-02
<GCONST> -3.309795e+01
<STATE> 3
<MEAN> 32
 5.620529e+00 5.783903e+00 5.996830e+00 6.197063e+00 6.313695e+00 6.515514e+00 6.767447e+00 6.990411e+00 7.468627e+00 7.917993e+00 8.901052e+00 9.876863e+00 1.042013e+01 1.032387e+01 9.729192e+00 9.201764e+00 1.489704e-04 1.047755e-03 -4.045380e-03 -5.326625e-03 -5.225440e-03 -9.754101e-03 -1.479682e-02 -1.303377e-04 1.306620e-02 1.341431e-02 2.500558e-02 1.173083e-02 2.592077e-02 1.780371e-02 4.414909e-03 -1.682583e-04
<VARIANCE> 32
 1.130609e-01 7.499122e-02 1.116175e-01 8.704706e-02 5.979201e-02 5.609824e-02 8.154973e-02 8.967351e-02 1.661206e-01 4.917321e-01 9.229252e-01 1.134050e+00 1.334834e+00 1.341578e+00 1.096339e+00 6.245849e-01 1.204191e-02 6.343152e-03 1.165221e-02 9.619759e-03 7.075655e-03 4.884830e-03 7.844932e-03 1.164210e-02 2.253755e-02 6.270750e-02 1.286531e-01 1.634379e-01 1.872673e-01 1.923258e-01 1.569909e-01 9.481552e-02
<GCONST> -1.956774e+01
<STATE> 4
<MEAN> 32
 5.837279e+00 5.912133e+00 6.106850e+00 6.259576e+00 6.364858e+00 6.565414e+00 6.768051e+00 7.262241e+00 8.053103e+00 8.721284e+00 9.227461e+00 9.826812e+00 1.020534e+01 1.009736e+01 9.622231e+00 9.004558e+00 -3.370971e-03 -9.225590e-03 -3.004390e-03 2.291367e-03 5.443913e-03 -2.589608e-04 -3.417849e-03 -5.396671e-03 -9.398112e-03 -3.408242e-02 -5.240203e-02 -4.706028e-02 -3.214345e-02 -3.583581e-02 -4.367753e-02 -3.251585e-02
<VARIANCE> 32
 1.952229e-01 1.060742e-01 1.394386e-01 9.413562e-02 6.746580e-02 8.785279e-02 7.708462e-02 2.724208e-01 7.992103e-01 1.726910e+00 2.055141e+00 2.107140e+00 1.731256e+00 1.760674e+00 1.463648e+00 7.374399e-01 1.673517e-02 1.114035e-02 1.713149e-02 1.294419e-02 8.101631e-03 7.928831e-03 7.556444e-03 2.933178e-02 7.687995e-02 1.235658e-01 1.136153e-01 1.173378e-01 1.182461e-01 1.210936e-01 1.134451e-01 7.322671e-02
<GCONST> -8.490700e+00
<STATE> 5
<MEAN> 32
 5.698308e+00 5.758205e+00 6.052351e+00 6.249737e+00 6.431397e+00 6.561216e+00 6.745127e+00 7.047834e+00 7.508708e+00 7.642657e+00 8.072885e+00 8.531382e+00 8.929742e+00 8.829522e+00 8.379519e+00 8.236729e+00 5.206175e-02 1.925365e-01 3.122367e-01 3.163623e-01 2.062480e-01 1.584826e-01 2.089486e-01 2.992993e-01 3.949231e-01 4.321514e-01 3.700456e-01 3.305239e-01 3.321124e-01 2.800713e-01 1.389523e-01 1.104135e-01
<VARIANCE> 32
 1.223799e-01 1.459419e-01 2.100531e-01 1.999829e-01 9.487014e-02 8.709464e-02 7.387343e-02 1.474828e-01 2.151439e-01 4.224859e-01 4.476497e-01 3.577807e-01 3.330524e-01 3.179523e-01 1.481770e-01 1.099470e-01 1.706144e-02 4.480363e-02 5.399562e-02 4.436160e-02 1.444972e-02 1.229460e-02 1.792325e-02 2.005210e-02 3.082786e-02 4.336281e-02 6.955793e-02 5.202620e-02 6.070489e-02 5.893881e-02 3.441218e-02 2.081595e-02
<GCONST> -2.318137e+01
<STATE> 6
<MEAN> 32
 5.567322e+00 6.027254e+00 6.871537e+00 7.325271e+00 6.916564e+00 7.080087e+00 7.384175e+00 7.719104e+00 8.335583e+00 8.857720e+00 9.616727e+00 9.970727e+00 1.053881e+01 1.052182e+01 1.027599e+01 1.027194e+01 4.102944e-02 1.620324e-01 1.769834e-01 1.580133e-01 1.006561e-01 7.937196e-02 1.079988e-01 1.295353e-01 1.581730e-01 1.385987e-01 9.118108e-02 1.102894e-01 1.271507e-01 1.132789e-01 5.993700e-02 3.851020e-02
<VARIANCE> 32
 2.532409e-01 2.159822e-01 5.391890e-01 8.740906e-01 2.430312e-01 1.613575e-01 2.523461e-01 4.168345e-01 9.145703e-01 1.381617e+00 2.240698e+00 2.135348e+00 2.011089e+00 2.104987e+00 2.255459e+00 2.247510e+00 3.567223e-02 9.058672e-02 1.761721e-01 1.880274e-01 6.544434e-02 4.417716e-02 6.106642e-02 9.535331e-02 1.892428e-01 2.296800e-01 2.534495e-01 2.542243e-01 2.601111e-01 2.305092e-01 1.897448e-01 1.486238e-01
<GCONST> 2.213385e+01
<STATE> 7
<MEAN> 32
 6.290893e+00 7.806508e+00 8.706397e+00 8.821115e+00 7.855302e+00 7.770348e+00 8.114882e+00 8.713790e+00 9.823325e+00 1.002582e+01 1.007954e+01 1.039722e+01 1.073445e+01 1.043340e+01 9.472790e+00 9.065534e+00 2.985959e-01 6.090230e-01 8.285422e-01 8.057024e-01 3.809641e-01 3.245870e-01 3.026989e-01 3.665123e-01 6.170035e-01 6.597314e-01 5.857609e-01 4.848374e-01 4.378543e-01 3.124782e-01 1.718351e-01 8.529914e-02
<VARIANCE> 32
 4.306026e-01 1.147148e+00 1.346383e+00 1.335771e+00 4.582687e-01 5.763009e-01 5.234895e-01 3.499439e-01 6.783346e-01 7.030514e-01 1.026136e+00 1.016097e+00 1.545085e+00 1.526766e+00 1.284853e+00 9.753819e-01 5.463161e-02 8.784433e-02 9.669008e-02 8.675424e-02 3.923528e-02 4.532199e-02 3.201018e-02 3.240207e-02 5.426807e-02 5.194845e-02 6.608018e-02 6.800480e-02 8.287873e-02 9.405755e-02 6.317356e-02 3.612039e-02
<GCONST> 1.051333e+01
<STATE> 8
<MEAN> 32
 6.788694e+00 8.027259e+00 9.465283e+00 9.625791e+00 8.458760e+00 8.198978e+00 8.363235e+00 9.031919e+00 1.029048e+01 1.072014e+01 1.092305e+01 1.113742e+01 1.167680e+01 1.126484e+01 1.009902e+01 9.297564e+00 -6.101156e-03 -2.266330e-02 -4.140880e-03 -8.877147e-03 4.688848e-03 -5.311992e-03 -1.108080e-02 -3.488704e-03 -1.250836e-02 -2.625727e-03 -1.028616e-02 -1.854235e-02 -1.712403e-02 -1.521218e-02 -1.729760e-02 -1.895167e-02
<VARIANCE> 32
 7.476062e-01 9.361948e-01 1.800590e+00 1.353307e+00 1.002212e+00 7.244946e-01 5.830259e-01 4.659264e-01 6.129563e-01 6.745318e-01 5.952389e-01 6.048010e-01 6.035504e-01 8.068434e-01 1.524493e+00 1.274653e+00 1.527641e-02 3.753623e-02 7.963889e-02 8.282254e-02 5.202365e-02 3.447621e-02 3.110673e-02 4.010438e-02 4.315123e-02 4.767887e-02 3.616561e-02 4.423414e-02 5.181561e-02 5.869133e-02 8.408465e-02 5.486215e-02
<GCONST> 6.468585e+00
<STATE> 9
<MEAN> 32
 6.474254e+00 7.843539e+00 9.188510e+00 8.939379e+00 7.817413e+00 7.481205e+00 7.697108e+00 8.562027e+00 9.747350e+00 1.025540e+01 9.719028e+00 9.734151e+00 1.014125e+01 9.589566e+00 8.584958e+00 8.446817e+00 -2.301614e-02 -4.765878e-02 -9.736648e-02 -1.036030e-01 -6.233793e-02 -5.091810e-02 -5.911813e-02 -9.049231e-02 -1.072406e-01 -1.066649e-01 -9.520996e-02 -9.361384e-02 -8.360676e-02 -7.794499e-02 -4.526812e-02 -1.494556e-02
<VARIANCE> 32
 2.098451e-01 2.649781e-01 4.950517e-01 4.209305e-01 3.638674e-01 2.388899e-01 1.614922e-01 4.848121e-01 7.710294e-01 4.990112e-01 1.369268e+00 1.385434e+00 1.549326e+00 1.152986e+00 2.043365e-01 1.583407e-01 8.028181e-03 1.399936e-02 2.565785e-02 2.825478e-02 1.696583e-02 1.377617e-02 9.156796e-03 1.315687e-02 2.372747e-02 3.348323e-02 2.695925e-02 2.451025e-02 2.725016e-02 2.389912e-02 8.668109e-03 3.594129e-03
<GCONST> -1.968298e+01
<TRANSP> 10
 0.000000e+00 1.000000e+00 0.000000e+00 0.000000e+00 0.000000e+00 0.000000e+00 0.000000e+00 0.000000e+00 0.000000e+00 0.000000e+00
 0.000000e+00 7.404532e-01 2.595468e-01 0.000000e+00 0.000000e+00 0.000000e+00 0.000000e+00 0.000000e+00 0.000000e+00 0.000000e+00
 0.000000e+00 0.000000e+00 8.232555e-01 1.767445e-01 0.000000e+00 0.000000e+00 0.000000e+00 0.000000e+00 0.000000e+00 0.000000e+00
 0.000000e+00 0.000000e+00 0.000000e+00 8.177562e-01 1.822438e-01 0.000000e+00 0.000000e+00 0.000000e+00 0.000000e+00 0.000000e+00
 0.000000e+00 0.000000e+00 0.000000e+00 0.000000e+00 4.344543e-01 5.655458e-01 0.000000e+00 0.000000e+00 0.000000e+00 0.000000e+00
 0.000000e+00 0.000000e+00 0.000000e+00 0.000000e+00 0.000000e+00 7.345750e-01 2.654250e-01 0.000000e+00 0.000000e+00 0.000000e+00
 0.000000e+00 0.000000e+00 0.000000e+00 0.000000e+00 0.000000e+00 0.000000e+00 6.498451e-01 3.501550e-01 0.000000e+00 0.000000e+00
 0.000000e+00 0.000000e+00 0.000000e+00 0.000000e+00 0.000000e+00 0.000000e+00 0.000000e+00 9.538599e-01 4.614019e-02 0.000000e+00
 0.000000e+00 0.000000e+00 0.000000e+00 0.000000e+00 0.000000e+00 0.000000e+00 0.000000e+00 0.000000e+00 9.440464e-01 5.595362e-02
 0.000000e+00 0.000000e+00 0.000000e+00 0.000000e+00 0.000000e+00 0.000000e+00 0.000000e+00 0.000000e+00 0.000000e+00 0.000000e+00
<ENDHMM>
~h "sedm"
<BEGINHMM>
<NUMSTATES> 10
<STATE> 2
<MEAN> 32
 5.624752e+00 5.776619e+00 5.977270e+00 6.152504e+00 6.266807e+00 6.508704e+00 6.648734e+00 6.911389e+00 7.293808e+00 7.320025e+00 7.482841e+00 7.835153e+00 8.593057e+00 8.858439e+00 9.129810e+00 9.039992e+00 3.475999e-03 2.460496e-03 4.767273e-03 1.463918e-02 5.330169e-03 -1.811304e-03 7.467093e-03 3.859431e-02 4.170775e-02 6.323351e-02 6.722812e-02 1.086762e-01 2.002281e-01 2.320421e-01 2.450130e-01 2.278280e-01
<VARIANCE> 32
 1.167746e-01 7.434115e-02 8.820717e-02 8.179370e-02 5.922764e-02 4.636269e-02 3.979222e-02 5.533152e-02 5.441078e-02 4.402618e-02 7.644696e-02 1.128542e-01 3.441340e-01 4.533567e-01 6.211590e-01 5.915203e-01 1.346038e-02 7.644449e-03 1.221160e-02 1.051305e-02 7.693893e-03 4.467751e-03 4.404922e-03 6.284974e-03 6.957809e-03 6.567802e-03 7.656667e-03 8.570176e-03 2.488585e-02 3.189490e-02 3.772159e-02 2.302594e-02
<GCONST> -4.925593e+01
<STATE> 3
<MEAN> 32
 5.665266e+00 5.761106e+00 5.961592e+00 6.265864e+00 6.426866e+00 6.549597e+00 6.752973e+00 7.210555e+00 7.642236e+00 7.697245e+00 7.999285e+00 8.543047e+00 9.528147e+00 9.808209e+00 1.002124e+01 9.911278e+00 7.138002e-03 -1.413672e-02 8.688496e-03 4.085113e-02 3.847963e-02 3.459751e-02 5.498895e-02 9.562760e-02 9.032874e-02 1.056550e-01 1.162553e-01 1.530261e-01 2.044017e-01 2.328285e-01 1.889768e-01 1.694846e-01
<VARIANCE> 32
 1.753937e-01 1.024138e-01 9.750335e-02 1.376500e-01 6.898063e-02 5.535597e-02 6.391095e-02 4.027348e-02 5.618833e-02 5.035610e-02 1.946627e-01 1.596984e-01 4.671612e-01 4.679473e-01 7.494426e-01 7.588617e-01 1.482458e-02 7.060786e-03 1.007859e-02 1.522654e-02 1.022369e-02 5.752378e-03 7.387921e-03 1.176844e-02 1.531804e-02 1.724178e-02 2.122973e-02 2.164054e-02 6.032111e-02 7.605048e-02 7.884574e-02 5.968577e-02
<GCONST> -3.617820e+01
<STATE> 4
<MEAN> 32
 5.789123e+00 5.836481e+00 6.098855e+00 6.514565e+00 6.593018e+00 6.931515e+00 7.217543e+00 7.751572e+00 8.286397e+00 8.323562e+00 8.581661e+00 9.225503e+00 1.034416e+01 1.078361e+01 1.043726e+01 1.014496e+01 3.804159e-02 4.720595e-02 7.690130e-02 7.288108e-02 4.241775e-02 6.334735e-02 8.047359e-02 9.928373e-02 1.024887e-01 1.174861e-01 1.338118e-01 1.345660e-01 1.243636e-01 1.526430e-01 1.654996e-01 1.363858e-01
<VARIANCE> 32
 2.792703e-01 1.156398e-01 2.058575e-01 3.399042e-01 1.172928e-01 1.127285e-01 1.363981e-01 1.903440e-01 2.733357e-01 2.116216e-01 2.684084e-01 3.756014e-01 6.569847e-01 5.905859e-01 4.658440e-01 3.655092e-01 3.657991e-02 1.881104e-02 1.989378e-02 1.957565e-02 8.182183e-03 7.744675e-03 1.047745e-02 1.596212e-02 1.257712e-02 1.240542e-02 1.606547e-02 1.965121e-02 4.205456e-02 7.148212e-02 9.400302e-02 8.373041e-02
<GCONST> -2.409185e+01
<STATE> 5
<MEAN> 32
 5.626517e+00 5.923511e+00 6.543992e+00 7.145899e+00 6.952382e+00 7.305889e+00 7.678977e+00 8.174738e+00 8.672912e+00 8.767118e+00 9.102819e+00 9.667328e+00 1.048370e+01 1.131175e+01 1.151737e+01 1.136023e+01 1.726455e-02 8.396670e-02 1.217634e-01 1.342976e-01 1.205692e-01 8.692890e-02 1.083667e-01 1.302285e-01 1.312197e-01 9.877957e-02 1.053480e-01 8.954529e-02 5.412911e-02 1.146522e-02 -3.272473e-02 -3.239435e-02
<VARIANCE> 32
 1.967048e-01 1.008755e-01 3.622280e-01 5.616437e-01 1.527867e-01 2.164907e-01 2.918126e-01 2.918925e-01 4.542808e-01 3.873949e-01 4.500696e-01 5.512138e-01 6.123479e-01 8.464211e-01 1.490297e+00 1.442297e+00 1.806759e-02 3.324345e-02 8.177665e-02 8.487274e-02 2.666780e-02 1.668585e-02 2.415317e-02 3.646757e-02 2.277372e-02 2.252206e-02 2.490445e-02 3.152567e-02 3.873121e-02 4.115728e-02 5.632354e-02 6.782673e-02
<GCONST> -9.469511e+00
<STATE> 6
<MEAN> 32
 6.117945e+00 6.992282e+00 7.741951e+00 8.173644e+00 7.777962e+00 7.636168e+00 8.036015e+00 8.809031e+00 8.954413e+00 8.844540e+00 9.170258e+00 9.461728e+00 1.001004e+01 1.012033e+01 9.891623e+00 9.715032e+00 2.790540e-01 6.296927e-01 8.598195e-01 9.540795e-01 7.368195e-01 5.431113e-01 5.774642e-01 7.374694e-01 5.603583e-01 4.408067e-01 4.444076e-01 3.207451e-01 1.419711e-01 -3.530657e-02 -2.689678e-01 -3.189852e-01
<VARIANCE> 32
 3.904954e-01 1.140680e+00 1.536558e+00 1.805822e+00 9.848366e-01 7.714167e-01 8.535842e-01 1.140556e+00 8.218445e-01 6.653008e-01 1.108802e+00 9.459129e-01 6.748163e-01 1.104212e+00 1.663464e+00 1.527871e+00 5.545116e-02 5.314375e-02 6.363302e-02 4.378657e-02 5.986796e-02 5.267802e-02 5.191911e-02 7.306729e-02 9.200001e-02 6.371427e-02 7.642265e-02 8.353069e-02 1.022560e-01 9.101658e-02 3.978058e-02 3.026673e-02
<GCONST> 1.416879e+01
<STATE> 7
<MEAN> 32
 7.043644e+00 8.288168e+00 9.736257e+00 1.077055e+01 1.061058e+01 9.735361e+00 1.002726e+01 1.104111e+01 1.153164e+01 1.099508e+01 1.154651e+01 1.155597e+01 1.185367e+01 1.152861e+01 1.008441e+01 9.378799e+00 3.761699e-02 2.804904e-02 8.929390e-02 1.061521e-01 1.134402e-01 7.547221e-02 7.539577e-02 8.701719e-02 1.348788e-01 1.479215e-01 1.468596e-01 1.411521e-01 1.079752e-01 4.744211e-02 -1.525017e-02 -5.033266e-02
<VARIANCE> 32
 7.567526e-01 9.918097e-01 1.137035e+00 4.944530e-01 9.525464e-01 5.376272e-01 3.209237e-01 2.734387e-01 5.902489e-01 3.968668e-01 5.665658e-01 5.609974e-01 6.809664e-01 8.697509e-01 1.405483e+00 5.949022e-01 1.533234e-02 2.911250e-02 7.481122e-02 9.640668e-02 1.486246e-01 8.220083e-02 7.981864e-02 1.000660e-01 1.074873e-01 8.922857e-02 9.808397e-02 9.538779e-02 8.940415e-02 8.629850e-02 4.511897e-02 2.215686e-02
<GCONST> 8.574019e+00
<STATE> 8
<MEAN> 32
 7.309840e+00 8.445119e+00 9.339685e+00 9.431882e+00 8.755073e+00 8.336911e+00 8.859983e+00 9.540369e+00 9.611409e+00 9.481058e+00 9.746220e+00 9.626896e+00 9.662664e+00 9.349891e+00 8.883476e+00 8.658547e+00 -2.137797e-04 1.338473e-03 -1.027649e-01 -1.590925e-01 -1.501515e-01 -1.143266e-01 -1.264015e-01 -1.615077e-01 -1.711433e-01 -1.548897e-01 -1.610500e-01 -1.732651e-01 -1.712156e-01 -1.559688e-01 -1.082491e-01 -6.886118e-02
<VARIANCE> 32
 8.485711e-01 7.432718e-01 7.862794e-01 5.935961e-01 6.255361e-01 5.537082e-01 6.123541e-01 5.761793e-01 7.668038e-01 7.653862e-01 1.208347e+00 1.234887e+00 1.223451e+00 8.820063e-01 4.640065e-01 2.700892e-01 8.058703e-03 2.102426e-02 7.035613e-02 5.933349e-02 5.474331e-02 6.314369e-02 7.253078e-02 7.801735e-02 7.334198e-02 8.325163e-02 6.958534e-02 7.466629e-02 6.796745e-02 6.426748e-02 3.037689e-02 1.839611e-02
<GCONST> 5.068304e+00
<STATE> 9
<MEAN> 32
 6.623501e+00 8.105517e+00 8.710047e+00 8.719896e+00 8.105729e+00 8.095632e+00 8.396000e+00 8.656630e+00 8.808397e+00 8.928044e+00 8.931727e+00 9.350886e+00 9.729599e+00 9.103244e+00 8.132579e+00 8.101282e+00 -9.295167e-03 -8.221711e-03 -2.684898e-02 -3.938863e-02 -3.079700e-02 -1.569135e-02 -2.229286e-02 -4.467424e-02 -4.418350e-02 -3.666840e-02 -5.018762e-02 -3.012476e-02 -1.876321e-02 -1.478041e-02 -9.186856e-03 -2.851562e-03
<VARIANCE> 32
 2.761705e-01 2.093985e-01 4.320281e-01 3.517387e-01 3.332995e-01 3.973249e-01 5.093630e-01 6.113641e-01 6.216031e-01 6.247863e-01 7.808619e-01 1.230886e+00 1.218495e+00 4.829641e-01 8.237481e-02 5.852655e-02 5.723817e-03 9.363070e-03 2.414627e-02 1.862337e-02 1.180373e-02 1.371283e-02 2.331249e-02 2.115556e-02 1.746883e-02 1.957206e-02 1.653244e-02 2.005361e-02 2.148629e-02 1.531608e-02 3.834724e-03 1.733051e-03
<GCONST> -2.577899e+01
<TRANSP> 10
 0.000000e+00 1.000000e+00 0.000000e+00 0.000000e+00 0.000000e+00 0.000000e+00 0.000000e+00 0.000000e+00 0.000000e+00 0.000000e+00
 0.000000e+00 8.144176e-01 1.855824e-01 0.000000e+00 0.000000e+00 0.000000e+00 0.000000e+00 0.000000e+00 0.000000e+00 0.000000e+00
 0.000000e+00 0.000000e+00 6.505670e-01 3.494330e-01 0.000000e+00 0.000000e+00 0.000000e+00 0.000000e+00 0.000000e+00 0.000000e+00
 0.000000e+00 0.000000e+00 0.000000e+00 6.348406e-01 3.651594e-01 0.000000e+00 0.000000e+00 0.000000e+00 0.000000e+00 0.000000e+00
 0.000000e+00 0.000000e+00 0.000000e+00 0.000000e+00 7.003502e-01 2.996498e-01 0.000000e+00 0.000000e+00 0.000000e+00 0.000000e+00
 0.000000e+00 0.000000e+00 0.000000e+00 0.000000e+00 0.000000e+00 6.273009e-01 3.726991e-01 0.000000e+00 0.000000e+00 0.000000e+00
 0.000000e+00 0.000000e+00 0.000000e+00 0.000000e+00 0.000000e+00 0.000000e+00 8.444582e-01 1.555419e-01 0.000000e+00 0.000000e+00
 0.000000e+00 0.000000e+00 0.000000e+00 0.000000e+00 0.000000e+00 0.000000e+00 0.000000e+00 9.015753e-01 9.842467e-02 0.000000e+00
 0.000000e+00 0.000000e+00 0.000000e+00 0.000000e+00 0.000000e+00 0.000000e+00 0.000000e+00 0.000000e+00 9.627843e-01 3.721566e-02
 0.000000e+00 0.000000e+00 0.000000e+00 0.000000e+00 0.000000e+00 0.000000e+00 0.000000e+00 0.000000e+00 0.000000e+00 0.000000e+00
<ENDHMM>
~h "sest"
<BEGINHMM>
<NUMSTATES> 10
<STATE> 2
<MEAN> 32
 5.525481e+00 5.722207e+00 5.944055e+00 6.112722e+00 6.293314e+00 6.527260e+00 6.592714e+00 6.833353e+00 7.215598e+00 7.205639e+00 7.400189e+00 7.771075e+00 8.081977e+00 8.092438e+00 8.012129e+00 8.134441e+00 2.687890e-03 -1.024438e-02 -5.597491e-03 1.103950e-02 1.030371e-02 5.528802e-03 2.525299e-02 6.469934e-02 1.356378e-01 2.363544e-01 3.181266e-01 4.144360e-01 4.271496e-01 4.202468e-01 2.641811e-01 7.677247e-02
<VARIANCE> 32
 1.482009e-01 1.504742e-01 8.820025e-02 8.505210e-02 6.410740e-02 7.760702e-02 7.647498e-02 3.815118e-02 4.160037e-02 6.442788e-02 1.195298e-01 2.283800e-01 3.785601e-01 3.308164e-01 1.208505e-01 8.675881e-02 6.146095e-03 1.387467e-02 1.177941e-02 1.258023e-02 5.719078e-03 5.215783e-03 5.906860e-03 4.598037e-03 1.193137e-02 1.957580e-02 2.696497e-02 3.016950e-02 3.110055e-02 4.418014e-02 3.071401e-02 4.598612e-03
<GCONST> -4.723387e+01
<STATE> 3
<MEAN> 32
 5.568773e+00 5.682040e+00 5.939914e+00 6.201043e+00 6.396715e+00 6.547792e+00 6.691141e+00 7.049360e+00 7.700553e+00 8.060254e+00 8.416049e+00 8.856050e+00 9.056305e+00 9.139886e+00 8.814445e+00 8.322997e+00 5.119270e-02 1.044985e-02 3.146535e-02 7.323664e-02 4.440431e-02 -1.667337e-02 2.379476e-02 1.251910e-01 2.987005e-01 4.837053e-01 5.668554e-01 6.323531e-01 6.280226e-01 6.044189e-01 5.059824e-01 2.363172e-01
<VARIANCE> 32
 1.513194e-01 1.112217e-01 1.169087e-01 1.380576e-01 8.201411e-02 7.204024e-02 5.330724e-02 6.625912e-02 1.420372e-01 2.568493e-01 3.051500e-01 4.306530e-01 4.534475e-01 5.684190e-01 4.210504e-01 1.007326e-01 1.220596e-02 1.234006e-02 9.029234e-03 1.459618e-02 7.468868e-03 6.857000e-03 5.798934e-03 9.662541e-03 2.344901e-02 2.488736e-02 2.430343e-02 3.418207e-02 4.366644e-02 3.682246e-02 2.124236e-02 1.249178e-02
<GCONST> -3.664351e+01
<STATE> 4
<MEAN> 32
 5.638425e+00 5.750322e+00 6.005664e+00 6.300107e+00 6.412829e+00 6.522501e+00 6.738858e+00 7.308853e+00 8.208722e+00 8.935225e+00 9.463644e+00 1.003491e+01 1.026166e+01 1.026080e+01 9.792666e+00 9.065105e+00 3.000092e-02 3.252321e-02 4.616684e-02 5.108932e-02 2.975695e-02 3.519154e-02 5.158966e-02 1.224534e-01 1.899771e-01 3.357230e-01 3.925822e-01 4.221976e-01 4.302108e-01 3.937972e-01 3.662834e-01 3.122306e-01
<VARIANCE> 32
 1.849386e-01 1.088472e-01 1.261520e-01 3.407309e-01 1.055336e-01 8.958805e-02 8.576100e-02 1.394702e-01 3.799462e-01 5.498989e-01 3.951102e-01 3.693108e-01 3.359217e-01 3.287959e-01 2.697811e-01 2.340901e-01 1.130798e-02 1.007406e-02 1.011347e-02 1.378290e-02 8.206578e-03 7.350558e-03 9.863081e-03 1.507791e-02 2.334238e-02 3.129097e-02 4.392487e-02 5.162055e-02 5.615076e-02 5.544821e-02 6.419978e-02 3.348352e-02
<GCONST> -2.749664e+01
<STATE> 5
<MEAN> 32
 5.761631e+00 5.875013e+00 6.078368e+00 6.312172e+00 6.408916e+00 6.633451e+00 6.936244e+00 7.660858e+00 8.618258e+00 9.478743e+00 1.016449e+01 1.097883e+01 1.133807e+01 1.125787e+01 1.073931e+01 9.874018e+00 8.010637e-03 1.056287e-02 3.175161e-02 3.647520e-02 2.571306e-02 3.591019e-02 4.674689e-02 9.902444e-02 1.055397e-01 8.780807e-02 1.119758e-01 1.032481e-01 1.105602e-01 9.648329e-02 9.660006e-02 1.281343e-01
<VARIANCE> 32
 7.896873e-02 8.299694e-02 1.060411e-01 1.188825e-01 8.368476e-02 1.071084e-01 1.260077e-01 2.003543e-01 4.932339e-01 5.595559e-01 2.384064e-01 3.496014e-01 3.770605e-01 3.736840e-01 2.717133e-01 2.699685e-01 1.046342e-02 1.055147e-02 1.222391e-02 1.441577e-02 9.674788e-03 6.943787e-03 7.195271e-03 8.826722e-03 1.150430e-02 1.867631e-02 2.643061e-02 3.692597e-02 3.402937e-02 3.871210e-02 4.393904e-02 3.623553e-02
<GCONST> -3.280711e+01
<STATE> 6
<MEAN> 32
 5.672056e+00 5.912658e+00 6.827456e+00 7.229156e+00 6.939599e+00 7.146735e+00 7.406374e+00 8.129492e+00 9.255249e+00 1.010888e+01 1.093806e+01 1.128602e+01 1.162000e+01 1.142692e+01 1.121032e+01 1.087996e+01 5.187385e-02 1.722599e-01 2.475430e-01 2.459759e-01 1.595230e-01 1.220107e-01 9.891967e-02 9.621014e-02 6.524803e-02 -2.158582e-02 -6.033358e-02 -1.121921e-01 -1.352555e-01 -1.724653e-01 -1.917121e-01 -1.487613e-01
<VARIANCE> 32
 1.194557e-01 1.159859e-01 6.154085e-01 1.034998e+00 3.484477e-01 3.187841e-01 2.843553e-01 2.433545e-01 4.243012e-01 6.510715e-01 1.015768e+00 1.016249e+00 1.323657e+00 1.315143e+00 1.878012e+00 2.355273e+00 1.936095e-02 5.255464e-02 6.944194e-02 7.675883e-02 3.608336e-02 1.828165e-02 1.603997e-02 2.830897e-02 3.801055e-02 3.891562e-02 5.288753e-02 6.974613e-02 7.199930e-02 8.802876e-02 1.065632e-01 9.538180e-02
<GCONST> 1.085573e+00
<STATE> 7
<MEAN> 32
 6.480179e+00 7.677451e+00 8.725739e+00 9.356808e+00 8.855218e+00 8.428634e+00 8.584356e+00 9.488682e+00 1.030536e+01 1.050848e+01 1.087375e+01 1.102303e+01 1.114886e+01 1.075970e+01 9.993725e+00 9.514120e+00 1.728423e-01 3.336168e-01 4.975251e-01 5.994811e-01 5.876932e-01 4.222555e-01 4.231132e-01 4.890828e-01 4.269164e-01 3.113064e-01 2.127213e-01 1.443511e-01 1.162958e-01 2.583571e-02 -1.124546e-01 -1.374676e-01
<VARIANCE> 32
 6.493565e-01 1.433036e+00 1.848617e+00 2.083175e+00 2.308142e+00 1.187656e+00 1.069510e+00 1.262539e+00 1.285812e+00 1.268666e+00 1.422887e+00 1.192912e+00 1.154489e+00 1.534629e+00 2.352634e+00 1.976554e+00 4.271292e-02 1.260885e-01 1.405866e-01 1.702106e-01 1.162707e-01 5.837706e-02 4.641304e-02 6.992266e-02 7.729919e-02 5.584968e-02 5.683636e-02 5.515519e-02 6.674916e-02 6.861808e-02 6.081539e-02 3.906216e-02
<GCONST> 2.220569e+01
<STATE> 8
<MEAN> 32
 6.648513e+00 7.728715e+00 9.084457e+00 1.002734e+01 9.912865e+00 9.311660e+00 9.426003e+00 1.038713e+01 1.078665e+01 1.054152e+01 1.071664e+01 1.078102e+01 1.109193e+01 1.071405e+01 9.659231e+00 9.121532e+00 -3.488830e-02 -6.959643e-02 -9.619437e-02 -1.009822e-01 -9.056138e-02 -6.937874e-02 -7.241082e-02 -9.797603e-02 -1.118895e-01 -1.101972e-01 -9.801286e-02 -8.585039e-02 -6.266823e-02 -1.389179e-02 4.096762e-02 5.325744e-02
<VARIANCE> 32
 5.454736e-01 7.846145e-01 7.600431e-01 8.301559e-01 1.618928e+00 1.286868e+00 7.776293e-01 7.830112e-01 1.293999e+00 1.136609e+00 1.831104e+00 1.450591e+00 1.422975e+00 1.621754e+00 1.614631e+00 1.115093e+00 1.468291e-02 2.078740e-02 3.253919e-02 3.631346e-02 4.486473e-02 3.273520e-02 2.956542e-02 3.780178e-02 3.229900e-02 2.611774e-02 2.695946e-02 2.431439e-02 2.835429e-02 3.164725e-02 2.955407e-02 2.753254e-02
<GCONST> 3.834440e+00
<STATE> 9
<MEAN> 32
 5.644143e+00 5.912061e+00 6.498353e+00 7.140494e+00 7.159729e+00 7.061704e+00 7.249983e+00 7.814608e+00 8.155684e+00 8.135557e+00 8.515677e+00 9.035579e+00 9.877725e+00 1.047793e+01 1.058747e+01 1.034871e+01 -2.835482e-02 -5.171951e-02 -8.790756e-02 -1.068488e-01 -9.482355e-02 -7.239325e-02 -7.299258e-02 -9.602428e-02 -8.973219e-02 -9.286224e-02 -9.524505e-02 -9.241413e-02 -9.148560e-02 -9.183988e-02 -8.538498e-02 -6.894085e-02
<VARIANCE> 32
 1.451958e-01 1.451288e-01 3.318014e-01 5.444876e-01 4.334431e-01 3.109256e-01 2.766572e-01 3.255751e-01 4.304358e-01 3.850428e-01 3.930348e-01 4.389594e-01 6.655940e-01 9.407741e-01 1.162390e+00 1.121471e+00 1.265289e-02 1.660253e-02 2.044616e-02 2.493985e-02 1.585778e-02 1.230193e-02 1.067202e-02 1.768624e-02 1.333958e-02 1.264553e-02 1.365542e-02 1.562182e-02 2.908391e-02 5.257987e-02 6.059377e-02 5.311164e-02
<GCONST> -1.745638e+01
<TRANSP> 10
 0.000000e+00 1.000000e+00 0.000000e+00 0.000000e+00 0.000000e+00 0.000000e+00 0.000000e+00 0.000000e+00 0.000000e+00 0.000000e+00
 0.000000e+00 4.825955e-01 5.174046e-01 0.000000e+00 0.000000e+00 0.000000e+00 0.000000e+00 0.000000e+00 0.000000e+00 0.000000e+00
 0.000000e+00 0.000000e+00 3.915430e-01 6.084570e-01 0.000000e+00 0.000000e+00 0.000000e+00 0.000000e+00 0.000000e+00 0.000000e+00
 0.000000e+00 0.000000e+00 0.000000e+00 5.970355e-01 4.029645e-01 0.000000e+00 0.000000e+00 0.000000e+00 0.000000e+00 0.000000e+00
 0.000000e+00 0.000000e+00 0.000000e+00 0.000000e+00 7.884248e-01 2.115752e-01 0.000000e+00 0.000000e+00 0.000000e+00 0.000000e+00
 0.000000e+00 0.000000e+00 0.000000e+00 0.000000e+00 0.000000e+00 6.935483e-01 3.064517e-01 0.000000e+00 0.000000e+00 0.000000e+00
 0.000000e+00 0.000000e+00 0.000000e+00 0.000000e+00 0.000000e+00 0.000000e+00 7.946185e-01 2.053816e-01 0.000000e+00 0.000000e+00
 0.000000e+00 0.000000e+00 0.000000e+00 0.000000e+00 0.000000e+00 0.000000e+00 0.000000e+00 9.508606e-01 4.913945e-02 0.000000e+00
 0.000000e+00 0.000000e+00 0.000000e+00 0.000000e+00 0.000000e+00 0.000000e+00 0.000000e+00 0.000000e+00 9.415684e-01 5.843164e-02
 0.000000e+00 0.000000e+00 0.000000e+00 0.000000e+00 0.000000e+00 0.000000e+00 0.000000e+00 0.000000e+00 0.000000e+00 0.000000e+00
<ENDHMM>
~h "dva"
<BEGINHMM>
<NUMSTATES> 10
<STATE> 2
<MEAN> 32
 5.853287e+00 6.417673e+00 6.593329e+00 6.517022e+00 6.400899e+00 6.527617e+00 6.714227e+00 6.858564e+00 7.187594e+00 7.090611e+00 7.214106e+00 7.424966e+00 7.694295e+00 7.791739e+00 7.861936e+00 8.034389e+00 6.433112e-02 1.261341e-01 1.487116e-01 1.282193e-01 6.751104e-02 3.269570e-02 1.920245e-02 8.425601e-03 1.793173e-02 1.578788e-02 9.840354e-05 1.549389e-03 5.004268e-03 1.060450e-02 4.809559e-03 -3.338791e-07
<VARIANCE> 32
 1.423426e-01 4.399588e-01 6.020020e-01 4.082579e-01 1.382326e-01 1.011578e-01 7.651530e-02 9.788733e-02 7.977647e-02 6.134339e-02 4.339367e-02 5.903762e-02 8.455036e-02 9.845372e-02 6.193675e-02 7.741039e-02 1.569316e-02 3.853211e-02 4.448213e-02 2.799035e-02 1.294558e-02 1.092317e-02 1.247008e-02 2.204608e-02 1.620739e-02 2.045092e-02 1.893095e-02 2.773728e-02 2.491282e-02 1.472243e-02 5.611787e-03 2.240401e-03
<GCONST> -4.186261e+01
<STATE> 3
<MEAN> 32
 6.015481e+00 6.580111e+00 6.727247e+00 6.696735e+00 6.516464e+00 6.604837e+00 6.791867e+00 6.907856e+00 7.208153e+00 7.153410e+00 7.242206e+00 7.432272e+00 7.674496e+00 7.835066e+00 7.926503e+00 8.080914e+00 1.801568e-01 2.553132e-01 3.875555e-01 3.848694e-01 2.608698e-01 2.680578e-01 2.842483e-01 3.583865e-01 3.714461e-01 3.841656e-01 3.829389e-01 4.106238e-01 4.430325e-01 3.316939e-01 1.543161e-01 7.783630e-02
<VARIANCE> 32
 2.922831e-01 3.696201e-01 6.080972e-01 3.703879e-01 1.204015e-01 2.002454e-01 1.476869e-01 1.340052e-01 1.401404e-01 1.288174e-01 1.517181e-01 1.639355e-01 1.848953e-01 2.423283e-01 1.886116e-01 1.786090e-01 7.569380e-02 1.101085e-01 6.160906e-02 3.675569e-02 1.825440e-02 1.692551e-02 1.806089e-02 3.215643e-02 4.209794e-02 3.557386e-02 5.014883e-02 6.948017e-02 8.763829e-02 4.664716e-02 1.296061e-02 9.751994e-03
<GCONST> -1.980645e+01
<STATE> 4
<MEAN> 32
 6.335472e+00 7.113949e+00 7.497105e+00 7.500741e+00 7.111859e+00 7.221067e+00 7.524467e+00 7.816372e+00 8.201023e+00 8.157550e+00 8.362872e+00 8.702199e+00 9.000709e+00 8.837535e+00 8.458544e+00 8.452003e+00 2.250256e-01 3.749295e-01 5.506395e-01 5.912457e-01 4.312046e-01 3.354551e-01 4.102760e-01 5.169619e-01 4.459610e-01 4.737821e-01 4.858567e-01 4.769586e-01 4.664539e-01 3.334724e-01 1.474365e-01 9.999709e-02
<VARIANCE> 32
 4.608196e-01 8.766846e-01 5.921354e-01 3.389048e-01 1.586787e-01 2.156410e-01 2.011158e-01 3.099749e-01 2.980509e-01 3.297100e-01 4.328989e-01 5.334997e-01 7.137576e-01 5.099583e-01 4.515721e-01 3.929221e-01 8.834098e-02 1.137855e-01 8.130777e-02 6.263208e-02 3.755093e-02 3.323741e-02 3.161339e-02 4.711322e-02 4.431885e-02 4.290637e-02 6.408296e-02 8.416957e-02 6.849071e-02 3.973923e-02 3.265271e-02 2.264955e-02
<GCONST> -4.054873e+00
<STATE> 5
<MEAN> 32
 6.427705e+00 7.385768e+00 7.993275e+00 7.981208e+00 7.423621e+00 7.561586e+00 8.018143e+00 8.171175e+00 8.093147e+00 8.271962e+00 8.453653e+00 8.742848e+00 8.887323e+00 8.473149e+00 8.045323e+00 8.086554e+00 5.106150e-02 6.687679e-02 7.732946e-02 1.298632e-01 1.624514e-01 1.809302e-01 1.871808e-01 8.495620e-02 4.988700e-03 6.031714e-02 4.506266e-02 5.033527e-02 5.760396e-02 4.388991e-02 1.729908e-02 1.472064e-02
<VARIANCE> 32
 3.544292e-01 3.526640e-01 6.891393e-01 6.485691e-01 3.106437e-01 3.162586e-01 3.169574e-01 5.880028e-01 5.505791e-01 4.437539e-01 5.570893e-01 6.595296e-01 6.315370e-01 4.093133e-01 1.314995e-01 1.043484e-01 1.758475e-02 3.405461e-02 9.248624e-02 1.414406e-01 1.177715e-01 8.742205e-02 9.942130e-02 1.335589e-01 1.080712e-01 1.223220e-01 1.253978e-01 1.442955e-01 1.094829e-01 6.913832e-02 2.461481e-02 1.355623e-02
<GCONST> 1.992916e+00
<STATE> 6
<MEAN> 32
 7.088612e+00 8.012204e+00 8.941682e+00 9.530125e+00 9.125083e+00 9.078678e+00 9.513719e+00 9.308782e+00 9.049686e+00 9.198120e+00 9.232666e+00 9.508898e+00 9.843304e+00 9.494493e+00 8.812618e+00 8.660035e+00 6.160229e-02 5.853208e-02 1.929453e-01 3.778973e-01 5.137446e-01 4.483261e-01 4.654308e-01 3.824440e-01 2.636423e-01 3.105053e-01 3.168559e-01 3.272373e-01 3.212625e-01 2.437340e-01 9.801044e-02 4.302058e-02
<VARIANCE> 32
 6.471577e-01 6.262066e-01 5.099460e-01 4.466996e-01 6.607102e-01 5.787966e-01 5.778177e-01 4.988436e-01 3.922734e-01 4.374166e-01 7.499900e-01 8.836724e-01 6.701214e-01 5.036767e-01 8.505646e-01 6.522009e-01 1.137928e-02 1.065698e-02 5.554255e-02 9.663016e-02 1.334954e-01 9.259527e-02 8.411089e-02 9.599471e-02 6.964699e-02 7.957122e-02 8.638296e-02 8.541804e-02 1.081840e-01 9.558685e-02 3.525332e-02 2.642235e-02
<GCONST> 5.262678e+00
<STATE> 7
<MEAN> 32
 7.856052e+00 8.823291e+00 9.984170e+00 1.088867e+01 1.141492e+01 1.134117e+01 1.171487e+01 1.154584e+01 1.052608e+01 1.045586e+01 1.106248e+01 1.124150e+01 1.170845e+01 1.122831e+01 1.032826e+01 9.400097e+00 -6.521738e-03 -8.300938e-03 -2.461288e-02 -9.094067e-04 1.113466e-01 1.347141e-01 1.181449e-01 1.400867e-01 1.038384e-01 9.318429e-02 8.192394e-02 1.152504e-01 1.241513e-01 8.123535e-02 5.495287e-02 5.528315e-03
<VARIANCE> 32
 7.039875e-01 8.260329e-01 7.033263e-01 4.574063e-01 7.229825e-01 9.079299e-01 7.856110e-01 1.020269e+00 7.109002e-01 4.824265e-01 7.688336e-01 8.724892e-01 9.638312e-01 6.962232e-01 1.648135e+00 8.130663e-01 7.805403e-03 5.926537e-03 1.597390e-02 4.620728e-02 1.015946e-01 8.304963e-02 5.445658e-02 6.135293e-02 3.761957e-02 4.210277e-02 5.788838e-02 4.640035e-02 4.819824e-02 3.846171e-02 2.011404e-02 1.161929e-02
<GCONST> 2.292547e-01
<STATE> 8
<MEAN> 32
 6.535907e+00 7.470076e+00 8.397972e+00 9.587804e+00 1.049663e+01 1.065161e+01 1.102134e+01 1.058168e+01 9.769789e+00 1.008529e+01 1.011003e+01 1.063585e+01 1.112482e+01 1.027181e+01 8.828038e+00 8.466252e+00 -3.054577e-02 -3.035475e-02 -7.382733e-02 -9.034715e-02 -1.020723e-01 -7.623290e-02 -8.392543e-02 -8.775935e-02 -7.874120e-02 -9.788687e-02 -8.593164e-02 -9.258818e-02 -8.129483e-02 -6.514526e-02 -4.677569e-02 -2.700010e-02
<VARIANCE> 32
 2.516957e-01 2.461844e-01 3.513923e-01 3.970360e-01 5.297606e-01 5.774665e-01 6.101419e-01 1.316815e+00 4.527434e-01 5.221058e-01 1.602562e+00 1.494704e+00 1.735946e+00 9.325228e-01 4.730875e-01 2.148894e-01 1.226189e-02 1.043254e-02 1.690424e-02 2.220977e-02 2.669182e-02 2.451168e-02 2.764041e-02 2.693326e-02 1.756607e-02 1.948552e-02 2.195709e-02 2.677934e-02 3.040046e-02 2.624681e-02 1.216492e-02 7.268799e-03
<GCONST> -1.298712e+01
<STATE> 9
<MEAN> 32
 5.917664e+00 6.484879e+00 6.693088e+00 7.529016e+00 8.420134e+00 8.719266e+00 8.780518e+00 8.462726e+00 7.916480e+00 8.002924e+00 8.291091e+00 8.612050e+00 9.106496e+00 8.534820e+00 7.963625e+00 8.014200e+00 -8.307041e-02 -1.393617e-01 -1.761329e-01 -2.071905e-01 -2.035630e-01 -2.139886e-01 -2.259289e-01 -1.988230e-01 -1.539769e-01 -1.611674e-01 -1.617994e-01 -1.749529e-01 -1.910455e-01 -1.606673e-01 -5.698619e-02 -1.289666e-02
<VARIANCE> 32
 3.159434e-01 5.660346e-01 4.299268e-01 6.242962e-01 5.950817e-01 4.510270e-01 4.373765e-01 6.076931e-01 3.223963e-01 3.742323e-01 4.994814e-01 3.519551e-01 4.079355e-01 2.962163e-01 1.296508e-01 1.087132e-01 1.479065e-02 1.931541e-02 2.322278e-02 2.361638e-02 1.637678e-02 1.393980e-02 1.977220e-02 1.961090e-02 1.191642e-02 8.410052e-03 1.081402e-02 1.157233e-02 1.100917e-02 1.056803e-02 6.321089e-03 1.544764e-03
<GCONST> -2.779238e+01
<TRANSP> 10
 0.000000e+00 1.000000e+00 0.000000e+00 0.000000e+00 0.000000e+00 0.000000e+00 0.000000e+00 0.000000e+00 0.000000e+00 0.000000e+00
 0.000000e+00 7.834971e-01 2.165029e-01 0.000000e+00 0.000000e+00 0.000000e+00 0.000000e+00 0.000000e+00 0.000000e+00 0.000000e+00
 0.000000e+00 0.000000e+00 2.133309e-01 7.866691e-01 0.000000e+00 0.000000e+00 0.000000e+00 0.000000e+00 0.000000e+00 0.000000e+00
 0.000000e+00 0.000000e+00 0.000000e+00 2.053258e-01 7.946742e-01 0.000000e+00 0.000000e+00 0.000000e+00 0.000000e+00 0.000000e+00
 0.000000e+00 0.000000e+00 0.000000e+00 0.000000e+00 7.962013e-01 2.037987e-01 0.000000e+00 0.000000e+00 0.000000e+00 0.000000e+00
 0.000000e+00 0.000000e+00 0.000000e+00 0.000000e+00 0.000000e+00 7.263596e-01 2.736404e-01 0.000000e+00 0.000000e+00 0.000000e+00
 0.000000e+00 0.000000e+00 0.000000e+00 0.000000e+00 0.000000e+00 0.000000e+00 8.427010e-01 1.572991e-01 0.000000e+00 0.000000e+00
 0.000000e+00 0.000000e+00 0.000000e+00 0.000000e+00 0.000000e+00 0.000000e+00 0.000000e+00 9.360917e-01 6.390831e-02 0.000000e+00
 0.000000e+00 0.000000e+00 0.000000e+00 0.000000e+00 0.000000e+00 0.000000e+00 0.000000e+00 0.000000e+00 8.800358e-01 1.199642e-01
 0.000000e+00 0.000000e+00 0.000000e+00 0.000000e+00 0.000000e+00 0.000000e+00 0.000000e+00 0.000000e+00 0.000000e+00 0.000000e+00
<ENDHMM>
~h "osm"
<BEGINHMM>
<NUMSTATES> 10
<STATE> 2
<MEAN> 32
 5.615040e+00 5.822915e+00 6.007900e+00 6.083154e+00 6.211720e+00 6.492739e+00 6.654418e+00 6.751586e+00 7.058657e+00 7.059206e+00 7.216161e+00 7.435009e+00 7.593527e+00 7.778287e+00 7.946598e+00 8.130065e+00 2.152785e-02 4.142049e-02 1.409283e-01 2.554455e-01 2.429041e-01 2.223818e-01 1.098072e-01 5.202358e-02 2.753565e-02 4.535462e-02 3.869312e-02 5.978683e-02 8.249274e-02 5.474912e-02 1.347449e-02 6.493283e-03
<VARIANCE> 32
 1.180027e-01 8.045399e-02 7.831423e-02 6.789015e-02 5.710695e-02 9.269921e-02 7.916918e-02 8.715483e-02 1.301161e-01 8.129454e-02 1.195851e-01 1.407291e-01 1.488011e-01 2.163907e-01 3.106612e-01 2.940817e-01 1.379741e-02 9.199337e-03 2.786309e-02 3.661995e-02 3.544123e-02 2.684781e-02 1.645165e-02 7.449477e-03 5.791183e-03 6.150765e-03 4.640517e-03 7.287347e-03 7.884214e-03 5.447422e-03 2.713603e-03 1.936339e-03
<GCONST> -5.033481e+01
<STATE> 3
<MEAN> 32
 5.254546e+00 5.591128e+00 5.861724e+00 6.098325e+00 6.208004e+00 6.411711e+00 6.582665e+00 6.705462e+00 6.921033e+00 6.878131e+00 7.170235e+00 7.553104e+00 8.019044e+00 8.201589e+00 8.321359e+00 8.381882e+00 2.769758e-02 1.540767e-01 2.911678e-01 4.622154e-01 4.810681e-01 4.327351e-01 3.100238e-01 1.691080e-01 1.162801e-01 1.653919e-01 2.014192e-01 2.912771e-01 3.452853e-01 2.436667e-01 1.373670e-01 1.013333e-01
<VARIANCE> 32
 3.182012e-01 1.811866e-01 1.170201e-01 1.737985e-01 2.172682e-01 2.082104e-01 1.496560e-01 1.738667e-01 2.536182e-01 2.169956e-01 1.400871e-01 2.233307e-01 6.085142e-01 6.618800e-01 7.120964e-01 6.419990e-01 1.471252e-02 3.320829e-02 7.354614e-02 1.309504e-01 1.283194e-01 1.215210e-01 8.752582e-02 2.878393e-02 2.864582e-02 2.567029e-02 3.007977e-02 6.102517e-02 6.555903e-02 5.374701e-02 3.549876e-02 2.687928e-02
<GCONST> -1.126765e+01
<STATE> 4
<MEAN> 32
 5.667902e+00 6.251022e+00 7.119543e+00 7.847136e+00 7.796525e+00 7.888953e+00 7.466181e+00 7.102952e+00 7.421109e+00 7.558550e+00 7.442575e+00 7.738370e+00 8.307080e+00 8.108591e+00 8.133278e+00 8.370066e+00 1.504335e-01 3.835924e-01 6.426207e-01 8.281255e-01 7.809871e-01 7.522644e-01 6.201739e-01 3.727344e-01 2.542322e-01 3.544489e-01 3.835638e-01 4.829111e-01 5.530522e-01 3.305398e-01 1.253439e-01 6.120298e-02
<VARIANCE> 32
 2.325116e-01 4.356019e-01 1.088258e+00 1.116691e+00 5.756530e-01 5.492766e-01 4.044140e-01 1.619543e-01 1.036101e-01 2.392508e-01 6.811294e-02 1.666943e-01 2.451479e-01 1.772715e-01 2.653914e-01 2.635431e-01 1.036118e-02 2.530394e-02 4.218267e-02 1.333299e-01 1.890113e-01 1.550866e-01 1.550438e-01 6.297629e-02 2.487049e-02 5.159023e-02 9.950907e-02 1.854653e-01 1.508297e-01 8.285464e-02 1.772079e-02 5.938716e-03
<GCONST> -6.909959e+00
<STATE> 5
<MEAN> 32
 5.900722e+00 6.880522e+00 8.011857e+00 8.899117e+00 9.125227e+00 9.178325e+00 8.840875e+00 7.995074e+00 7.762979e+00 8.076136e+00 8.448554e+00 9.192546e+00 9.584440e+00 9.028955e+00 8.490775e+00 8.398352e+00 2.848752e-01 4.726178e-01 6.959277e-01 9.064506e-01 9.118643e-01 8.976316e-01 7.975664e-01 5.315850e-01 3.814149e-01 4.548557e-01 5.935540e-01 7.306175e-01 7.454711e-01 5.114611e-01 1.916147e-01 7.779477e-02
<VARIANCE> 32
 2.341687e-01 3.469793e-01 6.810507e-01 9.138469e-01 8.546253e-01 6.685954e-01 9.543495e-01 3.133643e-01 1.478208e-01 2.858887e-01 5.095388e-01 1.080038e+00 7.341420e-01 7.218602e-01 6.947533e-01 3.442136e-01 2.461819e-02 6.336916e-02 9.956178e-02 1.847867e-01 1.971907e-01 1.580683e-01 1.603738e-01 6.567930e-02 3.467256e-02 7.474177e-02 1.234804e-01 1.950395e-01 1.795390e-01 8.214781e-02 2.837896e-02 6.179275e-03
<GCONST> 7.206929e+00
<STATE> 6
<MEAN> 32
 6.592792e+00 7.872182e+00 9.061054e+00 1.014928e+01 1.036639e+01 1.033544e+01 9.917505e+00 9.011593e+00 8.681444e+00 8.956486e+00 9.482929e+00 1.025508e+01 1.064199e+01 9.904588e+00 8.929510e+00 8.640526e+00 3.029272e-01 4.159026e-01 5.712383e-01 6.385062e-01 6.428832e-01 6.086890e-01 5.867943e-01 4.697101e-01 4.016792e-01 4.204943e-01 5.189905e-01 5.555574e-01 5.482593e-01 4.107125e-01 1.453745e-01 8.050194e-02
<VARIANCE> 32
 3.102382e-01 7.343492e-01 4.444797e-01 4.483071e-01 7.082283e-01 6.761955e-01 1.491809e+00 8.030884e-01 3.742638e-01 4.877667e-01 9.694302e-01 1.561856e+00 7.133507e-01 1.067613e+00 1.090545e+00 4.639103e-01 4.115053e-02 7.208037e-02 6.100952e-02 1.127077e-01 1.108423e-01 9.010400e-02 8.559973e-02 3.384479e-02 1.990692e-02 2.711604e-02 5.859232e-02 7.710122e-02 8.191202e-02 4.523570e-02 4.751607e-02 2.772987e-02
<GCONST> 6.519885e+00
<STATE> 7
<MEAN> 32
 6.815406e+00 7.975035e+00 9.624199e+00 1.070255e+01 1.090697e+01 1.088178e+01 1.052763e+01 9.550565e+00 9.126995e+00 9.358638e+00 1.029882e+01 1.102780e+01 1.147270e+01 1.068036e+01 9.134327e+00 8.722096e+00 3.185259e-02 6.163055e-02 5.684975e-02 -9.551432e-03 -6.008390e-02 -3.946734e-02 1.067006e-02 3.440255e-02 -1.888338e-03 -1.326018e-02 9.151869e-03 7.806063e-03 3.681744e-02 6.905792e-02 4.722615e-02 6.354665e-02
<VARIANCE> 32
 3.837816e-01 7.671367e-01 6.784797e-01 4.473301e-01 6.570609e-01 5.498327e-01 1.019057e+00 5.245156e-01 2.706317e-01 2.863100e-01 7.683694e-01 1.239926e+00 8.569346e-01 1.005299e+00 9.167790e-01 3.850589e-01 9.392063e-03 7.795820e-03 2.585777e-02 2.600480e-02 3.209326e-02 3.073526e-02 2.235792e-02 1.954724e-02 2.187761e-02 2.762854e-02 4.422333e-02 3.937756e-02 3.670017e-02 2.153027e-02 1.176160e-02 1.225684e-02
<GCONST> -1.027979e+01
<STATE> 8
<MEAN> 32
 6.248685e+00 7.037496e+00 7.791173e+00 8.352010e+00 8.198548e+00 8.381153e+00 8.571830e+00 8.593194e+00 8.619716e+00 8.790142e+00 9.371835e+00 9.966492e+00 1.060075e+01 1.072476e+01 1.039142e+01 1.021715e+01 -6.903546e-03 6.450501e-04 -1.688618e-02 -4.986922e-02 -8.093112e-02 -7.093403e-02 -5.284781e-02 -2.391249e-02 -5.992333e-03 -7.094091e-03 -2.285671e-02 -3.489365e-02 -5.040903e-02 -4.885478e-02 -2.146056e-02 -2.158377e-02
<VARIANCE> 32
 7.277778e-01 1.799526e+00 2.059991e+00 1.626367e+00 1.207945e+00 1.165803e+00 1.185609e+00 1.118091e+00 9.381273e-01 9.457596e-01 9.261343e-01 8.682899e-01 9.134259e-01 1.302593e+00 1.923949e+00 2.029073e+00 4.465316e-02 1.049680e-01 1.345445e-01 9.592203e-02 5.396890e-02 5.736955e-02 4.669156e-02 3.457962e-02 2.641125e-02 2.799583e-02 2.964786e-02 3.802825e-02 4.682415e-02 5.393171e-02 7.384731e-02 6.698681e-02
<GCONST> 1.490611e+01
<STATE> 9
<MEAN> 32
 6.668608e+00 8.084772e+00 8.962485e+00 8.749537e+00 7.927326e+00 8.465109e+00 8.751039e+00 8.646228e+00 8.704930e+00 8.862009e+00 8.929952e+00 9.667517e+00 9.912054e+00 9.071249e+00 8.184402e+00 8.181090e+00 -1.101816e-02 -2.133097e-02 -5.166862e-02 -5.489883e-02 -2.903802e-02 -2.948250e-02 -3.945277e-02 -3.696938e-02 -3.285865e-02 -3.609790e-02 -5.387775e-02 -4.479777e-02 -3.557716e-02 -2.505844e-02 -2.414156e-02 -1.532751e-02
<VARIANCE> 32
 4.353967e-01 2.130860e-01 4.657237e-01 4.388784e-01 3.371760e-01 6.188872e-01 7.174131e-01 7.887383e-01 5.475383e-01 4.750347e-01 5.591365e-01 7.592229e-01 1.031302e+00 3.818690e-01 1.615368e-01 9.550034e-02 4.697677e-03 2.794109e-03 7.782237e-03 6.797910e-03 6.168754e-03 8.386072e-03 1.054566e-02 7.838313e-03 9.044255e-03 9.575580e-03 8.971503e-03 1.227154e-02 1.232343e-02 1.020437e-02 3.435331e-03 2.203433e-03
<GCONST> -3.419571e+01
<TRANSP> 10
 0.000000e+00 1.000000e+00 0.000000e+00 0.000000e+00 0.000000e+00 0.000000e+00 0.000000e+00 0.000000e+00 0.000000e+00 0.000000e+00
 0.000000e+00 1.165653e-02 9.883435e-01 0.000000e+00 0.000000e+00 0.000000e+00 0.000000e+00 0.000000e+00 0.000000e+00 0.000000e+00
 0.000000e+00 0.000000e+00 3.284851e-01 6.715149e-01 0.000000e+00 0.000000e+00 0.000000e+00 0.000000e+00 0.000000e+00 0.000000e+00
 0.000000e+00 0.000000e+00 0.000000e+00 3.067438e-01 6.932563e-01 0.000000e+00 0.000000e+00 0.000000e+00 0.000000e+00 0.000000e+00
 0.000000e+00 0.000000e+00 0.000000e+00 0.000000e+00 8.151039e-02 9.184896e-01 0.000000e+00 0.000000e+00 0.000000e+00 0.000000e+00
 0.000000e+00 0.000000e+00 0.000000e+00 0.000000e+00 0.000000e+00 3.890787e-01 6.109213e-01 0.000000e+00 0.000000e+00 0.000000e+00
 0.000000e+00 0.000000e+00 0.000000e+00 0.000000e+00 0.000000e+00 0.000000e+00 8.382205e-01 1.617796e-01 0.000000e+00 0.000000e+00
 0.000000e+00 0.000000e+00 0.000000e+00 0.000000e+00 0.000000e+00 0.000000e+00 0.000000e+00 9.593025e-01 4.069751e-02 0.000000e+00
 0.000000e+00 0.000000e+00 0.000000e+00 0.000000e+00 0.000000e+00 0.000000e+00 0.000000e+00 0.000000e+00 9.534884e-01 4.651159e-02
 0.000000e+00 0.000000e+00 0.000000e+00 0.000000e+00 0.000000e+00 0.000000e+00 0.000000e+00 0.000000e+00 0.000000e+00 0.000000e+00
<ENDHMM>
~h "pet"
<BEGINHMM>
<NUMSTATES> 10
<STATE> 2
<MEAN> 32
 5.850801e+00 6.024969e+00 6.475210e+00 6.375587e+00 6.296774e+00 6.428790e+00 6.665451e+00 6.906985e+00 7.165827e+00 7.082966e+00 7.292514e+00 7.502410e+00 7.770343e+00 7.872322e+00 7.928964e+00 8.083054e+00 1.588214e-02 7.050398e-02 9.080576e-02 5.513808e-02 1.453893e-02 -2.456704e-02 1.179097e-02 5.337530e-02 7.745644e-02 8.916160e-02 7.717086e-02 7.122158e-02 8.960599e-02 8.129995e-02 3.607424e-02 1.304313e-02
<VARIANCE> 32
 3.810214e-01 2.740662e-01 5.054378e-01 1.794836e-01 6.341235e-02 8.311831e-02 5.265360e-02 3.526725e-02 3.623653e-02 5.228566e-02 4.606784e-02 5.374185e-02 9.651772e-02 1.055491e-01 8.193848e-02 8.996709e-02 2.302431e-02 1.911516e-02 1.329531e-02 7.294053e-03 5.115681e-03 1.086545e-02 9.984224e-03 1.369982e-02 1.387290e-02 9.893083e-03 1.056172e-02 8.141101e-03 6.412875e-03 1.134885e-02 2.759974e-03 1.648063e-03
<GCONST> -5.489637e+01
<STATE> 3
<MEAN> 32
 5.776096e+00 6.120353e+00 6.386618e+00 6.411135e+00 6.389554e+00 6.477976e+00 6.681474e+00 7.025350e+00 7.539664e+00 7.342916e+00 7.304321e+00 7.485418e+00 7.803448e+00 7.931148e+00 7.975508e+00 8.190443e+00 1.103123e-01 3.417443e-01 5.003752e-01 3.729298e-01 1.734760e-01 1.190472e-01 1.613991e-01 2.657388e-01 4.274241e-01 4.552803e-01 3.598329e-01 3.192590e-01 3.531656e-01 2.795234e-01 1.542398e-01 6.741770e-02
<VARIANCE> 32
 2.931131e-01 5.992312e-01 8.093285e-01 2.274311e-01 8.602857e-02 5.508687e-02 5.142694e-02 1.441662e-01 4.280906e-01 2.162359e-01 5.856529e-02 5.872342e-02 1.047401e-01 1.231102e-01 9.667973e-02 1.115125e-01 9.818959e-03 3.753585e-02 5.895439e-02 2.981934e-02 1.063884e-02 1.288125e-02 8.960132e-03 2.600591e-02 1.512135e-02 3.133077e-02 4.397327e-02 6.540081e-02 3.240948e-02 2.200637e-02 1.558712e-02 8.929882e-03
<GCONST> -3.294996e+01
<STATE> 4
<MEAN> 32
 5.882139e+00 6.642742e+00 7.257776e+00 6.937269e+00 6.594059e+00 6.568311e+00 6.956574e+00 7.477169e+00 8.078141e+00 8.013902e+00 7.957258e+00 7.983343e+00 8.371473e+00 8.427227e+00 8.251302e+00 8.297604e+00 2.162012e-01 4.561130e-01 6.773006e-01 6.809646e-01 4.078757e-01 2.932077e-01 3.189577e-01 4.842422e-01 6.525886e-01 7.471480e-01 6.467263e-01 6.081244e-01 6.051872e-01 4.561651e-01 1.919312e-01 9.352648e-02
<VARIANCE> 32
 4.084556e-01 9.434481e-01 1.458533e+00 5.426208e-01 1.496596e-01 1.031052e-01 8.328011e-02 3.536200e-01 6.895588e-01 5.214627e-01 2.993641e-01 2.515663e-01 2.248282e-01 2.245746e-01 1.145503e-01 1.038576e-01 4.313958e-02 9.531710e-02 1.204151e-01 7.293275e-02 3.926490e-02 3.794960e-02 2.906335e-02 4.957696e-02 8.235355e-02 1.338745e-01 1.188698e-01 1.289893e-01 1.080750e-01 7.836757e-02 4.879837e-02 2.416253e-02
<GCONST> -4.578256e+00
<STATE> 5
<MEAN> 32
 6.291700e+00 7.353141e+00 8.195755e+00 8.147466e+00 7.389503e+00 7.214031e+00 7.527774e+00 8.394734e+00 9.304809e+00 9.462436e+00 9.173932e+00 9.325114e+00 9.497168e+00 9.180361e+00 8.637102e+00 8.456720e+00 2.819322e-01 5.099085e-01 8.508996e-01 8.733784e-01 5.570309e-01 4.109798e-01 3.899403e-01 5.388818e-01 8.103849e-01 9.912225e-01 8.790773e-01 8.008124e-01 7.771695e-01 5.402554e-01 1.959434e-01 8.864570e-02
<VARIANCE> 32
 2.713818e-01 3.791510e-01 5.068510e-01 4.393604e-01 2.416553e-01 2.041601e-01 1.430344e-01 2.701962e-01 3.447693e-01 4.874334e-01 6.550286e-01 8.399485e-01 4.171889e-01 4.851249e-01 6.365796e-01 4.053721e-01 5.450753e-02 1.129940e-01 1.863376e-01 1.003963e-01 3.851691e-02 2.670591e-02 3.249551e-02 5.368539e-02 8.326582e-02 1.163021e-01 1.106748e-01 1.324129e-01 1.261612e-01 1.207298e-01 6.757277e-02 3.359997e-02
<GCONST> 2.008630e+00
<STATE> 6
<MEAN> 32
 6.767553e+00 7.999314e+00 9.550094e+00 9.605605e+00 8.307619e+00 7.933746e+00 8.175900e+00 9.018578e+00 1.030702e+01 1.091119e+01 1.056676e+01 1.034239e+01 1.070528e+01 1.008979e+01 8.724674e+00 8.486151e+00 1.278829e-01 1.224182e-01 3.890846e-01 4.401638e-01 3.476266e-01 2.800565e-01 2.410166e-01 2.331832e-01 2.927887e-01 4.484767e-01 4.651168e-01 4.290902e-01 4.292334e-01 3.467387e-01 1.402351e-01 8.110067e-02
<VARIANCE> 32
 5.268568e-01 5.795261e-01 6.171486e-01 6.346526e-01 5.912801e-01 4.930308e-01 4.292940e-01 5.053485e-01 4.714804e-01 7.104843e-01 1.389915e+00 1.818551e+00 1.374457e+00 1.243919e+00 7.685728e-01 4.858522e-01 3.036212e-02 5.562323e-02 1.300758e-01 1.083449e-01 4.876291e-02 3.414684e-02 1.987119e-02 3.473633e-02 7.658160e-02 1.217912e-01 9.658334e-02 7.834361e-02 8.805584e-02 7.287444e-02 2.527269e-02 9.378380e-03
<GCONST> 6.035310e+00
<STATE> 7
<MEAN> 32
 6.642324e+00 7.677937e+00 9.332577e+00 1.024391e+01 1.009519e+01 9.245527e+00 9.292195e+00 1.001793e+01 1.115048e+01 1.149889e+01 1.152248e+01 1.146836e+01 1.166127e+01 1.089994e+01 9.152654e+00 8.671859e+00 -2.192499e-02 -2.567695e-02 -5.835529e-02 2.379411e-02 9.678225e-02 7.234204e-02 6.348784e-02 8.132076e-02 4.540171e-02 -3.826906e-02 -1.125838e-02 4.682941e-04 2.745291e-03 -1.856011e-03 6.563912e-03 9.634097e-03
<VARIANCE> 32
 4.561747e-01 6.794794e-01 8.624392e-01 5.459234e-01 1.082436e+00 1.048431e+00 5.731549e-01 4.482241e-01 3.667441e-01 3.770944e-01 6.077170e-01 6.011535e-01 6.048301e-01 1.077957e+00 8.541253e-01 6.037176e-01 6.923506e-03 3.473333e-03 1.134203e-02 8.970287e-03 2.030569e-02 1.487790e-02 1.122835e-02 1.013595e-02 1.303270e-02 8.869499e-03 7.832155e-03 9.130022e-03 8.155848e-03 1.018693e-02 5.568548e-03 4.548130e-03
<GCONST> -2.402516e+01
<STATE> 8
<MEAN> 32
 6.333048e+00 7.265408e+00 8.554131e+00 9.423383e+00 9.007871e+00 8.393716e+00 8.511874e+00 9.499455e+00 9.947747e+00 9.644660e+00 9.726180e+00 9.753279e+00 1.013480e+01 9.642167e+00 8.757197e+00 8.670023e+00 -5.543447e-02 -1.061275e-01 -1.628763e-01 -2.164625e-01 -2.190963e-01 -1.838392e-01 -1.864232e-01 -2.086929e-01 -2.436804e-01 -2.199546e-01 -2.150745e-01 -2.070211e-01 -2.072287e-01 -1.827138e-01 -9.927420e-02 -5.836802e-02
<VARIANCE> 32
 3.979689e-01 7.212003e-01 9.931266e-01 9.438723e-01 9.570560e-01 6.401508e-01 5.074306e-01 9.037306e-01 8.591330e-01 6.737059e-01 1.102569e+00 1.049064e+00 8.064645e-01 7.613257e-01 7.956866e-01 5.602174e-01 1.378109e-02 3.265206e-02 6.540004e-02 5.661888e-02 4.729575e-02 3.605054e-02 4.531934e-02 5.760103e-02 5.380671e-02 3.877004e-02 4.215841e-02 4.719621e-02 4.681244e-02 4.814327e-02 2.758245e-02 1.328918e-02
<GCONST> 2.506447e+00
<STATE> 9
<MEAN> 32
 5.713896e+00 5.915253e+00 6.445099e+00 7.042264e+00 7.021651e+00 6.812265e+00 6.933931e+00 7.466112e+00 7.863450e+00 7.727752e+00 7.939435e+00 8.109793e+00 8.406677e+00 8.150380e+00 8.004489e+00 8.102539e+00 -2.095447e-02 -4.115159e-02 -7.077165e-02 -8.792152e-02 -7.250287e-02 -3.979990e-02 -3.727750e-02 -5.398148e-02 -6.458175e-02 -6.165563e-02 -5.979908e-02 -5.274263e-02 -4.568364e-02 -2.080020e-02 2.791868e-03 1.972471e-03
<VARIANCE> 32
 1.051336e-01 1.247503e-01 2.812166e-01 4.601313e-01 3.303152e-01 2.162547e-01 1.523982e-01 2.811753e-01 2.577669e-01 2.512694e-01 3.319651e-01 3.170153e-01 3.723224e-01 3.251840e-01 1.620664e-01 8.888882e-02 1.208384e-02 1.732811e-02 2.546359e-02 2.797849e-02 2.260855e-02 1.966131e-02 1.913618e-02 3.593476e-02 2.401941e-02 2.221582e-02 2.487238e-02 3.294597e-02 4.853185e-02 4.028820e-02 1.920620e-02 9.345666e-03
<GCONST> -2.491996e+01
<TRANSP> 10
 0.000000e+00 1.000000e+00 0.000000e+00 0.000000e+00 0.000000e+00 0.000000e+00 0.000000e+00 0.000000e+00 0.000000e+00 0.000000e+00
 0.000000e+00 3.319148e-01 6.680852e-01 0.000000e+00 0.000000e+00 0.000000e+00 0.000000e+00 0.000000e+00 0.000000e+00 0.000000e+00
 0.000000e+00 0.000000e+00 2.498106e-01 7.501895e-01 0.000000e+00 0.000000e+00 0.000000e+00 0.000000e+00 0.000000e+00 0.000000e+00
 0.000000e+00 0.000000e+00 0.000000e+00 2.146764e-01 7.853236e-01 0.000000e+00 0.000000e+00 0.000000e+00 0.000000e+00 0.000000e+00
 0.000000e+00 0.000000e+00 0.000000e+00 0.000000e+00 8.417305e-02 9.158269e-01 0.000000e+00 0.000000e+00 0.000000e+00 0.000000e+00
 0.000000e+00 0.000000e+00 0.000000e+00 0.000000e+00 0.000000e+00 6.472142e-01 3.527858e-01 0.000000e+00 0.000000e+00 0.000000e+00
 0.000000e+00 0.000000e+00 0.000000e+00 0.000000e+00 0.000000e+00 0.000000e+00 9.252214e-01 7.477857e-02 0.000000e+00 0.000000e+00
 0.000000e+00 0.000000e+00 0.000000e+00 0.000000e+00 0.000000e+00 0.000000e+00 0.000000e+00 8.942215e-01 1.057785e-01 0.000000e+00
 0.000000e+00 0.000000e+00 0.000000e+00 0.000000e+00 0.000000e+00 0.000000e+00 0.000000e+00 0.000000e+00 9.363404e-01 6.365959e-02
 0.000000e+00 0.000000e+00 0.000000e+00 0.000000e+00 0.000000e+00 0.000000e+00 0.000000e+00 0.000000e+00 0.000000e+00 0.000000e+00
<ENDHMM>
~h "sil"
<BEGINHMM>
<NUMSTATES> 5
<STATE> 2
<MEAN> 32
 5.612464e+00 6.012995e+00 6.371864e+00 6.653372e+00 6.675738e+00 6.840841e+00 6.998749e+00 7.215447e+00 7.439407e+00 7.481898e+00 7.652412e+00 7.876128e+00 8.199691e+00 8.182525e+00 8.187765e+00 8.297498e+00 -2.191932e-02 -4.675625e-02 -5.328737e-02 -5.698938e-02 -4.521441e-02 -3.963445e-02 -3.829422e-02 -3.812687e-02 -3.576829e-02 -4.284035e-02 -4.048092e-02 -4.651939e-02 -5.315879e-02 -4.066182e-02 -1.552770e-02 -1.152618e-02
<VARIANCE> 32
 3.850261e-01 4.895885e-01 5.887879e-01 6.711876e-01 5.743673e-01 4.426128e-01 4.267631e-01 5.436686e-01 5.652037e-01 5.810068e-01 5.876412e-01 5.526716e-01 5.859908e-01 5.401983e-01 5.497864e-01 4.593730e-01 2.047353e-02 2.441590e-02 2.607507e-02 2.447072e-02 1.718102e-02 1.373948e-02 1.424167e-02 1.739899e-02 1.460093e-02 1.484217e-02 1.435163e-02 1.665330e-02 2.316284e-02 2.034146e-02 1.167881e-02 7.005576e-03
<GCONST> -1.683990e+01
<STATE> 3
<MEAN> 32
 5.633062e+00 5.738561e+00 5.907321e+00 6.098276e+00 6.263470e+00 6.439419e+00 6.595280e+00 6.760289e+00 7.112427e+00 7.019851e+00 7.173308e+00 7.349526e+00 7.548818e+00 7.645362e+00 7.814028e+00 8.017855e+00 -4.090417e-04 -1.046008e-03 -1.245791e-03 -1.908929e-03 -2.464724e-03 -2.300911e-03 -1.841117e-03 -1.884107e-03 -1.086737e-03 -1.628539e-03 -1.807452e-03 -2.845948e-03 -4.219978e-03 -2.270374e-03 -8.955227e-04 -9.258809e-04
<VARIANCE> 32
 1.153647e-01 1.006967e-01 8.764728e-02 7.218289e-02 6.431920e-02 5.686358e-02 4.953027e-02 4.185454e-02 3.102837e-02 3.065509e-02 2.728751e-02 2.509516e-02 2.867046e-02 2.144433e-02 1.913502e-02 3.590074e-02 1.234238e-02 1.105111e-02 9.544383e-03 8.076846e-03 6.997649e-03 6.142098e-03 5.388104e-03 4.544366e-03 3.448401e-03 3.409110e-03 2.978869e-03 2.633892e-03 2.792984e-03 2.277474e-03 1.635653e-03 1.401481e-03
<GCONST> -7.851820e+01
<STATE> 4
<MEAN> 32
 5.332970e+00 5.733365e+00 6.143749e+00 6.364544e+00 6.469364e+00 6.767638e+00 6.928845e+00 7.122811e+00 7.320440e+00 7.407674e+00 7.622691e+00 7.822377e+00 8.052698e+00 8.267855e+00 8.451365e+00 8.622361e+00 2.745635e-04 9.863467e-04 4.442339e-05 -8.979208e-04 1.940102e-04 2.604407e-04 -3.791889e-04 -3.838496e-04 1.385842e-03 2.494720e-03 2.488528e-03 3.699298e-03 4.453078e-03 3.818231e-03 2.156552e-03 1.983116e-03
<VARIANCE> 32
 1.786600e-01 9.947475e-02 1.040234e-01 1.159505e-01 7.676151e-02 8.472209e-02 8.164504e-02 8.808056e-02 6.380994e-02 8.279540e-02 9.365185e-02 1.065312e-01 1.199545e-01 1.466931e-01 1.793927e-01 1.837741e-01 1.285021e-02 1.053691e-02 1.004718e-02 1.068289e-02 7.226008e-03 6.633568e-03 6.269959e-03 6.462396e-03 5.675595e-03 6.037853e-03 6.159203e-03 6.672900e-03 7.458383e-03 7.190062e-03 4.874166e-03 3.678658e-03
<GCONST> -5.615864e+01
<TRANSP> 5
 0.000000e+00 1.000000e+00 0.000000e+00 0.000000e+00 0.000000e+00
 0.000000e+00 8.823504e-01 1.176495e-01 0.000000e+00 0.000000e+00
 0.000000e+00 0.000000e+00 9.808035e-01 1.919647e-02 0.000000e+00
 0.000000e+00 0.000000e+00 0.000000e+00 9.149351e-01 8.506493e-02
 0.000000e+00 0.000000e+00 0.000000e+00 0.000000e+00 0.000000e+00
<ENDHMM>
~h "tri"
<BEGINHMM>
<NUMSTATES> 10
<STATE> 2
<MEAN> 32
 5.689618e+00 5.812820e+00 5.919656e+00 6.128155e+00 6.305153e+00 6.531777e+00 6.715393e+00 6.821380e+00 7.168370e+00 7.069664e+00 7.260365e+00 7.524617e+00 7.780269e+00 7.869751e+00 7.889618e+00 8.058556e+00 4.196965e-03 4.030311e-02 7.631067e-02 1.183234e-01 8.787774e-02 8.809917e-02 1.302940e-01 2.066845e-01 2.257108e-01 2.503362e-01 2.553191e-01 3.552183e-01 3.927447e-01 3.422500e-01 1.535192e-01 4.937060e-02
<VARIANCE> 32
 1.421383e-01 1.185937e-01 1.028083e-01 8.420405e-02 5.846721e-02 3.643936e-02 4.945841e-02 4.163905e-02 2.623987e-02 4.897921e-02 4.424959e-02 7.144313e-02 1.476644e-01 1.255593e-01 3.809015e-02 6.204214e-02 1.176357e-02 9.201392e-03 2.468024e-02 1.302462e-02 1.129623e-02 1.405508e-02 1.738808e-02 1.881265e-02 1.746771e-02 2.307875e-02 2.719224e-02 4.438305e-02 5.142392e-02 3.969785e-02 1.310900e-02 7.321113e-03
<GCONST> -4.873481e+01
<STATE> 3
<MEAN> 32
 5.763312e+00 5.900637e+00 6.169329e+00 6.358639e+00 6.489122e+00 6.677896e+00 6.881037e+00 7.262218e+00 7.622116e+00 7.710495e+00 7.894463e+00 8.459184e+00 8.875341e+00 8.827013e+00 8.407102e+00 8.283871e+00 7.538424e-03 2.217027e-02 9.542702e-02 1.074369e-01 1.091538e-01 1.172284e-01 1.618705e-01 2.235847e-01 2.434643e-01 2.915990e-01 3.048577e-01 3.934219e-01 4.354145e-01 4.096142e-01 2.729909e-01 1.611125e-01
<VARIANCE> 32
 1.501675e-01 1.473206e-01 2.313778e-01 1.492652e-01 7.425942e-02 7.893400e-02 1.346795e-01 1.563223e-01 1.888672e-01 2.073805e-01 2.773111e-01 4.719861e-01 6.075595e-01 6.229721e-01 3.188750e-01 2.321596e-01 1.680692e-02 1.329227e-02 3.342247e-02 3.460224e-02 2.327383e-02 2.838868e-02 4.176338e-02 5.259467e-02 6.838916e-02 7.720246e-02 9.954495e-02 1.301862e-01 1.630165e-01 1.561163e-01 7.810635e-02 2.991780e-02
<GCONST> -1.414483e+01
<STATE> 4
<MEAN> 32
 5.638997e+00 5.931566e+00 6.469165e+00 6.739333e+00 6.856293e+00 7.107798e+00 7.461458e+00 7.938904e+00 8.446549e+00 8.574290e+00 8.882647e+00 9.574698e+00 1.000254e+01 9.911098e+00 9.175654e+00 8.902041e+00 3.387349e-02 1.146429e-02 1.008417e-01 1.353280e-01 1.083773e-01 1.262042e-01 1.397201e-01 1.842452e-01 2.564400e-01 3.114404e-01 3.870561e-01 5.046819e-01 5.950732e-01 6.392592e-01 4.875396e-01 3.280931e-01
<VARIANCE> 32
 1.964557e-01 1.257853e-01 1.508061e-01 2.247217e-01 2.172130e-01 2.699395e-01 2.957445e-01 2.874797e-01 3.299914e-01 2.943010e-01 3.926203e-01 5.679043e-01 7.718818e-01 6.682153e-01 3.191943e-01 2.683298e-01 1.650547e-02 1.615638e-02 3.785723e-02 5.898621e-02 4.661835e-02 5.226855e-02 6.794567e-02 7.430258e-02 7.935274e-02 7.274271e-02 6.088289e-02 5.859218e-02 6.140194e-02 5.296959e-02 4.433749e-02 2.410278e-02
<GCONST> -9.526514e+00
<STATE> 5
<MEAN> 32
 5.732176e+00 5.830922e+00 6.169168e+00 6.467793e+00 6.598271e+00 6.783536e+00 7.090921e+00 7.847977e+00 8.463751e+00 8.802934e+00 9.649271e+00 1.079130e+01 1.154875e+01 1.171691e+01 1.094229e+01 1.009142e+01 1.674911e-02 6.610339e-02 4.882279e-02 4.987662e-02 2.843831e-02 3.460486e-03 1.507647e-03 5.297415e-02 8.114305e-02 6.962804e-02 8.118911e-02 7.043374e-02 7.647569e-02 7.654180e-02 1.230613e-01 9.234694e-02
<VARIANCE> 32
 1.200976e-01 9.420691e-02 1.251958e-01 2.108515e-01 1.383992e-01 1.774591e-01 1.950965e-01 3.332813e-01 2.798167e-01 2.588564e-01 5.446574e-01 6.601458e-01 5.851420e-01 4.136616e-01 4.911867e-01 5.154728e-01 1.465949e-02 2.656353e-02 5.069038e-02 5.207141e-02 3.214540e-02 2.447775e-02 3.498299e-02 3.836406e-02 4.344320e-02 4.107884e-02 4.980580e-02 7.199716e-02 7.851126e-02 9.451918e-02 9.435550e-02 7.197980e-02
<GCONST> -1.158787e+01
<STATE> 6
<MEAN> 32
 6.155803e+00 6.402537e+00 7.057004e+00 7.550869e+00 7.443291e+00 7.751878e+00 8.058151e+00 8.810916e+00 1.000407e+01 1.007474e+01 1.089704e+01 1.179793e+01 1.239177e+01 1.242230e+01 1.200659e+01 1.108109e+01 3.683946e-02 1.412569e-01 1.383758e-01 1.125359e-01 4.872969e-02 2.334569e-02 2.390186e-02 5.596609e-02 1.136686e-01 1.065030e-01 1.227085e-01 1.127021e-01 1.000613e-01 6.776543e-02 7.552810e-02 7.867895e-02
<VARIANCE> 32
 2.765168e-01 2.411279e-01 9.738935e-01 1.417574e+00 8.678148e-01 9.408473e-01 1.006687e+00 5.609107e-01 5.460363e-01 5.981402e-01 8.329616e-01 1.162091e+00 1.135649e+00 9.966944e-01 1.902204e+00 2.982319e+00 3.413720e-02 7.195494e-02 1.446373e-01 1.792532e-01 9.102742e-02 7.036368e-02 7.535537e-02 6.726433e-02 7.935873e-02 7.470838e-02 9.189907e-02 1.359728e-01 1.605785e-01 1.636910e-01 1.947461e-01 1.652888e-01
<GCONST> 1.977835e+01
<STATE> 7
<MEAN> 32
 6.670385e+00 8.113136e+00 9.134375e+00 9.390113e+00 8.457866e+00 8.296822e+00 8.552860e+00 9.371335e+00 1.052189e+01 1.074131e+01 1.098901e+01 1.130704e+01 1.166243e+01 1.139108e+01 1.086832e+01 1.032038e+01 1.783521e-01 3.402245e-01 6.006265e-01 5.664368e-01 3.621419e-01 2.827037e-01 2.556499e-01 2.596627e-01 3.130997e-01 3.781325e-01 2.279703e-01 5.569179e-02 -4.464627e-02 -1.622403e-01 -2.990478e-01 -2.814992e-01
<VARIANCE> 32
 6.972859e-01 1.129033e+00 1.763387e+00 1.735345e+00 1.061350e+00 8.373724e-01 5.429637e-01 3.686870e-01 6.169368e-01 8.900776e-01 1.392848e+00 1.433153e+00 1.668972e+00 1.878830e+00 3.292387e+00 4.294387e+00 3.740042e-02 1.386858e-01 1.275845e-01 1.317095e-01 7.453150e-02 4.670900e-02 4.512589e-02 5.079439e-02 7.285207e-02 6.611667e-02 7.661904e-02 6.594186e-02 5.995801e-02 4.996508e-02 4.293120e-02 2.974423e-02
<GCONST> 1.766467e+01
<STATE> 8
<MEAN> 32
 6.599192e+00 7.964388e+00 9.567334e+00 9.939957e+00 8.613769e+00 8.208267e+00 8.363598e+00 8.930307e+00 1.016113e+01 1.136148e+01 1.148285e+01 1.132186e+01 1.168284e+01 1.105358e+01 9.215447e+00 8.634798e+00 -1.456876e-02 -2.404652e-02 -5.874854e-02 -7.018108e-02 -5.814731e-02 -6.773023e-02 -7.990932e-02 -1.018284e-01 -1.113546e-01 -6.974490e-02 -6.602328e-02 -8.522879e-02 -5.853838e-02 -5.351927e-02 -7.575069e-02 -4.819673e-02
<VARIANCE> 32
 5.937076e-01 6.102217e-01 1.236308e+00 4.326825e-01 7.509315e-01 6.023142e-01 3.800000e-01 3.327764e-01 6.201555e-01 2.858552e-01 4.109191e-01 5.757477e-01 4.552742e-01 6.117674e-01 6.660950e-01 3.960227e-01 6.597151e-03 5.467598e-03 9.979873e-03 9.217207e-03 8.927356e-03 9.414994e-03 7.067448e-03 7.538257e-03 1.207550e-02 2.193935e-02 2.078626e-02 2.240647e-02 2.356486e-02 2.303900e-02 7.973004e-03 5.350153e-03
<GCONST> -2.370932e+01
<STATE> 9
<MEAN> 32
 6.450726e+00 7.717809e+00 8.642259e+00 8.134336e+00 7.399081e+00 7.181337e+00 7.353349e+00 7.951973e+00 9.134863e+00 9.543123e+00 9.045957e+00 8.972469e+00 9.438102e+00 9.001127e+00 8.524971e+00 8.473707e+00 -5.636352e-02 -1.336862e-01 -1.800739e-01 -1.824257e-01 -1.203031e-01 -6.335194e-02 -6.369051e-02 -1.103707e-01 -1.407178e-01 -1.786395e-01 -1.773017e-01 -1.524576e-01 -1.658178e-01 -1.596489e-01 -5.805120e-02 -1.999382e-02
<VARIANCE> 32
 2.788736e-01 7.520107e-01 9.710402e-01 4.794429e-01 3.085666e-01 2.979084e-01 2.475324e-01 5.880808e-01 1.357162e+00 6.814151e-01 4.454592e-01 4.224313e-01 4.830405e-01 3.334339e-01 2.348659e-01 1.910144e-01 1.526237e-02 3.375787e-02 3.698567e-02 3.502326e-02 2.581233e-02 2.487817e-02 1.715350e-02 1.848994e-02 2.970164e-02 3.779655e-02 3.659774e-02 2.558679e-02 3.050269e-02 2.235278e-02 9.638239e-03 4.713419e-03
<GCONST> -1.518929e+01
<TRANSP> 10
 0.000000e+00 1.000000e+00 0.000000e+00 0.000000e+00 0.000000e+00 0.000000e+00 0.000000e+00 0.000000e+00 0.000000e+00 0.000000e+00
 0.000000e+00 4.188261e-01 5.811739e-01 0.000000e+00 0.000000e+00 0.000000e+00 0.000000e+00 0.000000e+00 0.000000e+00 0.000000e+00
 0.000000e+00 0.000000e+00 4.408986e-01 5.591014e-01 0.000000e+00 0.000000e+00 0.000000e+00 0.000000e+00 0.000000e+00 0.000000e+00
 0.000000e+00 0.000000e+00 0.000000e+00 5.670007e-01 4.329992e-01 0.000000e+00 0.000000e+00 0.000000e+00 0.000000e+00 0.000000e+00
 0.000000e+00 0.000000e+00 0.000000e+00 0.000000e+00 8.471470e-01 1.528529e-01 0.000000e+00 0.000000e+00 0.000000e+00 0.000000e+00
 0.000000e+00 0.000000e+00 0.000000e+00 0.000000e+00 0.000000e+00 7.555782e-01 2.444218e-01 0.000000e+00 0.000000e+00 0.000000e+00
 0.000000e+00 0.000000e+00 0.000000e+00 0.000000e+00 0.000000e+00 0.000000e+00 7.529904e-01 2.470096e-01 0.000000e+00 0.000000e+00
 0.000000e+00 0.000000e+00 0.000000e+00 0.000000e+00 0.000000e+00 0.000000e+00 0.000000e+00 9.272994e-01 7.270066e-02 0.000000e+00
 0.000000e+00 0.000000e+00 0.000000e+00 0.000000e+00 0.000000e+00 0.000000e+00 0.000000e+00 0.000000e+00 8.995101e-01 1.004898e-01
 0.000000e+00 0.000000e+00 0.000000e+00 0.000000e+00 0.000000e+00 0.000000e+00 0.000000e+00 0.000000e+00 0.000000e+00 0.000000e+00
<ENDHMM>
~h "nula"
<BEGINHMM>
<NUMSTATES> 10
<STATE> 2
<MEAN> 32
 6.028280e+00 6.697674e+00 6.801347e+00 6.994026e+00 6.890213e+00 7.041293e+00 6.930769e+00 6.985497e+00 7.323321e+00 7.215585e+00 7.223773e+00 7.382660e+00 7.917221e+00 8.119268e+00 7.980512e+00 8.243738e+00 9.739813e-02 3.004070e-01 2.857560e-01 2.472728e-01 1.665522e-01 1.334840e-01 4.567916e-02 2.940736e-02 4.876702e-02 6.484188e-02 3.770936e-02 2.212499e-02 4.031130e-02 3.971756e-02 1.951877e-03 -7.079680e-03
<VARIANCE> 32
 2.310002e-01 8.410443e-01 9.643647e-01 1.000102e+00 6.720448e-01 5.849876e-01 1.710798e-01 1.448095e-01 1.500514e-01 1.187151e-01 7.156698e-02 5.378814e-02 1.180618e-01 1.506018e-01 6.526998e-02 9.432442e-02 1.297079e-02 3.044651e-02 2.355985e-02 2.365171e-02 1.928391e-02 2.739917e-02 1.465075e-02 1.510646e-02 1.079228e-02 1.285531e-02 6.418624e-03 3.465870e-03 1.692876e-02 1.095779e-02 3.326933e-03 2.167623e-03
<GCONST> -3.752118e+01
<STATE> 3
<MEAN> 32
 5.821343e+00 6.821929e+00 6.926312e+00 6.806415e+00 6.616074e+00 6.754522e+00 6.750310e+00 6.932030e+00 7.271379e+00 7.274890e+00 7.387720e+00 7.493575e+00 7.797835e+00 7.885917e+00 7.897487e+00 8.061995e+00 2.377150e-01 5.615170e-01 5.704692e-01 4.976678e-01 2.786093e-01 2.060166e-01 1.392219e-01 2.201205e-01 1.980287e-01 2.566558e-01 2.432832e-01 1.532621e-01 1.728640e-01 9.087528e-02 5.635352e-03 -1.617037e-02
<VARIANCE> 32
 4.331462e-01 6.323664e-01 7.490807e-01 6.821048e-01 4.523518e-01 3.797721e-01 1.007656e-01 9.579894e-02 1.076615e-01 1.461147e-01 1.295537e-01 7.021524e-02 1.149636e-01 1.093248e-01 1.169041e-01 8.329002e-02 4.469810e-02 8.318739e-02 6.143790e-02 5.824899e-02 2.654644e-02 2.275520e-02 1.259620e-02 1.294921e-02 1.234437e-02 3.726338e-02 2.171423e-02 1.340995e-02 5.511178e-02 2.778840e-02 5.016739e-03 6.881464e-03
<GCONST> -2.735812e+01
<STATE> 4
<MEAN> 32
 6.505421e+00 7.920319e+00 8.077969e+00 7.928646e+00 7.262654e+00 7.220212e+00 7.048660e+00 7.445803e+00 7.752734e+00 7.845449e+00 7.996819e+00 7.935245e+00 8.481895e+00 8.288199e+00 8.003683e+00 8.126718e+00 2.991869e-01 4.691691e-01 5.465159e-01 5.249527e-01 3.259901e-01 2.307911e-01 2.153383e-01 2.955579e-01 2.584601e-01 3.296219e-01 3.390824e-01 2.499967e-01 2.619569e-01 1.706528e-01 4.759467e-02 2.717860e-03
<VARIANCE> 32
 5.068449e-01 6.225668e-01 6.495575e-01 5.124632e-01 4.566979e-01 4.824490e-01 1.440499e-01 1.721523e-01 2.157734e-01 3.946480e-01 2.607377e-01 1.682438e-01 5.202881e-01 1.932934e-01 1.052020e-01 1.040967e-01 7.838836e-02 1.296371e-01 1.232178e-01 8.744375e-02 4.552461e-02 4.098760e-02 2.683230e-02 2.122299e-02 2.188708e-02 3.621128e-02 2.741153e-02 2.284937e-02 5.057167e-02 2.325179e-02 4.761273e-03 1.742471e-03
<GCONST> -1.688783e+01
<STATE> 5
<MEAN> 32
 6.710794e+00 8.200921e+00 8.590605e+00 8.507797e+00 7.660978e+00 7.383379e+00 7.421677e+00 7.877836e+00 8.051626e+00 8.469785e+00 8.513538e+00 8.361861e+00 8.707433e+00 8.427997e+00 8.056117e+00 8.056050e+00 1.059516e-01 1.456382e-01 2.215579e-01 2.764034e-01 2.272937e-01 2.014235e-01 2.973352e-01 2.925098e-01 1.937669e-01 1.897311e-01 2.238546e-01 2.019277e-01 9.869783e-02 5.980154e-02 5.445388e-02 2.967625e-02
<VARIANCE> 32
 5.799657e-01 5.181128e-01 5.369837e-01 3.610255e-01 3.332162e-01 4.195938e-01 2.368031e-01 2.349099e-01 2.606820e-01 5.751595e-01 4.458547e-01 3.085827e-01 5.355197e-01 2.125211e-01 1.001098e-01 6.691475e-02 2.994172e-02 3.571036e-02 5.354419e-02 5.063764e-02 3.467550e-02 3.500049e-02 4.420146e-02 4.442998e-02 3.259963e-02 3.921727e-02 3.438525e-02 3.816831e-02 1.725141e-02 1.484133e-02 6.606825e-03 4.519524e-03
<GCONST> -1.763279e+01
<STATE> 6
<MEAN> 32
 6.672245e+00 8.076665e+00 9.163044e+00 9.691800e+00 9.313275e+00 9.341870e+00 9.002186e+00 8.596905e+00 8.784383e+00 8.995034e+00 8.451592e+00 8.535182e+00 8.662156e+00 8.510604e+00 8.181699e+00 8.222863e+00 -2.198141e-03 -1.166106e-02 3.453764e-02 9.036471e-02 1.109750e-01 1.135694e-01 1.234896e-01 8.077585e-02 6.157186e-02 6.664087e-02 7.013766e-02 9.517200e-02 6.851957e-02 4.079625e-02 2.300388e-02 1.475986e-02
<VARIANCE> 32
 2.397972e-01 2.786081e-01 3.383175e-01 3.217684e-01 7.757037e-01 7.370349e-01 9.099562e-01 3.638902e-01 3.637932e-01 3.802020e-01 5.527512e-01 4.368083e-01 3.538025e-01 2.428547e-01 1.098605e-01 5.044169e-02 5.853293e-03 6.622984e-03 1.477756e-02 1.945944e-02 2.452379e-02 2.848826e-02 4.572568e-02 3.197978e-02 2.118185e-02 2.469668e-02 2.604677e-02 3.238474e-02 2.278912e-02 1.465139e-02 7.604417e-03 6.695359e-03
<GCONST> -2.345486e+01
<STATE> 7
<MEAN> 32
 6.746074e+00 8.279943e+00 9.283900e+00 9.951713e+00 9.344299e+00 9.371614e+00 9.444314e+00 9.046005e+00 8.844916e+00 9.179431e+00 9.881499e+00 1.021659e+01 1.017905e+01 9.254981e+00 8.596515e+00 8.480056e+00 1.451543e-02 1.761104e-03 7.449815e-02 1.356196e-01 1.732607e-01 2.073251e-01 1.846663e-01 7.659914e-02 6.887744e-02 1.007272e-01 1.139947e-01 1.587019e-01 1.620278e-01 1.163497e-01 5.895053e-02 4.810580e-02
<VARIANCE> 32
 8.432621e-01 8.958403e-01 1.629683e+00 7.153906e-01 8.166813e-01 9.670530e-01 7.709414e-01 7.119689e-01 5.011219e-01 4.838132e-01 5.112810e-01 5.928090e-01 5.650439e-01 4.982365e-01 5.793777e-01 5.740641e-01 2.850823e-02 2.801718e-02 4.146676e-02 4.065241e-02 3.539412e-02 5.454271e-02 8.315606e-02 5.817566e-02 2.784470e-02 3.430083e-02 3.598219e-02 5.116678e-02 7.203703e-02 7.680430e-02 4.393317e-02 3.408033e-02
<GCONST> 2.818500e+00
<STATE> 8
<MEAN> 32
 7.203557e+00 8.290764e+00 9.623079e+00 1.058038e+01 1.085026e+01 1.100641e+01 1.126636e+01 1.067130e+01 9.897518e+00 1.018570e+01 1.091165e+01 1.109823e+01 1.138655e+01 1.070723e+01 9.493509e+00 9.003245e+00 -1.520550e-02 -3.487819e-02 -6.975126e-02 -4.950120e-02 -4.155077e-04 5.499880e-03 2.040591e-02 3.991640e-02 1.197580e-02 -1.020145e-02 -1.192621e-02 -1.531647e-02 1.313614e-02 2.386774e-02 6.932850e-03 -1.052894e-02
<VARIANCE> 32
 9.261837e-01 1.301150e+00 1.813874e+00 7.098012e-01 6.205149e-01 4.967316e-01 5.894594e-01 8.742761e-01 3.627912e-01 4.163673e-01 6.073550e-01 5.753573e-01 1.347735e+00 1.092554e+00 1.600556e+00 8.724145e-01 9.599987e-03 7.510986e-03 1.267207e-02 1.228178e-02 3.347229e-02 2.377097e-02 2.887293e-02 2.944654e-02 1.627147e-02 2.353622e-02 2.702691e-02 2.956244e-02 5.118165e-02 4.839159e-02 2.469485e-02 1.449446e-02
<GCONST> -6.256621e+00
<STATE> 9
<MEAN> 32
 6.234497e+00 7.084933e+00 7.491863e+00 8.606784e+00 9.179408e+00 9.409163e+00 9.468957e+00 9.024477e+00 8.455226e+00 8.594012e+00 8.835430e+00 9.129977e+00 9.529712e+00 9.056000e+00 8.313962e+00 8.179313e+00 -9.230901e-02 -1.326226e-01 -1.954362e-01 -2.315045e-01 -2.174686e-01 -2.252413e-01 -2.451784e-01 -2.397612e-01 -2.107949e-01 -2.010773e-01 -2.093494e-01 -2.199758e-01 -2.233812e-01 -1.871086e-01 -9.030730e-02 -3.624044e-02
<VARIANCE> 32
 3.377260e-01 6.938730e-01 5.619848e-01 6.643993e-01 6.585161e-01 5.069954e-01 6.729887e-01 9.853829e-01 5.412676e-01 5.841548e-01 8.809374e-01 7.699730e-01 6.399125e-01 4.512227e-01 3.963810e-01 1.754328e-01 1.816871e-02 2.212294e-02 2.693702e-02 2.512115e-02 1.989721e-02 1.769939e-02 2.286250e-02 2.367604e-02 1.503112e-02 1.204398e-02 2.062032e-02 1.562176e-02 1.854074e-02 1.723797e-02 1.477861e-02 7.984094e-03
<GCONST> -1.492068e+01
<TRANSP> 10
 0.000000e+00 1.000000e+00 0.000000e+00 0.000000e+00 0.000000e+00 0.000000e+00 0.000000e+00 0.000000e+00 0.000000e+00 0.000000e+00
 0.000000e+00 5.724491e-01 4.275509e-01 0.000000e+00 0.000000e+00 0.000000e+00 0.000000e+00 0.000000e+00 0.000000e+00 0.000000e+00
 0.000000e+00 0.000000e+00 1.969488e-01 8.030513e-01 0.000000e+00 0.000000e+00 0.000000e+00 0.000000e+00 0.000000e+00 0.000000e+00
 0.000000e+00 0.000000e+00 0.000000e+00 3.299302e-01 6.700698e-01 0.000000e+00 0.000000e+00 0.000000e+00 0.000000e+00 0.000000e+00
 0.000000e+00 0.000000e+00 0.000000e+00 0.000000e+00 5.485440e-01 4.514560e-01 0.000000e+00 0.000000e+00 0.000000e+00 0.000000e+00
 0.000000e+00 0.000000e+00 0.000000e+00 0.000000e+00 0.000000e+00 8.737897e-01 1.262104e-01 0.000000e+00 0.000000e+00 0.000000e+00
 0.000000e+00 0.000000e+00 0.000000e+00 0.000000e+00 0.000000e+00 0.000000e+00 8.576113e-01 1.423887e-01 0.000000e+00 0.000000e+00
 0.000000e+00 0.000000e+00 0.000000e+00 0.000000e+00 0.000000e+00 0.000000e+00 0.000000e+00 9.406291e-01 5.937087e-02 0.000000e+00
 0.000000e+00 0.000000e+00 0.000000e+00 0.000000e+00 0.000000e+00 0.000000e+00 0.000000e+00 0.000000e+00 8.899609e-01 1.100391e-01
 0.000000e+00 0.000000e+00 0.000000e+00 0.000000e+00 0.000000e+00 0.000000e+00 0.000000e+00 0.000000e+00 0.000000e+00 0.000000e+00
<ENDHMM>
~h "devet"
<BEGINHMM>
<NUMSTATES> 10
<STATE> 2
<MEAN> 32
 6.049178e+00 6.447499e+00 6.677057e+00 6.591169e+00 6.379769e+00 6.550892e+00 6.652980e+00 6.744919e+00 7.123074e+00 7.112579e+00 7.218061e+00 7.392125e+00 7.633078e+00 7.729088e+00 7.844990e+00 8.016329e+00 5.632115e-02 1.096858e-01 1.273799e-01 1.085967e-01 5.112583e-02 1.264001e-02 -2.109733e-03 1.449191e-02 3.256248e-02 2.907396e-02 3.107395e-02 2.576366e-02 2.840171e-02 2.596677e-02 1.007940e-02 6.754368e-03
<VARIANCE> 32
 2.893434e-01 2.601132e-01 4.223213e-01 2.761559e-01 8.038632e-02 7.581440e-02 8.137094e-02 4.906311e-02 3.603261e-02 4.565699e-02 4.897330e-02 3.800782e-02 7.321931e-02 7.656016e-02 5.140634e-02 6.693071e-02 2.123185e-02 4.134980e-02 4.059430e-02 3.139913e-02 1.088241e-02 9.514998e-03 8.399275e-03 9.532601e-03 1.115165e-02 9.569624e-03 8.312112e-03 1.109797e-02 1.397504e-02 8.260350e-03 2.115658e-03 1.959842e-03
<GCONST> -5.230729e+01
<STATE> 3
<MEAN> 32
 6.131995e+00 6.708560e+00 6.750552e+00 6.803132e+00 6.533145e+00 6.586461e+00 6.723583e+00 6.955417e+00 7.404697e+00 7.382945e+00 7.633698e+00 7.812769e+00 8.142042e+00 8.148213e+00 7.925857e+00 8.084865e+00 9.062547e-02 1.815188e-01 2.044530e-01 1.902075e-01 1.214827e-01 4.657621e-02 8.102163e-02 1.766723e-01 2.175058e-01 2.004508e-01 2.224059e-01 2.259267e-01 2.329919e-01 1.801354e-01 7.507042e-02 3.929347e-02
<VARIANCE> 32
 3.893455e-01 8.089525e-01 5.166439e-01 4.286984e-01 1.378954e-01 9.319385e-02 8.098131e-02 7.650857e-02 2.015142e-01 2.118480e-01 3.528191e-01 4.683434e-01 7.362255e-01 5.029114e-01 1.055759e-01 1.226336e-01 1.339371e-02 5.539696e-02 5.276796e-02 4.431464e-02 1.916054e-02 1.098058e-02 2.151833e-02 3.652105e-02 4.185950e-02 4.092097e-02 4.777103e-02 8.580258e-02 1.301486e-01 9.783377e-02 1.565018e-02 7.190344e-03
<GCONST> -1.778561e+01
<STATE> 4
<MEAN> 32
 6.381721e+00 7.189358e+00 7.520349e+00 7.436355e+00 7.000258e+00 6.802673e+00 6.889686e+00 7.376953e+00 7.817619e+00 7.706284e+00 7.861681e+00 7.896461e+00 8.187434e+00 8.247569e+00 8.180618e+00 8.303011e+00 1.250810e-01 2.476490e-01 4.349208e-01 4.333948e-01 2.972155e-01 2.368127e-01 2.973267e-01 4.505457e-01 4.945311e-01 4.912274e-01 4.747444e-01 4.817494e-01 5.022895e-01 4.232945e-01 2.294924e-01 1.245073e-01
<VARIANCE> 32
 4.915842e-01 9.446898e-01 9.306674e-01 8.132404e-01 4.180485e-01 1.587074e-01 1.279607e-01 2.943852e-01 3.282862e-01 1.793485e-01 1.633454e-01 1.305406e-01 1.640737e-01 2.045772e-01 3.015501e-01 4.010653e-01 2.404372e-02 5.402787e-02 1.099322e-01 1.087723e-01 5.865195e-02 4.009821e-02 4.556492e-02 6.849816e-02 8.304475e-02 8.559654e-02 1.077429e-01 1.156078e-01 1.300341e-01 9.577139e-02 5.827300e-02 3.353138e-02
<GCONST> -3.262581e+00
<STATE> 5
<MEAN> 32
 6.448159e+00 7.452974e+00 7.924203e+00 7.945650e+00 7.273825e+00 7.070197e+00 7.321597e+00 7.977354e+00 8.442893e+00 8.366266e+00 8.546073e+00 8.812709e+00 9.180627e+00 9.188628e+00 8.811323e+00 8.718636e+00 1.821934e-01 3.169391e-01 6.553075e-01 7.262182e-01 5.401822e-01 4.163635e-01 4.806121e-01 6.303461e-01 7.376629e-01 7.485815e-01 7.140361e-01 6.914775e-01 6.718457e-01 5.024652e-01 2.163428e-01 7.003625e-02
<VARIANCE> 32
 5.055524e-01 7.502526e-01 5.931156e-01 3.406475e-01 9.540059e-02 8.887046e-02 1.687712e-01 3.824150e-01 4.520411e-01 3.954454e-01 5.060526e-01 6.002920e-01 7.640206e-01 5.890019e-01 8.789474e-01 8.777859e-01 4.065922e-02 7.535915e-02 5.632323e-02 6.085773e-02 4.984401e-02 6.798736e-02 5.527259e-02 8.998117e-02 1.405932e-01 1.388126e-01 2.029108e-01 2.411586e-01 2.230884e-01 1.998535e-01 9.915494e-02 5.261769e-02
<GCONST> 6.986838e+00
<STATE> 6
<MEAN> 32
 6.717688e+00 7.998490e+00 9.426850e+00 9.582654e+00 8.584565e+00 8.251107e+00 8.642412e+00 9.529387e+00 1.035462e+01 1.033425e+01 1.052975e+01 1.063571e+01 1.071637e+01 1.019658e+01 9.224223e+00 8.794615e+00 1.834350e-01 2.898767e-01 6.477730e-01 7.771529e-01 7.055057e-01 5.346177e-01 5.377844e-01 6.690590e-01 8.260382e-01 8.307256e-01 8.205700e-01 7.972685e-01 7.275597e-01 5.171794e-01 2.646607e-01 1.506466e-01
<VARIANCE> 32
 4.407812e-01 5.490847e-01 5.813153e-01 6.001646e-01 5.227662e-01 6.999834e-01 5.613101e-01 3.754463e-01 3.236693e-01 4.650261e-01 1.280120e+00 1.314615e+00 1.078675e+00 1.551464e+00 1.164380e+00 7.992503e-01 4.949661e-02 1.022925e-01 8.391961e-02 4.658411e-02 4.126294e-02 3.836832e-02 3.533156e-02 4.595951e-02 6.064593e-02 5.724669e-02 9.155802e-02 1.045521e-01 7.955561e-02 1.170220e-01 4.106293e-02 1.507794e-02
<GCONST> 6.770483e+00
<STATE> 7
<MEAN> 32
 6.813208e+00 7.891973e+00 9.671665e+00 1.038159e+01 9.729548e+00 8.828319e+00 9.042779e+00 9.946072e+00 1.101329e+01 1.099381e+01 1.088570e+01 1.102768e+01 1.128864e+01 1.047048e+01 9.243161e+00 8.679155e+00 7.648498e-02 3.127171e-02 7.206487e-02 2.866635e-01 3.820139e-01 2.792619e-01 2.486870e-01 2.623802e-01 2.941726e-01 3.069555e-01 2.814414e-01 2.532135e-01 2.177334e-01 1.631054e-01 5.964600e-02 4.514784e-02
<VARIANCE> 32
 3.464573e-01 5.613685e-01 6.161559e-01 4.958736e-01 9.119191e-01 5.644179e-01 3.634329e-01 4.013411e-01 2.902798e-01 4.384007e-01 1.333022e+00 1.449154e+00 1.058188e+00 1.376328e+00 6.016272e-01 4.546098e-01 1.385581e-02 1.853036e-02 6.489415e-02 3.961225e-02 4.046819e-02 9.199897e-03 9.817855e-03 9.917011e-03 1.389902e-02 1.866773e-02 1.878224e-02 2.421466e-02 2.244559e-02 1.871715e-02 2.116810e-02 1.390339e-02
<GCONST> -1.214609e+01
<STATE> 8
<MEAN> 32
 6.904036e+00 7.947907e+00 9.314922e+00 9.965134e+00 9.706932e+00 8.942642e+00 9.175783e+00 9.850333e+00 1.088138e+01 1.111425e+01 1.139171e+01 1.131961e+01 1.161356e+01 1.104453e+01 9.202425e+00 8.685989e+00 -1.013212e-02 -1.031794e-02 -1.894705e-02 -1.724488e-02 -8.106966e-03 -1.169232e-02 -9.926323e-03 -3.979752e-03 -1.913852e-02 -3.746936e-02 -2.756479e-02 -2.436602e-02 -2.375079e-02 -2.029794e-02 -1.096618e-02 -6.342591e-03
<VARIANCE> 32
 6.439203e-01 7.618160e-01 1.093751e+00 8.558329e-01 1.071236e+00 7.016833e-01 4.307599e-01 4.143980e-01 4.823833e-01 5.343048e-01 5.740842e-01 6.769859e-01 5.684698e-01 7.323664e-01 1.007182e+00 4.834722e-01 5.993076e-03 6.824302e-03 3.065071e-02 3.293204e-02 4.348604e-02 2.395427e-02 1.761512e-02 1.629769e-02 3.057320e-02 4.417706e-02 3.783067e-02 3.519993e-02 3.900389e-02 4.208879e-02 1.555067e-02 6.820342e-03
<GCONST> -8.689174e+00
<STATE> 9
<MEAN> 32
 6.266041e+00 7.448405e+00 8.864491e+00 9.181286e+00 8.332872e+00 7.802984e+00 8.130337e+00 9.364034e+00 9.807107e+00 9.659516e+00 9.314166e+00 9.662295e+00 9.865590e+00 9.170428e+00 8.435062e+00 8.439784e+00 -5.446364e-02 -9.167505e-02 -1.267251e-01 -1.429540e-01 -1.368620e-01 -1.107756e-01 -1.183724e-01 -1.488553e-01 -1.609889e-01 -1.347973e-01 -1.339535e-01 -1.379780e-01 -1.267266e-01 -1.017832e-01 -5.968174e-02 -2.934486e-02
<VARIANCE> 32
 1.768838e-01 3.672095e-01 5.449337e-01 6.641638e-01 7.033790e-01 3.496772e-01 2.811570e-01 6.189895e-01 5.579336e-01 6.798664e-01 1.201173e+00 1.796399e+00 7.593371e-01 4.986426e-01 2.409317e-01 1.824304e-01 1.333040e-02 2.359571e-02 4.556580e-02 5.666615e-02 5.484894e-02 3.199153e-02 3.557995e-02 6.300219e-02 6.341095e-02 4.522656e-02 5.106756e-02 4.706841e-02 4.939803e-02 4.445878e-02 1.515810e-02 6.455372e-03
<GCONST> -6.093175e+00
<TRANSP> 10
 0.000000e+00 1.000000e+00 0.000000e+00 0.000000e+00 0.000000e+00 0.000000e+00 0.000000e+00 0.000000e+00 0.000000e+00 0.000000e+00
 0.000000e+00 7.493355e-01 2.506644e-01 0.000000e+00 0.000000e+00 0.000000e+00 0.000000e+00 0.000000e+00 0.000000e+00 0.000000e+00
 0.000000e+00 0.000000e+00 4.308382e-01 5.691618e-01 0.000000e+00 0.000000e+00 0.000000e+00 0.000000e+00 0.000000e+00 0.000000e+00
 0.000000e+00 0.000000e+00 0.000000e+00 3.084002e-01 6.915998e-01 0.000000e+00 0.000000e+00 0.000000e+00 0.000000e+00 0.000000e+00
 0.000000e+00 0.000000e+00 0.000000e+00 0.000000e+00 1.862810e-01 8.137190e-01 0.000000e+00 0.000000e+00 0.000000e+00 0.000000e+00
 0.000000e+00 0.000000e+00 0.000000e+00 0.000000e+00 0.000000e+00 3.229957e-01 6.770043e-01 0.000000e+00 0.000000e+00 0.000000e+00
 0.000000e+00 0.000000e+00 0.000000e+00 0.000000e+00 0.000000e+00 0.000000e+00 5.161385e-01 4.838615e-01 0.000000e+00 0.000000e+00
 0.000000e+00 0.000000e+00 0.000000e+00 0.000000e+00 0.000000e+00 0.000000e+00 0.000000e+00 9.621562e-01 3.784388e-02 0.000000e+00
 0.000000e+00 0.000000e+00 0.000000e+00 0.000000e+00 0.000000e+00 0.000000e+00 0.000000e+00 0.000000e+00 9.277047e-01 7.229531e-02
 0.000000e+00 0.000000e+00 0.000000e+00 0.000000e+00 0.000000e+00 0.000000e+00 0.000000e+00 0.000000e+00 0.000000e+00 0.000000e+00
<ENDHMM>
~h "jedna"
<BEGINHMM>
<NUMSTATES> 10
<STATE> 2
<MEAN> 32
 6.024851e+00 6.503815e+00 6.798405e+00 6.721883e+00 6.554874e+00 6.549915e+00 6.739029e+00 7.231858e+00 7.750359e+00 7.708976e+00 7.567784e+00 7.608276e+00 8.189928e+00 8.130214e+00 8.188175e+00 8.334682e+00 2.774975e-02 1.181079e-01 9.663677e-02 6.869537e-02 2.569915e-02 1.865188e-02 8.743328e-03 1.613938e-02 2.591553e-02 6.384588e-02 8.045061e-02 8.493945e-02 8.971632e-02 5.628910e-02 6.180026e-03 2.384590e-03
<VARIANCE> 32
 2.295025e-01 5.064068e-01 9.594096e-01 7.519901e-01 2.848489e-01 8.936912e-02 9.918323e-02 5.249588e-01 8.123811e-01 6.156648e-01 2.407589e-01 1.611266e-01 4.047076e-01 2.502476e-01 2.583119e-01 1.843018e-01 1.179663e-02 3.611208e-02 6.614861e-02 4.465294e-02 1.951506e-02 1.122043e-02 7.762274e-03 3.056911e-02 4.383040e-02 4.698309e-02 3.987693e-02 3.972996e-02 6.664252e-02 4.264400e-02 1.384925e-02 5.034953e-03
<GCONST> -1.799544e+01
<STATE> 3
<MEAN> 32
 5.995214e+00 6.829485e+00 7.060358e+00 6.902997e+00 6.548395e+00 6.600039e+00 6.677878e+00 6.893502e+00 7.498208e+00 7.795737e+00 7.959378e+00 8.272200e+00 8.378079e+00 8.305162e+00 8.034272e+00 8.135827e+00 1.389229e-01 3.456225e-01 4.540696e-01 3.858130e-01 1.788726e-01 7.094414e-02 7.345623e-02 1.016774e-01 1.878538e-01 3.756560e-01 4.192064e-01 4.425420e-01 3.908187e-01 2.299189e-01 9.645154e-02 2.527079e-02
<VARIANCE> 32
 2.095969e-01 5.279950e-01 6.659517e-01 4.961482e-01 1.371977e-01 9.210257e-02 4.888970e-02 5.125399e-02 2.372394e-01 4.875273e-01 4.951135e-01 7.550172e-01 4.617395e-01 3.618037e-01 1.372012e-01 9.067985e-02 1.698601e-02 4.994415e-02 5.626877e-02 3.005842e-02 2.057912e-02 1.670016e-02 1.211392e-02 1.584151e-02 1.944191e-02 4.015923e-02 4.796363e-02 6.239607e-02 9.440932e-02 4.735258e-02 1.025287e-02 2.976774e-03
<GCONST> -2.293708e+01
<STATE> 4
<MEAN> 32
 6.173547e+00 7.392964e+00 7.801785e+00 7.589070e+00 6.939633e+00 6.775324e+00 6.848243e+00 7.121043e+00 7.760336e+00 8.700729e+00 9.081738e+00 9.474961e+00 9.736707e+00 8.996670e+00 8.222308e+00 8.168427e+00 2.064764e-01 3.945487e-01 5.982707e-01 5.245747e-01 3.101236e-01 1.745378e-01 2.001299e-01 2.549567e-01 3.365134e-01 6.443427e-01 6.775936e-01 6.836467e-01 6.849477e-01 4.621257e-01 1.793599e-01 3.030252e-02
<VARIANCE> 32
 2.105625e-01 4.130042e-01 5.309297e-01 2.948621e-01 1.699228e-01 1.004956e-01 7.156296e-02 1.263298e-01 3.509834e-01 5.426127e-01 7.046703e-01 1.167971e+00 1.130981e+00 4.761388e-01 2.191267e-01 1.483961e-01 4.315490e-02 9.155657e-02 7.486995e-02 6.793339e-02 3.160781e-02 2.430889e-02 3.193946e-02 3.119534e-02 2.823336e-02 6.243834e-02 6.784475e-02 1.041019e-01 1.217449e-01 6.934482e-02 2.692902e-02 2.107249e-03
<GCONST> -1.090154e+01
<STATE> 5
<MEAN> 32
 6.415013e+00 7.628063e+00 8.485620e+00 8.363667e+00 7.579647e+00 7.218996e+00 7.437482e+00 8.197182e+00 8.717858e+00 9.248393e+00 9.307984e+00 9.579512e+00 9.719226e+00 8.945506e+00 8.230758e+00 8.196957e+00 2.719902e-02 3.575475e-02 5.678533e-02 6.958532e-02 6.793803e-02 5.976568e-02 7.674380e-02 7.482692e-02 4.686673e-02 5.718971e-02 5.586200e-02 4.951271e-02 7.039239e-02 6.094303e-02 2.291885e-02 1.074547e-02
<VARIANCE> 32
 1.359489e-01 2.964824e-01 7.082847e-01 6.944664e-01 3.787690e-01 2.461306e-01 2.978533e-01 8.565028e-01 1.054308e+00 9.779863e-01 1.220473e+00 1.637471e+00 1.197263e+00 8.346019e-01 2.043445e-01 1.030908e-01 1.719072e-02 3.876099e-02 8.965209e-02 8.900913e-02 5.330066e-02 3.738044e-02 4.740211e-02 9.226925e-02 8.866409e-02 9.200574e-02 8.742962e-02 9.694177e-02 8.779246e-02 6.414704e-02 2.492892e-02 7.345597e-03
<GCONST> 8.554640e-01
<STATE> 6
<MEAN> 32
 6.785143e+00 8.124882e+00 9.602036e+00 9.514827e+00 8.467808e+00 8.036642e+00 8.250243e+00 8.636992e+00 9.387463e+00 1.073584e+01 1.110326e+01 1.123318e+01 1.155119e+01 1.071867e+01 9.090489e+00 8.577345e+00 5.600393e-02 6.144701e-02 2.567404e-01 4.141243e-01 4.499430e-01 3.894272e-01 3.940701e-01 4.238924e-01 4.681408e-01 4.066447e-01 3.391693e-01 3.089283e-01 2.855780e-01 2.547372e-01 1.518228e-01 1.305529e-01
<VARIANCE> 32
 4.306988e-01 7.703231e-01 8.167889e-01 7.274333e-01 4.485393e-01 3.125815e-01 3.866259e-01 5.019206e-01 5.264567e-01 7.735968e-01 9.601885e-01 8.831174e-01 8.561523e-01 9.482512e-01 1.031655e+00 2.655821e-01 3.247770e-02 4.406040e-02 1.099481e-01 7.552121e-02 3.900157e-02 1.856765e-02 2.576338e-02 1.420647e-02 2.445063e-02 7.628532e-02 6.837612e-02 5.384206e-02 5.955166e-02 5.264753e-02 2.844824e-02 8.625217e-03
<GCONST> -1.432839e+00
<STATE> 7
<MEAN> 32
 7.815020e+00 8.946885e+00 1.022693e+01 1.057522e+01 9.895247e+00 9.313458e+00 9.443439e+00 1.009421e+01 1.080032e+01 1.076268e+01 1.081967e+01 1.097793e+01 1.102983e+01 1.054175e+01 9.739976e+00 9.118230e+00 -8.034024e-03 -2.653933e-02 -7.934853e-02 -4.495990e-02 7.016003e-03 1.704470e-02 3.044709e-02 3.591253e-02 5.633254e-03 -8.307701e-02 -8.972131e-02 -7.229469e-02 -7.939894e-02 -7.879875e-02 -5.117709e-02 -3.440565e-02
<VARIANCE> 32
 7.898302e-01 8.266042e-01 9.234619e-01 7.152122e-01 7.521780e-01 8.981589e-01 9.486947e-01 1.298195e+00 1.004222e+00 1.523049e+00 1.506404e+00 1.610795e+00 1.935232e+00 1.498223e+00 1.089649e+00 4.412902e-01 5.974639e-03 1.399852e-02 5.152091e-02 6.874275e-02 1.052945e-01 8.486062e-02 7.749391e-02 9.343264e-02 1.116760e-01 7.207841e-02 6.321234e-02 9.755637e-02 1.057735e-01 7.244414e-02 4.341982e-02 2.589090e-02
<GCONST> 1.317987e+01
<STATE> 8
<MEAN> 32
 6.602243e+00 7.689226e+00 8.513377e+00 9.031805e+00 9.232647e+00 9.334166e+00 9.517541e+00 1.012165e+01 9.947854e+00 9.832099e+00 1.022287e+01 1.035111e+01 1.088872e+01 1.005533e+01 8.389642e+00 8.195884e+00 -4.313051e-03 -6.976161e-03 -3.519060e-02 -1.743537e-02 1.797571e-02 4.069140e-02 4.243969e-02 2.073416e-02 -3.639967e-02 -5.054409e-02 -4.014720e-02 -3.352086e-02 -3.537505e-02 -3.077668e-02 -1.536211e-02 -1.044337e-02
<VARIANCE> 32
 1.748019e-01 3.476958e-01 4.754621e-01 6.147343e-01 1.237421e+00 2.063654e+00 2.627466e+00 2.530515e+00 8.363150e-01 5.898713e-01 9.480740e-01 1.069907e+00 1.033811e+00 1.089431e+00 2.726568e-01 9.894706e-02 1.047851e-02 2.081731e-02 3.747020e-02 4.204646e-02 5.783971e-02 6.495111e-02 7.561939e-02 8.274952e-02 6.046017e-02 4.729029e-02 5.098017e-02 6.098120e-02 5.793888e-02 5.560683e-02 1.622118e-02 5.985884e-03
<GCONST> 1.277196e+00
<STATE> 9
<MEAN> 32
 6.374771e+00 7.307217e+00 7.801594e+00 8.709168e+00 9.369307e+00 9.204944e+00 9.536047e+00 9.283945e+00 8.859423e+00 8.828920e+00 8.649447e+00 9.028970e+00 9.344507e+00 8.911000e+00 8.107084e+00 8.175704e+00 -4.865388e-02 -9.650485e-02 -1.287220e-01 -1.594772e-01 -1.591111e-01 -1.437200e-01 -1.643599e-01 -1.688017e-01 -1.369071e-01 -1.236945e-01 -1.244446e-01 -1.448526e-01 -1.338571e-01 -9.307767e-02 -3.282366e-02 -8.637268e-03
<VARIANCE> 32
 2.058967e-01 4.447710e-01 6.321528e-01 1.041730e+00 1.121010e+00 4.995708e-01 6.167461e-01 5.341776e-01 4.816417e-01 5.780969e-01 6.948422e-01 7.077692e-01 4.529531e-01 2.271255e-01 8.726802e-02 5.350778e-02 1.161063e-02 1.637621e-02 2.202921e-02 3.322333e-02 3.286698e-02 2.871393e-02 3.297754e-02 2.764331e-02 2.051108e-02 1.822530e-02 1.602323e-02 1.981527e-02 1.929520e-02 2.195573e-02 5.763148e-03 1.621646e-03
<GCONST> -2.036312e+01
<TRANSP> 10
 0.000000e+00 1.000000e+00 0.000000e+00 0.000000e+00 0.000000e+00 0.000000e+00 0.000000e+00 0.000000e+00 0.000000e+00 0.000000e+00
 0.000000e+00 7.326431e-01 2.673569e-01 0.000000e+00 0.000000e+00 0.000000e+00 0.000000e+00 0.000000e+00 0.000000e+00 0.000000e+00
 0.000000e+00 0.000000e+00 4.974441e-01 5.025558e-01 0.000000e+00 0.000000e+00 0.000000e+00 0.000000e+00 0.000000e+00 0.000000e+00
 0.000000e+00 0.000000e+00 0.000000e+00 3.137442e-01 6.862559e-01 0.000000e+00 0.000000e+00 0.000000e+00 0.000000e+00 0.000000e+00
 0.000000e+00 0.000000e+00 0.000000e+00 0.000000e+00 8.901699e-01 1.098301e-01 0.000000e+00 0.000000e+00 0.000000e+00 0.000000e+00
 0.000000e+00 0.000000e+00 0.000000e+00 0.000000e+00 0.000000e+00 6.546107e-01 3.453894e-01 0.000000e+00 0.000000e+00 0.000000e+00
 0.000000e+00 0.000000e+00 0.000000e+00 0.000000e+00 0.000000e+00 0.000000e+00 8.905240e-01 1.094760e-01 0.000000e+00 0.000000e+00
 0.000000e+00 0.000000e+00 0.000000e+00 0.000000e+00 0.000000e+00 0.000000e+00 0.000000e+00 9.441737e-01 5.582630e-02 0.000000e+00
 0.000000e+00 0.000000e+00 0.000000e+00 0.000000e+00 0.000000e+00 0.000000e+00 0.000000e+00 0.000000e+00 9.081134e-01 9.188659e-02
 0.000000e+00 0.000000e+00 0.000000e+00 0.000000e+00 0.000000e+00 0.000000e+00 0.000000e+00 0.000000e+00 0.000000e+00 0.000000e+00
<ENDHMM>
