~o
<STREAMINFO> 1 16
<VECSIZE> 16<NULLD><FBANK><DIAGC>
~h "ctyri"
<BEGINHMM>
<NUMSTATES> 10
<STATE> 2
<MEAN> 16
 5.716722e+00 5.846431e+00 6.068871e+00 6.250480e+00 6.368497e+00 6.551783e+00 6.788462e+00 7.147919e+00 7.784684e+00 8.317635e+00 9.053833e+00 9.813754e+00 1.026969e+01 1.014415e+01 9.585436e+00 9.036817e+00
<VARIANCE> 16
 1.398523e-01 1.037114e-01 1.599685e-01 1.426260e-01 7.639018e-02 8.194739e-02 9.449349e-02 2.251968e-01 5.709976e-01 1.219627e+00 1.415415e+00 1.434206e+00 1.349696e+00 1.456468e+00 1.280912e+00 7.208469e-01
<GCONST> 1.341117e+01
<STATE> 3
<MEAN> 16
 5.618176e+00 6.094198e+00 6.890150e+00 7.318110e+00 6.977905e+00 7.136385e+00 7.437174e+00 7.747875e+00 8.355407e+00 8.834980e+00 9.452973e+00 9.775193e+00 1.033331e+01 1.029524e+01 1.005055e+01 1.000033e+01
<VARIANCE> 16
 2.863900e-01 3.406668e-01 6.124728e-01 8.331939e-01 2.801079e-01 2.725478e-01 3.876693e-01 5.122187e-01 1.018779e+00 1.471240e+00 2.058871e+00 1.903829e+00 1.787541e+00 1.715866e+00 1.938921e+00 2.052963e+00
<GCONST> 2.648982e+01
<STATE> 4
<MEAN> 16
 5.784265e+00 6.687899e+00 7.507532e+00 7.783566e+00 7.299850e+00 7.378028e+00 7.792555e+00 8.293269e+00 8.950122e+00 9.394837e+00 9.935619e+00 1.023763e+01 1.068337e+01 1.068987e+01 1.022923e+01 1.004929e+01
<VARIANCE> 16
 2.385182e-01 7.505371e-01 1.072490e+00 9.698603e-01 4.803463e-01 5.191331e-01 6.459405e-01 8.082138e-01 1.127937e+00 1.584676e+00 2.211513e+00 1.835557e+00 1.830352e+00 2.152395e+00 2.408954e+00 2.206083e+00
<GCONST> 3.070961e+01
<STATE> 5
<MEAN> 16
 6.377862e+00 7.075143e+00 7.710969e+00 8.009460e+00 7.754507e+00 8.110810e+00 8.531841e+00 9.106674e+00 1.009451e+01 1.093672e+01 1.157986e+01 1.188537e+01 1.206755e+01 1.210285e+01 1.202620e+01 1.167537e+01
<VARIANCE> 16
 4.327090e-01 9.441589e-01 1.385944e+00 1.171059e+00 7.677284e-01 8.188638e-01 1.092401e+00 1.356799e+00 1.617220e+00 2.578484e+00 3.199739e+00 2.728711e+00 2.750062e+00 3.270592e+00 4.487211e+00 4.245881e+00
<GCONST> 3.766311e+01
<STATE> 6
<MEAN> 16
 9.214483e+00 1.050428e+01 1.157370e+01 1.112192e+01 9.973759e+00 9.801699e+00 1.023115e+01 1.106861e+01 1.204423e+01 1.237483e+01 1.278881e+01 1.292799e+01 1.307035e+01 1.259283e+01 1.198544e+01 1.153180e+01
<VARIANCE> 16
 1.723127e+00 1.515872e+00 1.562659e+00 1.218779e+00 1.352381e+00 1.257497e+00 1.338994e+00 1.739915e+00 1.134511e+00 1.279326e+00 1.506881e+00 1.684310e+00 1.692267e+00 1.917945e+00 2.800189e+00 2.219873e+00
<GCONST> 3.669553e+01
<STATE> 7
<MEAN> 16
 7.410863e+00 8.625113e+00 1.021124e+01 1.028153e+01 9.093083e+00 8.731785e+00 8.874536e+00 9.284225e+00 1.068863e+01 1.122359e+01 1.130892e+01 1.125744e+01 1.170955e+01 1.120791e+01 1.010325e+01 9.404248e+00
<VARIANCE> 16
 8.085412e-01 5.882285e-01 7.705990e-01 4.428969e-01 4.707356e-01 4.047541e-01 3.072420e-01 1.622334e-01 2.926728e-01 3.575638e-01 4.096183e-01 7.014783e-01 8.211157e-01 8.222512e-01 1.403791e+00 1.197572e+00
<GCONST> 1.955352e+01
<STATE> 8
<MEAN> 16
 6.308568e+00 7.575556e+00 8.938857e+00 9.205233e+00 8.047315e+00 7.795315e+00 7.955000e+00 8.732093e+00 9.877478e+00 1.049426e+01 1.063376e+01 1.088006e+01 1.144051e+01 1.087479e+01 9.378571e+00 8.706641e+00
<VARIANCE> 16
 2.494590e-01 3.862659e-01 1.020777e+00 7.422553e-01 7.419419e-01 4.360423e-01 2.857667e-01 3.874747e-01 4.754440e-01 4.539509e-01 4.303575e-01 4.986576e-01 4.569010e-01 7.186339e-01 1.027376e+00 4.957902e-01
<GCONST> 1.859913e+01
<STATE> 9
<MEAN> 16
 6.596126e+00 7.866615e+00 9.042761e+00 8.516464e+00 7.623680e+00 7.303632e+00 7.532012e+00 8.437062e+00 9.606272e+00 9.782285e+00 8.990972e+00 9.010555e+00 9.372382e+00 8.946501e+00 8.536517e+00 8.567636e+00
<VARIANCE> 16
 2.319356e-01 3.616489e-01 5.282179e-01 2.493390e-01 1.695338e-01 1.862833e-01 1.613373e-01 6.510350e-01 1.020477e+00 4.107564e-01 5.620022e-01 5.223253e-01 6.959984e-01 4.521869e-01 1.988200e-01 1.724025e-01
<GCONST> 1.256728e+01
<TRANSP> 10
 0.000000e+00 1.000000e+00 0.000000e+00 0.000000e+00 0.000000e+00 0.000000e+00 0.000000e+00 0.000000e+00 0.000000e+00 0.000000e+00
 0.000000e+00 9.049048e-01 9.509517e-02 0.000000e+00 0.000000e+00 0.000000e+00 0.000000e+00 0.000000e+00 0.000000e+00 0.000000e+00
 0.000000e+00 0.000000e+00 5.769628e-01 4.230372e-01 0.000000e+00 0.000000e+00 0.000000e+00 0.000000e+00 0.000000e+00 0.000000e+00
 0.000000e+00 0.000000e+00 0.000000e+00 4.576390e-01 5.423610e-01 0.000000e+00 0.000000e+00 0.000000e+00 0.000000e+00 0.000000e+00
 0.000000e+00 0.000000e+00 0.000000e+00 0.000000e+00 6.939976e-01 3.060025e-01 0.000000e+00 0.000000e+00 0.000000e+00 0.000000e+00
 0.000000e+00 0.000000e+00 0.000000e+00 0.000000e+00 0.000000e+00 8.615587e-01 1.384413e-01 0.000000e+00 0.000000e+00 0.000000e+00
 0.000000e+00 0.000000e+00 0.000000e+00 0.000000e+00 0.000000e+00 0.000000e+00 8.593633e-01 1.406367e-01 0.000000e+00 0.000000e+00
 0.000000e+00 0.000000e+00 0.000000e+00 0.000000e+00 0.000000e+00 0.000000e+00 0.000000e+00 9.401774e-01 5.982266e-02 0.000000e+00
 0.000000e+00 0.000000e+00 0.000000e+00 0.000000e+00 0.000000e+00 0.000000e+00 0.000000e+00 0.000000e+00 8.972994e-01 1.027007e-01
 0.000000e+00 0.000000e+00 0.000000e+00 0.000000e+00 0.000000e+00 0.000000e+00 0.000000e+00 0.000000e+00 0.000000e+00 0.000000e+00
<ENDHMM>
~h "sedm"
<BEGINHMM>
<NUMSTATES> 10
<STATE> 2
<MEAN> 16
 5.710101e+00 5.897853e+00 6.281157e+00 6.679034e+00 6.673943e+00 6.902922e+00 7.203905e+00 7.722747e+00 8.158175e+00 8.210941e+00 8.529213e+00 9.079643e+00 1.006686e+01 1.059655e+01 1.063688e+01 1.036402e+01
<VARIANCE> 16
 1.752006e-01 1.303784e-01 3.797031e-01 5.254607e-01 1.727253e-01 1.909171e-01 2.420432e-01 2.585854e-01 2.334177e-01 1.868738e-01 2.689281e-01 2.884256e-01 5.095000e-01 5.790727e-01 7.305548e-01 6.543444e-01
<GCONST> 1.018431e+01
<STATE> 3
<MEAN> 16
 5.827619e+00 6.202172e+00 6.773075e+00 7.251569e+00 7.118855e+00 7.437675e+00 7.861845e+00 8.473754e+00 8.839811e+00 8.870965e+00 9.166924e+00 9.755584e+00 1.066646e+01 1.131812e+01 1.122669e+01 1.098583e+01
<VARIANCE> 16
 2.638827e-01 3.226849e-01 5.625637e-01 4.737177e-01 1.691301e-01 1.451159e-01 3.066145e-01 3.131806e-01 1.942081e-01 1.930268e-01 3.255554e-01 5.124892e-01 7.034570e-01 1.402458e+00 2.291583e+00 2.130290e+00
<GCONST> 1.606739e+01
<STATE> 4
<MEAN> 16
 6.255284e+00 6.839489e+00 7.677337e+00 8.247913e+00 8.113620e+00 8.328238e+00 8.876179e+00 9.523520e+00 9.637901e+00 9.746445e+00 1.013443e+01 1.061338e+01 1.159984e+01 1.250075e+01 1.277113e+01 1.249707e+01
<VARIANCE> 16
 2.518366e-01 5.220730e-01 7.448988e-01 7.926620e-01 3.727940e-01 2.118232e-01 2.157069e-01 3.076856e-01 2.884433e-01 3.152023e-01 5.308132e-01 5.556406e-01 1.057109e+00 2.715104e+00 4.928433e+00 4.730300e+00
<GCONST> 2.218360e+01
<STATE> 5
<MEAN> 16
 8.756472e+00 9.911806e+00 1.100752e+01 1.174596e+01 1.112945e+01 1.068602e+01 1.140900e+01 1.237086e+01 1.177571e+01 1.207310e+01 1.230482e+01 1.246150e+01 1.275139e+01 1.227763e+01 1.190737e+01 1.174831e+01
<VARIANCE> 16
 3.430372e+00 2.969111e+00 2.909247e+00 2.856225e+00 2.934032e+00 2.561110e+00 3.304231e+00 3.179760e+00 1.980784e+00 3.553184e+00 3.362410e+00 3.483433e+00 3.371091e+00 2.735673e+00 4.575158e+00 4.534760e+00
<GCONST> 4.787923e+01
<STATE> 6
<MEAN> 16
 8.740229e+00 9.954866e+00 1.074473e+01 1.104596e+01 1.060802e+01 1.027776e+01 1.070706e+01 1.131125e+01 1.140833e+01 1.148903e+01 1.170173e+01 1.193305e+01 1.198974e+01 1.135955e+01 1.018667e+01 9.980126e+00
<VARIANCE> 16
 2.287736e+00 2.422560e+00 1.191713e+00 5.599364e-01 8.240490e-01 5.318651e-01 6.316050e-01 4.555223e-01 5.947088e-01 5.722259e-01 6.112792e-01 6.265793e-01 6.583319e-01 9.200411e-01 1.477506e+00 8.606796e-01
<GCONST> 2.634454e+01
<STATE> 7
<MEAN> 16
 7.233234e+00 8.388442e+00 9.443444e+00 1.008695e+01 9.558042e+00 9.131785e+00 9.559523e+00 1.044777e+01 1.083156e+01 1.069492e+01 1.108900e+01 1.108976e+01 1.114235e+01 1.058720e+01 9.293118e+00 8.977647e+00
<VARIANCE> 16
 1.281325e+00 1.153734e+00 6.232728e-01 2.742189e-01 6.628339e-01 3.599814e-01 3.740889e-01 4.414674e-01 4.884811e-01 4.981470e-01 8.066936e-01 7.425634e-01 1.081968e+00 1.065838e+00 4.410573e-01 2.235634e-01
<GCONST> 2.069661e+01
<STATE> 8
<MEAN> 16
 7.082476e+00 8.361344e+00 9.023613e+00 9.024096e+00 8.409756e+00 8.273593e+00 8.783104e+00 9.241034e+00 9.425111e+00 9.415371e+00 9.542834e+00 9.646965e+00 9.970990e+00 9.369467e+00 8.355359e+00 8.236767e+00
<VARIANCE> 16
 6.815025e-01 4.905079e-01 5.282165e-01 3.814671e-01 3.691973e-01 4.343066e-01 4.735832e-01 3.038192e-01 2.314094e-01 3.721297e-01 3.817853e-01 7.048485e-01 8.629373e-01 4.007804e-01 2.464062e-01 1.821464e-01
<GCONST> 1.500889e+01
<STATE> 9
<MEAN> 16
 6.561831e+00 8.019925e+00 8.448082e+00 8.379698e+00 7.795588e+00 7.851740e+00 8.031108e+00 8.214032e+00 8.264355e+00 8.436962e+00 8.376106e+00 8.827954e+00 9.128552e+00 8.712801e+00 8.168294e+00 8.218358e+00
<VARIANCE> 16
 2.761554e-01 1.891280e-01 6.102617e-01 5.009938e-01 3.110726e-01 3.173259e-01 3.980922e-01 5.222505e-01 4.047317e-01 3.962974e-01 6.206387e-01 1.236588e+00 1.071451e+00 3.212592e-01 1.425923e-01 1.243764e-01
<GCONST> 1.418917e+01
<TRANSP> 10
 0.000000e+00 1.000000e+00 0.000000e+00 0.000000e+00 0.000000e+00 0.000000e+00 0.000000e+00 0.000000e+00 0.000000e+00 0.000000e+00
 0.000000e+00 7.989320e-01 2.010680e-01 0.000000e+00 0.000000e+00 0.000000e+00 0.000000e+00 0.000000e+00 0.000000e+00 0.000000e+00
 0.000000e+00 0.000000e+00 6.388807e-01 3.611194e-01 0.000000e+00 0.000000e+00 0.000000e+00 0.000000e+00 0.000000e+00 0.000000e+00
 0.000000e+00 0.000000e+00 0.000000e+00 6.640488e-01 3.359513e-01 0.000000e+00 0.000000e+00 0.000000e+00 0.000000e+00 0.000000e+00
 0.000000e+00 0.000000e+00 0.000000e+00 0.000000e+00 5.565615e-01 4.434385e-01 0.000000e+00 0.000000e+00 0.000000e+00 0.000000e+00
 0.000000e+00 0.000000e+00 0.000000e+00 0.000000e+00 0.000000e+00 8.706052e-01 1.293947e-01 0.000000e+00 0.000000e+00 0.000000e+00
 0.000000e+00 0.000000e+00 0.000000e+00 0.000000e+00 0.000000e+00 0.000000e+00 7.609290e-01 2.390710e-01 0.000000e+00 0.000000e+00
 0.000000e+00 0.000000e+00 0.000000e+00 0.000000e+00 0.000000e+00 0.000000e+00 0.000000e+00 9.396276e-01 6.037242e-02 0.000000e+00
 0.000000e+00 0.000000e+00 0.000000e+00 0.000000e+00 0.000000e+00 0.000000e+00 0.000000e+00 0.000000e+00 9.338930e-01 6.610695e-02
 0.000000e+00 0.000000e+00 0.000000e+00 0.000000e+00 0.000000e+00 0.000000e+00 0.000000e+00 0.000000e+00 0.000000e+00 0.000000e+00
<ENDHMM>
~h "sest"
<BEGINHMM>
<NUMSTATES> 10
<STATE> 2
<MEAN> 16
 5.721737e+00 5.785981e+00 6.029044e+00 6.243476e+00 6.366794e+00 6.554527e+00 6.792319e+00 7.449876e+00 8.347348e+00 9.123457e+00 9.744317e+00 1.040760e+01 1.061304e+01 1.055448e+01 1.005749e+01 9.325177e+00
<VARIANCE> 16
 1.066923e-01 8.866521e-02 1.021772e-01 1.542249e-01 8.059471e-02 8.595562e-02 1.126510e-01 1.945206e-01 4.039607e-01 5.855231e-01 3.237881e-01 5.652806e-01 5.667964e-01 4.884997e-01 3.547751e-01 3.319559e-01
<GCONST> 5.239044e+00
<STATE> 3
<MEAN> 16
 5.739239e+00 5.919824e+00 6.221853e+00 6.541682e+00 6.577805e+00 6.764683e+00 7.126904e+00 7.955579e+00 8.962673e+00 9.737700e+00 1.032127e+01 1.090142e+01 1.129832e+01 1.120762e+01 1.073818e+01 9.943624e+00
<VARIANCE> 16
 1.081588e-01 1.003554e-01 1.527873e-01 2.727660e-01 1.350548e-01 1.198711e-01 1.522677e-01 3.090776e-01 5.236932e-01 5.072794e-01 2.289841e-01 3.864813e-01 5.990039e-01 6.850208e-01 5.860914e-01 3.294702e-01
<GCONST> 8.239637e+00
<STATE> 4
<MEAN> 16
 5.789936e+00 6.126086e+00 6.722504e+00 7.096711e+00 6.939393e+00 7.093471e+00 7.385589e+00 8.169620e+00 9.130132e+00 9.797229e+00 1.044722e+01 1.075274e+01 1.106269e+01 1.089003e+01 1.056320e+01 1.005462e+01
<VARIANCE> 16
 8.129150e-02 1.631835e-01 2.094814e-01 4.016009e-01 1.746404e-01 1.756086e-01 3.317246e-01 5.197576e-01 7.055451e-01 1.000625e+00 1.005099e+00 9.229445e-01 1.227944e+00 1.375002e+00 1.872382e+00 1.820805e+00
<GCONST> 1.869268e+01
<STATE> 5
<MEAN> 16
 5.962903e+00 6.763305e+00 7.924730e+00 8.577132e+00 7.885402e+00 7.880462e+00 8.228172e+00 8.933928e+00 1.003708e+01 1.075064e+01 1.148446e+01 1.157435e+01 1.178258e+01 1.161382e+01 1.143097e+01 1.117862e+01
<VARIANCE> 16
 2.862808e-01 6.693342e-01 3.844965e-01 5.244443e-01 3.910004e-01 2.331960e-01 3.205895e-01 5.888552e-01 5.993081e-01 9.478810e-01 1.448475e+00 1.414136e+00 1.508339e+00 2.049449e+00 3.629172e+00 3.429960e+00
<GCONST> 2.589211e+01
<STATE> 6
<MEAN> 16
 8.030104e+00 8.866004e+00 9.996722e+00 1.103617e+01 1.066630e+01 1.027980e+01 1.063277e+01 1.152577e+01 1.192816e+01 1.226815e+01 1.255861e+01 1.275713e+01 1.289789e+01 1.303946e+01 1.275665e+01 1.216898e+01
<VARIANCE> 16
 1.717960e+00 2.182007e+00 2.042266e+00 2.487792e+00 2.367684e+00 1.503572e+00 1.567864e+00 1.927115e+00 1.418188e+00 1.983185e+00 1.723461e+00 1.729018e+00 1.293064e+00 2.060975e+00 3.418853e+00 4.109781e+00
<GCONST> 4.047721e+01
<STATE> 7
<MEAN> 16
 6.457739e+00 7.514431e+00 8.981789e+00 1.013830e+01 1.030604e+01 9.633908e+00 9.728491e+00 1.072601e+01 1.129804e+01 1.101033e+01 1.139702e+01 1.146275e+01 1.180323e+01 1.124500e+01 9.639146e+00 8.948446e+00
<VARIANCE> 16
 2.831058e-01 3.582695e-01 3.653292e-01 3.269969e-01 8.177943e-01 6.447452e-01 3.511467e-01 2.786250e-01 4.622291e-01 3.682381e-01 3.104057e-01 3.178367e-01 6.431991e-01 1.331841e+00 1.828231e+00 1.618137e+00
<GCONST> 1.887145e+01
<STATE> 8
<MEAN> 16
 6.173359e+00 6.949602e+00 8.066867e+00 8.786053e+00 8.234857e+00 8.055588e+00 8.494202e+00 9.206499e+00 9.221046e+00 9.197620e+00 9.179790e+00 9.540030e+00 1.009720e+01 1.051952e+01 1.061942e+01 1.043728e+01
<VARIANCE> 16
 3.216600e-01 7.137079e-01 1.090746e+00 8.924434e-01 5.869057e-01 3.198925e-01 4.294867e-01 8.580713e-01 5.328898e-01 4.587131e-01 6.392281e-01 6.146500e-01 8.844342e-01 2.346179e+00 3.979794e+00 3.444109e+00
<GCONST> 2.624158e+01
<STATE> 9
<MEAN> 16
 5.702232e+00 5.948833e+00 6.526260e+00 7.186830e+00 7.230942e+00 7.063554e+00 7.243848e+00 7.889264e+00 8.206601e+00 8.183671e+00 8.581720e+00 9.126940e+00 9.986485e+00 1.053939e+01 1.051060e+01 1.022100e+01
<VARIANCE> 16
 1.429225e-01 1.616519e-01 2.797970e-01 4.671511e-01 4.164064e-01 2.688019e-01 2.017888e-01 2.363887e-01 3.494992e-01 2.735128e-01 2.771278e-01 2.706496e-01 4.994662e-01 5.359210e-01 3.859058e-01 3.748002e-01
<GCONST> 1.018141e+01
<TRANSP> 10
 0.000000e+00 1.000000e+00 0.000000e+00 0.000000e+00 0.000000e+00 0.000000e+00 0.000000e+00 0.000000e+00 0.000000e+00 0.000000e+00
 0.000000e+00 7.971745e-01 2.028256e-01 0.000000e+00 0.000000e+00 0.000000e+00 0.000000e+00 0.000000e+00 0.000000e+00 0.000000e+00
 0.000000e+00 0.000000e+00 6.685108e-01 3.314892e-01 0.000000e+00 0.000000e+00 0.000000e+00 0.000000e+00 0.000000e+00 0.000000e+00
 0.000000e+00 0.000000e+00 0.000000e+00 2.564819e-01 7.435181e-01 0.000000e+00 0.000000e+00 0.000000e+00 0.000000e+00 0.000000e+00
 0.000000e+00 0.000000e+00 0.000000e+00 0.000000e+00 6.226627e-01 3.773374e-01 0.000000e+00 0.000000e+00 0.000000e+00 0.000000e+00
 0.000000e+00 0.000000e+00 0.000000e+00 0.000000e+00 0.000000e+00 8.931077e-01 1.068924e-01 0.000000e+00 0.000000e+00 0.000000e+00
 0.000000e+00 0.000000e+00 0.000000e+00 0.000000e+00 0.000000e+00 0.000000e+00 8.995389e-01 1.004611e-01 0.000000e+00 0.000000e+00
 0.000000e+00 0.000000e+00 0.000000e+00 0.000000e+00 0.000000e+00 0.000000e+00 0.000000e+00 9.071660e-01 9.283399e-02 0.000000e+00
 0.000000e+00 0.000000e+00 0.000000e+00 0.000000e+00 0.000000e+00 0.000000e+00 0.000000e+00 0.000000e+00 9.108779e-01 8.912208e-02
 0.000000e+00 0.000000e+00 0.000000e+00 0.000000e+00 0.000000e+00 0.000000e+00 0.000000e+00 0.000000e+00 0.000000e+00 0.000000e+00
<ENDHMM>
~h "dva"
<BEGINHMM>
<NUMSTATES> 10
<STATE> 2
<MEAN> 16
 6.492189e+00 7.467773e+00 8.109733e+00 8.065930e+00 7.463011e+00 7.603850e+00 8.013341e+00 8.171893e+00 8.164443e+00 8.311919e+00 8.484290e+00 8.768413e+00 8.928782e+00 8.566152e+00 8.103656e+00 8.136366e+00
<VARIANCE> 16
 4.413280e-01 3.060005e-01 4.753000e-01 4.580193e-01 2.590019e-01 3.157434e-01 3.406906e-01 5.716552e-01 5.534973e-01 4.536017e-01 5.869570e-01 6.731708e-01 7.235459e-01 4.593155e-01 1.602603e-01 1.384258e-01
<GCONST> 1.451892e+01
<STATE> 3
<MEAN> 16
 7.375196e+00 8.327426e+00 8.780568e+00 8.833431e+00 8.176659e+00 8.051212e+00 8.450281e+00 8.508513e+00 8.357076e+00 8.715954e+00 8.712953e+00 8.879845e+00 9.141336e+00 8.792279e+00 8.388589e+00 8.488060e+00
<VARIANCE> 16
 1.254720e+00 1.353893e+00 7.316835e-01 6.721171e-01 5.358751e-01 6.761342e-01 6.492925e-01 5.035515e-01 4.417041e-01 4.849330e-01 5.457030e-01 7.279366e-01 7.689009e-01 3.743858e-01 2.389515e-01 2.846779e-01
<GCONST> 2.069581e+01
<STATE> 4
<MEAN> 16
 7.344210e+00 8.289638e+00 8.942091e+00 9.296741e+00 8.799657e+00 8.767238e+00 9.216607e+00 9.074922e+00 8.799563e+00 9.095310e+00 9.079085e+00 9.384740e+00 9.598918e+00 9.301519e+00 8.821735e+00 8.684705e+00
<VARIANCE> 16
 1.185586e+00 1.177541e+00 5.099099e-01 3.482470e-01 6.812261e-01 7.589730e-01 6.931689e-01 4.363145e-01 3.309444e-01 4.661663e-01 6.408498e-01 6.880226e-01 5.545304e-01 5.667596e-01 8.478792e-01 6.168470e-01
<GCONST> 2.166229e+01
<STATE> 5
<MEAN> 16
 7.720469e+00 8.658412e+00 9.507710e+00 1.003061e+01 9.547356e+00 9.380226e+00 9.934373e+00 9.783956e+00 9.379418e+00 9.551816e+00 9.713724e+00 9.861445e+00 1.025214e+01 1.004657e+01 9.477342e+00 9.328331e+00
<VARIANCE> 16
 9.599033e-01 9.127355e-01 6.183457e-01 2.484572e-01 4.755772e-01 5.887724e-01 6.820312e-01 4.011274e-01 2.080535e-01 3.284208e-01 7.915015e-01 7.937112e-01 8.155313e-01 7.305715e-01 1.063339e+00 9.808679e-01
<GCONST> 2.120749e+01
<STATE> 6
<MEAN> 16
 9.333892e+00 1.021232e+01 1.119607e+01 1.203547e+01 1.218101e+01 1.220454e+01 1.259578e+01 1.207168e+01 1.141649e+01 1.204081e+01 1.231853e+01 1.269143e+01 1.234986e+01 1.203363e+01 1.143223e+01 1.091838e+01
<VARIANCE> 16
 1.758088e+00 1.507847e+00 1.147821e+00 1.364799e+00 1.941272e+00 1.764643e+00 1.276512e+00 9.623355e-01 1.116822e+00 1.824708e+00 1.718963e+00 2.009598e+00 1.249697e+00 1.348490e+00 2.049549e+00 2.322689e+00
<GCONST> 3.630064e+01
<STATE> 7
<MEAN> 16
 7.331819e+00 8.128957e+00 9.249123e+00 1.027453e+01 1.111902e+01 1.137959e+01 1.174972e+01 1.160367e+01 1.046806e+01 1.058965e+01 1.107803e+01 1.139590e+01 1.187752e+01 1.118243e+01 9.834790e+00 8.927267e+00
<VARIANCE> 16
 7.596596e-01 8.603351e-01 5.854555e-01 5.426684e-01 5.277798e-01 3.789312e-01 3.879488e-01 5.448085e-01 2.574976e-01 3.483955e-01 5.423153e-01 4.890199e-01 9.508735e-01 4.344232e-01 1.213100e+00 6.337625e-01
<GCONST> 1.978498e+01
<STATE> 8
<MEAN> 16
 6.493711e+00 7.412643e+00 8.222557e+00 9.562874e+00 1.038049e+01 1.034071e+01 1.062784e+01 1.006319e+01 9.440101e+00 9.770944e+00 9.672922e+00 1.023522e+01 1.055773e+01 9.822802e+00 8.640431e+00 8.474147e+00
<VARIANCE> 16
 2.542685e-01 1.555213e-01 3.037224e-01 5.153821e-01 4.649059e-01 3.098733e-01 2.808797e-01 8.854232e-01 2.961258e-01 3.815509e-01 1.352435e+00 1.399641e+00 1.447125e+00 6.043606e-01 3.315522e-01 2.368764e-01
<GCONST> 1.677163e+01
<STATE> 9
<MEAN> 16
 6.012997e+00 6.591663e+00 6.867869e+00 7.844091e+00 8.652774e+00 8.899621e+00 8.941043e+00 8.569265e+00 8.020970e+00 8.149983e+00 8.417597e+00 8.720634e+00 9.171211e+00 8.642258e+00 8.076407e+00 8.126598e+00
<VARIANCE> 16
 3.251624e-01 5.686784e-01 4.385392e-01 7.303457e-01 5.023221e-01 3.075169e-01 3.250581e-01 5.040545e-01 2.547730e-01 2.600029e-01 3.776355e-01 2.985076e-01 3.762369e-01 2.345098e-01 1.795826e-01 1.865648e-01
<GCONST> 1.218194e+01
<TRANSP> 10
 0.000000e+00 1.000000e+00 0.000000e+00 0.000000e+00 0.000000e+00 0.000000e+00 0.000000e+00 0.000000e+00 0.000000e+00 0.000000e+00
 0.000000e+00 7.673365e-01 2.326634e-01 0.000000e+00 0.000000e+00 0.000000e+00 0.000000e+00 0.000000e+00 0.000000e+00 0.000000e+00
 0.000000e+00 0.000000e+00 3.287362e-01 6.712638e-01 0.000000e+00 0.000000e+00 0.000000e+00 0.000000e+00 0.000000e+00 0.000000e+00
 0.000000e+00 0.000000e+00 0.000000e+00 2.543177e-01 7.456823e-01 0.000000e+00 0.000000e+00 0.000000e+00 0.000000e+00 0.000000e+00
 0.000000e+00 0.000000e+00 0.000000e+00 0.000000e+00 5.079508e-01 4.920492e-01 0.000000e+00 0.000000e+00 0.000000e+00 0.000000e+00
 0.000000e+00 0.000000e+00 0.000000e+00 0.000000e+00 0.000000e+00 8.299485e-01 1.700515e-01 0.000000e+00 0.000000e+00 0.000000e+00
 0.000000e+00 0.000000e+00 0.000000e+00 0.000000e+00 0.000000e+00 0.000000e+00 8.711420e-01 1.288580e-01 0.000000e+00 0.000000e+00
 0.000000e+00 0.000000e+00 0.000000e+00 0.000000e+00 0.000000e+00 0.000000e+00 0.000000e+00 8.995484e-01 1.004516e-01 0.000000e+00
 0.000000e+00 0.000000e+00 0.000000e+00 0.000000e+00 0.000000e+00 0.000000e+00 0.000000e+00 0.000000e+00 8.391260e-01 1.608740e-01
 0.000000e+00 0.000000e+00 0.000000e+00 0.000000e+00 0.000000e+00 0.000000e+00 0.000000e+00 0.000000e+00 0.000000e+00 0.000000e+00
<ENDHMM>
~h "osm"
<BEGINHMM>
<NUMSTATES> 10
<STATE> 2
<MEAN> 16
 6.084424e+00 7.052984e+00 8.268456e+00 9.185597e+00 9.191900e+00 9.266516e+00 8.774947e+00 8.007087e+00 7.918937e+00 8.305473e+00 8.507930e+00 9.063631e+00 9.472507e+00 8.912811e+00 8.439919e+00 8.453521e+00
<VARIANCE> 16
 1.889458e-01 2.849030e-01 5.966127e-01 6.916341e-01 7.524907e-01 5.166193e-01 8.680254e-01 4.068012e-01 1.549001e-01 3.604854e-01 7.480761e-01 1.406377e+00 7.009958e-01 6.297507e-01 4.857445e-01 2.796818e-01
<GCONST> 1.796479e+01
<STATE> 3
<MEAN> 16
 6.661991e+00 7.778246e+00 9.111841e+00 1.025283e+01 1.065257e+01 1.058013e+01 9.948223e+00 9.066955e+00 8.788112e+00 9.118078e+00 9.816080e+00 1.044632e+01 1.087971e+01 1.015115e+01 8.740585e+00 8.552969e+00
<VARIANCE> 16
 3.502159e-01 4.888132e-01 4.621270e-01 4.549254e-01 5.573133e-01 4.859778e-01 9.485970e-01 4.393366e-01 2.677777e-01 6.288653e-01 1.287282e+00 1.785301e+00 7.766142e-01 7.052928e-01 7.276262e-01 2.687165e-01
<GCONST> 2.071670e+01
<STATE> 4
<MEAN> 16
 6.955026e+00 7.992054e+00 9.654290e+00 1.090010e+01 1.112151e+01 1.118832e+01 1.076216e+01 9.604113e+00 9.257707e+00 9.510532e+00 1.050891e+01 1.122511e+01 1.157260e+01 1.090188e+01 9.392449e+00 8.654227e+00
<VARIANCE> 16
 4.595166e-01 7.407379e-01 4.022962e-01 4.146748e-01 6.488564e-01 6.554077e-01 1.013185e+00 5.236505e-01 3.479283e-01 5.151333e-01 1.028297e+00 1.425757e+00 1.126695e+00 9.931105e-01 7.976002e-01 2.721954e-01
<GCONST> 2.229715e+01
<STATE> 5
<MEAN> 16
 8.664548e+00 9.543453e+00 1.047758e+01 1.112309e+01 1.086695e+01 1.130913e+01 1.145709e+01 1.113250e+01 1.104813e+01 1.171615e+01 1.224628e+01 1.284330e+01 1.286281e+01 1.257395e+01 1.194909e+01 1.192855e+01
<VARIANCE> 16
 2.167429e+00 3.058177e+00 2.143300e+00 1.563569e+00 1.690486e+00 1.665313e+00 1.129324e+00 1.013455e+00 1.153134e+00 1.639222e+00 1.560817e+00 1.324501e+00 1.347635e+00 2.666285e+00 4.293079e+00 3.826518e+00
<GCONST> 3.911768e+01
<STATE> 6
<MEAN> 16
 7.730260e+00 8.940700e+00 9.737821e+00 9.909552e+00 9.592097e+00 1.002778e+01 1.033489e+01 1.034667e+01 1.021909e+01 1.043002e+01 1.074528e+01 1.105221e+01 1.139935e+01 1.123357e+01 1.057007e+01 1.050586e+01
<VARIANCE> 16
 2.026562e+00 2.437890e+00 1.640392e+00 9.591251e-01 1.109318e+00 9.236127e-01 8.407788e-01 7.554132e-01 8.730605e-01 1.261810e+00 6.991909e-01 4.957581e-01 4.900776e-01 1.580048e+00 3.601278e+00 3.499468e+00
<GCONST> 3.234253e+01
<STATE> 7
<MEAN> 16
 6.574764e+00 7.557803e+00 8.415213e+00 8.993731e+00 8.714467e+00 9.166248e+00 9.444497e+00 9.307208e+00 9.216503e+00 9.308249e+00 9.748977e+00 1.038440e+01 1.106220e+01 1.097491e+01 1.028748e+01 1.014372e+01
<VARIANCE> 16
 9.360660e-01 2.185378e+00 1.602599e+00 1.387549e+00 1.226478e+00 1.129605e+00 7.492241e-01 3.975549e-01 4.897973e-01 3.149596e-01 2.317158e-01 3.542769e-01 5.781904e-01 1.290102e+00 2.454652e+00 2.349015e+00
<GCONST> 2.712565e+01
<STATE> 8
<MEAN> 16
 6.876376e+00 7.843349e+00 8.715603e+00 8.749406e+00 8.281395e+00 8.713983e+00 9.071625e+00 9.042166e+00 8.997903e+00 9.062055e+00 9.226442e+00 9.766569e+00 9.977233e+00 9.702897e+00 9.191235e+00 9.098364e+00
<VARIANCE> 16
 9.358422e-01 1.526177e+00 1.683944e+00 6.556298e-01 5.715845e-01 7.224252e-01 7.069235e-01 6.577796e-01 5.217422e-01 3.774815e-01 3.058261e-01 4.050404e-01 7.542687e-01 7.037926e-01 1.117152e+00 1.018528e+00
<GCONST> 2.399381e+01
<STATE> 9
<MEAN> 16
 6.234173e+00 7.356621e+00 7.992989e+00 8.113906e+00 7.607257e+00 7.942930e+00 8.110066e+00 8.075011e+00 8.186002e+00 8.404274e+00 8.728215e+00 9.462367e+00 9.901424e+00 9.386300e+00 8.715302e+00 8.688514e+00
<VARIANCE> 16
 3.413092e-01 8.770394e-01 1.156199e+00 7.943541e-01 2.882040e-01 3.670741e-01 4.776302e-01 4.718948e-01 3.118148e-01 3.843687e-01 5.273681e-01 8.563538e-01 9.136798e-01 7.726048e-01 1.003994e+00 8.365960e-01
<GCONST> 2.093946e+01
<TRANSP> 10
 0.000000e+00 1.000000e+00 0.000000e+00 0.000000e+00 0.000000e+00 0.000000e+00 0.000000e+00 0.000000e+00 0.000000e+00 0.000000e+00
 0.000000e+00 3.961695e-01 6.038305e-01 0.000000e+00 0.000000e+00 0.000000e+00 0.000000e+00 0.000000e+00 0.000000e+00 0.000000e+00
 0.000000e+00 0.000000e+00 5.301767e-01 4.698233e-01 0.000000e+00 0.000000e+00 0.000000e+00 0.000000e+00 0.000000e+00 0.000000e+00
 0.000000e+00 0.000000e+00 0.000000e+00 5.424557e-01 4.575443e-01 0.000000e+00 0.000000e+00 0.000000e+00 0.000000e+00 0.000000e+00
 0.000000e+00 0.000000e+00 0.000000e+00 0.000000e+00 8.539605e-01 1.460395e-01 0.000000e+00 0.000000e+00 0.000000e+00 0.000000e+00
 0.000000e+00 0.000000e+00 0.000000e+00 0.000000e+00 0.000000e+00 8.574541e-01 1.425460e-01 0.000000e+00 0.000000e+00 0.000000e+00
 0.000000e+00 0.000000e+00 0.000000e+00 0.000000e+00 0.000000e+00 0.000000e+00 7.972570e-01 2.027430e-01 0.000000e+00 0.000000e+00
 0.000000e+00 0.000000e+00 0.000000e+00 0.000000e+00 0.000000e+00 0.000000e+00 0.000000e+00 8.987055e-01 1.012944e-01 0.000000e+00
 0.000000e+00 0.000000e+00 0.000000e+00 0.000000e+00 0.000000e+00 0.000000e+00 0.000000e+00 0.000000e+00 9.574940e-01 4.250602e-02
 0.000000e+00 0.000000e+00 0.000000e+00 0.000000e+00 0.000000e+00 0.000000e+00 0.000000e+00 0.000000e+00 0.000000e+00 0.000000e+00
<ENDHMM>
~h "pet"
<BEGINHMM>
<NUMSTATES> 10
<STATE> 2
<MEAN> 16
 6.372999e+00 7.561577e+00 8.515488e+00 8.373596e+00 7.407627e+00 7.171944e+00 7.463494e+00 8.372711e+00 9.416331e+00 9.512888e+00 9.070428e+00 9.008215e+00 9.356837e+00 9.102375e+00 8.421305e+00 8.423151e+00
<VARIANCE> 16
 1.996305e-01 4.028818e-01 8.957539e-01 7.047653e-01 3.062699e-01 1.922292e-01 1.601415e-01 5.524268e-01 7.118655e-01 9.923378e-01 1.216742e+00 1.488481e+00 9.875534e-01 6.725318e-01 2.374489e-01 2.045217e-01
<GCONST> 1.798042e+01
<STATE> 3
<MEAN> 16
 6.765100e+00 7.971215e+00 9.516902e+00 9.512762e+00 8.349819e+00 7.916978e+00 8.280395e+00 9.234464e+00 1.045031e+01 1.099034e+01 1.086422e+01 1.085520e+01 1.081287e+01 1.000334e+01 8.924191e+00 8.617483e+00
<VARIANCE> 16
 4.023629e-01 4.704059e-01 4.074452e-01 3.639690e-01 3.458995e-01 3.064851e-01 2.890840e-01 5.909492e-01 3.286353e-01 3.798183e-01 8.323002e-01 1.469765e+00 8.066329e-01 1.251375e+00 8.440709e-01 7.515993e-01
<GCONST> 1.949664e+01
<STATE> 4
<MEAN> 16
 7.291276e+00 8.435483e+00 1.020011e+01 1.023612e+01 8.954248e+00 8.545515e+00 8.807464e+00 9.689553e+00 1.079461e+01 1.154506e+01 1.135633e+01 1.132525e+01 1.139380e+01 1.064475e+01 9.366017e+00 9.017017e+00
<VARIANCE> 16
 1.381596e+00 1.561816e+00 1.006654e+00 8.449275e-01 8.855609e-01 1.027588e+00 1.127153e+00 1.755977e+00 1.115865e+00 8.395131e-01 1.301683e+00 2.112452e+00 1.163380e+00 1.475934e+00 1.561949e+00 1.431941e+00
<GCONST> 3.289344e+01
<STATE> 5
<MEAN> 16
 7.585965e+00 8.690890e+00 1.063132e+01 1.061103e+01 9.509936e+00 8.932425e+00 8.988237e+00 9.762537e+00 1.086114e+01 1.172569e+01 1.160901e+01 1.153159e+01 1.160576e+01 1.087418e+01 9.771913e+00 9.209426e+00
<VARIANCE> 16
 1.515417e+00 1.795398e+00 1.402074e+00 1.002025e+00 9.044588e-01 1.043574e+00 1.213184e+00 1.704367e+00 1.273652e+00 9.986601e-01 1.318233e+00 1.807845e+00 9.559052e-01 1.110593e+00 1.533360e+00 1.148871e+00
<GCONST> 3.315061e+01
<STATE> 6
<MEAN> 16
 8.862585e+00 9.963265e+00 1.132530e+01 1.213379e+01 1.148562e+01 1.082614e+01 1.097496e+01 1.168913e+01 1.246212e+01 1.288030e+01 1.292886e+01 1.297778e+01 1.272431e+01 1.230984e+01 1.180196e+01 1.118171e+01
<VARIANCE> 16
 1.758945e+00 1.633040e+00 1.252797e+00 1.465429e+00 1.379286e+00 1.456709e+00 2.048567e+00 2.540596e+00 1.837373e+00 1.730103e+00 1.701537e+00 2.563504e+00 1.498169e+00 1.610393e+00 2.902250e+00 3.327199e+00
<GCONST> 3.919377e+01
<STATE> 7
<MEAN> 16
 6.572329e+00 7.465077e+00 8.984841e+00 1.017163e+01 1.001118e+01 9.224898e+00 9.398980e+00 1.017764e+01 1.081610e+01 1.086430e+01 1.092800e+01 1.102267e+01 1.130060e+01 1.077947e+01 9.534061e+00 9.156101e+00
<VARIANCE> 16
 2.125728e-01 3.352496e-01 4.578835e-01 4.250524e-01 7.824129e-01 7.449347e-01 5.566617e-01 4.797682e-01 7.578754e-01 9.526725e-01 1.010426e+00 9.430235e-01 1.280390e+00 1.818239e+00 2.183210e+00 2.045962e+00
<GCONST> 2.523560e+01
<STATE> 8
<MEAN> 16
 6.411432e+00 7.394139e+00 8.656590e+00 9.580990e+00 9.176302e+00 8.513728e+00 8.781236e+00 9.907020e+00 1.026290e+01 9.952511e+00 1.000535e+01 1.008093e+01 1.034197e+01 9.818871e+00 8.694723e+00 8.592187e+00
<VARIANCE> 16
 2.047876e-01 3.224830e-01 5.624048e-01 5.362878e-01 3.389933e-01 2.379102e-01 1.650347e-01 2.901784e-01 4.400937e-01 5.523754e-01 1.057672e+00 1.052299e+00 5.715526e-01 5.207264e-01 4.669494e-01 4.194587e-01
<GCONST> 1.578393e+01
<STATE> 9
<MEAN> 16
 5.703561e+00 6.250209e+00 7.132011e+00 8.037760e+00 7.853873e+00 7.554504e+00 7.632835e+00 8.118658e+00 8.543900e+00 8.477880e+00 8.676984e+00 8.854515e+00 8.996485e+00 8.814808e+00 8.676031e+00 8.674801e+00
<VARIANCE> 16
 2.499193e-01 3.355805e-01 5.037546e-01 5.304924e-01 3.974095e-01 3.844847e-01 3.958660e-01 4.418214e-01 5.215725e-01 4.699925e-01 4.938495e-01 5.050815e-01 4.854434e-01 7.642280e-01 1.072131e+00 7.188206e-01
<GCONST> 1.793916e+01
<TRANSP> 10
 0.000000e+00 1.000000e+00 0.000000e+00 0.000000e+00 0.000000e+00 0.000000e+00 0.000000e+00 0.000000e+00 0.000000e+00 0.000000e+00
 0.000000e+00 5.166262e-01 4.833739e-01 0.000000e+00 0.000000e+00 0.000000e+00 0.000000e+00 0.000000e+00 0.000000e+00 0.000000e+00
 0.000000e+00 0.000000e+00 4.197116e-01 5.802885e-01 0.000000e+00 0.000000e+00 0.000000e+00 0.000000e+00 0.000000e+00 0.000000e+00
 0.000000e+00 0.000000e+00 0.000000e+00 1.026433e-01 8.973567e-01 0.000000e+00 0.000000e+00 0.000000e+00 0.000000e+00 0.000000e+00
 0.000000e+00 0.000000e+00 0.000000e+00 0.000000e+00 2.899520e-01 7.100480e-01 0.000000e+00 0.000000e+00 0.000000e+00 0.000000e+00
 0.000000e+00 0.000000e+00 0.000000e+00 0.000000e+00 0.000000e+00 8.256831e-01 1.743168e-01 0.000000e+00 0.000000e+00 0.000000e+00
 0.000000e+00 0.000000e+00 0.000000e+00 0.000000e+00 0.000000e+00 0.000000e+00 9.164998e-01 8.350024e-02 0.000000e+00 0.000000e+00
 0.000000e+00 0.000000e+00 0.000000e+00 0.000000e+00 0.000000e+00 0.000000e+00 0.000000e+00 8.308199e-01 1.691801e-01 0.000000e+00
 0.000000e+00 0.000000e+00 0.000000e+00 0.000000e+00 0.000000e+00 0.000000e+00 0.000000e+00 0.000000e+00 8.526648e-01 1.473352e-01
 0.000000e+00 0.000000e+00 0.000000e+00 0.000000e+00 0.000000e+00 0.000000e+00 0.000000e+00 0.000000e+00 0.000000e+00 0.000000e+00
<ENDHMM>
~h "sil"
<BEGINHMM>
<NUMSTATES> 5
<STATE> 2
<MEAN> 16
 5.670501e+00 5.971989e+00 6.342485e+00 6.644661e+00 6.709217e+00 7.008721e+00 7.224080e+00 7.435010e+00 7.618296e+00 7.660454e+00 7.842124e+00 8.065789e+00 8.292148e+00 8.383764e+00 8.521682e+00 8.720626e+00
<VARIANCE> 16
 1.815195e-01 1.905484e-01 1.797248e-01 2.180055e-01 1.697371e-01 1.419356e-01 1.523255e-01 1.611249e-01 1.120664e-01 1.115763e-01 1.218646e-01 1.360748e-01 1.659932e-01 1.706786e-01 2.332996e-01 2.447261e-01
<GCONST> 4.610982e-01
<STATE> 3
<MEAN> 16
 5.607444e+00 5.752159e+00 5.956418e+00 6.149934e+00 6.306022e+00 6.506589e+00 6.662728e+00 6.832068e+00 7.159347e+00 7.095630e+00 7.255251e+00 7.435928e+00 7.646183e+00 7.751131e+00 7.908165e+00 8.104480e+00
<VARIANCE> 16
 1.336309e-01 1.044611e-01 1.019604e-01 8.780994e-02 7.490693e-02 8.076316e-02 7.323036e-02 6.991178e-02 4.625078e-02 6.046841e-02 6.208128e-02 6.323850e-02 7.709251e-02 7.837331e-02 6.845394e-02 7.857068e-02
<GCONST> -1.171758e+01
<STATE> 4
<MEAN> 16
 5.416721e+00 5.902221e+00 6.178423e+00 6.301943e+00 6.274559e+00 6.464610e+00 6.644481e+00 6.821734e+00 7.083957e+00 7.181738e+00 7.375606e+00 7.638215e+00 7.978090e+00 8.108133e+00 8.180961e+00 8.275756e+00
<VARIANCE> 16
 4.888292e-01 4.482489e-01 4.460247e-01 3.626860e-01 2.758185e-01 2.800359e-01 2.939186e-01 4.400602e-01 5.538338e-01 5.300887e-01 5.624032e-01 6.674240e-01 8.217725e-01 8.561608e-01 8.341063e-01 8.154727e-01
<GCONST> 1.851770e+01
<TRANSP> 5
 0.000000e+00 1.000000e+00 0.000000e+00 0.000000e+00 0.000000e+00
 0.000000e+00 9.301232e-01 6.987686e-02 0.000000e+00 0.000000e+00
 0.000000e+00 0.000000e+00 9.825707e-01 1.742934e-02 0.000000e+00
 0.000000e+00 0.000000e+00 0.000000e+00 6.388170e-01 3.611830e-01
 0.000000e+00 0.000000e+00 0.000000e+00 0.000000e+00 0.000000e+00
<ENDHMM>
~h "tri"
<BEGINHMM>
<NUMSTATES> 10
<STATE> 2
<MEAN> 16
 5.730207e+00 5.860079e+00 6.314209e+00 6.624002e+00 6.794914e+00 7.063980e+00 7.396049e+00 8.003758e+00 8.524425e+00 8.693754e+00 9.061741e+00 9.960071e+00 1.060032e+01 1.068629e+01 9.907765e+00 9.310203e+00
<VARIANCE> 16
 1.513803e-01 1.069597e-01 1.621824e-01 2.634325e-01 2.061003e-01 2.630265e-01 3.038949e-01 3.325980e-01 3.244979e-01 3.119760e-01 4.296888e-01 5.680077e-01 7.530261e-01 1.011061e+00 7.402030e-01 3.882783e-01
<GCONST> 1.170285e+01
<STATE> 3
<MEAN> 16
 5.820755e+00 5.942105e+00 6.382157e+00 6.775880e+00 6.846107e+00 7.036752e+00 7.373153e+00 8.071107e+00 8.699052e+00 9.088536e+00 1.000388e+01 1.107356e+01 1.168689e+01 1.177010e+01 1.094663e+01 1.007581e+01
<VARIANCE> 16
 2.139854e-01 2.076121e-01 4.774396e-01 7.404801e-01 5.619570e-01 6.487572e-01 7.510744e-01 7.379683e-01 7.466722e-01 5.886512e-01 6.673564e-01 7.347726e-01 6.470997e-01 4.710038e-01 5.304232e-01 3.539916e-01
<GCONST> 1.925781e+01
<STATE> 4
<MEAN> 16
 5.867540e+00 6.119722e+00 6.476851e+00 6.815069e+00 6.869007e+00 7.077197e+00 7.378228e+00 8.203847e+00 9.074024e+00 9.344852e+00 1.028312e+01 1.121017e+01 1.194686e+01 1.201560e+01 1.140432e+01 1.045412e+01
<VARIANCE> 16
 2.219666e-01 2.989422e-01 8.231999e-01 1.012696e+00 7.675190e-01 8.612821e-01 1.038120e+00 8.788477e-01 9.455772e-01 8.311405e-01 8.001544e-01 5.489680e-01 4.574689e-01 4.019174e-01 4.768836e-01 6.575278e-01
<GCONST> 2.208882e+01
<STATE> 5
<MEAN> 16
 6.157763e+00 6.740467e+00 7.460607e+00 7.844003e+00 7.589879e+00 7.786670e+00 8.116014e+00 8.862691e+00 1.007809e+01 1.010102e+01 1.089737e+01 1.184375e+01 1.245506e+01 1.239117e+01 1.211597e+01 1.135069e+01
<VARIANCE> 16
 1.840265e-01 4.260955e-01 8.311210e-01 1.082972e+00 7.159432e-01 8.839508e-01 9.669973e-01 5.674099e-01 5.649965e-01 5.760350e-01 1.088173e+00 1.677659e+00 1.685280e+00 1.460478e+00 2.385275e+00 3.518676e+00
<GCONST> 2.820472e+01
<STATE> 6
<MEAN> 16
 8.324976e+00 9.320124e+00 1.035700e+01 1.053277e+01 9.752647e+00 9.776988e+00 1.013711e+01 1.084543e+01 1.171405e+01 1.232459e+01 1.280396e+01 1.317706e+01 1.315524e+01 1.296847e+01 1.274655e+01 1.236283e+01
<VARIANCE> 16
 2.212662e+00 2.617193e+00 3.398017e+00 2.721780e+00 1.674197e+00 1.579762e+00 1.822672e+00 2.051567e+00 2.013337e+00 1.963610e+00 1.700093e+00 2.175658e+00 1.727010e+00 2.518018e+00 3.977411e+00 3.778700e+00
<GCONST> 4.254080e+01
<STATE> 7
<MEAN> 16
 6.772253e+00 8.008932e+00 9.678368e+00 1.014466e+01 8.862273e+00 8.462278e+00 8.636986e+00 9.229354e+00 1.048868e+01 1.141295e+01 1.152141e+01 1.144564e+01 1.173357e+01 1.114289e+01 9.497215e+00 8.813034e+00
<VARIANCE> 16
 8.240570e-01 6.941482e-01 1.117063e+00 2.663888e-01 7.110230e-01 5.745816e-01 3.135931e-01 2.344603e-01 4.230226e-01 2.823043e-01 3.746006e-01 4.812719e-01 5.037873e-01 4.791024e-01 4.358291e-01 3.996440e-01
<GCONST> 1.712261e+01
<STATE> 8
<MEAN> 16
 6.559720e+00 8.079594e+00 9.226856e+00 9.033647e+00 7.904922e+00 7.548053e+00 7.825875e+00 8.569544e+00 9.858437e+00 1.060064e+01 1.024407e+01 1.013656e+01 1.046276e+01 9.826293e+00 8.725855e+00 8.544882e+00
<VARIANCE> 16
 2.290413e-01 2.354414e-01 3.904705e-01 3.306893e-01 3.190421e-01 2.778348e-01 1.471370e-01 2.427241e-01 6.576473e-01 4.519781e-01 1.141335e+00 1.103793e+00 1.173321e+00 1.027644e+00 1.620451e-01 1.335015e-01
<GCONST> 1.405485e+01
<STATE> 9
<MEAN> 16
 6.217038e+00 7.266947e+00 8.146807e+00 7.909440e+00 7.306524e+00 7.142321e+00 7.162443e+00 7.590988e+00 8.618688e+00 9.189749e+00 8.953671e+00 8.904213e+00 9.379172e+00 8.944610e+00 8.300241e+00 8.296108e+00
<VARIANCE> 16
 2.509220e-01 6.623096e-01 7.032018e-01 4.447851e-01 3.048672e-01 3.224445e-01 2.074801e-01 3.420374e-01 7.813436e-01 3.877753e-01 4.818364e-01 4.823954e-01 5.120426e-01 3.276115e-01 1.710826e-01 1.470107e-01
<GCONST> 1.336252e+01
<TRANSP> 10
 0.000000e+00 1.000000e+00 0.000000e+00 0.000000e+00 0.000000e+00 0.000000e+00 0.000000e+00 0.000000e+00 0.000000e+00 0.000000e+00
 0.000000e+00 7.571259e-01 2.428742e-01 0.000000e+00 0.000000e+00 0.000000e+00 0.000000e+00 0.000000e+00 0.000000e+00 0.000000e+00
 0.000000e+00 0.000000e+00 5.947990e-01 4.052010e-01 0.000000e+00 0.000000e+00 0.000000e+00 0.000000e+00 0.000000e+00 0.000000e+00
 0.000000e+00 0.000000e+00 0.000000e+00 6.537774e-01 3.462226e-01 0.000000e+00 0.000000e+00 0.000000e+00 0.000000e+00 0.000000e+00
 0.000000e+00 0.000000e+00 0.000000e+00 0.000000e+00 5.886168e-01 4.113832e-01 0.000000e+00 0.000000e+00 0.000000e+00 0.000000e+00
 0.000000e+00 0.000000e+00 0.000000e+00 0.000000e+00 0.000000e+00 8.438880e-01 1.561119e-01 0.000000e+00 0.000000e+00 0.000000e+00
 0.000000e+00 0.000000e+00 0.000000e+00 0.000000e+00 0.000000e+00 0.000000e+00 8.840024e-01 1.159975e-01 0.000000e+00 0.000000e+00
 0.000000e+00 0.000000e+00 0.000000e+00 0.000000e+00 0.000000e+00 0.000000e+00 0.000000e+00 8.780928e-01 1.219071e-01 0.000000e+00
 0.000000e+00 0.000000e+00 0.000000e+00 0.000000e+00 0.000000e+00 0.000000e+00 0.000000e+00 0.000000e+00 8.060793e-01 1.939207e-01
 0.000000e+00 0.000000e+00 0.000000e+00 0.000000e+00 0.000000e+00 0.000000e+00 0.000000e+00 0.000000e+00 0.000000e+00 0.000000e+00
<ENDHMM>
~h "nula"
<BEGINHMM>
<NUMSTATES> 10
<STATE> 2
<MEAN> 16
 6.578977e+00 7.996050e+00 8.315059e+00 8.293612e+00 7.661207e+00 7.569821e+00 7.322498e+00 7.614752e+00 7.878891e+00 8.083995e+00 8.024272e+00 8.000220e+00 8.507070e+00 8.410206e+00 8.085485e+00 8.192114e+00
<VARIANCE> 16
 2.573354e-01 2.140567e-01 4.367607e-01 3.576076e-01 3.239232e-01 5.159161e-01 1.558196e-01 2.353440e-01 1.676073e-01 4.584306e-01 4.785369e-01 3.277372e-01 4.694464e-01 1.847208e-01 1.361626e-01 1.537684e-01
<GCONST> 8.825665e+00
<STATE> 3
<MEAN> 16
 6.824262e+00 8.324949e+00 9.011579e+00 9.065689e+00 8.354266e+00 8.348768e+00 8.078389e+00 8.296836e+00 8.474212e+00 8.775247e+00 8.774630e+00 8.509340e+00 8.604731e+00 8.357038e+00 8.164117e+00 8.259109e+00
<VARIANCE> 16
 4.833339e-01 4.607082e-01 4.432519e-01 3.743234e-01 2.861603e-01 5.169019e-01 2.348542e-01 2.421612e-01 1.566331e-01 3.335597e-01 4.955492e-01 4.788305e-01 5.430148e-01 3.117206e-01 4.211486e-01 3.901964e-01
<GCONST> 1.335727e+01
<STATE> 4
<MEAN> 16
 6.861778e+00 8.413006e+00 9.098401e+00 9.542829e+00 8.801171e+00 8.788923e+00 8.749467e+00 8.724734e+00 8.752488e+00 9.000860e+00 9.343574e+00 9.373458e+00 9.235459e+00 8.565315e+00 8.254800e+00 8.312838e+00
<VARIANCE> 16
 9.998934e-01 5.920275e-01 7.170988e-01 1.912154e-01 2.157916e-01 3.689199e-01 2.559240e-01 5.462151e-01 4.547927e-01 5.366415e-01 8.428437e-01 9.252107e-01 9.518449e-01 2.765736e-01 2.608576e-01 2.095858e-01
<GCONST> 1.649651e+01
<STATE> 5
<MEAN> 16
 7.059358e+00 8.624961e+00 9.580583e+00 1.007820e+01 9.327141e+00 9.381846e+00 9.433281e+00 9.170905e+00 9.104091e+00 9.372337e+00 9.745164e+00 9.712947e+00 9.702703e+00 8.936664e+00 8.426951e+00 8.487151e+00
<VARIANCE> 16
 1.313388e+00 1.105733e+00 1.407813e+00 8.038853e-02 2.891763e-01 3.262946e-01 2.822599e-01 7.207618e-01 7.031287e-01 8.541800e-01 1.026475e+00 7.416267e-01 9.211811e-01 3.938517e-01 3.120141e-01 2.814287e-01
<GCONST> 1.941819e+01
<STATE> 6
<MEAN> 16
 9.838211e+00 1.106635e+01 1.160560e+01 1.220726e+01 1.189953e+01 1.204795e+01 1.203128e+01 1.158680e+01 1.150911e+01 1.207805e+01 1.240816e+01 1.242667e+01 1.226093e+01 1.136288e+01 1.062896e+01 1.077245e+01
<VARIANCE> 16
 1.893166e+00 1.620181e+00 1.178812e+00 1.609801e+00 2.282901e+00 2.898774e+00 1.680823e+00 1.275791e+00 1.491046e+00 1.801504e+00 1.910849e+00 1.905598e+00 1.645463e+00 1.838371e+00 2.163263e+00 2.138995e+00
<GCONST> 3.873932e+01
<STATE> 7
<MEAN> 16
 8.216480e+00 9.380337e+00 1.061692e+01 1.127517e+01 1.105671e+01 1.120051e+01 1.123958e+01 1.057420e+01 1.011307e+01 1.010360e+01 1.083780e+01 1.111928e+01 1.093474e+01 1.090686e+01 1.054998e+01 9.861104e+00
<VARIANCE> 16
 6.685480e-01 6.854078e-01 1.358793e+00 6.047716e-01 7.834349e-01 8.544803e-01 8.169750e-01 7.406098e-01 3.678818e-01 5.386671e-01 9.172043e-01 8.588754e-01 1.977234e+00 1.589126e+00 1.224620e+00 5.575640e-01
<GCONST> 2.643171e+01
<STATE> 8
<MEAN> 16
 6.610476e+00 7.627478e+00 8.824331e+00 1.000701e+01 1.041375e+01 1.056191e+01 1.075842e+01 1.015740e+01 9.477972e+00 9.817571e+00 1.021329e+01 1.045167e+01 1.085155e+01 1.007972e+01 8.644873e+00 8.371606e+00
<VARIANCE> 16
 2.459920e-01 2.970557e-01 6.104317e-01 2.197831e-01 4.617663e-01 2.806304e-01 6.761187e-01 1.139144e+00 3.438121e-01 5.257457e-01 1.373667e+00 1.130421e+00 1.505766e+00 8.047852e-01 2.900225e-01 1.546289e-01
<GCONST> 1.829359e+01
<STATE> 9
<MEAN> 16
 6.137436e+00 6.871071e+00 7.279964e+00 8.447402e+00 8.978308e+00 9.128858e+00 9.088296e+00 8.644552e+00 8.157631e+00 8.320401e+00 8.485579e+00 8.753237e+00 9.089147e+00 8.746240e+00 8.215096e+00 8.203439e+00
<VARIANCE> 16
 2.785496e-01 6.391084e-01 4.990335e-01 6.983036e-01 4.563887e-01 3.114861e-01 3.501420e-01 5.271572e-01 2.870279e-01 3.419489e-01 4.617008e-01 4.353330e-01 3.668255e-01 2.499407e-01 2.228961e-01 1.532739e-01
<GCONST> 1.329379e+01
<TRANSP> 10
 0.000000e+00 1.000000e+00 0.000000e+00 0.000000e+00 0.000000e+00 0.000000e+00 0.000000e+00 0.000000e+00 0.000000e+00 0.000000e+00
 0.000000e+00 7.436556e-01 2.563444e-01 0.000000e+00 0.000000e+00 0.000000e+00 0.000000e+00 0.000000e+00 0.000000e+00 0.000000e+00
 0.000000e+00 0.000000e+00 5.966137e-01 4.033863e-01 0.000000e+00 0.000000e+00 0.000000e+00 0.000000e+00 0.000000e+00 0.000000e+00
 0.000000e+00 0.000000e+00 0.000000e+00 5.452147e-01 4.547852e-01 0.000000e+00 0.000000e+00 0.000000e+00 0.000000e+00 0.000000e+00
 0.000000e+00 0.000000e+00 0.000000e+00 0.000000e+00 7.129647e-01 2.870353e-01 0.000000e+00 0.000000e+00 0.000000e+00 0.000000e+00
 0.000000e+00 0.000000e+00 0.000000e+00 0.000000e+00 0.000000e+00 8.134463e-01 1.865537e-01 0.000000e+00 0.000000e+00 0.000000e+00
 0.000000e+00 0.000000e+00 0.000000e+00 0.000000e+00 0.000000e+00 0.000000e+00 8.571463e-01 1.428536e-01 0.000000e+00 0.000000e+00
 0.000000e+00 0.000000e+00 0.000000e+00 0.000000e+00 0.000000e+00 0.000000e+00 0.000000e+00 9.327763e-01 6.722370e-02 0.000000e+00
 0.000000e+00 0.000000e+00 0.000000e+00 0.000000e+00 0.000000e+00 0.000000e+00 0.000000e+00 0.000000e+00 8.549864e-01 1.450136e-01
 0.000000e+00 0.000000e+00 0.000000e+00 0.000000e+00 0.000000e+00 0.000000e+00 0.000000e+00 0.000000e+00 0.000000e+00 0.000000e+00
<ENDHMM>
~h "devet"
<BEGINHMM>
<NUMSTATES> 10
<STATE> 2
<MEAN> 16
 7.218557e+00 8.193719e+00 8.395391e+00 8.277836e+00 7.434156e+00 7.142323e+00 7.368656e+00 7.884533e+00 8.349031e+00 8.294130e+00 8.517797e+00 8.594340e+00 8.918703e+00 8.882505e+00 8.677118e+00 8.729523e+00
<VARIANCE> 16
 1.180757e+00 1.352186e+00 7.494719e-01 4.865344e-01 1.893595e-01 1.017527e-01 2.394555e-01 4.314220e-01 5.040822e-01 4.324233e-01 5.323715e-01 7.608518e-01 9.174212e-01 8.536175e-01 1.084840e+00 1.124739e+00
<GCONST> 2.017313e+01
<STATE> 3
<MEAN> 16
 7.044590e+00 8.210531e+00 9.071104e+00 9.231894e+00 8.214348e+00 7.847313e+00 8.176692e+00 8.921643e+00 9.514211e+00 9.541986e+00 9.610456e+00 9.830170e+00 1.004206e+01 9.521052e+00 8.863302e+00 8.694922e+00
<VARIANCE> 16
 1.223360e+00 9.830197e-01 4.053783e-01 2.406991e-01 3.035165e-01 3.954575e-01 4.180883e-01 7.628689e-01 1.088781e+00 1.052529e+00 1.395285e+00 1.353660e+00 1.437455e+00 1.206272e+00 5.992433e-01 4.311976e-01
<GCONST> 2.396990e+01
<STATE> 4
<MEAN> 16
 7.131455e+00 8.233528e+00 9.370196e+00 9.718540e+00 8.984612e+00 8.375427e+00 8.669636e+00 9.323901e+00 1.010609e+01 1.016545e+01 1.017222e+01 1.027254e+01 1.049574e+01 9.837485e+00 8.905414e+00 8.581364e+00
<VARIANCE> 16
 7.493836e-01 8.878719e-01 4.904942e-01 5.247163e-01 7.340357e-01 5.264019e-01 3.334027e-01 5.767667e-01 1.009003e+00 1.002513e+00 1.572425e+00 1.526956e+00 1.224221e+00 1.336641e+00 7.445799e-01 5.336380e-01
<GCONST> 2.549861e+01
<STATE> 5
<MEAN> 16
 7.124471e+00 8.246366e+00 9.727630e+00 1.027412e+01 9.559451e+00 8.800057e+00 9.065701e+00 9.980246e+00 1.087172e+01 1.088941e+01 1.099459e+01 1.113390e+01 1.133054e+01 1.066773e+01 9.505508e+00 9.050045e+00
<VARIANCE> 16
 8.827809e-01 1.118502e+00 8.294644e-01 6.167685e-01 6.271136e-01 4.265158e-01 3.274052e-01 4.415506e-01 4.386574e-01 5.644537e-01 1.422717e+00 1.346637e+00 9.751239e-01 1.535559e+00 1.685329e+00 1.234522e+00
<GCONST> 2.586095e+01
<STATE> 6
<MEAN> 16
 9.605274e+00 1.063566e+01 1.187534e+01 1.233612e+01 1.134490e+01 1.090555e+01 1.144026e+01 1.241612e+01 1.273908e+01 1.303785e+01 1.315552e+01 1.343653e+01 1.296804e+01 1.218166e+01 1.155205e+01 1.113352e+01
<VARIANCE> 16
 1.808041e+00 1.461163e+00 1.130824e+00 1.242917e+00 8.675069e-01 9.416534e-01 1.285787e+00 1.517774e+00 1.060898e+00 1.163928e+00 1.496000e+00 2.034074e+00 1.286935e+00 1.263977e+00 2.396681e+00 2.781293e+00
<GCONST> 3.489156e+01
<STATE> 7
<MEAN> 16
 7.365093e+00 8.195350e+00 9.500039e+00 1.025187e+01 9.574546e+00 9.064084e+00 9.376605e+00 9.999581e+00 1.044826e+01 1.053366e+01 1.075025e+01 1.084907e+01 1.097365e+01 1.093902e+01 1.035556e+01 9.794360e+00
<VARIANCE> 16
 7.833705e-01 1.264228e+00 1.290217e+00 1.008143e+00 1.209344e+00 7.736362e-01 6.496637e-01 4.513341e-01 9.308460e-01 1.411218e+00 1.609523e+00 1.243999e+00 1.474326e+00 2.042459e+00 2.056956e+00 1.459412e+00
<GCONST> 3.153452e+01
<STATE> 8
<MEAN> 16
 6.513030e+00 7.539195e+00 8.934672e+00 9.646538e+00 9.509178e+00 8.699721e+00 8.980350e+00 9.713621e+00 1.078267e+01 1.098814e+01 1.127690e+01 1.126827e+01 1.159840e+01 1.090211e+01 8.787002e+00 8.368077e+00
<VARIANCE> 16
 1.820645e-01 2.420877e-01 6.424551e-01 6.101791e-01 1.008168e+00 5.489155e-01 2.933019e-01 3.635744e-01 4.612889e-01 4.925187e-01 5.298553e-01 6.263216e-01 5.924883e-01 7.082125e-01 3.535054e-01 1.432880e-01
<GCONST> 1.608153e+01
<STATE> 9
<MEAN> 16
 6.227648e+00 7.405632e+00 8.797276e+00 9.094879e+00 8.258930e+00 7.769733e+00 8.104827e+00 9.317417e+00 9.736601e+00 9.649431e+00 9.234724e+00 9.619466e+00 9.805837e+00 9.105795e+00 8.422067e+00 8.445742e+00
<VARIANCE> 16
 1.523869e-01 3.735064e-01 6.281521e-01 6.778580e-01 6.104567e-01 3.004127e-01 2.498223e-01 5.546448e-01 5.155696e-01 6.666521e-01 1.135246e+00 1.798212e+00 7.248529e-01 4.206109e-01 2.165522e-01 1.890128e-01
<GCONST> 1.727549e+01
<TRANSP> 10
 0.000000e+00 1.000000e+00 0.000000e+00 0.000000e+00 0.000000e+00 0.000000e+00 0.000000e+00 0.000000e+00 0.000000e+00 0.000000e+00
 0.000000e+00 5.750973e-01 4.249027e-01 0.000000e+00 0.000000e+00 0.000000e+00 0.000000e+00 0.000000e+00 0.000000e+00 0.000000e+00
 0.000000e+00 0.000000e+00 1.582787e-01 8.417213e-01 0.000000e+00 0.000000e+00 0.000000e+00 0.000000e+00 0.000000e+00 0.000000e+00
 0.000000e+00 0.000000e+00 0.000000e+00 3.390243e-01 6.609758e-01 0.000000e+00 0.000000e+00 0.000000e+00 0.000000e+00 0.000000e+00
 0.000000e+00 0.000000e+00 0.000000e+00 0.000000e+00 1.422818e-01 8.577182e-01 0.000000e+00 0.000000e+00 0.000000e+00 0.000000e+00
 0.000000e+00 0.000000e+00 0.000000e+00 0.000000e+00 0.000000e+00 8.494743e-01 1.505257e-01 0.000000e+00 0.000000e+00 0.000000e+00
 0.000000e+00 0.000000e+00 0.000000e+00 0.000000e+00 0.000000e+00 0.000000e+00 8.916692e-01 1.083308e-01 0.000000e+00 0.000000e+00
 0.000000e+00 0.000000e+00 0.000000e+00 0.000000e+00 0.000000e+00 0.000000e+00 0.000000e+00 9.392421e-01 6.075793e-02 0.000000e+00
 0.000000e+00 0.000000e+00 0.000000e+00 0.000000e+00 0.000000e+00 0.000000e+00 0.000000e+00 0.000000e+00 9.061356e-01 9.386445e-02
 0.000000e+00 0.000000e+00 0.000000e+00 0.000000e+00 0.000000e+00 0.000000e+00 0.000000e+00 0.000000e+00 0.000000e+00 0.000000e+00
<ENDHMM>
~h "jedna"
<BEGINHMM>
<NUMSTATES> 10
<STATE> 2
<MEAN> 16
 6.311191e+00 7.530246e+00 8.145690e+00 7.851357e+00 7.159967e+00 6.852954e+00 6.969696e+00 7.310306e+00 8.228835e+00 9.101018e+00 9.333530e+00 9.507168e+00 9.593092e+00 9.007574e+00 8.261037e+00 8.229050e+00
<VARIANCE> 16
 1.545987e-01 3.287622e-01 4.824055e-01 2.757622e-01 2.232870e-01 1.817055e-01 1.624491e-01 2.974493e-01 5.746871e-01 5.361118e-01 6.723727e-01 1.199589e+00 1.143935e+00 5.715173e-01 2.258708e-01 1.708014e-01
<GCONST> 1.310260e+01
<STATE> 3
<MEAN> 16
 6.446991e+00 7.552799e+00 8.335949e+00 8.285434e+00 7.681358e+00 7.343554e+00 7.385142e+00 8.028852e+00 8.820714e+00 9.590265e+00 1.006591e+01 1.016094e+01 1.037358e+01 9.730683e+00 8.349598e+00 8.170823e+00
<VARIANCE> 16
 2.506128e-01 4.797322e-01 8.267708e-01 6.071189e-01 2.678119e-01 2.511798e-01 3.481169e-01 5.454477e-01 9.812579e-01 1.094327e+00 1.158293e+00 1.637975e+00 1.513608e+00 1.187325e+00 3.596769e-01 1.227988e-01
<GCONST> 2.041605e+01
<STATE> 4
<MEAN> 16
 6.847676e+00 8.161370e+00 9.522144e+00 9.336192e+00 8.265965e+00 7.870902e+00 8.023587e+00 8.615317e+00 9.516211e+00 1.049526e+01 1.077199e+01 1.093903e+01 1.106424e+01 1.012320e+01 8.907924e+00 8.624588e+00
<VARIANCE> 16
 6.798227e-01 7.975628e-01 8.151416e-01 6.119258e-01 2.732326e-01 1.697120e-01 2.395259e-01 3.644782e-01 5.632568e-01 8.076214e-01 1.252721e+00 1.544476e+00 1.166968e+00 1.092618e+00 6.716520e-01 2.661474e-01
<GCONST> 2.098250e+01
<STATE> 5
<MEAN> 16
 6.937069e+00 8.163439e+00 9.894827e+00 1.003182e+01 9.249409e+00 8.617128e+00 8.747458e+00 9.297460e+00 1.027605e+01 1.132134e+01 1.152096e+01 1.159114e+01 1.188420e+01 1.098653e+01 9.346824e+00 8.872573e+00
<VARIANCE> 16
 8.621926e-01 9.802787e-01 7.647197e-01 3.762656e-01 6.477461e-01 3.104006e-01 2.871624e-01 3.396829e-01 3.809710e-01 7.948418e-01 1.150769e+00 1.299628e+00 1.032935e+00 1.118265e+00 9.290019e-01 2.892277e-01
<GCONST> 2.209839e+01
<STATE> 6
<MEAN> 16
 9.406170e+00 1.059107e+01 1.134673e+01 1.156208e+01 1.063255e+01 1.042974e+01 1.101745e+01 1.150523e+01 1.191315e+01 1.225919e+01 1.267876e+01 1.279089e+01 1.243736e+01 1.137745e+01 1.072316e+01 1.071065e+01
<VARIANCE> 16
 1.322934e+00 1.400206e+00 1.129094e+00 1.118831e+00 1.644521e+00 2.170576e+00 2.474298e+00 1.620164e+00 1.223631e+00 1.683620e+00 1.982507e+00 2.335706e+00 1.439656e+00 1.518082e+00 2.015326e+00 1.892664e+00
<GCONST> 3.729319e+01
<STATE> 7
<MEAN> 16
 8.081470e+00 9.045397e+00 9.982092e+00 1.048993e+01 9.839103e+00 9.441872e+00 9.610876e+00 1.022173e+01 1.066883e+01 1.026886e+01 1.041376e+01 1.062682e+01 1.052851e+01 1.018114e+01 9.671342e+00 9.105670e+00
<VARIANCE> 16
 7.658095e-01 7.014128e-01 6.158910e-01 5.069891e-01 8.508294e-01 1.365584e+00 1.462000e+00 1.532655e+00 9.560360e-01 9.378434e-01 9.942445e-01 1.517209e+00 1.705083e+00 1.182432e+00 8.381696e-01 3.183724e-01
<GCONST> 2.825953e+01
<STATE> 8
<MEAN> 16
 6.679173e+00 7.724834e+00 8.579079e+00 9.132065e+00 9.350582e+00 9.471957e+00 9.639508e+00 1.024666e+01 1.005197e+01 9.863281e+00 1.026978e+01 1.035338e+01 1.091737e+01 1.013251e+01 8.453058e+00 8.225064e+00
<VARIANCE> 16
 2.049545e-01 3.711930e-01 4.812776e-01 5.992235e-01 1.121723e+00 1.985620e+00 2.508849e+00 2.409509e+00 7.377647e-01 5.938020e-01 9.317735e-01 1.089694e+00 1.036755e+00 1.001266e+00 3.040576e-01 1.241760e-01
<GCONST> 2.413730e+01
<STATE> 9
<MEAN> 16
 6.368036e+00 7.434215e+00 7.981411e+00 8.613624e+00 8.776686e+00 8.588687e+00 8.964731e+00 9.010425e+00 8.745481e+00 8.864382e+00 8.667921e+00 9.077269e+00 9.304080e+00 8.767064e+00 8.145946e+00 8.231958e+00
<VARIANCE> 16
 1.614912e-01 3.792495e-01 6.064431e-01 8.731172e-01 1.591973e+00 1.223374e+00 1.307925e+00 7.463062e-01 4.634668e-01 6.110110e-01 6.536046e-01 8.353745e-01 5.525244e-01 3.019305e-01 1.021458e-01 7.878967e-02
<GCONST> 1.813981e+01
<TRANSP> 10
 0.000000e+00 1.000000e+00 0.000000e+00 0.000000e+00 0.000000e+00 0.000000e+00 0.000000e+00 0.000000e+00 0.000000e+00 0.000000e+00
 0.000000e+00 6.300537e-01 3.699463e-01 0.000000e+00 0.000000e+00 0.000000e+00 0.000000e+00 0.000000e+00 0.000000e+00 0.000000e+00
 0.000000e+00 0.000000e+00 7.373436e-01 2.626564e-01 0.000000e+00 0.000000e+00 0.000000e+00 0.000000e+00 0.000000e+00 0.000000e+00
 0.000000e+00 0.000000e+00 0.000000e+00 2.222569e-01 7.777430e-01 0.000000e+00 0.000000e+00 0.000000e+00 0.000000e+00 0.000000e+00
 0.000000e+00 0.000000e+00 0.000000e+00 0.000000e+00 4.948968e-01 5.051032e-01 0.000000e+00 0.000000e+00 0.000000e+00 0.000000e+00
 0.000000e+00 0.000000e+00 0.000000e+00 0.000000e+00 0.000000e+00 8.675338e-01 1.324662e-01 0.000000e+00 0.000000e+00 0.000000e+00
 0.000000e+00 0.000000e+00 0.000000e+00 0.000000e+00 0.000000e+00 0.000000e+00 8.420932e-01 1.579069e-01 0.000000e+00 0.000000e+00
 0.000000e+00 0.000000e+00 0.000000e+00 0.000000e+00 0.000000e+00 0.000000e+00 0.000000e+00 9.302064e-01 6.979363e-02 0.000000e+00
 0.000000e+00 0.000000e+00 0.000000e+00 0.000000e+00 0.000000e+00 0.000000e+00 0.000000e+00 0.000000e+00 9.323705e-01 6.762955e-02
 0.000000e+00 0.000000e+00 0.000000e+00 0.000000e+00 0.000000e+00 0.000000e+00 0.000000e+00 0.000000e+00 0.000000e+00 0.000000e+00
<ENDHMM>
