~o
<STREAMINFO> 1 16
<VECSIZE> 16<NULLD><FBANK><DIAGC>
~h "ctyri"
<BEGINHMM>
<NUMSTATES> 10
<STATE> 2
<MEAN> 16
 5.721296e+00 5.835486e+00 6.036496e+00 6.216208e+00 6.351111e+00 6.533536e+00 6.770271e+00 7.117715e+00 7.732909e+00 8.257633e+00 8.994594e+00 9.771287e+00 1.023078e+01 1.011293e+01 9.552051e+00 9.003703e+00
<VARIANCE> 16
 1.477496e-01 9.739415e-02 1.191331e-01 9.642684e-02 6.730368e-02 7.239862e-02 8.066002e-02 1.953252e-01 5.246211e-01 1.186145e+00 1.407467e+00 1.462595e+00 1.387024e+00 1.472965e+00 1.295617e+00 7.184002e-01
<GCONST> 1.211394e+01
<STATE> 3
<MEAN> 16
 5.566987e+00 6.019450e+00 6.838815e+00 7.275940e+00 6.941223e+00 7.110320e+00 7.413019e+00 7.741402e+00 8.329102e+00 8.832193e+00 9.554139e+00 9.895664e+00 1.041039e+01 1.039839e+01 1.014715e+01 1.012494e+01
<VARIANCE> 16
 2.280817e-01 1.766555e-01 4.934983e-01 8.178812e-01 2.566169e-01 1.895435e-01 2.891223e-01 4.362259e-01 8.853565e-01 1.340018e+00 2.087065e+00 1.977480e+00 1.946820e+00 2.039803e+00 2.153716e+00 2.154789e+00
<GCONST> 2.469578e+01
<STATE> 4
<MEAN> 16
 6.054961e+00 7.493170e+00 8.279797e+00 8.413648e+00 7.643695e+00 7.474990e+00 7.915326e+00 8.628877e+00 9.612072e+00 9.830022e+00 9.835028e+00 1.005625e+01 1.030541e+01 1.002234e+01 9.320743e+00 8.988489e+00
<VARIANCE> 16
 1.796125e-01 6.632714e-01 7.874738e-01 4.897677e-01 2.062203e-01 3.497124e-01 4.155652e-01 3.386984e-01 4.357160e-01 5.395718e-01 1.129588e+00 1.038790e+00 1.331492e+00 1.376796e+00 1.120993e+00 6.370007e-01
<GCONST> 2.071700e+01
<STATE> 5
<MEAN> 16
 6.431834e+00 7.209259e+00 7.856613e+00 8.216148e+00 7.909287e+00 8.225271e+00 8.668925e+00 9.244213e+00 1.023271e+01 1.105088e+01 1.167281e+01 1.194398e+01 1.214197e+01 1.210191e+01 1.192686e+01 1.157517e+01
<VARIANCE> 16
 4.335639e-01 1.068366e+00 1.596196e+00 1.420786e+00 8.441273e-01 8.876189e-01 1.133927e+00 1.326263e+00 1.500532e+00 2.301522e+00 2.784396e+00 2.345254e+00 2.479367e+00 2.944197e+00 4.278795e+00 4.086953e+00
<GCONST> 3.753979e+01
<STATE> 6
<MEAN> 16
 9.449422e+00 1.073966e+01 1.180484e+01 1.132919e+01 1.026227e+01 1.003336e+01 1.045282e+01 1.133752e+01 1.229172e+01 1.263263e+01 1.300356e+01 1.311545e+01 1.321052e+01 1.259739e+01 1.193409e+01 1.148909e+01
<VARIANCE> 16
 1.552281e+00 1.254618e+00 1.166324e+00 8.267291e-01 9.814120e-01 1.042660e+00 1.151521e+00 1.460900e+00 8.782290e-01 9.658576e-01 1.395189e+00 1.654819e+00 1.671700e+00 2.116792e+00 3.000924e+00 2.372031e+00
<GCONST> 3.447786e+01
<STATE> 7
<MEAN> 16
 7.512004e+00 8.721945e+00 1.030259e+01 1.026692e+01 9.017914e+00 8.717305e+00 8.873242e+00 9.299581e+00 1.066963e+01 1.118428e+01 1.131334e+01 1.128996e+01 1.174477e+01 1.135776e+01 1.035947e+01 9.654408e+00
<VARIANCE> 16
 7.428861e-01 6.123219e-01 6.917830e-01 6.042486e-01 5.080543e-01 3.513524e-01 2.851802e-01 1.759715e-01 2.853595e-01 3.800488e-01 3.947872e-01 7.029922e-01 8.320349e-01 1.006376e+00 1.880396e+00 1.767475e+00
<GCONST> 2.055110e+01
<STATE> 8
<MEAN> 16
 6.272211e+00 7.544945e+00 8.902020e+00 9.174398e+00 8.001764e+00 7.743660e+00 7.903781e+00 8.669345e+00 9.803942e+00 1.047749e+01 1.061933e+01 1.085553e+01 1.142221e+01 1.083111e+01 9.299511e+00 8.663716e+00
<VARIANCE> 16
 2.309777e-01 3.450067e-01 9.735084e-01 7.097875e-01 7.165193e-01 4.257045e-01 2.792026e-01 3.894069e-01 4.859248e-01 4.356274e-01 4.123693e-01 4.910673e-01 4.321678e-01 7.323946e-01 1.070513e+00 4.929430e-01
<GCONST> 1.816118e+01
<STATE> 9
<MEAN> 16
 6.549183e+00 7.702046e+00 8.797569e+00 8.295713e+00 7.536550e+00 7.264046e+00 7.482938e+00 8.313646e+00 9.415883e+00 9.492177e+00 8.746785e+00 8.763905e+00 9.095440e+00 8.761307e+00 8.522392e+00 8.579457e+00
<VARIANCE> 16
 2.875693e-01 6.022004e-01 8.829093e-01 3.563301e-01 1.894664e-01 2.196005e-01 2.166388e-01 8.075650e-01 1.293457e+00 5.600122e-01 3.234799e-01 2.690679e-01 3.727615e-01 2.695202e-01 2.273665e-01 1.791356e-01
<GCONST> 1.331078e+01
<TRANSP> 10
 0.000000e+00 1.000000e+00 0.000000e+00 0.000000e+00 0.000000e+00 0.000000e+00 0.000000e+00 0.000000e+00 0.000000e+00 0.000000e+00
 0.000000e+00 9.066827e-01 9.331732e-02 0.000000e+00 0.000000e+00 0.000000e+00 0.000000e+00 0.000000e+00 0.000000e+00 0.000000e+00
 0.000000e+00 0.000000e+00 7.291228e-01 2.708772e-01 0.000000e+00 0.000000e+00 0.000000e+00 0.000000e+00 0.000000e+00 0.000000e+00
 0.000000e+00 0.000000e+00 0.000000e+00 2.865494e-01 7.134507e-01 0.000000e+00 0.000000e+00 0.000000e+00 0.000000e+00 0.000000e+00
 0.000000e+00 0.000000e+00 0.000000e+00 0.000000e+00 7.262903e-01 2.737097e-01 0.000000e+00 0.000000e+00 0.000000e+00 0.000000e+00
 0.000000e+00 0.000000e+00 0.000000e+00 0.000000e+00 0.000000e+00 8.376312e-01 1.623688e-01 0.000000e+00 0.000000e+00 0.000000e+00
 0.000000e+00 0.000000e+00 0.000000e+00 0.000000e+00 0.000000e+00 0.000000e+00 8.743454e-01 1.256546e-01 0.000000e+00 0.000000e+00
 0.000000e+00 0.000000e+00 0.000000e+00 0.000000e+00 0.000000e+00 0.000000e+00 0.000000e+00 9.421951e-01 5.780488e-02 0.000000e+00
 0.000000e+00 0.000000e+00 0.000000e+00 0.000000e+00 0.000000e+00 0.000000e+00 0.000000e+00 0.000000e+00 9.040784e-01 9.592161e-02
 0.000000e+00 0.000000e+00 0.000000e+00 0.000000e+00 0.000000e+00 0.000000e+00 0.000000e+00 0.000000e+00 0.000000e+00 0.000000e+00
<ENDHMM>
~h "sedm"
<BEGINHMM>
<NUMSTATES> 10
<STATE> 2
<MEAN> 16
 5.585073e+00 5.806595e+00 6.091684e+00 6.366717e+00 6.483585e+00 6.673951e+00 6.933063e+00 7.351156e+00 7.694903e+00 7.794558e+00 8.054860e+00 8.568734e+00 9.438997e+00 9.809974e+00 1.006843e+01 1.000935e+01
<VARIANCE> 16
 1.892913e-01 1.186251e-01 1.681639e-01 1.701688e-01 1.353884e-01 1.322946e-01 1.513258e-01 1.526840e-01 1.500739e-01 1.279127e-01 2.418574e-01 2.489770e-01 4.826525e-01 4.796271e-01 4.456508e-01 4.344148e-01
<GCONST> 4.397944e+00
<STATE> 3
<MEAN> 16
 5.805425e+00 6.135035e+00 6.702721e+00 7.164717e+00 7.024065e+00 7.341803e+00 7.735968e+00 8.318005e+00 8.728527e+00 8.752215e+00 9.038736e+00 9.595079e+00 1.051244e+01 1.120194e+01 1.109491e+01 1.081385e+01
<VARIANCE> 16
 2.689807e-01 2.205476e-01 4.475496e-01 4.925102e-01 1.570891e-01 1.465985e-01 2.327501e-01 2.001358e-01 1.763069e-01 1.782691e-01 2.789881e-01 4.508945e-01 7.292155e-01 1.110414e+00 1.630563e+00 1.608652e+00
<GCONST> 1.345169e+01
<STATE> 4
<MEAN> 16
 6.298384e+00 6.905239e+00 7.729253e+00 8.264976e+00 8.137646e+00 8.343699e+00 8.894222e+00 9.520522e+00 9.622517e+00 9.722294e+00 1.010318e+01 1.055277e+01 1.153382e+01 1.244448e+01 1.269968e+01 1.244256e+01
<VARIANCE> 16
 2.393817e-01 5.509755e-01 8.093436e-01 8.064111e-01 3.710251e-01 2.331890e-01 2.126152e-01 3.135054e-01 3.098384e-01 3.736205e-01 6.098363e-01 6.153978e-01 1.214669e+00 3.014167e+00 5.207385e+00 5.025033e+00
<GCONST> 2.322401e+01
<STATE> 5
<MEAN> 16
 8.791655e+00 9.962054e+00 1.105752e+01 1.175965e+01 1.114311e+01 1.069164e+01 1.143600e+01 1.238598e+01 1.177449e+01 1.210567e+01 1.229676e+01 1.246040e+01 1.274566e+01 1.220981e+01 1.183405e+01 1.167495e+01
<VARIANCE> 16
 3.582560e+00 3.092100e+00 3.057120e+00 3.079680e+00 3.072110e+00 2.683960e+00 3.355566e+00 3.314229e+00 2.076633e+00 3.600470e+00 3.483074e+00 3.624161e+00 3.443447e+00 2.784820e+00 4.452837e+00 4.453771e+00
<GCONST> 4.836706e+01
<STATE> 6
<MEAN> 16
 8.811196e+00 1.000601e+01 1.073103e+01 1.097288e+01 1.051772e+01 1.028164e+01 1.071442e+01 1.127889e+01 1.134342e+01 1.148427e+01 1.163045e+01 1.187435e+01 1.191724e+01 1.125930e+01 1.006369e+01 9.940925e+00
<VARIANCE> 16
 2.288945e+00 2.485027e+00 1.189673e+00 6.688288e-01 9.868890e-01 5.796334e-01 6.816819e-01 5.164763e-01 6.454791e-01 6.208100e-01 6.490024e-01 6.870939e-01 6.986920e-01 9.445378e-01 1.373937e+00 8.300653e-01
<GCONST> 2.730711e+01
<STATE> 7
<MEAN> 16
 6.886483e+00 8.076363e+00 9.185953e+00 1.005892e+01 9.610042e+00 9.075463e+00 9.481129e+00 1.048858e+01 1.087147e+01 1.071731e+01 1.117411e+01 1.120530e+01 1.139817e+01 1.076493e+01 9.190036e+00 8.887143e+00
<VARIANCE> 16
 9.968173e-01 9.469565e-01 5.779221e-01 3.506570e-01 7.876372e-01 3.428707e-01 3.573638e-01 4.966680e-01 5.372184e-01 4.675138e-01 8.312355e-01 6.842449e-01 9.853548e-01 1.191289e+00 3.431984e-01 1.950880e-01
<GCONST> 2.022470e+01
<STATE> 8
<MEAN> 16
 6.968264e+00 8.305171e+00 8.905831e+00 9.016461e+00 8.316772e+00 8.224791e+00 8.728150e+00 9.178385e+00 9.338495e+00 9.333531e+00 9.495738e+00 9.672280e+00 9.989921e+00 9.330549e+00 8.311523e+00 8.206372e+00
<VARIANCE> 16
 7.214116e-01 4.707222e-01 5.829353e-01 4.034894e-01 3.803639e-01 4.120417e-01 4.555214e-01 3.042960e-01 2.561516e-01 3.890733e-01 3.617118e-01 6.958946e-01 8.440187e-01 3.908899e-01 2.234070e-01 1.540923e-01
<GCONST> 1.488608e+01
<STATE> 9
<MEAN> 16
 6.566293e+00 7.945593e+00 8.331387e+00 8.104571e+00 7.690579e+00 7.762600e+00 7.892392e+00 8.052583e+00 8.114865e+00 8.299582e+00 8.148680e+00 8.544390e+00 8.878807e+00 8.593382e+00 8.171693e+00 8.247162e+00
<VARIANCE> 16
 2.168213e-01 2.569721e-01 8.067776e-01 5.626301e-01 4.099057e-01 3.591728e-01 4.169140e-01 5.368392e-01 4.003076e-01 3.997510e-01 5.193317e-01 1.033522e+00 8.791054e-01 3.093373e-01 1.198136e-01 1.063873e-01
<GCONST> 1.419667e+01
<TRANSP> 10
 0.000000e+00 1.000000e+00 0.000000e+00 0.000000e+00 0.000000e+00 0.000000e+00 0.000000e+00 0.000000e+00 0.000000e+00 0.000000e+00
 0.000000e+00 8.751864e-01 1.248136e-01 0.000000e+00 0.000000e+00 0.000000e+00 0.000000e+00 0.000000e+00 0.000000e+00 0.000000e+00
 0.000000e+00 0.000000e+00 7.670304e-01 2.329696e-01 0.000000e+00 0.000000e+00 0.000000e+00 0.000000e+00 0.000000e+00 0.000000e+00
 0.000000e+00 0.000000e+00 0.000000e+00 6.561443e-01 3.438558e-01 0.000000e+00 0.000000e+00 0.000000e+00 0.000000e+00 0.000000e+00
 0.000000e+00 0.000000e+00 0.000000e+00 0.000000e+00 5.607381e-01 4.392619e-01 0.000000e+00 0.000000e+00 0.000000e+00 0.000000e+00
 0.000000e+00 0.000000e+00 0.000000e+00 0.000000e+00 0.000000e+00 8.632519e-01 1.367481e-01 0.000000e+00 0.000000e+00 0.000000e+00
 0.000000e+00 0.000000e+00 0.000000e+00 0.000000e+00 0.000000e+00 0.000000e+00 7.428379e-01 2.571621e-01 0.000000e+00 0.000000e+00
 0.000000e+00 0.000000e+00 0.000000e+00 0.000000e+00 0.000000e+00 0.000000e+00 0.000000e+00 9.468365e-01 5.316352e-02 0.000000e+00
 0.000000e+00 0.000000e+00 0.000000e+00 0.000000e+00 0.000000e+00 0.000000e+00 0.000000e+00 0.000000e+00 9.302583e-01 6.974176e-02
 0.000000e+00 0.000000e+00 0.000000e+00 0.000000e+00 0.000000e+00 0.000000e+00 0.000000e+00 0.000000e+00 0.000000e+00 0.000000e+00
<ENDHMM>
~h "sest"
<BEGINHMM>
<NUMSTATES> 10
<STATE> 2
<MEAN> 16
 5.707160e+00 5.744675e+00 5.985417e+00 6.181544e+00 6.340252e+00 6.509880e+00 6.740508e+00 7.313946e+00 8.152345e+00 8.854299e+00 9.486886e+00 1.017758e+01 1.037010e+01 1.033397e+01 9.822116e+00 9.107946e+00
<VARIANCE> 16
 9.645975e-02 9.296679e-02 9.434984e-02 1.174466e-01 6.848314e-02 6.600286e-02 8.905703e-02 1.358409e-01 3.082114e-01 5.119238e-01 4.535112e-01 8.090647e-01 7.617939e-01 6.632509e-01 4.667234e-01 3.567946e-01
<GCONST> 5.050943e+00
<STATE> 3
<MEAN> 16
 5.752874e+00 5.908927e+00 6.172736e+00 6.472561e+00 6.544443e+00 6.736605e+00 7.062514e+00 7.924091e+00 8.927794e+00 9.719188e+00 1.022533e+01 1.080021e+01 1.119543e+01 1.111724e+01 1.065336e+01 9.856314e+00
<VARIANCE> 16
 1.211530e-01 9.184129e-02 1.174519e-01 2.038612e-01 1.011427e-01 1.120651e-01 1.231467e-01 2.454604e-01 4.673886e-01 4.935313e-01 2.170721e-01 4.298690e-01 6.473024e-01 6.746498e-01 5.063375e-01 2.901210e-01
<GCONST> 6.611625e+00
<STATE> 4
<MEAN> 16
 5.751418e+00 6.129776e+00 6.743267e+00 7.098763e+00 6.948740e+00 7.052344e+00 7.372920e+00 8.159239e+00 9.104191e+00 9.725823e+00 1.034711e+01 1.057752e+01 1.085058e+01 1.066330e+01 1.035072e+01 9.842458e+00
<VARIANCE> 16
 8.710314e-02 1.792654e-01 1.836052e-01 2.954957e-01 1.561377e-01 1.297238e-01 2.995539e-01 5.116073e-01 6.562819e-01 9.056938e-01 8.469691e-01 7.653936e-01 1.074996e+00 1.150931e+00 1.581834e+00 1.408046e+00
<GCONST> 1.661739e+01
<STATE> 5
<MEAN> 16
 5.985088e+00 6.776752e+00 7.916780e+00 8.573382e+00 7.888402e+00 7.892462e+00 8.251143e+00 8.955597e+00 1.005493e+01 1.077158e+01 1.150653e+01 1.159238e+01 1.178742e+01 1.163521e+01 1.145028e+01 1.119948e+01
<VARIANCE> 16
 3.195800e-01 7.417012e-01 4.076187e-01 5.224806e-01 3.980627e-01 2.303239e-01 3.145269e-01 5.949396e-01 5.899445e-01 8.903147e-01 1.344998e+00 1.316903e+00 1.399736e+00 1.921646e+00 3.500520e+00 3.305168e+00
<GCONST> 2.572012e+01
<STATE> 6
<MEAN> 16
 8.041440e+00 8.857647e+00 9.970834e+00 1.101955e+01 1.059221e+01 1.023786e+01 1.062339e+01 1.151598e+01 1.188163e+01 1.225408e+01 1.254789e+01 1.276692e+01 1.293170e+01 1.313523e+01 1.294124e+01 1.239019e+01
<VARIANCE> 16
 1.772161e+00 2.300947e+00 2.173969e+00 2.576645e+00 2.447509e+00 1.554452e+00 1.606180e+00 1.996256e+00 1.516186e+00 2.071356e+00 1.805133e+00 1.774954e+00 1.276755e+00 2.051451e+00 3.182126e+00 3.753164e+00
<GCONST> 4.078775e+01
<STATE> 7
<MEAN> 16
 6.469401e+00 7.540190e+00 9.049399e+00 1.022003e+01 1.045790e+01 9.732926e+00 9.793014e+00 1.079672e+01 1.140396e+01 1.109480e+01 1.146343e+01 1.151080e+01 1.182860e+01 1.118901e+01 9.472478e+00 8.739106e+00
<VARIANCE> 16
 2.789346e-01 3.192334e-01 3.266007e-01 2.975233e-01 7.038979e-01 6.526384e-01 3.685328e-01 2.543702e-01 4.093086e-01 3.522660e-01 3.021355e-01 3.126028e-01 6.109003e-01 1.080169e+00 9.732519e-01 5.884914e-01
<GCONST> 1.624173e+01
<STATE> 8
<MEAN> 16
 6.152184e+00 6.920613e+00 7.980582e+00 8.695180e+00 8.227268e+00 8.060611e+00 8.468416e+00 9.154882e+00 9.190106e+00 9.148388e+00 9.185235e+00 9.522750e+00 1.006298e+01 1.049188e+01 1.058927e+01 1.038978e+01
<VARIANCE> 16
 3.435338e-01 7.323407e-01 1.105601e+00 9.233095e-01 5.637658e-01 3.167697e-01 4.345321e-01 8.236664e-01 5.411978e-01 4.765997e-01 6.659465e-01 6.478077e-01 9.249390e-01 2.261268e+00 3.781070e+00 3.287179e+00
<GCONST> 2.635866e+01
<STATE> 9
<MEAN> 16
 5.681075e+00 5.908251e+00 6.442900e+00 7.083371e+00 7.120489e+00 6.976066e+00 7.169443e+00 7.792985e+00 8.097609e+00 8.080318e+00 8.467128e+00 9.029974e+00 9.903758e+00 1.045779e+01 1.043619e+01 1.018314e+01
<VARIANCE> 16
 1.440864e-01 1.427685e-01 2.537264e-01 4.475083e-01 3.453342e-01 2.144195e-01 1.701444e-01 2.308406e-01 3.341327e-01 2.798481e-01 2.771638e-01 3.215415e-01 5.745889e-01 6.076084e-01 3.966982e-01 3.409350e-01
<GCONST> 9.665936e+00
<TRANSP> 10
 0.000000e+00 1.000000e+00 0.000000e+00 0.000000e+00 0.000000e+00 0.000000e+00 0.000000e+00 0.000000e+00 0.000000e+00 0.000000e+00
 0.000000e+00 7.864395e-01 2.135605e-01 0.000000e+00 0.000000e+00 0.000000e+00 0.000000e+00 0.000000e+00 0.000000e+00 0.000000e+00
 0.000000e+00 0.000000e+00 7.420205e-01 2.579795e-01 0.000000e+00 0.000000e+00 0.000000e+00 0.000000e+00 0.000000e+00 0.000000e+00
 0.000000e+00 0.000000e+00 0.000000e+00 2.406944e-01 7.593057e-01 0.000000e+00 0.000000e+00 0.000000e+00 0.000000e+00 0.000000e+00
 0.000000e+00 0.000000e+00 0.000000e+00 0.000000e+00 6.579573e-01 3.420427e-01 0.000000e+00 0.000000e+00 0.000000e+00 0.000000e+00
 0.000000e+00 0.000000e+00 0.000000e+00 0.000000e+00 0.000000e+00 8.900871e-01 1.099129e-01 0.000000e+00 0.000000e+00 0.000000e+00
 0.000000e+00 0.000000e+00 0.000000e+00 0.000000e+00 0.000000e+00 0.000000e+00 8.977905e-01 1.022095e-01 0.000000e+00 0.000000e+00
 0.000000e+00 0.000000e+00 0.000000e+00 0.000000e+00 0.000000e+00 0.000000e+00 0.000000e+00 9.185757e-01 8.142427e-02 0.000000e+00
 0.000000e+00 0.000000e+00 0.000000e+00 0.000000e+00 0.000000e+00 0.000000e+00 0.000000e+00 0.000000e+00 9.117659e-01 8.823410e-02
 0.000000e+00 0.000000e+00 0.000000e+00 0.000000e+00 0.000000e+00 0.000000e+00 0.000000e+00 0.000000e+00 0.000000e+00 0.000000e+00
<ENDHMM>
~h "dva"
<BEGINHMM>
<NUMSTATES> 10
<STATE> 2
<MEAN> 16
 6.315145e+00 7.295557e+00 7.851825e+00 7.823417e+00 7.270417e+00 7.362470e+00 7.732358e+00 7.928895e+00 8.009305e+00 8.134835e+00 8.291398e+00 8.590129e+00 8.720559e+00 8.422754e+00 8.068206e+00 8.111430e+00
<VARIANCE> 16
 2.737718e-01 2.263473e-01 5.131745e-01 5.024353e-01 2.600435e-01 3.355573e-01 3.704017e-01 6.302200e-01 5.222002e-01 5.000300e-01 6.337294e-01 7.432222e-01 6.956540e-01 4.327793e-01 1.580876e-01 1.313615e-01
<GCONST> 1.420521e+01
<STATE> 3
<MEAN> 16
 7.410106e+00 8.335981e+00 8.691591e+00 8.621397e+00 7.937233e+00 7.920519e+00 8.299072e+00 8.323606e+00 8.193499e+00 8.490789e+00 8.459998e+00 8.644640e+00 8.931045e+00 8.703075e+00 8.397755e+00 8.517908e+00
<VARIANCE> 16
 1.152950e+00 1.162615e+00 6.679343e-01 6.988064e-01 4.571639e-01 6.076314e-01 4.571547e-01 3.149453e-01 2.854199e-01 3.693023e-01 2.968814e-01 5.922102e-01 5.676246e-01 3.596513e-01 2.588586e-01 2.935505e-01
<GCONST> 1.756375e+01
<STATE> 4
<MEAN> 16
 7.317815e+00 8.219119e+00 8.950714e+00 9.277250e+00 8.736360e+00 8.736335e+00 9.220678e+00 9.091847e+00 8.824597e+00 9.052407e+00 9.124354e+00 9.378100e+00 9.706377e+00 9.289874e+00 8.708091e+00 8.566519e+00
<VARIANCE> 16
 9.883797e-01 1.084541e+00 5.332000e-01 3.953885e-01 6.223602e-01 7.658800e-01 5.689636e-01 3.492236e-01 3.520839e-01 3.670452e-01 5.296106e-01 6.398485e-01 5.880821e-01 4.100564e-01 7.242443e-01 5.494586e-01
<GCONST> 2.008972e+01
<STATE> 5
<MEAN> 16
 7.752626e+00 8.731230e+00 9.620538e+00 1.012933e+01 9.650521e+00 9.457572e+00 1.003100e+01 9.867310e+00 9.437189e+00 9.614343e+00 9.838816e+00 9.964418e+00 1.035788e+01 1.016560e+01 9.581614e+00 9.403931e+00
<VARIANCE> 16
 9.975673e-01 8.997083e-01 6.607884e-01 2.734310e-01 4.533120e-01 6.175147e-01 7.157754e-01 3.950832e-01 1.475992e-01 2.692779e-01 7.276583e-01 7.246798e-01 7.203480e-01 7.169512e-01 1.083455e+00 9.623887e-01
<GCONST> 2.056644e+01
<STATE> 6
<MEAN> 16
 9.233850e+00 1.012824e+01 1.111855e+01 1.198302e+01 1.219935e+01 1.218608e+01 1.254941e+01 1.209581e+01 1.139082e+01 1.191478e+01 1.225143e+01 1.260691e+01 1.230451e+01 1.200594e+01 1.145511e+01 1.080913e+01
<VARIANCE> 16
 1.647317e+00 1.394139e+00 1.063775e+00 1.216904e+00 1.619275e+00 1.519124e+00 1.123322e+00 8.108214e-01 9.671045e-01 1.734466e+00 1.530425e+00 1.792693e+00 1.135267e+00 1.178546e+00 1.796020e+00 2.157401e+00
<GCONST> 3.447443e+01
<STATE> 7
<MEAN> 16
 6.982220e+00 7.787305e+00 8.834469e+00 9.918777e+00 1.088107e+01 1.125039e+01 1.166427e+01 1.155889e+01 1.036884e+01 1.058878e+01 1.109852e+01 1.140446e+01 1.199740e+01 1.111489e+01 9.433028e+00 8.783043e+00
<VARIANCE> 16
 6.465776e-01 6.272449e-01 5.473845e-01 4.759828e-01 4.933774e-01 3.950493e-01 3.483846e-01 4.362285e-01 1.952741e-01 2.663368e-01 4.326604e-01 4.623309e-01 8.013365e-01 3.666648e-01 9.125511e-01 4.730429e-01
<GCONST> 1.700883e+01
<STATE> 8
<MEAN> 16
 6.546507e+00 7.448672e+00 8.262461e+00 9.614098e+00 1.035671e+01 1.021427e+01 1.045988e+01 9.769938e+00 9.279236e+00 9.588861e+00 9.332129e+00 9.946577e+00 1.019715e+01 9.592021e+00 8.633652e+00 8.419127e+00
<VARIANCE> 16
 2.981275e-01 1.953442e-01 3.483123e-01 5.709929e-01 5.166626e-01 2.387092e-01 2.055571e-01 5.754296e-01 2.285399e-01 3.009079e-01 9.633448e-01 1.201452e+00 1.005571e+00 3.629289e-01 4.151187e-01 2.258010e-01
<GCONST> 1.481413e+01
<STATE> 9
<MEAN> 16
 5.822467e+00 6.360551e+00 6.690728e+00 7.485626e+00 8.083768e+00 8.380774e+00 8.465641e+00 8.275027e+00 7.909564e+00 8.006552e+00 8.243623e+00 8.572942e+00 8.969748e+00 8.603457e+00 8.285689e+00 8.357863e+00
<VARIANCE> 16
 3.403784e-01 5.222120e-01 3.499817e-01 6.360305e-01 8.284644e-01 5.906494e-01 5.025131e-01 4.514270e-01 2.389221e-01 2.754630e-01 3.459378e-01 2.990437e-01 3.748569e-01 3.107572e-01 4.502507e-01 4.302725e-01
<GCONST> 1.519726e+01
<TRANSP> 10
 0.000000e+00 1.000000e+00 0.000000e+00 0.000000e+00 0.000000e+00 0.000000e+00 0.000000e+00 0.000000e+00 0.000000e+00 0.000000e+00
 0.000000e+00 7.962320e-01 2.037679e-01 0.000000e+00 0.000000e+00 0.000000e+00 0.000000e+00 0.000000e+00 0.000000e+00 0.000000e+00
 0.000000e+00 0.000000e+00 4.107530e-01 5.892470e-01 0.000000e+00 0.000000e+00 0.000000e+00 0.000000e+00 0.000000e+00 0.000000e+00
 0.000000e+00 0.000000e+00 0.000000e+00 4.747186e-01 5.252814e-01 0.000000e+00 0.000000e+00 0.000000e+00 0.000000e+00 0.000000e+00
 0.000000e+00 0.000000e+00 0.000000e+00 0.000000e+00 5.107160e-01 4.892840e-01 0.000000e+00 0.000000e+00 0.000000e+00 0.000000e+00
 0.000000e+00 0.000000e+00 0.000000e+00 0.000000e+00 0.000000e+00 8.500994e-01 1.499007e-01 0.000000e+00 0.000000e+00 0.000000e+00
 0.000000e+00 0.000000e+00 0.000000e+00 0.000000e+00 0.000000e+00 0.000000e+00 8.804051e-01 1.195948e-01 0.000000e+00 0.000000e+00
 0.000000e+00 0.000000e+00 0.000000e+00 0.000000e+00 0.000000e+00 0.000000e+00 0.000000e+00 8.852074e-01 1.147927e-01 0.000000e+00
 0.000000e+00 0.000000e+00 0.000000e+00 0.000000e+00 0.000000e+00 0.000000e+00 0.000000e+00 0.000000e+00 9.011272e-01 9.887283e-02
 0.000000e+00 0.000000e+00 0.000000e+00 0.000000e+00 0.000000e+00 0.000000e+00 0.000000e+00 0.000000e+00 0.000000e+00 0.000000e+00
<ENDHMM>
~h "osm"
<BEGINHMM>
<NUMSTATES> 10
<STATE> 2
<MEAN> 16
 6.118438e+00 7.006094e+00 8.248069e+00 9.070330e+00 8.900210e+00 9.020602e+00 8.521531e+00 7.815158e+00 7.842059e+00 8.202454e+00 8.188237e+00 8.656390e+00 9.162482e+00 8.676006e+00 8.364473e+00 8.484403e+00
<VARIANCE> 16
 2.670618e-01 4.448021e-01 7.876274e-01 7.081952e-01 7.300983e-01 6.401680e-01 8.212662e-01 3.731013e-01 1.691623e-01 3.296140e-01 6.185693e-01 1.233754e+00 6.581845e-01 5.329561e-01 3.709653e-01 2.231777e-01
<GCONST> 1.805242e+01
<STATE> 3
<MEAN> 16
 6.568202e+00 7.693566e+00 8.968410e+00 1.007051e+01 1.051124e+01 1.044475e+01 9.875321e+00 9.016905e+00 8.717443e+00 9.111193e+00 9.808070e+00 1.045034e+01 1.085261e+01 9.982212e+00 8.596456e+00 8.584693e+00
<VARIANCE> 16
 2.975695e-01 4.618591e-01 4.619212e-01 4.656817e-01 5.848824e-01 4.325802e-01 8.196057e-01 3.812505e-01 2.514209e-01 6.238409e-01 1.201109e+00 1.519268e+00 7.031497e-01 5.172903e-01 6.277689e-01 2.473926e-01
<GCONST> 1.922254e+01
<STATE> 4
<MEAN> 16
 6.961309e+00 8.035704e+00 9.774242e+00 1.093604e+01 1.114150e+01 1.114625e+01 1.088122e+01 9.766820e+00 9.281688e+00 9.440682e+00 1.054827e+01 1.128046e+01 1.162563e+01 1.110295e+01 9.516438e+00 8.666869e+00
<VARIANCE> 16
 4.044560e-01 7.531949e-01 4.181569e-01 3.394125e-01 5.676731e-01 5.342886e-01 7.499141e-01 3.970322e-01 2.506656e-01 3.459918e-01 5.661190e-01 9.572223e-01 8.723866e-01 5.673122e-01 6.574616e-01 3.057252e-01
<GCONST> 1.849493e+01
<STATE> 5
<MEAN> 16
 8.653739e+00 9.497499e+00 1.044621e+01 1.110463e+01 1.083171e+01 1.125998e+01 1.142178e+01 1.111515e+01 1.102351e+01 1.170104e+01 1.226520e+01 1.287764e+01 1.291656e+01 1.266443e+01 1.204123e+01 1.202275e+01
<VARIANCE> 16
 2.175422e+00 3.102438e+00 2.298218e+00 1.713087e+00 1.804367e+00 1.829148e+00 1.214806e+00 1.067692e+00 1.257529e+00 1.828775e+00 1.612561e+00 1.305083e+00 1.265733e+00 2.477971e+00 4.200199e+00 3.695630e+00
<GCONST> 3.960228e+01
<STATE> 6
<MEAN> 16
 8.235397e+00 9.470590e+00 1.011052e+01 1.008336e+01 9.737139e+00 1.031436e+01 1.054950e+01 1.056444e+01 1.046154e+01 1.077537e+01 1.095643e+01 1.112131e+01 1.129585e+01 1.077763e+01 9.949784e+00 1.005337e+01
<VARIANCE> 16
 1.783910e+00 2.229071e+00 1.126267e+00 5.184710e-01 5.771828e-01 4.996999e-01 6.983377e-01 8.662145e-01 1.061756e+00 1.374463e+00 7.126647e-01 4.993094e-01 4.582179e-01 1.067430e+00 2.354021e+00 2.591256e+00
<GCONST> 2.894027e+01
<STATE> 7
<MEAN> 16
 6.301921e+00 7.037005e+00 7.803711e+00 8.504358e+00 8.287178e+00 8.598462e+00 8.956038e+00 9.063010e+00 9.100538e+00 9.181125e+00 9.694180e+00 1.041669e+01 1.114922e+01 1.146090e+01 1.122323e+01 1.102982e+01
<VARIANCE> 16
 7.876306e-01 1.814423e+00 1.236314e+00 1.129489e+00 8.355824e-01 6.398464e-01 6.689081e-01 5.392163e-01 4.891651e-01 3.068181e-01 1.931003e-01 2.634576e-01 4.662343e-01 1.272693e+00 2.145532e+00 1.956466e+00
<GCONST> 2.448870e+01
<STATE> 8
<MEAN> 16
 7.118653e+00 8.293444e+00 9.153457e+00 8.912877e+00 8.271976e+00 8.830982e+00 9.250067e+00 9.238451e+00 9.196555e+00 9.219259e+00 9.181499e+00 9.655594e+00 9.783650e+00 9.396243e+00 8.764001e+00 8.676366e+00
<VARIANCE> 16
 8.015494e-01 8.664318e-01 1.095635e+00 5.446717e-01 5.676411e-01 8.847108e-01 6.542159e-01 5.407068e-01 4.539458e-01 3.772973e-01 3.521181e-01 3.972288e-01 7.418471e-01 4.712172e-01 6.894964e-01 6.228120e-01
<GCONST> 2.116938e+01
<STATE> 9
<MEAN> 16
 6.150182e+00 7.188847e+00 7.750348e+00 7.899161e+00 7.502457e+00 7.823462e+00 7.980417e+00 7.985632e+00 8.100355e+00 8.323508e+00 8.639566e+00 9.285803e+00 9.719431e+00 9.303111e+00 8.783406e+00 8.792421e+00
<VARIANCE> 16
 3.132192e-01 9.690573e-01 1.214746e+00 8.988054e-01 3.366727e-01 3.949884e-01 5.035375e-01 4.561195e-01 2.978093e-01 3.582012e-01 5.417069e-01 9.331345e-01 9.872743e-01 7.798005e-01 1.009014e+00 8.758389e-01
<GCONST> 2.150763e+01
<TRANSP> 10
 0.000000e+00 1.000000e+00 0.000000e+00 0.000000e+00 0.000000e+00 0.000000e+00 0.000000e+00 0.000000e+00 0.000000e+00 0.000000e+00
 0.000000e+00 5.723122e-01 4.276878e-01 0.000000e+00 0.000000e+00 0.000000e+00 0.000000e+00 0.000000e+00 0.000000e+00 0.000000e+00
 0.000000e+00 0.000000e+00 5.736716e-01 4.263285e-01 0.000000e+00 0.000000e+00 0.000000e+00 0.000000e+00 0.000000e+00 0.000000e+00
 0.000000e+00 0.000000e+00 0.000000e+00 7.049750e-01 2.950250e-01 0.000000e+00 0.000000e+00 0.000000e+00 0.000000e+00 0.000000e+00
 0.000000e+00 0.000000e+00 0.000000e+00 0.000000e+00 8.481631e-01 1.518369e-01 0.000000e+00 0.000000e+00 0.000000e+00 0.000000e+00
 0.000000e+00 0.000000e+00 0.000000e+00 0.000000e+00 0.000000e+00 8.145365e-01 1.854636e-01 0.000000e+00 0.000000e+00 0.000000e+00
 0.000000e+00 0.000000e+00 0.000000e+00 0.000000e+00 0.000000e+00 0.000000e+00 8.535750e-01 1.464250e-01 0.000000e+00 0.000000e+00
 0.000000e+00 0.000000e+00 0.000000e+00 0.000000e+00 0.000000e+00 0.000000e+00 0.000000e+00 8.885285e-01 1.114716e-01 0.000000e+00
 0.000000e+00 0.000000e+00 0.000000e+00 0.000000e+00 0.000000e+00 0.000000e+00 0.000000e+00 0.000000e+00 9.635017e-01 3.649833e-02
 0.000000e+00 0.000000e+00 0.000000e+00 0.000000e+00 0.000000e+00 0.000000e+00 0.000000e+00 0.000000e+00 0.000000e+00 0.000000e+00
<ENDHMM>
~h "pet"
<BEGINHMM>
<NUMSTATES> 10
<STATE> 2
<MEAN> 16
 6.222654e+00 7.327388e+00 8.120365e+00 7.908849e+00 7.145952e+00 6.998539e+00 7.307238e+00 8.155602e+00 9.097595e+00 9.071867e+00 8.638403e+00 8.615964e+00 9.012853e+00 8.857850e+00 8.375585e+00 8.416773e+00
<VARIANCE> 16
 2.582809e-01 5.369563e-01 1.097426e+00 7.570723e-01 2.814236e-01 1.442136e-01 1.154971e-01 4.766491e-01 6.979083e-01 7.603233e-01 8.129426e-01 9.461126e-01 6.107755e-01 4.116122e-01 1.202614e-01 1.092399e-01
<GCONST> 1.453215e+01
<STATE> 3
<MEAN> 16
 6.497015e+00 7.575475e+00 9.330283e+00 9.537075e+00 8.643207e+00 8.016380e+00 8.308427e+00 9.164505e+00 1.042478e+01 1.118323e+01 1.114402e+01 1.121089e+01 1.119903e+01 1.032936e+01 8.816360e+00 8.424097e+00
<VARIANCE> 16
 2.879251e-01 3.211634e-01 4.665738e-01 3.086843e-01 5.208608e-01 2.720169e-01 1.724763e-01 4.165176e-01 2.963810e-01 2.446304e-01 5.226128e-01 9.253296e-01 7.727856e-01 1.354138e+00 4.881547e-01 3.850946e-01
<GCONST> 1.552330e+01
<STATE> 4
<MEAN> 16
 7.233974e+00 8.371915e+00 9.946525e+00 1.044693e+01 9.661024e+00 8.949734e+00 9.137886e+00 1.018303e+01 1.114088e+01 1.155209e+01 1.137803e+01 1.131020e+01 1.139762e+01 1.072780e+01 9.442703e+00 9.082271e+00
<VARIANCE> 16
 1.543053e+00 1.961235e+00 1.436909e+00 5.678363e-01 5.258840e-01 7.115281e-01 9.604203e-01 1.303496e+00 8.371831e-01 8.928820e-01 1.326465e+00 2.215757e+00 1.208122e+00 1.331842e+00 1.557079e+00 1.454508e+00
<GCONST> 3.163181e+01
<STATE> 5
<MEAN> 16
 7.677445e+00 8.791286e+00 1.056711e+01 1.093715e+01 1.021121e+01 9.387465e+00 9.376914e+00 1.009567e+01 1.113122e+01 1.183848e+01 1.176360e+01 1.156626e+01 1.173055e+01 1.113539e+01 1.002345e+01 9.355963e+00
<VARIANCE> 16
 1.225218e+00 1.496780e+00 1.553579e+00 6.602634e-01 6.782037e-01 6.102840e-01 7.446041e-01 9.713127e-01 7.801621e-01 7.410371e-01 1.004633e+00 1.246306e+00 6.511108e-01 8.032088e-01 1.577681e+00 9.995791e-01
<GCONST> 2.831593e+01
<STATE> 6
<MEAN> 16
 8.949934e+00 1.004679e+01 1.132835e+01 1.225847e+01 1.168474e+01 1.102286e+01 1.120648e+01 1.195409e+01 1.269571e+01 1.302785e+01 1.306544e+01 1.315944e+01 1.287476e+01 1.242665e+01 1.190068e+01 1.134126e+01
<VARIANCE> 16
 1.911548e+00 1.802430e+00 1.589767e+00 1.389030e+00 1.019460e+00 1.161733e+00 1.763168e+00 2.195891e+00 1.555190e+00 1.709104e+00 1.672265e+00 2.546390e+00 1.443777e+00 1.615527e+00 3.173232e+00 3.501181e+00
<GCONST> 3.863935e+01
<STATE> 7
<MEAN> 16
 6.595499e+00 7.472620e+00 8.896833e+00 1.014661e+01 1.000647e+01 9.308339e+00 9.500141e+00 1.026328e+01 1.080502e+01 1.072095e+01 1.082843e+01 1.092368e+01 1.118472e+01 1.076376e+01 9.628918e+00 9.276378e+00
<VARIANCE> 16
 2.523474e-01 3.961063e-01 4.827320e-01 5.170710e-01 8.139328e-01 7.326527e-01 5.215597e-01 4.482884e-01 8.455440e-01 9.760609e-01 1.070673e+00 9.223113e-01 1.324109e+00 1.795761e+00 2.431625e+00 2.242074e+00
<GCONST> 2.610247e+01
<STATE> 8
<MEAN> 16
 6.510376e+00 7.526091e+00 8.824114e+00 9.667184e+00 9.084900e+00 8.430539e+00 8.674372e+00 9.896469e+00 1.008812e+01 9.691452e+00 9.652081e+00 9.735472e+00 1.012346e+01 9.576910e+00 8.666680e+00 8.623815e+00
<VARIANCE> 16
 2.098888e-01 3.153416e-01 5.934146e-01 5.718423e-01 3.357569e-01 2.053300e-01 1.281249e-01 3.164117e-01 3.253917e-01 3.129107e-01 7.499883e-01 9.004553e-01 4.689429e-01 3.794396e-01 3.216377e-01 2.909312e-01
<GCONST> 1.295759e+01
<STATE> 9
<MEAN> 16
 5.731934e+00 6.189961e+00 6.956319e+00 7.754906e+00 7.666687e+00 7.436559e+00 7.501361e+00 7.983011e+00 8.380328e+00 8.279381e+00 8.477393e+00 8.665051e+00 8.852365e+00 8.669691e+00 8.527190e+00 8.558447e+00
<VARIANCE> 16
 2.166518e-01 2.825422e-01 4.775184e-01 6.011047e-01 3.964254e-01 3.833510e-01 4.027753e-01 4.216822e-01 4.392577e-01 4.266594e-01 4.584126e-01 4.665328e-01 4.163367e-01 6.496348e-01 8.544971e-01 5.874723e-01
<GCONST> 1.649393e+01
<TRANSP> 10
 0.000000e+00 1.000000e+00 0.000000e+00 0.000000e+00 0.000000e+00 0.000000e+00 0.000000e+00 0.000000e+00 0.000000e+00 0.000000e+00
 0.000000e+00 5.482983e-01 4.517017e-01 0.000000e+00 0.000000e+00 0.000000e+00 0.000000e+00 0.000000e+00 0.000000e+00 0.000000e+00
 0.000000e+00 0.000000e+00 7.820173e-01 2.179827e-01 0.000000e+00 0.000000e+00 0.000000e+00 0.000000e+00 0.000000e+00 0.000000e+00
 0.000000e+00 0.000000e+00 0.000000e+00 1.585287e-02 9.841471e-01 0.000000e+00 0.000000e+00 0.000000e+00 0.000000e+00 0.000000e+00
 0.000000e+00 0.000000e+00 0.000000e+00 0.000000e+00 5.374768e-01 4.625232e-01 0.000000e+00 0.000000e+00 0.000000e+00 0.000000e+00
 0.000000e+00 0.000000e+00 0.000000e+00 0.000000e+00 0.000000e+00 8.022109e-01 1.977891e-01 0.000000e+00 0.000000e+00 0.000000e+00
 0.000000e+00 0.000000e+00 0.000000e+00 0.000000e+00 0.000000e+00 0.000000e+00 9.080644e-01 9.193562e-02 0.000000e+00 0.000000e+00
 0.000000e+00 0.000000e+00 0.000000e+00 0.000000e+00 0.000000e+00 0.000000e+00 0.000000e+00 7.807913e-01 2.192086e-01 0.000000e+00
 0.000000e+00 0.000000e+00 0.000000e+00 0.000000e+00 0.000000e+00 0.000000e+00 0.000000e+00 0.000000e+00 9.026877e-01 9.731221e-02
 0.000000e+00 0.000000e+00 0.000000e+00 0.000000e+00 0.000000e+00 0.000000e+00 0.000000e+00 0.000000e+00 0.000000e+00 0.000000e+00
<ENDHMM>
~h "sil"
<BEGINHMM>
<NUMSTATES> 5
<STATE> 2
<MEAN> 16
 5.563970e+00 5.859966e+00 6.234470e+00 6.497458e+00 6.585768e+00 6.902006e+00 7.094754e+00 7.294889e+00 7.491100e+00 7.538913e+00 7.728192e+00 7.937214e+00 8.159990e+00 8.290765e+00 8.438957e+00 8.631975e+00
<VARIANCE> 16
 1.879473e-01 1.259691e-01 1.295598e-01 1.478392e-01 1.061162e-01 1.008555e-01 1.092413e-01 1.201392e-01 9.190551e-02 8.348407e-02 8.852252e-02 1.022982e-01 1.175690e-01 1.147121e-01 1.439697e-01 1.608917e-01
<GCONST> -4.808802e+00
<STATE> 3
<MEAN> 16
 5.636737e+00 5.743897e+00 5.912766e+00 6.100586e+00 6.265046e+00 6.442481e+00 6.598474e+00 6.763544e+00 7.114880e+00 7.024014e+00 7.177073e+00 7.354599e+00 7.557191e+00 7.652405e+00 7.817554e+00 8.020427e+00
<VARIANCE> 16
 1.164392e-01 1.038317e-01 9.063108e-02 7.316203e-02 6.451146e-02 5.775331e-02 5.050072e-02 4.301582e-02 3.210438e-02 3.269726e-02 2.926249e-02 2.792230e-02 3.389594e-02 2.555019e-02 2.109806e-02 3.747672e-02
<GCONST> -1.991300e+01
<STATE> 4
<MEAN> 16
 5.528680e+00 5.923576e+00 6.166715e+00 6.287243e+00 6.298573e+00 6.487127e+00 6.665827e+00 6.824515e+00 7.105041e+00 7.157300e+00 7.354445e+00 7.599482e+00 7.902171e+00 8.023329e+00 8.092687e+00 8.184042e+00
<VARIANCE> 16
 5.741759e-01 5.298458e-01 6.332645e-01 5.531810e-01 4.434978e-01 3.762653e-01 4.227309e-01 5.630634e-01 6.702868e-01 5.883859e-01 6.801698e-01 7.238559e-01 7.705603e-01 8.346933e-01 8.726070e-01 7.506977e-01
<GCONST> 2.143785e+01
<TRANSP> 5
 0.000000e+00 1.000000e+00 0.000000e+00 0.000000e+00 0.000000e+00
 0.000000e+00 9.559618e-01 4.403822e-02 0.000000e+00 0.000000e+00
 0.000000e+00 0.000000e+00 9.785807e-01 2.141928e-02 0.000000e+00
 0.000000e+00 0.000000e+00 0.000000e+00 6.877642e-01 3.122358e-01
 0.000000e+00 0.000000e+00 0.000000e+00 0.000000e+00 0.000000e+00
<ENDHMM>
~h "tri"
<BEGINHMM>
<NUMSTATES> 10
<STATE> 2
<MEAN> 16
 5.687375e+00 5.859780e+00 6.328504e+00 6.585937e+00 6.733556e+00 6.977649e+00 7.348957e+00 7.846365e+00 8.316823e+00 8.454412e+00 8.689718e+00 9.516667e+00 1.004666e+01 1.006111e+01 9.349867e+00 8.971527e+00
<VARIANCE> 16
 1.445465e-01 1.022018e-01 1.407856e-01 2.292073e-01 2.028164e-01 2.523558e-01 2.919862e-01 2.656556e-01 2.799626e-01 2.862247e-01 3.796375e-01 5.577999e-01 8.208104e-01 9.874433e-01 5.481799e-01 3.170826e-01
<GCONST> 1.019224e+01
<STATE> 3
<MEAN> 16
 5.722861e+00 5.839557e+00 6.165074e+00 6.496503e+00 6.614529e+00 6.803069e+00 7.091744e+00 7.843590e+00 8.482361e+00 8.827271e+00 9.727109e+00 1.082365e+01 1.157491e+01 1.170105e+01 1.096257e+01 1.016059e+01
<VARIANCE> 16
 1.407245e-01 9.901021e-02 1.201460e-01 1.852377e-01 1.331376e-01 1.839338e-01 1.946145e-01 3.419096e-01 3.138842e-01 2.661505e-01 5.287251e-01 8.058208e-01 7.548860e-01 6.311369e-01 5.856189e-01 5.000184e-01
<GCONST> 9.602670e+00
<STATE> 4
<MEAN> 16
 6.087440e+00 6.293245e+00 6.654645e+00 6.984347e+00 7.051792e+00 7.339992e+00 7.635226e+00 8.580676e+00 9.684724e+00 9.778079e+00 1.057472e+01 1.131318e+01 1.189850e+01 1.191456e+01 1.115503e+01 9.892678e+00
<VARIANCE> 16
 2.503674e-01 2.045683e-01 4.892206e-01 6.339162e-01 4.866732e-01 5.560007e-01 6.461612e-01 5.093384e-01 4.210094e-01 4.672566e-01 7.710751e-01 8.332940e-01 8.089595e-01 7.975233e-01 6.982557e-01 3.438307e-01
<GCONST> 1.891173e+01
<STATE> 5
<MEAN> 16
 6.320056e+00 7.139850e+00 8.120140e+00 8.649652e+00 8.132445e+00 8.359991e+00 8.729342e+00 9.269697e+00 1.039074e+01 1.053878e+01 1.123401e+01 1.204888e+01 1.263006e+01 1.261122e+01 1.260387e+01 1.219324e+01
<VARIANCE> 16
 2.939947e-01 4.947016e-01 5.002996e-01 6.039333e-01 5.634122e-01 8.675044e-01 8.778787e-01 4.323526e-01 4.444959e-01 5.357293e-01 1.116763e+00 1.739730e+00 2.057451e+00 2.037746e+00 3.347516e+00 4.157633e+00
<GCONST> 2.789226e+01
<STATE> 6
<MEAN> 16
 8.529207e+00 9.603799e+00 1.068245e+01 1.081074e+01 9.968252e+00 9.924028e+00 1.029948e+01 1.106031e+01 1.187715e+01 1.252838e+01 1.292864e+01 1.322427e+01 1.310968e+01 1.286950e+01 1.256558e+01 1.214713e+01
<VARIANCE> 16
 2.016750e+00 2.160003e+00 2.967948e+00 2.404961e+00 1.448494e+00 1.516271e+00 1.756988e+00 1.869043e+00 1.960675e+00 1.761942e+00 1.695769e+00 2.292590e+00 1.774604e+00 2.595184e+00 4.099361e+00 3.848138e+00
<GCONST> 4.170203e+01
<STATE> 7
<MEAN> 16
 6.691777e+00 7.950712e+00 9.580011e+00 1.009330e+01 8.767973e+00 8.390674e+00 8.573548e+00 9.152410e+00 1.041143e+01 1.142637e+01 1.154242e+01 1.143653e+01 1.177292e+01 1.117864e+01 9.379929e+00 8.743220e+00
<VARIANCE> 16
 7.864998e-01 6.399795e-01 1.123555e+00 2.528997e-01 7.545002e-01 5.917742e-01 3.229679e-01 2.526551e-01 4.414853e-01 2.158714e-01 3.207221e-01 4.532492e-01 4.361295e-01 4.225533e-01 4.691018e-01 3.702586e-01
<GCONST> 1.642810e+01
<STATE> 8
<MEAN> 16
 6.636395e+00 8.133259e+00 9.277783e+00 8.923444e+00 7.890566e+00 7.496653e+00 7.767621e+00 8.534453e+00 9.846066e+00 1.047238e+01 1.002815e+01 9.954735e+00 1.023862e+01 9.593745e+00 8.740724e+00 8.576220e+00
<VARIANCE> 16
 2.392847e-01 2.337717e-01 3.299482e-01 3.044496e-01 3.112142e-01 2.511517e-01 1.556976e-01 2.810066e-01 7.256035e-01 4.000049e-01 9.565706e-01 9.834474e-01 9.330327e-01 7.509907e-01 1.831959e-01 1.537130e-01
<GCONST> 1.332260e+01
<STATE> 9
<MEAN> 16
 6.106917e+00 7.001997e+00 7.794741e+00 7.684857e+00 7.146529e+00 7.066782e+00 7.111677e+00 7.441870e+00 8.356632e+00 8.865211e+00 8.718112e+00 8.709080e+00 9.102614e+00 8.705660e+00 8.226326e+00 8.288635e+00
<VARIANCE> 16
 2.596017e-01 6.727881e-01 8.488650e-01 5.199496e-01 3.254333e-01 3.286748e-01 2.388102e-01 3.320302e-01 6.892440e-01 4.365990e-01 4.193810e-01 3.894729e-01 4.774469e-01 3.124412e-01 1.589009e-01 1.393311e-01
<GCONST> 1.334747e+01
<TRANSP> 10
 0.000000e+00 1.000000e+00 0.000000e+00 0.000000e+00 0.000000e+00 0.000000e+00 0.000000e+00 0.000000e+00 0.000000e+00 0.000000e+00
 0.000000e+00 7.092374e-01 2.907626e-01 0.000000e+00 0.000000e+00 0.000000e+00 0.000000e+00 0.000000e+00 0.000000e+00 0.000000e+00
 0.000000e+00 0.000000e+00 7.989079e-01 2.010921e-01 0.000000e+00 0.000000e+00 0.000000e+00 0.000000e+00 0.000000e+00 0.000000e+00
 0.000000e+00 0.000000e+00 0.000000e+00 5.964337e-01 4.035663e-01 0.000000e+00 0.000000e+00 0.000000e+00 0.000000e+00 0.000000e+00
 0.000000e+00 0.000000e+00 0.000000e+00 0.000000e+00 6.498547e-01 3.501454e-01 0.000000e+00 0.000000e+00 0.000000e+00 0.000000e+00
 0.000000e+00 0.000000e+00 0.000000e+00 0.000000e+00 0.000000e+00 8.254460e-01 1.745541e-01 0.000000e+00 0.000000e+00 0.000000e+00
 0.000000e+00 0.000000e+00 0.000000e+00 0.000000e+00 0.000000e+00 0.000000e+00 8.937386e-01 1.062614e-01 0.000000e+00 0.000000e+00
 0.000000e+00 0.000000e+00 0.000000e+00 0.000000e+00 0.000000e+00 0.000000e+00 0.000000e+00 8.646451e-01 1.353549e-01 0.000000e+00
 0.000000e+00 0.000000e+00 0.000000e+00 0.000000e+00 0.000000e+00 0.000000e+00 0.000000e+00 0.000000e+00 8.560961e-01 1.439039e-01
 0.000000e+00 0.000000e+00 0.000000e+00 0.000000e+00 0.000000e+00 0.000000e+00 0.000000e+00 0.000000e+00 0.000000e+00 0.000000e+00
<ENDHMM>
~h "nula"
<BEGINHMM>
<NUMSTATES> 10
<STATE> 2
<MEAN> 16
 6.529587e+00 7.910565e+00 8.165105e+00 8.144639e+00 7.526814e+00 7.424069e+00 7.261684e+00 7.583512e+00 7.846694e+00 8.034119e+00 8.019281e+00 8.005823e+00 8.549153e+00 8.425282e+00 8.073315e+00 8.188673e+00
<VARIANCE> 16
 2.579844e-01 2.400326e-01 4.616762e-01 4.108341e-01 3.409111e-01 4.234622e-01 1.438911e-01 2.409124e-01 1.507503e-01 4.386728e-01 4.533388e-01 3.227320e-01 4.760716e-01 1.836842e-01 1.322663e-01 1.527854e-01
<GCONST> 8.687729e+00
<STATE> 3
<MEAN> 16
 6.876099e+00 8.348479e+00 9.147484e+00 9.111079e+00 8.437025e+00 8.492265e+00 8.102442e+00 8.263283e+00 8.521289e+00 8.796447e+00 8.615295e+00 8.349678e+00 8.407442e+00 8.293946e+00 8.179962e+00 8.277410e+00
<VARIANCE> 16
 3.731808e-01 3.896732e-01 3.266909e-01 3.375223e-01 2.862816e-01 5.160537e-01 2.119544e-01 2.375484e-01 1.718982e-01 3.317776e-01 5.970311e-01 4.776858e-01 4.527302e-01 2.937476e-01 3.699385e-01 3.273586e-01
<GCONST> 1.212459e+01
<STATE> 4
<MEAN> 16
 6.536034e+00 8.152202e+00 8.694956e+00 9.764580e+00 8.861625e+00 8.890847e+00 8.938238e+00 8.747954e+00 8.663136e+00 8.988833e+00 9.662297e+00 9.839965e+00 9.613491e+00 8.624850e+00 8.165788e+00 8.250223e+00
<VARIANCE> 16
 1.011309e+00 6.825672e-01 1.033163e+00 1.813266e-01 2.011323e-01 3.508228e-01 2.508358e-01 4.414887e-01 3.926758e-01 5.068021e-01 7.108586e-01 7.777879e-01 7.570464e-01 2.409896e-01 2.282659e-01 1.787712e-01
<GCONST> 1.540152e+01
<STATE> 5
<MEAN> 16
 6.894414e+00 8.241227e+00 9.630453e+00 1.011173e+01 9.910547e+00 9.944681e+00 9.857025e+00 9.190951e+00 9.111238e+00 9.413277e+00 9.346336e+00 9.569264e+00 9.667316e+00 9.158781e+00 8.429546e+00 8.324340e+00
<VARIANCE> 16
 4.815720e-01 6.022505e-01 4.971536e-01 6.049041e-02 2.466877e-01 2.397908e-01 2.622808e-01 3.736047e-01 3.457111e-01 4.867941e-01 1.275292e+00 1.013907e+00 7.703149e-01 3.070768e-01 2.104039e-01 1.589790e-01
<GCONST> 1.314921e+01
<STATE> 6
<MEAN> 16
 9.577902e+00 1.077485e+01 1.155598e+01 1.212194e+01 1.189821e+01 1.210263e+01 1.210957e+01 1.151818e+01 1.138409e+01 1.194676e+01 1.242308e+01 1.241117e+01 1.244287e+01 1.164953e+01 1.075695e+01 1.075972e+01
<VARIANCE> 16
 1.986118e+00 1.889678e+00 1.114113e+00 1.385518e+00 1.858056e+00 2.361574e+00 1.295177e+00 9.934478e-01 1.202260e+00 1.469665e+00 1.433579e+00 1.440778e+00 1.366424e+00 1.698668e+00 1.916252e+00 1.755887e+00
<GCONST> 3.624367e+01
<STATE> 7
<MEAN> 16
 8.202722e+00 9.310308e+00 1.033992e+01 1.112705e+01 1.091720e+01 1.103060e+01 1.110883e+01 1.053655e+01 1.005815e+01 9.918664e+00 1.059818e+01 1.095504e+01 1.056309e+01 1.061970e+01 1.041707e+01 9.720791e+00
<VARIANCE> 16
 6.807251e-01 8.481987e-01 1.539037e+00 7.104934e-01 7.145999e-01 6.041114e-01 5.197586e-01 6.339272e-01 2.991264e-01 3.992062e-01 5.868741e-01 7.295270e-01 1.218232e+00 8.498005e-01 9.938115e-01 3.866486e-01
<GCONST> 2.310065e+01
<STATE> 8
<MEAN> 16
 6.527218e+00 7.454626e+00 8.550320e+00 9.932315e+00 1.055856e+01 1.073149e+01 1.107827e+01 1.063950e+01 9.655892e+00 1.003347e+01 1.066086e+01 1.081163e+01 1.142058e+01 1.043945e+01 8.693149e+00 8.392787e+00
<VARIANCE> 16
 2.454096e-01 2.462907e-01 5.513114e-01 2.683115e-01 5.572563e-01 2.894367e-01 5.922859e-01 9.721068e-01 3.320859e-01 5.047628e-01 7.458453e-01 6.156859e-01 9.365699e-01 6.208262e-01 2.386419e-01 1.568960e-01
<GCONST> 1.592082e+01
<STATE> 9
<MEAN> 16
 6.025755e+00 6.690361e+00 7.025784e+00 8.103677e+00 8.630644e+00 8.765874e+00 8.777271e+00 8.431129e+00 7.982338e+00 8.102222e+00 8.299566e+00 8.518765e+00 8.859226e+00 8.587833e+00 8.199727e+00 8.218303e+00
<VARIANCE> 16
 2.986613e-01 6.539918e-01 5.279307e-01 7.501609e-01 5.516261e-01 5.020725e-01 4.968116e-01 5.717395e-01 3.006714e-01 3.269693e-01 4.378791e-01 4.316162e-01 4.101642e-01 2.775486e-01 2.433125e-01 1.731893e-01
<GCONST> 1.497876e+01
<TRANSP> 10
 0.000000e+00 1.000000e+00 0.000000e+00 0.000000e+00 0.000000e+00 0.000000e+00 0.000000e+00 0.000000e+00 0.000000e+00 0.000000e+00
 0.000000e+00 7.593014e-01 2.406986e-01 0.000000e+00 0.000000e+00 0.000000e+00 0.000000e+00 0.000000e+00 0.000000e+00 0.000000e+00
 0.000000e+00 0.000000e+00 6.644006e-01 3.355994e-01 0.000000e+00 0.000000e+00 0.000000e+00 0.000000e+00 0.000000e+00 0.000000e+00
 0.000000e+00 0.000000e+00 0.000000e+00 6.848288e-01 3.151712e-01 0.000000e+00 0.000000e+00 0.000000e+00 0.000000e+00 0.000000e+00
 0.000000e+00 0.000000e+00 0.000000e+00 0.000000e+00 8.639633e-01 1.360367e-01 0.000000e+00 0.000000e+00 0.000000e+00 0.000000e+00
 0.000000e+00 0.000000e+00 0.000000e+00 0.000000e+00 0.000000e+00 8.457765e-01 1.542235e-01 0.000000e+00 0.000000e+00 0.000000e+00
 0.000000e+00 0.000000e+00 0.000000e+00 0.000000e+00 0.000000e+00 0.000000e+00 8.415542e-01 1.584457e-01 0.000000e+00 0.000000e+00
 0.000000e+00 0.000000e+00 0.000000e+00 0.000000e+00 0.000000e+00 0.000000e+00 0.000000e+00 8.951580e-01 1.048420e-01 0.000000e+00
 0.000000e+00 0.000000e+00 0.000000e+00 0.000000e+00 0.000000e+00 0.000000e+00 0.000000e+00 0.000000e+00 8.926042e-01 1.073958e-01
 0.000000e+00 0.000000e+00 0.000000e+00 0.000000e+00 0.000000e+00 0.000000e+00 0.000000e+00 0.000000e+00 0.000000e+00 0.000000e+00
<ENDHMM>
~h "devet"
<BEGINHMM>
<NUMSTATES> 10
<STATE> 2
<MEAN> 16
 7.224912e+00 8.178896e+00 8.272201e+00 8.148452e+00 7.371868e+00 7.108540e+00 7.299656e+00 7.746930e+00 8.179667e+00 8.148902e+00 8.412647e+00 8.515006e+00 8.817675e+00 8.840034e+00 8.681582e+00 8.767494e+00
<VARIANCE> 16
 1.261382e+00 1.442050e+00 8.804141e-01 5.951774e-01 2.165579e-01 1.050914e-01 2.204195e-01 3.213456e-01 3.551068e-01 2.857662e-01 4.243755e-01 6.043059e-01 6.807849e-01 7.701908e-01 1.197139e+00 1.264307e+00
<GCONST> 1.904787e+01
<STATE> 3
<MEAN> 16
 6.917051e+00 8.048841e+00 8.899957e+00 9.116968e+00 8.049218e+00 7.663115e+00 8.040690e+00 8.891749e+00 9.436763e+00 9.402797e+00 9.359247e+00 9.600734e+00 9.895728e+00 9.363569e+00 8.721189e+00 8.628061e+00
<VARIANCE> 16
 1.356644e+00 1.418888e+00 5.904093e-01 3.132570e-01 2.584527e-01 2.769746e-01 2.027432e-01 6.582931e-01 9.419150e-01 7.464262e-01 1.240925e+00 1.227816e+00 1.305760e+00 9.803857e-01 3.716179e-01 2.792451e-01
<GCONST> 2.177267e+01
<STATE> 4
<MEAN> 16
 6.973443e+00 8.045210e+00 9.336537e+00 9.718140e+00 9.073724e+00 8.445813e+00 8.748859e+00 9.403311e+00 1.016774e+01 1.023290e+01 1.016744e+01 1.018243e+01 1.054453e+01 9.886053e+00 8.895547e+00 8.535478e+00
<VARIANCE> 16
 4.917059e-01 5.643848e-01 4.395168e-01 5.169246e-01 7.112576e-01 4.490282e-01 2.943254e-01 5.260692e-01 7.218652e-01 7.715864e-01 1.252951e+00 1.352474e+00 1.002647e+00 1.120072e+00 6.435434e-01 4.727776e-01
<GCONST> 2.250377e+01
<STATE> 5
<MEAN> 16
 7.392409e+00 8.526063e+00 9.911765e+00 1.058095e+01 1.016513e+01 9.345209e+00 9.532142e+00 1.015703e+01 1.127906e+01 1.145468e+01 1.161621e+01 1.153332e+01 1.184425e+01 1.130722e+01 9.695745e+00 9.139927e+00
<VARIANCE> 16
 5.797188e-01 8.074561e-01 6.776552e-01 3.521794e-01 7.100798e-01 3.657135e-01 2.709647e-01 2.338585e-01 2.380545e-01 3.745730e-01 6.450028e-01 6.158265e-01 5.812514e-01 6.885859e-01 1.142659e+00 7.495573e-01
<GCONST> 1.869601e+01
<STATE> 6
<MEAN> 16
 9.642194e+00 1.065147e+01 1.188368e+01 1.237434e+01 1.138684e+01 1.094712e+01 1.149424e+01 1.247369e+01 1.278857e+01 1.308595e+01 1.319595e+01 1.349123e+01 1.301626e+01 1.221931e+01 1.157173e+01 1.114963e+01
<VARIANCE> 16
 1.785689e+00 1.484480e+00 1.178656e+00 1.208876e+00 8.239733e-01 8.910016e-01 1.199507e+00 1.404797e+00 9.948719e-01 1.089385e+00 1.438033e+00 1.964713e+00 1.227088e+00 1.221236e+00 2.437377e+00 2.831381e+00
<GCONST> 3.440303e+01
<STATE> 7
<MEAN> 16
 7.284196e+00 8.064852e+00 9.364739e+00 1.009621e+01 9.368795e+00 8.927531e+00 9.279445e+00 9.931064e+00 1.022007e+01 1.025617e+01 1.047258e+01 1.061657e+01 1.073245e+01 1.076342e+01 1.035818e+01 9.840542e+00
<VARIANCE> 16
 8.077487e-01 1.270841e+00 1.334887e+00 1.138961e+00 1.103330e+00 7.886074e-01 7.016904e-01 5.006060e-01 8.159286e-01 1.294993e+00 1.542253e+00 1.260081e+00 1.433983e+00 2.303054e+00 2.406129e+00 1.692927e+00
<GCONST> 3.198449e+01
<STATE> 8
<MEAN> 16
 6.465137e+00 7.488358e+00 8.890917e+00 9.595670e+00 9.456234e+00 8.656602e+00 8.947493e+00 9.704368e+00 1.076559e+01 1.098110e+01 1.128727e+01 1.130124e+01 1.158858e+01 1.089137e+01 8.786630e+00 8.362396e+00
<VARIANCE> 16
 1.633819e-01 2.191679e-01 6.677318e-01 5.985511e-01 1.004477e+00 5.480475e-01 2.833517e-01 3.746306e-01 4.506355e-01 4.655485e-01 5.190402e-01 5.741425e-01 5.771089e-01 6.975523e-01 3.171696e-01 1.307125e-01
<GCONST> 1.545427e+01
<STATE> 9
<MEAN> 16
 6.164473e+00 7.228986e+00 8.499847e+00 8.848330e+00 8.132651e+00 7.668675e+00 7.973424e+00 9.075741e+00 9.492271e+00 9.406347e+00 9.105997e+00 9.443751e+00 9.645295e+00 9.006457e+00 8.380068e+00 8.420663e+00
<VARIANCE> 16
 1.534955e-01 4.995639e-01 9.765133e-01 9.213258e-01 6.374853e-01 3.393023e-01 3.105829e-01 7.344267e-01 7.313770e-01 8.615681e-01 1.095120e+00 1.705122e+00 7.672428e-01 4.336058e-01 2.307645e-01 2.134614e-01
<GCONST> 1.977461e+01
<TRANSP> 10
 0.000000e+00 1.000000e+00 0.000000e+00 0.000000e+00 0.000000e+00 0.000000e+00 0.000000e+00 0.000000e+00 0.000000e+00 0.000000e+00
 0.000000e+00 5.920696e-01 4.079305e-01 0.000000e+00 0.000000e+00 0.000000e+00 0.000000e+00 0.000000e+00 0.000000e+00 0.000000e+00
 0.000000e+00 0.000000e+00 3.316261e-01 6.683738e-01 0.000000e+00 0.000000e+00 0.000000e+00 0.000000e+00 0.000000e+00 0.000000e+00
 0.000000e+00 0.000000e+00 0.000000e+00 4.645673e-01 5.354327e-01 0.000000e+00 0.000000e+00 0.000000e+00 0.000000e+00 0.000000e+00
 0.000000e+00 0.000000e+00 0.000000e+00 0.000000e+00 7.400572e-01 2.599429e-01 0.000000e+00 0.000000e+00 0.000000e+00 0.000000e+00
 0.000000e+00 0.000000e+00 0.000000e+00 0.000000e+00 0.000000e+00 8.452896e-01 1.547104e-01 0.000000e+00 0.000000e+00 0.000000e+00
 0.000000e+00 0.000000e+00 0.000000e+00 0.000000e+00 0.000000e+00 0.000000e+00 8.745068e-01 1.254932e-01 0.000000e+00 0.000000e+00
 0.000000e+00 0.000000e+00 0.000000e+00 0.000000e+00 0.000000e+00 0.000000e+00 0.000000e+00 9.336682e-01 6.633183e-02 0.000000e+00
 0.000000e+00 0.000000e+00 0.000000e+00 0.000000e+00 0.000000e+00 0.000000e+00 0.000000e+00 0.000000e+00 9.196932e-01 8.030676e-02
 0.000000e+00 0.000000e+00 0.000000e+00 0.000000e+00 0.000000e+00 0.000000e+00 0.000000e+00 0.000000e+00 0.000000e+00 0.000000e+00
<ENDHMM>
~h "jedna"
<BEGINHMM>
<NUMSTATES> 10
<STATE> 2
<MEAN> 16
 6.271019e+00 7.283271e+00 7.702180e+00 7.472863e+00 6.908270e+00 6.780305e+00 6.935992e+00 7.473931e+00 8.164661e+00 8.475030e+00 8.402760e+00 8.442753e+00 8.819048e+00 8.522611e+00 8.311815e+00 8.418528e+00
<VARIANCE> 16
 2.100278e-01 4.212964e-01 7.123922e-01 5.439507e-01 2.528348e-01 1.355409e-01 1.592189e-01 5.593121e-01 8.722114e-01 6.495161e-01 6.336848e-01 9.174073e-01 6.464587e-01 3.526299e-01 2.377480e-01 2.042652e-01
<GCONST> 1.462693e+01
<STATE> 3
<MEAN> 16
 6.422440e+00 7.604615e+00 8.260474e+00 8.282985e+00 7.625494e+00 7.346158e+00 7.377521e+00 8.023738e+00 8.774385e+00 9.477056e+00 9.946488e+00 1.008392e+01 1.028577e+01 9.517554e+00 8.225067e+00 8.113716e+00
<VARIANCE> 16
 2.070206e-01 4.159496e-01 6.732126e-01 6.167427e-01 3.075508e-01 3.290562e-01 4.229383e-01 6.651385e-01 1.017575e+00 1.137079e+00 1.167885e+00 1.587817e+00 1.555071e+00 1.170260e+00 2.309391e-01 8.494179e-02
<GCONST> 1.994677e+01
<STATE> 4
<MEAN> 16
 6.822851e+00 8.135191e+00 9.509535e+00 9.309452e+00 8.247210e+00 7.802906e+00 8.005768e+00 8.636415e+00 9.401515e+00 1.033700e+01 1.062333e+01 1.086534e+01 1.091901e+01 9.957687e+00 8.874668e+00 8.556593e+00
<VARIANCE> 16
 5.284396e-01 6.642531e-01 5.716438e-01 5.372685e-01 1.482285e-01 9.850758e-02 2.777456e-01 5.269831e-01 7.016916e-01 7.210301e-01 9.471528e-01 1.144695e+00 9.263080e-01 1.004295e+00 5.639406e-01 1.696456e-01
<GCONST> 1.801076e+01
<STATE> 5
<MEAN> 16
 6.893208e+00 8.099585e+00 9.903995e+00 1.024905e+01 9.802696e+00 8.958588e+00 9.023776e+00 9.537985e+00 1.051033e+01 1.150461e+01 1.158661e+01 1.164261e+01 1.197066e+01 1.119110e+01 9.420065e+00 8.851304e+00
<VARIANCE> 16
 7.055337e-01 8.579495e-01 5.766439e-01 2.997172e-01 6.750348e-01 2.664294e-01 2.492251e-01 3.275252e-01 4.474944e-01 6.713303e-01 9.062012e-01 7.145476e-01 6.306839e-01 7.783913e-01 8.414356e-01 2.509972e-01
<GCONST> 1.902373e+01
<STATE> 6
<MEAN> 16
 9.414089e+00 1.060343e+01 1.133685e+01 1.156697e+01 1.065882e+01 1.048714e+01 1.108151e+01 1.154618e+01 1.190780e+01 1.222431e+01 1.265132e+01 1.277386e+01 1.240851e+01 1.135613e+01 1.068580e+01 1.069025e+01
<VARIANCE> 16
 1.337675e+00 1.360117e+00 1.123950e+00 1.104224e+00 1.569223e+00 2.103388e+00 2.317693e+00 1.510188e+00 1.246990e+00 1.723071e+00 2.044967e+00 2.332224e+00 1.466910e+00 1.502973e+00 2.090403e+00 1.948018e+00
<GCONST> 3.718929e+01
<STATE> 7
<MEAN> 16
 8.187183e+00 9.102669e+00 9.897310e+00 1.040405e+01 9.688381e+00 9.398708e+00 9.622852e+00 1.023718e+01 1.053596e+01 9.993888e+00 1.017387e+01 1.044149e+01 1.027837e+01 9.982899e+00 9.647758e+00 9.105650e+00
<VARIANCE> 16
 5.411547e-01 5.851717e-01 7.906680e-01 5.591216e-01 7.163277e-01 1.281558e+00 1.419370e+00 1.633573e+00 1.027443e+00 6.725021e-01 8.275698e-01 1.422327e+00 1.493579e+00 1.017389e+00 8.998539e-01 3.353168e-01
<GCONST> 2.720888e+01
<STATE> 8
<MEAN> 16
 6.643476e+00 7.684227e+00 8.542611e+00 9.104346e+00 9.431913e+00 9.582438e+00 9.786999e+00 1.033917e+01 1.006834e+01 9.886560e+00 1.028428e+01 1.036837e+01 1.096421e+01 1.019960e+01 8.439909e+00 8.211332e+00
<VARIANCE> 16
 1.742343e-01 3.706360e-01 4.797516e-01 6.081469e-01 1.109577e+00 1.938247e+00 2.428945e+00 2.411066e+00 6.816911e-01 4.855300e-01 9.153550e-01 1.060400e+00 9.712328e-01 8.899686e-01 2.820983e-01 1.101722e-01
<GCONST> 2.321515e+01
<STATE> 9
<MEAN> 16
 6.303380e+00 7.286207e+00 7.800242e+00 8.485179e+00 8.681505e+00 8.554056e+00 8.890467e+00 8.901671e+00 8.612405e+00 8.708751e+00 8.592772e+00 8.992430e+00 9.197186e+00 8.703942e+00 8.144371e+00 8.238600e+00
<VARIANCE> 16
 1.810663e-01 4.604432e-01 7.319390e-01 8.671626e-01 1.411426e+00 1.018348e+00 1.044750e+00 6.147094e-01 4.616089e-01 6.265247e-01 6.123093e-01 7.994463e-01 5.648605e-01 2.650875e-01 1.047015e-01 9.081083e-02
<GCONST> 1.787749e+01
<TRANSP> 10
 0.000000e+00 1.000000e+00 0.000000e+00 0.000000e+00 0.000000e+00 0.000000e+00 0.000000e+00 0.000000e+00 0.000000e+00 0.000000e+00
 0.000000e+00 7.869507e-01 2.130493e-01 0.000000e+00 0.000000e+00 0.000000e+00 0.000000e+00 0.000000e+00 0.000000e+00 0.000000e+00
 0.000000e+00 0.000000e+00 8.164490e-01 1.835510e-01 0.000000e+00 0.000000e+00 0.000000e+00 0.000000e+00 0.000000e+00 0.000000e+00
 0.000000e+00 0.000000e+00 0.000000e+00 3.550632e-01 6.449368e-01 0.000000e+00 0.000000e+00 0.000000e+00 0.000000e+00 0.000000e+00
 0.000000e+00 0.000000e+00 0.000000e+00 0.000000e+00 6.690462e-01 3.309539e-01 0.000000e+00 0.000000e+00 0.000000e+00 0.000000e+00
 0.000000e+00 0.000000e+00 0.000000e+00 0.000000e+00 0.000000e+00 8.685097e-01 1.314903e-01 0.000000e+00 0.000000e+00 0.000000e+00
 0.000000e+00 0.000000e+00 0.000000e+00 0.000000e+00 0.000000e+00 0.000000e+00 8.308541e-01 1.691460e-01 0.000000e+00 0.000000e+00
 0.000000e+00 0.000000e+00 0.000000e+00 0.000000e+00 0.000000e+00 0.000000e+00 0.000000e+00 9.244711e-01 7.552882e-02 0.000000e+00
 0.000000e+00 0.000000e+00 0.000000e+00 0.000000e+00 0.000000e+00 0.000000e+00 0.000000e+00 0.000000e+00 9.358603e-01 6.413968e-02
 0.000000e+00 0.000000e+00 0.000000e+00 0.000000e+00 0.000000e+00 0.000000e+00 0.000000e+00 0.000000e+00 0.000000e+00 0.000000e+00
<ENDHMM>
