~o
<STREAMINFO> 1 16
<VECSIZE> 16<NULLD><FBANK><DIAGC>
~h "proto-3s-16f"
<BEGINHMM>
<NUMSTATES> 5
<STATE> 2
<MEAN> 16
 5.930406e+00 6.314800e+00 6.726754e+00 6.999425e+00 7.010175e+00 7.145033e+00 7.332888e+00 7.560463e+00 7.863844e+00 7.895560e+00 8.072921e+00 8.287813e+00 8.525464e+00 8.504996e+00 8.417438e+00 8.494246e+00
<VARIANCE> 16
 8.380623e-01 1.445862e+00 2.208614e+00 2.483120e+00 1.950615e+00 1.617729e+00 1.698383e+00 1.834545e+00 1.784966e+00 2.134800e+00 2.267075e+00 2.362282e+00 2.394989e+00 1.903671e+00 1.283081e+00 9.589691e-01
<GCONST> 3.832602e+01
<STATE> 3
<MEAN> 16
 5.930406e+00 6.314800e+00 6.726754e+00 6.999425e+00 7.010175e+00 7.145033e+00 7.332888e+00 7.560463e+00 7.863844e+00 7.895560e+00 8.072921e+00 8.287813e+00 8.525464e+00 8.504996e+00 8.417438e+00 8.494246e+00
<VARIANCE> 16
 8.380623e-01 1.445862e+00 2.208614e+00 2.483120e+00 1.950615e+00 1.617729e+00 1.698383e+00 1.834545e+00 1.784966e+00 2.134800e+00 2.267075e+00 2.362282e+00 2.394989e+00 1.903671e+00 1.283081e+00 9.589691e-01
<GCONST> 3.832602e+01
<STATE> 4
<MEAN> 16
 5.930406e+00 6.314800e+00 6.726754e+00 6.999425e+00 7.010175e+00 7.145033e+00 7.332888e+00 7.560463e+00 7.863844e+00 7.895560e+00 8.072921e+00 8.287813e+00 8.525464e+00 8.504996e+00 8.417438e+00 8.494246e+00
<VARIANCE> 16
 8.380623e-01 1.445862e+00 2.208614e+00 2.483120e+00 1.950615e+00 1.617729e+00 1.698383e+00 1.834545e+00 1.784966e+00 2.134800e+00 2.267075e+00 2.362282e+00 2.394989e+00 1.903671e+00 1.283081e+00 9.589691e-01
<GCONST> 3.832602e+01
<TRANSP> 5
 0.000000e+00 1.000000e+00 0.000000e+00 0.000000e+00 0.000000e+00
 0.000000e+00 6.000000e-01 4.000000e-01 0.000000e+00 0.000000e+00
 0.000000e+00 0.000000e+00 6.000000e-01 4.000000e-01 0.000000e+00
 0.000000e+00 0.000000e+00 0.000000e+00 7.000000e-01 3.000000e-01
 0.000000e+00 0.000000e+00 0.000000e+00 0.000000e+00 0.000000e+00
<ENDHMM>
