~o
<STREAMINFO> 1 32
<VECSIZE> 32<NULLD><FBANK_D><DIAGC>
~h "ctyri"
<BEGINHMM>
<NUMSTATES> 10
<STATE> 2
<MEAN> 32
 5.690819e+00 5.780772e+00 5.990198e+00 6.148236e+00 6.328092e+00 6.536629e+00 6.678229e+00 6.856362e+00 7.212310e+00 7.270164e+00 7.502989e+00 7.931224e+00 8.208686e+00 8.373135e+00 8.323737e+00 8.204185e+00 1.092327e-02 9.203401e-03 2.285197e-02 2.873193e-02 1.325459e-02 2.216766e-02 5.371176e-02 6.716195e-02 7.265043e-02 1.714371e-01 2.833404e-01 3.765460e-01 3.545963e-01 3.326122e-01 2.409681e-01 1.237648e-01
<VARIANCE> 32
 1.958168e-01 1.410848e-01 1.778876e-01 7.405518e-02 5.282505e-02 4.159890e-02 6.200248e-02 3.996962e-02 5.852646e-02 1.092627e-01 2.262180e-01 4.708101e-01 6.256155e-01 6.480159e-01 4.417450e-01 1.238161e-01 1.204233e-02 1.128378e-02 1.101183e-02 1.156951e-02 7.935589e-03 6.312907e-03 7.215624e-03 7.179332e-03 1.129128e-02 3.620135e-02 8.002609e-02 1.176533e-01 1.409856e-01 1.487664e-01 9.330440e-02 2.331701e-02
<GCONST> -3.243202e+01
<STATE> 3
<MEAN> 32
 5.667541e+00 5.826591e+00 6.011607e+00 6.201559e+00 6.311937e+00 6.517756e+00 6.758235e+00 7.034430e+00 7.597025e+00 8.089650e+00 8.923954e+00 9.811161e+00 1.035868e+01 1.022846e+01 9.651996e+00 9.138910e+00 2.855348e-03 -2.025790e-03 -2.569908e-03 -2.344988e-03 -1.466088e-03 -5.719015e-03 -1.075244e-02 -3.114429e-03 3.186460e-03 -1.013742e-02 -1.177760e-02 -2.114901e-02 -8.281849e-03 -1.840796e-02 -2.683483e-02 -1.718468e-02
<VARIANCE> 32
 1.112356e-01 7.474215e-02 9.255935e-02 8.911806e-02 6.270542e-02 5.939425e-02 7.622891e-02 1.327733e-01 3.550138e-01 9.094975e-01 1.168249e+00 1.325125e+00 1.497145e+00 1.567702e+00 1.277339e+00 7.061539e-01 1.125554e-02 6.510763e-03 1.062014e-02 9.988881e-03 7.880540e-03 5.398690e-03 7.548389e-03 1.470520e-02 3.232415e-02 7.633152e-02 1.235239e-01 1.479072e-01 1.699059e-01 1.737676e-01 1.420177e-01 8.805695e-02
<GCONST> -1.665950e+01
<STATE> 4
<MEAN> 32
 5.841576e+00 5.875330e+00 6.100938e+00 6.259629e+00 6.380128e+00 6.576702e+00 6.775180e+00 7.263463e+00 8.021669e+00 8.661729e+00 9.253602e+00 9.863392e+00 1.017487e+01 1.009640e+01 9.622423e+00 8.984607e+00 -5.837142e-03 -4.780568e-03 9.078229e-03 1.439873e-02 1.376128e-02 8.068684e-03 4.181344e-03 1.550639e-02 2.243060e-02 1.629402e-02 3.296193e-03 -3.962964e-05 1.937882e-02 1.738814e-02 -6.296523e-03 -1.631753e-02
<VARIANCE> 32
 2.253520e-01 1.177375e-01 1.658248e-01 9.453969e-02 6.303867e-02 9.276905e-02 8.267019e-02 2.782814e-01 7.954848e-01 1.673359e+00 2.072891e+00 2.136811e+00 1.610365e+00 1.627290e+00 1.398483e+00 6.934286e-01 2.021965e-02 1.382354e-02 2.144984e-02 1.600806e-02 7.870234e-03 9.050780e-03 1.003542e-02 3.376699e-02 8.636346e-02 1.331536e-01 1.290553e-01 1.312326e-01 1.279305e-01 1.283940e-01 1.187311e-01 7.405082e-02
<GCONST> -6.264828e+00
<STATE> 5
<MEAN> 32
 5.666188e+00 5.758379e+00 6.073771e+00 6.302892e+00 6.453755e+00 6.544159e+00 6.700071e+00 7.061127e+00 7.568944e+00 7.790960e+00 8.280626e+00 8.642582e+00 8.936209e+00 8.897881e+00 8.505510e+00 8.314329e+00 4.462089e-02 1.704748e-01 3.099227e-01 2.951893e-01 2.027367e-01 1.376750e-01 1.931369e-01 2.777533e-01 3.716670e-01 3.933976e-01 3.350198e-01 3.032576e-01 2.993777e-01 2.491879e-01 1.517085e-01 1.364494e-01
<VARIANCE> 32
 1.381683e-01 1.602942e-01 2.544754e-01 2.814210e-01 1.150236e-01 1.050470e-01 5.248171e-02 1.879309e-01 3.214226e-01 5.317907e-01 5.778041e-01 4.032443e-01 2.440691e-01 2.628487e-01 2.005680e-01 1.547259e-01 1.723608e-02 3.065769e-02 4.521381e-02 3.204222e-02 1.067087e-02 1.198709e-02 1.555090e-02 1.858972e-02 2.509322e-02 4.324422e-02 7.479483e-02 5.480222e-02 6.455463e-02 6.861468e-02 5.141060e-02 2.911085e-02
<GCONST> -2.155452e+01
<STATE> 6
<MEAN> 32
 5.570658e+00 5.994263e+00 6.809885e+00 7.275193e+00 6.898332e+00 7.063717e+00 7.351594e+00 7.685706e+00 8.292258e+00 8.789176e+00 9.539039e+00 9.919244e+00 1.049233e+01 1.046557e+01 1.019934e+01 1.018931e+01 3.723602e-02 1.655322e-01 1.783001e-01 1.576938e-01 1.014697e-01 7.575029e-02 1.071112e-01 1.337412e-01 1.593281e-01 1.417444e-01 9.566633e-02 1.115288e-01 1.265256e-01 1.120152e-01 5.044124e-02 3.730796e-02
<VARIANCE> 32
 2.479120e-01 2.011055e-01 5.647487e-01 8.984506e-01 2.476512e-01 1.599387e-01 2.526005e-01 4.059057e-01 9.197390e-01 1.433679e+00 2.274895e+00 2.140783e+00 1.985187e+00 2.109076e+00 2.347211e+00 2.369301e+00 3.298083e-02 8.234397e-02 1.599884e-01 1.654135e-01 6.024563e-02 3.605264e-02 5.417627e-02 8.977647e-02 1.718164e-01 2.114817e-01 2.388654e-01 2.387812e-01 2.418649e-01 2.173201e-01 1.770658e-01 1.424876e-01
<GCONST> 2.083302e+01
<STATE> 7
<MEAN> 32
 6.239679e+00 7.692854e+00 8.544843e+00 8.623232e+00 7.756870e+00 7.672685e+00 8.048408e+00 8.650693e+00 9.678225e+00 9.879813e+00 9.929497e+00 1.024108e+01 1.062550e+01 1.034943e+01 9.401172e+00 9.010066e+00 2.979945e-01 6.270247e-01 8.413418e-01 8.243268e-01 3.924050e-01 3.372734e-01 3.211717e-01 3.907905e-01 6.467525e-01 6.841040e-01 6.018322e-01 5.020718e-01 4.609836e-01 3.375768e-01 1.799960e-01 8.573701e-02
<VARIANCE> 32
 4.090661e-01 1.144355e+00 1.360995e+00 1.330831e+00 4.688249e-01 5.793226e-01 4.961478e-01 3.964628e-01 7.997682e-01 8.000173e-01 1.123815e+00 1.066934e+00 1.508853e+00 1.491373e+00 1.252951e+00 9.454643e-01 5.268880e-02 8.088984e-02 9.702715e-02 8.963932e-02 4.046194e-02 4.956620e-02 3.579615e-02 3.433052e-02 5.757302e-02 5.932789e-02 7.394161e-02 7.396824e-02 9.359856e-02 9.813344e-02 6.456726e-02 3.629195e-02
<GCONST> 1.168243e+01
<STATE> 8
<MEAN> 32
 6.791058e+00 8.035694e+00 9.467346e+00 9.630825e+00 8.456507e+00 8.198434e+00 8.364320e+00 9.033224e+00 1.029446e+01 1.071971e+01 1.092425e+01 1.114263e+01 1.167711e+01 1.126499e+01 1.010713e+01 9.304204e+00 -4.251414e-03 -2.101482e-02 -7.261788e-04 -5.226416e-03 6.738508e-03 -2.641418e-03 -8.905252e-03 -1.907189e-03 -9.821933e-03 -1.399461e-04 -7.749019e-03 -1.578343e-02 -1.506464e-02 -1.430269e-02 -1.585555e-02 -1.832261e-02
<VARIANCE> 32
 7.504287e-01 9.448723e-01 1.804941e+00 1.363941e+00 1.000483e+00 7.258675e-01 5.863280e-01 4.660772e-01 6.150645e-01 6.743384e-01 5.960594e-01 6.039878e-01 6.095074e-01 8.165880e-01 1.515466e+00 1.272484e+00 1.594317e-02 3.869933e-02 8.177076e-02 8.512519e-02 5.238781e-02 3.489187e-02 3.151977e-02 4.020820e-02 4.354380e-02 4.876326e-02 3.723786e-02 4.512471e-02 5.251762e-02 5.905566e-02 8.438686e-02 5.494192e-02
<GCONST> 6.782513e+00
<STATE> 9
<MEAN> 32
 6.468027e+00 7.824121e+00 9.173063e+00 8.924294e+00 7.813464e+00 7.478064e+00 7.689388e+00 8.540821e+00 9.724972e+00 1.023642e+01 9.712651e+00 9.725403e+00 1.013830e+01 9.586148e+00 8.577640e+00 8.440748e+00 -2.506600e-02 -5.086296e-02 -1.021266e-01 -1.074189e-01 -6.470177e-02 -5.302890e-02 -6.094685e-02 -9.221354e-02 -1.098868e-01 -1.092514e-01 -9.787063e-02 -9.605417e-02 -8.625613e-02 -7.989721e-02 -4.609195e-02 -1.548828e-02
<VARIANCE> 32
 2.103255e-01 2.814479e-01 5.186357e-01 4.492860e-01 3.798243e-01 2.552925e-01 1.792566e-01 5.068284e-01 7.963863e-01 5.362549e-01 1.366672e+00 1.383498e+00 1.553243e+00 1.156629e+00 2.048759e-01 1.585050e-01 8.307255e-03 1.480904e-02 2.669999e-02 2.873017e-02 1.691782e-02 1.376234e-02 9.083449e-03 1.313177e-02 2.360942e-02 3.339026e-02 2.709499e-02 2.417568e-02 2.714569e-02 2.380660e-02 8.623458e-03 3.634551e-03
<GCONST> -1.902525e+01
<TRANSP> 10
 0.000000e+00 1.000000e+00 0.000000e+00 0.000000e+00 0.000000e+00 0.000000e+00 0.000000e+00 0.000000e+00 0.000000e+00 0.000000e+00
 0.000000e+00 6.587486e-01 3.412514e-01 0.000000e+00 0.000000e+00 0.000000e+00 0.000000e+00 0.000000e+00 0.000000e+00 0.000000e+00
 0.000000e+00 0.000000e+00 8.594055e-01 1.405946e-01 0.000000e+00 0.000000e+00 0.000000e+00 0.000000e+00 0.000000e+00 0.000000e+00
 0.000000e+00 0.000000e+00 0.000000e+00 7.596922e-01 2.403078e-01 0.000000e+00 0.000000e+00 0.000000e+00 0.000000e+00 0.000000e+00
 0.000000e+00 0.000000e+00 0.000000e+00 0.000000e+00 1.302636e-01 8.697363e-01 0.000000e+00 0.000000e+00 0.000000e+00 0.000000e+00
 0.000000e+00 0.000000e+00 0.000000e+00 0.000000e+00 0.000000e+00 7.429150e-01 2.570851e-01 0.000000e+00 0.000000e+00 0.000000e+00
 0.000000e+00 0.000000e+00 0.000000e+00 0.000000e+00 0.000000e+00 0.000000e+00 6.529067e-01 3.470933e-01 0.000000e+00 0.000000e+00
 0.000000e+00 0.000000e+00 0.000000e+00 0.000000e+00 0.000000e+00 0.000000e+00 0.000000e+00 9.538963e-01 4.610365e-02 0.000000e+00
 0.000000e+00 0.000000e+00 0.000000e+00 0.000000e+00 0.000000e+00 0.000000e+00 0.000000e+00 0.000000e+00 9.452870e-01 5.471292e-02
 0.000000e+00 0.000000e+00 0.000000e+00 0.000000e+00 0.000000e+00 0.000000e+00 0.000000e+00 0.000000e+00 0.000000e+00 0.000000e+00
<ENDHMM>
~h "sedm"
<BEGINHMM>
<NUMSTATES> 10
<STATE> 2
<MEAN> 32
 5.631143e+00 5.778881e+00 5.972303e+00 6.151445e+00 6.274444e+00 6.503901e+00 6.650458e+00 6.929991e+00 7.320333e+00 7.350069e+00 7.518326e+00 7.890223e+00 8.678040e+00 8.951649e+00 9.232714e+00 9.137330e+00 4.070268e-03 4.658313e-03 2.606880e-03 1.315441e-02 8.077816e-03 -4.607445e-03 7.576403e-03 3.690142e-02 3.942949e-02 6.271563e-02 6.655327e-02 1.088656e-01 1.961382e-01 2.284586e-01 2.431635e-01 2.328987e-01
<VARIANCE> 32
 1.139240e-01 7.458696e-02 8.759434e-02 8.467219e-02 5.894500e-02 4.668997e-02 3.959082e-02 5.840741e-02 6.127484e-02 5.057326e-02 8.594165e-02 1.276065e-01 3.623919e-01 4.396551e-01 6.138787e-01 6.244680e-01 1.339819e-02 7.554014e-03 1.197422e-02 1.014526e-02 7.359525e-03 4.285254e-03 4.205225e-03 6.040867e-03 6.973835e-03 6.455797e-03 7.422317e-03 8.961297e-03 2.567592e-02 3.315376e-02 4.048315e-02 2.447030e-02
<GCONST> -4.868149e+01
<STATE> 3
<MEAN> 32
 5.652684e+00 5.757546e+00 5.960813e+00 6.291505e+00 6.440416e+00 6.563777e+00 6.763520e+00 7.224142e+00 7.653885e+00 7.703430e+00 8.027549e+00 8.575464e+00 9.576368e+00 9.858875e+00 1.002930e+01 9.908818e+00 1.668244e-03 -2.482726e-02 1.221846e-02 4.696659e-02 3.861414e-02 4.332292e-02 6.139598e-02 1.014132e-01 1.015848e-01 1.146967e-01 1.246946e-01 1.563797e-01 2.015934e-01 2.275406e-01 1.763816e-01 1.497248e-01
<VARIANCE> 32
 1.877447e-01 1.025835e-01 1.086693e-01 1.304506e-01 8.186760e-02 5.708387e-02 6.615765e-02 4.384565e-02 5.668784e-02 5.553313e-02 1.986195e-01 1.803694e-01 5.221539e-01 5.252455e-01 8.021948e-01 7.879441e-01 1.576517e-02 7.410377e-03 1.100747e-02 1.611426e-02 1.041001e-02 5.520714e-03 7.409158e-03 1.157212e-02 1.457018e-02 1.795524e-02 2.238317e-02 2.234124e-02 6.244339e-02 7.949039e-02 8.041400e-02 6.123322e-02
<GCONST> -3.473423e+01
<STATE> 4
<MEAN> 32
 5.770752e+00 5.827244e+00 6.115474e+00 6.539346e+00 6.603169e+00 6.938470e+00 7.225113e+00 7.749746e+00 8.282521e+00 8.332785e+00 8.582073e+00 9.205699e+00 1.030587e+01 1.076273e+01 1.043085e+01 1.013962e+01 4.207354e-02 5.632793e-02 9.014058e-02 8.190617e-02 4.862252e-02 6.317184e-02 8.470612e-02 1.061962e-01 1.051172e-01 1.186948e-01 1.354705e-01 1.343867e-01 1.251771e-01 1.547658e-01 1.715951e-01 1.383884e-01
<VARIANCE> 32
 2.862273e-01 1.207406e-01 2.065449e-01 3.509536e-01 1.107519e-01 1.060556e-01 1.384104e-01 1.951297e-01 2.674816e-01 1.945633e-01 2.635938e-01 3.947389e-01 7.022212e-01 6.296637e-01 5.080242e-01 3.912119e-01 3.652334e-02 1.783434e-02 2.199225e-02 2.093326e-02 9.252882e-03 7.913704e-03 1.090216e-02 1.684971e-02 1.314025e-02 1.258181e-02 1.641794e-02 2.057114e-02 4.402377e-02 7.519451e-02 9.759367e-02 8.909601e-02
<GCONST> -2.318424e+01
<STATE> 5
<MEAN> 32
 5.624823e+00 5.919222e+00 6.525089e+00 7.122253e+00 6.926496e+00 7.284565e+00 7.654285e+00 8.153598e+00 8.650674e+00 8.745301e+00 9.077417e+00 9.641759e+00 1.046191e+01 1.128936e+01 1.147788e+01 1.133094e+01 1.688608e-02 8.336023e-02 1.178882e-01 1.322339e-01 1.177337e-01 8.618028e-02 1.126129e-01 1.360390e-01 1.361423e-01 1.019931e-01 1.078076e-01 9.439024e-02 5.649657e-02 1.918785e-02 -2.719750e-02 -2.595218e-02
<VARIANCE> 32
 2.120241e-01 9.905834e-02 3.683958e-01 5.774119e-01 1.468153e-01 1.996805e-01 2.759714e-01 2.559126e-01 4.187499e-01 3.658056e-01 4.306989e-01 5.034573e-01 5.854857e-01 8.373925e-01 1.418543e+00 1.411531e+00 1.821120e-02 3.470597e-02 8.698890e-02 8.999779e-02 2.813254e-02 1.777056e-02 2.727740e-02 4.226200e-02 2.540946e-02 2.354462e-02 2.551486e-02 3.176327e-02 3.864690e-02 3.867901e-02 5.301048e-02 6.438586e-02
<GCONST> -9.510445e+00
<STATE> 6
<MEAN> 32
 6.071949e+00 6.816467e+00 7.540101e+00 7.926829e+00 7.587757e+00 7.509661e+00 7.936200e+00 8.663815e+00 8.869925e+00 8.760956e+00 9.081362e+00 9.427411e+00 1.004638e+01 1.023126e+01 1.005318e+01 9.869132e+00 2.709183e-01 6.280006e-01 8.531280e-01 9.256029e-01 7.050260e-01 5.139594e-01 5.436149e-01 6.945317e-01 5.263816e-01 4.039156e-01 4.078432e-01 2.706182e-01 1.023613e-01 -6.699173e-02 -2.989081e-01 -3.349760e-01
<VARIANCE> 32
 3.387106e-01 9.289497e-01 1.239707e+00 1.370849e+00 6.529095e-01 5.908087e-01 7.336900e-01 9.130298e-01 7.149039e-01 5.799789e-01 1.017288e+00 9.902204e-01 8.163890e-01 1.344987e+00 2.084558e+00 1.833720e+00 5.605114e-02 5.366059e-02 6.373499e-02 6.153100e-02 6.390789e-02 5.447270e-02 5.795852e-02 8.577120e-02 9.674255e-02 6.624205e-02 7.721427e-02 7.829805e-02 9.503775e-02 8.136865e-02 3.569646e-02 3.077884e-02
<GCONST> 1.324749e+01
<STATE> 7
<MEAN> 32
 7.081623e+00 8.373420e+00 9.797226e+00 1.078621e+01 1.061042e+01 9.731588e+00 1.001847e+01 1.102726e+01 1.147685e+01 1.089936e+01 1.145758e+01 1.146069e+01 1.175670e+01 1.148408e+01 1.013731e+01 9.440440e+00 6.368479e-02 6.060271e-02 1.300617e-01 1.911418e-01 2.094277e-01 1.458220e-01 1.474571e-01 1.685733e-01 2.070827e-01 2.166299e-01 2.143491e-01 2.042097e-01 1.626840e-01 8.730894e-02 1.399511e-03 -4.896056e-02
<VARIANCE> 32
 8.058969e-01 9.935578e-01 1.129157e+00 5.372752e-01 1.038845e+00 6.097750e-01 3.851134e-01 3.231473e-01 7.371004e-01 4.808426e-01 6.827015e-01 6.756101e-01 7.889922e-01 9.617144e-01 1.488107e+00 6.513406e-01 2.188331e-02 4.992531e-02 1.105875e-01 1.359672e-01 1.684111e-01 9.841547e-02 9.629225e-02 1.308870e-01 1.215300e-01 9.316008e-02 1.070197e-01 1.021910e-01 9.093122e-02 8.885762e-02 4.524768e-02 2.346357e-02
<GCONST> 1.327806e+01
<STATE> 8
<MEAN> 32
 7.246440e+00 8.381752e+00 9.327357e+00 9.532086e+00 8.905237e+00 8.446856e+00 8.949680e+00 9.668712e+00 9.790649e+00 9.658132e+00 9.947308e+00 9.826244e+00 9.888997e+00 9.537923e+00 8.949187e+00 8.684890e+00 -1.023032e-03 3.224395e-03 -8.413067e-02 -1.515853e-01 -1.512189e-01 -1.131668e-01 -1.246352e-01 -1.581352e-01 -1.662706e-01 -1.497363e-01 -1.547747e-01 -1.649403e-01 -1.677479e-01 -1.563733e-01 -1.104271e-01 -7.247575e-02
<VARIANCE> 32
 8.418130e-01 7.583541e-01 7.907074e-01 6.400929e-01 7.577862e-01 6.317821e-01 6.366071e-01 6.644636e-01 9.516673e-01 9.283429e-01 1.372328e+00 1.495306e+00 1.563941e+00 1.176489e+00 5.178285e-01 2.707337e-01 7.636211e-03 2.021163e-02 6.901857e-02 5.717633e-02 5.338224e-02 5.960990e-02 6.881142e-02 7.346490e-02 7.011981e-02 8.041798e-02 6.723638e-02 7.360142e-02 6.636017e-02 6.281492e-02 3.046960e-02 1.864340e-02
<GCONST> 6.536208e+00
<STATE> 9
<MEAN> 32
 6.631147e+00 8.108698e+00 8.701038e+00 8.702300e+00 8.090570e+00 8.085262e+00 8.382071e+00 8.641667e+00 8.788213e+00 8.906320e+00 8.908088e+00 9.327744e+00 9.701380e+00 9.087034e+00 8.135223e+00 8.106476e+00 -1.116641e-02 -1.124517e-02 -3.266142e-02 -4.551449e-02 -3.588587e-02 -2.027489e-02 -2.731697e-02 -4.839245e-02 -4.660571e-02 -3.945190e-02 -5.241780e-02 -3.318385e-02 -2.153096e-02 -1.746859e-02 -9.816822e-03 -3.052676e-03
<VARIANCE> 32
 2.818506e-01 2.137894e-01 4.462544e-01 3.711998e-01 3.384712e-01 3.933530e-01 5.138807e-01 6.225265e-01 6.255255e-01 6.287247e-01 7.921771e-01 1.238058e+00 1.233666e+00 4.861384e-01 8.351537e-02 6.133195e-02 5.946579e-03 9.951083e-03 2.559236e-02 2.031306e-02 1.309520e-02 1.473423e-02 2.423936e-02 2.187246e-02 1.786189e-02 1.974171e-02 1.656251e-02 2.017204e-02 2.167396e-02 1.558764e-02 3.788742e-03 1.731488e-03
<GCONST> -2.496312e+01
<TRANSP> 10
 0.000000e+00 1.000000e+00 0.000000e+00 0.000000e+00 0.000000e+00 0.000000e+00 0.000000e+00 0.000000e+00 0.000000e+00 0.000000e+00
 0.000000e+00 8.216155e-01 1.783846e-01 0.000000e+00 0.000000e+00 0.000000e+00 0.000000e+00 0.000000e+00 0.000000e+00 0.000000e+00
 0.000000e+00 0.000000e+00 6.184098e-01 3.815902e-01 0.000000e+00 0.000000e+00 0.000000e+00 0.000000e+00 0.000000e+00 0.000000e+00
 0.000000e+00 0.000000e+00 0.000000e+00 6.216381e-01 3.783620e-01 0.000000e+00 0.000000e+00 0.000000e+00 0.000000e+00 0.000000e+00
 0.000000e+00 0.000000e+00 0.000000e+00 0.000000e+00 6.925312e-01 3.074688e-01 0.000000e+00 0.000000e+00 0.000000e+00 0.000000e+00
 0.000000e+00 0.000000e+00 0.000000e+00 0.000000e+00 0.000000e+00 5.847127e-01 4.152873e-01 0.000000e+00 0.000000e+00 0.000000e+00
 0.000000e+00 0.000000e+00 0.000000e+00 0.000000e+00 0.000000e+00 0.000000e+00 8.273035e-01 1.726964e-01 0.000000e+00 0.000000e+00
 0.000000e+00 0.000000e+00 0.000000e+00 0.000000e+00 0.000000e+00 0.000000e+00 0.000000e+00 9.084005e-01 9.159946e-02 0.000000e+00
 0.000000e+00 0.000000e+00 0.000000e+00 0.000000e+00 0.000000e+00 0.000000e+00 0.000000e+00 0.000000e+00 9.636304e-01 3.636966e-02
 0.000000e+00 0.000000e+00 0.000000e+00 0.000000e+00 0.000000e+00 0.000000e+00 0.000000e+00 0.000000e+00 0.000000e+00 0.000000e+00
<ENDHMM>
~h "sest"
<BEGINHMM>
<NUMSTATES> 10
<STATE> 2
<MEAN> 32
 5.515332e+00 5.715443e+00 5.946902e+00 6.120497e+00 6.280474e+00 6.535246e+00 6.595942e+00 6.836032e+00 7.213815e+00 7.215177e+00 7.433639e+00 7.798370e+00 8.118112e+00 8.128952e+00 8.026092e+00 8.126128e+00 4.569109e-03 -5.761035e-03 -9.714236e-04 1.344582e-02 1.422149e-02 6.322288e-03 3.069818e-02 6.693967e-02 1.344156e-01 2.403416e-01 3.331686e-01 4.324981e-01 4.464023e-01 4.357200e-01 2.799415e-01 8.014731e-02
<VARIANCE> 32
 1.523414e-01 1.553231e-01 1.006088e-01 9.371138e-02 6.014553e-02 7.966242e-02 7.706255e-02 4.276735e-02 4.370987e-02 7.248963e-02 1.171874e-01 2.298458e-01 3.869669e-01 3.509314e-01 1.327213e-01 8.814383e-02 6.366235e-03 1.459374e-02 1.245614e-02 1.508590e-02 5.792753e-03 5.428776e-03 5.596160e-03 4.134128e-03 1.227719e-02 2.075358e-02 2.702075e-02 2.795602e-02 2.814125e-02 4.362725e-02 3.037682e-02 4.668957e-03
<GCONST> -4.639722e+01
<STATE> 3
<MEAN> 32
 5.566478e+00 5.681323e+00 5.923053e+00 6.176192e+00 6.388796e+00 6.534673e+00 6.687216e+00 7.035555e+00 7.686969e+00 8.044436e+00 8.417567e+00 8.902727e+00 9.116909e+00 9.209972e+00 8.876072e+00 8.339886e+00 5.114523e-02 1.009992e-02 3.157040e-02 6.625380e-02 4.150555e-02 -1.486855e-02 2.570748e-02 1.220394e-01 2.883253e-01 4.731278e-01 5.587841e-01 6.259285e-01 6.213027e-01 5.975206e-01 5.049042e-01 2.402465e-01
<VARIANCE> 32
 1.559913e-01 1.090879e-01 1.115790e-01 1.338860e-01 7.910985e-02 6.881932e-02 5.510332e-02 6.758981e-02 1.461247e-01 2.595976e-01 2.971970e-01 4.293719e-01 4.806599e-01 6.279391e-01 4.764264e-01 1.065107e-01 1.183762e-02 1.204848e-02 8.868698e-03 1.218183e-02 7.333809e-03 6.941498e-03 6.074416e-03 9.848720e-03 2.615964e-02 2.802411e-02 2.579685e-02 3.409557e-02 4.329065e-02 3.700749e-02 2.017623e-02 1.171598e-02
<GCONST> -3.641961e+01
<STATE> 4
<MEAN> 32
 5.677569e+00 5.763941e+00 5.983445e+00 6.260016e+00 6.390065e+00 6.508393e+00 6.729565e+00 7.300905e+00 8.192890e+00 8.916355e+00 9.461483e+00 1.004488e+01 1.026437e+01 1.025663e+01 9.772565e+00 9.039044e+00 2.560803e-02 2.873357e-02 3.890113e-02 4.836814e-02 2.753512e-02 3.222863e-02 4.753508e-02 1.207951e-01 1.879140e-01 3.319589e-01 3.795932e-01 4.103875e-01 4.172417e-01 3.817391e-01 3.468925e-01 2.964975e-01
<VARIANCE> 32
 1.550204e-01 1.086916e-01 1.047642e-01 2.706712e-01 8.997350e-02 8.077560e-02 7.946986e-02 1.334703e-01 3.577813e-01 4.899181e-01 3.213607e-01 3.762853e-01 3.470881e-01 3.555672e-01 2.682481e-01 1.913693e-01 1.147585e-02 9.582293e-03 9.429808e-03 1.299683e-02 8.284695e-03 7.388504e-03 9.758708e-03 1.531891e-02 2.288158e-02 3.237456e-02 4.264268e-02 5.149740e-02 5.206789e-02 5.141491e-02 5.821408e-02 2.651556e-02
<GCONST> -2.957774e+01
<STATE> 5
<MEAN> 32
 5.751022e+00 5.865767e+00 6.075726e+00 6.319749e+00 6.406603e+00 6.624774e+00 6.925117e+00 7.649985e+00 8.608442e+00 9.481343e+00 1.015271e+01 1.095856e+01 1.131134e+01 1.123670e+01 1.071610e+01 9.851146e+00 6.112469e-03 9.463918e-03 3.217463e-02 3.777366e-02 2.526864e-02 3.541521e-02 4.629142e-02 1.000040e-01 1.098933e-01 9.595406e-02 1.232582e-01 1.147942e-01 1.206607e-01 1.065780e-01 1.080145e-01 1.365254e-01
<VARIANCE> 32
 9.354921e-02 8.557333e-02 1.009902e-01 1.406311e-01 8.785764e-02 1.062945e-01 1.251901e-01 1.836421e-01 4.683464e-01 5.470831e-01 2.265652e-01 3.595658e-01 3.870145e-01 3.844554e-01 2.748339e-01 2.493667e-01 9.626721e-03 1.088996e-02 1.273092e-02 1.460957e-02 9.436643e-03 7.028442e-03 7.209050e-03 8.945094e-03 1.247441e-02 2.046165e-02 3.124390e-02 3.996593e-02 3.942087e-02 4.196830e-02 4.835545e-02 3.831170e-02
<GCONST> -3.184848e+01
<STATE> 6
<MEAN> 32
 5.666053e+00 5.894326e+00 6.702945e+00 7.088419e+00 6.854660e+00 7.064106e+00 7.335721e+00 8.090087e+00 9.203860e+00 1.003713e+01 1.084783e+01 1.122146e+01 1.156308e+01 1.137499e+01 1.114352e+01 1.077504e+01 4.497970e-02 1.588062e-01 2.352765e-01 2.241136e-01 1.493436e-01 1.181297e-01 9.988169e-02 9.721189e-02 7.021976e-02 -1.148456e-02 -3.901477e-02 -8.889049e-02 -1.049495e-01 -1.440176e-01 -1.584179e-01 -1.117774e-01
<VARIANCE> 32
 1.226547e-01 1.093140e-01 4.554732e-01 8.383638e-01 2.588955e-01 2.253466e-01 2.209721e-01 2.324407e-01 3.921548e-01 5.699651e-01 9.046635e-01 9.363093e-01 1.266498e+00 1.269410e+00 1.795499e+00 2.233853e+00 1.625446e-02 4.408387e-02 6.858082e-02 7.622940e-02 3.539173e-02 1.716515e-02 1.585851e-02 2.820292e-02 3.664511e-02 4.006330e-02 5.519880e-02 7.515066e-02 7.979449e-02 9.803735e-02 1.196150e-01 1.082506e-01
<GCONST> -8.929920e-01
<STATE> 7
<MEAN> 32
 6.441642e+00 7.605422e+00 8.701052e+00 9.330697e+00 8.811338e+00 8.415008e+00 8.567632e+00 9.450829e+00 1.028739e+01 1.052535e+01 1.091819e+01 1.106826e+01 1.120228e+01 1.081413e+01 1.007534e+01 9.618607e+00 1.737324e-01 3.303707e-01 4.872427e-01 5.893533e-01 5.705627e-01 4.089305e-01 4.075532e-01 4.721715e-01 4.095640e-01 2.941611e-01 1.942247e-01 1.265411e-01 9.725532e-02 1.028407e-02 -1.235859e-01 -1.461967e-01
<VARIANCE> 32
 6.470903e-01 1.454774e+00 1.780205e+00 2.015129e+00 2.226887e+00 1.138489e+00 1.025191e+00 1.240502e+00 1.239940e+00 1.236320e+00 1.430811e+00 1.210787e+00 1.188707e+00 1.561094e+00 2.451865e+00 2.189515e+00 4.300039e-02 1.263040e-01 1.380571e-01 1.663146e-01 1.182206e-01 6.031894e-02 4.971983e-02 7.319061e-02 8.147603e-02 6.036054e-02 6.263480e-02 6.084003e-02 7.227626e-02 7.130525e-02 6.127061e-02 3.999105e-02
<GCONST> 2.276193e+01
<STATE> 8
<MEAN> 32
 6.618566e+00 7.683988e+00 9.023940e+00 9.959979e+00 9.844936e+00 9.259121e+00 9.377206e+00 1.032108e+01 1.071673e+01 1.048290e+01 1.066295e+01 1.074080e+01 1.106726e+01 1.072916e+01 9.731573e+00 9.204610e+00 -3.685398e-02 -7.528937e-02 -1.020718e-01 -1.062011e-01 -9.383308e-02 -7.214100e-02 -7.554176e-02 -1.011971e-01 -1.128467e-01 -1.100701e-01 -9.776479e-02 -8.519173e-02 -6.037821e-02 -9.323390e-03 4.799011e-02 6.006453e-02
<VARIANCE> 32
 5.580998e-01 8.190953e-01 8.403839e-01 9.294655e-01 1.697623e+00 1.324145e+00 8.237174e-01 8.771306e-01 1.386740e+00 1.197209e+00 1.852759e+00 1.453805e+00 1.404127e+00 1.620348e+00 1.794103e+00 1.384447e+00 1.461808e-02 2.204135e-02 3.371570e-02 3.720387e-02 4.440680e-02 3.209779e-02 2.960346e-02 3.803328e-02 3.196631e-02 2.563916e-02 2.657053e-02 2.406210e-02 2.820209e-02 3.249335e-02 3.213404e-02 2.975301e-02
<GCONST> 5.023408e+00
<STATE> 9
<MEAN> 32
 5.635828e+00 5.883759e+00 6.452020e+00 7.086912e+00 7.115599e+00 7.021625e+00 7.207364e+00 7.771240e+00 8.114774e+00 8.090275e+00 8.473426e+00 8.995187e+00 9.838994e+00 1.043093e+01 1.052226e+01 1.028659e+01 -2.510874e-02 -4.329408e-02 -7.944749e-02 -1.000466e-01 -9.085621e-02 -6.884946e-02 -6.873089e-02 -9.188230e-02 -8.748891e-02 -9.217696e-02 -9.589689e-02 -9.460188e-02 -9.738881e-02 -1.031251e-01 -1.022174e-01 -8.530367e-02
<VARIANCE> 32
 1.419200e-01 1.323222e-01 3.008140e-01 5.117686e-01 4.075223e-01 2.853941e-01 2.480149e-01 3.098016e-01 4.208096e-01 3.694578e-01 3.823055e-01 4.351598e-01 6.769603e-01 9.200656e-01 1.051413e+00 9.630849e-01 1.253155e-02 1.429362e-02 1.803630e-02 2.309421e-02 1.511571e-02 1.215617e-02 9.683654e-03 1.626463e-02 1.269893e-02 1.252238e-02 1.344438e-02 1.555655e-02 2.920173e-02 5.116198e-02 5.523840e-02 4.815113e-02
<GCONST> -1.929127e+01
<TRANSP> 10
 0.000000e+00 1.000000e+00 0.000000e+00 0.000000e+00 0.000000e+00 0.000000e+00 0.000000e+00 0.000000e+00 0.000000e+00 0.000000e+00
 0.000000e+00 4.515771e-01 5.484229e-01 0.000000e+00 0.000000e+00 0.000000e+00 0.000000e+00 0.000000e+00 0.000000e+00 0.000000e+00
 0.000000e+00 0.000000e+00 4.092079e-01 5.907921e-01 0.000000e+00 0.000000e+00 0.000000e+00 0.000000e+00 0.000000e+00 0.000000e+00
 0.000000e+00 0.000000e+00 0.000000e+00 5.717523e-01 4.282478e-01 0.000000e+00 0.000000e+00 0.000000e+00 0.000000e+00 0.000000e+00
 0.000000e+00 0.000000e+00 0.000000e+00 0.000000e+00 7.813696e-01 2.186304e-01 0.000000e+00 0.000000e+00 0.000000e+00 0.000000e+00
 0.000000e+00 0.000000e+00 0.000000e+00 0.000000e+00 0.000000e+00 6.931019e-01 3.068981e-01 0.000000e+00 0.000000e+00 0.000000e+00
 0.000000e+00 0.000000e+00 0.000000e+00 0.000000e+00 0.000000e+00 0.000000e+00 8.040425e-01 1.959575e-01 0.000000e+00 0.000000e+00
 0.000000e+00 0.000000e+00 0.000000e+00 0.000000e+00 0.000000e+00 0.000000e+00 0.000000e+00 9.526321e-01 4.736788e-02 0.000000e+00
 0.000000e+00 0.000000e+00 0.000000e+00 0.000000e+00 0.000000e+00 0.000000e+00 0.000000e+00 0.000000e+00 9.394708e-01 6.052923e-02
 0.000000e+00 0.000000e+00 0.000000e+00 0.000000e+00 0.000000e+00 0.000000e+00 0.000000e+00 0.000000e+00 0.000000e+00 0.000000e+00
<ENDHMM>
~h "dva"
<BEGINHMM>
<NUMSTATES> 10
<STATE> 2
<MEAN> 32
 5.903781e+00 6.587862e+00 6.729250e+00 6.651639e+00 6.492246e+00 6.553306e+00 6.709635e+00 6.858744e+00 7.185623e+00 7.109731e+00 7.200938e+00 7.411626e+00 7.673788e+00 7.801520e+00 7.858368e+00 8.035667e+00 9.002218e-02 1.600695e-01 1.854214e-01 1.533014e-01 8.422507e-02 4.832878e-02 3.877390e-02 3.337760e-02 4.294646e-02 4.823726e-02 3.184589e-02 3.899068e-02 4.211953e-02 3.967720e-02 1.795842e-02 4.699523e-03
<VARIANCE> 32
 1.547886e-01 4.033868e-01 6.336158e-01 4.314858e-01 1.275043e-01 1.139883e-01 8.014688e-02 8.681673e-02 7.807007e-02 6.756116e-02 5.860968e-02 5.863290e-02 8.125034e-02 1.229239e-01 7.530970e-02 7.883524e-02 1.643036e-02 4.630758e-02 4.703571e-02 3.199193e-02 1.275798e-02 1.285904e-02 1.319318e-02 2.106479e-02 1.693536e-02 2.199987e-02 2.210209e-02 2.895570e-02 2.864273e-02 1.741852e-02 6.006748e-03 2.443533e-03
<GCONST> -3.967368e+01
<STATE> 3
<MEAN> 32
 6.044704e+00 6.664898e+00 6.748867e+00 6.751830e+00 6.539310e+00 6.700777e+00 6.999071e+00 7.159160e+00 7.414091e+00 7.361344e+00 7.526237e+00 7.701449e+00 7.955149e+00 7.957542e+00 7.968736e+00 8.104337e+00 1.594941e-01 2.506234e-01 3.350450e-01 3.244294e-01 2.381447e-01 2.319648e-01 2.776669e-01 3.234272e-01 2.989937e-01 3.185641e-01 3.186092e-01 3.273362e-01 3.609876e-01 2.623394e-01 1.187260e-01 5.931307e-02
<VARIANCE> 32
 1.898421e-01 3.246143e-01 4.194598e-01 2.742431e-01 9.028134e-02 1.486100e-01 2.631690e-01 3.149379e-01 1.927036e-01 2.045536e-01 3.078732e-01 3.862644e-01 4.199975e-01 2.679147e-01 1.784120e-01 1.624980e-01 7.123191e-02 1.138774e-01 9.215799e-02 6.668156e-02 2.416326e-02 2.422195e-02 1.921571e-02 4.747884e-02 6.807943e-02 5.362281e-02 7.415804e-02 1.077286e-01 1.228203e-01 6.944232e-02 1.853468e-02 9.876771e-03
<GCONST> -1.218888e+01
<STATE> 4
<MEAN> 32
 6.250503e+00 7.012847e+00 7.362835e+00 7.345323e+00 7.039127e+00 7.200636e+00 7.551765e+00 7.776695e+00 8.091729e+00 8.076761e+00 8.244544e+00 8.561917e+00 8.920893e+00 8.706154e+00 8.326647e+00 8.342061e+00 1.906669e-01 3.329852e-01 5.255041e-01 5.718288e-01 4.108226e-01 3.441715e-01 3.999274e-01 4.528877e-01 3.779117e-01 4.130066e-01 4.106995e-01 4.003886e-01 4.270273e-01 3.126017e-01 1.110516e-01 7.321365e-02
<VARIANCE> 32
 3.390408e-01 8.325583e-01 6.476586e-01 4.197755e-01 1.497595e-01 2.026544e-01 2.217081e-01 2.703832e-01 3.154814e-01 3.667832e-01 4.455264e-01 5.377088e-01 6.236702e-01 4.671721e-01 3.916664e-01 3.357361e-01 8.455958e-02 9.907956e-02 7.622299e-02 6.437204e-02 5.776382e-02 4.253538e-02 5.094577e-02 8.391505e-02 9.183773e-02 9.010097e-02 1.137913e-01 1.383258e-01 1.036496e-01 5.128071e-02 3.092653e-02 1.532832e-02
<GCONST> -3.125904e-01
<STATE> 5
<MEAN> 32
 6.339265e+00 7.376968e+00 8.067242e+00 8.078650e+00 7.472323e+00 7.509869e+00 7.947101e+00 8.201628e+00 8.140451e+00 8.373237e+00 8.545094e+00 8.901919e+00 8.900221e+00 8.497735e+00 8.073918e+00 8.109445e+00 5.987960e-02 6.626983e-02 1.102166e-01 1.803252e-01 2.167947e-01 2.194077e-01 2.247434e-01 1.360799e-01 4.510302e-02 1.078609e-01 1.004702e-01 1.147672e-01 1.066655e-01 8.835125e-02 4.530606e-02 3.307059e-02
<VARIANCE> 32
 3.247645e-01 3.017230e-01 5.262116e-01 5.064229e-01 2.640585e-01 2.484096e-01 3.030319e-01 6.301320e-01 5.941003e-01 4.521457e-01 5.942028e-01 6.584234e-01 7.706026e-01 4.785104e-01 1.620593e-01 1.279885e-01 2.057898e-02 3.545856e-02 1.059137e-01 1.668630e-01 1.434342e-01 1.040824e-01 1.179988e-01 1.586405e-01 1.256532e-01 1.489384e-01 1.508437e-01 1.693812e-01 1.307023e-01 8.277430e-02 2.976840e-02 1.918615e-02
<GCONST> 4.579420e+00
<STATE> 6
<MEAN> 32
 7.083100e+00 7.951087e+00 8.823370e+00 9.233241e+00 8.752464e+00 8.840965e+00 9.227310e+00 9.004825e+00 8.806168e+00 8.907979e+00 8.942579e+00 9.173663e+00 9.588801e+00 9.261265e+00 8.599070e+00 8.467319e+00 5.318218e-02 4.547396e-02 1.158887e-01 2.829730e-01 3.893524e-01 3.553041e-01 3.609985e-01 2.656370e-01 1.845320e-01 2.313022e-01 2.001679e-01 2.160424e-01 2.103080e-01 1.479840e-01 5.547533e-02 2.835562e-02
<VARIANCE> 32
 4.670886e-01 4.608892e-01 4.049644e-01 5.916699e-01 7.269683e-01 5.000020e-01 4.833775e-01 5.946110e-01 5.276930e-01 5.423442e-01 6.896448e-01 9.274319e-01 5.939808e-01 5.193813e-01 7.139540e-01 4.733524e-01 1.160231e-02 1.169883e-02 5.567751e-02 1.197440e-01 1.583252e-01 1.038565e-01 9.426054e-02 1.144483e-01 8.789168e-02 9.331596e-02 9.701853e-02 1.030950e-01 1.104228e-01 9.631053e-02 3.557550e-02 2.400107e-02
<GCONST> 6.059453e+00
<STATE> 7
<MEAN> 32
 7.832461e+00 8.798446e+00 9.959768e+00 1.085956e+01 1.130478e+01 1.120502e+01 1.159633e+01 1.139699e+01 1.042770e+01 1.039254e+01 1.098119e+01 1.113389e+01 1.158200e+01 1.112425e+01 1.024443e+01 9.408341e+00 5.650681e-03 6.637012e-03 1.782230e-02 5.482579e-02 1.861540e-01 1.960516e-01 1.794319e-01 1.936870e-01 1.388129e-01 1.297861e-01 1.411575e-01 1.636483e-01 1.751235e-01 1.257630e-01 7.859842e-02 1.681046e-02
<VARIANCE> 32
 7.801116e-01 8.731416e-01 7.690407e-01 5.039193e-01 9.239398e-01 1.139678e+00 9.414161e-01 1.203318e+00 7.792651e-01 5.439553e-01 8.655037e-01 9.771752e-01 1.044455e+00 8.193988e-01 1.701515e+00 8.526307e-01 8.212447e-03 7.947305e-03 2.856455e-02 5.948544e-02 1.120469e-01 8.813300e-02 7.129966e-02 7.302990e-02 4.060387e-02 4.543783e-02 6.698544e-02 5.332014e-02 5.716755e-02 4.385610e-02 1.972492e-02 1.188450e-02
<GCONST> 4.679896e+00
<STATE> 8
<MEAN> 32
 6.574122e+00 7.511046e+00 8.429487e+00 9.602528e+00 1.050196e+01 1.065772e+01 1.102583e+01 1.060397e+01 9.786219e+00 1.008042e+01 1.012581e+01 1.065004e+01 1.113879e+01 1.029110e+01 8.870515e+00 8.485606e+00 -3.192879e-02 -3.251960e-02 -7.703185e-02 -9.555660e-02 -1.074452e-01 -8.116200e-02 -8.676326e-02 -8.873249e-02 -7.994473e-02 -9.859152e-02 -8.934245e-02 -9.310741e-02 -8.302477e-02 -6.848415e-02 -4.862062e-02 -2.896919e-02
<VARIANCE> 32
 2.979553e-01 3.036410e-01 4.055595e-01 4.250620e-01 5.514479e-01 5.910339e-01 6.332715e-01 1.327878e+00 4.798408e-01 5.354572e-01 1.587721e+00 1.475799e+00 1.723981e+00 9.393287e-01 5.717176e-01 2.401602e-01 1.204221e-02 1.051018e-02 1.702093e-02 2.327104e-02 2.888123e-02 2.609844e-02 2.894596e-02 2.791907e-02 1.820051e-02 2.006904e-02 2.325544e-02 2.786813e-02 3.120464e-02 2.692986e-02 1.245934e-02 7.620386e-03
<GCONST> -1.137410e+01
<STATE> 9
<MEAN> 32
 5.903865e+00 6.457504e+00 6.668195e+00 7.498962e+00 8.387617e+00 8.679192e+00 8.738680e+00 8.426289e+00 7.891594e+00 7.974333e+00 8.255376e+00 8.573822e+00 9.072083e+00 8.508319e+00 7.956758e+00 8.013626e+00 -8.094112e-02 -1.359312e-01 -1.715888e-01 -2.014496e-01 -1.991743e-01 -2.092734e-01 -2.205270e-01 -1.937115e-01 -1.484131e-01 -1.560859e-01 -1.563534e-01 -1.695718e-01 -1.856134e-01 -1.538772e-01 -5.330209e-02 -1.052470e-02
<VARIANCE> 32
 3.062436e-01 5.478048e-01 4.248432e-01 6.243296e-01 5.990384e-01 4.456913e-01 4.419407e-01 6.038767e-01 3.175006e-01 3.704791e-01 4.840034e-01 3.373134e-01 4.012150e-01 2.908174e-01 1.268632e-01 1.065936e-01 1.489443e-02 1.931161e-02 2.315696e-02 2.264142e-02 1.469268e-02 1.251774e-02 1.791739e-02 1.847720e-02 1.126125e-02 7.802114e-03 1.005562e-02 1.051498e-02 9.999411e-03 9.909592e-03 5.961196e-03 1.380070e-03
<GCONST> -2.908949e+01
<TRANSP> 10
 0.000000e+00 1.000000e+00 0.000000e+00 0.000000e+00 0.000000e+00 0.000000e+00 0.000000e+00 0.000000e+00 0.000000e+00 0.000000e+00
 0.000000e+00 7.288428e-01 2.711572e-01 0.000000e+00 0.000000e+00 0.000000e+00 0.000000e+00 0.000000e+00 0.000000e+00 0.000000e+00
 0.000000e+00 0.000000e+00 3.083471e-01 6.916529e-01 0.000000e+00 0.000000e+00 0.000000e+00 0.000000e+00 0.000000e+00 0.000000e+00
 0.000000e+00 0.000000e+00 0.000000e+00 2.262357e-01 7.737643e-01 0.000000e+00 0.000000e+00 0.000000e+00 0.000000e+00 0.000000e+00
 0.000000e+00 0.000000e+00 0.000000e+00 0.000000e+00 7.395767e-01 2.604233e-01 0.000000e+00 0.000000e+00 0.000000e+00 0.000000e+00
 0.000000e+00 0.000000e+00 0.000000e+00 0.000000e+00 0.000000e+00 7.302786e-01 2.697214e-01 0.000000e+00 0.000000e+00 0.000000e+00
 0.000000e+00 0.000000e+00 0.000000e+00 0.000000e+00 0.000000e+00 0.000000e+00 8.428807e-01 1.571193e-01 0.000000e+00 0.000000e+00
 0.000000e+00 0.000000e+00 0.000000e+00 0.000000e+00 0.000000e+00 0.000000e+00 0.000000e+00 9.390664e-01 6.093364e-02 0.000000e+00
 0.000000e+00 0.000000e+00 0.000000e+00 0.000000e+00 0.000000e+00 0.000000e+00 0.000000e+00 0.000000e+00 8.809372e-01 1.190628e-01
 0.000000e+00 0.000000e+00 0.000000e+00 0.000000e+00 0.000000e+00 0.000000e+00 0.000000e+00 0.000000e+00 0.000000e+00 0.000000e+00
<ENDHMM>
~h "osm"
<BEGINHMM>
<NUMSTATES> 10
<STATE> 2
<MEAN> 32
 5.619363e+00 5.825371e+00 6.014882e+00 6.097374e+00 6.218316e+00 6.491742e+00 6.662730e+00 6.763487e+00 7.061056e+00 7.062542e+00 7.214831e+00 7.437916e+00 7.595715e+00 7.774442e+00 7.943268e+00 8.131548e+00 2.423255e-02 4.138926e-02 1.413599e-01 2.534275e-01 2.364357e-01 2.212193e-01 1.113620e-01 5.161592e-02 2.755566e-02 4.340060e-02 3.834271e-02 5.912946e-02 8.413967e-02 5.572427e-02 1.642584e-02 8.567087e-03
<VARIANCE> 32
 1.013343e-01 8.224075e-02 7.278244e-02 6.010756e-02 6.007947e-02 9.508269e-02 6.674137e-02 7.966887e-02 1.426870e-01 8.509131e-02 1.283530e-01 1.481073e-01 1.491020e-01 2.272305e-01 3.156421e-01 2.883459e-01 1.383073e-02 9.240659e-03 2.747453e-02 3.708751e-02 3.715616e-02 2.649627e-02 1.636061e-02 7.264597e-03 5.637615e-03 6.192104e-03 4.650759e-03 7.308502e-03 8.078124e-03 5.437633e-03 3.153592e-03 2.106711e-03
<GCONST> -5.028679e+01
<STATE> 3
<MEAN> 32
 5.277673e+00 5.605418e+00 5.867098e+00 6.104910e+00 6.220904e+00 6.427688e+00 6.595450e+00 6.722417e+00 6.943238e+00 6.893336e+00 7.188717e+00 7.575414e+00 8.043806e+00 8.229226e+00 8.350123e+00 8.408754e+00 2.478246e-02 1.588963e-01 2.967521e-01 4.687300e-01 4.922254e-01 4.411580e-01 3.129928e-01 1.689371e-01 1.199876e-01 1.690120e-01 2.056921e-01 2.970229e-01 3.497388e-01 2.473813e-01 1.373990e-01 1.017575e-01
<VARIANCE> 32
 2.964351e-01 1.742526e-01 1.174102e-01 1.743905e-01 2.131873e-01 2.002187e-01 1.427681e-01 1.626579e-01 2.342664e-01 2.102766e-01 1.255564e-01 2.036963e-01 5.916301e-01 6.386663e-01 6.867793e-01 6.204208e-01 1.437848e-02 3.274807e-02 7.348607e-02 1.315815e-01 1.248066e-01 1.205341e-01 8.889589e-02 2.927178e-02 2.854106e-02 2.555098e-02 2.978062e-02 6.066540e-02 6.583350e-02 5.405441e-02 3.609023e-02 2.738566e-02
<GCONST> -1.200490e+01
<STATE> 4
<MEAN> 32
 5.664146e+00 6.227661e+00 7.091700e+00 7.822733e+00 7.786124e+00 7.872544e+00 7.449852e+00 7.095371e+00 7.419173e+00 7.548466e+00 7.435779e+00 7.737033e+00 8.298344e+00 8.106838e+00 8.129587e+00 8.360254e+00 1.492497e-01 3.868934e-01 6.497241e-01 8.390148e-01 7.931461e-01 7.598439e-01 6.245306e-01 3.757610e-01 2.571741e-01 3.589677e-01 3.859791e-01 4.875825e-01 5.592632e-01 3.334813e-01 1.264195e-01 6.095342e-02
<VARIANCE> 32
 2.350174e-01 4.049143e-01 1.052095e+00 1.093760e+00 5.771619e-01 5.396110e-01 3.923573e-01 1.602648e-01 1.047681e-01 2.358091e-01 6.596010e-02 1.690326e-01 2.436183e-01 1.797058e-01 2.684785e-01 2.608470e-01 1.042441e-02 2.491659e-02 3.930758e-02 1.270909e-01 1.816607e-01 1.533663e-01 1.559433e-01 6.325516e-02 2.462828e-02 5.092883e-02 1.005523e-01 1.866585e-01 1.502739e-01 8.341487e-02 1.787707e-02 6.021645e-03
<GCONST> -7.244241e+00
<STATE> 5
<MEAN> 32
 5.889830e+00 6.877089e+00 8.004333e+00 8.892699e+00 9.129696e+00 9.175486e+00 8.838575e+00 7.993915e+00 7.754206e+00 8.071430e+00 8.444451e+00 9.185330e+00 9.589255e+00 9.034084e+00 8.491789e+00 8.396855e+00 2.846200e-01 4.755461e-01 6.978748e-01 9.095489e-01 9.134414e-01 8.999631e-01 8.003593e-01 5.319203e-01 3.801631e-01 4.563819e-01 5.977209e-01 7.341954e-01 7.495793e-01 5.118328e-01 1.926727e-01 7.896897e-02
<VARIANCE> 32
 2.295625e-01 3.468055e-01 6.751177e-01 9.124813e-01 8.488778e-01 6.722627e-01 9.590690e-01 3.154479e-01 1.486320e-01 2.850672e-01 5.140627e-01 1.097526e+00 7.284262e-01 7.174132e-01 6.972886e-01 3.443884e-01 2.471829e-02 6.188685e-02 9.883999e-02 1.829352e-01 1.984426e-01 1.573328e-01 1.592308e-01 6.616988e-02 3.574213e-02 7.429477e-02 1.209934e-01 1.928154e-01 1.762534e-01 8.274065e-02 2.827028e-02 6.104743e-03
<GCONST> 7.134549e+00
<STATE> 6
<MEAN> 32
 6.519746e+00 7.678287e+00 8.995350e+00 1.015004e+01 1.024626e+01 1.029578e+01 9.902126e+00 8.926416e+00 8.565056e+00 8.845991e+00 9.440636e+00 1.018901e+01 1.052765e+01 9.720788e+00 8.837008e+00 8.621069e+00 3.041703e-01 4.573899e-01 6.153411e-01 6.921726e-01 6.876022e-01 6.580381e-01 6.369401e-01 5.006609e-01 4.078961e-01 4.390491e-01 5.720341e-01 6.171874e-01 6.155283e-01 4.472698e-01 1.954606e-01 1.194034e-01
<VARIANCE> 32
 2.334177e-01 5.122176e-01 3.848981e-01 4.037355e-01 7.249605e-01 6.367913e-01 1.559690e+00 7.876306e-01 3.052309e-01 4.823948e-01 1.067458e+00 1.712227e+00 7.665806e-01 9.651783e-01 1.111299e+00 4.971165e-01 4.015149e-02 7.630338e-02 6.643748e-02 1.210760e-01 1.280987e-01 9.043381e-02 8.585407e-02 3.567278e-02 2.345432e-02 3.132895e-02 5.935619e-02 8.086246e-02 7.977676e-02 4.727638e-02 3.314885e-02 1.082282e-02
<GCONST> 5.126147e+00
<STATE> 7
<MEAN> 32
 6.752411e+00 7.884075e+00 9.511415e+00 1.061757e+01 1.089418e+01 1.085351e+01 1.040415e+01 9.420645e+00 9.082387e+00 9.330467e+00 1.021117e+01 1.097560e+01 1.147867e+01 1.063162e+01 9.034576e+00 8.619806e+00 4.841050e-02 7.400731e-02 9.965678e-02 3.963339e-02 -1.727708e-03 1.257996e-02 6.417714e-02 8.810664e-02 5.526659e-02 4.647044e-02 7.424423e-02 6.777018e-02 8.400239e-02 1.048531e-01 4.877426e-02 5.324972e-02
<VARIANCE> 32
 2.676452e-01 6.060661e-01 5.409865e-01 4.633470e-01 6.607419e-01 5.988076e-01 1.124540e+00 5.361631e-01 2.888598e-01 3.588569e-01 9.389106e-01 1.451521e+00 8.829076e-01 9.882498e-01 7.879611e-01 2.565640e-01 1.543250e-02 1.557845e-02 3.186833e-02 4.178336e-02 5.186405e-02 4.570619e-02 2.925169e-02 1.989584e-02 2.816343e-02 3.558635e-02 4.133856e-02 3.842393e-02 3.708313e-02 2.244462e-02 1.704559e-02 1.618386e-02
<GCONST> -6.601409e+00
<STATE> 8
<MEAN> 32
 6.290520e+00 7.112255e+00 7.892614e+00 8.460624e+00 8.306852e+00 8.485245e+00 8.673970e+00 8.662049e+00 8.656804e+00 8.823107e+00 9.414557e+00 1.000640e+01 1.062203e+01 1.072174e+01 1.035505e+01 1.017109e+01 -5.995288e-03 2.592053e-03 -1.959833e-02 -5.358356e-02 -8.527014e-02 -7.339173e-02 -5.494719e-02 -2.903088e-02 -1.297751e-02 -1.501627e-02 -3.150494e-02 -4.212433e-02 -5.344028e-02 -4.966344e-02 -2.085934e-02 -1.793052e-02
<VARIANCE> 32
 7.714873e-01 1.890028e+00 2.241846e+00 1.833621e+00 1.447497e+00 1.374597e+00 1.375946e+00 1.178103e+00 9.359466e-01 9.228939e-01 9.298927e-01 8.887971e-01 9.220229e-01 1.303094e+00 1.926009e+00 2.019529e+00 4.336495e-02 1.000810e-01 1.293832e-01 9.164809e-02 5.156815e-02 5.563106e-02 4.599430e-02 3.406493e-02 2.605310e-02 2.728225e-02 3.040526e-02 3.775439e-02 4.558345e-02 5.206671e-02 7.073557e-02 6.490234e-02
<GCONST> 1.534542e+01
<STATE> 9
<MEAN> 32
 6.654994e+00 8.067377e+00 8.916397e+00 8.706787e+00 7.903375e+00 8.432508e+00 8.708888e+00 8.606343e+00 8.663605e+00 8.821894e+00 8.890460e+00 9.627416e+00 9.876291e+00 9.050823e+00 8.172430e+00 8.175478e+00 -1.209760e-02 -2.542050e-02 -6.118352e-02 -6.295683e-02 -3.310559e-02 -3.709978e-02 -4.870567e-02 -4.368542e-02 -3.800884e-02 -4.246607e-02 -5.823650e-02 -5.161648e-02 -4.193988e-02 -2.881082e-02 -2.342281e-02 -1.482091e-02
<VARIANCE> 32
 4.288311e-01 2.126327e-01 5.008647e-01 4.590159e-01 3.264424e-01 6.001873e-01 7.154827e-01 7.807712e-01 5.469092e-01 4.927965e-01 5.811172e-01 7.893503e-01 1.042225e+00 3.844756e-01 1.565531e-01 9.373762e-02 4.898174e-03 3.810753e-03 1.103164e-02 9.705517e-03 7.289986e-03 1.009211e-02 1.203434e-02 9.336542e-03 9.762833e-03 1.080552e-02 9.734031e-03 1.419591e-02 1.394586e-02 1.099291e-02 3.302336e-03 2.144509e-03
<GCONST> -3.181859e+01
<TRANSP> 10
 0.000000e+00 1.000000e+00 0.000000e+00 0.000000e+00 0.000000e+00 0.000000e+00 0.000000e+00 0.000000e+00 0.000000e+00 0.000000e+00
 0.000000e+00 1.953033e-02 9.804696e-01 0.000000e+00 0.000000e+00 0.000000e+00 0.000000e+00 0.000000e+00 0.000000e+00 0.000000e+00
 0.000000e+00 0.000000e+00 3.142758e-01 6.857243e-01 0.000000e+00 0.000000e+00 0.000000e+00 0.000000e+00 0.000000e+00 0.000000e+00
 0.000000e+00 0.000000e+00 0.000000e+00 2.963748e-01 7.036253e-01 0.000000e+00 0.000000e+00 0.000000e+00 0.000000e+00 0.000000e+00
 0.000000e+00 0.000000e+00 0.000000e+00 0.000000e+00 7.724407e-02 9.227560e-01 0.000000e+00 0.000000e+00 0.000000e+00 0.000000e+00
 0.000000e+00 0.000000e+00 0.000000e+00 0.000000e+00 0.000000e+00 2.142346e-01 7.857654e-01 0.000000e+00 0.000000e+00 0.000000e+00
 0.000000e+00 0.000000e+00 0.000000e+00 0.000000e+00 0.000000e+00 0.000000e+00 8.213745e-01 1.786255e-01 0.000000e+00 0.000000e+00
 0.000000e+00 0.000000e+00 0.000000e+00 0.000000e+00 0.000000e+00 0.000000e+00 0.000000e+00 9.610967e-01 3.890334e-02 0.000000e+00
 0.000000e+00 0.000000e+00 0.000000e+00 0.000000e+00 0.000000e+00 0.000000e+00 0.000000e+00 0.000000e+00 9.548280e-01 4.517198e-02
 0.000000e+00 0.000000e+00 0.000000e+00 0.000000e+00 0.000000e+00 0.000000e+00 0.000000e+00 0.000000e+00 0.000000e+00 0.000000e+00
<ENDHMM>
~h "pet"
<BEGINHMM>
<NUMSTATES> 10
<STATE> 2
<MEAN> 32
 5.815909e+00 6.007048e+00 6.431927e+00 6.330321e+00 6.314132e+00 6.397272e+00 6.660660e+00 6.900420e+00 7.155662e+00 7.103752e+00 7.287623e+00 7.511341e+00 7.772351e+00 7.868875e+00 7.912551e+00 8.084961e+00 2.093389e-02 7.235233e-02 9.029115e-02 6.093581e-02 1.408701e-02 -3.593833e-02 3.291623e-02 6.882794e-02 9.142882e-02 1.020918e-01 8.822320e-02 8.284659e-02 1.025550e-01 8.812540e-02 4.480982e-02 1.643848e-02
<VARIANCE> 32
 3.942583e-01 2.731894e-01 5.474962e-01 1.804018e-01 7.137062e-02 8.183942e-02 6.383549e-02 4.526088e-02 3.810812e-02 5.343142e-02 4.059442e-02 4.859222e-02 1.013048e-01 9.681449e-02 8.217673e-02 9.850857e-02 2.336730e-02 2.265209e-02 1.611271e-02 7.899812e-03 6.017488e-03 9.068796e-03 9.829256e-03 1.556537e-02 1.814722e-02 1.252685e-02 1.393225e-02 1.179537e-02 1.060805e-02 1.363623e-02 4.262767e-03 2.167671e-03
<GCONST> -5.123694e+01
<STATE> 3
<MEAN> 32
 5.794861e+00 6.145943e+00 6.399572e+00 6.441017e+00 6.404950e+00 6.491947e+00 6.699083e+00 7.033104e+00 7.556682e+00 7.341583e+00 7.321033e+00 7.507013e+00 7.808021e+00 7.944464e+00 7.985915e+00 8.177711e+00 9.375188e-02 3.240251e-01 4.899188e-01 3.585778e-01 1.594138e-01 1.107091e-01 1.483726e-01 2.451715e-01 3.946676e-01 4.348849e-01 3.390921e-01 2.955184e-01 3.283675e-01 2.601983e-01 1.288535e-01 5.296995e-02
<VARIANCE> 32
 2.923858e-01 6.085628e-01 8.374984e-01 2.321297e-01 8.645241e-02 5.544240e-02 4.707565e-02 1.438828e-01 4.383195e-01 2.253262e-01 5.378475e-02 6.089557e-02 9.865027e-02 1.246617e-01 9.015517e-02 9.706952e-02 1.087204e-02 4.231632e-02 6.334509e-02 3.477845e-02 1.007198e-02 9.984620e-03 9.060126e-03 2.800935e-02 2.564274e-02 4.160183e-02 4.853861e-02 7.033680e-02 3.650710e-02 2.135145e-02 7.369495e-03 4.283004e-03
<GCONST> -3.338985e+01
<STATE> 4
<MEAN> 32
 5.898169e+00 6.612107e+00 7.259316e+00 6.933972e+00 6.591482e+00 6.540379e+00 6.946002e+00 7.483859e+00 8.071548e+00 8.008115e+00 7.929862e+00 7.950663e+00 8.365252e+00 8.419771e+00 8.246767e+00 8.308258e+00 2.027412e-01 4.294129e-01 6.510997e-01 6.473895e-01 3.840791e-01 2.780551e-01 3.020773e-01 4.645089e-01 6.286379e-01 7.176152e-01 6.218897e-01 5.857619e-01 5.807263e-01 4.351432e-01 1.790491e-01 8.311552e-02
<VARIANCE> 32
 4.036348e-01 1.010493e+00 1.486350e+00 5.493703e-01 1.464242e-01 8.628704e-02 8.241812e-02 3.523206e-01 7.021714e-01 5.138505e-01 3.025721e-01 2.544327e-01 2.174566e-01 2.238516e-01 1.136154e-01 1.143062e-01 3.305564e-02 8.047776e-02 1.147839e-01 6.934465e-02 3.444867e-02 3.304726e-02 2.413041e-02 4.291270e-02 7.380371e-02 1.335850e-01 1.179654e-01 1.284018e-01 1.057217e-01 7.130632e-02 3.143671e-02 1.377304e-02
<GCONST> -7.003314e+00
<STATE> 5
<MEAN> 32
 6.193640e+00 7.207305e+00 8.015738e+00 7.939566e+00 7.227301e+00 7.129147e+00 7.428449e+00 8.218019e+00 9.065727e+00 9.218473e+00 8.952030e+00 9.088735e+00 9.298604e+00 9.036996e+00 8.508756e+00 8.366093e+00 2.708456e-01 5.014005e-01 8.277865e-01 8.540878e-01 5.455064e-01 4.105695e-01 3.903034e-01 5.357156e-01 8.000076e-01 9.846753e-01 8.683804e-01 7.912374e-01 7.832667e-01 5.531216e-01 2.019093e-01 9.439357e-02
<VARIANCE> 32
 3.494152e-01 4.466217e-01 6.726419e-01 5.153071e-01 2.186322e-01 1.389998e-01 9.265202e-02 3.236613e-01 5.675268e-01 7.036028e-01 6.444854e-01 7.829048e-01 4.412076e-01 3.289346e-01 2.325384e-01 1.661071e-01 5.301360e-02 1.089800e-01 1.856560e-01 8.953870e-02 3.386275e-02 2.627558e-02 3.084193e-02 4.841655e-02 7.125788e-02 1.123251e-01 1.093770e-01 1.361987e-01 1.282606e-01 1.161162e-01 6.747510e-02 3.491478e-02
<GCONST> 3.417945e-02
<STATE> 6
<MEAN> 32
 6.703444e+00 7.981707e+00 9.421721e+00 9.507773e+00 8.223786e+00 7.862905e+00 8.118804e+00 8.993375e+00 1.026419e+01 1.080116e+01 1.046403e+01 1.026620e+01 1.058880e+01 1.000511e+01 8.733830e+00 8.523214e+00 1.565575e-01 1.788672e-01 4.611367e-01 5.173189e-01 3.812186e-01 3.023766e-01 2.671746e-01 2.745121e-01 3.611435e-01 5.168453e-01 5.225676e-01 4.767168e-01 4.709788e-01 3.704179e-01 1.552296e-01 9.220915e-02
<VARIANCE> 32
 4.879088e-01 5.515332e-01 5.958143e-01 5.490983e-01 5.154405e-01 4.417973e-01 4.182362e-01 4.854471e-01 4.290987e-01 6.443226e-01 1.253179e+00 1.699941e+00 1.225282e+00 1.175728e+00 8.921908e-01 5.743369e-01 4.004675e-02 7.947673e-02 1.506515e-01 1.206328e-01 5.683704e-02 3.812682e-02 2.436792e-02 4.662974e-02 9.951168e-02 1.353629e-01 1.054839e-01 8.724488e-02 9.606661e-02 8.471896e-02 4.001056e-02 1.691732e-02
<GCONST> 8.698271e+00
<STATE> 7
<MEAN> 32
 6.690800e+00 7.728799e+00 9.435459e+00 1.026510e+01 1.007138e+01 9.263266e+00 9.288302e+00 9.961577e+00 1.113871e+01 1.156732e+01 1.156000e+01 1.147897e+01 1.169193e+01 1.095358e+01 9.192399e+00 8.695734e+00 -2.150679e-02 -2.848347e-02 -5.957452e-02 2.982199e-02 1.121841e-01 8.653475e-02 7.409976e-02 8.840137e-02 5.608993e-02 -2.361659e-02 2.569009e-03 1.569432e-02 1.591178e-02 1.225598e-02 1.330825e-02 1.192737e-02
<VARIANCE> 32
 4.937036e-01 7.341417e-01 8.434417e-01 5.792058e-01 1.190452e+00 1.103849e+00 6.138219e-01 4.918770e-01 4.169194e-01 3.581175e-01 6.157859e-01 6.137767e-01 5.947701e-01 1.022017e+00 9.168149e-01 6.544632e-01 7.366879e-03 3.590835e-03 1.249042e-02 9.881970e-03 2.044292e-02 1.397816e-02 1.085683e-02 1.009485e-02 1.198053e-02 9.375516e-03 9.589218e-03 1.048457e-02 9.567630e-03 1.203889e-02 6.603757e-03 4.964259e-03
<GCONST> -2.223965e+01
<STATE> 8
<MEAN> 32
 6.340162e+00 7.301569e+00 8.602736e+00 9.547536e+00 9.160074e+00 8.475264e+00 8.620920e+00 9.657066e+00 1.011978e+01 9.806768e+00 9.904033e+00 9.946868e+00 1.029885e+01 9.754843e+00 8.782615e+00 8.662389e+00 -4.864362e-02 -8.956514e-02 -1.307687e-01 -1.878820e-01 -1.961317e-01 -1.664459e-01 -1.648942e-01 -1.764409e-01 -2.211892e-01 -2.093495e-01 -1.970408e-01 -1.898109e-01 -1.852212e-01 -1.646680e-01 -9.007294e-02 -5.160875e-02
<VARIANCE> 32
 3.566002e-01 6.122020e-01 8.701568e-01 8.206618e-01 9.453957e-01 6.046587e-01 4.786238e-01 8.258319e-01 8.634948e-01 7.006525e-01 1.204771e+00 1.233475e+00 9.204723e-01 8.260441e-01 6.914403e-01 4.991214e-01 1.274311e-02 2.983813e-02 5.908962e-02 5.432974e-02 4.735608e-02 3.637595e-02 4.324947e-02 5.506955e-02 5.283254e-02 3.715750e-02 4.032449e-02 4.460812e-02 4.509465e-02 4.395471e-02 2.578653e-02 1.253188e-02
<GCONST> 1.187051e+00
<STATE> 9
<MEAN> 32
 5.729213e+00 5.961305e+00 6.539247e+00 7.170934e+00 7.131348e+00 6.871397e+00 6.985672e+00 7.552946e+00 7.961906e+00 7.812950e+00 8.025125e+00 8.195914e+00 8.485896e+00 8.200754e+00 8.013392e+00 8.116838e+00 -2.858697e-02 -5.455372e-02 -9.114288e-02 -1.056837e-01 -8.647255e-02 -5.248683e-02 -5.207676e-02 -7.523952e-02 -8.077071e-02 -7.764193e-02 -7.650360e-02 -7.062262e-02 -6.126729e-02 -3.705435e-02 -3.678068e-03 -1.263438e-03
<VARIANCE> 32
 1.110281e-01 1.355735e-01 3.029226e-01 4.776067e-01 3.603550e-01 2.466706e-01 1.644537e-01 2.818010e-01 3.018719e-01 2.969345e-01 3.762411e-01 3.416496e-01 3.938593e-01 3.455608e-01 1.756611e-01 9.761587e-02 1.259101e-02 1.941889e-02 3.167590e-02 3.119610e-02 2.377971e-02 2.142894e-02 2.205576e-02 4.106116e-02 2.736591e-02 2.354925e-02 2.584869e-02 3.444339e-02 5.134435e-02 4.418468e-02 1.987795e-02 9.804188e-03
<GCONST> -2.216067e+01
<TRANSP> 10
 0.000000e+00 1.000000e+00 0.000000e+00 0.000000e+00 0.000000e+00 0.000000e+00 0.000000e+00 0.000000e+00 0.000000e+00 0.000000e+00
 0.000000e+00 2.782977e-01 7.217023e-01 0.000000e+00 0.000000e+00 0.000000e+00 0.000000e+00 0.000000e+00 0.000000e+00 0.000000e+00
 0.000000e+00 0.000000e+00 2.080202e-01 7.919798e-01 0.000000e+00 0.000000e+00 0.000000e+00 0.000000e+00 0.000000e+00 0.000000e+00
 0.000000e+00 0.000000e+00 0.000000e+00 2.061943e-01 7.938057e-01 0.000000e+00 0.000000e+00 0.000000e+00 0.000000e+00 0.000000e+00
 0.000000e+00 0.000000e+00 0.000000e+00 0.000000e+00 4.806742e-02 9.519326e-01 0.000000e+00 0.000000e+00 0.000000e+00 0.000000e+00
 0.000000e+00 0.000000e+00 0.000000e+00 0.000000e+00 0.000000e+00 6.161191e-01 3.838809e-01 0.000000e+00 0.000000e+00 0.000000e+00
 0.000000e+00 0.000000e+00 0.000000e+00 0.000000e+00 0.000000e+00 0.000000e+00 9.204915e-01 7.950857e-02 0.000000e+00 0.000000e+00
 0.000000e+00 0.000000e+00 0.000000e+00 0.000000e+00 0.000000e+00 0.000000e+00 0.000000e+00 9.015194e-01 9.848060e-02 0.000000e+00
 0.000000e+00 0.000000e+00 0.000000e+00 0.000000e+00 0.000000e+00 0.000000e+00 0.000000e+00 0.000000e+00 9.258341e-01 7.416591e-02
 0.000000e+00 0.000000e+00 0.000000e+00 0.000000e+00 0.000000e+00 0.000000e+00 0.000000e+00 0.000000e+00 0.000000e+00 0.000000e+00
<ENDHMM>
~h "sil"
<BEGINHMM>
<NUMSTATES> 5
<STATE> 2
<MEAN> 32
 5.688830e+00 6.046831e+00 6.432795e+00 6.739719e+00 6.773351e+00 6.939072e+00 7.099733e+00 7.347058e+00 7.572935e+00 7.589590e+00 7.760728e+00 7.979420e+00 8.299994e+00 8.274027e+00 8.273056e+00 8.378289e+00 -2.367284e-02 -4.955111e-02 -5.547062e-02 -5.960843e-02 -4.712215e-02 -4.090592e-02 -3.827347e-02 -3.917111e-02 -3.753559e-02 -4.374829e-02 -4.142318e-02 -4.651434e-02 -5.378183e-02 -4.104055e-02 -1.553542e-02 -1.150055e-02
<VARIANCE> 32
 2.996256e-01 4.550614e-01 5.645954e-01 6.337420e-01 5.021859e-01 3.589177e-01 3.434088e-01 4.192276e-01 4.078376e-01 4.561201e-01 4.638382e-01 4.162340e-01 4.372177e-01 4.079829e-01 4.242809e-01 3.078713e-01 1.896056e-02 2.300000e-02 2.609128e-02 2.507184e-02 1.773817e-02 1.431387e-02 1.434442e-02 1.883669e-02 1.529105e-02 1.523064e-02 1.500326e-02 1.718031e-02 2.395766e-02 2.038737e-02 1.174530e-02 6.650569e-03
<GCONST> -2.022056e+01
<STATE> 3
<MEAN> 32
 5.634010e+00 5.739564e+00 5.909325e+00 6.100063e+00 6.265121e+00 6.441316e+00 6.597103e+00 6.762147e+00 7.113485e+00 7.021904e+00 7.175330e+00 7.352100e+00 7.553171e+00 7.648369e+00 7.815168e+00 8.018308e+00 -2.239040e-04 -9.411804e-04 -1.222705e-03 -2.010589e-03 -2.631322e-03 -2.397930e-03 -2.041386e-03 -2.000191e-03 -1.213488e-03 -1.835036e-03 -2.012564e-03 -3.037756e-03 -4.442266e-03 -2.383258e-03 -8.734936e-04 -9.114355e-04
<VARIANCE> 32
 1.155414e-01 1.010569e-01 8.818903e-02 7.259924e-02 6.495937e-02 5.743187e-02 4.987440e-02 4.233972e-02 3.133519e-02 3.134017e-02 2.805601e-02 2.618596e-02 3.113053e-02 2.299440e-02 1.949644e-02 3.603362e-02 1.235486e-02 1.106144e-02 9.584087e-03 8.104087e-03 7.015174e-03 6.152246e-03 5.420730e-03 4.565590e-03 3.475371e-03 3.462632e-03 3.033216e-03 2.709177e-03 2.935678e-03 2.388591e-03 1.656727e-03 1.412868e-03
<GCONST> -7.797380e+01
<STATE> 4
<MEAN> 32
 5.288658e+00 5.719636e+00 6.116770e+00 6.329082e+00 6.417856e+00 6.710078e+00 6.871711e+00 7.052870e+00 7.249275e+00 7.350872e+00 7.566541e+00 7.769607e+00 8.004095e+00 8.218957e+00 8.401721e+00 8.569918e+00 1.021643e-04 1.569850e-03 1.049513e-03 3.557792e-05 6.380908e-04 9.019384e-04 -1.702494e-04 1.001183e-04 2.186090e-03 2.872437e-03 3.016172e-03 3.639372e-03 4.687326e-03 4.230875e-03 1.947028e-03 1.493874e-03
<VARIANCE> 32
 2.135109e-01 1.193888e-01 1.185848e-01 1.379779e-01 1.178195e-01 1.364843e-01 1.354040e-01 1.678384e-01 1.633548e-01 1.726916e-01 1.902350e-01 2.051696e-01 2.176213e-01 2.608479e-01 3.074831e-01 3.274419e-01 1.429985e-02 1.222103e-02 1.040052e-02 1.077624e-02 7.394316e-03 6.459536e-03 6.350059e-03 6.348250e-03 5.885336e-03 6.468731e-03 6.683376e-03 7.603069e-03 8.777566e-03 8.768497e-03 5.720800e-03 4.257483e-03
<GCONST> -4.683544e+01
<TRANSP> 5
 0.000000e+00 1.000000e+00 0.000000e+00 0.000000e+00 0.000000e+00
 0.000000e+00 8.664439e-01 1.335562e-01 0.000000e+00 0.000000e+00
 0.000000e+00 0.000000e+00 9.810932e-01 1.890677e-02 0.000000e+00
 0.000000e+00 0.000000e+00 0.000000e+00 9.179741e-01 8.202600e-02
 0.000000e+00 0.000000e+00 0.000000e+00 0.000000e+00 0.000000e+00
<ENDHMM>
~h "tri"
<BEGINHMM>
<NUMSTATES> 10
<STATE> 2
<MEAN> 32
 5.685511e+00 5.803272e+00 5.925897e+00 6.144141e+00 6.337574e+00 6.546474e+00 6.730011e+00 6.829982e+00 7.177263e+00 7.088225e+00 7.280652e+00 7.547177e+00 7.821453e+00 7.897243e+00 7.902173e+00 8.071655e+00 5.325043e-03 3.819930e-02 8.461715e-02 1.303513e-01 9.641346e-02 9.552078e-02 1.392650e-01 2.171437e-01 2.383702e-01 2.709804e-01 2.692769e-01 3.707943e-01 4.191406e-01 3.653596e-01 1.632678e-01 5.569870e-02
<VARIANCE> 32
 1.589096e-01 1.197063e-01 1.064085e-01 8.302890e-02 5.403547e-02 3.862232e-02 5.122878e-02 4.129143e-02 2.523939e-02 4.251528e-02 4.640334e-02 7.776476e-02 1.548571e-01 1.394551e-01 4.254450e-02 6.344151e-02 1.219790e-02 8.964441e-03 2.593446e-02 1.343343e-02 1.166707e-02 1.400815e-02 1.854281e-02 2.001451e-02 1.766809e-02 2.247659e-02 2.879202e-02 4.762173e-02 5.211242e-02 3.972001e-02 1.354236e-02 7.742681e-03
<GCONST> -4.788934e+01
<STATE> 3
<MEAN> 32
 5.764873e+00 5.904814e+00 6.164778e+00 6.348525e+00 6.481387e+00 6.676525e+00 6.879511e+00 7.262115e+00 7.624228e+00 7.719380e+00 7.894361e+00 8.472589e+00 8.889890e+00 8.842045e+00 8.416827e+00 8.291236e+00 9.154912e-03 2.192751e-02 9.462789e-02 1.060282e-01 1.075487e-01 1.157678e-01 1.605852e-01 2.237448e-01 2.415856e-01 2.905018e-01 3.045531e-01 3.927665e-01 4.332365e-01 4.089749e-01 2.714504e-01 1.588450e-01
<VARIANCE> 32
 1.488403e-01 1.460533e-01 2.297763e-01 1.534902e-01 7.542852e-02 7.879401e-02 1.330501e-01 1.544798e-01 1.893910e-01 2.148026e-01 2.765527e-01 4.910805e-01 6.289055e-01 6.429656e-01 3.233868e-01 2.353130e-01 1.676731e-02 1.301962e-02 3.280005e-02 3.407316e-02 2.313830e-02 2.822401e-02 4.139206e-02 5.182359e-02 6.753285e-02 7.636641e-02 9.820981e-02 1.285130e-01 1.607409e-01 1.542000e-01 7.799420e-02 2.947403e-02
<GCONST> -1.416842e+01
<STATE> 4
<MEAN> 32
 5.592922e+00 5.915217e+00 6.448516e+00 6.679373e+00 6.790688e+00 7.023089e+00 7.404303e+00 7.917068e+00 8.374796e+00 8.502672e+00 8.801447e+00 9.501896e+00 9.925411e+00 9.844240e+00 9.159001e+00 8.902818e+00 2.580672e-02 1.249995e-02 1.106555e-01 1.377082e-01 1.160323e-01 1.314357e-01 1.506004e-01 1.991484e-01 2.624826e-01 3.192947e-01 3.931985e-01 5.021700e-01 5.902480e-01 6.323465e-01 4.809640e-01 3.267447e-01
<VARIANCE> 32
 1.821269e-01 1.259092e-01 1.610069e-01 2.133201e-01 1.936464e-01 2.217058e-01 2.841660e-01 2.844650e-01 3.001767e-01 2.595236e-01 3.595567e-01 5.284598e-01 7.135372e-01 6.421495e-01 3.260243e-01 2.559065e-01 1.580594e-02 1.740698e-02 3.797680e-02 5.821610e-02 4.419426e-02 5.150071e-02 6.509872e-02 7.295423e-02 8.063417e-02 7.220343e-02 6.153407e-02 6.013102e-02 6.562335e-02 5.525567e-02 4.549009e-02 2.671179e-02
<GCONST> -1.030080e+01
<STATE> 5
<MEAN> 32
 5.738418e+00 5.834008e+00 6.178255e+00 6.479275e+00 6.616449e+00 6.806076e+00 7.107882e+00 7.856316e+00 8.467122e+00 8.807506e+00 9.661445e+00 1.080101e+01 1.154097e+01 1.170751e+01 1.092108e+01 1.007266e+01 1.718236e-02 5.380820e-02 3.505823e-02 3.860037e-02 2.168522e-02 7.362692e-04 -4.648949e-03 4.480591e-02 7.602658e-02 6.716217e-02 8.370942e-02 8.415301e-02 9.638876e-02 1.003235e-01 1.460183e-01 1.125509e-01
<VARIANCE> 32
 1.166348e-01 9.590583e-02 1.262090e-01 2.077769e-01 1.440131e-01 1.924615e-01 2.019636e-01 3.361705e-01 2.715412e-01 2.553628e-01 5.376136e-01 6.598144e-01 5.951900e-01 4.341455e-01 5.274034e-01 5.384239e-01 1.426237e-02 2.205321e-02 4.627038e-02 4.782435e-02 3.152435e-02 2.491450e-02 3.473160e-02 3.781215e-02 4.385519e-02 4.244894e-02 5.190697e-02 7.628301e-02 8.138327e-02 9.554488e-02 8.654618e-02 6.301582e-02
<GCONST> -1.176347e+01
<STATE> 6
<MEAN> 32
 6.125718e+00 6.332508e+00 6.966243e+00 7.450599e+00 7.358863e+00 7.657642e+00 7.962109e+00 8.723573e+00 9.877765e+00 9.951875e+00 1.073591e+01 1.159914e+01 1.222646e+01 1.226391e+01 1.174835e+01 1.076775e+01 3.669748e-02 1.445419e-01 1.431301e-01 1.174808e-01 5.143213e-02 2.441532e-02 2.667354e-02 6.668444e-02 1.249964e-01 1.112718e-01 1.324248e-01 1.289308e-01 1.156268e-01 7.612662e-02 8.262017e-02 7.622049e-02
<VARIANCE> 32
 2.626626e-01 2.235160e-01 9.871497e-01 1.443147e+00 8.893390e-01 9.500035e-01 1.010020e+00 6.138770e-01 5.959296e-01 6.171979e-01 7.956523e-01 1.075902e+00 1.066475e+00 9.319654e-01 1.698081e+00 2.468403e+00 3.121840e-02 6.452662e-02 1.427880e-01 1.784748e-01 9.224255e-02 7.078102e-02 7.687486e-02 6.905414e-02 7.577535e-02 7.337504e-02 9.118564e-02 1.352146e-01 1.634917e-01 1.752555e-01 2.080095e-01 1.731733e-01
<GCONST> 1.934448e+01
<STATE> 7
<MEAN> 32
 6.632977e+00 7.969858e+00 8.955560e+00 9.257717e+00 8.404677e+00 8.292978e+00 8.548935e+00 9.332265e+00 1.051240e+01 1.072739e+01 1.106254e+01 1.146572e+01 1.184260e+01 1.159381e+01 1.114017e+01 1.061404e+01 1.654990e-01 3.273292e-01 5.594611e-01 5.292215e-01 3.356034e-01 2.602149e-01 2.365900e-01 2.375660e-01 2.896014e-01 3.512062e-01 2.110691e-01 4.199193e-02 -5.198600e-02 -1.546388e-01 -2.796691e-01 -2.604898e-01
<VARIANCE> 32
 7.027464e-01 1.254314e+00 1.967151e+00 1.830808e+00 1.041250e+00 8.271789e-01 5.649841e-01 3.813754e-01 5.993738e-01 8.649178e-01 1.366944e+00 1.571363e+00 1.786641e+00 2.039955e+00 3.668084e+00 4.727195e+00 4.078167e-02 1.400745e-01 1.429415e-01 1.462652e-01 7.968370e-02 5.116231e-02 4.962243e-02 5.514229e-02 7.914098e-02 7.198749e-02 7.743316e-02 6.919528e-02 6.484458e-02 5.649275e-02 5.544751e-02 4.481276e-02
<GCONST> 2.009650e+01
<STATE> 8
<MEAN> 32
 6.597758e+00 7.972658e+00 9.540797e+00 9.890531e+00 8.588345e+00 8.187414e+00 8.326230e+00 8.882710e+00 1.010154e+01 1.128324e+01 1.140165e+01 1.123302e+01 1.160515e+01 1.099147e+01 9.185782e+00 8.623920e+00 -1.689047e-02 -2.747611e-02 -6.866938e-02 -7.986319e-02 -6.211167e-02 -6.359023e-02 -7.698724e-02 -1.043726e-01 -1.190890e-01 -8.900497e-02 -8.704029e-02 -9.979504e-02 -7.485385e-02 -6.832659e-02 -7.798897e-02 -4.750778e-02
<VARIANCE> 32
 5.733704e-01 5.893443e-01 1.195577e+00 4.507461e-01 7.289595e-01 6.003774e-01 3.964081e-01 3.814512e-01 7.086579e-01 3.994323e-01 5.070391e-01 6.871723e-01 5.462769e-01 6.462392e-01 6.520281e-01 3.831511e-01 7.357470e-03 6.763156e-03 1.281138e-02 1.183147e-02 1.040502e-02 1.304650e-02 8.226965e-03 9.072623e-03 1.470639e-02 2.963198e-02 2.973609e-02 2.615740e-02 2.852036e-02 2.680014e-02 8.263379e-03 5.191319e-03
<GCONST> -1.959201e+01
<STATE> 9
<MEAN> 32
 6.410637e+00 7.616612e+00 8.527722e+00 7.998471e+00 7.299505e+00 7.109486e+00 7.300830e+00 7.899223e+00 9.083138e+00 9.456734e+00 8.929251e+00 8.880062e+00 9.329826e+00 8.883100e+00 8.480370e+00 8.453682e+00 -5.608965e-02 -1.385608e-01 -1.761259e-01 -1.752159e-01 -1.186416e-01 -7.101437e-02 -6.700975e-02 -1.051934e-01 -1.289755e-01 -1.572483e-01 -1.534461e-01 -1.360291e-01 -1.516442e-01 -1.464038e-01 -5.325714e-02 -1.751758e-02
<VARIANCE> 32
 2.772470e-01 8.233948e-01 1.055301e+00 4.477940e-01 2.585601e-01 2.264224e-01 2.328290e-01 6.072956e-01 1.389358e+00 6.925282e-01 3.513887e-01 3.633949e-01 4.133057e-01 2.569829e-01 2.303749e-01 1.812939e-01 1.514988e-02 3.441964e-02 3.695780e-02 3.471208e-02 2.457122e-02 2.012056e-02 1.597321e-02 1.682977e-02 2.724747e-02 3.078048e-02 2.763522e-02 2.160818e-02 2.663807e-02 1.912806e-02 8.980159e-03 4.665971e-03
<GCONST> -1.794396e+01
<TRANSP> 10
 0.000000e+00 1.000000e+00 0.000000e+00 0.000000e+00 0.000000e+00 0.000000e+00 0.000000e+00 0.000000e+00 0.000000e+00 0.000000e+00
 0.000000e+00 3.312269e-01 6.687732e-01 0.000000e+00 0.000000e+00 0.000000e+00 0.000000e+00 0.000000e+00 0.000000e+00 0.000000e+00
 0.000000e+00 0.000000e+00 4.474041e-01 5.525959e-01 0.000000e+00 0.000000e+00 0.000000e+00 0.000000e+00 0.000000e+00 0.000000e+00
 0.000000e+00 0.000000e+00 0.000000e+00 5.323732e-01 4.676267e-01 0.000000e+00 0.000000e+00 0.000000e+00 0.000000e+00 0.000000e+00
 0.000000e+00 0.000000e+00 0.000000e+00 0.000000e+00 8.440949e-01 1.559050e-01 0.000000e+00 0.000000e+00 0.000000e+00 0.000000e+00
 0.000000e+00 0.000000e+00 0.000000e+00 0.000000e+00 0.000000e+00 7.432660e-01 2.567340e-01 0.000000e+00 0.000000e+00 0.000000e+00
 0.000000e+00 0.000000e+00 0.000000e+00 0.000000e+00 0.000000e+00 0.000000e+00 7.782250e-01 2.217751e-01 0.000000e+00 0.000000e+00
 0.000000e+00 0.000000e+00 0.000000e+00 0.000000e+00 0.000000e+00 0.000000e+00 0.000000e+00 9.313554e-01 6.864463e-02 0.000000e+00
 0.000000e+00 0.000000e+00 0.000000e+00 0.000000e+00 0.000000e+00 0.000000e+00 0.000000e+00 0.000000e+00 8.960995e-01 1.039005e-01
 0.000000e+00 0.000000e+00 0.000000e+00 0.000000e+00 0.000000e+00 0.000000e+00 0.000000e+00 0.000000e+00 0.000000e+00 0.000000e+00
<ENDHMM>
~h "nula"
<BEGINHMM>
<NUMSTATES> 10
<STATE> 2
<MEAN> 32
 6.015040e+00 6.712188e+00 6.813466e+00 6.992059e+00 6.892706e+00 7.034370e+00 6.929481e+00 6.983139e+00 7.329552e+00 7.211452e+00 7.221854e+00 7.385315e+00 7.914393e+00 8.116961e+00 7.985890e+00 8.240191e+00 1.011611e-01 3.107404e-01 2.993138e-01 2.588384e-01 1.738317e-01 1.332729e-01 4.448100e-02 3.408784e-02 5.504734e-02 7.343239e-02 4.518326e-02 2.941860e-02 4.710239e-02 4.193414e-02 3.301401e-03 -7.485911e-03
<VARIANCE> 32
 2.429740e-01 8.150730e-01 9.416414e-01 1.004443e+00 6.645496e-01 5.883913e-01 1.718400e-01 1.425181e-01 1.450127e-01 1.194033e-01 7.107911e-02 5.369820e-02 1.176665e-01 1.505754e-01 6.113676e-02 9.285526e-02 1.279838e-02 3.138625e-02 2.715339e-02 2.658926e-02 1.909286e-02 2.748745e-02 1.434462e-02 1.555912e-02 1.086627e-02 1.544073e-02 8.266944e-03 4.871614e-03 1.843348e-02 1.127132e-02 3.238376e-03 2.259513e-03
<GCONST> -3.647078e+01
<STATE> 3
<MEAN> 32
 5.865019e+00 6.898874e+00 7.017491e+00 6.890464e+00 6.643681e+00 6.775309e+00 6.765174e+00 6.958718e+00 7.293058e+00 7.309750e+00 7.417869e+00 7.506709e+00 7.829509e+00 7.902503e+00 7.898763e+00 8.067516e+00 2.436305e-01 5.616732e-01 5.719116e-01 4.966975e-01 2.801617e-01 2.127350e-01 1.439665e-01 2.261152e-01 2.036645e-01 2.589348e-01 2.465778e-01 1.547974e-01 1.756229e-01 9.480111e-02 7.085506e-03 -1.532830e-02
<VARIANCE> 32
 4.334534e-01 6.079222e-01 7.494616e-01 6.618473e-01 4.635611e-01 3.905847e-01 1.003278e-01 9.570289e-02 1.129788e-01 1.616101e-01 1.387168e-01 7.366230e-02 1.259435e-01 1.115534e-01 1.210160e-01 8.539945e-02 4.592835e-02 8.634076e-02 6.337447e-02 5.944536e-02 2.717820e-02 2.213458e-02 1.245366e-02 1.315163e-02 1.279617e-02 3.793737e-02 2.315373e-02 1.465177e-02 5.922904e-02 2.984290e-02 5.405447e-03 6.915112e-03
<GCONST> -2.639780e+01
<STATE> 4
<MEAN> 32
 6.462400e+00 7.864990e+00 8.032078e+00 7.903265e+00 7.243948e+00 7.203829e+00 7.033178e+00 7.462378e+00 7.760238e+00 7.845249e+00 7.995045e+00 7.948452e+00 8.527366e+00 8.302529e+00 7.978507e+00 8.101518e+00 2.724735e-01 4.354191e-01 5.030940e-01 4.968209e-01 3.036039e-01 2.153417e-01 2.031270e-01 2.824894e-01 2.434235e-01 3.149918e-01 3.301422e-01 2.430558e-01 2.640547e-01 1.717279e-01 4.490613e-02 1.596589e-03
<VARIANCE> 32
 4.525133e-01 4.940678e-01 5.735535e-01 4.422506e-01 4.160352e-01 4.862481e-01 1.295431e-01 1.814694e-01 2.261772e-01 4.066505e-01 2.578602e-01 1.792394e-01 5.499040e-01 2.003103e-01 8.540490e-02 9.029559e-02 7.022195e-02 1.247243e-01 1.077994e-01 8.215291e-02 3.845519e-02 3.801387e-02 2.095903e-02 1.705738e-02 1.931872e-02 3.581207e-02 2.646755e-02 2.150013e-02 4.899354e-02 2.283886e-02 4.920841e-03 1.839492e-03
<GCONST> -1.902210e+01
<STATE> 5
<MEAN> 32
 6.694133e+00 8.197616e+00 8.591738e+00 8.517843e+00 7.694201e+00 7.465592e+00 7.418777e+00 7.814219e+00 8.024071e+00 8.426638e+00 8.388043e+00 8.270607e+00 8.617923e+00 8.387657e+00 8.062447e+00 8.077896e+00 1.168277e-01 1.553874e-01 2.239522e-01 2.670235e-01 2.134690e-01 1.931321e-01 2.634461e-01 2.560940e-01 1.783991e-01 1.791932e-01 2.004786e-01 1.733771e-01 8.604263e-02 4.880814e-02 4.877521e-02 2.281340e-02
<VARIANCE> 32
 5.020518e-01 5.024168e-01 4.637305e-01 3.299429e-01 3.257454e-01 5.212046e-01 2.055755e-01 2.114444e-01 2.479434e-01 5.471181e-01 4.781700e-01 3.264297e-01 5.281932e-01 2.047170e-01 8.782109e-02 6.969216e-02 4.045254e-02 5.235920e-02 6.989442e-02 5.845178e-02 3.974858e-02 3.366197e-02 3.759099e-02 3.420329e-02 2.740567e-02 3.675979e-02 3.345612e-02 3.410178e-02 1.738982e-02 1.509340e-02 6.012758e-03 3.774352e-03
<GCONST> -1.807272e+01
<STATE> 6
<MEAN> 32
 6.664554e+00 8.138467e+00 9.197718e+00 9.622727e+00 9.138244e+00 9.196594e+00 8.781657e+00 8.461618e+00 8.640347e+00 8.886491e+00 8.521856e+00 8.538260e+00 8.616365e+00 8.415977e+00 8.151808e+00 8.192311e+00 7.166099e-04 -8.294325e-03 4.800299e-02 1.127681e-01 1.351911e-01 1.317340e-01 1.440117e-01 9.517415e-02 6.958431e-02 7.517719e-02 8.523156e-02 1.123600e-01 7.617643e-02 4.163176e-02 2.178164e-02 1.619467e-02
<VARIANCE> 32
 2.777385e-01 2.871904e-01 3.676162e-01 3.524335e-01 7.199566e-01 7.915804e-01 7.731137e-01 2.769010e-01 2.713850e-01 3.333914e-01 5.482080e-01 4.742281e-01 3.805993e-01 2.016500e-01 1.200541e-01 5.458989e-02 7.869864e-03 9.373093e-03 2.044668e-02 2.196413e-02 2.477865e-02 2.961931e-02 4.934217e-02 3.867088e-02 2.589979e-02 2.885509e-02 2.987316e-02 3.545272e-02 2.360591e-02 1.467610e-02 8.046295e-03 6.741807e-03
<GCONST> -2.174947e+01
<STATE> 7
<MEAN> 32
 6.718995e+00 8.195279e+00 9.016965e+00 9.824506e+00 9.051321e+00 9.028445e+00 9.304927e+00 9.004013e+00 8.817503e+00 9.143456e+00 9.851217e+00 1.011039e+01 9.993599e+00 9.132423e+00 8.504586e+00 8.500222e+00 2.412021e-02 1.064736e-02 1.024931e-01 1.692920e-01 2.158792e-01 2.459480e-01 2.571561e-01 1.307560e-01 1.036623e-01 1.186955e-01 1.338481e-01 1.913194e-01 2.118166e-01 1.640983e-01 7.683077e-02 5.607397e-02
<VARIANCE> 32
 1.019055e+00 1.013212e+00 1.803271e+00 8.559977e-01 7.953736e-01 9.406770e-01 8.795931e-01 8.063683e-01 5.773140e-01 4.970787e-01 5.556035e-01 6.525343e-01 6.016951e-01 4.571015e-01 6.099770e-01 6.296013e-01 3.684350e-02 3.703316e-02 5.383778e-02 5.158037e-02 4.023957e-02 6.216175e-02 8.834556e-02 6.861871e-02 3.275335e-02 3.592176e-02 3.748922e-02 6.289811e-02 6.694180e-02 7.185303e-02 4.500481e-02 4.221402e-02
<GCONST> 6.155576e+00
<STATE> 8
<MEAN> 32
 7.170761e+00 8.321340e+00 9.666316e+00 1.054686e+01 1.075577e+01 1.090823e+01 1.109608e+01 1.050545e+01 9.791040e+00 1.007680e+01 1.079797e+01 1.101540e+01 1.128377e+01 1.056924e+01 9.420428e+00 8.942237e+00 -1.564185e-02 -3.316905e-02 -6.034644e-02 -3.519995e-02 1.103864e-02 2.093534e-02 2.503749e-02 3.508521e-02 1.257321e-02 5.490100e-05 -4.054117e-04 -5.154232e-04 1.814989e-02 2.179886e-02 7.249716e-03 -5.839732e-03
<VARIANCE> 32
 8.794740e-01 1.217325e+00 1.668861e+00 6.585829e-01 6.450857e-01 5.373838e-01 7.833109e-01 1.037340e+00 4.466262e-01 5.080833e-01 6.784400e-01 6.080104e-01 1.322582e+00 1.177086e+00 1.520396e+00 8.524048e-01 9.848429e-03 7.436194e-03 1.367150e-02 1.400727e-02 3.228866e-02 2.544110e-02 3.183230e-02 3.101117e-02 1.678671e-02 2.556742e-02 2.919241e-02 3.026660e-02 5.266140e-02 5.058763e-02 2.631692e-02 1.481615e-02
<GCONST> -4.629209e+00
<STATE> 9
<MEAN> 32
 6.263076e+00 7.117107e+00 7.598293e+00 8.714536e+00 9.270280e+00 9.448643e+00 9.514327e+00 9.020023e+00 8.544187e+00 8.695312e+00 8.730994e+00 9.035799e+00 9.447612e+00 9.037110e+00 8.293172e+00 8.184698e+00 -8.066636e-02 -1.187827e-01 -1.766169e-01 -2.100270e-01 -1.985697e-01 -2.051637e-01 -2.204203e-01 -2.111157e-01 -1.856131e-01 -1.779573e-01 -1.866670e-01 -1.964976e-01 -1.993859e-01 -1.633361e-01 -7.489216e-02 -3.080717e-02
<VARIANCE> 32
 3.116413e-01 6.543775e-01 6.909273e-01 8.169377e-01 7.463786e-01 5.364851e-01 7.004026e-01 9.174577e-01 6.276963e-01 6.595359e-01 8.652428e-01 7.426869e-01 6.243942e-01 4.179015e-01 3.171712e-01 1.412097e-01 1.628429e-02 2.124842e-02 2.650649e-02 2.563774e-02 2.124340e-02 2.056736e-02 2.593020e-02 2.629517e-02 1.737911e-02 1.447623e-02 2.155408e-02 1.777433e-02 2.044907e-02 1.967943e-02 1.432195e-02 6.916090e-03
<GCONST> -1.396310e+01
<TRANSP> 10
 0.000000e+00 1.000000e+00 0.000000e+00 0.000000e+00 0.000000e+00 0.000000e+00 0.000000e+00 0.000000e+00 0.000000e+00 0.000000e+00
 0.000000e+00 5.745118e-01 4.254882e-01 0.000000e+00 0.000000e+00 0.000000e+00 0.000000e+00 0.000000e+00 0.000000e+00 0.000000e+00
 0.000000e+00 0.000000e+00 1.712736e-01 8.287264e-01 0.000000e+00 0.000000e+00 0.000000e+00 0.000000e+00 0.000000e+00 0.000000e+00
 0.000000e+00 0.000000e+00 0.000000e+00 3.135143e-01 6.864858e-01 0.000000e+00 0.000000e+00 0.000000e+00 0.000000e+00 0.000000e+00
 0.000000e+00 0.000000e+00 0.000000e+00 0.000000e+00 5.348037e-01 4.651963e-01 0.000000e+00 0.000000e+00 0.000000e+00 0.000000e+00
 0.000000e+00 0.000000e+00 0.000000e+00 0.000000e+00 0.000000e+00 8.493761e-01 1.506239e-01 0.000000e+00 0.000000e+00 0.000000e+00
 0.000000e+00 0.000000e+00 0.000000e+00 0.000000e+00 0.000000e+00 0.000000e+00 8.052660e-01 1.947340e-01 0.000000e+00 0.000000e+00
 0.000000e+00 0.000000e+00 0.000000e+00 0.000000e+00 0.000000e+00 0.000000e+00 0.000000e+00 9.473455e-01 5.265450e-02 0.000000e+00
 0.000000e+00 0.000000e+00 0.000000e+00 0.000000e+00 0.000000e+00 0.000000e+00 0.000000e+00 0.000000e+00 9.043770e-01 9.562294e-02
 0.000000e+00 0.000000e+00 0.000000e+00 0.000000e+00 0.000000e+00 0.000000e+00 0.000000e+00 0.000000e+00 0.000000e+00 0.000000e+00
<ENDHMM>
~h "devet"
<BEGINHMM>
<NUMSTATES> 10
<STATE> 2
<MEAN> 32
 6.083346e+00 6.537975e+00 6.791180e+00 6.700100e+00 6.434889e+00 6.592224e+00 6.676799e+00 6.749074e+00 7.146784e+00 7.124090e+00 7.247996e+00 7.407430e+00 7.628859e+00 7.733603e+00 7.867685e+00 8.037599e+00 5.295145e-02 1.056600e-01 1.296869e-01 1.200809e-01 5.717521e-02 1.421363e-02 1.774648e-03 2.367847e-02 4.172504e-02 4.093212e-02 4.637714e-02 4.247040e-02 4.416215e-02 3.433533e-02 1.137916e-02 9.085368e-03
<VARIANCE> 32
 3.096465e-01 2.562040e-01 4.568122e-01 2.712516e-01 7.332677e-02 7.807302e-02 8.539960e-02 4.453125e-02 3.035946e-02 4.462713e-02 4.939430e-02 4.258576e-02 7.848602e-02 8.600231e-02 5.998532e-02 7.656923e-02 2.230271e-02 4.606865e-02 4.688553e-02 3.457547e-02 1.030124e-02 1.012370e-02 9.599153e-03 1.143721e-02 1.168779e-02 9.886759e-03 9.760364e-03 1.453340e-02 1.749768e-02 1.095643e-02 2.332017e-03 2.278831e-03
<GCONST> -4.991659e+01
<STATE> 3
<MEAN> 32
 6.161545e+00 6.766853e+00 6.786565e+00 6.837123e+00 6.554437e+00 6.598329e+00 6.731742e+00 6.959287e+00 7.404493e+00 7.391993e+00 7.660139e+00 7.831396e+00 8.194698e+00 8.185760e+00 7.928792e+00 8.098619e+00 9.405959e-02 1.878704e-01 2.206302e-01 2.038216e-01 1.273967e-01 4.902346e-02 8.476077e-02 1.872379e-01 2.278462e-01 2.080864e-01 2.291571e-01 2.272947e-01 2.353662e-01 1.842415e-01 7.751512e-02 3.925731e-02
<VARIANCE> 32
 4.148514e-01 8.366722e-01 5.113832e-01 4.367019e-01 1.703643e-01 1.089845e-01 8.085209e-02 6.301194e-02 1.899985e-01 2.000343e-01 3.665513e-01 4.865186e-01 7.479036e-01 5.137223e-01 1.092110e-01 1.299330e-01 1.377299e-02 5.650797e-02 5.267881e-02 4.517850e-02 2.040058e-02 1.174273e-02 2.224186e-02 3.414356e-02 3.880936e-02 3.985080e-02 4.781751e-02 8.733007e-02 1.350695e-01 1.010598e-01 1.691893e-02 7.947026e-03
<GCONST> -1.709422e+01
<STATE> 4
<MEAN> 32
 6.375687e+00 7.169077e+00 7.498583e+00 7.411323e+00 6.982450e+00 6.789425e+00 6.877987e+00 7.356905e+00 7.806192e+00 7.701383e+00 7.862954e+00 7.900683e+00 8.187911e+00 8.242466e+00 8.187115e+00 8.307708e+00 1.267318e-01 2.482594e-01 4.405779e-01 4.388108e-01 3.008335e-01 2.420608e-01 3.022783e-01 4.577864e-01 5.041176e-01 5.001938e-01 4.855078e-01 4.961870e-01 5.159714e-01 4.346403e-01 2.358905e-01 1.262019e-01
<VARIANCE> 32
 4.973751e-01 9.541110e-01 9.339605e-01 8.076215e-01 4.110792e-01 1.522569e-01 1.243593e-01 2.674288e-01 3.218517e-01 1.791618e-01 1.653243e-01 1.339835e-01 1.682638e-01 2.105482e-01 3.108293e-01 4.114633e-01 2.428773e-02 5.395958e-02 1.098009e-01 1.064472e-01 5.798506e-02 3.991619e-02 4.582431e-02 6.809788e-02 8.252802e-02 8.603200e-02 1.067139e-01 1.115158e-01 1.273423e-01 9.366588e-02 5.815974e-02 3.387072e-02
<GCONST> -3.412070e+00
<STATE> 5
<MEAN> 32
 6.447277e+00 7.459247e+00 7.941800e+00 7.963119e+00 7.277329e+00 7.070553e+00 7.327969e+00 7.999386e+00 8.456226e+00 8.370801e+00 8.532454e+00 8.798224e+00 9.164153e+00 9.176934e+00 8.799242e+00 8.711889e+00 1.811142e-01 3.169599e-01 6.524646e-01 7.250081e-01 5.383421e-01 4.116904e-01 4.773344e-01 6.271427e-01 7.322279e-01 7.424885e-01 7.030926e-01 6.785566e-01 6.626853e-01 4.964488e-01 2.132561e-01 7.030678e-02
<VARIANCE> 32
 5.007540e-01 7.388093e-01 5.948809e-01 3.443870e-01 9.509536e-02 9.024056e-02 1.697713e-01 4.000585e-01 4.490023e-01 3.919487e-01 5.201064e-01 6.118802e-01 7.764505e-01 5.926419e-01 8.707485e-01 8.622727e-01 4.005797e-02 7.419383e-02 5.607793e-02 5.996894e-02 4.947676e-02 6.868752e-02 5.515312e-02 8.902702e-02 1.403388e-01 1.390803e-01 2.081703e-01 2.487712e-01 2.256711e-01 1.997104e-01 9.778419e-02 5.155590e-02
<GCONST> 7.038663e+00
<STATE> 6
<MEAN> 32
 6.688541e+00 7.976659e+00 9.360810e+00 9.509251e+00 8.512637e+00 8.208815e+00 8.614029e+00 9.486341e+00 1.027907e+01 1.026871e+01 1.039362e+01 1.049745e+01 1.064184e+01 1.016706e+01 9.249560e+00 8.834380e+00 1.912663e-01 3.050939e-01 6.700112e-01 7.975630e-01 7.066752e-01 5.414925e-01 5.413697e-01 6.747203e-01 8.353442e-01 8.477173e-01 8.277339e-01 8.009266e-01 7.385128e-01 5.273679e-01 2.759722e-01 1.537543e-01
<VARIANCE> 32
 4.310770e-01 5.346509e-01 5.208253e-01 5.383058e-01 4.988650e-01 7.253245e-01 5.915911e-01 3.682562e-01 3.010512e-01 4.636462e-01 1.329194e+00 1.407984e+00 1.174483e+00 1.591642e+00 1.190683e+00 8.198838e-01 5.336270e-02 1.100062e-01 8.446524e-02 4.429585e-02 4.383767e-02 4.132568e-02 3.904327e-02 4.890835e-02 6.780477e-02 5.983142e-02 1.031412e-01 1.181417e-01 8.753204e-02 1.263226e-01 4.364531e-02 1.567507e-02
<GCONST> 7.784014e+00
<STATE> 7
<MEAN> 32
 6.829867e+00 7.926633e+00 9.736525e+00 1.038588e+01 9.683565e+00 8.792391e+00 9.017976e+00 9.937442e+00 1.099810e+01 1.097673e+01 1.090587e+01 1.105068e+01 1.126816e+01 1.044208e+01 9.232400e+00 8.675821e+00 8.070549e-02 4.358678e-02 1.091290e-01 3.265279e-01 4.143873e-01 2.957159e-01 2.720199e-01 2.944098e-01 3.319233e-01 3.404041e-01 3.221820e-01 2.947054e-01 2.520219e-01 1.798872e-01 6.514630e-02 5.055962e-02
<VARIANCE> 32
 3.535901e-01 5.776995e-01 6.152040e-01 4.850360e-01 8.619274e-01 5.310168e-01 3.389935e-01 3.898549e-01 2.563952e-01 4.047574e-01 1.238129e+00 1.324394e+00 9.618892e-01 1.356843e+00 6.238871e-01 4.789515e-01 1.442510e-02 1.977953e-02 7.268339e-02 4.063626e-02 4.374310e-02 1.142430e-02 1.328677e-02 1.793337e-02 2.446606e-02 2.588036e-02 3.022975e-02 3.819429e-02 3.193635e-02 2.435762e-02 2.198230e-02 1.465882e-02
<GCONST> -8.761505e+00
<STATE> 8
<MEAN> 32
 6.900659e+00 7.945650e+00 9.312132e+00 9.966333e+00 9.706717e+00 8.940740e+00 9.172660e+00 9.851633e+00 1.087945e+01 1.109937e+01 1.138293e+01 1.131544e+01 1.160359e+01 1.103681e+01 9.204545e+00 8.686351e+00 -1.155129e-02 -1.197378e-02 -2.220197e-02 -2.144837e-02 -1.261901e-02 -1.460717e-02 -1.334073e-02 -6.837518e-03 -2.241462e-02 -4.073662e-02 -3.122774e-02 -2.800899e-02 -2.753916e-02 -2.362307e-02 -1.392538e-02 -7.283795e-03
<VARIANCE> 32
 6.421434e-01 7.559155e-01 1.080343e+00 8.493166e-01 1.059121e+00 6.953602e-01 4.273867e-01 4.117220e-01 4.793268e-01 5.479773e-01 5.761081e-01 6.745327e-01 5.787598e-01 7.354246e-01 1.005030e+00 4.831223e-01 6.313526e-03 7.233776e-03 3.128089e-02 3.397724e-02 4.601510e-02 2.561276e-02 1.918373e-02 1.740494e-02 3.195071e-02 4.536433e-02 3.922419e-02 3.661236e-02 4.023939e-02 4.327741e-02 1.639777e-02 6.879435e-03
<GCONST> -8.013139e+00
<STATE> 9
<MEAN> 32
 6.241464e+00 7.405168e+00 8.808243e+00 9.122283e+00 8.274546e+00 7.754622e+00 8.084925e+00 9.309001e+00 9.744009e+00 9.613193e+00 9.257034e+00 9.600554e+00 9.815116e+00 9.116998e+00 8.399375e+00 8.422704e+00 -5.382962e-02 -9.468594e-02 -1.291110e-01 -1.401235e-01 -1.304560e-01 -1.073840e-01 -1.158657e-01 -1.494844e-01 -1.583070e-01 -1.311464e-01 -1.301423e-01 -1.342560e-01 -1.238502e-01 -9.855527e-02 -5.452532e-02 -2.793046e-02
<VARIANCE> 32
 1.648525e-01 3.888217e-01 6.168134e-01 7.005458e-01 6.945196e-01 3.485624e-01 2.896008e-01 6.679887e-01 6.048102e-01 7.247659e-01 1.175567e+00 1.786618e+00 7.461522e-01 4.567735e-01 1.988945e-01 1.693812e-01 1.336470e-02 2.402802e-02 4.564613e-02 5.594462e-02 5.216156e-02 3.031147e-02 3.423081e-02 6.284003e-02 6.211911e-02 4.349945e-02 4.929797e-02 4.546752e-02 4.787923e-02 4.301137e-02 1.360363e-02 6.302247e-03
<GCONST> -6.554521e+00
<TRANSP> 10
 0.000000e+00 1.000000e+00 0.000000e+00 0.000000e+00 0.000000e+00 0.000000e+00 0.000000e+00 0.000000e+00 0.000000e+00 0.000000e+00
 0.000000e+00 6.871138e-01 3.128862e-01 0.000000e+00 0.000000e+00 0.000000e+00 0.000000e+00 0.000000e+00 0.000000e+00 0.000000e+00
 0.000000e+00 0.000000e+00 3.955375e-01 6.044625e-01 0.000000e+00 0.000000e+00 0.000000e+00 0.000000e+00 0.000000e+00 0.000000e+00
 0.000000e+00 0.000000e+00 0.000000e+00 2.862486e-01 7.137515e-01 0.000000e+00 0.000000e+00 0.000000e+00 0.000000e+00 0.000000e+00
 0.000000e+00 0.000000e+00 0.000000e+00 0.000000e+00 1.998631e-01 8.001369e-01 0.000000e+00 0.000000e+00 0.000000e+00 0.000000e+00
 0.000000e+00 0.000000e+00 0.000000e+00 0.000000e+00 0.000000e+00 2.486115e-01 7.513885e-01 0.000000e+00 0.000000e+00 0.000000e+00
 0.000000e+00 0.000000e+00 0.000000e+00 0.000000e+00 0.000000e+00 0.000000e+00 5.142676e-01 4.857324e-01 0.000000e+00 0.000000e+00
 0.000000e+00 0.000000e+00 0.000000e+00 0.000000e+00 0.000000e+00 0.000000e+00 0.000000e+00 9.628539e-01 3.714607e-02 0.000000e+00
 0.000000e+00 0.000000e+00 0.000000e+00 0.000000e+00 0.000000e+00 0.000000e+00 0.000000e+00 0.000000e+00 9.280468e-01 7.195326e-02
 0.000000e+00 0.000000e+00 0.000000e+00 0.000000e+00 0.000000e+00 0.000000e+00 0.000000e+00 0.000000e+00 0.000000e+00 0.000000e+00
<ENDHMM>
~h "jedna"
<BEGINHMM>
<NUMSTATES> 10
<STATE> 2
<MEAN> 32
 6.057252e+00 6.644055e+00 7.001913e+00 6.871482e+00 6.635998e+00 6.592984e+00 6.771144e+00 7.366380e+00 7.939469e+00 7.829324e+00 7.571743e+00 7.550120e+00 8.167519e+00 8.087237e+00 8.288180e+00 8.462049e+00 3.875352e-02 1.503150e-01 1.345575e-01 1.006594e-01 3.361426e-02 2.452016e-02 1.005983e-02 2.342928e-02 3.956578e-02 9.421406e-02 1.074285e-01 1.136657e-01 1.187479e-01 7.316799e-02 1.411969e-02 1.425757e-03
<VARIANCE> 32
 2.293730e-01 5.705737e-01 1.063792e+00 8.586661e-01 3.282697e-01 9.855210e-02 1.029030e-01 6.019027e-01 9.127161e-01 6.803901e-01 1.885877e-01 7.285619e-02 3.045335e-01 1.422406e-01 2.488709e-01 1.717076e-01 1.074235e-02 4.621256e-02 9.208375e-02 6.221439e-02 2.538504e-02 1.377157e-02 8.742860e-03 3.969063e-02 5.816713e-02 5.277531e-02 3.385676e-02 3.386876e-02 5.120916e-02 2.090136e-02 1.159481e-02 6.184000e-03
<GCONST> -1.821556e+01
<STATE> 3
<MEAN> 32
 6.017251e+00 6.907815e+00 7.132300e+00 6.962285e+00 6.580369e+00 6.606524e+00 6.686730e+00 6.918128e+00 7.546110e+00 7.861584e+00 8.012511e+00 8.337516e+00 8.417218e+00 8.329293e+00 8.047700e+00 8.140788e+00 1.401888e-01 3.420393e-01 4.499826e-01 3.839098e-01 1.795288e-01 7.076456e-02 8.230161e-02 1.103992e-01 1.958471e-01 3.814644e-01 4.247175e-01 4.489078e-01 3.945565e-01 2.288940e-01 9.439146e-02 2.430550e-02
<VARIANCE> 32
 2.094368e-01 4.879576e-01 6.562815e-01 4.881930e-01 1.279892e-01 9.714887e-02 5.114074e-02 5.234314e-02 2.856570e-01 5.349675e-01 5.221761e-01 7.844531e-01 4.777295e-01 3.586753e-01 1.382965e-01 9.206126e-02 1.692275e-02 5.168259e-02 5.884814e-02 3.093424e-02 2.093259e-02 1.677674e-02 1.195195e-02 1.755193e-02 2.084563e-02 4.123567e-02 4.865753e-02 6.493944e-02 9.973627e-02 5.087794e-02 1.098298e-02 3.131752e-03
<GCONST> -2.196769e+01
<STATE> 4
<MEAN> 32
 6.245767e+00 7.374198e+00 7.787365e+00 7.584934e+00 7.009073e+00 6.807068e+00 6.849009e+00 7.084971e+00 7.716386e+00 8.654835e+00 9.036901e+00 9.312612e+00 9.629615e+00 8.974733e+00 8.195468e+00 8.162127e+00 1.818844e-01 3.625244e-01 5.504577e-01 4.927594e-01 2.939941e-01 1.642620e-01 2.024644e-01 2.459676e-01 3.133967e-01 6.137581e-01 6.493972e-01 6.506820e-01 6.489124e-01 4.320962e-01 1.650513e-01 2.942441e-02
<VARIANCE> 32
 2.906522e-01 3.770559e-01 5.042211e-01 2.563019e-01 2.223242e-01 1.015007e-01 6.216507e-02 1.382205e-01 3.912542e-01 4.637074e-01 5.698535e-01 9.495140e-01 8.625288e-01 4.313936e-01 2.072490e-01 1.380544e-01 4.946258e-02 1.069270e-01 9.666139e-02 8.124517e-02 3.377438e-02 2.535356e-02 3.017597e-02 3.303377e-02 2.780597e-02 6.732656e-02 7.399547e-02 1.134704e-01 1.338576e-01 7.314570e-02 2.669361e-02 2.061233e-03
<GCONST> -1.041440e+01
<STATE> 5
<MEAN> 32
 6.379106e+00 7.551616e+00 8.324917e+00 8.190336e+00 7.463812e+00 7.133545e+00 7.342751e+00 8.084265e+00 8.603786e+00 9.107189e+00 9.226930e+00 9.429543e+00 9.658357e+00 9.073651e+00 8.264956e+00 8.220697e+00 3.754223e-02 5.707596e-02 8.405513e-02 8.911175e-02 8.029836e-02 6.279290e-02 8.009921e-02 7.955551e-02 6.177885e-02 8.041310e-02 8.459116e-02 7.663745e-02 8.841568e-02 7.592042e-02 2.991819e-02 1.075587e-02
<VARIANCE> 32
 1.421761e-01 3.325951e-01 7.030513e-01 6.583273e-01 3.937588e-01 2.349271e-01 2.968275e-01 7.886932e-01 9.970903e-01 9.688863e-01 1.293693e+00 1.667712e+00 1.377800e+00 8.507508e-01 2.192418e-01 1.185731e-01 2.122314e-02 4.859558e-02 1.092807e-01 1.035370e-01 6.176106e-02 3.981591e-02 5.502247e-02 8.807722e-02 9.685306e-02 1.077069e-01 1.022315e-01 1.056965e-01 9.913152e-02 7.388198e-02 2.794877e-02 6.862135e-03
<GCONST> 3.138777e+00
<STATE> 6
<MEAN> 32
 6.746566e+00 8.111110e+00 9.513289e+00 9.333044e+00 8.284614e+00 7.834837e+00 8.041924e+00 8.442101e+00 9.301483e+00 1.064264e+01 1.102319e+01 1.119971e+01 1.139833e+01 1.048532e+01 8.961716e+00 8.500287e+00 5.622286e-02 6.165134e-02 2.842116e-01 4.348133e-01 4.160198e-01 3.644249e-01 3.641173e-01 4.173594e-01 4.555067e-01 4.080725e-01 3.388899e-01 3.196255e-01 3.098579e-01 2.588609e-01 1.597601e-01 1.240420e-01
<VARIANCE> 32
 3.754918e-01 6.474937e-01 6.783143e-01 7.044515e-01 3.898908e-01 2.786641e-01 3.948936e-01 5.009959e-01 6.033705e-01 6.953017e-01 7.871984e-01 7.942111e-01 8.664101e-01 1.078155e+00 8.775225e-01 2.232491e-01 3.414029e-02 4.782752e-02 9.925865e-02 6.556287e-02 4.830394e-02 2.318051e-02 3.057464e-02 1.458261e-02 2.260257e-02 6.945299e-02 6.743437e-02 5.018128e-02 5.544851e-02 5.297136e-02 2.714941e-02 7.730288e-03
<GCONST> -2.624316e+00
<STATE> 7
<MEAN> 32
 7.886890e+00 9.022683e+00 1.028967e+01 1.061775e+01 9.871944e+00 9.300126e+00 9.424812e+00 1.007734e+01 1.079181e+01 1.077745e+01 1.084705e+01 1.099563e+01 1.103701e+01 1.057211e+01 9.802148e+00 9.166089e+00 -3.504029e-03 -2.382131e-02 -6.236891e-02 -1.489955e-02 3.628806e-02 4.020994e-02 5.481721e-02 6.667057e-02 3.892959e-02 -5.635748e-02 -7.058734e-02 -5.079212e-02 -5.525932e-02 -5.623601e-02 -3.595952e-02 -2.503686e-02
<VARIANCE> 32
 7.173210e-01 7.777421e-01 9.131052e-01 6.893314e-01 7.646169e-01 9.541457e-01 1.008031e+00 1.373278e+00 1.025017e+00 1.525788e+00 1.553954e+00 1.669133e+00 2.009273e+00 1.542844e+00 1.101340e+00 4.298785e-01 5.497633e-03 1.297529e-02 5.127018e-02 6.795035e-02 1.043975e-01 8.408462e-02 7.646238e-02 9.460815e-02 1.174593e-01 7.741809e-02 6.638326e-02 9.782567e-02 1.065545e-01 7.273109e-02 4.434077e-02 2.710426e-02
<GCONST> 1.336612e+01
<STATE> 8
<MEAN> 32
 6.589290e+00 7.704674e+00 8.585359e+00 9.038380e+00 9.093977e+00 9.124490e+00 9.317673e+00 9.955104e+00 9.870373e+00 9.834472e+00 1.015748e+01 1.032622e+01 1.079835e+01 9.920843e+00 8.385898e+00 8.196296e+00 -4.496472e-03 -8.270662e-03 -4.367018e-02 -3.023646e-02 1.099062e-02 3.437401e-02 3.702902e-02 1.379420e-02 -4.262374e-02 -5.576074e-02 -4.520542e-02 -4.220311e-02 -4.136079e-02 -3.445975e-02 -2.089665e-02 -1.067499e-02
<VARIANCE> 32
 1.736588e-01 3.253891e-01 5.097634e-01 6.260021e-01 1.283952e+00 2.114731e+00 2.561731e+00 2.478171e+00 9.518377e-01 6.908132e-01 1.034670e+00 1.119523e+00 1.125505e+00 1.272738e+00 2.855733e-01 9.797506e-02 1.027926e-02 2.016675e-02 3.964971e-02 4.489966e-02 5.987381e-02 6.551698e-02 7.534106e-02 8.721637e-02 6.184016e-02 4.933738e-02 5.271669e-02 6.607117e-02 6.109655e-02 5.700645e-02 1.752434e-02 6.816543e-03
<GCONST> 2.631387e+00
<STATE> 9
<MEAN> 32
 6.369880e+00 7.306376e+00 7.804104e+00 8.719723e+00 9.396585e+00 9.232389e+00 9.562954e+00 9.321833e+00 8.881333e+00 8.850279e+00 8.687768e+00 9.067994e+00 9.388434e+00 8.925091e+00 8.098724e+00 8.174221e+00 -4.764976e-02 -9.503494e-02 -1.241893e-01 -1.522690e-01 -1.514886e-01 -1.364905e-01 -1.560509e-01 -1.629045e-01 -1.334476e-01 -1.223680e-01 -1.225450e-01 -1.411581e-01 -1.306122e-01 -8.995151e-02 -3.110905e-02 -1.007030e-02
<VARIANCE> 32
 1.923601e-01 4.353864e-01 6.415784e-01 1.055854e+00 1.131031e+00 5.387782e-01 6.511378e-01 6.120654e-01 5.162417e-01 5.860783e-01 7.445766e-01 7.650802e-01 5.097409e-01 2.477097e-01 7.974185e-02 5.219258e-02 1.138203e-02 1.603855e-02 2.139023e-02 3.321492e-02 3.369044e-02 2.828869e-02 3.163408e-02 2.619212e-02 1.970592e-02 1.792054e-02 1.534432e-02 1.872388e-02 1.856688e-02 2.114250e-02 5.099764e-03 1.661416e-03
<GCONST> -2.031672e+01
<TRANSP> 10
 0.000000e+00 1.000000e+00 0.000000e+00 0.000000e+00 0.000000e+00 0.000000e+00 0.000000e+00 0.000000e+00 0.000000e+00 0.000000e+00
 0.000000e+00 6.490395e-01 3.509605e-01 0.000000e+00 0.000000e+00 0.000000e+00 0.000000e+00 0.000000e+00 0.000000e+00 0.000000e+00
 0.000000e+00 0.000000e+00 4.749544e-01 5.250456e-01 0.000000e+00 0.000000e+00 0.000000e+00 0.000000e+00 0.000000e+00 0.000000e+00
 0.000000e+00 0.000000e+00 0.000000e+00 3.004912e-01 6.995088e-01 0.000000e+00 0.000000e+00 0.000000e+00 0.000000e+00 0.000000e+00
 0.000000e+00 0.000000e+00 0.000000e+00 0.000000e+00 8.495637e-01 1.504364e-01 0.000000e+00 0.000000e+00 0.000000e+00 0.000000e+00
 0.000000e+00 0.000000e+00 0.000000e+00 0.000000e+00 0.000000e+00 6.542688e-01 3.457312e-01 0.000000e+00 0.000000e+00 0.000000e+00
 0.000000e+00 0.000000e+00 0.000000e+00 0.000000e+00 0.000000e+00 0.000000e+00 8.858189e-01 1.141811e-01 0.000000e+00 0.000000e+00
 0.000000e+00 0.000000e+00 0.000000e+00 0.000000e+00 0.000000e+00 0.000000e+00 0.000000e+00 9.509642e-01 4.903584e-02 0.000000e+00
 0.000000e+00 0.000000e+00 0.000000e+00 0.000000e+00 0.000000e+00 0.000000e+00 0.000000e+00 0.000000e+00 9.116226e-01 8.837742e-02
 0.000000e+00 0.000000e+00 0.000000e+00 0.000000e+00 0.000000e+00 0.000000e+00 0.000000e+00 0.000000e+00 0.000000e+00 0.000000e+00
<ENDHMM>
