~o
<STREAMINFO> 1 32
<VECSIZE> 32<NULLD><FBANK_D><DIAGC>
~h "ctyri"
<BEGINHMM>
<NUMSTATES> 10
<STATE> 2
<MEAN> 32
 5.677213e+00 5.808841e+00 6.033998e+00 6.230358e+00 6.285523e+00 6.527205e+00 6.709699e+00 6.900663e+00 7.259841e+00 7.404785e+00 7.787510e+00 8.479260e+00 8.919389e+00 8.952915e+00 8.743943e+00 8.557981e+00 -5.850339e-03 8.767443e-03 3.144614e-02 3.656696e-02 2.484400e-02 1.715055e-02 3.606106e-02 7.001121e-02 8.171621e-02 1.484993e-01 2.278979e-01 2.945500e-01 2.719378e-01 2.313587e-01 1.472962e-01 6.897314e-02
<VARIANCE> 32
 2.552218e-01 1.411926e-01 2.226120e-01 9.519219e-02 6.674144e-02 5.295406e-02 7.352757e-02 5.825286e-02 8.658487e-02 1.723013e-01 4.521390e-01 1.222012e+00 1.561624e+00 1.565598e+00 9.068247e-01 4.148139e-01 1.486734e-02 1.257225e-02 2.310026e-02 1.516606e-02 8.135987e-03 6.204648e-03 8.961538e-03 1.482849e-02 2.491979e-02 4.657524e-02 7.215471e-02 1.101757e-01 1.098296e-01 1.110339e-01 7.935161e-02 4.035612e-02
<GCONST> -2.145124e+01
<STATE> 3
<MEAN> 32
 5.698557e+00 5.838746e+00 6.049708e+00 6.204325e+00 6.347496e+00 6.538503e+00 6.759050e+00 7.065408e+00 7.586551e+00 8.008204e+00 8.642992e+00 9.409047e+00 9.856549e+00 9.702950e+00 9.263504e+00 8.906577e+00 1.737878e-02 1.881821e-02 4.411328e-02 3.729789e-02 1.646456e-02 9.033612e-03 1.342488e-02 4.033336e-02 6.742407e-02 9.708197e-02 1.281426e-01 1.397787e-01 1.457714e-01 1.300476e-01 8.737259e-02 4.696784e-02
<VARIANCE> 32
 1.220672e-01 8.772719e-02 1.240532e-01 1.067492e-01 6.897579e-02 6.098044e-02 6.268136e-02 1.375789e-01 3.770458e-01 9.705256e-01 1.251246e+00 1.530736e+00 1.819714e+00 1.791540e+00 1.340327e+00 7.261087e-01 1.272828e-02 1.683394e-02 2.383217e-02 2.189427e-02 1.071962e-02 5.955783e-03 8.730276e-03 2.111735e-02 4.722384e-02 1.004269e-01 1.618447e-01 1.980184e-01 2.063650e-01 1.977763e-01 1.440601e-01 7.812979e-02
<GCONST> -1.021578e+01
<STATE> 4
<MEAN> 32
 5.718136e+00 5.838095e+00 6.174225e+00 6.305779e+00 6.385863e+00 6.581779e+00 6.801840e+00 7.160179e+00 7.761587e+00 8.250615e+00 9.027410e+00 9.713593e+00 1.014721e+01 1.002645e+01 9.470236e+00 8.964703e+00 1.597596e-02 3.381951e-02 6.772269e-02 5.758332e-02 2.262651e-02 1.240414e-02 1.938296e-02 6.387186e-02 1.174002e-01 1.426462e-01 1.370611e-01 1.278198e-01 1.505398e-01 1.393389e-01 1.076292e-01 6.520973e-02
<VARIANCE> 32
 1.592607e-01 1.603506e-01 2.526250e-01 1.803641e-01 9.213234e-02 9.128652e-02 8.626913e-02 2.065467e-01 4.504322e-01 9.229027e-01 1.155230e+00 1.319027e+00 1.439952e+00 1.581291e+00 1.264362e+00 6.431227e-01 1.831465e-02 2.927140e-02 5.151371e-02 3.384598e-02 1.186696e-02 7.493712e-03 1.149024e-02 2.573039e-02 6.307146e-02 1.180184e-01 1.710205e-01 1.942608e-01 2.194650e-01 2.179058e-01 1.695352e-01 8.738204e-02
<GCONST> -3.484960e+00
<STATE> 5
<MEAN> 32
 5.795022e+00 5.962963e+00 6.285995e+00 6.456118e+00 6.457412e+00 6.598255e+00 6.816550e+00 7.310477e+00 8.082625e+00 8.629804e+00 9.269682e+00 9.860474e+00 1.029556e+01 1.017397e+01 9.648870e+00 9.080011e+00 2.380347e-02 7.952350e-02 1.038867e-01 1.038685e-01 5.623639e-02 3.222002e-02 5.624228e-02 7.858007e-02 1.161949e-01 1.015666e-01 7.041818e-02 6.224835e-02 8.950513e-02 7.570077e-02 5.211778e-02 5.262213e-02
<VARIANCE> 32
 1.859603e-01 2.990965e-01 5.294192e-01 4.104435e-01 1.035200e-01 1.044898e-01 1.163283e-01 3.511623e-01 7.657638e-01 1.367683e+00 1.654846e+00 1.610034e+00 1.448714e+00 1.559859e+00 1.364702e+00 7.825288e-01 2.048025e-02 4.400452e-02 7.936126e-02 5.293888e-02 1.735226e-02 1.339260e-02 2.110714e-02 4.343496e-02 9.730257e-02 1.437213e-01 1.575578e-01 1.614882e-01 1.841828e-01 1.814148e-01 1.607190e-01 1.062476e-01
<GCONST> 5.323233e+00
<STATE> 6
<MEAN> 32
 5.831230e+00 6.148308e+00 6.604855e+00 6.830220e+00 6.692944e+00 6.784585e+00 7.084270e+00 7.565434e+00 8.353124e+00 8.846895e+00 9.409331e+00 9.942754e+00 1.034829e+01 1.020378e+01 9.707765e+00 9.298118e+00 5.086824e-02 1.613135e-01 2.087388e-01 2.078392e-01 1.204958e-01 9.278878e-02 1.188805e-01 1.236077e-01 1.584969e-01 1.433006e-01 1.007880e-01 1.002116e-01 1.184013e-01 8.617128e-02 2.262738e-02 3.475839e-02
<VARIANCE> 32
 1.601518e-01 5.137363e-01 1.091320e+00 9.792935e-01 2.516796e-01 2.116448e-01 2.807881e-01 5.398207e-01 1.083079e+00 1.524172e+00 2.031857e+00 1.899802e+00 1.645276e+00 1.661351e+00 1.828720e+00 1.669142e+00 2.385854e-02 7.355760e-02 1.234068e-01 1.231963e-01 3.605526e-02 2.982771e-02 3.818117e-02 7.063793e-02 1.475463e-01 1.849877e-01 1.809191e-01 1.770896e-01 1.862193e-01 1.572803e-01 1.217535e-01 1.012288e-01
<GCONST> 1.728442e+01
<STATE> 7
<MEAN> 32
 5.843095e+00 6.716244e+00 7.481877e+00 7.803327e+00 7.220172e+00 7.286100e+00 7.615286e+00 8.048429e+00 8.842896e+00 9.275612e+00 9.787937e+00 1.020210e+01 1.069560e+01 1.054459e+01 9.915028e+00 9.674679e+00 9.897757e-02 2.392345e-01 3.075899e-01 3.033992e-01 1.668406e-01 1.484492e-01 1.422881e-01 1.587594e-01 2.283179e-01 2.245968e-01 1.686516e-01 1.442349e-01 1.324358e-01 8.954286e-02 9.897948e-03 -2.244846e-02
<VARIANCE> 32
 4.662451e-01 1.351143e+00 2.063029e+00 1.979071e+00 6.223875e-01 4.700136e-01 5.273473e-01 7.920390e-01 1.635700e+00 1.718641e+00 1.873245e+00 1.804516e+00 1.779505e+00 1.808552e+00 1.978492e+00 2.060723e+00 5.646902e-02 1.330761e-01 2.381613e-01 2.539065e-01 7.870033e-02 5.983470e-02 6.214239e-02 9.016714e-02 1.998722e-01 2.405143e-01 2.416747e-01 2.132081e-01 1.966925e-01 1.725130e-01 1.203724e-01 7.878888e-02
<GCONST> 3.019894e+01
<STATE> 8
<MEAN> 32
 6.804683e+00 8.056332e+00 9.411324e+00 9.556937e+00 8.387185e+00 8.153687e+00 8.329391e+00 8.996496e+00 1.023584e+01 1.064265e+01 1.084634e+01 1.105653e+01 1.157737e+01 1.121071e+01 1.013259e+01 9.344543e+00 5.124256e-03 3.234437e-05 2.424708e-02 1.710742e-02 1.516996e-02 7.424637e-03 3.098862e-04 8.571411e-03 8.034323e-03 1.123358e-02 4.397922e-03 -5.762030e-03 -9.103816e-03 -1.306682e-02 -1.364733e-02 -1.740771e-02
<VARIANCE> 32
 7.623546e-01 9.732673e-01 1.893642e+00 1.457856e+00 9.795082e-01 7.336422e-01 6.105549e-01 5.178556e-01 7.042148e-01 7.450316e-01 6.874645e-01 7.152314e-01 7.634764e-01 9.272456e-01 1.500426e+00 1.260741e+00 2.229859e-02 5.714355e-02 1.106212e-01 1.130496e-01 6.039368e-02 4.099196e-02 3.613249e-02 4.574319e-02 5.922979e-02 6.825588e-02 5.327972e-02 5.662557e-02 6.302016e-02 6.684805e-02 8.725312e-02 5.635114e-02
<GCONST> 1.143179e+01
<STATE> 9
<MEAN> 32
 6.407140e+00 7.704989e+00 9.052413e+00 8.841122e+00 7.815084e+00 7.486437e+00 7.674283e+00 8.457315e+00 9.626976e+00 1.015356e+01 9.688634e+00 9.728300e+00 1.016576e+01 9.595726e+00 8.546773e+00 8.405255e+00 -3.504754e-02 -6.579426e-02 -1.138185e-01 -1.142479e-01 -6.848820e-02 -5.701802e-02 -6.408241e-02 -9.310687e-02 -1.127261e-01 -1.084875e-01 -9.967773e-02 -9.801069e-02 -8.908981e-02 -8.172038e-02 -4.959736e-02 -1.808229e-02
<VARIANCE> 32
 2.048690e-01 3.520980e-01 7.526250e-01 6.946753e-01 5.368343e-01 3.449646e-01 2.528881e-01 6.056210e-01 9.798990e-01 7.912033e-01 1.472631e+00 1.498909e+00 1.664149e+00 1.220228e+00 2.054130e-01 1.562084e-01 1.061322e-02 1.920592e-02 2.888616e-02 2.844680e-02 1.585281e-02 1.346248e-02 8.757439e-03 1.260974e-02 2.162142e-02 3.014779e-02 2.579430e-02 2.265393e-02 2.626564e-02 2.422214e-02 8.767553e-03 3.524122e-03
<GCONST> -1.591325e+01
<TRANSP> 10
 0.000000e+00 1.000000e+00 0.000000e+00 0.000000e+00 0.000000e+00 0.000000e+00 0.000000e+00 0.000000e+00 0.000000e+00 0.000000e+00
 0.000000e+00 5.524226e-01 4.475774e-01 0.000000e+00 0.000000e+00 0.000000e+00 0.000000e+00 0.000000e+00 0.000000e+00 0.000000e+00
 0.000000e+00 0.000000e+00 7.450233e-01 2.549768e-01 0.000000e+00 0.000000e+00 0.000000e+00 0.000000e+00 0.000000e+00 0.000000e+00
 0.000000e+00 0.000000e+00 0.000000e+00 6.833430e-01 3.166570e-01 0.000000e+00 0.000000e+00 0.000000e+00 0.000000e+00 0.000000e+00
 0.000000e+00 0.000000e+00 0.000000e+00 0.000000e+00 6.733758e-01 3.266242e-01 0.000000e+00 0.000000e+00 0.000000e+00 0.000000e+00
 0.000000e+00 0.000000e+00 0.000000e+00 0.000000e+00 0.000000e+00 6.731207e-01 3.268792e-01 0.000000e+00 0.000000e+00 0.000000e+00
 0.000000e+00 0.000000e+00 0.000000e+00 0.000000e+00 0.000000e+00 0.000000e+00 7.976704e-01 2.023296e-01 0.000000e+00 0.000000e+00
 0.000000e+00 0.000000e+00 0.000000e+00 0.000000e+00 0.000000e+00 0.000000e+00 0.000000e+00 9.543508e-01 4.564910e-02 0.000000e+00
 0.000000e+00 0.000000e+00 0.000000e+00 0.000000e+00 0.000000e+00 0.000000e+00 0.000000e+00 0.000000e+00 9.496962e-01 5.030378e-02
 0.000000e+00 0.000000e+00 0.000000e+00 0.000000e+00 0.000000e+00 0.000000e+00 0.000000e+00 0.000000e+00 0.000000e+00 0.000000e+00
<ENDHMM>
~h "sedm"
<BEGINHMM>
<NUMSTATES> 10
<STATE> 2
<MEAN> 32
 5.608827e+00 5.763178e+00 5.956504e+00 6.147055e+00 6.301114e+00 6.528017e+00 6.706887e+00 7.014400e+00 7.419002e+00 7.467732e+00 7.657449e+00 8.061449e+00 8.988848e+00 9.287807e+00 9.539702e+00 9.385589e+00 2.313685e-04 4.802346e-03 3.491038e-03 1.350927e-02 1.607886e-02 1.191751e-03 1.643381e-02 5.163083e-02 4.874063e-02 6.694402e-02 7.091234e-02 1.115619e-01 1.932440e-01 2.303133e-01 2.406643e-01 2.388651e-01
<VARIANCE> 32
 1.241775e-01 7.639134e-02 9.380990e-02 9.564310e-02 7.146791e-02 5.658334e-02 5.905297e-02 6.664544e-02 1.013742e-01 9.819842e-02 1.785020e-01 2.334244e-01 5.334928e-01 6.228114e-01 7.141173e-01 7.028789e-01 1.228275e-02 7.974595e-03 1.245039e-02 1.202774e-02 8.539753e-03 4.778968e-03 5.237184e-03 7.071682e-03 8.553675e-03 8.321233e-03 1.165657e-02 1.079121e-02 3.039321e-02 3.685592e-02 4.841140e-02 2.637571e-02
<GCONST> -4.152320e+01
<STATE> 3
<MEAN> 32
 5.642380e+00 5.768295e+00 6.001020e+00 6.305859e+00 6.432703e+00 6.636678e+00 6.844853e+00 7.310709e+00 7.742281e+00 7.768458e+00 8.078570e+00 8.642094e+00 9.654593e+00 9.994249e+00 9.996061e+00 9.874152e+00 2.032975e-02 -2.258252e-04 1.572067e-02 4.800050e-02 3.772466e-02 3.945967e-02 6.209322e-02 9.830362e-02 9.802113e-02 1.118753e-01 1.171419e-01 1.471867e-01 1.993389e-01 2.254162e-01 1.842223e-01 1.675263e-01
<VARIANCE> 32
 1.614379e-01 1.088578e-01 1.328704e-01 1.516055e-01 8.985621e-02 9.913731e-02 1.140999e-01 1.218021e-01 1.789587e-01 1.629452e-01 2.620083e-01 3.638846e-01 7.012365e-01 6.902709e-01 7.526488e-01 6.988196e-01 1.880074e-02 1.095538e-02 1.710987e-02 1.708372e-02 9.648473e-03 6.608156e-03 9.186344e-03 1.338515e-02 1.335972e-02 1.711253e-02 1.730983e-02 2.125330e-02 6.644048e-02 8.369928e-02 7.936104e-02 6.184318e-02
<GCONST> -2.747394e+01
<STATE> 4
<MEAN> 32
 5.758436e+00 5.885553e+00 6.222230e+00 6.663516e+00 6.644613e+00 6.885393e+00 7.186277e+00 7.700721e+00 8.149516e+00 8.238789e+00 8.482943e+00 9.036766e+00 1.005789e+01 1.056306e+01 1.049113e+01 1.031418e+01 3.247550e-02 4.971170e-02 1.033240e-01 1.018524e-01 6.145012e-02 6.906298e-02 9.746380e-02 1.211248e-01 1.204541e-01 1.289249e-01 1.455030e-01 1.431283e-01 1.360362e-01 1.679219e-01 1.631234e-01 1.404564e-01
<VARIANCE> 32
 2.797754e-01 1.178577e-01 3.371234e-01 5.394982e-01 1.317716e-01 1.486042e-01 1.996609e-01 2.267967e-01 3.423688e-01 2.741690e-01 3.434412e-01 4.287618e-01 6.805891e-01 7.068870e-01 8.480263e-01 7.345707e-01 2.606287e-02 2.195317e-02 4.034727e-02 3.949364e-02 1.243912e-02 8.519877e-03 1.599617e-02 2.378247e-02 1.496189e-02 1.423899e-02 1.588362e-02 2.307124e-02 5.324756e-02 8.565316e-02 1.048066e-01 9.738919e-02
<GCONST> -1.609385e+01
<STATE> 5
<MEAN> 32
 5.664208e+00 5.942130e+00 6.512217e+00 7.013120e+00 6.838862e+00 7.135205e+00 7.507807e+00 8.026767e+00 8.457806e+00 8.542590e+00 8.850841e+00 9.400165e+00 1.028510e+01 1.100644e+01 1.114628e+01 1.099216e+01 2.695067e-02 1.108832e-01 1.710051e-01 1.816189e-01 1.360193e-01 1.075523e-01 1.466953e-01 1.848464e-01 1.681517e-01 1.407181e-01 1.452410e-01 1.277788e-01 8.680402e-02 5.392057e-02 1.841855e-02 1.552991e-02
<VARIANCE> 32
 2.146378e-01 1.566168e-01 4.675268e-01 6.314808e-01 1.383276e-01 1.974818e-01 2.868930e-01 2.848258e-01 3.768738e-01 3.340571e-01 4.517938e-01 5.230968e-01 6.240463e-01 9.992056e-01 1.531792e+00 1.490403e+00 2.775038e-02 5.202596e-02 1.148277e-01 1.168118e-01 4.081042e-02 2.270478e-02 3.791195e-02 5.845288e-02 3.228010e-02 2.536302e-02 2.287650e-02 2.611682e-02 3.357626e-02 4.128926e-02 6.955469e-02 7.916220e-02
<GCONST> -5.328713e+00
<STATE> 6
<MEAN> 32
 5.911432e+00 6.451554e+00 7.158195e+00 7.656824e+00 7.411179e+00 7.533383e+00 7.965996e+00 8.623251e+00 8.980664e+00 8.941904e+00 9.249776e+00 9.722355e+00 1.044209e+01 1.087329e+01 1.079519e+01 1.061927e+01 1.923652e-01 4.034091e-01 5.278898e-01 5.751396e-01 4.443074e-01 3.205708e-01 3.310821e-01 4.211301e-01 3.373021e-01 2.578898e-01 2.638668e-01 1.815742e-01 6.434238e-02 -5.068238e-02 -2.038919e-01 -2.360076e-01
<VARIANCE> 32
 4.149692e-01 9.062153e-01 1.404029e+00 1.395209e+00 6.855415e-01 5.433254e-01 6.651641e-01 8.059071e-01 6.487045e-01 5.276586e-01 8.804781e-01 9.808711e-01 9.187648e-01 1.594496e+00 2.436197e+00 2.249018e+00 5.701099e-02 1.152870e-01 1.858220e-01 1.947353e-01 1.042638e-01 7.351681e-02 8.434162e-02 1.363631e-01 9.776649e-02 6.870125e-02 7.384620e-02 6.572985e-02 7.323520e-02 6.443646e-02 5.306131e-02 5.277133e-02
<GCONST> 1.851371e+01
<STATE> 7
<MEAN> 32
 6.845469e+00 8.013157e+00 9.195971e+00 9.906114e+00 9.554380e+00 8.981565e+00 9.337790e+00 1.025295e+01 1.050281e+01 1.008157e+01 1.050248e+01 1.061843e+01 1.087832e+01 1.079667e+01 1.002468e+01 9.532311e+00 8.748093e-02 1.334240e-01 2.174501e-01 2.870337e-01 2.908723e-01 2.018164e-01 1.989381e-01 2.445924e-01 2.468765e-01 2.196976e-01 2.236283e-01 1.986965e-01 1.487602e-01 7.213025e-02 -4.753178e-02 -9.548985e-02
<VARIANCE> 32
 1.081619e+00 1.531043e+00 2.336341e+00 2.541250e+00 2.697193e+00 1.570958e+00 1.340019e+00 1.723221e+00 2.249406e+00 1.430532e+00 2.136108e+00 1.835016e+00 1.655500e+00 1.577960e+00 1.483739e+00 8.057058e-01 3.468265e-02 9.457386e-02 1.895114e-01 2.219782e-01 2.086375e-01 1.238282e-01 1.259116e-01 1.797609e-01 1.533403e-01 1.140908e-01 1.353818e-01 1.210849e-01 1.070290e-01 9.663258e-02 5.386421e-02 3.640253e-02
<GCONST> 3.175665e+01
<STATE> 8
<MEAN> 32
 6.972266e+00 8.138344e+00 9.001360e+00 9.338148e+00 8.901018e+00 8.488000e+00 8.866735e+00 9.579706e+00 9.835871e+00 9.701624e+00 9.950348e+00 9.859278e+00 1.011145e+01 9.795370e+00 9.010277e+00 8.750641e+00 3.817316e-03 1.098719e-02 -3.624175e-02 -8.933920e-02 -9.591848e-02 -6.360496e-02 -6.193454e-02 -1.044073e-01 -1.056984e-01 -7.981484e-02 -9.422845e-02 -1.028041e-01 -1.045066e-01 -1.034384e-01 -7.460117e-02 -5.147777e-02
<VARIANCE> 32
 8.642266e-01 1.040490e+00 1.361223e+00 1.405344e+00 1.601760e+00 1.028557e+00 9.674803e-01 1.157641e+00 1.545721e+00 1.340760e+00 1.822630e+00 1.804099e+00 1.956700e+00 1.548856e+00 8.410603e-01 5.136090e-01 9.829536e-03 1.962032e-02 6.656698e-02 5.659588e-02 5.287288e-02 5.520945e-02 6.796504e-02 6.925309e-02 6.799067e-02 7.942204e-02 6.550382e-02 6.984982e-02 6.523824e-02 6.111047e-02 3.164086e-02 1.764429e-02
<GCONST> 1.320154e+01
<STATE> 9
<MEAN> 32
 6.580921e+00 8.000756e+00 8.570360e+00 8.546658e+00 7.962650e+00 7.973510e+00 8.293079e+00 8.508188e+00 8.639360e+00 8.765057e+00 8.798226e+00 9.266647e+00 9.604810e+00 9.026070e+00 8.189576e+00 8.172791e+00 -2.555470e-02 -3.907375e-02 -6.309758e-02 -7.117483e-02 -5.220562e-02 -3.806361e-02 -4.922788e-02 -6.200676e-02 -5.814219e-02 -5.746272e-02 -6.077138e-02 -4.596592e-02 -3.882604e-02 -3.216189e-02 -1.303896e-02 -4.788348e-03
<VARIANCE> 32
 4.007590e-01 4.213403e-01 7.098851e-01 6.276195e-01 4.377302e-01 4.202701e-01 5.882843e-01 7.065889e-01 6.536222e-01 6.137263e-01 7.987095e-01 1.257977e+00 1.233793e+00 4.611408e-01 1.880641e-01 1.823946e-01 8.091019e-03 1.503968e-02 2.341033e-02 2.207288e-02 1.346718e-02 1.399867e-02 1.963739e-02 1.819820e-02 1.508183e-02 1.688781e-02 1.427516e-02 2.120321e-02 2.335742e-02 1.608405e-02 4.375458e-03 2.742888e-03
<GCONST> -1.988178e+01
<TRANSP> 10
 0.000000e+00 1.000000e+00 0.000000e+00 0.000000e+00 0.000000e+00 0.000000e+00 0.000000e+00 0.000000e+00 0.000000e+00 0.000000e+00
 0.000000e+00 7.852333e-01 2.147667e-01 0.000000e+00 0.000000e+00 0.000000e+00 0.000000e+00 0.000000e+00 0.000000e+00 0.000000e+00
 0.000000e+00 0.000000e+00 5.469353e-01 4.530647e-01 0.000000e+00 0.000000e+00 0.000000e+00 0.000000e+00 0.000000e+00 0.000000e+00
 0.000000e+00 0.000000e+00 0.000000e+00 5.513610e-01 4.486389e-01 0.000000e+00 0.000000e+00 0.000000e+00 0.000000e+00 0.000000e+00
 0.000000e+00 0.000000e+00 0.000000e+00 0.000000e+00 6.117689e-01 3.882312e-01 0.000000e+00 0.000000e+00 0.000000e+00 0.000000e+00
 0.000000e+00 0.000000e+00 0.000000e+00 0.000000e+00 0.000000e+00 6.031439e-01 3.968562e-01 0.000000e+00 0.000000e+00 0.000000e+00
 0.000000e+00 0.000000e+00 0.000000e+00 0.000000e+00 0.000000e+00 0.000000e+00 8.301997e-01 1.698003e-01 0.000000e+00 0.000000e+00
 0.000000e+00 0.000000e+00 0.000000e+00 0.000000e+00 0.000000e+00 0.000000e+00 0.000000e+00 9.350196e-01 6.498039e-02 0.000000e+00
 0.000000e+00 0.000000e+00 0.000000e+00 0.000000e+00 0.000000e+00 0.000000e+00 0.000000e+00 0.000000e+00 9.641376e-01 3.586238e-02
 0.000000e+00 0.000000e+00 0.000000e+00 0.000000e+00 0.000000e+00 0.000000e+00 0.000000e+00 0.000000e+00 0.000000e+00 0.000000e+00
<ENDHMM>
~h "sest"
<BEGINHMM>
<NUMSTATES> 10
<STATE> 2
<MEAN> 32
 5.471673e+00 5.680675e+00 5.928367e+00 6.121260e+00 6.275101e+00 6.568556e+00 6.642382e+00 6.925476e+00 7.340099e+00 7.364539e+00 7.619508e+00 7.988605e+00 8.273681e+00 8.343509e+00 8.263559e+00 8.236530e+00 2.168988e-02 -7.685184e-03 9.576284e-03 2.436601e-02 3.029405e-02 1.738753e-02 3.648499e-02 7.351349e-02 1.494106e-01 2.706211e-01 3.361168e-01 4.157442e-01 4.351034e-01 4.132322e-01 2.702036e-01 8.986702e-02
<VARIANCE> 32
 1.351527e-01 1.197292e-01 1.096837e-01 1.057584e-01 6.595337e-02 8.020569e-02 8.816370e-02 6.392202e-02 1.317728e-01 2.462888e-01 2.989228e-01 4.805153e-01 5.984200e-01 6.410734e-01 4.643407e-01 1.437230e-01 6.968175e-03 1.480088e-02 1.362543e-02 1.626056e-02 5.748068e-03 6.570399e-03 4.538767e-03 5.292941e-03 1.209293e-02 2.057162e-02 2.455821e-02 2.586617e-02 2.715653e-02 3.797302e-02 2.625098e-02 7.043321e-03
<GCONST> -3.877075e+01
<STATE> 3
<MEAN> 32
 5.601407e+00 5.726774e+00 5.923844e+00 6.161228e+00 6.367099e+00 6.567745e+00 6.722883e+00 7.084147e+00 7.654694e+00 8.060223e+00 8.504467e+00 9.125795e+00 9.403259e+00 9.484273e+00 9.047824e+00 8.534810e+00 2.959270e-02 1.988838e-02 1.897027e-02 4.209585e-02 3.482233e-02 5.971467e-03 3.744040e-02 9.855932e-02 1.957071e-01 3.493967e-01 4.364252e-01 4.935522e-01 4.855855e-01 4.759888e-01 3.800461e-01 1.902694e-01
<VARIANCE> 32
 1.450873e-01 1.109004e-01 8.791375e-02 1.254192e-01 8.042508e-02 8.407788e-02 8.561555e-02 1.081748e-01 2.670283e-01 5.292481e-01 6.077487e-01 9.323119e-01 9.534244e-01 1.152740e+00 8.030332e-01 2.718545e-01 9.015742e-03 1.057004e-02 9.582739e-03 1.382556e-02 7.690326e-03 8.324375e-03 9.861225e-03 8.642936e-03 2.598946e-02 3.575967e-02 3.988607e-02 5.572042e-02 5.450036e-02 5.601977e-02 3.816015e-02 1.317964e-02
<GCONST> -2.714633e+01
<STATE> 4
<MEAN> 32
 5.686702e+00 5.777566e+00 5.987778e+00 6.221511e+00 6.387541e+00 6.529011e+00 6.766948e+00 7.305144e+00 8.152852e+00 8.879669e+00 9.454672e+00 1.011617e+01 1.035333e+01 1.033287e+01 9.831392e+00 9.077139e+00 2.781024e-02 1.979248e-02 3.626508e-02 4.526136e-02 1.868015e-02 2.218757e-02 4.076861e-02 1.119106e-01 1.885020e-01 3.066686e-01 3.623593e-01 3.928058e-01 3.905551e-01 3.687581e-01 3.427444e-01 2.540844e-01
<VARIANCE> 32
 9.604818e-02 9.517004e-02 1.041091e-01 1.574853e-01 7.837164e-02 8.994931e-02 9.926900e-02 1.397605e-01 3.464079e-01 5.262703e-01 4.383184e-01 6.745934e-01 6.588110e-01 6.910112e-01 5.392296e-01 3.670461e-01 1.137302e-02 1.139375e-02 1.043582e-02 1.308357e-02 9.753103e-03 5.884140e-03 7.196601e-03 1.314140e-02 2.841102e-02 5.062701e-02 6.359009e-02 7.937296e-02 7.864684e-02 7.697240e-02 6.006666e-02 2.638103e-02
<GCONST> -2.482311e+01
<STATE> 5
<MEAN> 32
 5.700115e+00 5.839136e+00 6.117228e+00 6.392766e+00 6.435440e+00 6.629729e+00 6.885566e+00 7.587246e+00 8.565826e+00 9.453033e+00 1.006151e+01 1.070274e+01 1.100459e+01 1.092016e+01 1.047388e+01 9.673886e+00 1.909522e-02 2.368893e-02 5.077238e-02 5.471411e-02 2.319792e-02 3.542467e-02 5.742186e-02 1.195908e-01 1.507388e-01 1.759383e-01 2.160023e-01 2.286955e-01 2.395879e-01 2.149889e-01 2.249068e-01 2.242159e-01
<VARIANCE> 32
 1.595854e-01 9.641169e-02 1.364304e-01 2.923408e-01 1.215447e-01 1.118766e-01 1.246239e-01 1.870099e-01 3.763309e-01 4.526155e-01 2.774472e-01 4.796834e-01 5.872293e-01 5.282834e-01 4.221163e-01 4.309357e-01 1.345177e-02 1.483583e-02 1.819345e-02 1.966309e-02 1.139179e-02 7.795120e-03 8.454494e-03 1.394988e-02 2.486221e-02 4.581428e-02 6.543662e-02 7.623500e-02 8.742413e-02 8.935818e-02 9.098484e-02 5.670668e-02
<GCONST> -2.032908e+01
<STATE> 6
<MEAN> 32
 5.771531e+00 5.983659e+00 6.497834e+00 6.834263e+00 6.687223e+00 6.861770e+00 7.174292e+00 7.965288e+00 8.964254e+00 9.783191e+00 1.046764e+01 1.102206e+01 1.133548e+01 1.119945e+01 1.085863e+01 1.024821e+01 3.628563e-02 8.494699e-02 1.542435e-01 1.587087e-01 1.041672e-01 8.225178e-02 8.991343e-02 1.332039e-01 1.330066e-01 6.896656e-02 6.683419e-02 5.448291e-02 5.525098e-02 2.783471e-02 2.205667e-02 7.237292e-02
<VARIANCE> 32
 1.197969e-01 2.380409e-01 6.390630e-01 8.734522e-01 3.240488e-01 2.581472e-01 2.644678e-01 3.870428e-01 4.794835e-01 5.711584e-01 6.906855e-01 7.795053e-01 1.008388e+00 1.111699e+00 1.296169e+00 1.325034e+00 1.788871e-02 3.710275e-02 6.491578e-02 6.895608e-02 3.332452e-02 1.897473e-02 1.719924e-02 2.804517e-02 3.098223e-02 3.741778e-02 5.102453e-02 6.757546e-02 7.298075e-02 8.692927e-02 9.827644e-02 8.471788e-02
<GCONST> -1.355885e+00
<STATE> 7
<MEAN> 32
 6.247096e+00 7.131637e+00 8.178204e+00 8.799961e+00 8.406565e+00 8.138266e+00 8.349282e+00 9.264358e+00 1.008734e+01 1.040526e+01 1.082245e+01 1.105347e+01 1.131791e+01 1.094097e+01 1.020616e+01 9.796800e+00 9.633466e-02 1.960460e-01 2.848830e-01 3.445813e-01 3.374339e-01 2.470983e-01 2.307622e-01 2.616370e-01 2.209287e-01 1.372030e-01 7.227750e-02 2.190691e-02 1.209035e-02 -3.568256e-02 -1.197136e-01 -1.158663e-01
<VARIANCE> 32
 5.893456e-01 1.487401e+00 2.164995e+00 2.777854e+00 2.727472e+00 1.549713e+00 1.320119e+00 1.591840e+00 1.325152e+00 1.101257e+00 1.520763e+00 1.358072e+00 1.440233e+00 1.774641e+00 2.565792e+00 2.342869e+00 3.357325e-02 9.792660e-02 1.308329e-01 1.645539e-01 1.196867e-01 6.130466e-02 5.586008e-02 8.175624e-02 8.261784e-02 6.095948e-02 5.331420e-02 5.394886e-02 5.983092e-02 5.893871e-02 5.530726e-02 4.337011e-02
<GCONST> 2.381153e+01
<STATE> 8
<MEAN> 32
 6.502478e+00 7.502087e+00 8.770288e+00 9.647617e+00 9.504136e+00 9.007658e+00 9.158884e+00 1.002815e+01 1.043172e+01 1.026446e+01 1.048369e+01 1.062031e+01 1.097251e+01 1.079097e+01 9.999298e+00 9.498967e+00 -3.193566e-02 -5.994068e-02 -7.415964e-02 -7.634910e-02 -6.914812e-02 -5.688958e-02 -5.750862e-02 -7.809647e-02 -8.935345e-02 -9.159627e-02 -8.125465e-02 -7.309206e-02 -5.589055e-02 -1.584607e-02 3.026067e-02 3.986457e-02
<VARIANCE> 32
 6.471424e-01 1.082714e+00 1.320179e+00 1.624834e+00 2.344219e+00 1.619298e+00 1.087116e+00 1.350788e+00 1.850861e+00 1.509030e+00 1.982589e+00 1.501319e+00 1.388856e+00 1.514287e+00 2.186229e+00 2.053500e+00 1.875577e-02 3.687075e-02 6.005541e-02 7.362732e-02 7.183266e-02 4.647412e-02 4.527516e-02 5.988247e-02 4.973314e-02 3.780022e-02 3.559554e-02 3.157827e-02 3.615063e-02 4.687997e-02 5.115362e-02 4.477621e-02
<GCONST> 1.546366e+01
<STATE> 9
<MEAN> 32
 5.638015e+00 5.851841e+00 6.345361e+00 6.945415e+00 7.044352e+00 6.943841e+00 7.091883e+00 7.642859e+00 8.004281e+00 7.938529e+00 8.318165e+00 8.787661e+00 9.584322e+00 1.004398e+01 1.001319e+01 9.782380e+00 -1.673446e-02 -2.575462e-02 -6.355835e-02 -8.504573e-02 -7.730951e-02 -5.274095e-02 -5.259152e-02 -7.192598e-02 -7.427548e-02 -7.905257e-02 -8.469802e-02 -8.829786e-02 -9.013830e-02 -1.030298e-01 -1.038762e-01 -8.873913e-02
<VARIANCE> 32
 1.275662e-01 1.195948e-01 2.764729e-01 5.276683e-01 5.255687e-01 3.417132e-01 2.228259e-01 3.683328e-01 5.071182e-01 4.318642e-01 5.357813e-01 6.067612e-01 9.700840e-01 1.222725e+00 1.070998e+00 8.139967e-01 1.208408e-02 1.237582e-02 1.612670e-02 1.927250e-02 1.512762e-02 1.090997e-02 9.385876e-03 1.969663e-02 1.422083e-02 1.341477e-02 1.536424e-02 1.797437e-02 3.228654e-02 4.352602e-02 4.075635e-02 3.479784e-02
<GCONST> -1.819584e+01
<TRANSP> 10
 0.000000e+00 1.000000e+00 0.000000e+00 0.000000e+00 0.000000e+00 0.000000e+00 0.000000e+00 0.000000e+00 0.000000e+00 0.000000e+00
 0.000000e+00 3.141999e-01 6.858000e-01 0.000000e+00 0.000000e+00 0.000000e+00 0.000000e+00 0.000000e+00 0.000000e+00 0.000000e+00
 0.000000e+00 0.000000e+00 4.894200e-01 5.105801e-01 0.000000e+00 0.000000e+00 0.000000e+00 0.000000e+00 0.000000e+00 0.000000e+00
 0.000000e+00 0.000000e+00 0.000000e+00 6.076732e-01 3.923269e-01 0.000000e+00 0.000000e+00 0.000000e+00 0.000000e+00 0.000000e+00
 0.000000e+00 0.000000e+00 0.000000e+00 0.000000e+00 5.923324e-01 4.076676e-01 0.000000e+00 0.000000e+00 0.000000e+00 0.000000e+00
 0.000000e+00 0.000000e+00 0.000000e+00 0.000000e+00 0.000000e+00 6.366408e-01 3.633592e-01 0.000000e+00 0.000000e+00 0.000000e+00
 0.000000e+00 0.000000e+00 0.000000e+00 0.000000e+00 0.000000e+00 0.000000e+00 8.692819e-01 1.307181e-01 0.000000e+00 0.000000e+00
 0.000000e+00 0.000000e+00 0.000000e+00 0.000000e+00 0.000000e+00 0.000000e+00 0.000000e+00 9.565789e-01 4.342114e-02 0.000000e+00
 0.000000e+00 0.000000e+00 0.000000e+00 0.000000e+00 0.000000e+00 0.000000e+00 0.000000e+00 0.000000e+00 9.408582e-01 5.914183e-02
 0.000000e+00 0.000000e+00 0.000000e+00 0.000000e+00 0.000000e+00 0.000000e+00 0.000000e+00 0.000000e+00 0.000000e+00 0.000000e+00
<ENDHMM>
~h "dva"
<BEGINHMM>
<NUMSTATES> 10
<STATE> 2
<MEAN> 32
 5.822976e+00 6.353596e+00 6.585052e+00 6.635695e+00 6.455370e+00 6.516328e+00 6.833239e+00 6.949573e+00 7.244581e+00 7.240027e+00 7.322716e+00 7.526227e+00 7.836086e+00 7.979013e+00 7.992626e+00 8.126323e+00 1.210595e-01 1.532669e-01 1.668954e-01 1.789843e-01 1.201918e-01 1.108939e-01 1.242395e-01 1.195148e-01 1.153737e-01 1.284362e-01 1.147197e-01 1.274413e-01 1.556631e-01 1.227788e-01 5.916405e-02 2.830522e-02
<VARIANCE> 32
 2.239566e-01 4.602241e-01 6.446786e-01 3.998782e-01 1.367233e-01 1.913570e-01 1.346697e-01 1.810862e-01 1.648046e-01 1.897245e-01 2.124770e-01 2.452848e-01 3.239360e-01 3.118963e-01 1.816700e-01 1.801444e-01 2.294913e-02 5.193684e-02 4.057333e-02 3.561967e-02 1.968734e-02 1.889803e-02 2.089661e-02 2.394490e-02 2.274406e-02 3.963480e-02 3.480600e-02 3.926805e-02 3.526254e-02 2.133410e-02 9.272193e-03 4.877631e-03
<GCONST> -2.387566e+01
<STATE> 3
<MEAN> 32
 5.928477e+00 6.534231e+00 6.733967e+00 6.778693e+00 6.577081e+00 6.724019e+00 6.970167e+00 7.124006e+00 7.439743e+00 7.423183e+00 7.520950e+00 7.750731e+00 8.046212e+00 8.109300e+00 8.043192e+00 8.155357e+00 1.433639e-01 2.270756e-01 2.934823e-01 3.017637e-01 2.134068e-01 1.930800e-01 2.256869e-01 2.428411e-01 2.207125e-01 2.387345e-01 2.214020e-01 2.276628e-01 2.663346e-01 1.868644e-01 7.700285e-02 3.963161e-02
<VARIANCE> 32
 1.902572e-01 4.101578e-01 7.562674e-01 5.385958e-01 1.990123e-01 2.568834e-01 3.070056e-01 3.341272e-01 2.681233e-01 3.482690e-01 4.277712e-01 5.066288e-01 4.926921e-01 3.855656e-01 2.420061e-01 2.066655e-01 5.538423e-02 1.083874e-01 9.590255e-02 8.156924e-02 3.314582e-02 3.508952e-02 3.494187e-02 4.867348e-02 5.386618e-02 6.408553e-02 6.718197e-02 8.822492e-02 9.133677e-02 4.922197e-02 1.586928e-02 9.049458e-03
<GCONST> -6.593569e+00
<STATE> 4
<MEAN> 32
 6.217176e+00 7.035874e+00 7.436237e+00 7.475441e+00 7.062416e+00 7.136377e+00 7.439708e+00 7.602176e+00 7.844691e+00 7.860252e+00 7.974940e+00 8.279069e+00 8.548820e+00 8.380177e+00 8.135750e+00 8.229111e+00 1.639615e-01 2.543160e-01 3.611332e-01 3.968696e-01 2.975881e-01 2.577027e-01 2.860145e-01 3.048708e-01 2.550781e-01 2.693372e-01 2.480198e-01 2.673281e-01 2.821422e-01 2.068791e-01 9.209793e-02 5.652555e-02
<VARIANCE> 32
 2.217554e-01 6.164471e-01 8.289191e-01 7.572560e-01 4.089296e-01 4.467472e-01 4.296218e-01 4.443456e-01 4.061668e-01 5.242250e-01 6.148639e-01 7.488420e-01 6.464005e-01 4.323019e-01 3.274588e-01 2.798473e-01 8.187352e-02 1.089065e-01 1.175276e-01 1.091917e-01 7.119883e-02 4.823432e-02 4.944784e-02 8.990140e-02 9.240809e-02 8.745325e-02 9.344381e-02 1.143710e-01 1.194000e-01 7.330373e-02 2.974401e-02 1.257305e-02
<GCONST> 4.861097e+00
<STATE> 5
<MEAN> 32
 6.537881e+00 7.489363e+00 8.115666e+00 8.241778e+00 7.662769e+00 7.644658e+00 8.018671e+00 8.175767e+00 8.277359e+00 8.308145e+00 8.301616e+00 8.595477e+00 8.927323e+00 8.722770e+00 8.273088e+00 8.304384e+00 1.513839e-01 1.929935e-01 2.990405e-01 3.558886e-01 3.178393e-01 2.678254e-01 3.147005e-01 3.039661e-01 2.188017e-01 2.465701e-01 2.225930e-01 2.193146e-01 2.079641e-01 1.724189e-01 7.830523e-02 3.610089e-02
<VARIANCE> 32
 4.984210e-01 7.464347e-01 9.894720e-01 1.226649e+00 9.574116e-01 8.605326e-01 7.556743e-01 6.246261e-01 5.615317e-01 5.055187e-01 5.053982e-01 6.611996e-01 7.064378e-01 5.569845e-01 3.642256e-01 2.671675e-01 4.138997e-02 6.037612e-02 1.101213e-01 1.156635e-01 8.524027e-02 4.996072e-02 6.522824e-02 1.092435e-01 1.142661e-01 1.125660e-01 1.195370e-01 1.309892e-01 1.269809e-01 8.989392e-02 4.169069e-02 2.089817e-02
<GCONST> 1.066799e+01
<STATE> 6
<MEAN> 32
 6.871246e+00 7.808011e+00 8.588644e+00 8.850486e+00 8.341778e+00 8.276738e+00 8.724443e+00 8.733256e+00 8.656426e+00 8.716533e+00 8.678964e+00 8.948968e+00 9.267715e+00 9.093608e+00 8.574917e+00 8.462644e+00 7.331079e-02 7.199813e-02 1.264724e-01 1.884476e-01 2.425931e-01 2.347765e-01 2.730358e-01 2.103295e-01 1.264320e-01 1.636569e-01 1.556540e-01 1.568923e-01 1.397849e-01 1.138964e-01 6.036827e-02 2.706868e-02
<VARIANCE> 32
 6.237051e-01 6.367882e-01 8.566346e-01 1.156690e+00 1.330174e+00 1.021196e+00 9.850941e-01 8.129668e-01 8.230557e-01 6.513565e-01 6.550475e-01 7.529652e-01 7.925728e-01 8.782983e-01 8.363421e-01 5.072266e-01 1.147393e-02 2.128983e-02 7.481617e-02 1.014027e-01 8.821832e-02 6.471094e-02 7.894310e-02 1.176791e-01 1.039172e-01 9.921220e-02 1.134160e-01 1.162763e-01 1.098522e-01 8.572315e-02 3.489900e-02 2.304834e-02
<GCONST> 1.167671e+01
<STATE> 7
<MEAN> 32
 7.346437e+00 8.295288e+00 9.238624e+00 9.890882e+00 9.952374e+00 9.872331e+00 1.028544e+01 1.011726e+01 9.528108e+00 9.572637e+00 9.827044e+00 1.009377e+01 1.037233e+01 1.002948e+01 9.419456e+00 8.936974e+00 8.225422e-03 7.466417e-03 3.566016e-02 1.172605e-01 2.255894e-01 2.256113e-01 2.074807e-01 1.668642e-01 1.100908e-01 1.313088e-01 1.413260e-01 1.605122e-01 1.643099e-01 1.169896e-01 5.682372e-02 1.953976e-02
<VARIANCE> 32
 9.926645e-01 1.075678e+00 1.421976e+00 1.965836e+00 3.086036e+00 2.591405e+00 2.438850e+00 2.670095e+00 1.533269e+00 1.031089e+00 1.698092e+00 1.598928e+00 1.710413e+00 1.647774e+00 2.052331e+00 9.507898e-01 9.004683e-03 1.250253e-02 5.022918e-02 1.105393e-01 1.555164e-01 1.173816e-01 1.069497e-01 1.156086e-01 7.460041e-02 8.644480e-02 1.014021e-01 1.008273e-01 9.508552e-02 6.794530e-02 2.459044e-02 1.542134e-02
<GCONST> 2.179194e+01
<STATE> 8
<MEAN> 32
 6.618683e+00 7.539718e+00 8.414372e+00 9.517409e+00 1.037980e+01 1.059003e+01 1.093420e+01 1.056452e+01 9.716751e+00 9.988888e+00 1.019434e+01 1.065806e+01 1.116440e+01 1.028679e+01 8.887745e+00 8.485325e+00 -3.867791e-02 -4.693452e-02 -9.401640e-02 -1.022832e-01 -9.544677e-02 -7.414719e-02 -8.772825e-02 -8.466032e-02 -7.681274e-02 -8.845522e-02 -8.072999e-02 -8.435193e-02 -7.432783e-02 -6.821021e-02 -4.627556e-02 -2.494997e-02
<VARIANCE> 32
 4.215653e-01 4.383539e-01 6.869831e-01 7.818427e-01 1.116008e+00 1.102708e+00 1.193572e+00 1.628609e+00 7.969646e-01 8.926518e-01 1.685455e+00 1.596993e+00 1.859250e+00 1.223727e+00 7.972789e-01 3.300886e-01 1.301618e-02 1.279203e-02 2.412072e-02 3.675330e-02 5.203758e-02 4.677689e-02 4.924358e-02 4.794069e-02 3.045010e-02 3.406133e-02 3.751706e-02 4.409268e-02 4.667010e-02 3.478253e-02 1.407610e-02 7.680105e-03
<GCONST> 8.840046e-01
<STATE> 9
<MEAN> 32
 5.825704e+00 6.380010e+00 6.594812e+00 7.461932e+00 8.417083e+00 8.692430e+00 8.790002e+00 8.436041e+00 7.835770e+00 7.971634e+00 8.244699e+00 8.541733e+00 9.046045e+00 8.487570e+00 7.920401e+00 7.998781e+00 -7.680987e-02 -1.320606e-01 -1.448127e-01 -1.900328e-01 -1.927639e-01 -2.025981e-01 -1.892677e-01 -1.618249e-01 -1.256842e-01 -1.330821e-01 -1.353525e-01 -1.401538e-01 -1.591110e-01 -1.349839e-01 -4.325921e-02 -9.187903e-03
<VARIANCE> 32
 3.040257e-01 4.856183e-01 4.143530e-01 7.458035e-01 7.701893e-01 5.295024e-01 4.648810e-01 6.528050e-01 3.639794e-01 4.509799e-01 5.915079e-01 3.500108e-01 3.921208e-01 3.137572e-01 1.414912e-01 1.413215e-01 1.340030e-02 1.875286e-02 1.711291e-02 1.735099e-02 1.297380e-02 1.223375e-02 1.534507e-02 1.598860e-02 7.382132e-03 6.717127e-03 8.385189e-03 1.124763e-02 1.339787e-02 1.028074e-02 3.391956e-03 1.563358e-03
<GCONST> -2.944426e+01
<TRANSP> 10
 0.000000e+00 1.000000e+00 0.000000e+00 0.000000e+00 0.000000e+00 0.000000e+00 0.000000e+00 0.000000e+00 0.000000e+00 0.000000e+00
 0.000000e+00 1.134164e-01 8.865836e-01 0.000000e+00 0.000000e+00 0.000000e+00 0.000000e+00 0.000000e+00 0.000000e+00 0.000000e+00
 0.000000e+00 0.000000e+00 2.145540e-01 7.854460e-01 0.000000e+00 0.000000e+00 0.000000e+00 0.000000e+00 0.000000e+00 0.000000e+00
 0.000000e+00 0.000000e+00 0.000000e+00 2.892636e-01 7.107364e-01 0.000000e+00 0.000000e+00 0.000000e+00 0.000000e+00 0.000000e+00
 0.000000e+00 0.000000e+00 0.000000e+00 0.000000e+00 4.258647e-01 5.741353e-01 0.000000e+00 0.000000e+00 0.000000e+00 0.000000e+00
 0.000000e+00 0.000000e+00 0.000000e+00 0.000000e+00 0.000000e+00 6.474502e-01 3.525498e-01 0.000000e+00 0.000000e+00 0.000000e+00
 0.000000e+00 0.000000e+00 0.000000e+00 0.000000e+00 0.000000e+00 0.000000e+00 8.859395e-01 1.140605e-01 0.000000e+00 0.000000e+00
 0.000000e+00 0.000000e+00 0.000000e+00 0.000000e+00 0.000000e+00 0.000000e+00 0.000000e+00 9.478002e-01 5.219974e-02 0.000000e+00
 0.000000e+00 0.000000e+00 0.000000e+00 0.000000e+00 0.000000e+00 0.000000e+00 0.000000e+00 0.000000e+00 8.052724e-01 1.947276e-01
 0.000000e+00 0.000000e+00 0.000000e+00 0.000000e+00 0.000000e+00 0.000000e+00 0.000000e+00 0.000000e+00 0.000000e+00 0.000000e+00
<ENDHMM>
~h "osm"
<BEGINHMM>
<NUMSTATES> 10
<STATE> 2
<MEAN> 32
 5.529308e+00 5.830385e+00 6.144700e+00 6.312349e+00 6.397888e+00 6.755810e+00 6.983374e+00 7.027903e+00 7.221914e+00 7.176838e+00 7.400980e+00 7.636932e+00 7.825608e+00 8.046272e+00 8.314185e+00 8.470227e+00 2.552264e-02 6.742642e-02 1.485829e-01 2.503101e-01 1.984508e-01 1.833534e-01 1.252376e-01 4.562252e-02 3.776725e-02 6.392533e-02 5.026640e-02 6.973924e-02 1.118066e-01 8.123187e-02 4.235184e-02 3.921281e-02
<VARIANCE> 32
 1.553487e-01 1.354112e-01 2.108879e-01 3.041988e-01 2.040768e-01 3.047498e-01 3.726745e-01 2.897476e-01 2.420435e-01 2.009578e-01 2.628434e-01 3.183885e-01 2.949688e-01 4.796340e-01 7.022989e-01 7.154786e-01 1.058333e-02 1.478024e-02 4.634830e-02 7.808135e-02 5.937688e-02 5.754517e-02 3.030611e-02 1.701214e-02 1.275794e-02 1.187773e-02 5.998437e-03 1.507860e-02 2.507501e-02 1.835834e-02 1.376854e-02 6.987683e-03
<GCONST> -2.361882e+01
<STATE> 3
<MEAN> 32
 5.419123e+00 5.816278e+00 6.269244e+00 6.571718e+00 6.534535e+00 6.798279e+00 6.885544e+00 6.858470e+00 7.106220e+00 7.111724e+00 7.270337e+00 7.568041e+00 8.061787e+00 8.163261e+00 8.271449e+00 8.371760e+00 3.870026e-02 1.571941e-01 2.932441e-01 4.227859e-01 4.023751e-01 3.463602e-01 2.169258e-01 1.076687e-01 8.255165e-02 1.271683e-01 1.402483e-01 2.121746e-01 2.547594e-01 1.587835e-01 8.580270e-02 7.933908e-02
<VARIANCE> 32
 2.740987e-01 2.636050e-01 5.793677e-01 9.544648e-01 6.241913e-01 6.316388e-01 3.648843e-01 1.808257e-01 1.778847e-01 2.533289e-01 1.451835e-01 1.597548e-01 4.536226e-01 4.768792e-01 4.955233e-01 4.466899e-01 1.065486e-02 3.568416e-02 9.418806e-02 1.522608e-01 1.250163e-01 1.251848e-01 7.946967e-02 2.420403e-02 2.720390e-02 2.774902e-02 2.866485e-02 5.541971e-02 5.801494e-02 4.391600e-02 2.768734e-02 2.291601e-02
<GCONST> -7.459018e+00
<STATE> 4
<MEAN> 32
 5.660753e+00 6.173491e+00 6.869006e+00 7.481245e+00 7.507361e+00 7.564788e+00 7.302319e+00 7.080027e+00 7.350986e+00 7.436825e+00 7.459196e+00 7.828777e+00 8.279066e+00 8.191640e+00 8.179527e+00 8.402537e+00 1.194530e-01 2.997949e-01 5.147358e-01 7.065625e-01 7.232867e-01 6.655053e-01 5.237674e-01 3.156737e-01 2.171140e-01 2.965810e-01 3.494313e-01 4.687268e-01 5.072144e-01 3.013264e-01 9.838220e-02 5.723000e-02
<VARIANCE> 32
 2.448343e-01 4.382506e-01 1.152871e+00 1.421130e+00 9.931867e-01 9.722978e-01 6.253320e-01 2.064279e-01 1.808690e-01 2.620985e-01 9.448937e-02 2.646018e-01 3.514888e-01 2.932151e-01 4.468672e-01 4.001644e-01 1.683064e-02 3.842791e-02 8.103164e-02 1.711742e-01 1.787930e-01 1.505337e-01 1.203862e-01 4.171789e-02 1.893842e-02 4.751021e-02 7.140458e-02 1.305466e-01 1.043876e-01 4.804192e-02 7.943217e-03 9.888350e-03
<GCONST> -2.706619e+00
<STATE> 5
<MEAN> 32
 5.834583e+00 6.671298e+00 7.646205e+00 8.403195e+00 8.456018e+00 8.519749e+00 8.080022e+00 7.533927e+00 7.601761e+00 7.829131e+00 7.997884e+00 8.538833e+00 8.978187e+00 8.536325e+00 8.287959e+00 8.393265e+00 2.180516e-01 3.688867e-01 5.808167e-01 7.514372e-01 7.895468e-01 7.796298e-01 6.857226e-01 4.540061e-01 3.165841e-01 3.952985e-01 5.065415e-01 6.229467e-01 6.524287e-01 4.370767e-01 1.516694e-01 7.292681e-02
<VARIANCE> 32
 2.817120e-01 6.710475e-01 1.401129e+00 1.778394e+00 1.403398e+00 1.306344e+00 1.143353e+00 4.341398e-01 2.111482e-01 4.724743e-01 5.026469e-01 9.766253e-01 5.664088e-01 4.000516e-01 3.693787e-01 3.501641e-01 2.693647e-02 3.740880e-02 1.014520e-01 2.267591e-01 2.550182e-01 1.823396e-01 1.621945e-01 6.334172e-02 3.121260e-02 6.726925e-02 1.155042e-01 2.000270e-01 1.827847e-01 7.724391e-02 2.236309e-02 6.825169e-03
<GCONST> 1.011852e+01
<STATE> 6
<MEAN> 32
 6.290805e+00 7.275320e+00 8.543449e+00 9.545177e+00 9.650689e+00 9.755659e+00 9.268621e+00 8.440085e+00 8.242403e+00 8.600343e+00 8.984288e+00 9.666863e+00 1.012556e+01 9.381497e+00 8.529082e+00 8.508940e+00 2.277301e-01 3.485956e-01 4.938247e-01 5.686889e-01 5.860600e-01 5.905502e-01 5.653293e-01 4.291384e-01 3.234524e-01 3.697436e-01 4.922273e-01 5.479630e-01 5.619223e-01 4.283606e-01 1.760819e-01 9.798200e-02
<VARIANCE> 32
 3.872305e-01 4.670769e-01 8.429356e-01 1.127297e+00 1.347961e+00 1.002123e+00 1.162735e+00 5.776703e-01 2.618454e-01 5.546144e-01 9.465491e-01 1.740827e+00 8.172638e-01 6.051959e-01 5.028774e-01 3.234280e-01 3.969127e-02 8.179670e-02 1.259369e-01 2.448519e-01 2.371437e-01 2.112239e-01 2.000501e-01 7.952225e-02 4.431275e-02 6.919509e-02 1.034616e-01 1.598874e-01 1.656578e-01 8.023003e-02 3.358474e-02 1.002638e-02
<GCONST> 1.445342e+01
<STATE> 7
<MEAN> 32
 6.626772e+00 7.780745e+00 9.073704e+00 1.002935e+01 1.022353e+01 1.027095e+01 9.833852e+00 8.996501e+00 8.749975e+00 9.050722e+00 9.694603e+00 1.039828e+01 1.087654e+01 1.021181e+01 9.045979e+00 8.810568e+00 1.151411e-01 1.564413e-01 2.001987e-01 1.913908e-01 1.852117e-01 1.763807e-01 1.869012e-01 1.838077e-01 1.693002e-01 1.560159e-01 2.418016e-01 2.536511e-01 2.637776e-01 2.611377e-01 1.385038e-01 9.221224e-02
<VARIANCE> 32
 3.427598e-01 7.687948e-01 9.285979e-01 1.253361e+00 1.617110e+00 1.310534e+00 1.656691e+00 8.033689e-01 4.252778e-01 4.543875e-01 9.958999e-01 1.624129e+00 9.947133e-01 9.241741e-01 1.030964e+00 4.932695e-01 3.922271e-02 1.065330e-01 1.429000e-01 1.818756e-01 1.656874e-01 1.573700e-01 1.381053e-01 6.664687e-02 5.288188e-02 6.159481e-02 7.692192e-02 8.662896e-02 8.312219e-02 4.999207e-02 3.502741e-02 2.146557e-02
<GCONST> 1.586685e+01
<STATE> 8
<MEAN> 32
 6.435890e+00 7.355505e+00 8.272797e+00 8.922808e+00 8.802193e+00 8.963219e+00 9.054492e+00 8.905587e+00 8.833413e+00 9.004626e+00 9.604321e+00 1.020314e+01 1.079236e+01 1.075264e+01 1.020654e+01 9.961171e+00 -3.541627e-03 1.657698e-03 -1.935095e-02 -5.151155e-02 -8.660065e-02 -7.356641e-02 -4.641935e-02 -1.886404e-02 -8.427439e-03 -1.234957e-02 -2.810410e-02 -3.739652e-02 -4.224373e-02 -3.479846e-02 -1.064631e-02 -7.422896e-03
<VARIANCE> 32
 7.599360e-01 1.844925e+00 2.383742e+00 2.074922e+00 1.979303e+00 1.899464e+00 1.793592e+00 1.194726e+00 9.158500e-01 8.889281e-01 1.024145e+00 1.067788e+00 1.052008e+00 1.326862e+00 2.144181e+00 2.286777e+00 3.934910e-02 8.632564e-02 1.091070e-01 8.321919e-02 5.047295e-02 5.188113e-02 4.514281e-02 3.426769e-02 2.693632e-02 2.943201e-02 3.197533e-02 3.807490e-02 4.505346e-02 4.763185e-02 6.515671e-02 6.067454e-02
<GCONST> 1.631075e+01
<STATE> 9
<MEAN> 32
 6.516499e+00 7.802398e+00 8.541124e+00 8.373158e+00 7.694068e+00 8.166967e+00 8.468338e+00 8.392109e+00 8.468224e+00 8.613973e+00 8.764853e+00 9.497515e+00 9.794466e+00 9.089981e+00 8.298218e+00 8.307160e+00 -2.112631e-02 -3.473496e-02 -6.991501e-02 -7.729071e-02 -4.396425e-02 -4.856722e-02 -5.699836e-02 -5.206719e-02 -4.732508e-02 -5.115558e-02 -6.258489e-02 -6.702808e-02 -6.064561e-02 -4.935209e-02 -2.963629e-02 -1.994819e-02
<VARIANCE> 32
 4.541550e-01 5.496691e-01 9.944267e-01 7.812819e-01 3.941732e-01 6.001545e-01 7.048143e-01 7.739193e-01 5.466322e-01 5.438778e-01 6.374216e-01 9.198585e-01 1.109717e+00 5.778143e-01 3.720495e-01 2.981637e-01 1.032811e-02 2.033065e-02 3.676860e-02 2.338567e-02 1.187292e-02 1.618039e-02 1.440168e-02 1.103247e-02 1.034550e-02 1.213116e-02 1.012283e-02 1.630751e-02 1.665647e-02 1.386625e-02 5.104953e-03 3.805609e-03
<GCONST> -1.901222e+01
<TRANSP> 10
 0.000000e+00 1.000000e+00 0.000000e+00 0.000000e+00 0.000000e+00 0.000000e+00 0.000000e+00 0.000000e+00 0.000000e+00 0.000000e+00
 0.000000e+00 2.332342e-01 7.667659e-01 0.000000e+00 0.000000e+00 0.000000e+00 0.000000e+00 0.000000e+00 0.000000e+00 0.000000e+00
 0.000000e+00 0.000000e+00 2.771157e-01 7.228842e-01 0.000000e+00 0.000000e+00 0.000000e+00 0.000000e+00 0.000000e+00 0.000000e+00
 0.000000e+00 0.000000e+00 0.000000e+00 1.594967e-01 8.405033e-01 0.000000e+00 0.000000e+00 0.000000e+00 0.000000e+00 0.000000e+00
 0.000000e+00 0.000000e+00 0.000000e+00 0.000000e+00 1.559851e-01 8.440149e-01 0.000000e+00 0.000000e+00 0.000000e+00 0.000000e+00
 0.000000e+00 0.000000e+00 0.000000e+00 0.000000e+00 0.000000e+00 3.219532e-01 6.780468e-01 0.000000e+00 0.000000e+00 0.000000e+00
 0.000000e+00 0.000000e+00 0.000000e+00 0.000000e+00 0.000000e+00 0.000000e+00 6.471912e-01 3.528088e-01 0.000000e+00 0.000000e+00
 0.000000e+00 0.000000e+00 0.000000e+00 0.000000e+00 0.000000e+00 0.000000e+00 0.000000e+00 9.633626e-01 3.663735e-02 0.000000e+00
 0.000000e+00 0.000000e+00 0.000000e+00 0.000000e+00 0.000000e+00 0.000000e+00 0.000000e+00 0.000000e+00 9.610792e-01 3.892076e-02
 0.000000e+00 0.000000e+00 0.000000e+00 0.000000e+00 0.000000e+00 0.000000e+00 0.000000e+00 0.000000e+00 0.000000e+00 0.000000e+00
<ENDHMM>
~h "pet"
<BEGINHMM>
<NUMSTATES> 10
<STATE> 2
<MEAN> 32
 5.759173e+00 5.938724e+00 6.057511e+00 6.161733e+00 6.298580e+00 6.438648e+00 6.640238e+00 6.996913e+00 7.323565e+00 7.180412e+00 7.271131e+00 7.468760e+00 7.721883e+00 7.884731e+00 7.952136e+00 8.142731e+00 1.961913e-02 1.229941e-01 1.552053e-01 7.930425e-02 2.063032e-02 3.487050e-03 4.365408e-02 9.260400e-02 1.532368e-01 1.550407e-01 1.239312e-01 1.063791e-01 1.211661e-01 1.084999e-01 5.997192e-02 2.963766e-02
<VARIANCE> 32
 2.614057e-01 2.249175e-01 2.851463e-01 1.415470e-01 8.889610e-02 7.009530e-02 4.843014e-02 1.377715e-01 2.071313e-01 9.693849e-02 3.676212e-02 5.460370e-02 8.275083e-02 1.211774e-01 9.374384e-02 1.116846e-01 2.337067e-02 5.566875e-02 6.306858e-02 1.670073e-02 8.569135e-03 7.518882e-03 8.179216e-03 1.647948e-02 3.064476e-02 2.497941e-02 1.814589e-02 1.608664e-02 2.020345e-02 1.900770e-02 5.868688e-03 3.068442e-03
<GCONST> -4.276597e+01
<STATE> 3
<MEAN> 32
 5.790075e+00 6.216761e+00 6.510239e+00 6.446037e+00 6.404346e+00 6.460437e+00 6.699729e+00 7.020668e+00 7.510113e+00 7.386361e+00 7.373645e+00 7.532859e+00 7.829627e+00 7.936613e+00 7.975594e+00 8.142142e+00 5.389978e-02 2.289089e-01 3.693237e-01 2.943449e-01 1.254131e-01 8.067127e-02 1.331977e-01 2.118793e-01 3.041323e-01 3.540265e-01 2.886392e-01 2.668602e-01 2.750354e-01 2.128571e-01 1.101470e-01 5.753738e-02
<VARIANCE> 32
 3.366065e-01 7.382143e-01 1.131699e+00 3.466690e-01 1.114618e-01 5.239382e-02 5.186591e-02 1.447491e-01 4.866668e-01 3.304831e-01 9.592366e-02 6.640342e-02 1.392153e-01 1.469470e-01 1.085559e-01 1.128188e-01 1.498666e-02 4.400641e-02 8.180974e-02 3.902542e-02 1.193661e-02 1.182789e-02 1.033774e-02 3.300644e-02 4.468461e-02 5.619653e-02 5.357832e-02 6.369416e-02 4.255169e-02 3.030758e-02 8.197360e-03 4.901556e-03
<GCONST> -2.708852e+01
<STATE> 4
<MEAN> 32
 5.880742e+00 6.563960e+00 7.125242e+00 6.904735e+00 6.615731e+00 6.636133e+00 6.971160e+00 7.465741e+00 8.083961e+00 7.951928e+00 7.866685e+00 7.946901e+00 8.328331e+00 8.352556e+00 8.226776e+00 8.311872e+00 1.615704e-01 3.721747e-01 5.749790e-01 5.662830e-01 3.194063e-01 2.184368e-01 2.530828e-01 4.043569e-01 5.580339e-01 6.434499e-01 5.456001e-01 4.952435e-01 4.888727e-01 3.393332e-01 1.321062e-01 6.498283e-02
<VARIANCE> 32
 4.534642e-01 1.039646e+00 1.702132e+00 8.371037e-01 2.467915e-01 1.349690e-01 1.218791e-01 5.572820e-01 9.556318e-01 6.579572e-01 3.343556e-01 3.064249e-01 3.446249e-01 2.902719e-01 1.330374e-01 1.135937e-01 1.680491e-02 6.012057e-02 9.997711e-02 5.926269e-02 2.981878e-02 2.093351e-02 1.591558e-02 3.927691e-02 7.257414e-02 1.164700e-01 1.040165e-01 1.211966e-01 9.880951e-02 5.810002e-02 1.581723e-02 8.906748e-03
<GCONST> -6.871206e+00
<STATE> 5
<MEAN> 32
 6.119667e+00 7.098179e+00 7.929580e+00 7.850364e+00 7.142759e+00 6.991424e+00 7.331011e+00 8.155592e+00 8.918696e+00 8.957748e+00 8.609402e+00 8.632414e+00 8.951767e+00 8.764434e+00 8.356113e+00 8.375461e+00 2.226760e-01 4.144292e-01 6.532638e-01 7.036930e-01 4.378113e-01 3.216780e-01 3.139921e-01 4.603327e-01 6.375117e-01 7.636870e-01 6.757540e-01 6.065123e-01 5.921252e-01 4.097292e-01 1.343235e-01 5.739375e-02
<VARIANCE> 32
 4.591517e-01 7.093148e-01 1.301198e+00 1.170792e+00 4.627675e-01 2.566926e-01 1.692476e-01 6.443922e-01 1.098945e+00 9.940417e-01 7.246175e-01 8.685034e-01 5.475424e-01 3.907993e-01 1.267707e-01 1.396555e-01 5.520936e-02 1.267371e-01 2.122273e-01 1.208919e-01 4.325362e-02 2.723550e-02 3.127839e-02 6.374969e-02 1.343513e-01 1.896043e-01 1.533456e-01 1.709333e-01 1.507953e-01 9.605058e-02 2.995941e-02 1.187899e-02
<GCONST> 6.740390e+00
<STATE> 6
<MEAN> 32
 6.676492e+00 7.870836e+00 9.224129e+00 9.345607e+00 8.186614e+00 7.749921e+00 8.004717e+00 9.006971e+00 1.013032e+01 1.042373e+01 1.003324e+01 9.901711e+00 1.018942e+01 9.611686e+00 8.591954e+00 8.471027e+00 1.903148e-01 2.637600e-01 4.939046e-01 5.338115e-01 3.701550e-01 2.771959e-01 2.398600e-01 2.778597e-01 3.792714e-01 5.159001e-01 4.989447e-01 4.545714e-01 4.429628e-01 3.294536e-01 1.217427e-01 5.317432e-02
<VARIANCE> 32
 3.715145e-01 3.687942e-01 5.460916e-01 6.255443e-01 4.960160e-01 3.161867e-01 2.761806e-01 5.084367e-01 4.024494e-01 6.997700e-01 1.177629e+00 1.551728e+00 9.461555e-01 7.544315e-01 4.854022e-01 3.541542e-01 7.019246e-02 1.449008e-01 2.382871e-01 1.943718e-01 6.450644e-02 4.388376e-02 4.055732e-02 8.098215e-02 1.552137e-01 2.207214e-01 1.819630e-01 1.489642e-01 1.474600e-01 1.084884e-01 3.208660e-02 1.371541e-02
<GCONST> 1.108043e+01
<STATE> 7
<MEAN> 32
 7.240186e+00 8.409616e+00 1.007720e+01 1.054210e+01 9.795398e+00 9.091397e+00 9.094948e+00 9.818961e+00 1.089343e+01 1.145076e+01 1.135449e+01 1.114813e+01 1.137616e+01 1.089309e+01 9.787243e+00 9.241544e+00 6.417736e-03 -4.585486e-03 3.140622e-02 9.349890e-02 1.581838e-01 1.163255e-01 9.640360e-02 9.310680e-02 8.726213e-02 7.420057e-02 8.945957e-02 9.922861e-02 9.652556e-02 8.617274e-02 5.295765e-02 3.076770e-02
<VARIANCE> 32
 8.136358e-01 1.089715e+00 1.135131e+00 1.075487e+00 1.848623e+00 1.412635e+00 9.137075e-01 7.905540e-01 8.563714e-01 1.146014e+00 1.854084e+00 1.695258e+00 1.214563e+00 1.417023e+00 1.795300e+00 1.004432e+00 2.683074e-02 3.357597e-02 9.235971e-02 7.790595e-02 4.771148e-02 3.409187e-02 2.660189e-02 2.617422e-02 4.514279e-02 7.892196e-02 7.776540e-02 6.264340e-02 6.563243e-02 5.326522e-02 2.255728e-02 1.317702e-02
<GCONST> 1.140868e+01
<STATE> 8
<MEAN> 32
 6.304678e+00 7.257688e+00 8.616702e+00 9.604323e+00 9.427696e+00 8.712938e+00 8.823077e+00 9.636398e+00 1.036528e+01 1.031488e+01 1.044404e+01 1.050284e+01 1.077435e+01 1.020693e+01 8.944606e+00 8.618283e+00 -4.272340e-02 -7.089567e-02 -1.114286e-01 -1.025769e-01 -8.034247e-02 -6.579696e-02 -6.704473e-02 -7.094710e-02 -1.072852e-01 -1.350343e-01 -1.160531e-01 -1.076175e-01 -1.033036e-01 -9.341082e-02 -4.761297e-02 -2.463527e-02
<VARIANCE> 32
 3.807653e-01 6.005383e-01 1.112099e+00 1.225783e+00 1.684229e+00 1.205918e+00 8.995669e-01 1.108027e+00 1.618312e+00 1.826331e+00 1.861566e+00 1.790099e+00 1.707583e+00 1.321451e+00 6.953912e-01 4.353265e-01 1.462644e-02 2.580011e-02 5.119138e-02 5.842828e-02 6.128502e-02 4.709839e-02 4.954272e-02 6.494480e-02 6.576450e-02 4.088818e-02 4.356038e-02 4.811192e-02 4.834312e-02 4.748419e-02 3.127273e-02 1.498724e-02
<GCONST> 9.147842e+00
<STATE> 9
<MEAN> 32
 5.714744e+00 5.950346e+00 6.600179e+00 7.288847e+00 7.221573e+00 6.948321e+00 7.059830e+00 7.620484e+00 8.056714e+00 7.930417e+00 8.159130e+00 8.329699e+00 8.577928e+00 8.245592e+00 8.047863e+00 8.136360e+00 -2.608149e-02 -5.360986e-02 -7.957627e-02 -9.812969e-02 -8.133393e-02 -4.980102e-02 -4.653216e-02 -6.414258e-02 -6.912904e-02 -7.278622e-02 -6.793821e-02 -6.766762e-02 -5.642376e-02 -3.390138e-02 -5.039858e-03 -2.274608e-03
<VARIANCE> 32
 1.091233e-01 1.210202e-01 3.356868e-01 5.871227e-01 5.856575e-01 3.715990e-01 2.284710e-01 3.254376e-01 4.769278e-01 5.033434e-01 6.187843e-01 5.134441e-01 5.489348e-01 3.973078e-01 2.120255e-01 1.224204e-01 1.236468e-02 1.718678e-02 2.997695e-02 3.088728e-02 2.346202e-02 2.167401e-02 2.142949e-02 3.891120e-02 2.682546e-02 2.517156e-02 2.654753e-02 3.576113e-02 5.192339e-02 4.324327e-02 2.269578e-02 1.166162e-02
<GCONST> -1.772147e+01
<TRANSP> 10
 0.000000e+00 1.000000e+00 0.000000e+00 0.000000e+00 0.000000e+00 0.000000e+00 0.000000e+00 0.000000e+00 0.000000e+00 0.000000e+00
 0.000000e+00 4.680153e-02 9.531985e-01 0.000000e+00 0.000000e+00 0.000000e+00 0.000000e+00 0.000000e+00 0.000000e+00 0.000000e+00
 0.000000e+00 0.000000e+00 1.020374e-01 8.979626e-01 0.000000e+00 0.000000e+00 0.000000e+00 0.000000e+00 0.000000e+00 0.000000e+00
 0.000000e+00 0.000000e+00 0.000000e+00 1.743023e-01 8.256977e-01 0.000000e+00 0.000000e+00 0.000000e+00 0.000000e+00 0.000000e+00
 0.000000e+00 0.000000e+00 0.000000e+00 0.000000e+00 2.497457e-01 7.502544e-01 0.000000e+00 0.000000e+00 0.000000e+00 0.000000e+00
 0.000000e+00 0.000000e+00 0.000000e+00 0.000000e+00 0.000000e+00 5.314381e-01 4.685620e-01 0.000000e+00 0.000000e+00 0.000000e+00
 0.000000e+00 0.000000e+00 0.000000e+00 0.000000e+00 0.000000e+00 0.000000e+00 8.746566e-01 1.253434e-01 0.000000e+00 0.000000e+00
 0.000000e+00 0.000000e+00 0.000000e+00 0.000000e+00 0.000000e+00 0.000000e+00 0.000000e+00 9.474263e-01 5.257371e-02 0.000000e+00
 0.000000e+00 0.000000e+00 0.000000e+00 0.000000e+00 0.000000e+00 0.000000e+00 0.000000e+00 0.000000e+00 9.062356e-01 9.376436e-02
 0.000000e+00 0.000000e+00 0.000000e+00 0.000000e+00 0.000000e+00 0.000000e+00 0.000000e+00 0.000000e+00 0.000000e+00 0.000000e+00
<ENDHMM>
~h "sil"
<BEGINHMM>
<NUMSTATES> 5
<STATE> 2
<MEAN> 32
 5.641625e+00 5.992100e+00 6.353621e+00 6.673574e+00 6.754525e+00 6.903626e+00 7.048634e+00 7.277794e+00 7.516246e+00 7.517690e+00 7.703166e+00 7.927233e+00 8.268001e+00 8.222732e+00 8.202071e+00 8.336038e+00 -2.677115e-02 -5.094023e-02 -5.661869e-02 -5.990441e-02 -5.009774e-02 -4.054595e-02 -3.741184e-02 -4.077152e-02 -3.991059e-02 -4.601652e-02 -4.744845e-02 -5.159849e-02 -5.797232e-02 -4.844135e-02 -2.102788e-02 -1.685810e-02
<VARIANCE> 32
 2.068310e-01 2.910535e-01 3.199317e-01 3.568022e-01 3.477909e-01 2.938005e-01 2.978405e-01 3.297273e-01 2.254100e-01 2.345287e-01 2.599867e-01 2.211934e-01 2.632964e-01 2.354854e-01 2.753675e-01 2.492344e-01 1.550247e-02 1.849084e-02 1.847191e-02 1.828508e-02 1.489796e-02 1.220592e-02 1.216035e-02 1.582683e-02 1.151122e-02 1.151796e-02 1.218212e-02 1.383892e-02 2.109371e-02 1.834047e-02 1.071662e-02 6.936952e-03
<GCONST> -3.032441e+01
<STATE> 3
<MEAN> 32
 5.576541e+00 5.743177e+00 5.958749e+00 6.155295e+00 6.306124e+00 6.503769e+00 6.659338e+00 6.829015e+00 7.147560e+00 7.089470e+00 7.252444e+00 7.432485e+00 7.641754e+00 7.750339e+00 7.913512e+00 8.108814e+00 -3.609420e-04 -1.602867e-03 -2.246161e-03 -3.525103e-03 -3.533700e-03 -3.395391e-03 -3.356232e-03 -3.329396e-03 -2.295855e-03 -3.028510e-03 -3.067180e-03 -3.942895e-03 -5.389628e-03 -2.904708e-03 -1.020288e-03 -8.713915e-04
<VARIANCE> 32
 1.487858e-01 1.073262e-01 1.074892e-01 1.000221e-01 8.532713e-02 8.962193e-02 8.184757e-02 8.481228e-02 5.791373e-02 6.968866e-02 7.299334e-02 7.363399e-02 8.605681e-02 9.315924e-02 9.355667e-02 1.041470e-01 1.255309e-02 1.132270e-02 9.975867e-03 8.798152e-03 7.305363e-03 6.349558e-03 5.694029e-03 5.095954e-03 3.943668e-03 3.908439e-03 3.476885e-03 3.285273e-03 3.910385e-03 3.289101e-03 2.102921e-03 1.641310e-03
<GCONST> -6.482114e+01
<STATE> 4
<MEAN> 32
 5.540725e+00 5.818024e+00 6.155047e+00 6.379203e+00 6.407745e+00 6.647995e+00 6.830961e+00 7.040410e+00 7.314272e+00 7.392363e+00 7.589697e+00 7.831983e+00 8.104780e+00 8.286464e+00 8.449687e+00 8.601179e+00 5.642233e-03 1.776046e-02 1.939071e-02 1.910124e-02 7.451403e-03 6.183734e-03 6.260578e-03 9.508010e-03 1.448730e-02 1.708362e-02 1.540232e-02 1.923344e-02 2.526434e-02 2.394685e-02 1.578696e-02 1.097445e-02
<VARIANCE> 32
 3.016643e-01 2.035587e-01 2.162477e-01 2.397175e-01 1.530499e-01 1.896908e-01 2.220547e-01 2.730831e-01 2.576277e-01 3.530470e-01 4.038578e-01 4.663728e-01 5.067587e-01 5.941476e-01 6.760566e-01 6.645780e-01 2.106227e-02 1.940012e-02 1.855909e-02 1.777753e-02 9.814978e-03 8.402824e-03 1.011587e-02 1.159348e-02 1.207388e-02 1.355301e-02 1.458379e-02 2.004182e-02 2.359676e-02 2.215101e-02 1.407087e-02 9.208515e-03
<GCONST> -2.698404e+01
<TRANSP> 5
 0.000000e+00 1.000000e+00 0.000000e+00 0.000000e+00 0.000000e+00
 0.000000e+00 7.180459e-01 2.819541e-01 0.000000e+00 0.000000e+00
 0.000000e+00 0.000000e+00 9.847689e-01 1.523116e-02 0.000000e+00
 0.000000e+00 0.000000e+00 0.000000e+00 6.576099e-01 3.423901e-01
 0.000000e+00 0.000000e+00 0.000000e+00 0.000000e+00 0.000000e+00
<ENDHMM>
~h "tri"
<BEGINHMM>
<NUMSTATES> 10
<STATE> 2
<MEAN> 32
 5.522037e+00 5.727979e+00 5.987967e+00 6.244953e+00 6.354335e+00 6.621439e+00 6.796181e+00 7.053795e+00 7.432134e+00 7.438242e+00 7.629771e+00 8.063164e+00 8.337806e+00 8.407851e+00 8.393619e+00 8.484817e+00 -8.360816e-03 1.826617e-02 6.146511e-02 7.319610e-02 5.758061e-02 4.278484e-02 7.852403e-02 1.437813e-01 1.457621e-01 1.809312e-01 1.755732e-01 2.591452e-01 2.868274e-01 2.469803e-01 1.225854e-01 5.682592e-02
<VARIANCE> 32
 2.532676e-01 1.321990e-01 9.770200e-02 8.490348e-02 8.453956e-02 4.255962e-02 7.060081e-02 1.696125e-01 1.586491e-01 3.050043e-01 3.325115e-01 6.045422e-01 7.111177e-01 6.800818e-01 4.639671e-01 3.682623e-01 1.338486e-02 1.076914e-02 1.615743e-02 1.553081e-02 1.652648e-02 1.295495e-02 1.493326e-02 2.421332e-02 2.734203e-02 3.229285e-02 4.463168e-02 6.667596e-02 8.349031e-02 6.115188e-02 2.730190e-02 1.489809e-02
<GCONST> -2.599862e+01
<STATE> 3
<MEAN> 32
 5.642643e+00 5.839595e+00 6.134227e+00 6.317331e+00 6.488386e+00 6.687729e+00 6.918110e+00 7.344923e+00 7.684307e+00 7.783828e+00 7.989448e+00 8.612838e+00 9.070037e+00 9.078484e+00 8.629987e+00 8.456511e+00 1.040865e-02 3.519997e-02 9.669902e-02 9.946136e-02 7.328136e-02 7.814132e-02 1.214814e-01 1.878627e-01 2.024431e-01 2.647327e-01 2.957481e-01 3.665779e-01 4.216570e-01 4.126904e-01 2.763330e-01 1.588369e-01
<VARIANCE> 32
 1.507188e-01 1.334340e-01 2.222212e-01 1.453526e-01 1.023255e-01 9.953145e-02 1.299634e-01 2.345447e-01 2.199212e-01 3.279555e-01 4.041222e-01 7.656060e-01 1.075669e+00 1.299849e+00 7.439802e-01 3.506067e-01 1.728816e-02 1.279821e-02 2.545488e-02 2.605746e-02 2.358938e-02 2.571917e-02 3.115210e-02 4.801960e-02 4.991835e-02 5.801520e-02 7.010259e-02 1.006383e-01 1.210882e-01 1.053035e-01 5.528298e-02 2.537214e-02
<GCONST> -1.279267e+01
<STATE> 4
<MEAN> 32
 5.695346e+00 5.891003e+00 6.269606e+00 6.456029e+00 6.599509e+00 6.829412e+00 7.183046e+00 7.667962e+00 8.113380e+00 8.296505e+00 8.623405e+00 9.414196e+00 9.951935e+00 1.002683e+01 9.323981e+00 8.868582e+00 1.968999e-02 2.899994e-02 8.641909e-02 1.052790e-01 9.574026e-02 9.993593e-02 1.244846e-01 1.697783e-01 2.119835e-01 2.357588e-01 3.078977e-01 3.728470e-01 4.183284e-01 4.439017e-01 3.643795e-01 2.548313e-01
<VARIANCE> 32
 1.468208e-01 1.226885e-01 1.756129e-01 2.082043e-01 1.586108e-01 1.770566e-01 2.099122e-01 3.425108e-01 3.568991e-01 3.627254e-01 5.187957e-01 9.471346e-01 1.312107e+00 1.585671e+00 1.094450e+00 5.511709e-01 1.305835e-02 1.651290e-02 4.680425e-02 4.905671e-02 3.381915e-02 4.008360e-02 5.659411e-02 6.983444e-02 7.829100e-02 9.094539e-02 8.485050e-02 1.107980e-01 1.339983e-01 1.364778e-01 8.089225e-02 3.846028e-02
<GCONST> -3.287706e+00
<STATE> 5
<MEAN> 32
 5.742219e+00 5.868334e+00 6.295863e+00 6.614047e+00 6.725000e+00 6.956439e+00 7.287570e+00 7.866201e+00 8.463103e+00 8.688141e+00 9.386642e+00 1.037048e+01 1.100394e+01 1.110785e+01 1.031639e+01 9.648059e+00 3.161460e-02 3.441812e-02 5.255330e-02 7.548579e-02 5.561316e-02 5.072016e-02 4.301120e-02 9.128287e-02 1.403772e-01 1.628613e-01 2.295051e-01 2.877037e-01 3.232361e-01 3.383826e-01 3.181586e-01 2.381908e-01
<VARIANCE> 32
 1.509704e-01 1.020381e-01 2.104268e-01 2.982013e-01 2.009620e-01 2.839856e-01 3.158046e-01 3.694018e-01 3.777862e-01 3.445114e-01 5.848865e-01 1.006112e+00 1.248062e+00 1.293450e+00 1.084779e+00 6.855693e-01 1.612305e-02 2.301132e-02 6.867483e-02 8.100084e-02 5.328597e-02 5.186244e-02 7.384611e-02 7.197710e-02 9.001621e-02 8.657101e-02 8.662319e-02 1.156613e-01 1.324365e-01 1.478047e-01 9.941862e-02 6.030202e-02
<GCONST> 1.744362e+00
<STATE> 6
<MEAN> 32
 5.964416e+00 6.224478e+00 6.764689e+00 7.192356e+00 7.130156e+00 7.324614e+00 7.636532e+00 8.341464e+00 9.173013e+00 9.422701e+00 1.021382e+01 1.118692e+01 1.186279e+01 1.192035e+01 1.134059e+01 1.059931e+01 4.211112e-02 1.103129e-01 1.134892e-01 1.107624e-01 5.541525e-02 3.624098e-02 4.004621e-02 9.369508e-02 1.549920e-01 1.473961e-01 1.537833e-01 1.444136e-01 1.435955e-01 1.174777e-01 1.296381e-01 1.045998e-01
<VARIANCE> 32
 2.639757e-01 4.105580e-01 1.000020e+00 1.316997e+00 7.803732e-01 8.727156e-01 9.779391e-01 7.857880e-01 9.835874e-01 8.569758e-01 9.781332e-01 1.221371e+00 1.139604e+00 1.053292e+00 1.865144e+00 2.199603e+00 2.470571e-02 4.993175e-02 1.077171e-01 1.391892e-01 7.039780e-02 5.827745e-02 6.904446e-02 6.182377e-02 7.255854e-02 7.119090e-02 7.587957e-02 1.133488e-01 1.330319e-01 1.455292e-01 1.540481e-01 1.333028e-01
<GCONST> 1.811657e+01
<STATE> 7
<MEAN> 32
 6.356481e+00 7.272578e+00 8.096556e+00 8.418454e+00 7.836578e+00 7.855443e+00 8.129118e+00 8.990788e+00 1.014629e+01 1.038270e+01 1.089332e+01 1.147525e+01 1.192718e+01 1.173596e+01 1.110868e+01 1.034901e+01 9.206466e-02 2.177787e-01 3.360603e-01 3.111256e-01 1.873175e-01 1.313616e-01 1.187422e-01 1.210648e-01 1.624713e-01 1.942961e-01 1.004594e-01 3.062908e-03 -4.849646e-02 -1.152515e-01 -1.773013e-01 -1.590331e-01
<VARIANCE> 32
 5.895092e-01 1.546379e+00 2.755541e+00 2.666051e+00 1.288088e+00 9.875706e-01 7.947187e-01 5.715988e-01 8.694599e-01 1.027545e+00 1.085480e+00 1.164485e+00 1.336541e+00 1.562197e+00 2.662338e+00 3.284672e+00 3.732570e-02 1.106711e-01 1.649665e-01 1.641740e-01 8.668977e-02 5.673703e-02 5.238517e-02 5.602470e-02 7.006362e-02 7.253189e-02 6.940134e-02 6.298123e-02 6.390849e-02 6.357008e-02 8.169988e-02 6.524176e-02
<GCONST> 2.149246e+01
<STATE> 8
<MEAN> 32
 6.620137e+00 7.981124e+00 9.400172e+00 9.612982e+00 8.414022e+00 8.051046e+00 8.200533e+00 8.746633e+00 9.919951e+00 1.093657e+01 1.096855e+01 1.083593e+01 1.122545e+01 1.066721e+01 9.113648e+00 8.633391e+00 -2.634122e-02 -4.918827e-02 -8.786759e-02 -1.040200e-01 -7.316537e-02 -6.280126e-02 -7.243296e-02 -1.039536e-01 -1.229432e-01 -1.097737e-01 -1.128063e-01 -1.195435e-01 -1.031139e-01 -9.817617e-02 -8.196304e-02 -4.796305e-02
<VARIANCE> 32
 5.359380e-01 6.139026e-01 1.333586e+00 8.853726e-01 8.435750e-01 6.800483e-01 4.746938e-01 5.279746e-01 1.022862e+00 1.038236e+00 1.315009e+00 1.343182e+00 1.203824e+00 1.107031e+00 6.742586e-01 4.135595e-01 1.137455e-02 2.074476e-02 3.470507e-02 3.275269e-02 2.237409e-02 2.014154e-02 1.533846e-02 1.588609e-02 2.537714e-02 4.220646e-02 3.959891e-02 2.937398e-02 3.444633e-02 2.949268e-02 9.985069e-03 6.737755e-03
<GCONST> -5.684206e+00
<STATE> 9
<MEAN> 32
 6.297830e+00 7.444242e+00 8.395558e+00 7.829731e+00 7.178902e+00 7.014398e+00 7.169262e+00 7.752051e+00 8.978479e+00 9.427800e+00 8.898273e+00 8.795149e+00 9.277988e+00 8.809955e+00 8.404706e+00 8.400659e+00 -5.267746e-02 -1.293147e-01 -1.540455e-01 -1.403857e-01 -9.622900e-02 -6.258582e-02 -6.015959e-02 -8.642621e-02 -1.120773e-01 -1.308684e-01 -1.107460e-01 -1.046912e-01 -1.243517e-01 -1.131347e-01 -4.234673e-02 -1.649707e-02
<VARIANCE> 32
 2.399532e-01 8.660516e-01 1.140776e+00 5.176663e-01 2.728197e-01 1.369397e-01 1.422639e-01 5.087074e-01 1.341623e+00 7.830725e-01 6.409638e-01 4.645045e-01 4.915964e-01 3.572684e-01 2.290785e-01 1.796559e-01 1.173448e-02 2.644807e-02 2.547203e-02 1.893424e-02 1.471550e-02 1.403422e-02 7.796269e-03 1.027195e-02 1.517999e-02 1.577349e-02 1.503608e-02 1.597344e-02 2.013106e-02 2.008895e-02 1.024900e-02 3.259090e-03
<GCONST> -2.371447e+01
<TRANSP> 10
 0.000000e+00 1.000000e+00 0.000000e+00 0.000000e+00 0.000000e+00 0.000000e+00 0.000000e+00 0.000000e+00 0.000000e+00 0.000000e+00
 0.000000e+00 4.384330e-01 5.615671e-01 0.000000e+00 0.000000e+00 0.000000e+00 0.000000e+00 0.000000e+00 0.000000e+00 0.000000e+00
 0.000000e+00 0.000000e+00 4.162118e-01 5.837882e-01 0.000000e+00 0.000000e+00 0.000000e+00 0.000000e+00 0.000000e+00 0.000000e+00
 0.000000e+00 0.000000e+00 0.000000e+00 5.338260e-01 4.661740e-01 0.000000e+00 0.000000e+00 0.000000e+00 0.000000e+00 0.000000e+00
 0.000000e+00 0.000000e+00 0.000000e+00 0.000000e+00 6.667743e-01 3.332258e-01 0.000000e+00 0.000000e+00 0.000000e+00 0.000000e+00
 0.000000e+00 0.000000e+00 0.000000e+00 0.000000e+00 0.000000e+00 7.969909e-01 2.030092e-01 0.000000e+00 0.000000e+00 0.000000e+00
 0.000000e+00 0.000000e+00 0.000000e+00 0.000000e+00 0.000000e+00 0.000000e+00 8.659428e-01 1.340572e-01 0.000000e+00 0.000000e+00
 0.000000e+00 0.000000e+00 0.000000e+00 0.000000e+00 0.000000e+00 0.000000e+00 0.000000e+00 9.412920e-01 5.870803e-02 0.000000e+00
 0.000000e+00 0.000000e+00 0.000000e+00 0.000000e+00 0.000000e+00 0.000000e+00 0.000000e+00 0.000000e+00 8.541564e-01 1.458436e-01
 0.000000e+00 0.000000e+00 0.000000e+00 0.000000e+00 0.000000e+00 0.000000e+00 0.000000e+00 0.000000e+00 0.000000e+00 0.000000e+00
<ENDHMM>
~h "nula"
<BEGINHMM>
<NUMSTATES> 10
<STATE> 2
<MEAN> 32
 6.062397e+00 6.889780e+00 7.075520e+00 7.233276e+00 6.999016e+00 7.114836e+00 6.991015e+00 7.064172e+00 7.425030e+00 7.321203e+00 7.301569e+00 7.453562e+00 7.953819e+00 8.164433e+00 8.010069e+00 8.238106e+00 9.526082e-02 2.681226e-01 3.012851e-01 2.669413e-01 1.906367e-01 1.515521e-01 3.721962e-02 4.433563e-02 6.759609e-02 9.993716e-02 6.711073e-02 5.109031e-02 5.259076e-02 4.275567e-02 1.180607e-02 5.219241e-04
<VARIANCE> 32
 3.368864e-01 9.141512e-01 1.048885e+00 1.012340e+00 7.246901e-01 6.275954e-01 1.788118e-01 1.968848e-01 1.643461e-01 2.126686e-01 1.294006e-01 8.447430e-02 1.671411e-01 2.124838e-01 9.032526e-02 1.164621e-01 1.730958e-02 4.086006e-02 5.425921e-02 4.701639e-02 2.478300e-02 2.551165e-02 1.507664e-02 1.877963e-02 1.277593e-02 2.326569e-02 1.404740e-02 8.647692e-03 2.426382e-02 1.162435e-02 2.541103e-03 2.286458e-03
<GCONST> -2.832965e+01
<STATE> 3
<MEAN> 32
 6.098786e+00 7.222672e+00 7.566750e+00 7.475144e+00 7.113886e+00 7.147599e+00 6.977331e+00 7.154764e+00 7.507135e+00 7.601280e+00 7.529975e+00 7.618145e+00 7.974951e+00 8.093053e+00 8.005941e+00 8.170469e+00 1.430560e-01 3.495615e-01 3.621069e-01 3.203505e-01 1.953480e-01 1.723825e-01 1.126239e-01 1.616273e-01 1.343240e-01 1.855115e-01 1.538617e-01 1.074919e-01 1.213155e-01 6.170542e-02 2.323095e-02 -4.206168e-03
<VARIANCE> 32
 4.659090e-01 8.257356e-01 1.135903e+00 1.078673e+00 7.232958e-01 7.268328e-01 2.140076e-01 1.784167e-01 2.024937e-01 3.617965e-01 2.051554e-01 1.493151e-01 2.204535e-01 1.938667e-01 1.218130e-01 1.389696e-01 2.995002e-02 7.547576e-02 8.105036e-02 6.563936e-02 3.180239e-02 2.508388e-02 1.548635e-02 1.841211e-02 1.740779e-02 3.803145e-02 2.475537e-02 1.838536e-02 5.479947e-02 2.638157e-02 4.783177e-03 3.644375e-03
<GCONST> -1.831541e+01
<STATE> 4
<MEAN> 32
 6.322494e+00 7.658815e+00 8.039102e+00 7.968411e+00 7.398519e+00 7.437829e+00 7.252586e+00 7.490859e+00 7.812373e+00 8.029675e+00 7.892181e+00 7.917845e+00 8.382318e+00 8.249958e+00 8.031820e+00 8.133107e+00 1.736833e-01 3.076030e-01 3.392735e-01 3.413083e-01 2.151607e-01 1.760249e-01 1.590994e-01 1.871232e-01 1.684529e-01 2.200503e-01 2.066948e-01 1.497364e-01 1.482234e-01 7.577630e-02 2.820855e-02 -6.479374e-03
<VARIANCE> 32
 3.835464e-01 5.820471e-01 1.011950e+00 9.611736e-01 6.227515e-01 7.785751e-01 3.468236e-01 2.622221e-01 2.963075e-01 5.536715e-01 3.481936e-01 3.009778e-01 4.637406e-01 1.795818e-01 9.037296e-02 8.916283e-02 4.497173e-02 1.099993e-01 8.420705e-02 6.384479e-02 2.792016e-02 3.217322e-02 2.060085e-02 2.779828e-02 2.299442e-02 4.558437e-02 3.372178e-02 2.472072e-02 5.263910e-02 3.112845e-02 6.786837e-03 4.082912e-03
<GCONST> -1.307953e+01
<STATE> 5
<MEAN> 32
 6.556658e+00 8.015700e+00 8.528738e+00 8.586542e+00 7.850229e+00 7.859073e+00 7.636520e+00 7.867644e+00 8.128400e+00 8.408144e+00 8.332684e+00 8.226465e+00 8.559201e+00 8.308817e+00 8.060454e+00 8.112176e+00 1.364724e-01 1.942481e-01 2.442341e-01 2.915142e-01 2.279152e-01 1.972102e-01 1.848788e-01 1.810271e-01 1.520475e-01 1.670218e-01 1.949656e-01 1.556459e-01 1.003197e-01 6.381895e-02 2.428497e-02 9.674761e-03
<VARIANCE> 32
 4.035143e-01 4.126829e-01 7.203249e-01 7.350035e-01 6.318113e-01 9.308090e-01 4.846775e-01 3.163079e-01 3.003612e-01 5.224612e-01 4.889938e-01 3.642879e-01 5.398597e-01 1.863478e-01 1.003313e-01 6.742271e-02 5.799371e-02 1.118026e-01 9.348344e-02 7.316332e-02 3.234079e-02 3.783230e-02 3.340081e-02 3.691357e-02 2.694787e-02 4.251172e-02 3.392501e-02 2.671582e-02 3.112103e-02 2.014168e-02 8.407582e-03 8.819235e-03
<GCONST> -1.098254e+01
<STATE> 6
<MEAN> 32
 6.721956e+00 8.237655e+00 8.872995e+00 9.071421e+00 8.337393e+00 8.314060e+00 8.041421e+00 8.165658e+00 8.368998e+00 8.631640e+00 8.636461e+00 8.515970e+00 8.644480e+00 8.364709e+00 8.094575e+00 8.146502e+00 6.907860e-02 9.702366e-02 1.643449e-01 2.248455e-01 2.187019e-01 1.946058e-01 2.210144e-01 1.781369e-01 1.307913e-01 1.325072e-01 1.675984e-01 1.857034e-01 1.101968e-01 7.391115e-02 3.787506e-02 3.513182e-02
<VARIANCE> 32
 5.118364e-01 4.855301e-01 6.360991e-01 5.897611e-01 6.927071e-01 1.013719e+00 6.131591e-01 2.948989e-01 3.112269e-01 4.274217e-01 5.036927e-01 4.818765e-01 5.212021e-01 1.814116e-01 1.340923e-01 8.101126e-02 4.373571e-02 7.274430e-02 8.243661e-02 6.537664e-02 3.734023e-02 3.673090e-02 5.795046e-02 5.657860e-02 3.514367e-02 3.758251e-02 4.114839e-02 4.434672e-02 3.108155e-02 2.219753e-02 1.584507e-02 1.993183e-02
<GCONST> -7.499371e+00
<STATE> 7
<MEAN> 32
 6.788335e+00 8.322272e+00 9.073820e+00 9.455036e+00 8.771533e+00 8.716388e+00 8.693668e+00 8.646978e+00 8.623953e+00 8.893155e+00 9.136920e+00 9.194275e+00 9.161854e+00 8.740870e+00 8.397744e+00 8.416078e+00 4.857044e-02 6.027978e-02 1.435381e-01 2.160013e-01 2.260155e-01 2.264461e-01 2.754700e-01 1.815508e-01 1.249900e-01 1.241235e-01 1.529542e-01 2.159530e-01 1.749768e-01 1.191316e-01 8.231626e-02 5.798278e-02
<VARIANCE> 32
 8.784714e-01 9.018857e-01 1.272440e+00 9.824109e-01 8.994154e-01 1.106828e+00 1.042323e+00 7.581033e-01 5.393205e-01 3.892213e-01 7.124393e-01 8.945304e-01 7.910767e-01 4.598100e-01 5.835912e-01 6.047571e-01 5.229493e-02 5.769623e-02 7.961950e-02 6.929781e-02 4.968080e-02 5.130417e-02 8.243921e-02 7.628875e-02 4.426274e-02 3.886325e-02 4.452762e-02 5.903229e-02 4.616874e-02 3.831812e-02 2.903593e-02 3.060990e-02
<GCONST> 6.784186e+00
<STATE> 8
<MEAN> 32
 7.078636e+00 8.314057e+00 9.507383e+00 1.034202e+01 1.034587e+01 1.049539e+01 1.063253e+01 1.005592e+01 9.491014e+00 9.734216e+00 1.040723e+01 1.065187e+01 1.083507e+01 1.016183e+01 9.203978e+00 8.813609e+00 -2.595599e-02 -4.579287e-02 -5.137843e-02 -2.207584e-02 3.042503e-02 4.098590e-02 4.164017e-02 2.628292e-02 6.448663e-03 5.190267e-03 3.196818e-03 9.522968e-03 2.804669e-02 2.276029e-02 1.080894e-03 -4.268339e-03
<VARIANCE> 32
 8.691835e-01 1.066314e+00 1.782122e+00 8.341098e-01 1.041275e+00 9.878893e-01 1.246520e+00 1.291109e+00 6.611094e-01 8.107815e-01 1.119586e+00 1.071104e+00 1.688445e+00 1.493076e+00 1.493006e+00 8.112801e-01 1.426779e-02 1.198802e-02 2.443720e-02 2.812031e-02 4.135974e-02 4.271468e-02 5.600799e-02 4.505179e-02 2.611102e-02 3.398889e-02 4.120502e-02 4.675245e-02 6.712464e-02 6.093226e-02 3.059671e-02 1.792776e-02
<GCONST> 5.746921e+00
<STATE> 9
<MEAN> 32
 6.203123e+00 7.017055e+00 7.682878e+00 8.833871e+00 9.430560e+00 9.540022e+00 9.627995e+00 9.133362e+00 8.669529e+00 8.905082e+00 8.822450e+00 9.071129e+00 9.501567e+00 9.051438e+00 8.236076e+00 8.179489e+00 -5.261169e-02 -9.360413e-02 -1.394839e-01 -1.625389e-01 -1.636239e-01 -1.679499e-01 -1.666120e-01 -1.461586e-01 -1.244704e-01 -1.289151e-01 -1.277418e-01 -1.379195e-01 -1.444876e-01 -1.107852e-01 -4.255773e-02 -1.877139e-02
<VARIANCE> 32
 2.680837e-01 5.705209e-01 9.282429e-01 1.204340e+00 1.158886e+00 9.422116e-01 1.147352e+00 1.476330e+00 8.850517e-01 1.000191e+00 1.453465e+00 1.187624e+00 1.222821e+00 6.622443e-01 1.868981e-01 1.130036e-01 1.164754e-02 1.941070e-02 2.024152e-02 2.432615e-02 2.199661e-02 2.121456e-02 2.542349e-02 2.702562e-02 1.818773e-02 1.476852e-02 1.703534e-02 1.446456e-02 1.539781e-02 1.796760e-02 9.487478e-03 3.420199e-03
<GCONST> -1.200681e+01
<TRANSP> 10
 0.000000e+00 1.000000e+00 0.000000e+00 0.000000e+00 0.000000e+00 0.000000e+00 0.000000e+00 0.000000e+00 0.000000e+00 0.000000e+00
 0.000000e+00 4.576305e-01 5.423694e-01 0.000000e+00 0.000000e+00 0.000000e+00 0.000000e+00 0.000000e+00 0.000000e+00 0.000000e+00
 0.000000e+00 0.000000e+00 3.221676e-01 6.778324e-01 0.000000e+00 0.000000e+00 0.000000e+00 0.000000e+00 0.000000e+00 0.000000e+00
 0.000000e+00 0.000000e+00 0.000000e+00 4.053632e-01 5.946369e-01 0.000000e+00 0.000000e+00 0.000000e+00 0.000000e+00 0.000000e+00
 0.000000e+00 0.000000e+00 0.000000e+00 0.000000e+00 4.843536e-01 5.156464e-01 0.000000e+00 0.000000e+00 0.000000e+00 0.000000e+00
 0.000000e+00 0.000000e+00 0.000000e+00 0.000000e+00 0.000000e+00 5.531346e-01 4.468654e-01 0.000000e+00 0.000000e+00 0.000000e+00
 0.000000e+00 0.000000e+00 0.000000e+00 0.000000e+00 0.000000e+00 0.000000e+00 7.105738e-01 2.894262e-01 0.000000e+00 0.000000e+00
 0.000000e+00 0.000000e+00 0.000000e+00 0.000000e+00 0.000000e+00 0.000000e+00 0.000000e+00 9.587560e-01 4.124400e-02 0.000000e+00
 0.000000e+00 0.000000e+00 0.000000e+00 0.000000e+00 0.000000e+00 0.000000e+00 0.000000e+00 0.000000e+00 9.175435e-01 8.245648e-02
 0.000000e+00 0.000000e+00 0.000000e+00 0.000000e+00 0.000000e+00 0.000000e+00 0.000000e+00 0.000000e+00 0.000000e+00 0.000000e+00
<ENDHMM>
~h "devet"
<BEGINHMM>
<NUMSTATES> 10
<STATE> 2
<MEAN> 32
 5.954536e+00 6.401111e+00 6.597079e+00 6.680240e+00 6.478417e+00 6.631561e+00 6.630463e+00 6.832766e+00 7.239308e+00 7.198779e+00 7.363152e+00 7.540308e+00 7.809647e+00 7.904617e+00 7.982541e+00 8.170730e+00 5.183658e-02 1.862861e-01 1.908340e-01 1.604188e-01 1.023339e-01 2.943001e-02 3.908249e-02 8.694160e-02 1.097711e-01 1.085429e-01 1.257103e-01 1.326947e-01 1.598817e-01 1.290054e-01 4.634007e-02 3.493639e-02
<VARIANCE> 32
 2.838780e-01 4.625850e-01 5.099781e-01 3.462370e-01 1.242969e-01 9.338801e-02 6.668010e-02 6.267148e-02 6.109333e-02 1.054444e-01 1.239972e-01 1.785455e-01 3.556644e-01 3.242371e-01 1.459013e-01 2.158729e-01 1.453027e-02 5.495833e-02 4.244822e-02 3.924148e-02 2.080963e-02 1.299599e-02 1.457702e-02 2.980175e-02 3.479988e-02 2.353711e-02 2.363595e-02 4.349212e-02 5.883907e-02 4.947653e-02 2.295333e-02 2.026157e-02
<GCONST> -2.634628e+01
<STATE> 3
<MEAN> 32
 6.062585e+00 6.690883e+00 6.839167e+00 6.854470e+00 6.603259e+00 6.654696e+00 6.767066e+00 7.017896e+00 7.449807e+00 7.395471e+00 7.559546e+00 7.756277e+00 8.100954e+00 8.155612e+00 8.022809e+00 8.185369e+00 9.830212e-02 2.145007e-01 2.719310e-01 2.483250e-01 1.459050e-01 4.621059e-02 9.830554e-02 1.917471e-01 2.202034e-01 2.105666e-01 2.114417e-01 2.165965e-01 2.342634e-01 1.908314e-01 9.045035e-02 4.728213e-02
<VARIANCE> 32
 3.002546e-01 6.302681e-01 5.454318e-01 4.768109e-01 2.154197e-01 1.333004e-01 1.080967e-01 1.951491e-01 2.258941e-01 2.071311e-01 2.300906e-01 3.507679e-01 6.127021e-01 5.033658e-01 2.736965e-01 2.959078e-01 2.016849e-02 6.231426e-02 7.877259e-02 6.796181e-02 2.382469e-02 1.387428e-02 2.210175e-02 4.927253e-02 5.085996e-02 4.372654e-02 4.615164e-02 7.808065e-02 1.220151e-01 9.537705e-02 2.984716e-02 1.772586e-02
<GCONST> -1.135595e+01
<STATE> 4
<MEAN> 32
 6.179666e+00 7.029563e+00 7.316895e+00 7.259999e+00 6.846784e+00 6.699725e+00 6.898533e+00 7.298508e+00 7.744072e+00 7.675114e+00 7.834616e+00 7.996875e+00 8.308727e+00 8.344786e+00 8.206260e+00 8.323389e+00 1.375321e-01 2.671829e-01 4.547967e-01 4.481951e-01 3.017637e-01 1.838848e-01 2.569921e-01 4.210894e-01 4.702314e-01 4.650515e-01 4.441528e-01 4.374256e-01 4.547133e-01 3.581434e-01 1.848338e-01 8.206651e-02
<VARIANCE> 32
 2.930417e-01 6.942604e-01 7.181963e-01 5.928298e-01 2.643632e-01 1.540346e-01 1.556411e-01 3.876961e-01 3.902067e-01 2.338929e-01 2.705539e-01 3.777127e-01 4.498447e-01 4.844817e-01 6.501945e-01 6.840916e-01 2.681238e-02 6.435890e-02 1.078873e-01 1.115584e-01 5.219341e-02 4.112640e-02 4.799184e-02 7.443064e-02 7.973868e-02 8.729286e-02 1.040574e-01 1.318059e-01 1.509696e-01 1.072962e-01 3.708097e-02 1.420366e-02
<GCONST> -1.404676e-01
<STATE> 5
<MEAN> 32
 6.378486e+00 7.345648e+00 7.957293e+00 7.954010e+00 7.235034e+00 6.955823e+00 7.247822e+00 7.943239e+00 8.427879e+00 8.320286e+00 8.386658e+00 8.529486e+00 8.892776e+00 8.799114e+00 8.505746e+00 8.464403e+00 1.751499e-01 2.675687e-01 5.299948e-01 5.964430e-01 4.329789e-01 3.196487e-01 3.632962e-01 5.403421e-01 6.195695e-01 6.326008e-01 5.956113e-01 5.728188e-01 5.702626e-01 4.134554e-01 2.066677e-01 8.835071e-02
<VARIANCE> 32
 3.820091e-01 7.515233e-01 8.200557e-01 5.864096e-01 2.919770e-01 1.708228e-01 2.515167e-01 7.837738e-01 8.190560e-01 5.796530e-01 5.102992e-01 6.547866e-01 8.687152e-01 6.754646e-01 5.857190e-01 5.776578e-01 3.509402e-02 7.490414e-02 1.036110e-01 1.255778e-01 8.462892e-02 6.650289e-02 6.218017e-02 8.862126e-02 1.360231e-01 1.457631e-01 1.904832e-01 2.214238e-01 2.131551e-01 1.670342e-01 7.401074e-02 3.179194e-02
<GCONST> 1.161373e+01
<STATE> 6
<MEAN> 32
 6.648113e+00 7.766467e+00 8.817497e+00 8.983099e+00 8.114531e+00 7.742752e+00 8.045622e+00 8.943618e+00 9.619606e+00 9.559640e+00 9.575090e+00 9.663183e+00 9.985469e+00 9.615021e+00 8.934123e+00 8.705370e+00 1.688688e-01 2.374937e-01 4.887776e-01 6.001849e-01 5.131795e-01 4.173916e-01 4.214746e-01 5.273989e-01 6.374016e-01 6.480690e-01 6.264610e-01 6.016625e-01 5.634255e-01 4.012381e-01 1.741546e-01 7.625435e-02
<VARIANCE> 32
 3.883445e-01 4.974955e-01 8.207686e-01 8.740733e-01 6.175691e-01 6.613693e-01 8.812641e-01 1.055600e+00 1.147709e+00 1.332150e+00 1.720168e+00 1.925516e+00 1.735245e+00 1.482847e+00 9.703519e-01 7.110492e-01 4.663864e-02 1.122067e-01 1.444629e-01 1.228079e-01 8.900835e-02 5.320670e-02 5.131394e-02 8.596084e-02 1.432449e-01 1.339219e-01 1.668040e-01 1.726314e-01 1.464120e-01 1.297226e-01 5.859501e-02 2.665086e-02
<GCONST> 2.007659e+01
<STATE> 7
<MEAN> 32
 7.059219e+00 8.224750e+00 9.694876e+00 1.008068e+01 9.270997e+00 8.681239e+00 8.948702e+00 9.809700e+00 1.069968e+01 1.069256e+01 1.079653e+01 1.081369e+01 1.097658e+01 1.043843e+01 9.316930e+00 8.893427e+00 7.389484e-02 8.108661e-02 2.239388e-01 3.347719e-01 3.975004e-01 3.057724e-01 3.015026e-01 3.349519e-01 3.885266e-01 4.018081e-01 3.856446e-01 3.715575e-01 3.373419e-01 2.631713e-01 1.048430e-01 6.280769e-02
<VARIANCE> 32
 6.669147e-01 8.697655e-01 1.298196e+00 9.993157e-01 1.066462e+00 9.238727e-01 7.604239e-01 8.531258e-01 9.426508e-01 1.189116e+00 1.810832e+00 1.663560e+00 1.301153e+00 1.564264e+00 1.096995e+00 6.981558e-01 1.884863e-02 3.243927e-02 1.174769e-01 1.197459e-01 9.657170e-02 5.789476e-02 6.264579e-02 8.636491e-02 1.366111e-01 1.338853e-01 1.581632e-01 1.647936e-01 1.382231e-01 1.135593e-01 4.525730e-02 2.073091e-02
<GCONST> 1.889695e+01
<STATE> 8
<MEAN> 32
 6.953821e+00 8.031878e+00 9.393956e+00 9.963590e+00 9.543232e+00 8.871784e+00 9.072315e+00 9.722228e+00 1.068236e+01 1.090634e+01 1.111715e+01 1.111021e+01 1.140486e+01 1.081783e+01 9.208305e+00 8.710573e+00 -2.120597e-02 -2.768052e-02 -4.028466e-02 -3.926908e-02 -3.143873e-02 -2.533945e-02 -2.596911e-02 -3.058377e-02 -3.751067e-02 -3.745738e-02 -3.660510e-02 -3.259549e-02 -3.167013e-02 -2.666615e-02 -1.730845e-02 -8.109144e-03
<VARIANCE> 32
 6.121234e-01 7.022208e-01 9.799032e-01 9.332962e-01 1.259630e+00 7.900364e-01 5.597332e-01 5.236516e-01 6.967959e-01 8.968258e-01 9.577327e-01 9.447045e-01 9.743266e-01 1.153212e+00 1.081549e+00 5.118229e-01 1.013887e-02 1.461946e-02 4.619187e-02 5.258422e-02 6.244224e-02 3.717185e-02 3.113802e-02 3.622594e-02 5.507373e-02 6.139351e-02 5.777971e-02 5.552886e-02 5.800936e-02 5.589021e-02 2.088616e-02 8.402162e-03
<GCONST> 2.100206e+00
<STATE> 9
<MEAN> 32
 6.085264e+00 6.992733e+00 8.224009e+00 8.775101e+00 8.338038e+00 7.728459e+00 8.044825e+00 9.098762e+00 9.648455e+00 9.550958e+00 9.498049e+00 9.727845e+00 9.949308e+00 9.377160e+00 8.397788e+00 8.335694e+00 -3.128647e-02 -5.818885e-02 -8.407658e-02 -8.800823e-02 -7.364495e-02 -5.887827e-02 -6.670500e-02 -7.741083e-02 -9.294552e-02 -9.830032e-02 -8.228447e-02 -8.794568e-02 -8.300529e-02 -6.014230e-02 -2.374191e-02 -1.336251e-02
<VARIANCE> 32
 1.844260e-01 5.959781e-01 1.402202e+00 1.377882e+00 1.551859e+00 7.451422e-01 7.311432e-01 1.232989e+00 1.709418e+00 1.866742e+00 2.455035e+00 2.514156e+00 1.677650e+00 1.357385e+00 2.357900e-01 1.303276e-01 9.642801e-03 1.694990e-02 3.211826e-02 3.695467e-02 3.949185e-02 2.204324e-02 2.388892e-02 4.345335e-02 3.789941e-02 2.989531e-02 3.436821e-02 3.093091e-02 3.396998e-02 3.538644e-02 1.641505e-02 8.064920e-03
<GCONST> -1.030212e+00
<TRANSP> 10
 0.000000e+00 1.000000e+00 0.000000e+00 0.000000e+00 0.000000e+00 0.000000e+00 0.000000e+00 0.000000e+00 0.000000e+00 0.000000e+00
 0.000000e+00 1.125716e-01 8.874285e-01 0.000000e+00 0.000000e+00 0.000000e+00 0.000000e+00 0.000000e+00 0.000000e+00 0.000000e+00
 0.000000e+00 0.000000e+00 2.120747e-01 7.879254e-01 0.000000e+00 0.000000e+00 0.000000e+00 0.000000e+00 0.000000e+00 0.000000e+00
 0.000000e+00 0.000000e+00 0.000000e+00 1.218023e-01 8.781977e-01 0.000000e+00 0.000000e+00 0.000000e+00 0.000000e+00 0.000000e+00
 0.000000e+00 0.000000e+00 0.000000e+00 0.000000e+00 1.360718e-01 8.639282e-01 0.000000e+00 0.000000e+00 0.000000e+00 0.000000e+00
 0.000000e+00 0.000000e+00 0.000000e+00 0.000000e+00 0.000000e+00 3.035667e-01 6.964332e-01 0.000000e+00 0.000000e+00 0.000000e+00
 0.000000e+00 0.000000e+00 0.000000e+00 0.000000e+00 0.000000e+00 0.000000e+00 6.290979e-01 3.709021e-01 0.000000e+00 0.000000e+00
 0.000000e+00 0.000000e+00 0.000000e+00 0.000000e+00 0.000000e+00 0.000000e+00 0.000000e+00 9.597349e-01 4.026512e-02 0.000000e+00
 0.000000e+00 0.000000e+00 0.000000e+00 0.000000e+00 0.000000e+00 0.000000e+00 0.000000e+00 0.000000e+00 9.511179e-01 4.888212e-02
 0.000000e+00 0.000000e+00 0.000000e+00 0.000000e+00 0.000000e+00 0.000000e+00 0.000000e+00 0.000000e+00 0.000000e+00 0.000000e+00
<ENDHMM>
~h "jedna"
<BEGINHMM>
<NUMSTATES> 10
<STATE> 2
<MEAN> 32
 6.010162e+00 6.637596e+00 6.978961e+00 6.836360e+00 6.563037e+00 6.568816e+00 6.707169e+00 7.207708e+00 7.790300e+00 7.850697e+00 7.718282e+00 7.738814e+00 8.146426e+00 8.191959e+00 8.212144e+00 8.320170e+00 5.286281e-02 1.713212e-01 1.946714e-01 1.498465e-01 6.379978e-02 3.937237e-02 2.701352e-02 3.159833e-02 6.180794e-02 1.311910e-01 1.568380e-01 1.655865e-01 1.555170e-01 9.368768e-02 2.666368e-02 6.308383e-03
<VARIANCE> 32
 1.912255e-01 6.597468e-01 9.888245e-01 7.335511e-01 2.892320e-01 9.077847e-02 8.574858e-02 4.956365e-01 7.788166e-01 7.284429e-01 3.670390e-01 3.805177e-01 3.507468e-01 3.049866e-01 2.357667e-01 1.933366e-01 1.174149e-02 4.904035e-02 8.856757e-02 6.185857e-02 2.559920e-02 1.692069e-02 9.526802e-03 3.032229e-02 4.636442e-02 6.004116e-02 6.098305e-02 5.782879e-02 6.934837e-02 5.200570e-02 1.660017e-02 5.614299e-03
<GCONST> -1.323382e+01
<STATE> 3
<MEAN> 32
 6.131666e+00 7.018031e+00 7.321277e+00 7.147624e+00 6.759667e+00 6.729646e+00 6.820576e+00 7.178802e+00 7.829607e+00 8.044969e+00 8.088272e+00 8.235424e+00 8.584626e+00 8.374459e+00 8.179065e+00 8.261127e+00 1.254581e-01 2.716669e-01 3.352854e-01 2.774904e-01 1.434703e-01 5.616704e-02 6.058758e-02 8.524109e-02 1.091626e-01 2.582171e-01 3.072631e-01 3.282113e-01 3.275456e-01 1.773037e-01 5.433926e-02 1.584588e-02
<VARIANCE> 32
 2.293380e-01 5.653529e-01 9.220910e-01 7.653549e-01 2.630208e-01 1.782057e-01 8.811763e-02 3.915749e-01 8.435719e-01 8.610992e-01 6.807025e-01 8.150557e-01 5.122353e-01 4.037754e-01 2.246442e-01 1.529637e-01 2.099924e-02 7.261197e-02 1.194844e-01 7.847132e-02 3.226902e-02 1.770871e-02 1.117386e-02 3.121311e-02 4.518854e-02 8.647780e-02 8.883484e-02 9.654489e-02 1.313762e-01 5.619500e-02 1.647650e-02 4.098976e-03
<GCONST> -7.260647e+00
<STATE> 4
<MEAN> 32
 6.249300e+00 7.374615e+00 7.878488e+00 7.614269e+00 6.960113e+00 6.841521e+00 6.913020e+00 7.304803e+00 7.979214e+00 8.566883e+00 8.741311e+00 8.922236e+00 9.226824e+00 8.738144e+00 8.225784e+00 8.269647e+00 1.597218e-01 3.007480e-01 4.301795e-01 3.820583e-01 2.248743e-01 9.601094e-02 1.281347e-01 1.824962e-01 2.041719e-01 3.884641e-01 4.238024e-01 4.331201e-01 4.333946e-01 2.792057e-01 1.224091e-01 2.906645e-02
<VARIANCE> 32
 2.943380e-01 4.928467e-01 8.253763e-01 5.990609e-01 2.780574e-01 1.868119e-01 1.528102e-01 5.244775e-01 9.271746e-01 7.291135e-01 7.277137e-01 9.317359e-01 6.983815e-01 4.366477e-01 2.423629e-01 1.749711e-01 3.954254e-02 1.158476e-01 1.374881e-01 1.044425e-01 3.974612e-02 2.745586e-02 2.334475e-02 3.400194e-02 4.320347e-02 1.221321e-01 1.268002e-01 1.510945e-01 1.721734e-01 8.796997e-02 2.850561e-02 3.010115e-03
<GCONST> -7.737479e-01
<STATE> 5
<MEAN> 32
 6.469974e+00 7.721535e+00 8.458557e+00 8.120219e+00 7.272507e+00 6.952549e+00 7.166354e+00 7.645316e+00 8.307857e+00 9.068930e+00 9.279857e+00 9.486645e+00 9.794454e+00 9.163517e+00 8.403262e+00 8.310410e+00 1.216029e-01 2.008722e-01 3.743265e-01 3.530126e-01 2.339297e-01 1.482263e-01 1.739821e-01 2.107788e-01 2.506875e-01 4.035560e-01 4.124017e-01 4.184450e-01 4.015918e-01 3.039249e-01 1.431796e-01 3.927995e-02
<VARIANCE> 32
 2.192805e-01 3.863124e-01 8.550720e-01 6.964333e-01 3.008341e-01 1.660577e-01 2.090365e-01 6.737201e-01 9.354802e-01 8.422850e-01 1.058015e+00 1.519535e+00 1.337610e+00 7.717989e-01 3.255517e-01 1.564511e-01 5.509337e-02 1.180207e-01 1.716516e-01 1.573632e-01 7.078461e-02 4.157157e-02 4.821344e-02 6.167727e-02 8.007274e-02 1.526645e-01 1.496025e-01 1.401566e-01 1.351026e-01 9.043971e-02 3.799311e-02 6.483462e-03
<GCONST> 6.883209e+00
<STATE> 6
<MEAN> 32
 6.733273e+00 8.011879e+00 9.149414e+00 8.872972e+00 7.851862e+00 7.439947e+00 7.638084e+00 8.165603e+00 8.882280e+00 9.949861e+00 1.021964e+01 1.042914e+01 1.064812e+01 9.904615e+00 8.834497e+00 8.470619e+00 7.959806e-02 8.294164e-02 2.598748e-01 3.130189e-01 2.688225e-01 2.312014e-01 2.483131e-01 2.781829e-01 3.141556e-01 3.585707e-01 3.113638e-01 2.953649e-01 2.827337e-01 2.353955e-01 1.393854e-01 7.371570e-02
<VARIANCE> 32
 4.279052e-01 7.747104e-01 1.328962e+00 1.422969e+00 7.094029e-01 4.981370e-01 4.688663e-01 6.715638e-01 9.420441e-01 1.307601e+00 1.838712e+00 2.017804e+00 1.727849e+00 1.412019e+00 9.008366e-01 3.021442e-01 3.520777e-02 5.812747e-02 1.350511e-01 1.305607e-01 8.455774e-02 5.224137e-02 5.707639e-02 7.165603e-02 9.176918e-02 1.277833e-01 1.109928e-01 8.616515e-02 7.694482e-02 6.481710e-02 3.395985e-02 1.191395e-02
<GCONST> 1.389926e+01
<STATE> 7
<MEAN> 32
 7.401440e+00 8.577942e+00 9.818733e+00 9.879400e+00 9.002316e+00 8.466785e+00 8.561439e+00 9.204762e+00 1.004499e+01 1.041207e+01 1.049770e+01 1.055737e+01 1.064626e+01 1.002412e+01 9.176179e+00 8.843999e+00 8.289305e-03 1.466470e-03 1.772964e-03 6.476108e-02 1.152141e-01 1.063828e-01 1.080180e-01 1.255710e-01 1.078113e-01 2.173800e-02 -5.556859e-03 5.309299e-03 5.607665e-03 5.229840e-03 8.968462e-04 1.012957e-02
<VARIANCE> 32
 1.062612e+00 1.256499e+00 1.809816e+00 1.792406e+00 1.572233e+00 1.398248e+00 1.230941e+00 1.532039e+00 1.815482e+00 1.906262e+00 2.019668e+00 2.210532e+00 2.208737e+00 1.895427e+00 1.233693e+00 6.064005e-01 8.813203e-03 2.195821e-02 7.393991e-02 9.054913e-02 1.059074e-01 8.643660e-02 8.671650e-02 1.099648e-01 1.364821e-01 1.040377e-01 8.546449e-02 1.065695e-01 1.094378e-01 7.861125e-02 4.200805e-02 2.622735e-02
<GCONST> 2.215693e+01
<STATE> 8
<MEAN> 32
 6.752771e+00 7.871862e+00 8.744491e+00 9.208551e+00 9.150208e+00 9.030456e+00 9.199611e+00 9.835975e+00 9.879524e+00 9.823721e+00 1.010990e+01 1.030993e+01 1.071690e+01 9.960050e+00 8.593443e+00 8.303567e+00 -1.258736e-02 -1.988875e-02 -5.805825e-02 -4.528423e-02 -8.028328e-03 1.529042e-02 2.210410e-02 7.828335e-03 -4.020259e-02 -6.193663e-02 -5.476607e-02 -5.462939e-02 -4.925901e-02 -3.896229e-02 -2.567126e-02 -1.254174e-02
<VARIANCE> 32
 4.045056e-01 4.995898e-01 7.404596e-01 9.683185e-01 1.411144e+00 2.024500e+00 2.360773e+00 2.345726e+00 1.244243e+00 1.088502e+00 1.346904e+00 1.402653e+00 1.431777e+00 1.408587e+00 7.103864e-01 2.087549e-01 1.009433e-02 1.813271e-02 4.011000e-02 5.357505e-02 7.123689e-02 6.898379e-02 8.193186e-02 9.092406e-02 7.016759e-02 5.140041e-02 5.622515e-02 7.270198e-02 7.136425e-02 6.075751e-02 2.029851e-02 8.046702e-03
<GCONST> 9.124987e+00
<STATE> 9
<MEAN> 32
 6.292976e+00 7.213909e+00 7.750115e+00 8.585301e+00 9.203281e+00 9.167439e+00 9.557356e+00 9.426332e+00 8.938325e+00 8.966547e+00 8.874064e+00 9.256947e+00 9.559611e+00 9.029847e+00 8.113972e+00 8.197401e+00 -4.107211e-02 -8.683588e-02 -1.051496e-01 -1.169985e-01 -1.138502e-01 -9.806335e-02 -1.107133e-01 -1.261795e-01 -1.070703e-01 -1.029434e-01 -9.773886e-02 -1.098559e-01 -1.098436e-01 -8.317057e-02 -2.920106e-02 -1.390026e-02
<VARIANCE> 32
 1.557945e-01 3.669481e-01 6.712117e-01 1.053541e+00 1.315264e+00 8.094523e-01 1.014594e+00 1.128322e+00 7.081736e-01 7.175221e-01 1.076368e+00 1.120578e+00 9.326569e-01 5.044265e-01 7.363153e-02 6.137512e-02 1.033164e-02 1.772372e-02 1.873881e-02 2.479265e-02 2.973019e-02 2.724474e-02 2.691186e-02 2.765696e-02 1.770064e-02 1.675820e-02 1.401039e-02 1.777921e-02 1.556460e-02 1.833970e-02 4.314191e-03 1.968179e-03
<GCONST> -1.770136e+01
<TRANSP> 10
 0.000000e+00 1.000000e+00 0.000000e+00 0.000000e+00 0.000000e+00 0.000000e+00 0.000000e+00 0.000000e+00 0.000000e+00 0.000000e+00
 0.000000e+00 6.505376e-01 3.494625e-01 0.000000e+00 0.000000e+00 0.000000e+00 0.000000e+00 0.000000e+00 0.000000e+00 0.000000e+00
 0.000000e+00 0.000000e+00 4.184462e-01 5.815538e-01 0.000000e+00 0.000000e+00 0.000000e+00 0.000000e+00 0.000000e+00 0.000000e+00
 0.000000e+00 0.000000e+00 0.000000e+00 3.390897e-01 6.609102e-01 0.000000e+00 0.000000e+00 0.000000e+00 0.000000e+00 0.000000e+00
 0.000000e+00 0.000000e+00 0.000000e+00 0.000000e+00 4.490092e-01 5.509908e-01 0.000000e+00 0.000000e+00 0.000000e+00 0.000000e+00
 0.000000e+00 0.000000e+00 0.000000e+00 0.000000e+00 0.000000e+00 6.118385e-01 3.881616e-01 0.000000e+00 0.000000e+00 0.000000e+00
 0.000000e+00 0.000000e+00 0.000000e+00 0.000000e+00 0.000000e+00 0.000000e+00 8.830652e-01 1.169348e-01 0.000000e+00 0.000000e+00
 0.000000e+00 0.000000e+00 0.000000e+00 0.000000e+00 0.000000e+00 0.000000e+00 0.000000e+00 9.600946e-01 3.990540e-02 0.000000e+00
 0.000000e+00 0.000000e+00 0.000000e+00 0.000000e+00 0.000000e+00 0.000000e+00 0.000000e+00 0.000000e+00 9.221793e-01 7.782071e-02
 0.000000e+00 0.000000e+00 0.000000e+00 0.000000e+00 0.000000e+00 0.000000e+00 0.000000e+00 0.000000e+00 0.000000e+00 0.000000e+00
<ENDHMM>
