~o
<STREAMINFO> 1 16
<VECSIZE> 16<NULLD><FBANK><DIAGC>
~h "ctyri"
<BEGINHMM>
<NUMSTATES> 10
<STATE> 2
<MEAN> 16
 5.721849e+00 5.836437e+00 6.035021e+00 6.216206e+00 6.351708e+00 6.533865e+00 6.768771e+00 7.115747e+00 7.730621e+00 8.255093e+00 8.991822e+00 9.767470e+00 1.022679e+01 1.010811e+01 9.549979e+00 9.003152e+00
<VARIANCE> 16
 1.445851e-01 9.706780e-02 1.193869e-01 9.569851e-02 6.788809e-02 7.301361e-02 7.979793e-02 1.951342e-01 5.246807e-01 1.187564e+00 1.412707e+00 1.464528e+00 1.390041e+00 1.481626e+00 1.296652e+00 7.203569e-01
<GCONST> 1.210676e+01
<STATE> 3
<MEAN> 16
 5.564723e+00 6.006980e+00 6.821403e+00 7.255838e+00 6.932280e+00 7.098582e+00 7.408270e+00 7.736377e+00 8.322570e+00 8.814703e+00 9.527003e+00 9.880934e+00 1.040414e+01 1.039527e+01 1.013620e+01 1.011114e+01
<VARIANCE> 16
 2.293888e-01 1.693747e-01 4.837830e-01 8.213046e-01 2.358117e-01 1.653175e-01 2.682286e-01 4.140625e-01 8.666335e-01 1.292045e+00 2.060587e+00 1.991836e+00 1.979154e+00 2.073279e+00 2.171074e+00 2.174157e+00
<GCONST> 2.428161e+01
<STATE> 4
<MEAN> 16
 6.111023e+00 7.632331e+00 8.450969e+00 8.503651e+00 7.658903e+00 7.447779e+00 7.881013e+00 8.659420e+00 9.704455e+00 9.901105e+00 9.821984e+00 1.004424e+01 1.023139e+01 9.880157e+00 9.233411e+00 8.916665e+00
<VARIANCE> 16
 1.761609e-01 6.554592e-01 8.419058e-01 4.545324e-01 2.033364e-01 3.289324e-01 3.804111e-01 3.696751e-01 4.860509e-01 5.473086e-01 1.074516e+00 1.051137e+00 1.274774e+00 1.228023e+00 8.594786e-01 4.923834e-01
<GCONST> 2.000606e+01
<STATE> 5
<MEAN> 16
 6.418703e+00 7.229146e+00 7.865188e+00 8.275792e+00 7.950014e+00 8.216692e+00 8.676496e+00 9.257298e+00 1.025396e+01 1.107264e+01 1.169146e+01 1.195924e+01 1.215435e+01 1.207753e+01 1.185300e+01 1.150778e+01
<VARIANCE> 16
 4.319291e-01 1.057057e+00 1.562443e+00 1.453423e+00 8.417785e-01 8.680412e-01 1.086390e+00 1.272879e+00 1.464072e+00 2.220412e+00 2.662851e+00 2.231980e+00 2.368252e+00 2.839124e+00 4.296334e+00 4.047879e+00
<GCONST> 3.717539e+01
<STATE> 6
<MEAN> 16
 9.455884e+00 1.074737e+01 1.181297e+01 1.133401e+01 1.027234e+01 1.004451e+01 1.046348e+01 1.134758e+01 1.230117e+01 1.264648e+01 1.301529e+01 1.312461e+01 1.322096e+01 1.260546e+01 1.194157e+01 1.149577e+01
<VARIANCE> 16
 1.553169e+00 1.245091e+00 1.145362e+00 8.240460e-01 9.686630e-01 1.023900e+00 1.134303e+00 1.444941e+00 8.643295e-01 9.447602e-01 1.378628e+00 1.646204e+00 1.650452e+00 2.110134e+00 2.988460e+00 2.362443e+00
<GCONST> 3.431279e+01
<STATE> 7
<MEAN> 16
 7.541573e+00 8.736583e+00 1.033742e+01 1.027622e+01 9.020827e+00 8.735388e+00 8.880391e+00 9.301872e+00 1.066823e+01 1.117542e+01 1.130222e+01 1.127212e+01 1.173646e+01 1.136543e+01 1.038276e+01 9.666662e+00
<VARIANCE> 16
 7.212536e-01 6.145822e-01 6.306677e-01 6.092839e-01 5.129349e-01 3.308789e-01 2.866659e-01 1.835671e-01 2.905204e-01 3.807374e-01 3.949913e-01 7.025867e-01 8.324963e-01 1.007691e+00 1.886854e+00 1.793961e+00
<GCONST> 2.047785e+01
<STATE> 8
<MEAN> 16
 6.272378e+00 7.543130e+00 8.901556e+00 9.168596e+00 8.002045e+00 7.740128e+00 7.895169e+00 8.655813e+00 9.790552e+00 1.046887e+01 1.060600e+01 1.083696e+01 1.140508e+01 1.081371e+01 9.284668e+00 8.656829e+00
<VARIANCE> 16
 2.297334e-01 3.399196e-01 9.646548e-01 7.032391e-01 7.094711e-01 4.252340e-01 2.815754e-01 3.965218e-01 4.938343e-01 4.346467e-01 4.171413e-01 5.034521e-01 4.448297e-01 7.432813e-01 1.071188e+00 4.907087e-01
<GCONST> 1.822812e+01
<STATE> 9
<MEAN> 16
 6.528995e+00 7.639787e+00 8.681161e+00 8.203163e+00 7.481627e+00 7.239552e+00 7.463241e+00 8.267954e+00 9.325771e+00 9.395075e+00 8.677981e+00 8.701786e+00 9.035207e+00 8.715767e+00 8.500109e+00 8.568583e+00
<VARIANCE> 16
 2.860229e-01 6.455815e-01 1.007577e+00 4.102291e-01 1.986207e-01 2.195216e-01 2.306764e-01 8.264856e-01 1.361036e+00 6.183316e-01 2.982657e-01 2.466451e-01 3.351054e-01 2.452067e-01 2.185549e-01 1.770709e-01
<GCONST> 1.351034e+01
<TRANSP> 10
 0.000000e+00 1.000000e+00 0.000000e+00 0.000000e+00 0.000000e+00 0.000000e+00 0.000000e+00 0.000000e+00 0.000000e+00 0.000000e+00
 0.000000e+00 9.068247e-01 9.317531e-02 0.000000e+00 0.000000e+00 0.000000e+00 0.000000e+00 0.000000e+00 0.000000e+00 0.000000e+00
 0.000000e+00 0.000000e+00 7.292628e-01 2.707371e-01 0.000000e+00 0.000000e+00 0.000000e+00 0.000000e+00 0.000000e+00 0.000000e+00
 0.000000e+00 0.000000e+00 0.000000e+00 3.278847e-01 6.721153e-01 0.000000e+00 0.000000e+00 0.000000e+00 0.000000e+00 0.000000e+00
 0.000000e+00 0.000000e+00 0.000000e+00 0.000000e+00 7.375234e-01 2.624766e-01 0.000000e+00 0.000000e+00 0.000000e+00 0.000000e+00
 0.000000e+00 0.000000e+00 0.000000e+00 0.000000e+00 0.000000e+00 8.366062e-01 1.633938e-01 0.000000e+00 0.000000e+00 0.000000e+00
 0.000000e+00 0.000000e+00 0.000000e+00 0.000000e+00 0.000000e+00 0.000000e+00 8.730012e-01 1.269988e-01 0.000000e+00 0.000000e+00
 0.000000e+00 0.000000e+00 0.000000e+00 0.000000e+00 0.000000e+00 0.000000e+00 0.000000e+00 9.429772e-01 5.702268e-02 0.000000e+00
 0.000000e+00 0.000000e+00 0.000000e+00 0.000000e+00 0.000000e+00 0.000000e+00 0.000000e+00 0.000000e+00 9.065435e-01 9.345654e-02
 0.000000e+00 0.000000e+00 0.000000e+00 0.000000e+00 0.000000e+00 0.000000e+00 0.000000e+00 0.000000e+00 0.000000e+00 0.000000e+00
<ENDHMM>
~h "sedm"
<BEGINHMM>
<NUMSTATES> 10
<STATE> 2
<MEAN> 16
 5.560183e+00 5.778035e+00 6.076289e+00 6.340292e+00 6.437515e+00 6.631423e+00 6.887987e+00 7.271705e+00 7.581921e+00 7.686153e+00 7.924676e+00 8.416063e+00 9.254201e+00 9.624898e+00 9.932916e+00 9.887169e+00
<VARIANCE> 16
 1.729132e-01 9.977394e-02 1.524612e-01 1.603545e-01 1.197804e-01 1.144816e-01 1.365951e-01 1.534853e-01 1.145634e-01 1.135248e-01 1.941247e-01 2.065666e-01 4.188209e-01 4.099638e-01 4.280702e-01 4.493702e-01
<GCONST> 2.511564e+00
<STATE> 3
<MEAN> 16
 5.787521e+00 6.079149e+00 6.614365e+00 7.062489e+00 6.958691e+00 7.289544e+00 7.652672e+00 8.227759e+00 8.686354e+00 8.698917e+00 9.013546e+00 9.569993e+00 1.048931e+01 1.114476e+01 1.100934e+01 1.073539e+01
<VARIANCE> 16
 2.614503e-01 2.078249e-01 4.125855e-01 4.922094e-01 1.641376e-01 1.523315e-01 2.380683e-01 2.062158e-01 1.761950e-01 1.807044e-01 2.662631e-01 4.236670e-01 6.968898e-01 1.011205e+00 1.479965e+00 1.447106e+00
<GCONST> 1.297898e+01
<STATE> 4
<MEAN> 16
 6.283147e+00 6.883901e+00 7.703553e+00 8.228489e+00 8.112348e+00 8.322288e+00 8.869516e+00 9.489900e+00 9.592499e+00 9.693268e+00 1.007246e+01 1.053585e+01 1.153447e+01 1.245201e+01 1.271066e+01 1.244312e+01
<VARIANCE> 16
 2.404019e-01 5.347883e-01 7.655563e-01 7.727669e-01 3.596357e-01 2.367650e-01 2.240061e-01 3.009306e-01 3.295063e-01 3.869127e-01 6.291236e-01 6.317424e-01 1.200952e+00 2.962115e+00 5.091557e+00 4.935621e+00
<GCONST> 2.318013e+01
<STATE> 5
<MEAN> 16
 8.787575e+00 9.962655e+00 1.106190e+01 1.175312e+01 1.113139e+01 1.068689e+01 1.143064e+01 1.237991e+01 1.176988e+01 1.209973e+01 1.228936e+01 1.244818e+01 1.273483e+01 1.220788e+01 1.183355e+01 1.167697e+01
<VARIANCE> 16
 3.605533e+00 3.092744e+00 3.034579e+00 3.088647e+00 3.130742e+00 2.698022e+00 3.377806e+00 3.339940e+00 2.097372e+00 3.620926e+00 3.507607e+00 3.667503e+00 3.510113e+00 2.792281e+00 4.446154e+00 4.436582e+00
<GCONST> 4.845862e+01
<STATE> 6
<MEAN> 16
 8.925638e+00 1.012560e+01 1.077383e+01 1.097488e+01 1.046854e+01 1.029227e+01 1.074425e+01 1.128598e+01 1.130838e+01 1.148281e+01 1.161172e+01 1.187261e+01 1.187014e+01 1.122213e+01 1.008154e+01 9.990857e+00
<VARIANCE> 16
 2.147053e+00 2.311237e+00 1.195238e+00 7.117996e-01 1.032987e+00 6.011733e-01 6.850068e-01 5.393426e-01 6.594952e-01 6.498529e-01 6.814702e-01 7.242451e-01 7.202753e-01 9.829577e-01 1.412625e+00 8.027488e-01
<GCONST> 2.760115e+01
<STATE> 7
<MEAN> 16
 6.825572e+00 8.004726e+00 9.214206e+00 1.010934e+01 9.747369e+00 9.132205e+00 9.506256e+00 1.052133e+01 1.094437e+01 1.076163e+01 1.122746e+01 1.124295e+01 1.149126e+01 1.084112e+01 9.213552e+00 8.867008e+00
<VARIANCE> 16
 8.047738e-01 7.874399e-01 5.365638e-01 3.585707e-01 8.976921e-01 3.726448e-01 3.586877e-01 4.972628e-01 5.977311e-01 4.760621e-01 7.999273e-01 6.602272e-01 1.022687e+00 1.181210e+00 3.427892e-01 1.770613e-01
<GCONST> 1.997452e+01
<STATE> 8
<MEAN> 16
 6.928851e+00 8.289756e+00 8.870060e+00 8.997914e+00 8.282414e+00 8.197247e+00 8.700312e+00 9.144813e+00 9.292903e+00 9.305793e+00 9.457323e+00 9.683917e+00 9.976460e+00 9.295288e+00 8.291718e+00 8.196098e+00
<VARIANCE> 16
 7.058412e-01 4.471872e-01 5.737632e-01 4.052432e-01 3.731443e-01 4.036339e-01 4.409291e-01 3.060799e-01 2.767641e-01 3.882592e-01 3.608635e-01 6.758588e-01 8.393915e-01 4.010735e-01 2.153337e-01 1.467971e-01
<GCONST> 1.471361e+01
<STATE> 9
<MEAN> 16
 6.566557e+00 7.901830e+00 8.276374e+00 7.988962e+00 7.644009e+00 7.733076e+00 7.829567e+00 7.972348e+00 8.036922e+00 8.205823e+00 8.042316e+00 8.381610e+00 8.755935e+00 8.551909e+00 8.187561e+00 8.272257e+00
<VARIANCE> 16
 2.105197e-01 2.867642e-01 9.163305e-01 5.646319e-01 4.469316e-01 3.824960e-01 4.182816e-01 5.188740e-01 3.618190e-01 3.500575e-01 4.532901e-01 8.626479e-01 7.634942e-01 2.880137e-01 1.253469e-01 1.105305e-01
<GCONST> 1.384675e+01
<TRANSP> 10
 0.000000e+00 1.000000e+00 0.000000e+00 0.000000e+00 0.000000e+00 0.000000e+00 0.000000e+00 0.000000e+00 0.000000e+00 0.000000e+00
 0.000000e+00 8.838170e-01 1.161830e-01 0.000000e+00 0.000000e+00 0.000000e+00 0.000000e+00 0.000000e+00 0.000000e+00 0.000000e+00
 0.000000e+00 0.000000e+00 7.918636e-01 2.081364e-01 0.000000e+00 0.000000e+00 0.000000e+00 0.000000e+00 0.000000e+00 0.000000e+00
 0.000000e+00 0.000000e+00 0.000000e+00 6.640014e-01 3.359986e-01 0.000000e+00 0.000000e+00 0.000000e+00 0.000000e+00 0.000000e+00
 0.000000e+00 0.000000e+00 0.000000e+00 0.000000e+00 5.604870e-01 4.395130e-01 0.000000e+00 0.000000e+00 0.000000e+00 0.000000e+00
 0.000000e+00 0.000000e+00 0.000000e+00 0.000000e+00 0.000000e+00 8.577957e-01 1.422043e-01 0.000000e+00 0.000000e+00 0.000000e+00
 0.000000e+00 0.000000e+00 0.000000e+00 0.000000e+00 0.000000e+00 0.000000e+00 7.647167e-01 2.352832e-01 0.000000e+00 0.000000e+00
 0.000000e+00 0.000000e+00 0.000000e+00 0.000000e+00 0.000000e+00 0.000000e+00 0.000000e+00 9.506139e-01 4.938607e-02 0.000000e+00
 0.000000e+00 0.000000e+00 0.000000e+00 0.000000e+00 0.000000e+00 0.000000e+00 0.000000e+00 0.000000e+00 9.247198e-01 7.528023e-02
 0.000000e+00 0.000000e+00 0.000000e+00 0.000000e+00 0.000000e+00 0.000000e+00 0.000000e+00 0.000000e+00 0.000000e+00 0.000000e+00
<ENDHMM>
~h "sest"
<BEGINHMM>
<NUMSTATES> 10
<STATE> 2
<MEAN> 16
 5.703861e+00 5.738937e+00 5.979387e+00 6.178128e+00 6.349044e+00 6.508053e+00 6.736666e+00 7.286117e+00 8.090252e+00 8.781992e+00 9.389150e+00 1.006956e+01 1.026314e+01 1.025075e+01 9.743453e+00 9.026294e+00
<VARIANCE> 16
 9.822792e-02 9.497545e-02 9.366385e-02 1.179080e-01 6.651187e-02 6.300317e-02 8.528787e-02 1.336125e-01 3.027215e-01 5.234921e-01 4.545657e-01 8.117365e-01 7.712308e-01 6.912472e-01 4.723577e-01 3.339416e-01
<GCONST> 4.961055e+00
<STATE> 3
<MEAN> 16
 5.753638e+00 5.895122e+00 6.156410e+00 6.437379e+00 6.510755e+00 6.711962e+00 7.027200e+00 7.884616e+00 8.896637e+00 9.679055e+00 1.021617e+01 1.081805e+01 1.119032e+01 1.110084e+01 1.063389e+01 9.843760e+00
<VARIANCE> 16
 1.161405e-01 8.713107e-02 1.155195e-01 1.906196e-01 1.043622e-01 1.138418e-01 1.255027e-01 2.357858e-01 4.421706e-01 4.820409e-01 2.119297e-01 4.208588e-01 6.149589e-01 6.334736e-01 4.532043e-01 2.713724e-01
<GCONST> 6.042696e+00
<STATE> 4
<MEAN> 16
 5.733919e+00 6.113909e+00 6.711023e+00 7.088911e+00 6.931093e+00 7.032673e+00 7.342670e+00 8.099463e+00 9.032232e+00 9.653935e+00 1.028174e+01 1.053958e+01 1.081999e+01 1.062029e+01 1.028180e+01 9.786241e+00
<VARIANCE> 16
 9.447881e-02 1.905413e-01 2.136430e-01 3.038286e-01 1.586943e-01 1.290450e-01 2.781395e-01 5.093682e-01 6.380954e-01 9.095422e-01 8.586583e-01 7.679515e-01 1.062555e+00 1.131494e+00 1.586859e+00 1.368959e+00
<GCONST> 1.681097e+01
<STATE> 5
<MEAN> 16
 5.986865e+00 6.780145e+00 7.912435e+00 8.567817e+00 7.886560e+00 7.890385e+00 8.255637e+00 8.963101e+00 1.006067e+01 1.077576e+01 1.150683e+01 1.158758e+01 1.178190e+01 1.163206e+01 1.144604e+01 1.119344e+01
<VARIANCE> 16
 3.249213e-01 7.532746e-01 4.214636e-01 5.344588e-01 4.001696e-01 2.309239e-01 3.117953e-01 5.954289e-01 5.866553e-01 8.818319e-01 1.330634e+00 1.304383e+00 1.386154e+00 1.903263e+00 3.477585e+00 3.284152e+00
<GCONST> 2.574046e+01
<STATE> 6
<MEAN> 16
 8.039878e+00 8.858511e+00 9.971996e+00 1.101795e+01 1.059206e+01 1.023620e+01 1.061941e+01 1.151201e+01 1.187924e+01 1.224704e+01 1.254291e+01 1.276070e+01 1.292271e+01 1.312700e+01 1.293524e+01 1.238107e+01
<VARIANCE> 16
 1.765011e+00 2.292853e+00 2.165916e+00 2.566309e+00 2.435685e+00 1.547041e+00 1.601038e+00 1.988477e+00 1.508695e+00 2.071556e+00 1.802316e+00 1.774626e+00 1.288576e+00 2.058083e+00 3.176469e+00 3.756925e+00
<GCONST> 4.076078e+01
<STATE> 7
<MEAN> 16
 6.461714e+00 7.530171e+00 9.042856e+00 1.021856e+01 1.046019e+01 9.733961e+00 9.794813e+00 1.079940e+01 1.140629e+01 1.109852e+01 1.146454e+01 1.151244e+01 1.183491e+01 1.119027e+01 9.462893e+00 8.730855e+00
<VARIANCE> 16
 2.687388e-01 3.033603e-01 3.188483e-01 2.955406e-01 7.028582e-01 6.550370e-01 3.691965e-01 2.539509e-01 4.102561e-01 3.511687e-01 3.023946e-01 3.133044e-01 6.076732e-01 1.086303e+00 9.595325e-01 5.781375e-01
<GCONST> 1.609584e+01
<STATE> 8
<MEAN> 16
 6.148597e+00 6.896150e+00 7.941689e+00 8.649887e+00 8.201638e+00 8.047363e+00 8.441767e+00 9.118295e+00 9.178567e+00 9.139696e+00 9.185061e+00 9.528090e+00 1.007824e+01 1.051185e+01 1.059086e+01 1.038711e+01
<VARIANCE> 16
 3.401149e-01 7.316879e-01 1.117265e+00 9.564699e-01 5.720717e-01 3.140684e-01 4.410776e-01 8.365340e-01 5.325513e-01 4.687673e-01 6.518570e-01 6.382990e-01 9.249157e-01 2.229425e+00 3.670139e+00 3.188219e+00
<GCONST> 2.628666e+01
<STATE> 9
<MEAN> 16
 5.648975e+00 5.892949e+00 6.419118e+00 7.042537e+00 7.073434e+00 6.936417e+00 7.147316e+00 7.761196e+00 8.040503e+00 8.028559e+00 8.412755e+00 8.964187e+00 9.812141e+00 1.035541e+01 1.037087e+01 1.014099e+01
<VARIANCE> 16
 1.419748e-01 1.385363e-01 2.438927e-01 4.479033e-01 3.506368e-01 1.976355e-01 1.606372e-01 2.298443e-01 3.137486e-01 2.482901e-01 2.588479e-01 3.177567e-01 6.010166e-01 6.420236e-01 4.173644e-01 3.426372e-01
<GCONST> 9.347356e+00
<TRANSP> 10
 0.000000e+00 1.000000e+00 0.000000e+00 0.000000e+00 0.000000e+00 0.000000e+00 0.000000e+00 0.000000e+00 0.000000e+00 0.000000e+00
 0.000000e+00 7.674055e-01 2.325945e-01 0.000000e+00 0.000000e+00 0.000000e+00 0.000000e+00 0.000000e+00 0.000000e+00 0.000000e+00
 0.000000e+00 0.000000e+00 7.653329e-01 2.346671e-01 0.000000e+00 0.000000e+00 0.000000e+00 0.000000e+00 0.000000e+00 0.000000e+00
 0.000000e+00 0.000000e+00 0.000000e+00 2.836173e-01 7.163827e-01 0.000000e+00 0.000000e+00 0.000000e+00 0.000000e+00 0.000000e+00
 0.000000e+00 0.000000e+00 0.000000e+00 0.000000e+00 6.619319e-01 3.380681e-01 0.000000e+00 0.000000e+00 0.000000e+00 0.000000e+00
 0.000000e+00 0.000000e+00 0.000000e+00 0.000000e+00 0.000000e+00 8.906356e-01 1.093644e-01 0.000000e+00 0.000000e+00 0.000000e+00
 0.000000e+00 0.000000e+00 0.000000e+00 0.000000e+00 0.000000e+00 0.000000e+00 8.971144e-01 1.028856e-01 0.000000e+00 0.000000e+00
 0.000000e+00 0.000000e+00 0.000000e+00 0.000000e+00 0.000000e+00 0.000000e+00 0.000000e+00 9.215457e-01 7.845433e-02 0.000000e+00
 0.000000e+00 0.000000e+00 0.000000e+00 0.000000e+00 0.000000e+00 0.000000e+00 0.000000e+00 0.000000e+00 9.131439e-01 8.685610e-02
 0.000000e+00 0.000000e+00 0.000000e+00 0.000000e+00 0.000000e+00 0.000000e+00 0.000000e+00 0.000000e+00 0.000000e+00 0.000000e+00
<ENDHMM>
~h "dva"
<BEGINHMM>
<NUMSTATES> 10
<STATE> 2
<MEAN> 16
 6.219385e+00 7.235171e+00 7.784482e+00 7.753544e+00 7.192138e+00 7.243473e+00 7.627663e+00 7.889480e+00 7.991904e+00 8.129070e+00 8.268449e+00 8.599343e+00 8.654742e+00 8.368111e+00 8.056696e+00 8.115291e+00
<VARIANCE> 16
 2.085292e-01 2.017103e-01 5.053879e-01 4.658337e-01 2.240017e-01 2.527237e-01 3.201185e-01 6.284210e-01 5.159550e-01 5.206175e-01 6.484160e-01 7.588192e-01 7.170499e-01 4.104878e-01 1.497139e-01 1.385352e-01
<GCONST> 1.319354e+01
<STATE> 3
<MEAN> 16
 7.334218e+00 8.206352e+00 8.602411e+00 8.524486e+00 7.879222e+00 7.974096e+00 8.322950e+00 8.262906e+00 8.146737e+00 8.366941e+00 8.418275e+00 8.546289e+00 8.954250e+00 8.720798e+00 8.342927e+00 8.414968e+00
<VARIANCE> 16
 9.126902e-01 9.569159e-01 5.829974e-01 6.417173e-01 3.600037e-01 4.636087e-01 3.696685e-01 3.979737e-01 3.680640e-01 3.934686e-01 3.624416e-01 5.929493e-01 5.223339e-01 3.860163e-01 2.623861e-01 2.742097e-01
<GCONST> 1.687766e+01
<STATE> 4
<MEAN> 16
 7.330606e+00 8.232852e+00 8.954666e+00 9.268764e+00 8.711870e+00 8.723276e+00 9.201307e+00 9.072758e+00 8.811248e+00 9.039792e+00 9.105607e+00 9.349835e+00 9.682366e+00 9.264704e+00 8.701506e+00 8.570231e+00
<VARIANCE> 16
 1.014853e+00 1.103823e+00 5.387464e-01 3.841567e-01 5.760119e-01 7.452548e-01 5.513894e-01 3.420940e-01 3.552538e-01 3.661531e-01 5.208850e-01 6.201193e-01 5.790608e-01 4.075852e-01 7.156264e-01 5.434775e-01
<GCONST> 1.987279e+01
<STATE> 5
<MEAN> 16
 7.748066e+00 8.726108e+00 9.620149e+00 1.012695e+01 9.647875e+00 9.452184e+00 1.002582e+01 9.858373e+00 9.431312e+00 9.613729e+00 9.839193e+00 9.966871e+00 1.036151e+01 1.017080e+01 9.579428e+00 9.404029e+00
<VARIANCE> 16
 1.003978e+00 9.081199e-01 6.627535e-01 2.718206e-01 4.348088e-01 6.077439e-01 7.152501e-01 3.937292e-01 1.503644e-01 2.682107e-01 7.211171e-01 7.165239e-01 7.146252e-01 7.145346e-01 1.093865e+00 9.722302e-01
<GCONST> 2.052005e+01
<STATE> 6
<MEAN> 16
 9.186859e+00 1.008281e+01 1.106732e+01 1.193469e+01 1.216636e+01 1.214686e+01 1.249836e+01 1.207376e+01 1.135689e+01 1.181603e+01 1.216927e+01 1.252703e+01 1.223077e+01 1.197328e+01 1.145822e+01 1.076854e+01
<VARIANCE> 16
 1.590916e+00 1.343381e+00 1.041930e+00 1.180736e+00 1.540220e+00 1.457412e+00 1.101439e+00 7.823376e-01 9.355415e-01 1.801199e+00 1.562017e+00 1.792683e+00 1.164671e+00 1.127630e+00 1.692421e+00 2.059574e+00
<GCONST> 3.410521e+01
<STATE> 7
<MEAN> 16
 6.842333e+00 7.665638e+00 8.676863e+00 9.781787e+00 1.078076e+01 1.118073e+01 1.162926e+01 1.153009e+01 1.030261e+01 1.056111e+01 1.109228e+01 1.139800e+01 1.204302e+01 1.104289e+01 9.251384e+00 8.700520e+00
<VARIANCE> 16
 5.453435e-01 4.839297e-01 4.957597e-01 4.439651e-01 5.032458e-01 4.365750e-01 3.497699e-01 4.214701e-01 1.978406e-01 2.620411e-01 4.030747e-01 4.536157e-01 7.343608e-01 3.883331e-01 7.104013e-01 3.629831e-01
<GCONST> 1.586159e+01
<STATE> 8
<MEAN> 16
 6.574148e+00 7.456856e+00 8.278646e+00 9.624573e+00 1.033564e+01 1.015298e+01 1.036070e+01 9.632504e+00 9.205239e+00 9.509048e+00 9.188947e+00 9.812486e+00 1.002822e+01 9.498158e+00 8.623549e+00 8.386536e+00
<VARIANCE> 16
 3.157419e-01 2.333184e-01 3.784874e-01 6.080720e-01 5.514592e-01 2.381880e-01 1.824237e-01 4.052545e-01 2.226343e-01 3.302066e-01 8.096242e-01 1.113670e+00 7.696773e-01 3.220044e-01 4.233886e-01 2.165468e-01
<GCONST> 1.419610e+01
<STATE> 9
<MEAN> 16
 5.697264e+00 6.190382e+00 6.557917e+00 7.273120e+00 7.765162e+00 8.086535e+00 8.187572e+00 8.120590e+00 7.872675e+00 7.975723e+00 8.216452e+00 8.524130e+00 8.880818e+00 8.649679e+00 8.456458e+00 8.559616e+00
<VARIANCE> 16
 3.233734e-01 4.715135e-01 2.880021e-01 5.650079e-01 8.868410e-01 6.769922e-01 5.615737e-01 3.931521e-01 2.100657e-01 2.425151e-01 2.953822e-01 2.591361e-01 3.356484e-01 3.210634e-01 5.593995e-01 5.850911e-01
<GCONST> 1.479722e+01
<TRANSP> 10
 0.000000e+00 1.000000e+00 0.000000e+00 0.000000e+00 0.000000e+00 0.000000e+00 0.000000e+00 0.000000e+00 0.000000e+00 0.000000e+00
 0.000000e+00 7.724240e-01 2.275759e-01 0.000000e+00 0.000000e+00 0.000000e+00 0.000000e+00 0.000000e+00 0.000000e+00 0.000000e+00
 0.000000e+00 0.000000e+00 5.369682e-01 4.630318e-01 0.000000e+00 0.000000e+00 0.000000e+00 0.000000e+00 0.000000e+00 0.000000e+00
 0.000000e+00 0.000000e+00 0.000000e+00 4.925821e-01 5.074179e-01 0.000000e+00 0.000000e+00 0.000000e+00 0.000000e+00 0.000000e+00
 0.000000e+00 0.000000e+00 0.000000e+00 0.000000e+00 5.068870e-01 4.931130e-01 0.000000e+00 0.000000e+00 0.000000e+00 0.000000e+00
 0.000000e+00 0.000000e+00 0.000000e+00 0.000000e+00 0.000000e+00 8.592697e-01 1.407303e-01 0.000000e+00 0.000000e+00 0.000000e+00
 0.000000e+00 0.000000e+00 0.000000e+00 0.000000e+00 0.000000e+00 0.000000e+00 8.836724e-01 1.163275e-01 0.000000e+00 0.000000e+00
 0.000000e+00 0.000000e+00 0.000000e+00 0.000000e+00 0.000000e+00 0.000000e+00 0.000000e+00 8.820199e-01 1.179802e-01 0.000000e+00
 0.000000e+00 0.000000e+00 0.000000e+00 0.000000e+00 0.000000e+00 0.000000e+00 0.000000e+00 0.000000e+00 9.201449e-01 7.985511e-02
 0.000000e+00 0.000000e+00 0.000000e+00 0.000000e+00 0.000000e+00 0.000000e+00 0.000000e+00 0.000000e+00 0.000000e+00 0.000000e+00
<ENDHMM>
~h "osm"
<BEGINHMM>
<NUMSTATES> 10
<STATE> 2
<MEAN> 16
 6.132028e+00 7.033309e+00 8.276567e+00 9.072568e+00 8.892954e+00 9.065187e+00 8.582375e+00 7.842991e+00 7.853644e+00 8.221786e+00 8.193134e+00 8.655643e+00 9.198901e+00 8.688730e+00 8.390630e+00 8.498223e+00
<VARIANCE> 16
 2.694238e-01 4.472252e-01 8.295023e-01 7.729595e-01 8.101842e-01 6.274590e-01 7.749139e-01 3.666300e-01 1.637170e-01 3.139957e-01 5.611642e-01 1.205474e+00 6.322851e-01 5.285207e-01 3.777113e-01 2.192738e-01
<GCONST> 1.796443e+01
<STATE> 3
<MEAN> 16
 6.530481e+00 7.646411e+00 8.931756e+00 1.002915e+01 1.046061e+01 1.038745e+01 9.819077e+00 8.970492e+00 8.675009e+00 9.079467e+00 9.768338e+00 1.042115e+01 1.081653e+01 9.923153e+00 8.566017e+00 8.580137e+00
<VARIANCE> 16
 2.557072e-01 4.075012e-01 4.462511e-01 4.579059e-01 6.053863e-01 4.448474e-01 8.506902e-01 3.849649e-01 2.182808e-01 5.863016e-01 1.131875e+00 1.498114e+00 7.411749e-01 4.979205e-01 5.984286e-01 2.578746e-01
<GCONST> 1.873504e+01
<STATE> 4
<MEAN> 16
 6.955825e+00 8.039485e+00 9.773138e+00 1.092681e+01 1.113014e+01 1.112483e+01 1.087169e+01 9.764520e+00 9.271726e+00 9.427231e+00 1.053838e+01 1.127135e+01 1.161500e+01 1.109734e+01 9.517306e+00 8.672359e+00
<VARIANCE> 16
 3.825617e-01 7.365956e-01 4.115805e-01 3.222545e-01 5.475621e-01 5.226595e-01 7.387249e-01 3.894161e-01 2.290428e-01 3.205790e-01 5.510778e-01 9.440680e-01 8.656172e-01 5.539210e-01 6.555188e-01 3.152708e-01
<GCONST> 1.804564e+01
<STATE> 5
<MEAN> 16
 8.648429e+00 9.488894e+00 1.043983e+01 1.110799e+01 1.083806e+01 1.126389e+01 1.141542e+01 1.110398e+01 1.101598e+01 1.169112e+01 1.226181e+01 1.287149e+01 1.291309e+01 1.267299e+01 1.204579e+01 1.201998e+01
<VARIANCE> 16
 2.164171e+00 3.087182e+00 2.305254e+00 1.718144e+00 1.805299e+00 1.834652e+00 1.216709e+00 1.077744e+00 1.263784e+00 1.846589e+00 1.625462e+00 1.323667e+00 1.279364e+00 2.448936e+00 4.180034e+00 3.708524e+00
<GCONST> 3.964698e+01
<STATE> 6
<MEAN> 16
 8.247327e+00 9.483372e+00 1.010852e+01 1.008473e+01 9.737598e+00 1.032108e+01 1.055822e+01 1.057224e+01 1.047180e+01 1.079128e+01 1.096624e+01 1.112860e+01 1.129195e+01 1.077161e+01 9.950645e+00 1.006099e+01
<VARIANCE> 16
 1.799862e+00 2.244451e+00 1.146866e+00 5.097857e-01 5.681040e-01 5.027639e-01 7.057354e-01 8.785094e-01 1.077698e+00 1.382741e+00 7.245433e-01 5.060724e-01 4.546079e-01 1.061928e+00 2.345231e+00 2.564870e+00
<GCONST> 2.899601e+01
<STATE> 7
<MEAN> 16
 6.262025e+00 6.984774e+00 7.728081e+00 8.441509e+00 8.249918e+00 8.544490e+00 8.886395e+00 8.974232e+00 9.028592e+00 9.117970e+00 9.615716e+00 1.033457e+01 1.106147e+01 1.138325e+01 1.119084e+01 1.100904e+01
<VARIANCE> 16
 7.719955e-01 1.817065e+00 1.238742e+00 1.114777e+00 8.031035e-01 6.290507e-01 6.810622e-01 5.968659e-01 5.401390e-01 3.481894e-01 2.547718e-01 3.393423e-01 5.406902e-01 1.268765e+00 2.001221e+00 1.818890e+00
<GCONST> 2.528030e+01
<STATE> 8
<MEAN> 16
 7.203820e+00 8.411712e+00 9.300599e+00 8.980186e+00 8.283041e+00 8.875842e+00 9.312107e+00 9.315855e+00 9.263006e+00 9.272275e+00 9.197869e+00 9.666115e+00 9.765209e+00 9.323692e+00 8.629304e+00 8.541492e+00
<VARIANCE> 16
 7.087491e-01 5.757368e-01 7.700665e-01 4.547213e-01 5.599069e-01 8.706223e-01 5.927587e-01 4.566047e-01 3.832343e-01 3.455305e-01 3.626869e-01 4.130327e-01 7.938502e-01 4.384916e-01 4.665520e-01 3.931033e-01
<GCONST> 1.876332e+01
<STATE> 9
<MEAN> 16
 6.144732e+00 7.178149e+00 7.725509e+00 7.871227e+00 7.486453e+00 7.810371e+00 7.969153e+00 7.981803e+00 8.093910e+00 8.312134e+00 8.628757e+00 9.263994e+00 9.698615e+00 9.292367e+00 8.783354e+00 8.796520e+00
<VARIANCE> 16
 3.051327e-01 9.592966e-01 1.208907e+00 9.166327e-01 3.450004e-01 3.968072e-01 5.016296e-01 4.528545e-01 2.952521e-01 3.561908e-01 5.443724e-01 9.433728e-01 9.945624e-01 7.778729e-01 9.960581e-01 8.637694e-01
<GCONST> 2.148387e+01
<TRANSP> 10
 0.000000e+00 1.000000e+00 0.000000e+00 0.000000e+00 0.000000e+00 0.000000e+00 0.000000e+00 0.000000e+00 0.000000e+00 0.000000e+00
 0.000000e+00 5.278252e-01 4.721748e-01 0.000000e+00 0.000000e+00 0.000000e+00 0.000000e+00 0.000000e+00 0.000000e+00 0.000000e+00
 0.000000e+00 0.000000e+00 5.782140e-01 4.217860e-01 0.000000e+00 0.000000e+00 0.000000e+00 0.000000e+00 0.000000e+00 0.000000e+00
 0.000000e+00 0.000000e+00 0.000000e+00 7.120597e-01 2.879403e-01 0.000000e+00 0.000000e+00 0.000000e+00 0.000000e+00 0.000000e+00
 0.000000e+00 0.000000e+00 0.000000e+00 0.000000e+00 8.481982e-01 1.518018e-01 0.000000e+00 0.000000e+00 0.000000e+00 0.000000e+00
 0.000000e+00 0.000000e+00 0.000000e+00 0.000000e+00 0.000000e+00 8.149043e-01 1.850957e-01 0.000000e+00 0.000000e+00 0.000000e+00
 0.000000e+00 0.000000e+00 0.000000e+00 0.000000e+00 0.000000e+00 0.000000e+00 8.637230e-01 1.362770e-01 0.000000e+00 0.000000e+00
 0.000000e+00 0.000000e+00 0.000000e+00 0.000000e+00 0.000000e+00 0.000000e+00 0.000000e+00 8.829384e-01 1.170616e-01 0.000000e+00
 0.000000e+00 0.000000e+00 0.000000e+00 0.000000e+00 0.000000e+00 0.000000e+00 0.000000e+00 0.000000e+00 9.640747e-01 3.592534e-02
 0.000000e+00 0.000000e+00 0.000000e+00 0.000000e+00 0.000000e+00 0.000000e+00 0.000000e+00 0.000000e+00 0.000000e+00 0.000000e+00
<ENDHMM>
~h "pet"
<BEGINHMM>
<NUMSTATES> 10
<STATE> 2
<MEAN> 16
 6.202221e+00 7.307496e+00 8.108678e+00 7.901332e+00 7.128476e+00 6.989884e+00 7.292638e+00 8.113897e+00 9.055926e+00 9.036901e+00 8.585074e+00 8.567281e+00 8.977248e+00 8.825842e+00 8.351262e+00 8.403275e+00
<VARIANCE> 16
 2.797582e-01 5.624719e-01 1.153379e+00 7.837872e-01 2.857145e-01 1.406560e-01 1.115296e-01 4.488483e-01 7.278143e-01 7.940145e-01 7.874179e-01 9.263747e-01 6.139345e-01 4.028226e-01 8.619633e-02 9.513728e-02
<GCONST> 1.418261e+01
<STATE> 3
<MEAN> 16
 6.470353e+00 7.534629e+00 9.296762e+00 9.544707e+00 8.731844e+00 8.063189e+00 8.348737e+00 9.213742e+00 1.046354e+01 1.120833e+01 1.118732e+01 1.125546e+01 1.126021e+01 1.037658e+01 8.818598e+00 8.415988e+00
<VARIANCE> 16
 2.711465e-01 2.700664e-01 5.073852e-01 3.192885e-01 5.872982e-01 2.902302e-01 1.786694e-01 4.140356e-01 3.036035e-01 2.548171e-01 5.116276e-01 8.975788e-01 7.913873e-01 1.360335e+00 4.603100e-01 3.499018e-01
<GCONST> 1.550873e+01
<STATE> 4
<MEAN> 16
 7.218032e+00 8.370881e+00 9.835336e+00 1.043264e+01 9.742358e+00 9.000783e+00 9.179269e+00 1.022044e+01 1.118843e+01 1.150473e+01 1.131056e+01 1.128025e+01 1.138188e+01 1.069066e+01 9.410901e+00 9.081358e+00
<VARIANCE> 16
 1.530603e+00 1.928545e+00 1.400807e+00 4.950720e-01 5.894670e-01 6.657203e-01 9.379447e-01 1.294569e+00 8.122706e-01 9.440276e-01 1.330386e+00 2.253002e+00 1.249886e+00 1.286616e+00 1.441713e+00 1.425605e+00
<GCONST> 3.140886e+01
<STATE> 5
<MEAN> 16
 7.616589e+00 8.752672e+00 1.041602e+01 1.104447e+01 1.061254e+01 9.705462e+00 9.607777e+00 1.020576e+01 1.132827e+01 1.186209e+01 1.183390e+01 1.157004e+01 1.184441e+01 1.127231e+01 1.002460e+01 9.344913e+00
<VARIANCE> 16
 9.442570e-01 1.132701e+00 1.201846e+00 5.552503e-01 7.803008e-01 6.738025e-01 6.425204e-01 6.674062e-01 6.118885e-01 5.679151e-01 7.508081e-01 8.407332e-01 5.086303e-01 5.762282e-01 1.683867e+00 8.530316e-01
<GCONST> 2.519697e+01
<STATE> 6
<MEAN> 16
 9.044513e+00 1.013942e+01 1.139201e+01 1.233589e+01 1.173062e+01 1.109245e+01 1.134665e+01 1.216878e+01 1.282528e+01 1.313473e+01 1.316165e+01 1.332783e+01 1.300023e+01 1.252062e+01 1.198366e+01 1.150772e+01
<VARIANCE> 16
 2.085368e+00 1.952348e+00 1.763790e+00 1.474062e+00 1.047827e+00 1.188812e+00 1.780288e+00 2.051452e+00 1.572209e+00 1.824554e+00 1.782696e+00 2.626079e+00 1.501346e+00 1.732071e+00 3.515505e+00 3.713398e+00
<GCONST> 3.940274e+01
<STATE> 7
<MEAN> 16
 6.576286e+00 7.434073e+00 8.833171e+00 1.009055e+01 9.904732e+00 9.261315e+00 9.481282e+00 1.026740e+01 1.073188e+01 1.060056e+01 1.073011e+01 1.085456e+01 1.107441e+01 1.069524e+01 9.681993e+00 9.333636e+00
<VARIANCE> 16
 2.538258e-01 3.914526e-01 4.591095e-01 5.322143e-01 7.738345e-01 7.472767e-01 5.380734e-01 4.726322e-01 8.584842e-01 9.343697e-01 1.067478e+00 9.342732e-01 1.290900e+00 1.895616e+00 2.533900e+00 2.372685e+00
<GCONST> 2.623645e+01
<STATE> 8
<MEAN> 16
 6.519323e+00 7.511589e+00 8.809157e+00 9.639742e+00 9.027419e+00 8.398276e+00 8.636828e+00 9.841783e+00 1.001738e+01 9.632810e+00 9.558710e+00 9.637227e+00 1.003856e+01 9.533314e+00 8.662305e+00 8.634158e+00
<VARIANCE> 16
 2.129989e-01 3.512229e-01 6.537279e-01 6.041614e-01 3.108547e-01 1.950260e-01 1.213344e-01 3.366467e-01 3.086520e-01 2.966826e-01 6.691210e-01 8.056285e-01 4.058871e-01 3.371719e-01 3.297043e-01 2.941780e-01
<GCONST> 1.255275e+01
<STATE> 9
<MEAN> 16
 5.733904e+00 6.164296e+00 6.885877e+00 7.638838e+00 7.532398e+00 7.320438e+00 7.408896e+00 7.904510e+00 8.272068e+00 8.170240e+00 8.356696e+00 8.556767e+00 8.760565e+00 8.584426e+00 8.472666e+00 8.521949e+00
<VARIANCE> 16
 1.990627e-01 2.635889e-01 4.447167e-01 5.936270e-01 4.246022e-01 3.953053e-01 3.838446e-01 4.118619e-01 4.464851e-01 4.244053e-01 4.708087e-01 4.567549e-01 4.425621e-01 6.219010e-01 7.636295e-01 5.239886e-01
<GCONST> 1.609099e+01
<TRANSP> 10
 0.000000e+00 1.000000e+00 0.000000e+00 0.000000e+00 0.000000e+00 0.000000e+00 0.000000e+00 0.000000e+00 0.000000e+00 0.000000e+00
 0.000000e+00 5.385132e-01 4.614868e-01 0.000000e+00 0.000000e+00 0.000000e+00 0.000000e+00 0.000000e+00 0.000000e+00 0.000000e+00
 0.000000e+00 0.000000e+00 8.022652e-01 1.977349e-01 0.000000e+00 0.000000e+00 0.000000e+00 0.000000e+00 0.000000e+00 0.000000e+00
 0.000000e+00 0.000000e+00 0.000000e+00 7.429945e-03 9.925700e-01 0.000000e+00 0.000000e+00 0.000000e+00 0.000000e+00 0.000000e+00
 0.000000e+00 0.000000e+00 0.000000e+00 0.000000e+00 7.140011e-01 2.859990e-01 0.000000e+00 0.000000e+00 0.000000e+00 0.000000e+00
 0.000000e+00 0.000000e+00 0.000000e+00 0.000000e+00 0.000000e+00 7.765558e-01 2.234441e-01 0.000000e+00 0.000000e+00 0.000000e+00
 0.000000e+00 0.000000e+00 0.000000e+00 0.000000e+00 0.000000e+00 0.000000e+00 9.005370e-01 9.946305e-02 0.000000e+00 0.000000e+00
 0.000000e+00 0.000000e+00 0.000000e+00 0.000000e+00 0.000000e+00 0.000000e+00 0.000000e+00 7.691843e-01 2.308156e-01 0.000000e+00
 0.000000e+00 0.000000e+00 0.000000e+00 0.000000e+00 0.000000e+00 0.000000e+00 0.000000e+00 0.000000e+00 9.185067e-01 8.149321e-02
 0.000000e+00 0.000000e+00 0.000000e+00 0.000000e+00 0.000000e+00 0.000000e+00 0.000000e+00 0.000000e+00 0.000000e+00 0.000000e+00
<ENDHMM>
~h "sil"
<BEGINHMM>
<NUMSTATES> 5
<STATE> 2
<MEAN> 16
 5.564858e+00 5.855420e+00 6.227173e+00 6.485512e+00 6.576034e+00 6.893531e+00 7.085263e+00 7.282512e+00 7.481172e+00 7.527176e+00 7.715529e+00 7.924407e+00 8.146687e+00 8.277699e+00 8.426876e+00 8.621278e+00
<VARIANCE> 16
 1.880894e-01 1.207668e-01 1.265383e-01 1.410050e-01 9.976517e-02 9.756608e-02 1.061058e-01 1.146377e-01 8.791316e-02 8.054511e-02 8.517344e-02 9.909882e-02 1.109556e-01 1.078987e-01 1.357089e-01 1.530145e-01
<GCONST> -5.471025e+00
<STATE> 3
<MEAN> 16
 5.635739e+00 5.742914e+00 5.911531e+00 6.099356e+00 6.263951e+00 6.441365e+00 6.597376e+00 6.762341e+00 7.114219e+00 7.023097e+00 7.176126e+00 7.353314e+00 7.554973e+00 7.651157e+00 7.817091e+00 8.020014e+00
<VARIANCE> 16
 1.157701e-01 1.030212e-01 9.001721e-02 7.273458e-02 6.411796e-02 5.730532e-02 5.002103e-02 4.225840e-02 3.175511e-02 3.230421e-02 2.888875e-02 2.730237e-02 3.261164e-02 2.494551e-02 2.088096e-02 3.723607e-02
<GCONST> -2.011818e+01
<STATE> 4
<MEAN> 16
 5.527497e+00 5.928538e+00 6.177656e+00 6.303722e+00 6.312685e+00 6.503120e+00 6.681723e+00 6.841421e+00 7.115975e+00 7.172468e+00 7.372489e+00 7.617230e+00 7.912293e+00 8.029841e+00 8.099010e+00 8.196691e+00
<VARIANCE> 16
 5.737548e-01 5.301513e-01 6.357314e-01 5.664936e-01 4.544696e-01 3.854463e-01 4.304549e-01 5.753597e-01 6.769241e-01 5.985344e-01 6.921729e-01 7.395216e-01 7.738708e-01 8.318906e-01 8.714902e-01 7.647655e-01
<GCONST> 2.163769e+01
<TRANSP> 5
 0.000000e+00 1.000000e+00 0.000000e+00 0.000000e+00 0.000000e+00
 0.000000e+00 9.552761e-01 4.472386e-02 0.000000e+00 0.000000e+00
 0.000000e+00 0.000000e+00 9.784609e-01 2.153905e-02 0.000000e+00
 0.000000e+00 0.000000e+00 0.000000e+00 6.904802e-01 3.095198e-01
 0.000000e+00 0.000000e+00 0.000000e+00 0.000000e+00 0.000000e+00
<ENDHMM>
~h "tri"
<BEGINHMM>
<NUMSTATES> 10
<STATE> 2
<MEAN> 16
 5.659645e+00 5.847315e+00 6.299585e+00 6.542067e+00 6.687723e+00 6.908403e+00 7.291054e+00 7.747740e+00 8.143452e+00 8.284377e+00 8.498298e+00 9.211746e+00 9.702498e+00 9.752143e+00 9.200956e+00 8.945895e+00
<VARIANCE> 16
 1.446763e-01 1.076328e-01 1.477432e-01 2.014546e-01 1.526124e-01 1.673172e-01 2.383848e-01 2.612907e-01 2.867440e-01 2.744025e-01 3.821394e-01 6.213063e-01 7.724079e-01 8.014054e-01 4.249516e-01 2.954529e-01
<GCONST> 8.750685e+00
<STATE> 3
<MEAN> 16
 5.681691e+00 5.830832e+00 6.144532e+00 6.431814e+00 6.570254e+00 6.757032e+00 7.060603e+00 7.799172e+00 8.418356e+00 8.743299e+00 9.632219e+00 1.075052e+01 1.149025e+01 1.163037e+01 1.090732e+01 1.011233e+01
<VARIANCE> 16
 1.066125e-01 9.595489e-02 1.012417e-01 1.135099e-01 9.504485e-02 1.260890e-01 1.284318e-01 2.998578e-01 2.403331e-01 2.619640e-01 6.339154e-01 9.450994e-01 9.438002e-01 8.040712e-01 6.836525e-01 5.468469e-01
<GCONST> 8.139128e+00
<STATE> 4
<MEAN> 16
 6.158373e+00 6.354417e+00 6.751513e+00 7.140623e+00 7.150322e+00 7.430636e+00 7.679551e+00 8.561769e+00 9.678386e+00 9.762791e+00 1.040919e+01 1.109443e+01 1.168847e+01 1.169189e+01 1.086108e+01 9.655294e+00
<VARIANCE> 16
 2.315197e-01 2.695586e-01 4.360977e-01 5.084059e-01 3.645272e-01 3.989745e-01 4.253368e-01 2.840728e-01 2.512894e-01 2.673528e-01 7.329242e-01 8.927072e-01 9.070175e-01 9.415320e-01 8.902267e-01 3.319773e-01
<GCONST> 1.658285e+01
<STATE> 5
<MEAN> 16
 6.341262e+00 7.216796e+00 8.212675e+00 8.760158e+00 8.211770e+00 8.420650e+00 8.802604e+00 9.368667e+00 1.048283e+01 1.062733e+01 1.127741e+01 1.205860e+01 1.260400e+01 1.255595e+01 1.254341e+01 1.211824e+01
<VARIANCE> 16
 2.989929e-01 5.848902e-01 5.544536e-01 6.350507e-01 5.520485e-01 7.502810e-01 7.413425e-01 3.914501e-01 3.405843e-01 4.253563e-01 9.211138e-01 1.606204e+00 1.981007e+00 2.081323e+00 3.407097e+00 4.263851e+00
<GCONST> 2.705235e+01
<STATE> 6
<MEAN> 16
 8.524878e+00 9.590596e+00 1.070078e+01 1.082309e+01 9.975627e+00 9.938636e+00 1.030890e+01 1.106094e+01 1.188753e+01 1.254431e+01 1.294088e+01 1.322889e+01 1.311258e+01 1.285775e+01 1.254006e+01 1.211912e+01
<VARIANCE> 16
 1.988865e+00 2.149183e+00 2.879381e+00 2.335361e+00 1.414867e+00 1.454839e+00 1.719057e+00 1.833017e+00 1.901776e+00 1.659873e+00 1.587732e+00 2.181649e+00 1.726745e+00 2.584479e+00 4.111513e+00 3.871640e+00
<GCONST> 4.128925e+01
<STATE> 7
<MEAN> 16
 6.665221e+00 7.927934e+00 9.542960e+00 1.006525e+01 8.727697e+00 8.358538e+00 8.536648e+00 9.107606e+00 1.035688e+01 1.141693e+01 1.154558e+01 1.142347e+01 1.177817e+01 1.117843e+01 9.322040e+00 8.709331e+00
<VARIANCE> 16
 7.528808e-01 6.141945e-01 1.120978e+00 2.522405e-01 7.547694e-01 5.825247e-01 3.251006e-01 2.513449e-01 4.660609e-01 2.114566e-01 3.052910e-01 4.578871e-01 4.309244e-01 4.232232e-01 4.764404e-01 3.463917e-01
<GCONST> 1.625722e+01
<STATE> 8
<MEAN> 16
 6.657899e+00 8.144870e+00 9.285085e+00 8.886914e+00 7.883514e+00 7.483780e+00 7.753746e+00 8.505317e+00 9.828273e+00 1.040513e+01 9.934870e+00 9.863877e+00 1.014451e+01 9.511616e+00 8.744019e+00 8.580296e+00
<VARIANCE> 16
 2.423333e-01 2.489842e-01 3.171993e-01 2.954198e-01 3.077427e-01 2.629875e-01 1.585342e-01 3.057155e-01 7.797740e-01 4.160049e-01 8.814976e-01 9.221053e-01 8.349203e-01 6.512278e-01 1.848589e-01 1.612750e-01
<GCONST> 1.323445e+01
<STATE> 9
<MEAN> 16
 6.071163e+00 6.933957e+00 7.680183e+00 7.598751e+00 7.087443e+00 7.038797e+00 7.089407e+00 7.399722e+00 8.288973e+00 8.786555e+00 8.647580e+00 8.653810e+00 9.042385e+00 8.654698e+00 8.205926e+00 8.274019e+00
<VARIANCE> 16
 2.447399e-01 6.280536e-01 8.738120e-01 5.116960e-01 3.120378e-01 2.948472e-01 2.288716e-01 3.342732e-01 6.971612e-01 4.540166e-01 3.984586e-01 3.707041e-01 4.513501e-01 2.944682e-01 1.638511e-01 1.383183e-01
<GCONST> 1.290416e+01
<TRANSP> 10
 0.000000e+00 1.000000e+00 0.000000e+00 0.000000e+00 0.000000e+00 0.000000e+00 0.000000e+00 0.000000e+00 0.000000e+00 0.000000e+00
 0.000000e+00 6.940514e-01 3.059485e-01 0.000000e+00 0.000000e+00 0.000000e+00 0.000000e+00 0.000000e+00 0.000000e+00 0.000000e+00
 0.000000e+00 0.000000e+00 8.199465e-01 1.800535e-01 0.000000e+00 0.000000e+00 0.000000e+00 0.000000e+00 0.000000e+00 0.000000e+00
 0.000000e+00 0.000000e+00 0.000000e+00 6.350278e-01 3.649721e-01 0.000000e+00 0.000000e+00 0.000000e+00 0.000000e+00 0.000000e+00
 0.000000e+00 0.000000e+00 0.000000e+00 0.000000e+00 6.599160e-01 3.400840e-01 0.000000e+00 0.000000e+00 0.000000e+00 0.000000e+00
 0.000000e+00 0.000000e+00 0.000000e+00 0.000000e+00 0.000000e+00 8.281301e-01 1.718699e-01 0.000000e+00 0.000000e+00 0.000000e+00
 0.000000e+00 0.000000e+00 0.000000e+00 0.000000e+00 0.000000e+00 0.000000e+00 8.953080e-01 1.046921e-01 0.000000e+00 0.000000e+00
 0.000000e+00 0.000000e+00 0.000000e+00 0.000000e+00 0.000000e+00 0.000000e+00 0.000000e+00 8.600042e-01 1.399958e-01 0.000000e+00
 0.000000e+00 0.000000e+00 0.000000e+00 0.000000e+00 0.000000e+00 0.000000e+00 0.000000e+00 0.000000e+00 8.631271e-01 1.368729e-01
 0.000000e+00 0.000000e+00 0.000000e+00 0.000000e+00 0.000000e+00 0.000000e+00 0.000000e+00 0.000000e+00 0.000000e+00 0.000000e+00
<ENDHMM>
~h "nula"
<BEGINHMM>
<NUMSTATES> 10
<STATE> 2
<MEAN> 16
 6.532459e+00 7.920250e+00 8.166795e+00 8.150288e+00 7.525292e+00 7.414005e+00 7.258089e+00 7.582205e+00 7.844710e+00 8.037751e+00 8.029202e+00 8.010768e+00 8.561183e+00 8.432330e+00 8.072319e+00 8.186522e+00
<VARIANCE> 16
 2.590972e-01 2.361177e-01 4.465802e-01 3.940652e-01 3.253120e-01 4.072846e-01 1.417997e-01 2.395398e-01 1.508884e-01 4.415670e-01 4.537558e-01 3.285980e-01 4.793295e-01 1.849610e-01 1.334287e-01 1.547331e-01
<GCONST> 8.556118e+00
<STATE> 3
<MEAN> 16
 6.856690e+00 8.352228e+00 9.184502e+00 9.158444e+00 8.510496e+00 8.589067e+00 8.145841e+00 8.255151e+00 8.511527e+00 8.780981e+00 8.635432e+00 8.422782e+00 8.424898e+00 8.283391e+00 8.208180e+00 8.274585e+00
<VARIANCE> 16
 3.428630e-01 3.566318e-01 3.167405e-01 3.200876e-01 3.005432e-01 5.355030e-01 2.237503e-01 2.261894e-01 1.805469e-01 3.319485e-01 5.752885e-01 5.104780e-01 4.200592e-01 2.660075e-01 3.523581e-01 2.948889e-01
<GCONST> 1.170972e+01
<STATE> 4
<MEAN> 16
 6.558760e+00 8.149660e+00 8.626861e+00 9.803500e+00 8.823572e+00 8.821086e+00 9.016655e+00 8.852935e+00 8.699848e+00 9.052578e+00 9.809628e+00 9.998034e+00 9.795856e+00 8.708684e+00 8.146862e+00 8.263997e+00
<VARIANCE> 16
 1.157373e+00 7.938769e-01 1.135141e+00 2.049823e-01 1.892173e-01 3.237765e-01 2.741529e-01 4.831169e-01 4.110861e-01 5.209537e-01 6.276304e-01 6.946709e-01 6.774840e-01 2.500414e-01 2.355914e-01 2.040220e-01
<GCONST> 1.586731e+01
<STATE> 5
<MEAN> 16
 6.845380e+00 8.172336e+00 9.578143e+00 1.011186e+01 9.971143e+00 9.994691e+00 9.859099e+00 9.144923e+00 9.093271e+00 9.410707e+00 9.283795e+00 9.533175e+00 9.638776e+00 9.139533e+00 8.407947e+00 8.302560e+00
<VARIANCE> 16
 4.168450e-01 5.516971e-01 4.964905e-01 6.040179e-02 2.248636e-01 2.071297e-01 2.803466e-01 3.699405e-01 3.260117e-01 4.602225e-01 1.303521e+00 1.027473e+00 7.575371e-01 3.195662e-01 2.029547e-01 1.447744e-01
<GCONST> 1.254598e+01
<STATE> 6
<MEAN> 16
 9.578815e+00 1.076797e+01 1.154031e+01 1.210595e+01 1.188854e+01 1.208440e+01 1.209961e+01 1.151334e+01 1.138306e+01 1.194207e+01 1.241181e+01 1.239575e+01 1.243624e+01 1.164830e+01 1.075137e+01 1.074950e+01
<VARIANCE> 16
 1.961835e+00 1.905375e+00 1.148227e+00 1.420905e+00 1.876860e+00 2.418776e+00 1.316618e+00 9.994555e-01 1.189713e+00 1.464348e+00 1.464069e+00 1.485116e+00 1.380324e+00 1.695548e+00 1.903452e+00 1.764000e+00
<GCONST> 3.639490e+01
<STATE> 7
<MEAN> 16
 8.190005e+00 9.291062e+00 1.030856e+01 1.110499e+01 1.089686e+01 1.101254e+01 1.109756e+01 1.053859e+01 1.004938e+01 9.902896e+00 1.058138e+01 1.093953e+01 1.055425e+01 1.061249e+01 1.040985e+01 9.716042e+00
<VARIANCE> 16
 6.947728e-01 8.776770e-01 1.594511e+00 7.368098e-01 7.300609e-01 6.183842e-01 5.201943e-01 6.145694e-01 3.020496e-01 4.095624e-01 6.013604e-01 7.462719e-01 1.229611e+00 8.469585e-01 9.808255e-01 3.824352e-01
<GCONST> 2.330585e+01
<STATE> 8
<MEAN> 16
 6.506469e+00 7.443451e+00 8.533346e+00 9.902106e+00 1.055073e+01 1.073388e+01 1.110039e+01 1.067424e+01 9.659272e+00 1.003997e+01 1.069079e+01 1.084207e+01 1.146634e+01 1.045682e+01 8.689525e+00 8.383035e+00
<VARIANCE> 16
 2.366274e-01 2.506671e-01 5.688631e-01 2.855871e-01 5.790875e-01 2.951179e-01 5.658910e-01 9.372950e-01 3.412099e-01 5.119175e-01 6.967172e-01 5.626408e-01 8.322670e-01 6.038857e-01 2.351892e-01 1.505839e-01
<GCONST> 1.565311e+01
<STATE> 9
<MEAN> 16
 5.985519e+00 6.610902e+00 6.943145e+00 7.980035e+00 8.486629e+00 8.637568e+00 8.669517e+00 8.359956e+00 7.923494e+00 8.021955e+00 8.246404e+00 8.435125e+00 8.777577e+00 8.544283e+00 8.202002e+00 8.243565e+00
<VARIANCE> 16
 3.069156e-01 6.588792e-01 4.906074e-01 7.613788e-01 5.719699e-01 5.356227e-01 5.085845e-01 5.757536e-01 2.888750e-01 2.919875e-01 4.031798e-01 3.696777e-01 3.898541e-01 2.682070e-01 2.369574e-01 1.839396e-01
<GCONST> 1.464440e+01
<TRANSP> 10
 0.000000e+00 1.000000e+00 0.000000e+00 0.000000e+00 0.000000e+00 0.000000e+00 0.000000e+00 0.000000e+00 0.000000e+00 0.000000e+00
 0.000000e+00 7.532883e-01 2.467117e-01 0.000000e+00 0.000000e+00 0.000000e+00 0.000000e+00 0.000000e+00 0.000000e+00 0.000000e+00
 0.000000e+00 0.000000e+00 7.033666e-01 2.966335e-01 0.000000e+00 0.000000e+00 0.000000e+00 0.000000e+00 0.000000e+00 0.000000e+00
 0.000000e+00 0.000000e+00 0.000000e+00 6.663661e-01 3.336339e-01 0.000000e+00 0.000000e+00 0.000000e+00 0.000000e+00 0.000000e+00
 0.000000e+00 0.000000e+00 0.000000e+00 0.000000e+00 8.694137e-01 1.305863e-01 0.000000e+00 0.000000e+00 0.000000e+00 0.000000e+00
 0.000000e+00 0.000000e+00 0.000000e+00 0.000000e+00 0.000000e+00 8.467907e-01 1.532093e-01 0.000000e+00 0.000000e+00 0.000000e+00
 0.000000e+00 0.000000e+00 0.000000e+00 0.000000e+00 0.000000e+00 0.000000e+00 8.434101e-01 1.565899e-01 0.000000e+00 0.000000e+00
 0.000000e+00 0.000000e+00 0.000000e+00 0.000000e+00 0.000000e+00 0.000000e+00 0.000000e+00 8.921846e-01 1.078154e-01 0.000000e+00
 0.000000e+00 0.000000e+00 0.000000e+00 0.000000e+00 0.000000e+00 0.000000e+00 0.000000e+00 0.000000e+00 8.986534e-01 1.013465e-01
 0.000000e+00 0.000000e+00 0.000000e+00 0.000000e+00 0.000000e+00 0.000000e+00 0.000000e+00 0.000000e+00 0.000000e+00 0.000000e+00
<ENDHMM>
~h "devet"
<BEGINHMM>
<NUMSTATES> 10
<STATE> 2
<MEAN> 16
 7.235068e+00 8.182247e+00 8.284618e+00 8.127791e+00 7.356453e+00 7.080654e+00 7.272023e+00 7.693829e+00 8.118622e+00 8.099360e+00 8.366414e+00 8.471714e+00 8.763949e+00 8.806980e+00 8.673721e+00 8.772709e+00
<VARIANCE> 16
 1.277819e+00 1.515815e+00 9.208609e-01 6.681081e-01 2.504445e-01 1.142580e-01 2.150866e-01 3.055476e-01 3.307795e-01 2.360701e-01 3.417454e-01 5.139432e-01 5.901304e-01 7.318673e-01 1.214106e+00 1.326985e+00
<GCONST> 1.865330e+01
<STATE> 3
<MEAN> 16
 6.928101e+00 7.982533e+00 8.765359e+00 8.990093e+00 7.946290e+00 7.553049e+00 7.932705e+00 8.790292e+00 9.293065e+00 9.254145e+00 9.186611e+00 9.452611e+00 9.757309e+00 9.237181e+00 8.654134e+00 8.584366e+00
<VARIANCE> 16
 1.389050e+00 1.519276e+00 8.076887e-01 4.665513e-01 2.703027e-01 2.004511e-01 1.450189e-01 6.357609e-01 8.540267e-01 6.607901e-01 1.004776e+00 1.151032e+00 1.142692e+00 7.592428e-01 3.251596e-01 2.562467e-01
<GCONST> 2.082391e+01
<STATE> 4
<MEAN> 16
 6.923928e+00 8.005479e+00 9.315081e+00 9.722001e+00 9.073100e+00 8.439925e+00 8.745891e+00 9.405255e+00 1.017128e+01 1.024016e+01 1.014530e+01 1.017748e+01 1.057174e+01 9.903763e+00 8.942255e+00 8.549697e+00
<VARIANCE> 16
 4.696966e-01 5.287498e-01 4.098078e-01 4.870014e-01 7.097705e-01 3.987156e-01 2.664592e-01 5.238693e-01 6.308885e-01 6.757275e-01 1.074413e+00 1.232927e+00 9.355094e-01 1.043380e+00 6.137103e-01 4.511181e-01
<GCONST> 2.129032e+01
<STATE> 5
<MEAN> 16
 7.708798e+00 8.818702e+00 1.020727e+01 1.069831e+01 1.017319e+01 9.477897e+00 9.645888e+00 1.020711e+01 1.119902e+01 1.141972e+01 1.162111e+01 1.144172e+01 1.176200e+01 1.142920e+01 1.002680e+01 9.347371e+00
<VARIANCE> 16
 5.271704e-01 6.941646e-01 8.278932e-01 4.153169e-01 6.755141e-01 3.690173e-01 2.944770e-01 2.435639e-01 3.449650e-01 5.152266e-01 6.054473e-01 6.139243e-01 5.527668e-01 5.396864e-01 1.007369e+00 6.203482e-01
<GCONST> 1.891219e+01
<STATE> 6
<MEAN> 16
 9.689309e+00 1.066748e+01 1.183674e+01 1.242664e+01 1.143519e+01 1.097499e+01 1.153418e+01 1.253066e+01 1.277574e+01 1.307334e+01 1.319401e+01 1.356444e+01 1.304552e+01 1.220977e+01 1.163180e+01 1.119919e+01
<VARIANCE> 16
 1.859145e+00 1.599218e+00 1.328179e+00 1.235190e+00 8.546552e-01 9.414248e-01 1.252409e+00 1.418992e+00 1.133193e+00 1.267681e+00 1.568873e+00 1.932292e+00 1.281682e+00 1.308934e+00 2.567780e+00 2.926400e+00
<GCONST> 3.535379e+01
<STATE> 7
<MEAN> 16
 6.718954e+00 7.384228e+00 8.711899e+00 9.598255e+00 8.899994e+00 8.517521e+00 9.015362e+00 9.762516e+00 9.836926e+00 9.716873e+00 9.896652e+00 1.021282e+01 1.030546e+01 1.034226e+01 1.007638e+01 9.802499e+00
<VARIANCE> 16
 4.615218e-01 6.340746e-01 6.631154e-01 9.964523e-01 7.468255e-01 6.228889e-01 7.584032e-01 6.220783e-01 7.500412e-01 8.755894e-01 1.166549e+00 1.215327e+00 1.379678e+00 2.796863e+00 3.531540e+00 2.624950e+00
<GCONST> 2.975204e+01
<STATE> 8
<MEAN> 16
 6.448669e+00 7.468169e+00 8.860198e+00 9.564869e+00 9.421753e+00 8.630482e+00 8.920966e+00 9.697081e+00 1.075466e+01 1.097637e+01 1.129740e+01 1.132397e+01 1.157073e+01 1.087325e+01 8.784434e+00 8.366399e+00
<VARIANCE> 16
 1.630196e-01 2.182608e-01 6.744806e-01 5.709460e-01 9.826972e-01 5.441330e-01 2.682775e-01 3.782221e-01 4.306185e-01 4.561519e-01 5.218798e-01 5.508353e-01 5.893744e-01 7.076276e-01 2.898814e-01 1.262644e-01
<GCONST> 1.514550e+01
<STATE> 9
<MEAN> 16
 6.145146e+00 7.168499e+00 8.397925e+00 8.768617e+00 8.088120e+00 7.634012e+00 7.921429e+00 8.992202e+00 9.411088e+00 9.323962e+00 9.056205e+00 9.386254e+00 9.591922e+00 8.964569e+00 8.364411e+00 8.411340e+00
<VARIANCE> 16
 1.531517e-01 5.454282e-01 1.091740e+00 9.917510e-01 6.354815e-01 3.434363e-01 3.315347e-01 7.858781e-01 7.928546e-01 9.344463e-01 1.075073e+00 1.667623e+00 7.743621e-01 4.281808e-01 2.261664e-01 2.165862e-01
<GCONST> 2.029960e+01
<TRANSP> 10
 0.000000e+00 1.000000e+00 0.000000e+00 0.000000e+00 0.000000e+00 0.000000e+00 0.000000e+00 0.000000e+00 0.000000e+00 0.000000e+00
 0.000000e+00 5.703747e-01 4.296252e-01 0.000000e+00 0.000000e+00 0.000000e+00 0.000000e+00 0.000000e+00 0.000000e+00 0.000000e+00
 0.000000e+00 0.000000e+00 3.477879e-01 6.522121e-01 0.000000e+00 0.000000e+00 0.000000e+00 0.000000e+00 0.000000e+00 0.000000e+00
 0.000000e+00 0.000000e+00 0.000000e+00 5.067594e-01 4.932406e-01 0.000000e+00 0.000000e+00 0.000000e+00 0.000000e+00 0.000000e+00
 0.000000e+00 0.000000e+00 0.000000e+00 0.000000e+00 8.721479e-01 1.278522e-01 0.000000e+00 0.000000e+00 0.000000e+00 0.000000e+00
 0.000000e+00 0.000000e+00 0.000000e+00 0.000000e+00 0.000000e+00 8.372902e-01 1.627098e-01 0.000000e+00 0.000000e+00 0.000000e+00
 0.000000e+00 0.000000e+00 0.000000e+00 0.000000e+00 0.000000e+00 0.000000e+00 8.127967e-01 1.872033e-01 0.000000e+00 0.000000e+00
 0.000000e+00 0.000000e+00 0.000000e+00 0.000000e+00 0.000000e+00 0.000000e+00 0.000000e+00 9.295182e-01 7.048178e-02 0.000000e+00
 0.000000e+00 0.000000e+00 0.000000e+00 0.000000e+00 0.000000e+00 0.000000e+00 0.000000e+00 0.000000e+00 9.228469e-01 7.715315e-02
 0.000000e+00 0.000000e+00 0.000000e+00 0.000000e+00 0.000000e+00 0.000000e+00 0.000000e+00 0.000000e+00 0.000000e+00 0.000000e+00
<ENDHMM>
~h "jedna"
<BEGINHMM>
<NUMSTATES> 10
<STATE> 2
<MEAN> 16
 6.293700e+00 7.298976e+00 7.778205e+00 7.525908e+00 6.878642e+00 6.779308e+00 7.014500e+00 7.637682e+00 8.241621e+00 8.420903e+00 8.274522e+00 8.283280e+00 8.720002e+00 8.508848e+00 8.341372e+00 8.465850e+00
<VARIANCE> 16
 1.906155e-01 4.260544e-01 9.138699e-01 7.064949e-01 2.611805e-01 1.360400e-01 1.957281e-01 7.249214e-01 9.875157e-01 5.859023e-01 4.693902e-01 6.453175e-01 4.571862e-01 2.853567e-01 2.085959e-01 1.689251e-01
<GCONST> 1.404394e+01
<STATE> 3
<MEAN> 16
 6.434544e+00 7.657950e+00 8.296237e+00 8.311777e+00 7.629237e+00 7.337501e+00 7.400699e+00 8.033901e+00 8.778922e+00 9.488955e+00 9.872339e+00 1.008703e+01 1.018548e+01 9.327917e+00 8.195093e+00 8.105435e+00
<VARIANCE> 16
 1.850205e-01 3.719827e-01 6.494419e-01 6.170831e-01 3.098601e-01 3.261789e-01 4.255987e-01 7.801640e-01 1.065878e+00 1.107803e+00 1.147068e+00 1.515475e+00 1.465449e+00 1.200435e+00 2.010651e-01 7.707898e-02
<GCONST> 1.953790e+01
<STATE> 4
<MEAN> 16
 6.864446e+00 8.190994e+00 9.484018e+00 9.308484e+00 8.271431e+00 7.822484e+00 8.061230e+00 8.584555e+00 9.274452e+00 1.028152e+01 1.057121e+01 1.080479e+01 1.098003e+01 1.005687e+01 8.886796e+00 8.542008e+00
<VARIANCE> 16
 5.230656e-01 6.706674e-01 5.446984e-01 5.117320e-01 1.590713e-01 1.169055e-01 3.819798e-01 5.135379e-01 5.903338e-01 7.381546e-01 9.903036e-01 9.658729e-01 8.827472e-01 9.399284e-01 6.106749e-01 1.800307e-01
<GCONST> 1.819779e+01
<STATE> 5
<MEAN> 16
 6.910778e+00 8.121904e+00 9.883818e+00 1.026222e+01 9.857772e+00 9.008625e+00 9.081064e+00 9.557457e+00 1.051742e+01 1.151360e+01 1.157904e+01 1.163435e+01 1.197161e+01 1.121035e+01 9.420097e+00 8.852187e+00
<VARIANCE> 16
 7.042488e-01 8.577037e-01 6.318337e-01 3.090298e-01 5.982332e-01 2.165302e-01 2.355021e-01 3.127792e-01 4.534841e-01 6.672142e-01 9.642748e-01 7.026985e-01 6.349245e-01 7.344223e-01 8.649682e-01 2.636461e-01
<GCONST> 1.879060e+01
<STATE> 6
<MEAN> 16
 9.422230e+00 1.061112e+01 1.132007e+01 1.156109e+01 1.067428e+01 1.050250e+01 1.110544e+01 1.154878e+01 1.190151e+01 1.221876e+01 1.264562e+01 1.277095e+01 1.240847e+01 1.135549e+01 1.067752e+01 1.068851e+01
<VARIANCE> 16
 1.306960e+00 1.332074e+00 1.200500e+00 1.133390e+00 1.526561e+00 2.060295e+00 2.246237e+00 1.515427e+00 1.275090e+00 1.742042e+00 2.079422e+00 2.330524e+00 1.471191e+00 1.493517e+00 2.126194e+00 1.966592e+00
<GCONST> 3.723335e+01
<STATE> 7
<MEAN> 16
 8.184224e+00 9.096132e+00 9.860455e+00 1.038510e+01 9.703446e+00 9.412382e+00 9.643142e+00 1.022846e+01 1.051406e+01 9.981827e+00 1.016607e+01 1.043177e+01 1.026818e+01 9.981255e+00 9.642392e+00 9.104410e+00
<VARIANCE> 16
 5.401696e-01 5.903952e-01 8.498678e-01 5.890530e-01 6.950177e-01 1.252528e+00 1.397017e+00 1.633225e+00 1.033015e+00 6.498176e-01 8.090861e-01 1.380744e+00 1.474377e+00 9.905952e-01 8.998612e-01 3.325833e-01
<GCONST> 2.714213e+01
<STATE> 8
<MEAN> 16
 6.632885e+00 7.679850e+00 8.526524e+00 9.123547e+00 9.488891e+00 9.604836e+00 9.836823e+00 1.033362e+01 1.004994e+01 9.872745e+00 1.019417e+01 1.030107e+01 1.089300e+01 1.016304e+01 8.428762e+00 8.214708e+00
<VARIANCE> 16
 1.684864e-01 3.612385e-01 4.668272e-01 6.112460e-01 1.101021e+00 1.832897e+00 2.322149e+00 2.305976e+00 6.600847e-01 4.704129e-01 1.043322e+00 1.108188e+00 1.050437e+00 8.768721e-01 2.717845e-01 1.055445e-01
<GCONST> 2.307504e+01
<STATE> 9
<MEAN> 16
 6.244595e+00 7.158826e+00 7.667308e+00 8.382921e+00 8.641946e+00 8.570092e+00 8.854671e+00 8.851598e+00 8.520147e+00 8.589375e+00 8.557563e+00 8.938777e+00 9.142146e+00 8.660634e+00 8.126893e+00 8.225369e+00
<VARIANCE> 16
 1.931055e-01 4.709260e-01 7.825286e-01 9.013989e-01 1.265227e+00 8.769204e-01 8.823300e-01 5.435785e-01 4.212359e-01 5.956105e-01 6.192693e-01 8.269597e-01 5.656421e-01 2.462908e-01 1.088733e-01 9.514257e-02
<GCONST> 1.743564e+01
<TRANSP> 10
 0.000000e+00 1.000000e+00 0.000000e+00 0.000000e+00 0.000000e+00 0.000000e+00 0.000000e+00 0.000000e+00 0.000000e+00 0.000000e+00
 0.000000e+00 7.980417e-01 2.019583e-01 0.000000e+00 0.000000e+00 0.000000e+00 0.000000e+00 0.000000e+00 0.000000e+00 0.000000e+00
 0.000000e+00 0.000000e+00 8.472982e-01 1.527018e-01 0.000000e+00 0.000000e+00 0.000000e+00 0.000000e+00 0.000000e+00 0.000000e+00
 0.000000e+00 0.000000e+00 0.000000e+00 3.938977e-01 6.061023e-01 0.000000e+00 0.000000e+00 0.000000e+00 0.000000e+00 0.000000e+00
 0.000000e+00 0.000000e+00 0.000000e+00 0.000000e+00 6.708286e-01 3.291714e-01 0.000000e+00 0.000000e+00 0.000000e+00 0.000000e+00
 0.000000e+00 0.000000e+00 0.000000e+00 0.000000e+00 0.000000e+00 8.681024e-01 1.318976e-01 0.000000e+00 0.000000e+00 0.000000e+00
 0.000000e+00 0.000000e+00 0.000000e+00 0.000000e+00 0.000000e+00 0.000000e+00 8.316913e-01 1.683087e-01 0.000000e+00 0.000000e+00
 0.000000e+00 0.000000e+00 0.000000e+00 0.000000e+00 0.000000e+00 0.000000e+00 0.000000e+00 9.276524e-01 7.234763e-02 0.000000e+00
 0.000000e+00 0.000000e+00 0.000000e+00 0.000000e+00 0.000000e+00 0.000000e+00 0.000000e+00 0.000000e+00 9.288940e-01 7.110602e-02
 0.000000e+00 0.000000e+00 0.000000e+00 0.000000e+00 0.000000e+00 0.000000e+00 0.000000e+00 0.000000e+00 0.000000e+00 0.000000e+00
<ENDHMM>
